6.891084121833996462e-03 -3.666156965212447570e-03 -2.794970856612470980e-03 7.523264523427044756e-03 6.070729010544655829e-03 -2.575988127109580215e-03 -1.888745720107810888e-03 -1.715359223013347006e-04 4.553501634902822753e-04 -3.143283726087685824e-03 5.208181075050990691e-03 -5.286099169534186001e-03 -2.768482009597378508e-03 2.522328953936961438e-03 5.549196592999855113e-03 -6.780073462453391729e-03 6.546781184286910166e-04 5.292120884940961639e-03 6.910352180001303607e-03 -8.149864827728720354e-03 8.344291714316148106e-04 -2.175269103945571408e-03 -8.580963231316967796e-04 1.015636404435651952e-03 1.086297937971039337e-03 3.671034575020718643e-03 -2.378569151073748646e-03 -3.731748425913634232e-04 7.547145578729373347e-03 -1.618441855673419250e-03 -5.534328685904838820e-03 5.392276087247217797e-03 6.084308861606149352e-03 3.308991194561648752e-03 -4.655780473033711148e-03 3.159731179812342791e-03 -2.951243606244485264e-03 7.596422688379950508e-03 3.170189740356868166e-03 -7.020409787344188135e-03 -4.386125384844676359e-04 -6.183628966780107400e-03 8.887491975630660429e-04 -5.905717407651900515e-03 7.835974582168571054e-03 -3.109519530718894871e-03 5.419079845054977640e-03 2.882243062220703894e-04 1.880365443317029081e-03 3.487875849671006820e-03 -2.450437758302484795e-03 -5.483224376925369473e-03 2.089802279929994094e-03 7.833112797852126094e-03 5.182891009525177756e-03 -2.446179008468221498e-03 -4.467050025667093638e-04 -9.284602082903214981e-04 5.637407231196094048e-03 3.512351992423990571e-03 5.289896267171889307e-03
7.539373661090304282e-03 -1.719851920753440178e-03 -4.602653655641610400e-03 -4.358208523787309233e-03 2.003087104495716517e-03 -4.761114524880156150e-03 -6.900711269448673787e-03 6.918376809473412298e-03 -3.499234862346173140e-03 1.735925193552440710e-03 -2.694341021950004585e-03 -3.967946151613195062e-03 2.585615295737383676e-03 2.861426585543742213e-03 -1.552804701248344625e-03 -2.199457055781781252e-03 -7.820910160239478298e-03 -7.645157359025224128e-03 6.339589130544994594e-03 -1.777166890782586745e-03 -7.929341717408725648e-03 3.292360809068394997e-03 3.420501005859801630e-03 6.376315791685929074e-04 6.185459421365533533e-03 5.130045186743219590e-03 -2.714971405557411489e-03 8.940622717694499816e-04 5.607286512357215202e-04 -3.191663804966750340e-04 3.787473776207733039e-03 2.370439462075638395e-03 -3.791007192528953601e-03 -5.043062140139605715e-03 1.735679298903341702e-03 5.724594968680902368e-03 -8.027232716155094025e-03 7.420920894696059547e-03 3.214116401957711408e-03 4.767987469950890275e-03 -7.551332053910776027e-03 3.322276910027495075e-03 -1.731011306307662576e-03 -6.182338880541769603e-03 -4.537268017866740756e-03 1.733074007953482737e-03 -3.291119083616535039e-03 -4.790536009406314889e-03 -8.012758433407913758e-03 6.236396483741827798e-03 5.639838284562537912e-03 -6.193901849702979773e-03 5.262221296670184165e-03 -3.187892281144751039e-03 -3.713233410442193932e-03 6.892140251638353976e-03 -8.395312312085741191e-04 7.006947815522539605e-03 -2.032169057348571541e-03 6.346232504661455248e-03 -3.388515112037738392e-03
7.152501105500396958e-03 -1.484875116226913594e-04 1.858940567091797030e-04 -3.896597014056215301e-03 7.437631949147467322e-03 -2.186293375044745871e-03 1.727033606200583868e-03 7.271367442778061546e-03 -6.503377232870056861e-03 -6.324553484117734735e-03 -3.146129900186664906e-03 4.907774025382099364e-03 1.176590475303104094e-04 6.829807563821645860e-03 -2.010995184336741848e-03 -4.322296494233348468e-03 5.606799239834507273e-03 -6.796546269977694378e-03 -5.978641655066334326e-03 -6.166258909866773052e-03 -5.430613457921269413e-03 -4.389885746555713571e-03 4.528749445523224532e-04 -1.657311556240418163e-03 1.432989779290273769e-03 -9.765470957318602915e-04 7.218834872638897268e-03 -3.656226651033974394e-03 7.943336501307560193e-05 -6.097787702575614352e-03 4.683280364996895290e-03 -6.879289082087453391e-03 5.886850009562719435e-03 -4.956746189040874689e-03 1.290232131235092769e-03 -9.265482056805933453e-04 -5.524067753508957179e-03 -7.731240085936632277e-03 -3.789611768879754157e-03 6.836531937099177628e-03 1.429631357466336697e-03 7.905886231489108254e-03 6.089224538249844720e-03 -7.457383798789053719e-05 -2.713938649444407047e-04 -7.208315318343395776e-03 -4.722513788604913373e-03 -1.508878307717770491e-03 -6.675530961624450907e-03 -2.769071082647026928e-03 1.468488127050856379e-03 2.832590158980729036e-03 3.789983226083957352e-03 5.734651451243338166e-03 6.090632991063585702e-03 4.819815599989609942e-03 7.782474321684241039e-03 -6.314169114289896675e-04 -7.939839696394057622e-03 -8.060224522878460529e-04 4.211480741328852556e-03
-9.097240662231664832e-04 -4.197815932585246580e-03 -1.701422563078116429e-04 4.689024103407856900e-03 6.105007292045987188e-03 3.200143486919626926e-03 5.994601779129922481e-03 -6.199495393330936577e-03 -5.885480491060414779e-03 -3.486887222389909585e-03 8.170646075127250066e-03 7.290928482413843587e-03 4.894091584231159697e-03 3.940748894509777875e-03 3.245791344151590513e-03 -5.409406307112542278e-04 -7.504402148426484072e-03 -1.242280063744909645e-03 7.982380066612287592e-03 -5.583753486557518561e-03 1.538385723864830676e-03 4.287710981935297094e-03 -7.644579999292696638e-03 1.087350124821714545e-03 -2.042785997820432270e-03 -6.900687143674866242e-03 5.697631293030067101e-03 -1.041269026027523067e-03 6.181873791629502457e-03 6.569161169597392130e-04 -7.222716839756759474e-03 3.999449416966543297e-03 -6.541968516722139471e-03 -1.959081722267830283e-05 -8.146733650199612653e-03 -4.083442946764548331e-03 5.822376157993644843e-03 4.109462878355406995e-03 -3.152860350566015837e-03 2.244132889272696524e-03 -2.942926160144111736e-04 -3.492607707034824788e-04 6.271379428395713537e-03 2.847142574398399059e-03 -8.616588051071037702e-05 2.969563460264199733e-03 -2.164110637915807323e-03 -1.092106645270363857e-03 -1.241484094938779224e-03 -2.624292281988084216e-03 3.376077659747182130e-03 -8.120985108467086711e-03 -3.724927275857163773e-03 -1.460797686370255560e-03 -1.086348027212517831e-03 -6.890131374900892308e-03 7.422663736855197869e-03 6.264806351080585978e-03 -2.144427107530330959e-03 3.712823884940555375e-03 -1.427920761318323545e-03
-6.538925545163292233e-03 -1.439768418042599793e-03 -4.938857166793697399e-03 1.429839830474911519e-03 1.693131808167843907e-03 -7.819996258826081292e-03 -7.017820922748562590e-03 5.976567554029837970e-03 -6.360769518791401823e-03 2.155936345326979475e-03 -7.472792317749854876e-04 -3.162831598947160594e-04 1.527733969230126582e-03 -5.733181544906595928e-03 -4.020572433058685301e-03 -4.780042657536888624e-03 5.404754340575204652e-03 -1.097542462476694923e-03 5.826102202086423654e-03 -5.842361323582672718e-03 3.797615024501353048e-03 -2.837771657077646850e-03 -7.883052695874073409e-03 4.470357224012105196e-03 3.788680019510248451e-03 -1.778491551255815400e-04 3.784808140018448841e-03 -4.378775264905040293e-03 3.566266473962213454e-03 -1.133010515589666714e-03 2.305969793844753549e-03 -1.305208176829309417e-03 4.351637025752839311e-03 -3.482942925067128957e-03 5.841896459226732230e-03 7.743008386076210073e-03 -1.128938581451628502e-03 -2.447540509724649427e-03 3.225416901504511713e-03 7.728550724354339360e-03 -1.856176324855071842e-03 5.412949623243533404e-05 1.646340804635458566e-04 3.856676927180774719e-03 5.640939085538056869e-03 2.853863752595225609e-03 1.969939861699982614e-03 4.800601648461428478e-04 -5.615530927923525865e-03 3.694285941243260693e-03 3.036251551511916225e-03 7.563345137772460938e-03 1.474957956157877531e-03 6.990103856638667235e-03 -5.033405160667278437e-03 6.385162267750500373e-03 -3.522778644792241148e-04 -7.304960528264637862e-03 2.763855264200820033e-03 2.748352515959343739e-04 -3.248099413155823741e-03
3.957288383769666865e-03 5.065488228635194046e-03 -8.058084029632079856e-03 5.036219442933059787e-03 -5.698421353742991885e-03 -4.580749309852413104e-03 6.883663964099078283e-03 4.542990571982071304e-03 -1.233861487844365758e-03 1.208455766254525748e-03 3.509038473913954001e-03 -3.980043488017129261e-03 -3.576669229388098128e-03 -4.817212469289249357e-03 -2.660881946590878087e-03 2.848353793484564161e-03 -2.083159932549105003e-03 6.387100642512140436e-03 2.876884959698441935e-03 3.546848530674722930e-03 -9.289150080981503979e-04 3.826590456431773826e-03 6.125415435958654967e-03 -6.935479429223715200e-03 -6.884461758881237070e-03 -6.895168177467438445e-03 -7.058344621179929793e-04 -3.853993404873805491e-03 5.949331420517412969e-03 -7.330120684539233322e-03 -7.328950047113649661e-03 5.813124670519583675e-04 -4.156249760584023595e-04 -4.743842821180932132e-03 -5.865994857938280557e-03 6.890698028437468314e-04 -3.855174699171746815e-03 1.540746621689932996e-03 -1.021994527153156224e-03 3.301963400624656486e-04 -2.405207851164216717e-03 8.138717239350232516e-03 -3.816728511624855463e-04 -4.128014087247573044e-03 -1.279859159636000977e-03 4.285978522572311128e-04 -7.656723480053527139e-03 2.608982947879621289e-04 8.078422835427223961e-03 9.688252706996688252e-04 -7.414518644342834447e-03 -8.006050590179988879e-03 -1.948002710533685601e-03 -8.131934634507493806e-03 -7.040653488141597471e-03 8.966125440192894425e-04 3.540673398540108291e-03 -4.527308342594037194e-03 1.892955980818858408e-03 -8.084986682579158729e-03 1.382280141342947383e-03
7.869895365782064375e-03 -7.562611709308363246e-03 3.380735214694858409e-03 -1.192785281207548592e-03 3.902549031320151282e-03 6.726737377914744631e-03 -7.916365657494083344e-03 6.177558878602166376e-03 2.018126188384964173e-03 -7.797135424882138330e-03 7.652893222909271792e-04 -1.936852280588654066e-03 -7.048446528682019048e-03 -2.216701379539389241e-03 3.796352157132767968e-03 1.642767664169798858e-03 -7.123225869617702891e-03 -1.083044876485495314e-03 1.181974904966619569e-03 7.881497271460166307e-03 7.567750581738653601e-03 2.802423401424338281e-03 -7.007113173710203050e-03 6.471562811464900630e-03 -6.988298589512588477e-03 -2.861667452831604709e-03 -7.072418302227375525e-03 -1.871038178524163549e-03 -6.113324495875959060e-03 5.950508521991007896e-03 -7.494024933548501695e-03 3.741703512933895748e-03 -3.590881793497891286e-03 7.111045248148890191e-03 -4.135111064637628925e-03 7.529940057408200313e-03 -1.995670109203952040e-03 -9.788814207114908406e-05 -3.915542926644844345e-03 -5.558176998666621363e-03 -2.103027394138472228e-03 -6.919711272437945732e-03 -3.870332194203955634e-03 -6.875866280091033275e-03 -3.772878195947086157e-03 -3.618500559136306020e-03 4.018349688209358478e-03 6.740402003096699485e-03 6.591672080948875884e-03 5.598521499337528323e-03 -6.271419891988117348e-03 4.087242031371266307e-03 3.433568873718668285e-03 6.003136951412945885e-03 5.957074184592349789e-03 -7.114988390202883067e-03 4.727775070047485206e-03 6.933131048260120222e-03 -2.494812206083247587e-03 -6.138130737105047460e-03 7.859989256277956707e-03
-1.669687179717110545e-03 6.788535957476775004e-03 6.883264842953444942e-03 -7.562201091725478941e-03 4.960478508834569034e-04 3.425351114641593184e-03 -6.394556114630975743e-03 2.493525077941535079e-04 -7.556666679907581702e-03 6.097881433843821419e-03 1.341329341076506060e-03 -4.098063937704814717e-03 -7.554208223730506967e-03 -1.026651287849022348e-03 5.390892408765080371e-03 3.233470185163015570e-03 6.044852374664332409e-03 -6.209008995318477178e-03 1.848911461443294990e-03 4.923456391980291641e-03 -8.188069549861388269e-03 7.026223083064091907e-03 -4.424120903955639644e-03 -4.356531886619620028e-03 -2.911854734306898451e-04 5.640163972650061308e-03 -7.309826048178891603e-03 3.153223008544680725e-03 -4.988665973240376077e-03 -5.550208300488653976e-03 7.673849202058756827e-03 1.138507323550017047e-05 4.691280499592546949e-03 -4.232238849716300072e-03 -5.905120223119349199e-04 -5.173617259003598229e-04 1.486489755183416361e-03 -2.196695304077650457e-05 -1.617442270364544306e-03 -6.189736722638403479e-03 1.749006281147278200e-03 -2.449761285629609327e-03 6.131188774738054181e-03 9.998985307994694149e-04 6.732527000261482111e-03 6.374941487182171629e-04 3.545474225741290092e-03 6.526575673332339275e-03 -9.276553918835693177e-04 -6.302441098065800912e-03 8.290709790073867713e-04 4.708393332318349875e-03 2.975938325506190599e-03 3.195922256990432753e-03 -7.585867194226949238e-03 -5.562201875046742655e-03 -6.079324648661426321e-03 5.686790051442470670e-03 -1.273795911140627665e-03 -8.156803423090884173e-03 4.317686343554474199e-03
2.334228899754989955e-03 -5.636577171631667466e-03 -2.579403729540920807e-03 -6.722282101782731979e-03 -2.275172901177642711e-03 -2.209834691531651317e-03 1.562135955957924885e-03 -5.773498206240445900e-03 -3.420766035739044968e-03 -3.972487160339537894e-03 1.003210599625440486e-03 -7.333892095752820445e-03 -1.544562313718509695e-03 6.921878894636145779e-03 4.639406240850943788e-03 8.193850043912825551e-03 -6.286363682270748252e-03 -6.343733447262251378e-03 2.140204666658981209e-03 5.346940349468419160e-03 -5.285665500975251022e-04 2.020796159577306281e-03 -7.501254470099235315e-03 8.151377489791318195e-03 7.191180378419023689e-03 -5.620406860168565381e-03 -6.560032777149571621e-03 -6.218469233340188224e-03 1.863311708990105647e-03 3.946799440095679484e-03 4.700049069967352638e-03 -6.289997356686618038e-03 -2.152209585065311716e-03 -3.783152968715071396e-03 -4.164228632667711476e-03 5.454078205948363622e-03 -2.572839387044363949e-03 1.500529091910471000e-03 -3.669405856395122068e-04 -6.494623441847315395e-03 6.849192063320809140e-03 6.475936000943618293e-03 2.162388843094871158e-03 -9.216218242913834860e-04 4.634252753075305403e-03 4.215269244771096407e-03 7.324802761112646915e-04 -7.217626885702532573e-03 2.228952608666982457e-03 5.398433091485200716e-03 4.063550590327338202e-03 1.103729546144145007e-04 2.605046422901291861e-03 -7.299787916801031215e-03 -3.869357614478229068e-05 8.045194906045204444e-03 4.843491028917313104e-03 4.669621841999326700e-04 7.017039206687688754e-03 -6.730678700692575497e-03 2.817251800804476333e-03
5.168311161600156953e-03 -2.852311125628487383e-03 -3.303391565928973095e-04 -8.136090415209192017e-03 -1.263068940087788000e-03 4.975149709907580528e-03 -4.164611473268200158e-03 -1.138580458754223125e-03 -3.742058405281472808e-03 9.570211324549000864e-04 -4.294099331076601037e-04 6.723316715239747651e-03 7.703145729968502095e-03 1.652752387777636778e-03 6.774068719959279103e-03 -7.330000291994233190e-03 5.753795405059793783e-04 3.987307125899989049e-03 5.794726854473788644e-03 1.806158765157375376e-03 7.616198753089798226e-03 1.504811805574631303e-03 7.090867756106749090e-03 7.687545817628814102e-03 -8.763049869193843822e-05 -1.884944104412747054e-03 1.494626923971148491e-04 2.744545556287713087e-03 4.109340014737214442e-03 -4.798040053389328492e-03 -3.940606761498051391e-03 3.395377686588823760e-03 7.920766855053601799e-03 5.913203198826336160e-03 1.212565672949824855e-03 -7.393029935227389202e-03 -4.490280666730976991e-03 7.232880584623827339e-03 6.662172093302453496e-03 3.308905828174443092e-03 3.106192286995957189e-03 5.727225723596029300e-03 -4.176991117449133442e-04 -5.774262501119844029e-03 -5.101033484423633628e-03 -3.032585538904814838e-03 1.983528596668530583e-03 -5.136507054774842873e-03 -7.126138017536971618e-03 5.323141902459985197e-03 3.859297449048214659e-03 -1.833111442304176907e-03 -2.700954873164205204e-03 1.715944440565206341e-03 7.243420157492770975e-03 1.849593562488136000e-03 -1.578420123042478633e-03 4.159898821940269734e-03 -3.395488596196664412e-03 2.935006061544221528e-03 -6.285245444127892517e-03
1.819662839180764477e-03 1.395917714097975187e-03 -7.159636899019966583e-04 -2.656635283242770457e-03 -3.291452090953340612e-03 -7.223385044788080932e-03 -3.368537969749821684e-03 -5.199732515368063641e-03 1.937191670699672449e-03 2.286438212580564275e-03 -3.131995444234976327e-03 5.704644306098061862e-04 -4.206695663623487638e-03 5.281432117382618349e-03 -6.679036243522749883e-03 -3.607118437048121087e-03 3.571672050703453283e-03 -4.083628677991082284e-03 -2.602330734567843105e-03 -5.799416856154255076e-03 2.319588616417234128e-03 -1.924773066901541881e-03 -7.182746003126178405e-03 -7.640635220866232209e-03 3.506482059829410525e-03 7.204757688146346331e-03 7.587867994475782848e-03 2.527038920073188324e-03 8.143284983044824996e-03 7.425580000685298374e-03 7.838413498790270176e-03 6.440906957390149512e-03 -4.826129732393905254e-03 5.285421916802387696e-03 -1.283159549011626821e-03 5.374258870840182764e-03 -7.051871865164238348e-03 -1.198292809334366993e-03 6.276817654562658055e-05 -6.977926162200919109e-03 -7.438375194220674808e-03 -2.574361357509172277e-03 3.907586131008174146e-03 -5.822133757619064875e-03 -7.756639895106871505e-04 -1.819814578628834410e-03 -7.078008191452299543e-03 -7.412524497494057431e-03 5.776872442600550564e-03 -3.670113358753146135e-03 2.575654827686320661e-03 -3.778265804745286303e-03 7.263291614363894672e-03 2.043052851413941148e-03 2.544779332380585346e-03 -5.629469592648038076e-03 -9.742051894126536535e-04 -3.931964616922018277e-03 4.744277943626374824e-03 2.027738757955484250e-03 -4.068978029296505330e-04
5.605551054077562156e-04 6.038852631662542519e-03 7.958484605467570222e-04 -7.952098600200621301e-03 -2.478416591916874669e-03 -3.228881878107133299e-03 -6.754066676162787629e-03 4.808719284667469646e-04 3.926615415705998757e-05 -4.035499316118441003e-03 -5.239523980020503388e-03 3.076007524648023336e-03 2.332863312165074296e-03 3.413330996608315848e-03 -2.488861556029360773e-03 -6.158848173921685834e-03 4.783870912292015332e-03 7.399454669104851140e-03 3.850337865148135974e-03 4.392174884059307088e-04 -5.235362732285515561e-03 -7.443609021165864537e-03 2.393401234491603080e-03 -3.061160750334850945e-03 -1.400549082174809556e-04 -4.395702111803009154e-04 -2.769993109448134691e-03 -5.348673023367291578e-03 -2.951970780758110882e-03 -3.051230311773878677e-03 -2.065846803332630106e-03 3.177423277752415218e-03 -6.626988626404915241e-03 1.148524355862583918e-04 -5.963698353081007056e-04 -3.891035711525528754e-03 -6.414070182312795951e-03 -5.816026012966154374e-04 -3.971514861868206785e-03 -3.835792669304127940e-03 -5.210571411520625515e-03 -3.540176370496567367e-03 -5.438313557316961852e-03 7.291973671178274621e-03 1.941759185493678944e-03 6.649813849434454277e-03 -5.395774066654767526e-03 3.460378734986726060e-03 7.476480441253407702e-03 -6.789695416689282143e-04 7.746778192278714822e-03 1.435624594967800649e-03 -6.566849510450757654e-03 5.004410458113504531e-03 7.541933951414630036e-03 -6.514453322373022284e-03 5.518767098514764866e-03 -4.119837362470075981e-03 5.672190362087848117e-03 1.791434885315718040e-03 -4.128270140513476578e-03
6.248753558915690759e-03 -4.676800993457711983e-03 -6.259078788464395721e-03 -6.774695069642308262e-03 6.466391153517058593e-03 -1.951005584101376221e-03 5.352905489011922785e-03 -4.487047400962342406e-03 6.251373150376200380e-03 -3.482560915086933308e-03 1.220098759412613712e-03 2.200741708108343644e-03 -1.738222596902814707e-03 -7.670580381540721519e-03 -6.389912349328406675e-03 6.735501604368204429e-03 -7.915579460543931828e-03 2.579817376523843228e-03 3.581815356760569349e-03 -4.202217185250304091e-03 -9.513787104261685335e-05 7.733703060141176519e-03 -7.010366656433720395e-03 3.881186301187649484e-03 1.997573346405472766e-03 -1.132342594594325756e-03 5.863776292635668533e-03 2.545149298516785966e-03 -3.958828934865150743e-03 -1.869069024588304595e-04 6.917617699405079895e-04 1.610860592529824234e-03 -2.413338678038472705e-03 -4.869190209658150886e-03 -5.673105452455619313e-03 4.384759011861071379e-03 5.642976325450825212e-03 -6.258250637171579311e-03 -6.500912382166182564e-03 -1.225553808919740972e-04 1.606090792917439294e-03 -1.411466154004785596e-03 5.593661453552703847e-03 -6.785363298542042634e-04 -3.724385346237838075e-03 -3.781947829369151394e-03 1.125842346929728163e-03 -3.537694146401095321e-03 6.026526064097099955e-03 -2.478840579373358700e-03 7.924120412311530179e-03 -1.567256732691364556e-03 -2.806202427404556020e-03 -5.268262388877474611e-03 6.039514223320038844e-03 5.404902466946241713e-03 -3.098149704921175814e-03 -6.415047950471889672e-03 -3.486755105298813308e-03 -1.137403276667401167e-03 -3.882928305872666505e-03
-1.554844637619411801e-03 -6.399511080825252829e-03 5.055239320706747183e-03 -6.354992333001059299e-03 -5.148324049368199762e-05 -4.046763605450395644e-03 1.176591199190704998e-03 -6.958136308656910109e-03 -7.589439351298726127e-03 -7.479722493148058260e-03 4.065276997603750955e-03 8.332946478231129106e-04 3.930956494296887482e-03 -3.269224841746324814e-03 3.567929192340712000e-03 -4.497999880049688426e-03 -3.070343082745580904e-04 -4.761253344982450605e-03 6.865474809537076145e-03 -7.783412609705172604e-03 -6.319847718935702602e-03 5.276023952207305537e-03 -3.188627990708540680e-03 1.360137716219692039e-03 -5.188950197073000613e-03 -5.991657969471367827e-03 3.580772677955579991e-03 -4.887588589427165064e-03 4.518813364533540503e-03 -8.012535139307816467e-03 3.982883287622291865e-03 -4.350437173095618101e-03 7.378747211632761399e-03 5.530717609487046868e-03 -4.178289691113890036e-03 -6.755179384788046956e-04 -6.497845057041027640e-03 -6.197659426157967749e-03 5.891466374904338194e-03 3.481395600743142707e-03 -1.646839876255295522e-03 2.738297550693350943e-03 6.390197010023418098e-03 -5.039207523566172596e-03 -2.162436836288160469e-03 -7.905710856098979722e-03 -6.614123040212903717e-03 -3.854658187372046220e-03 -1.847906151470755064e-03 -2.273866785209697865e-03 -5.860872979836388719e-03 4.183752242294403942e-03 6.476630175443124152e-03 7.284531580682681098e-03 2.955634197196365526e-03 1.051886774280584233e-03 -6.293688446623043643e-03 2.194046826098512357e-03 -2.426775250346118774e-03 -5.179560988715321140e-03 -3.635702402945438505e-03
-3.299779287521120708e-04 -1.900589953629244419e-03 4.083075384143746572e-03 -4.417479741784741468e-03 1.511147479770040547e-03 1.764008385096922302e-03 3.131030692012036140e-03 4.007143721636670028e-03 9.484381426026009670e-04 4.658142628885855382e-03 7.930404739228055777e-04 -4.237948422336397687e-03 3.983388022997186653e-03 -2.706121426130317364e-03 1.338029431930023994e-03 -2.722394721836106021e-03 -5.243233534436711821e-04 -2.356610374105193306e-03 -3.817990378944801158e-03 5.621994356525506983e-03 7.506541638534968211e-03 -7.242944292204450164e-03 -4.803044066619585085e-03 6.805285291087887628e-03 -4.374801844647053031e-04 7.846156629950426856e-03 6.302400350292310452e-03 -6.524110632176718591e-03 1.559623274434955228e-03 3.033179131965799830e-04 5.559649834696775081e-03 -9.339199749366393008e-04 6.087855594862644909e-03 6.496867946184908121e-04 6.413953160690957084e-04 3.124325514044968763e-03 -6.924427931027281671e-03 5.653615861347001392e-04 1.028816614480631414e-03 -1.010575097539751985e-03 5.040885969953216861e-03 -4.925992096188084104e-03 1.896890100329094025e-03 6.638979180773222494e-03 7.913669713495817895e-03 4.805143043716601087e-03 -4.053412817737559251e-03 -4.019449987606144893e-03 2.475095363414590161e-03 4.149882302742005646e-04 1.684026243570970610e-04 3.209346844358735781e-03 -1.397495854116529573e-04 -5.889838468269325764e-03 -4.489468921167139026e-03 -3.371419203491384832e-03 -8.432823294801756672e-04 7.152950731689273339e-03 9.009828103707668429e-04 6.794408893271687566e-03 7.954575477511613771e-03
4.686111144231884865e-03 -1.251927060999991417e-03 2.998685716199557191e-03 4.471507155991479715e-04 2.376181258020576906e-03 3.788197337430706732e-03 5.722651718502986748e-03 -5.052739318442319924e-03 6.451759887175083016e-03 -6.256847109071131743e-03 -1.207086531129344074e-03 6.689260496614529705e-03 -1.697639490067973968e-03 -5.311612851599310445e-03 7.766231426806978824e-03 -5.996387272926935116e-03 3.753644983671184862e-03 8.109487384672242269e-03 -1.928432639706323393e-03 -1.062144880712477014e-03 3.565681705726433254e-03 4.041634470908156765e-03 9.866466561172428790e-04 2.912408856961742898e-04 -6.436888481240488416e-03 -8.396328117997427579e-04 -5.411918997094301159e-04 1.169234280459750808e-03 2.244316786791026100e-03 8.002018815001224125e-03 -2.470024447396990466e-03 -1.264624666747843351e-03 -1.707432634752733061e-03 2.263262798990556268e-03 2.078397235694546402e-03 -3.493872783124662637e-03 5.235036321374810647e-04 2.567064951557253977e-03 -5.236288434846570611e-04 2.264810755999572753e-03 -5.393152463242102679e-03 -7.623960474028620114e-03 -3.815656213981873622e-03 -8.160290053153461398e-03 -2.342774025486223967e-03 7.639390858386966784e-03 2.221115090754070126e-03 2.089497869110848449e-04 -7.626048718989757343e-03 -4.706353571538966253e-03 -2.682375416929102217e-03 -4.454395207451371935e-03 2.738515317267695148e-03 -3.000312714163150263e-03 4.644118678071202516e-03 9.109400739067043812e-04 -5.987127410200737167e-03 -6.323033827113506630e-03 -6.398046960101795057e-03 2.308909229692263088e-04 -6.158607460499926356e-03
-5.000456119994010733e-03 5.235222820501017268e-03 -5.474075330312288060e-03 -1.167864678016643926e-03 -3.524124901070003341e-03 -1.507278910475949758e-03 2.256797867277327702e-04 5.864229150877284941e-03 -7.410178485014039251e-03 -2.957285336715562152e-03 3.834997529898931737e-03 4.173246099991777258e-03 5.830432849957527947e-04 3.410327047306425594e-03 1.431766888819780911e-03 3.534423703338764045e-03 7.381414013956118583e-03 3.700709764947856736e-03 -6.859234187373713411e-03 -1.846958301491078737e-03 2.031430352203437290e-03 -5.325406437836910367e-03 4.403216295217131718e-03 8.122733045608085053e-03 2.811958888459227882e-03 2.692764655169842258e-03 -1.123464226551784510e-03 6.897536736557685622e-03 1.913303452166779592e-03 -3.901428072153642623e-03 -4.326188855657484011e-05 1.513598046066058633e-03 -1.026284404215699678e-03 -6.608519031646305567e-03 -9.777358050920750138e-04 -5.024576165033196526e-03 6.853553007732953242e-03 6.623196142659651051e-03 6.840703786664353511e-03 -6.524388404109952855e-03 -6.972514770104246834e-03 -4.253154785522696678e-03 -3.607632960392780433e-03 -7.894500506875012924e-03 5.744125670138417947e-03 1.234578197007710557e-03 -6.579384770703677714e-03 8.323797991128673024e-04 -1.151309046058373795e-03 -7.902679859634147846e-03 -3.356085228226443791e-03 -7.767907153521240969e-03 -5.169255223165488897e-03 -1.096647090307491593e-03 -4.532732088065708626e-03 1.722083870687486640e-04 -2.239166327970329613e-03 -3.005944229024112152e-03 -7.005711081653207169e-03 -5.017316243773493542e-03 -4.723314961619350279e-03
3.661517494734431791e-03 4.713227257598160205e-03 2.414895290414218951e-03 7.519053583480735450e-03 -1.253197557021761346e-03 -1.694810099269961762e-03 7.949161033209120944e-03 3.277019422442664989e-03 -2.411159911019307260e-03 -2.844242251737063784e-03 1.600362726207739048e-03 -1.267716589273741243e-03 -1.770520084408731126e-03 3.811323102105274030e-03 -7.674192418856774604e-03 -4.413021992289669314e-03 5.963692291018287198e-03 -5.199191832157768617e-03 -6.383339280084851172e-03 3.635599115080288823e-03 -7.779976750594319417e-03 -3.199267928120090761e-03 2.465258925472351217e-03 -2.821897485784418194e-03 -1.652383882217171168e-03 -5.736168905827202999e-03 2.692890663682867211e-03 8.162843066167447745e-03 3.184315052072284047e-03 -1.026238435378180186e-03 3.506776807056747464e-03 -1.590938190050877887e-03 7.400135006280315203e-03 7.506027713647925662e-03 -2.913228025122034139e-03 -3.559094769623225019e-03 -7.297008085771622236e-03 8.148210676413093420e-03 -2.000874465573398986e-03 2.523801715171769891e-03 5.401555328639525907e-03 -5.295404161970596740e-03 -7.057924979869505122e-05 3.625859545665032629e-03 -5.276052244177920764e-03 4.067822557821520330e-04 9.592534883270404517e-04 -6.058897185963502997e-03 4.704634395688403123e-03 -4.520672310412556655e-03 -5.086106917021264440e-03 -7.713629677051940178e-04 -8.095363737824042699e-03 5.291171560312607838e-03 -1.509229338664341315e-03 -2.538457470283265495e-03 3.564207312476978112e-03 5.372022791163402755e-03 4.428417375056765623e-03 6.073294365488394672e-03 -1.698979961014657376e-03
2.231471277914922474e-03 -7.017543710477471344e-03 -3.945900454482031451e-03 1.713921642126289835e-03 -4.470241123178547021e-03 -4.865578974321731545e-03 -6.602604314961340627e-03 -7.375616025526475668e-03 -7.120663307302091058e-03 2.329610365632657151e-03 7.701388044931310392e-03 8.153658009778205415e-03 7.814750863849780418e-03 -2.897344153861635720e-03 -6.965680477898686038e-03 6.639618103499039109e-03 -7.312739652125182371e-03 -5.783204128508837374e-03 2.378482090713226332e-03 2.755128580243418335e-03 -1.787880333853468680e-03 1.876664844608492630e-03 -2.012590228107040934e-03 5.510569155971402344e-03 1.001265772510440480e-03 -5.135740653046139484e-03 -5.487905173516470676e-03 2.719771790944047404e-03 7.929498217284653913e-03 2.441288106042166159e-03 7.305570779047370830e-03 5.750139561350717243e-03 4.362174758850664510e-03 -2.517779324390806255e-03 -8.039273748637236830e-03 -5.446674509340169307e-03 -4.965531435246482543e-03 -2.442866932099555660e-03 8.005456284766008720e-03 7.346734369120127423e-03 5.898963522079690366e-03 -9.888517051755687723e-04 -1.174161391147679305e-03 8.051368654025370039e-03 3.972288180083074355e-03 -2.435981613322363640e-03 -4.477468075801043466e-03 9.729790497696629015e-05 -3.755099070269938763e-03 2.054598799410159091e-03 7.230607412977430037e-03 2.892513681220770100e-04 -3.961704840978373665e-03 4.834598279547540345e-03 7.715296674510050204e-03 6.480130358445464894e-03 8.615231928247261278e-04 -4.103424800662490782e-03 6.608326533326949748e-03 2.365729418960014693e-03 -6.366350639843207718e-03
-6.183435200141374974e-03 4.556576511617912648e-03 -4.658577076000354131e-03 1.426887534377559510e-03 -7.288984278540831981e-03 -3.208089096745977455e-03 4.624538969029250157e-04 -4.393256310298850748e-03 5.365878904459374724e-03 -7.172117254773637506e-03 9.877733891786068254e-04 -4.459181586019108669e-03 -4.830098605997108080e-03 6.416874110138408305e-03 6.378512085068394413e-03 -6.842950046855535498e-03 4.363230383517581468e-04 -3.282430705063461851e-03 1.042660229015661411e-03 2.045815871495016217e-03 -8.056224463047026788e-03 1.141733979879201027e-03 6.619098694098301747e-03 6.517115703400688798e-03 2.732568614557909226e-03 5.804014207005133222e-03 1.875838856450125561e-03 6.483866166577341786e-03 -5.171183581465263294e-03 -3.129940995465349367e-03 5.200886072252667441e-03 7.674145542574456122e-03 1.466229041623908630e-03 -2.826877578929725549e-04 6.404410311570027728e-03 2.099031317576698780e-03 -7.727837333937804046e-03 -3.064426833620841062e-03 -6.743765977469081893e-03 6.770220505787662157e-03 6.760134368517743339e-03 -7.779681736977852972e-03 3.774838854323305654e-03 3.395461069785218194e-03 1.900590970083711889e-03 1.293718852031213937e-03 2.437949497478263464e-03 4.593218374915929506e-03 -7.748409420560245855e-03 7.547197420014492217e-03 -3.297341874657312363e-03 -1.280413495774609077e-03 -1.052426228112165844e-03 -3.338154417874190406e-03 -4.390666827365449255e-03 5.092523722683088561e-03 8.024135078946786556e-03 -2.551412190248894193e-03 -5.713107556359498657e-04 -5.584579651368562492e-03 -5.312628336717929375e-03
-1.866063664421707159e-03 -5.002303093941225937e-03 -1.344304897036329924e-03 8.173318086781124550e-03 -5.075073506837224357e-04 -1.531159695691186769e-03 -6.926627195356775332e-03 -4.694103626815489087e-03 -6.372460863547400184e-03 7.324997903141290678e-03 7.851128485641930069e-03 4.695982092010870732e-03 -5.297843547475717535e-03 9.592175933125710041e-04 -6.503040944606247251e-03 -4.525004793119510177e-04 7.117896538319462216e-03 6.829828011655970921e-03 6.736612801339816881e-03 5.415811277911811161e-03 2.026376295821913712e-03 7.843733725835308826e-03 8.428696241278513940e-04 -4.264996138121944502e-03 -5.651064792377631305e-03 6.474937545875110792e-03 2.610103597016261850e-03 -2.918070037281890287e-03 -2.666500935547509721e-05 -7.391863075824229960e-03 8.001902733158037725e-03 -5.011613647138198763e-04 -3.929430500525685384e-03 3.926152476698264657e-03 -5.984124324281576805e-03 -3.311263538043370327e-03 -1.716737833592427154e-04 -5.471284682339001143e-03 5.438667191463613521e-03 -7.589859919954885722e-03 -2.431217960151655505e-03 1.845349379844592880e-03 -3.740880854910393592e-03 2.267209295185741366e-03 -6.850349085398548844e-03 -3.558666199843857000e-03 7.481222704916979868e-03 5.280025362249198342e-03 -1.189498225112968835e-03 -2.163306529733347722e-03 7.792522880167756030e-03 5.793829789367658384e-03 4.243446541529159732e-03 -1.412738193870069492e-04 4.968507094528224269e-03 7.725755101078183099e-03 -6.500930255856682445e-03 6.859201320256148524e-03 -6.714450100113863659e-04 5.487136845048885131e-03 -1.008819742077562802e-03
4.709805137340978068e-03 4.824381445340125002e-03 7.445647675651702671e-03 -7.407593351769433537e-03 -5.531664026422587581e-03 2.699613025517032944e-04 -2.352606160695247181e-03 -2.926476467541959045e-03 2.286117687745167076e-03 7.177662840899523208e-03 2.533045368607692374e-03 7.884579830683540250e-03 -1.527010103996215805e-03 7.896971480339605790e-03 -2.766727120678181065e-03 -3.562395343807795052e-03 5.956107611335142646e-03 3.847818850505037303e-03 5.747576409004280865e-03 -5.946375304706251821e-04 2.436300661914116150e-03 -5.557085419892880684e-03 -6.429937106717363397e-03 -2.743627962596762067e-03 -2.050575762429740663e-03 3.073946243223360866e-03 -9.717684711688075530e-04 6.308209279008675924e-03 4.658939628732984908e-03 1.581056961032251129e-03 -4.415064045842912593e-03 -4.160059876390243168e-03 -3.262984024794773896e-03 -6.382426934517152102e-03 -2.545845557756359900e-04 6.120615357032854059e-03 7.405765701457686992e-03 -5.912083495385252185e-03 -4.450275062442424559e-04 2.822531345083255025e-03 7.611430675399117468e-04 -5.308077532779853676e-03 -7.961572600507811973e-03 -4.635866006127730039e-03 6.714727246450931039e-03 4.116314866685609822e-03 6.856281641266335700e-03 -5.106568273126242674e-03 -5.235213254847694009e-03 3.180331888563347684e-03 -6.930147771747267871e-03 -6.995443223131756622e-03 2.977116387071600603e-03 -3.585547234637015239e-03 7.347671025031119602e-03 -1.213351554851098760e-03 -6.309739255615271977e-03 1.531461366875944141e-03 3.557612354327686910e-03 -3.112972029815505408e-03 6.129202330231342533e-03
7.868434130730976930e-03 8.602608102993309497e-04 5.262205677156479161e-04 5.677997652320678976e-03 7.127467134465614168e-03 2.561410474011165464e-03 -4.370034120152592808e-03 7.337793694769811567e-03 -1.809090957548102618e-04 -2.172807473401135690e-03 -3.364734497465908178e-03 -7.975328997108857565e-04 3.720782873224774343e-03 4.783529286635021180e-03 -2.524387334556452318e-03 -2.290053343771639854e-04 -7.344829748487071569e-03 6.770574135748027092e-03 -3.489675123258379440e-03 -2.135767962044732293e-03 -7.225294945676348154e-03 -2.590674703090867920e-04 -6.495853012313925270e-03 -1.402284490720311777e-03 4.175920635837097883e-03 -3.429031180664667174e-03 -2.590088798800696535e-04 2.528857938979950024e-03 -5.029974125237122312e-03 -2.219935635639135214e-03 -3.512500442888610332e-03 -5.325933931172628297e-03 6.856344280998986560e-03 -6.488666972252692122e-03 -1.485089412660190941e-03 -7.940080255369727502e-03 1.407554354387012888e-03 -1.558460896969946462e-03 3.848351073265088296e-03 7.445465071566107276e-03 -6.802856541808519411e-04 2.794713044621794859e-03 -3.295696894198268251e-04 7.043852194148197271e-04 3.902574047540146099e-03 -2.306983739247208016e-03 -4.312378776710611150e-03 -6.152095836149778542e-03 4.307483158007413548e-04 1.433343112545518161e-04 -1.580428148747565521e-03 -1.929221987473968107e-03 -1.009074904742271982e-03 -5.744076292167413396e-03 4.117006697865690026e-03 -1.505305011662447234e-03 2.045952648909613730e-03 3.676223716360220439e-04 1.431181099369700088e-03 9.799365433858960028e-05 -7.124103808639538696e-03
1.936053825010719542e-05 4.467187537036345149e-03 -3.097604471793139608e-03 4.404331066224842495e-03 -5.652418499972954730e-03 1.638368208633283682e-03 5.850297852330283571e-03 6.013952682260648511e-03 -6.327456669107753978e-04 4.828387073541880875e-03 6.994298839434885673e-03 -6.949317763433215944e-03 8.115451579841967064e-03 3.887876121518748368e-03 -3.588883137899811539e-03 1.204581971973230775e-03 8.122422393500068269e-03 -5.686319316088046805e-03 2.379836900930444588e-03 -4.021663109024120435e-03 -1.449681219022960765e-03 4.502689635313293984e-03 -7.698697037072856075e-03 2.533912620941021834e-03 5.016092139406904196e-03 3.455248692368602728e-03 -3.889675154454497359e-03 7.075251447442164332e-03 4.919438404873034340e-03 -2.047381805656577070e-03 -5.510048698295032937e-03 -4.161910597555935724e-03 -5.654128449862079464e-03 3.432541622874140178e-03 -8.068737849982481405e-03 1.362754838104602087e-03 -9.328915111204028748e-04 2.728225336902513620e-03 -3.600840313939906306e-03 3.411147632469488031e-03 5.057246172591681882e-04 2.071136659099571259e-03 -8.038624351231461740e-03 -1.434337691231375896e-03 7.857523016704460669e-03 -2.432345425330127708e-03 4.092989133785326569e-03 1.459936556134818972e-03 -3.739120910694179213e-03 6.680515231585165692e-03 3.821055653096908436e-03 -3.627979598785392723e-03 3.152466077245525550e-03 -5.455848452701516152e-03 7.683444972678548160e-03 -2.820527744251832662e-03 -3.297557039435069365e-04 4.404753352111549086e-04 -1.021131995941995316e-03 4.700280982765725826e-03 -5.321124706416989134e-03
3.165133132338531288e-03 4.873764281871584281e-03 5.150670886869174875e-03 -8.503087879465276097e-04 2.570089742024118593e-03 7.430858161343823973e-03 5.879528936709706513e-03 3.203136409865667972e-03 6.195415714465732360e-03 -3.664976248890100714e-03 2.945161247306557137e-03 4.900433617033935277e-03 -2.506334715467458535e-03 -1.382377558473831154e-03 -1.035757293280821500e-03 -7.108733753058957099e-03 2.332042059072832879e-03 -1.097255420276757945e-03 -2.189270154516368555e-03 -2.717298969811584274e-03 -2.681000046351046488e-03 5.170706102584077257e-04 5.073251139154433612e-03 -6.354795299143268204e-03 -5.371039507965337523e-03 4.694928235300231678e-03 -4.567381035129117195e-04 2.743903895831900641e-03 -6.815619111273063871e-03 3.935775729843327131e-03 -7.329114704342470053e-03 4.883062499601204670e-03 -2.798022607428962000e-03 -7.036059109717156257e-03 6.622815798938534032e-03 -2.650196017601494543e-03 -1.574548237976283911e-03 2.908264890101243394e-03 3.951662090256992735e-03 -1.118996221774586249e-03 -1.687274337631289138e-03 -3.307286769949595827e-03 -6.843086117882295899e-03 -4.876585554464405933e-03 9.810057730587368879e-04 1.457076820617905083e-03 5.785617942118433457e-03 4.833714761326816933e-04 -4.781374271586908906e-03 -2.955751735921378041e-03 2.730135184207380106e-03 -1.369377837633753772e-03 7.842366725522176979e-04 6.111314892836660143e-03 2.256565144209072074e-03 -4.694507438421998899e-03 4.171395740433464158e-03 4.223863745685080967e-03 -6.131270420348823753e-03 -4.125541603827644066e-03 -7.642441585242951141e-03
3.344435141229552128e-03 -5.201219163456489644e-03 2.060333880545012902e-04 -2.978875301220282844e-03 1.124843565562097525e-03 7.371283401388524156e-03 2.311240153997990571e-03 -3.744163190459086875e-03 5.224531977727816384e-03 -7.341050111344084132e-03 1.712091460390335884e-04 -3.956407653930909749e-04 -3.037292145818071623e-03 5.765540937466168483e-03 7.155155530981853820e-03 -6.415468217516583430e-03 3.671417939436951577e-03 -3.710159121084660727e-03 -4.424116350974962274e-03 6.866071642165917296e-03 -7.633606376005674758e-03 -4.462340179361141794e-03 5.574837052001921020e-03 -5.214213973692247150e-03 -6.640071860448936922e-03 -1.729741795708280433e-03 -8.050248176530178795e-04 -8.174885333361777209e-03 2.761674323952870158e-03 -1.003806766777775271e-03 7.880432683110999773e-03 6.258452139458810237e-03 3.021416895941408595e-03 1.312544764948729917e-03 1.962253050994155687e-03 2.554854578173801002e-03 -1.755197820509192715e-03 6.457721239859477366e-03 -6.899542609161007055e-03 -2.149291808948670425e-03 -2.934779518991370920e-03 1.683788033872035683e-03 4.428827847826685357e-03 -3.563381258337470353e-03 -6.296753651064453637e-03 6.810826500765870470e-03 -7.642971415910350570e-03 6.637788598920169036e-03 8.908498314719771882e-04 1.796052652162634031e-03 -5.750498470147597657e-04 6.789288441675055130e-04 1.228511171793735327e-03 -6.362859067831671926e-03 -7.423782752217911521e-03 -5.566422692885930612e-03 -1.685758294469666407e-04 -5.372852665083839574e-03 -2.150308278635706602e-03 7.432090863118594529e-03 8.037561483799955317e-03
-2.895136494494269727e-03 1.315312943153536945e-03 1.539290027781385281e-03 8.009356665204976633e-05 -3.448686584951943072e-03 4.835055363396602301e-03 2.515276748379043081e-03 2.230067444199769489e-03 -7.642008764332075543e-03 5.656159772693073601e-04 -2.421575476337277377e-03 1.054486708013434651e-03 7.036015433238129030e-03 5.517437192953745032e-03 -3.445611818459311075e-03 1.245782854149470736e-04 3.961328626706207834e-03 7.805821320734257843e-03 -6.055391994850372467e-03 6.036970763026724279e-03 -4.919544645368306192e-03 -2.123125262670186829e-03 -6.693410960604681201e-04 7.824029974794933714e-03 -2.651074725693818197e-03 2.790217334409641689e-03 -7.147033122950081224e-04 1.156140467830926721e-03 7.030275862000312168e-03 -2.704732096996788696e-03 3.253600641179374073e-03 3.685042258831013398e-03 -6.770805209584620024e-03 -7.240548713574281557e-03 8.068610019407651199e-03 -1.676831094641340059e-04 5.699435785216715525e-03 -7.071966992688391400e-03 6.932663204787309005e-03 -5.521285823198269875e-03 -3.386008258839784055e-03 -4.732560566999317528e-03 6.699045160789967104e-03 3.245085093012538627e-03 -1.735078998885468404e-03 6.659619689385149963e-03 3.177227035835620411e-03 -1.194220024980617578e-04 -1.814416401821426945e-03 5.571199462512017170e-03 6.568680936342991342e-03 7.623304378672665291e-03 4.971580615571949066e-03 -4.814319130823405124e-03 -8.175107698598776951e-03 4.398044690901506404e-04 -8.083984659754153007e-03 3.074095455163902008e-03 2.694189824970529001e-04 -3.507557146846876361e-05 -1.147713455635669677e-04
-3.493177933432113809e-03 6.986367885882359061e-03 -5.511711200312786191e-03 -6.858858108551597194e-03 7.680113045002330552e-04 5.407717778211976883e-03 -4.023346650429996882e-04 3.531734075990073524e-03 7.006358316584157184e-03 -6.752825193521163130e-03 -5.532854566984984380e-03 3.973463976297131675e-03 -1.445079205212449619e-03 3.465441188021743668e-03 1.447659361463897454e-03 -7.556663578726193625e-03 -6.396529211292413877e-03 -7.471394521731841015e-03 4.495359486588836051e-03 6.408127360248525028e-03 -2.693270075092556518e-03 -1.821525391815495901e-03 2.608262378653863553e-03 -1.127149338848460608e-04 7.247688702730426327e-03 -8.459982812423060689e-04 1.642186445685934679e-03 -1.592122024312166498e-03 -1.984854337256898062e-03 5.264373427619916182e-03 -3.658650206071317398e-03 -7.832226199615720946e-03 -5.442053214488804837e-03 6.028772460547299900e-03 -7.838033880660368741e-03 -9.944937787306935839e-05 -8.985076442158098156e-04 2.593324866660919395e-03 6.582032983926816572e-05 1.723325033441042847e-03 -6.174893768063887539e-04 1.930863509736995345e-03 2.114490495736975895e-03 -2.983570862867631138e-03 -7.805501874873421383e-03 -1.900246221833028909e-03 -3.120536588063962252e-04 -2.233017863110612830e-03 4.321706903565748076e-03 -6.311627631717961137e-03 4.575142086471374256e-03 4.367511089611652436e-03 -3.869499653489085964e-04 -3.038639534527956716e-03 2.071368510405631469e-03 4.302294266375647144e-03 -2.502908966612988305e-03 -2.887907366534575582e-03 5.590195669680931428e-03 -5.643357453201268067e-03 -7.633539666831206522e-03
-1.290685705452582384e-03 6.720614795410454270e-03 -7.049281479766718664e-03 -8.358213409597019250e-04 4.095684301596328250e-03 -7.254074964292490588e-03 7.222322380918917706e-03 -1.865531506965507902e-03 -5.747999547269047951e-03 2.124743913327545655e-03 8.082918024511462005e-03 -2.746787091866946008e-03 7.952007211789477101e-03 -2.281285061472970027e-04 2.533854260178488443e-03 -6.689379976841736478e-04 -1.539185451539809221e-03 6.211015328968144678e-03 5.522713083000035938e-04 -5.157570047336200274e-03 -6.726975581870378758e-03 2.341679128434071694e-04 1.276547483675481015e-03 2.757530561858057699e-03 -6.376283853862623786e-03 -6.997613926442557836e-04 7.925691844399949601e-03 5.896585217352713279e-03 6.796894836201388887e-03 -6.284201194235110310e-03 -8.064635893652279466e-03 -3.783664341160414106e-03 -6.129397973601020087e-03 6.511613934481538454e-03 7.348803391392884354e-03 -9.543333942050192392e-04 -4.830232508713422357e-03 8.102968117866040168e-03 -1.926382089612235955e-03 -6.839437251034767053e-03 4.262401885464216569e-03 3.285893483039131063e-03 -7.377084157686257179e-03 7.269301033799949532e-03 5.249149765959386024e-03 -5.919299685742529862e-03 -4.175241712852751329e-03 6.560319016877192572e-03 -2.098181876337696164e-03 5.484777195025058311e-03 5.924774289445390238e-03 6.439907821437274027e-03 -4.182377478923603176e-03 4.337773408628429334e-04 -3.033754354364758508e-03 -5.577685264704619963e-03 3.396480726567112363e-03 4.959964776011294152e-03 6.890607340759281885e-03 -2.288778242503052354e-03 -1.757645424708616753e-03
-4.251164801262486900e-03 -1.058335954664506827e-03 5.022794780730255315e-03 -4.384419148065378177e-03 -5.206654366934840815e-03 7.389895066537503429e-03 -7.545302862797473482e-03 -5.268548872783643602e-03 6.068350557646066609e-03 -5.732377070061999043e-03 -5.235757234341571059e-03 4.854816626604918639e-03 7.029895439838550544e-03 3.042538125554463541e-03 -7.538425116991365020e-03 -1.687267158709702605e-03 -6.853607650322463690e-03 -4.129394828240048367e-03 -9.905753081673905266e-04 7.467319215707554289e-03 -3.599895751005918569e-03 1.703312399519287673e-03 2.062846001168190668e-03 -6.553282868139616302e-05 -2.204743444990648824e-03 -8.031120014734065629e-03 3.586052228632714486e-03 1.998594649650745764e-03 4.443557774435110547e-03 5.829505883979391873e-03 3.517644500889137785e-03 5.440652408302265944e-03 2.365719739066979993e-03 3.369973751907857223e-03 -7.189567797230549812e-03 2.769830869807600113e-03 -1.728756506592194972e-03 -2.493921698899326071e-03 -7.800722549069712825e-03 -3.437585738498458512e-03 -6.911717547570091214e-03 -6.907615291413852013e-03 9.190106812188465757e-04 5.916988390350902405e-03 7.265333456585235453e-03 -4.555190516215147645e-03 -3.300261363734140543e-03 -3.390582394972987967e-03 1.975081271177989845e-03 7.615782936266756592e-04 -6.984411628254117398e-03 -2.289229738006048898e-03 -6.760804313349628829e-03 6.806246707948375441e-03 4.462978532724353603e-03 -1.599281246328229655e-03 -6.046573752145881567e-03 4.365421707323340061e-03 5.962786138629522226e-03 6.770731955642889793e-03 4.340236723813527264e-03
5.312629843637017152e-03 -5.856653908075845280e-03 6.091757758387718671e-03 -3.589135323537086253e-04 8.190651670398870279e-03 -3.871677900290197878e-03 7.745541070604317416e-03 2.012513942161491681e-03 -3.867899580684427789e-03 -2.994574942506214414e-03 -5.670674453989918255e-03 2.984294574338451980e-03 -2.087020898755549345e-03 -5.378274359156411805e-03 -8.151525590614694047e-04 -8.021730992659709125e-03 -7.253057247330685700e-04 -4.319865752899141459e-03 7.653641884913185353e-03 -6.522645023279739773e-03 -4.074051726024372974e-03 -4.708342157533024729e-03 -3.793556309720944215e-03 -4.265745275481011740e-03 7.006123691819373875e-03 -1.933051546202176237e-03 8.931988205354013388e-04 6.722591266837982249e-03 -2.139663717189349557e-03 1.344983478623771808e-03 -3.905401691744994803e-03 1.019788408985778175e-03 3.159518426634661675e-03 2.271361332920550022e-03 3.542805295982075220e-03 2.043110242012662406e-03 -6.889286855197080360e-03 4.769850320688249351e-03 3.072786718434602701e-03 6.463992598911583523e-03 7.502078666721619452e-03 -1.904911111429020976e-03 -6.457638742677351829e-04 3.603590258705172134e-03 2.209432652858136364e-04 5.276554594922074418e-03 6.850764060355233470e-03 -7.880465643099299200e-03 1.993004526402220034e-03 1.124165156548079941e-03 -7.618574284791106849e-03 2.089766453415967812e-03 -3.830110703025644929e-03 -7.264002906182723783e-03 3.333531987873386213e-03 -1.236955960562054896e-03 -4.445383585456952683e-03 -5.330773993718922708e-03 2.714674706691237033e-03 2.326841162317095160e-03 7.945081674909862043e-03
-8.904485330054195957e-04 -2.056989887540140727e-03 -7.794406464640809586e-03 -5.473366529605453584e-03 -4.985094603586162632e-03 -4.963234507872732980e-03 6.222090154109124333e-04 -6.463867222008418470e-03 7.245120716575572176e-03 -5.595950166868153552e-03 5.061149985505344895e-03 -2.251161387724562313e-04 7.089023673216792928e-03 -3.518379890071130812e-03 -6.140042863798340217e-03 -6.928784903141753555e-03 -2.971538901962585480e-03 7.471136557081483123e-03 -6.630778245600576701e-03 -7.837293882590086469e-03 5.516467928640819349e-03 -5.609353295088138902e-03 7.098297078657290690e-03 -4.642116056096706224e-03 5.952004783425389120e-03 -5.821693566010612692e-03 -1.151057338440722964e-03 3.398295121220876180e-03 -1.031326805794441533e-03 -7.740723196694002800e-03 4.889542315214252463e-03 7.652109020130392833e-03 -4.560964932771936764e-03 -7.169613794703188700e-03 5.605648779086494504e-03 -5.741151116605298227e-04 -9.889250651646044887e-04 6.990275260099499885e-03 1.579343431493976380e-03 8.146073241337035628e-03 2.803677314477720853e-03 -7.729629688293650387e-03 8.134194559878281730e-03 7.019452456501866500e-03 5.693180444971461529e-03 1.241535096656403575e-03 -5.490844144986333636e-04 -4.443631421059681015e-03 -2.337797588389204512e-04 -5.901820062670284223e-03 -2.378122201210156050e-04 4.983363452773031943e-03 9.628932078473324829e-05 -2.337573080266508625e-03 2.224962664923462244e-03 7.219564640704544470e-03 1.772893971127825069e-04 1.627292015336352649e-03 -4.843324530124258273e-04 4.194162450532173611e-03 -2.217516820934272055e-03
1.789059461413498517e-03 7.547565896936366328e-03 -6.206114150392386467e-03 -3.650724454685183758e-03 -1.971140439761129987e-03 1.694142383712869682e-03 3.301698755171883840e-03 2.769505398083146538e-03 1.398007160694983084e-03 7.273518279038680701e-03 7.186401072695273659e-03 6.473516448045285240e-03 5.203118465490800051e-03 2.548360727944579129e-03 -3.662915581480633703e-03 1.784868351931945610e-03 -6.235974140135449283e-03 -4.561146759345451399e-03 3.243697850740393310e-03 -1.419432074231806451e-03 5.008308901537443167e-03 4.320790963870075468e-03 6.059631677369569508e-03 1.927161892127261106e-04 7.051122685255348937e-03 4.945898771530789564e-03 7.228324182841805445e-03 6.863601847157013366e-03 2.888467820848486869e-03 -6.806239055967945942e-04 -4.139447441066793423e-03 -1.393723433060238201e-03 -3.117055068257504336e-03 -4.113854631984437127e-03 -7.104554081093991669e-03 7.424088230754407464e-03 7.401204652013309432e-04 6.248494430989438853e-03 6.046132132233790826e-03 -7.226570139429910195e-03 -1.094714121320190109e-03 3.542634798715601704e-03 -8.168535091261978215e-03 -1.583055698821988003e-03 -4.287195117456000376e-03 2.438157175823791115e-03 2.788051012427381764e-03 -4.571589675181533981e-03 6.230894128157665746e-03 3.905860985401297600e-03 -4.073908955228883189e-03 -1.906506076370111276e-03 -5.711496696302800075e-03 -7.123426856489575854e-03 6.095373278466445499e-03 6.989535691560124983e-03 -4.383247604596617400e-04 7.726652653938497622e-04 -5.868644042901007517e-03 5.522615292053735178e-03 5.185065669961977375e-03
5.178074188005778872e-03 2.491714697718942426e-03 -1.170333983961054959e-03 5.715844159317843079e-03 -6.061311214313590962e-03 7.452869657689041236e-03 -1.693128748513888365e-03 -7.442526679661362436e-03 -3.358243562184439097e-03 -2.117496218624663473e-03 -1.664584691450579287e-03 4.036380156736650571e-04 2.110016854361721275e-03 -1.598288828967165537e-03 2.520775731057559380e-03 -1.046801610901432721e-03 1.568386173892133070e-03 7.766529473925384494e-03 3.675583055084110512e-03 -7.856630857736234333e-03 3.535229940312205679e-03 3.852564420048262828e-03 5.681766047340428005e-03 -6.907824850180385202e-03 6.952051340590964176e-03 -5.734157228402658908e-03 -3.934754847452823570e-03 -6.764628461703051619e-03 1.452007419846083197e-03 -6.554974986253516225e-03 7.930810274816802938e-03 5.965560142780186939e-03 7.744314827256270836e-03 3.958075230359500707e-03 -4.217470669329264829e-03 5.516687831427825178e-03 -2.000254678254521912e-03 5.321335146663042776e-03 -7.425459535374842254e-03 -6.538546958959477913e-03 6.538794603353362614e-03 9.503974283268899759e-04 3.902207980647377089e-03 -6.635398797222771122e-03 -7.436718339772730932e-03 -5.735177633268506367e-03 7.485545017052301978e-03 4.934446827695981516e-03 -1.983953154541563679e-04 -3.554021303978280137e-03 2.029030790252303942e-03 3.077970332454920549e-03 -4.874195866396957219e-03 -7.791200256918683238e-03 -5.444221365673135825e-03 7.405661237241656022e-03 7.752752821330114938e-03 8.944701966632009893e-04 -3.807755022713373190e-03 5.501622393040507542e-03 5.590563124173273876e-03
2.674503105303692799e-03 3.586839386331811680e-03 7.745964133301185342e-03 -6.619529991417662240e-04 -7.472039299059665685e-03 -5.442374945935918827e-03 1.842608493459775565e-05 8.166542580588591685e-03 -1.282338431474273031e-03 6.914735731492212267e-03 -7.460114516660790868e-04 1.015244852168802753e-03 -1.061585065121993174e-03 -5.552465238127032333e-03 -2.457275000743651752e-03 -2.732687882385312524e-03 1.791724881210187900e-03 -5.808061321650286914e-03 7.121219419462148856e-03 2.507236988567525943e-03 -3.110772960031049812e-03 5.146803642224617378e-03 -6.168960976373542154e-03 4.488642877981391735e-03 2.669629415060376446e-03 -6.687796378269765529e-05 4.426842134398591491e-03 -7.064161404394718458e-03 2.969610459531955154e-03 -1.535865936963929160e-03 -7.597618829894700263e-04 -3.951542048184153444e-03 5.097654068286936943e-03 -7.060486465980173217e-03 6.864337332304718334e-03 -6.100355259888383397e-03 3.648683133931398745e-03 -1.240522142360154893e-03 -3.382897617324865866e-03 2.542409991854930468e-03 -1.027395771860048490e-05 -4.717390057223315621e-03 2.466552782869082389e-03 3.450888053678850473e-03 3.169290323027837072e-03 -5.982365215904337716e-03 -1.726070664628112650e-03 4.904328926742987371e-03 3.492259450759921738e-03 -7.406160668697297361e-04 5.031368543677097738e-04 7.670728536287743302e-03 -5.027184828524376356e-03 -4.186308297544072410e-03 -4.868727197847286942e-03 6.928789563003801000e-03 -3.584047509144368086e-03 6.006601388583970857e-03 4.442103158220814252e-03 7.811304468678450033e-03 2.829145249173100479e-03
7.840070417923122523e-03 -4.064373164302460990e-03 7.025566545985456948e-03 2.811083696425341685e-03 -4.050580966004197446e-03 -7.255807570379029132e-03 2.653353134623127538e-03 -1.987677303589726469e-03 -2.675639574967482101e-03 -4.424097020314241707e-03 2.961858462965875211e-04 3.713010620235851489e-03 1.628723149945386292e-03 -6.210074005613797077e-03 3.228373243878149973e-03 -4.772607362431669636e-03 8.052183380106275531e-03 6.866345006705831464e-03 -2.988045267597431998e-05 3.503671118129712478e-03 -1.594252312756325174e-03 7.451076299781296194e-03 1.944294834659065010e-03 6.012145311983702750e-03 -2.619681154568800040e-03 -5.375518440326038788e-03 -7.316656266910711789e-03 2.076509140151538632e-03 4.116683434846564460e-03 -2.565169383349965443e-03 7.584237141382873040e-03 3.495002369591144673e-03 2.966703519480844847e-03 2.369338523753882625e-03 5.626314621955650491e-03 4.777967416122901045e-03 1.996889434446759773e-03 8.150374700859544172e-03 -5.478541597536013691e-03 -6.093020027900768708e-03 -5.957411854552445429e-03 -2.413623205274693234e-04 -7.229831858656733320e-03 7.361686112023110504e-03 4.702403113989759437e-03 2.121279645156660953e-03 -6.652629748999618585e-03 6.879324987593655322e-03 -4.252379424674064719e-03 -7.360652592076594863e-03 1.626428681924241976e-03 -2.402776028650803648e-03 -3.184193557439354318e-03 7.513800998263231792e-03 5.127163784167308030e-03 5.185768560432358829e-03 -2.630290821574476391e-03 3.985638583680308628e-03 7.936534906655629343e-03 1.225805669119372707e-03 -6.514475748589159884e-03
-4.360959216707392672e-03 1.465370156710025726e-03 -7.594555761176624564e-03 -4.172638382976555198e-03 -2.270182271045688427e-03 4.699734286858074303e-03 -5.550400044050318553e-03 5.652181927700485053e-03 -7.165471912231010862e-03 7.854414214773243127e-03 4.814307651415232828e-03 -7.069757073455745257e-03 6.104893940932875143e-03 4.580249279706027216e-04 5.657623217699737223e-03 -7.019230340016857986e-03 6.183791352386745765e-03 -4.156794863642410305e-03 -3.435643916756237273e-03 -3.404218675488838129e-03 -2.188771424064344349e-03 -4.550678287285294353e-03 7.685106100260642378e-03 1.948206479021300994e-03 5.211804506380299240e-04 5.737484577875489808e-03 6.517391368141677715e-03 -4.239251214605162070e-03 5.013290909633953338e-03 -5.023971196626840149e-03 -2.570189526153007949e-03 -1.825336822039314542e-03 -7.833230059354564720e-03 -5.998800102424504954e-03 -3.271853959883466896e-03 -7.796698788948481541e-03 6.426778663405633557e-03 -5.845746779782553387e-03 -1.058434574156918648e-03 1.372215592487605398e-03 6.931197337855280263e-03 -2.045842005733776274e-03 -4.883982295929732362e-03 8.059182630577829340e-03 3.936065263467991224e-03 4.742882339704469763e-04 3.950962220561852339e-04 4.164719862087674571e-03 7.771898427413713104e-03 -7.817988358165928880e-03 7.731469418333308460e-03 -4.485738539883226197e-03 -3.090045231015424269e-03 -1.780257386612177535e-03 5.070155630726365034e-03 2.833688118261895941e-03 5.017545202066197099e-03 -2.454363041877738461e-03 -5.454794592351952867e-03 4.410840327273162637e-03 2.693367511117490676e-03
-7.191721010150915576e-03 -2.133715528322048874e-03 -9.475558786894763136e-04 2.584100163313082441e-03 -4.215685696679222390e-03 2.254744356566558763e-03 -3.670918838718153533e-03 -7.476535711241458389e-03 1.157614233842529927e-03 -2.189734360522025032e-03 8.157118762610751986e-03 3.731540019713442888e-03 4.189056078309785769e-03 1.862436003795066991e-03 7.591177530518329955e-03 4.618064312029403901e-03 6.014772567134491973e-03 -3.890982235363230936e-03 -1.530591374089684126e-03 -5.408754391367299671e-03 1.773706152327112623e-03 -1.057272701703942074e-03 -2.650285350402081103e-03 6.146634181002389938e-03 8.062649292961106620e-03 6.072826425490637434e-03 1.902571519720112903e-03 -7.121509045948465344e-03 4.884758109653754288e-03 1.823433588974849098e-03 5.488791431015337813e-03 2.432161141847053593e-03 3.295691026147778285e-04 1.804963140687136994e-03 3.122755537418645672e-03 7.259625377527455931e-03 2.218725990822744548e-03 4.899838880811949529e-03 -3.861784874746676186e-03 -2.420651177137053515e-03 5.227046549760201721e-04 -4.142629744547490604e-03 7.922626662301866449e-03 5.023390861429574347e-03 6.892847669516600703e-03 -3.445738598743456130e-03 -6.604135250872053726e-03 3.960321843236868505e-03 -7.735812747002846629e-03 -1.201787790891612785e-03 3.185367518140278659e-03 -3.177036801389804613e-03 5.939026062388826771e-03 7.506014890503636197e-03 7.879881454294737284e-03 -4.916367103945312039e-03 -4.901583904036253998e-03 1.738563154807439698e-03 1.339002783277407072e-03 2.529591809600485047e-03 4.744010651810929777e-03
-2.713116670776227757e-03 -1.451386317641818052e-03 -1.425432106458355067e-03 -7.874219570010295918e-04 3.750300072228636081e-03 -4.757841053617829427e-03 -6.937810455663464410e-03 -6.675686761014024487e-03 -6.477171218632931521e-03 -6.501917516348319423e-03 7.144362439695257222e-03 -1.603459554071530631e-03 4.854541107692351976e-03 1.224655411366033092e-03 -3.159502781542153707e-03 -6.802072014747868878e-03 -4.615481684701942117e-03 3.448065815316645952e-03 -4.766498778177880730e-03 4.965339235859246234e-03 5.738917145807063969e-03 -1.042125045197061020e-03 -4.315503167062048270e-03 -3.280584141791932813e-03 -7.288572807126732743e-03 5.523039613696746619e-03 7.750791120686101668e-03 7.796030737141327813e-03 -1.313142874815262547e-03 -6.109130749866499566e-04 2.018769226465029140e-03 -5.283315438898718817e-03 -6.585476960173556812e-03 2.446995507965921482e-03 -4.617513952732511980e-03 -7.804671551594390827e-03 -4.088709910018072449e-03 2.528924610612439186e-03 -1.593189566596022767e-03 -2.782495304991426492e-03 3.853827049984173692e-03 1.418715385617594360e-03 -5.374557815174693665e-03 4.145767710296614783e-03 -5.632476153245894249e-03 -4.939612816274790291e-03 7.585264925256048410e-03 -2.211970665223295454e-03 8.092189269283777200e-03 -1.167936046663482601e-03 -6.112403253017484328e-03 4.484174739989174596e-03 -9.242082337548342130e-05 -6.935400082418757134e-03 -1.793472169925955199e-03 5.372429601390246376e-03 -5.690883448298104247e-03 -9.707558859862906384e-04 -4.430764740197187627e-03 -4.413171359705996347e-03 -5.678076083548408426e-03
1.481932198010091004e-03 -1.900132555147598587e-03 6.240657926596938215e-03 -4.579635271058581265e-03 -1.020702439287457172e-03 -2.347172361564023313e-06 -4.287480106257833025e-03 3.071497311734894264e-04 6.326081104145798648e-03 -6.220336559457901801e-03 8.118176152572854909e-04 -9.058679538671149389e-05 -7.311780758360330625e-03 -6.692460793450864809e-03 -4.818426617057662564e-05 -3.547180973446698721e-03 -4.179716121078160505e-03 2.091792637027741625e-03 2.855315400897267403e-04 -2.981391236829262700e-03 7.398393307251295223e-03 1.734502053400857266e-03 5.752673472122923903e-03 -4.063775518812336347e-03 3.410061570384623902e-03 2.788642832670088292e-03 -5.246917771512254504e-03 3.398393923639889819e-03 6.885791381140296888e-03 -6.691664493869656921e-03 7.033505724436108983e-03 7.562776786905617277e-04 -4.880844190521126287e-03 -6.609518127336093916e-03 1.426573474623275134e-03 -5.830321179616628283e-04 4.275559019826279464e-03 6.652156130378377580e-04 -9.636749310508938016e-04 7.586109754076376596e-03 -7.672140234983002710e-03 -3.683802336640056886e-03 -1.702690806305550732e-03 6.292416244310337914e-03 -6.757748345820307340e-04 6.991922333196794181e-03 9.247604107432069731e-04 -4.981358063994760846e-04 3.460827352133967472e-03 3.657417739021916192e-03 7.097804402758565306e-03 -5.409427377277120641e-03 3.278725494372365656e-03 7.143642338902377042e-03 4.013158586526953051e-03 -1.617963006672790832e-03 2.743902774872717526e-03 1.937283590685241752e-03 1.980105996232774460e-03 3.702344286834880274e-03 3.043597133774972319e-03
2.752015643558800018e-03 -3.841174082544075892e-03 -7.913763663472701132e-03 3.782496298577252974e-03 4.660915980072788400e-03 5.656178331741656268e-03 4.104487312029128643e-03 5.253519081164267912e-03 -4.464843897084885133e-03 -5.698892885967006029e-03 3.661029876164878169e-03 6.516693937167106557e-03 7.826168843292130237e-03 -4.394371345856913635e-03 -2.574242292053784825e-03 4.721578305588541163e-03 4.842678952662205633e-04 6.276949511872272416e-03 6.067758384319376155e-03 -5.719941844975685863e-03 7.991549433565394225e-03 4.031010722389333917e-03 -3.162659669411912143e-03 2.610006699785403020e-03 -5.193174849498207943e-03 1.840060094099160021e-04 2.883507821112813591e-03 -6.972365735542212541e-03 -6.518664154222341897e-03 5.560871439301921446e-03 7.912057694280777084e-03 -5.472093799287484212e-03 7.948425795276029340e-03 -1.760208324262944705e-03 -4.858999434374722953e-03 8.170951515864941991e-03 -2.719505177129238026e-03 -1.232873640376026293e-03 -3.308116183825936946e-04 7.939116561670333042e-03 7.042980309642900630e-03 5.813458738574729667e-04 -5.673233358275682307e-03 -5.690902595711600995e-04 -3.067951517194758559e-04 3.639859977153889550e-03 -6.150877374331396516e-03 2.085434496978920416e-03 -5.062698377767986188e-03 1.223939862994740183e-03 -3.672671763148767018e-03 3.542157274598969202e-03 1.871228869715881732e-03 -7.375536751153016768e-03 4.034282360307823653e-03 4.587841126192187396e-03 7.435681847163604433e-03 -2.249754551157164689e-04 -3.838812990791105016e-03 -2.542092068691091146e-03 4.329662268865264868e-03
9.324521210915467928e-04 -2.475313333838511341e-03 3.438135842195561703e-03 -7.952329772211457273e-03 -4.808688116452161480e-03 6.943406945341927192e-03 7.288344335692706691e-03 -4.799476161983760175e-03 -7.118889103286699278e-03 -4.296582089648294175e-03 -4.248675762472608856e-03 5.505230300992050574e-04 -5.797174602844406763e-03 -3.816704685069848696e-03 -8.116775930541933123e-03 -4.124078258344315330e-03 -5.642977954226559290e-03 2.360252152234173367e-03 7.493213665397310472e-03 -4.432609397737180545e-04 1.109344687435670843e-03 -4.847177479305793228e-03 1.690495549971353373e-03 3.288114925563164273e-03 5.944845641298154154e-03 6.748689960504691832e-03 7.349201813067411659e-03 5.541315812368883750e-03 3.745834301502484406e-03 5.656751873313705867e-03 4.787251669371756987e-03 2.714673812709985160e-03 1.887108112703539398e-03 -1.429563199553914206e-03 9.098870663762585048e-04 -6.168884858599225918e-03 3.766683448691779748e-03 6.012783317308196054e-03 -8.130833682259433481e-03 7.254893145470144716e-03 -4.558301543589304491e-03 3.288018558440963801e-03 -6.364640478244555470e-03 -2.277057795763698725e-03 -4.756831039805413733e-03 1.135791987639470785e-03 5.260375671483404764e-04 -2.421499217420640220e-03 -6.618936736933657070e-03 6.954458384348509783e-03 6.161341170456408403e-03 -4.770423529421936176e-03 -6.830867424142768665e-03 6.536008469962726122e-03 2.372283470310248416e-03 -2.982691345616675024e-03 4.898776309683688934e-03 -2.694592800396491267e-04 4.958835716525233223e-03 -3.859780458755213660e-03 6.782525774690540202e-03
9.620613269232559939e-05 2.387963917244570120e-03 -2.250344758012262809e-03 -7.721291092769533293e-03 7.817294534084870752e-03 -1.362355759664262041e-03 -6.479411730388171843e-03 7.341755231919598265e-03 5.448770725826035041e-03 7.959782922644221756e-03 -7.167901984829928505e-03 -2.943563699049788276e-03 -4.941770295020083727e-03 7.603038284136871480e-03 -2.627490293259231689e-03 8.522583221239349999e-04 -9.479752810402034685e-04 1.063556398767394329e-03 8.103502207825517487e-03 7.456732158372619476e-03 -7.413746109475367711e-03 -7.504481283963707061e-03 1.423725086815477367e-03 2.021963650721962311e-03 -7.100738276161947145e-03 5.023770421307019104e-03 -6.365387068709742885e-03 -8.530173835255040748e-05 3.932482969547844084e-03 1.485937857900779605e-03 7.685537084329329208e-03 6.458353316215414974e-03 5.097290272201121866e-03 -8.058236123553417368e-03 7.923157104448368473e-03 -4.232588084121574092e-03 -6.601554104651138379e-03 -1.314406536379267125e-03 -6.574494698756138192e-03 6.272559079434277332e-03 5.066208909314655687e-03 5.539254762855530881e-03 -2.771913523158749809e-03 -1.983779351879981501e-03 1.446834276862693502e-03 -7.400594071643780240e-03 -6.074562931209007838e-03 6.960610457942375748e-03 -7.387234163827519594e-03 -8.008936174525650362e-03 2.720223135615923785e-03 6.391641932697429695e-03 -5.098657501399082338e-03 -2.762442245700858466e-03 3.832514095441958563e-03 -7.900315852441067155e-03 1.461740208178472292e-03 8.074683811731557873e-03 1.963374539466631458e-03 3.561469927939242205e-03 -1.061605771572111077e-03
7.179835558764056588e-03 7.700408772773928781e-03 4.707322320666399579e-04 5.870649021888305757e-03 7.006036194032184625e-03 -3.338495529971389174e-03 8.998146139957072243e-05 3.925631687868977662e-03 8.060230623580728546e-03 -2.039543440613432457e-03 -7.454813148444761062e-03 -3.612374796386963981e-03 1.388545690677561728e-03 -6.468807002826193302e-03 2.545468519139471378e-03 -3.200210407331995598e-03 -6.982547726873379601e-03 -1.964176114478750033e-03 1.269738287255940679e-04 -1.238023944504224386e-03 -1.487325467047322103e-04 -3.647320973264311927e-05 1.626143544056201165e-03 -1.908958852139593793e-03 -4.954924815660212423e-03 7.823703932335125330e-03 1.963646767048495348e-03 2.918069359967585819e-03 5.517249741486169451e-03 3.285039063633470036e-03 -2.002761097351014874e-03 -7.249282631249556220e-03 6.690364621374424864e-04 6.676906296490793535e-03 -6.232255268119653996e-04 -7.419075428350444326e-03 -5.526001691618757927e-04 5.746040359605322084e-03 1.584158208390210043e-03 8.089497304707820788e-03 -5.279225770247942054e-03 -2.868381949379148789e-03 -7.373568159234186216e-03 -7.522587794219206744e-04 -6.087987269388916989e-03 -1.134660405618669737e-03 6.544346233755726078e-03 5.870129176445243804e-03 -3.803351876967093516e-03 -5.670230747296662113e-03 -1.479656570550650328e-03 -7.285876127250789924e-03 -3.876833700342269956e-03 6.684213916808167191e-03 8.037799124418576122e-03 -5.725035762269183384e-03 9.998520965057745846e-04 -1.834977722316080001e-04 -6.507437371908115012e-04 -4.175799809499757161e-03 1.065424740470069520e-03
-7.871705960664261356e-03 1.807496835080774078e-04 6.221290694255811674e-03 -2.187933476953883918e-03 7.759282408583317511e-03 4.324078576005049510e-03 6.269395667451089713e-03 -3.062830346143016920e-03 6.083012326814766710e-03 -2.594323841902900635e-03 7.936341428485019570e-03 -2.901752174165102977e-03 7.951183517565451123e-03 -2.060475749682357839e-03 -3.913408000735614858e-03 -6.822472184916983200e-03 -1.697208635036400598e-03 5.684293157407444702e-03 2.157261659493751871e-04 -2.202926224403922544e-03 4.892042827891232223e-03 -4.456202710811631162e-03 8.070015594886620694e-03 4.375609397588424779e-03 2.403630171048389344e-03 -5.998347003735084518e-03 1.162416464161193305e-03 -1.067075317282575007e-03 -3.541414381077689910e-03 7.074683450631022094e-03 8.041682192550620931e-03 4.768745893282445858e-03 -3.792002652957138925e-04 1.282841518224029503e-03 -1.835356660136823470e-03 5.801158847932613716e-03 -9.427845850818253326e-04 -4.376603928825742625e-03 -7.165097815628372613e-03 9.468306138020292362e-05 -7.011418996922105795e-03 1.350175697639253991e-03 -5.283116926148944889e-03 -7.801760983102495710e-03 -6.351307167657069264e-04 -7.922430911305280640e-03 -5.694671634178824146e-03 5.222653131260805021e-03 -1.699568842576227798e-03 4.624717664827136462e-03 6.464703528864836068e-04 -5.244103524530608143e-03 5.945328485622991196e-03 -6.776360469674821106e-03 4.904305599046539232e-03 -6.989571511106770600e-03 6.706792563295616363e-03 1.135441423300981995e-03 2.419881312019140154e-03 -2.095370423452288904e-03 -3.514197893994201738e-03
-5.822671797190330858e-04 8.585601753150068349e-04 3.032399112371518199e-03 9.430675979386678870e-04 1.025278513771821221e-04 -4.703097022918854148e-03 4.597331506036224716e-03 -1.472011428007789433e-03 -4.773796866418184882e-03 1.283657999897117041e-03 1.965230063911548031e-03 2.174726239685073961e-03 4.239241694648784170e-03 1.235494552722711525e-03 -9.464255367008919326e-04 5.878199780545165579e-03 2.411648423234380445e-03 -8.303454769511414701e-04 -4.067364304697698024e-03 5.232841571044836645e-03 4.840222737819664667e-04 -7.145595622701877286e-03 -4.029928563700781695e-03 8.082443122851624626e-03 -2.791016485971239275e-03 -7.049162324936908419e-03 7.310064540603025685e-03 -1.380474683169343603e-04 4.245670265930564027e-03 -1.358280114204925802e-03 -2.693756757677333476e-03 7.931697645873500221e-03 4.974154158830981082e-03 7.104911687047577029e-03 -7.991848286462066922e-03 -2.333996619705244226e-03 -6.458743576296239325e-03 -3.242296074277574089e-03 -7.336840165080964378e-03 -3.443685007557650835e-03 3.220849440043407549e-03 5.600284250588609403e-03 -4.653090039375105957e-03 -2.975583240453111809e-03 8.157059356830214172e-03 -3.771275874758154081e-03 -4.778858532081958765e-05 6.946342414950311406e-03 -6.647144507162148011e-03 -3.268428669960679253e-03 6.046059277397878434e-03 -3.494704159405261079e-03 7.723571688162291296e-03 5.711996973070983599e-03 -3.299841915341444540e-03 6.636861491152603806e-03 2.616029594467350963e-03 2.877048339710926161e-03 3.082750560457947833e-03 7.370106253542500763e-03 3.262213024991453270e-05
-7.816767048250905514e-03 -1.603445358459834949e-03 -5.547091734291430265e-04 -1.372334447677994729e-03 2.341554744633822516e-03 -6.407660728806135152e-03 -8.169535639078686143e-03 -2.012496946854047328e-03 5.589651950446474296e-03 4.962092070706827091e-04 2.648942091348320885e-03 4.658949409904585004e-03 4.190851665540158352e-03 4.106825107211622972e-05 -1.231046696941978484e-03 3.206710292055457712e-04 -6.169404673746303400e-03 -2.202448198385985670e-03 3.781252847522151989e-03 3.711390961520733001e-03 7.669155895386426877e-03 5.785432857171901241e-03 4.491202889896019415e-03 -4.219649979180092707e-03 2.849413041202505242e-03 -6.918466854792800630e-03 3.531061720820134753e-03 3.756228816971881115e-03 5.624330610407488745e-03 -4.886667668106886575e-03 -4.183567000206282922e-03 -3.487743711718099132e-03 -3.397238735629829962e-03 1.227854673031053209e-03 -3.651264564010469824e-03 4.346319494107171374e-03 -5.758563582150371708e-03 1.296460226066810384e-04 9.647181382137111350e-04 -2.590631189751651381e-04 -3.949601095859927267e-03 -7.910753770569880008e-03 -4.687541852677421655e-03 3.995156477072077730e-03 -1.799572929773144044e-03 -1.021012952452814496e-03 3.388868651071293842e-03 -7.442239200976801840e-03 4.247259774517337175e-03 -5.821000172246881474e-03 -3.732191883118116116e-03 -7.270890045589755400e-03 -2.123446755045086537e-03 3.184401462225025514e-04 5.367110530128706147e-03 -5.922777558287677969e-03 1.897694348226343711e-03 -5.780977437065834557e-03 1.848645358375620301e-03 2.254459097670281909e-03 3.190467766804068808e-03
2.209602710806911341e-03 -7.719955592416078566e-03 6.405104573350320352e-03 7.170281714964853517e-03 4.613822988296125555e-03 -5.339840522737226980e-03 3.112064480654742893e-03 3.409983531861211434e-03 -3.635384074973274302e-03 5.820317390596647239e-03 4.628248958486368136e-03 -1.664357625448691091e-03 4.877568384672646695e-03 -6.506198586372651319e-03 -3.279171474190240021e-03 6.391920192872730527e-03 -6.698894114315723063e-03 2.813204644052155062e-03 -6.205959973159303616e-03 3.593982789373301873e-04 1.712656861111255119e-03 -4.597361291294501870e-03 -5.729641593082604456e-03 6.699361601072912828e-03 -5.268162075871623065e-03 4.727329024249951606e-03 7.792681718215751716e-03 -5.021931768290526996e-03 7.465043996424261877e-03 8.818357238250529306e-04 -5.130123142746274324e-03 -7.018527961437082824e-03 1.432911323240800699e-03 7.952844932619315688e-04 7.797718696052511125e-03 1.883973007252551582e-03 3.125073257875983501e-05 1.781434022054486851e-03 1.238370990055573037e-03 -2.760385371395041205e-03 -3.454995874060509502e-03 -2.312907879660152342e-03 6.097200352072860985e-04 3.639736012373596258e-03 4.819363011714511424e-04 -2.394301600104915134e-04 3.139037734369645727e-04 -8.077528127193443763e-03 6.479533544892694327e-03 1.301094318022170265e-03 -4.033560439365604933e-03 -7.128718772513031876e-03 -2.091383640770801480e-03 -5.440176581256042990e-03 3.579079648954042181e-03 6.266368677782555366e-03 -3.844906188249244683e-03 5.391467197863111793e-04 -5.171790817550323341e-03 7.504666217851804419e-03 -2.481673521534613451e-03
-3.488826940358773915e-04 -1.720241832021465571e-03 -4.473922034998413857e-03 2.971385529258543240e-03 -4.986899894390542896e-03 1.958707158914012661e-03 -8.131999519537535387e-03 -3.111122864643829644e-03 2.608614245728863024e-03 7.326515181115536221e-03 -3.681486816413497877e-03 4.383728747647763074e-03 -8.233517842153210975e-05 9.827751980962112777e-04 -2.732828854928679579e-03 -4.313411744003570192e-04 1.429134113260033603e-03 -8.705682366448013604e-04 7.184374073752027370e-03 -2.188521414609396858e-03 6.653661651126463461e-04 2.722046281005497184e-03 5.416650744731577038e-03 -6.599834561495151325e-03 5.229068210537110226e-03 -5.310039839486895702e-03 1.098487465941370977e-03 -4.471292916585788146e-03 7.574282183745473587e-03 7.083309213100408286e-03 7.044585486584939785e-03 -1.274468078864498220e-03 -4.828064419526894094e-04 -2.950991790857185326e-03 -4.781363746730049602e-04 -2.425253356178652155e-03 -8.097377375031843474e-03 -2.118175506170237588e-04 6.493566441049137411e-04 2.033659744133746103e-03 -2.825432757113732068e-03 -6.658892357701906746e-03 5.097252595097724603e-03 3.395569760722395858e-03 -2.192456041609044080e-03 5.368995913214276439e-03 -1.330854585994654948e-04 -5.927339650545784995e-03 5.653234112771710410e-03 2.074814745681358152e-03 2.295527284616875538e-03 -1.616392514182322937e-03 6.401291340613644854e-03 4.907112154131317017e-03 -9.501111460517280144e-04 6.880263519866036681e-03 2.062672718116075055e-04 5.022618223933274229e-03 -7.944671130225643141e-03 5.477641580340950750e-03 6.404635605275890708e-03
-2.659962555834133151e-03 6.567752585076032379e-03 2.870292022847158175e-03 1.024694571017050956e-03 3.447626153805866123e-03 -3.473183497909748500e-03 -6.681819778834733117e-04 -8.814913354552450508e-05 5.575796440812127303e-03 -3.590041672866535472e-03 -5.965625619916203881e-03 -4.029745966920164103e-03 -4.824970072936564380e-03 -7.668794063148942283e-03 7.809484603586019924e-05 5.372905730335001545e-03 5.967029154916207029e-03 -3.633919659865180937e-03 7.205934709798996265e-03 -7.866020191930478064e-03 7.486647423325982695e-03 1.228396991704013702e-03 4.406322502217186951e-03 7.543816394650027998e-03 -4.100007276638275786e-03 -7.910756236498140206e-03 -3.387141382954910601e-03 6.382236151672769295e-03 -4.934624971026202456e-03 -4.681800263976420434e-03 -2.676233825551237698e-03 -8.131313481048252703e-03 -7.532573194347141551e-03 -2.292183417319126025e-03 4.843501090186242211e-03 -1.639749809186156690e-03 4.785081612763499720e-03 -4.223435923930192980e-03 -6.482775368881534342e-03 -3.096999174392230277e-03 -9.105728103575702267e-04 4.402210204573884025e-03 5.466866426465903303e-03 -3.010174710052655571e-03 -6.387026575791271074e-04 6.932106381387949379e-04 -4.766322559058589273e-03 -1.637416829862840817e-03 7.181838904447292518e-03 -1.163042282284961447e-03 5.728623297240399356e-03 5.968055045664043615e-03 2.765242430184229605e-03 2.377168352843475607e-03 3.839642573726686700e-03 6.445975139492465811e-03 1.089207061525274481e-03 -3.247675063965472890e-03 1.410296781841204744e-03 -3.378134837669018870e-03 -2.670975675520288056e-04
3.183691383584321202e-03 1.075808613678723435e-04 -6.077282920263449469e-03 -1.900426263158313915e-03 2.586489671364025980e-03 -6.884894522922093557e-03 4.965407473824604359e-03 -1.038073751677865385e-03 -1.314174414243128065e-03 8.314648055160831636e-04 -6.186726668439746293e-03 4.218978237264071202e-03 7.454962375077376149e-03 -2.387279055777228286e-03 -5.742983022269020077e-03 -7.470610455057698912e-03 3.667122033730553163e-03 -7.087273911789962813e-03 -3.002466093540221218e-03 -3.416022805540034311e-03 4.180872897542788763e-04 1.689111326540870817e-03 -6.440695416012097788e-04 7.416187173453988452e-03 5.613218291603858795e-03 -4.026681682587512391e-03 -2.517417820462990175e-03 -2.188288596788437283e-03 -7.889514626243727263e-03 -6.606547915567057006e-05 -2.459348061312031930e-05 1.255299706963624445e-03 1.372673464138324598e-03 2.566007916142691581e-03 7.980715663266227736e-03 5.484472514379959418e-03 6.317784742107845561e-03 -3.647559060937918644e-03 -6.335413775829965184e-03 -2.592863509814001717e-03 -1.636625784938322732e-03 -4.307055077045944882e-03 -5.791155752218297287e-03 -6.665493537100986715e-03 6.940708594770767653e-03 5.284064827356898045e-03 -3.112886879384326247e-03 -4.593214447613323120e-03 -6.122033231803319410e-03 9.885989916207822692e-04 2.037674631462069869e-03 -3.270304665081697967e-03 5.729668704852823938e-03 -1.853622137301649299e-03 7.735404323752482700e-03 1.102225373332963582e-03 -6.851938469788373259e-03 5.291610436713891155e-03 3.833993673041343961e-03 -7.055394290379653037e-03 -7.101235274814763840e-03
5.849349299937680810e-03 3.563341361512765287e-03 3.231845673199637212e-03 -4.302842016933950200e-03 -3.114603301674868756e-03 -2.640698116265493244e-03 -5.555062866360034428e-03 -7.294921308822218883e-03 5.546134171221097503e-03 4.829467913401547588e-03 2.519354809106593915e-03 5.821463994563113101e-03 5.361211140475687781e-03 2.464324544948156420e-03 -2.411697320468633374e-03 -1.539569903075821769e-03 3.528620434234887304e-03 6.221202559940625446e-03 -7.889457869787909125e-03 9.570578228272324378e-04 -5.265086394679967946e-03 1.817695073631140495e-03 -2.230855099054698809e-03 -6.359112268610714498e-03 3.321839762909102253e-03 1.845525007787439734e-03 -2.467470379858028966e-03 -6.009029021456339242e-03 1.552614345357784809e-03 1.985941921080919617e-03 -3.467109554178419636e-03 -2.939591966515183070e-03 4.324181414143261210e-03 -7.606022595593505548e-03 5.029751332304191816e-03 3.913751439245929595e-03 3.178861410185942343e-03 5.953110654486962194e-03 -9.258507043992522320e-04 6.333196286468943323e-03 4.354207660655645337e-03 -8.086601413393457172e-03 -7.932682238293116070e-04 -6.775364411354678484e-04 -6.637874420379752914e-03 3.769930043649253812e-03 -4.999665688901628810e-03 -5.224856246760990926e-03 -4.637956438074827652e-03 6.353665083113461953e-03 2.441735326967986106e-03 1.110099771284067671e-03 -3.892929953739233256e-03 -4.215469575105697773e-03 -3.399197898071856100e-03 -8.151908616116573802e-03 -5.041502711975578109e-03 1.793252502314860233e-03 -2.199923510419338202e-03 4.875842779584655534e-03 -7.664547384475374134e-03
-5.904337437798060778e-03 6.227532239952062593e-04 -6.918490423934595991e-03 -8.010107795574886169e-03 3.954439547891319684e-03 -6.189848928248243426e-03 -6.495389332544875167e-03 -3.686169000357752447e-03 3.477253645294260329e-03 -4.956097092625585607e-04 3.463865795802824679e-03 -6.317521528212791636e-03 -6.878457261178602331e-03 6.868245488867680965e-03 1.310552345087241319e-03 6.832871817150303062e-03 -4.809648171427262711e-03 -6.485416672195222151e-03 4.419554383770151959e-03 -3.076419476517913178e-03 -7.028812319010206873e-03 2.828638287193079720e-03 6.444735321502711653e-03 -5.800621600563438118e-03 6.312459849029559630e-03 -7.022930515905851170e-03 -4.447701826467625325e-03 -1.456346485417672927e-03 -7.156152870962579661e-03 2.193277827303680844e-03 -1.558764061942996548e-05 -2.204113515050803822e-03 -4.837051044286455777e-03 2.143235466411220688e-03 2.658671241536660068e-05 -2.312084626898477414e-03 -2.382666297830385652e-03 -5.997218250057253022e-04 -3.968609837234209591e-03 -4.494862869617642295e-03 -3.655492626364937984e-03 7.085406969087918241e-03 -8.621768210251923650e-04 4.717247447615801129e-03 1.703572267713650279e-04 -5.374396892839789983e-03 3.063355408378341804e-04 6.269147111810889628e-04 -4.881265068536103091e-03 -1.802573443357487898e-04 6.230569431944573897e-03 -8.012217772278860950e-03 3.203444789649205135e-03 -7.345206821228127993e-03 -7.742033877231320298e-03 -6.116857117171685398e-04 7.609761550527964838e-03 7.121429675844954954e-03 1.868216981904412613e-03 5.094767584619883799e-03 5.762462364972575912e-03
3.015613614254888594e-03 -6.190970052008907230e-03 6.312040132728444219e-03 -1.359333659397554683e-04 4.652020546193680328e-03 -3.164853658774611708e-03 -9.859154685934266166e-04 7.215016221389381965e-03 -7.284188400927845211e-03 1.535093447586058021e-03 2.879347730129457744e-03 -5.310628065484723076e-03 3.765856542517678068e-03 -5.024139814901833895e-03 6.132648168849673051e-03 -4.705545500644421966e-03 2.782824547004569826e-03 -1.983518359983861383e-03 -4.761877749457087833e-03 7.501618286151126927e-03 5.983588427266820636e-03 9.268338108438922002e-04 -1.597335310855979053e-03 2.218355406941971419e-03 3.874437616974138118e-03 -3.899180421282641938e-03 3.197423971836831080e-04 -4.417996229241175077e-03 -3.172327939231687176e-03 -5.175279664040347526e-03 8.134084123549040549e-03 6.073735732906234211e-03 -3.201419233414687371e-04 -2.367318972151399512e-03 4.201016373977030025e-03 7.723037821670952069e-04 -1.575977952790605201e-03 6.491676755741752208e-03 -8.021861682256522033e-03 -2.338358588418647591e-03 -7.319298702559926158e-03 6.284534897049444749e-03 -6.940529866770319550e-03 -6.592082540495277851e-03 7.972729346420700733e-03 -4.309403026344094285e-03 4.769598742206164477e-03 8.466512858108128647e-04 -2.287029261543381022e-03 -2.338680568330285710e-03 -7.720226349776465775e-03 2.929886315131345967e-03 -6.464268109673885002e-03 -5.385770289074033601e-03 2.635875391007676954e-03 -1.186889180621792696e-03 -3.206674011059315425e-03 -7.418362342873707251e-03 -5.237148629106173903e-03 4.050703791472180446e-03 2.071734290273531329e-03
5.440021203772932301e-03 5.503155768103005704e-03 4.502474026575303823e-03 -2.046522768366764583e-03 5.178542501863059311e-03 7.445741939600904538e-03 6.983913951274076451e-03 -2.947187085408213038e-03 -4.216483374453477810e-03 4.433826589756681077e-03 6.249909204750971059e-03 5.619160964065752356e-03 -2.435783036429866460e-03 7.366882911305666290e-03 -6.241635183284978058e-03 6.371659448281946289e-03 -6.613395291332725516e-03 3.196273591584806659e-03 5.970378061750122520e-03 -4.619937812864345454e-03 -5.650129285371997129e-03 -6.098464212076431558e-03 -4.665963295766163699e-03 -7.922424280124150398e-03 7.270353891119893386e-03 9.496388868690096990e-04 -5.252705194293584567e-03 -3.470254858895094677e-03 3.013841354259298722e-03 7.988266573427606557e-03 -4.312486562430908194e-03 -1.871293110601981134e-03 4.943803835219723330e-03 2.428704694859435895e-03 5.118999712016191611e-03 -8.172752060984875278e-03 -2.266652992076337823e-03 1.599770198463929677e-03 7.407545795019978424e-03 -8.098043900281525626e-03 -8.176254486085384604e-03 2.953356521654737499e-03 6.074801816095473650e-04 4.342206729211818897e-03 -5.132982095929569319e-03 3.059944302897488547e-03 -6.662379635338126251e-03 2.289885212418988833e-03 7.341631804495280661e-04 9.956067942106464758e-04 -2.000159305342991828e-03 1.022133673432405049e-03 6.814472738494267712e-03 6.676969599682690271e-03 2.294820272814612414e-03 1.680231013608781548e-03 -4.145453430902854529e-03 -7.993416258078502729e-03 7.082903950818652747e-03 -2.926828982932963563e-06 -3.942007633625975449e-03
5.399248165222287829e-03 -6.179676283948600142e-03 7.988444106161075517e-03 -7.977285417092123618e-03 5.577371222019499378e-03 2.245295802945542971e-03 -4.661992608599851290e-04 3.788642767477416740e-03 -3.875956372117214492e-03 7.155779473298387594e-03 1.597542039054097168e-04 -3.490679016628504133e-03 -7.166305170023519987e-03 1.520307355414932116e-03 7.688075837828841838e-03 6.994008196041841957e-04 3.501667636794962221e-03 -2.939653426345528731e-03 -2.787542699848481742e-03 6.697086843416103982e-03 1.134268836209595399e-03 -6.876305964608121768e-03 -3.075966347816027138e-03 7.281076148637669054e-03 5.122068835461193737e-03 -1.644804010333433472e-03 -7.326426205112940120e-03 2.215961931290437795e-03 -2.655308082444744928e-03 -6.264782447578588764e-03 -3.492342312162182230e-03 6.265882491242437749e-03 7.140938454943497257e-03 4.769848232671238322e-03 -6.884487084635543264e-03 6.505989603556574727e-03 -6.286717668617007940e-04 -3.553023831714279684e-03 -3.136738823662383116e-03 6.450270267706986055e-03 7.484155531721145560e-05 -6.656739644344923830e-03 2.251331998829056436e-03 -6.263860586419684948e-04 4.598149829813068246e-05 -4.578840735180726013e-03 -1.840815189226333373e-03 -6.349258491941447632e-03 5.257435332892688648e-03 2.316470904978645134e-03 -6.629083138298726662e-03 -7.754234460836566430e-03 3.250131065605307498e-03 -1.943117116693652419e-03 2.589090193113798011e-03 2.393975904982272723e-04 5.950501018511135734e-03 3.662903144331340621e-03 -4.020900738990479048e-03 6.601508909285990975e-03 -2.900121002352858655e-03
1.813799715744635055e-03 -2.337586904467042065e-03 4.106503415213031555e-03 8.492076230878966431e-04 -8.003112062331198956e-03 -4.517849050056301115e-03 5.412742526954526789e-04 7.113994847296141455e-03 -3.219257253452894631e-03 -1.767382423133746425e-03 -5.182275454003808582e-03 2.330853763358013003e-03 -7.229736665914636429e-03 1.216239698626112725e-03 -9.885089532003805274e-04 7.406457288957954757e-03 -6.391026405098013466e-03 7.626818737356955494e-03 5.685474622640107265e-03 8.022939700363851748e-03 1.215486899427142137e-03 2.349323638007242906e-03 -4.385838639608083053e-03 -4.950516249988245673e-03 -5.819808244472611525e-03 2.444934776270170709e-03 -3.495146629630199731e-04 3.828992408363528568e-03 -1.283368881885399784e-03 6.270253123280136037e-03 -2.279166805281757080e-03 6.545721323068463479e-03 -7.736586550665851617e-03 5.576028848327096304e-03 6.268717649343972728e-03 1.458565478599951545e-03 -5.302093532634097328e-03 -5.357177106782252604e-03 -2.932647476771146032e-03 3.593088201945763421e-03 -5.440210726378577090e-03 4.225452402985855824e-03 -4.434780654423880683e-03 -3.585386558868192478e-03 -7.098048094149313376e-03 -4.414330294641162326e-03 -4.622220182858363668e-03 -3.964524437667684732e-03 -2.842164378385559319e-03 -5.290927606646277440e-03 -5.601342883771655290e-03 6.638848488801656414e-03 7.738245234257460151e-03 3.104527488757172909e-03 -2.909886609631768227e-03 -6.717351421799417320e-03 2.325614836929858903e-04 2.961342282427545380e-04 -4.842141617302615601e-03 6.807269474268287310e-03 3.363605150655275128e-03
7.931783931345472508e-03 6.456169791228334037e-03 -7.867919974520609303e-03 2.484266204467979605e-03 8.148437329250392269e-04 4.070820962693257744e-03 -2.484186368029444800e-03 5.918761646457361414e-04 3.843390581649374846e-03 8.009028219761659892e-03 -5.632810633624482990e-03 5.958590820606537303e-03 -1.600425825675704829e-03 -7.383709378236550172e-03 5.493426679636542395e-03 -3.578109597346025399e-03 -2.332586140478560416e-04 6.701070771035880919e-03 4.339022479117259426e-03 6.004396932364661557e-03 5.516692137166896021e-03 -1.031423082146667135e-03 -3.493626500885295590e-03 7.985100449995162844e-03 -8.334005606879342151e-04 3.648881111399868149e-04 3.812131531427067135e-03 -4.376123102422581693e-03 1.641951422362404600e-03 6.963157583401975367e-03 -4.974407964450835301e-03 1.030353617396444210e-03 -2.805733271245195067e-03 3.010586534951446847e-03 -8.057730127569391609e-03 -6.882167772896023022e-03 -5.018555884114409352e-03 5.213296054180395489e-03 3.549608115559278396e-03 2.847191440523571399e-03 -2.005275026134123451e-03 3.650895887932780609e-03 6.749808012402231522e-03 -2.832691113944189182e-03 1.972206386775978218e-03 1.758124984597904741e-03 -2.475745161898778787e-03 6.527787711225196965e-03 3.335608942289238280e-03 -1.088910474470096250e-03 -3.198132018632903611e-03 7.352860305197069998e-03 -7.448872069360422399e-03 -9.163893955537443653e-04 -3.668505163058471963e-04 5.740617373252395947e-03 -7.457527774402519793e-03 -6.613847310449852412e-03 -1.694817268125536035e-03 3.754493700443554960e-03 1.020444935616142412e-05
