-1.367107001027411672e-01 2.239683397829864489e-02 2.749367276512412403e-02 6.119971865413813272e-02 -5.189157130771175630e-02 -1.250409959427887241e-01 3.615301562474915187e-02 1.019700265485407320e-01 -1.678044915060679931e-01 -6.781270379740306220e-02 1.178583533409567202e-01 -2.498106869763431701e-02 1.195642192586965705e-02 6.903055380090325488e-02 3.466578645019174898e-02 -7.753523805279202707e-03 -6.078040947291299401e-02 6.573400554211537850e-02 1.111364237153286000e-02 -3.183101098078462698e-02 3.147723800455248105e-02 -1.042957871776712675e-01 1.446459388879553498e-01 -1.313916811422814468e-01 -4.477028968596792613e-02 -1.375771591199141108e-01 -1.013023454995363448e-01 1.102814085945773015e-01 -1.549662501875604115e-01 -4.500317390468982354e-02 1.871801310050453734e-02 1.402508001307131366e-02 1.726313294743903048e-01 5.000771764983755197e-02 5.866323544723092698e-03 4.208175959548130646e-02 1.079430529211300865e-01 -1.465612665713317275e-02 8.923664961387682559e-02 1.381654496384430303e-02 1.119783313388974938e-01 5.241160074185137463e-02 9.787602070035986146e-02 -6.668421561457105184e-02 1.541132926828663041e-01 -1.331858010396633762e-01 -2.852643765749739435e-01 -1.172376179257690054e-01 -7.212608436622926222e-02 1.174634502856704635e-02 -5.216373503075871082e-02 -8.488386065584205276e-03 6.936724367733454466e-02 9.270280839922187544e-02 8.004457309168596518e-03 -3.926989320319519694e-02 -1.928097494615949037e-02 -3.669580217734565164e-02 -1.762672956271305880e-01 -9.198644942621975185e-02 8.324328708080389050e-02 -2.369230689820195010e-02 2.276509246958413266e-02 4.766926251149625898e-02 1.024533758904022929e-01 1.098638310944427543e-01 4.020043262145919089e-02 -4.907509781796684512e-02 6.982971618545173731e-02 8.296556536341044563e-02 7.914407699711961675e-02 3.807675719028538047e-02 2.572327340941088850e-04 4.514474503794631277e-02 -2.875152122833077653e-02 1.169375953261466566e-01 -8.641067177322812876e-02 8.062607574501563790e-02 9.573327387014907153e-02
-7.993538725695346903e-02 1.500379069756560546e-01 1.382206093732503416e-01 1.055894128801549738e-02 -1.085211497663149671e-01 3.039876120123261721e-02 4.867988235827912236e-02 1.228189710961707370e-01 -2.230399099993043630e-02 -1.059357461241980658e-01 5.190920509752085937e-02 -1.314974938203612026e-03 -2.771226904600226915e-02 1.406371954276399577e-02 1.416275875186593335e-02 4.661220465254536927e-03 -1.251883157616559550e-01 4.946115891364977896e-02 4.942796529847274731e-03 -4.932012661346348720e-02 5.350334284898999870e-02 4.732283703240532102e-02 2.332279048212022865e-02 -1.231779597625730499e-01 -7.262042985971051134e-02 8.703241251629331710e-02 5.544174678698910591e-02 9.041368070008665159e-02 4.554748920344095509e-02 9.070105631236456689e-02 2.238999034458996618e-02 1.257453131098101307e-01 1.013678359317521649e-01 2.078773813538782878e-01 5.357556697659889705e-02 -6.424675436287516361e-02 7.787760481493098685e-02 5.367621730911592559e-02 1.202765533970613088e-01 2.250297821207224852e-02 -1.191590893174857280e-01 -8.119351136104216438e-02 -1.461754013554276699e-01 1.052624494842942238e-01 6.478498558553200115e-02 2.088309188033907748e-01 -7.336681465575094208e-02 9.212598608556249458e-02 -1.447391841771852178e-02 4.529112018674029405e-03 6.690054337627204806e-02 1.146673660354189384e-01 -3.421257918345493865e-02 9.752643774339042615e-03 9.207584162360676894e-02 3.212744773694786726e-02 6.389070816743995518e-03 1.150473812651469918e-01 -3.875984727660881923e-03 4.761437082603622861e-02 -6.536619992028971926e-02 7.198137206586739667e-02 2.277706204370959914e-02 3.677712033200222080e-02 -6.195095073696532673e-02 -2.626849198293984555e-02 -2.499178922224054578e-02 -3.507022924663621977e-03 -2.255523328526441024e-02 2.794028352214433797e-02 6.545743504867765350e-02 2.790004846705822911e-02 -1.561325938990446721e-03 -4.765833688381512778e-02 1.419822640616213993e-02 4.998074361979226721e-02 -6.213016891019942228e-02 -4.696369462898740410e-02 1.331569808065567462e-01
-9.966267763411064406e-02 -2.443090189184348240e-02 3.333458866859122932e-02 7.395063178335861687e-02 3.343956597024238392e-02 6.501392682661535916e-02 2.121520293973202728e-02 -4.311550957081080465e-02 -1.018759791211585469e-01 -2.898533037645296268e-02 1.250253633544758103e-02 -3.109503146682211089e-02 -5.523280080816066195e-02 3.409500931244169308e-02 -6.128248344490550004e-02 4.929555243501821532e-03 -8.122533902435405406e-03 3.156446134530972725e-02 -2.456521714516313182e-02 7.946264216919348561e-03 1.170531199226751071e-02 6.872482415935329825e-02 1.363119271932953791e-01 -3.182544488133373650e-02 -2.818198281539553707e-02 1.104134580902336460e-01 -5.000321179163094015e-02 7.603108055733476256e-02 -9.340498249189684021e-02 -1.519191146866594525e-02 1.460296667401644877e-01 1.328377063086333132e-01 1.590712883882097473e-01 6.391330515564989934e-02 -7.056348717924625091e-02 -5.102765259966250688e-02 6.822419370803545213e-02 1.426320824341364979e-01 2.030215104746877636e-02 -7.279696421639383908e-02 -3.849714854258705354e-02 -4.243295006381125195e-02 8.276914384979469630e-02 -1.050412726444191203e-01 1.433618924079732918e-02 -1.200901331305838787e-01 -1.276924875686619998e-01 1.045320229773783333e-01 4.248309943491600932e-02 -1.153856433998336380e-02 -2.138410578309856563e-02 1.495899972444673376e-01 -2.125430805561844688e-02 1.513223360060451939e-01 4.575997641396769428e-02 1.087864833491630767e-01 -7.661935454224014230e-03 -1.882571520362759654e-01 -1.212377828250391504e-01 8.041039539454127028e-03 -1.310846888812538732e-02 1.482380793002733288e-01 -4.044033531340320009e-02 1.028770394857677628e-01 7.203603403258135307e-02 -4.459847504232875015e-02 -5.280397268073630523e-02 7.740900513816405260e-02 1.779369054722161614e-02 2.845741094232013407e-02 5.683522797008581234e-02 -3.959439784437024379e-02 7.306164556208366578e-02 -1.809829493234678399e-02 2.089675813646735963e-02 -4.121418441111217301e-02 -1.698296645585780848e-02 -1.149201731879396712e-02 -7.562304540737910252e-02
-1.600731569345839322e-01 4.890466218978925528e-02 2.084341667912982532e-02 9.832046862214447944e-03 5.328710158602929792e-02 -3.320002031564855960e-02 1.422752711016453918e-02 -1.060897557767038063e-01 -1.060921731150986924e-01 -4.303156307163612249e-02 -1.469688079968407834e-02 1.291052532492280303e-01 -7.727562930204104341e-02 -1.391664310505809354e-01 6.289711014596517658e-02 1.341364141307151148e-02 -1.982290853378810766e-02 3.239011841140524567e-02 -1.158959953153284317e-01 -1.436094093748746872e-02 7.746957958789076060e-02 3.616482039813510851e-02 -6.186993241216501987e-02 -1.397496330804506859e-03 -8.453316015176201570e-02 -9.145761808683448846e-02 -5.769361579844008159e-02 1.297784521770061622e-02 -2.646083739176879890e-02 1.972894918294380157e-02 4.310889633998365306e-02 7.823804302121662932e-03 -1.538295565316572661e-02 -1.268434102331728597e-01 -5.873048896929507906e-02 -1.137919576192896604e-02 -2.514700328648458022e-02 -1.515666559007992353e-01 9.390873171476318837e-02 -6.610348552219492968e-02 -6.071485501931546402e-03 9.530024897689090557e-02 7.121724132729846668e-02 7.336978034747829169e-02 9.322186728502955544e-02 -6.343156726839185855e-02 -3.225683403963149065e-02 -9.111770516715334001e-02 1.022216451053519215e-01 2.011977615248911749e-02 -4.229321970252498258e-02 6.647160590527356749e-02 -8.020185215357286679e-02 5.080276599517960512e-02 2.456753262628627588e-02 7.096536204880680987e-02 1.651913954822391284e-02 -4.785622772820682241e-02 -7.579116066743164792e-02 4.733290230382243557e-02 2.454898688922178482e-02 -2.137274483084393439e-02 -6.535841654963561731e-02 -7.972209065869194367e-02 1.006699941307932084e-02 -1.990567903680826381e-02 -1.158007043147022685e-01 -2.417965733693935859e-02 -4.656809148933002684e-02 1.311739878162804240e-02 -1.539622150315124727e-01 -3.758185894843883018e-02 5.550503205637602466e-02 9.220453049825769187e-02 4.403270924637776168e-02 6.092317823441975588e-02 -7.285246671564861443e-03 1.573135377977949445e-02 -4.164215519196629023e-03
-4.942859713436716096e-02 -6.557321595163573269e-02 -1.461451010143889340e-01 -2.669247882799814786e-02 -2.182125981602366788e-02 8.673740287565873119e-02 -4.337484860185501084e-02 -6.866084027612215368e-02 -5.628999680383561799e-02 7.910603509305214054e-02 -5.554229357954763163e-02 5.000958718774180592e-03 -7.343488585515585421e-02 1.132001337813188374e-02 1.386679296173813636e-01 2.194487226001419489e-02 1.000394055347724881e-01 1.186244431402820078e-02 -7.671667113172893349e-02 5.888049058626406568e-02 1.907014281600179911e-02 -1.384847381943780931e-02 1.400578266859617803e-02 -1.345060584000412618e-01 9.830199000784491797e-03 2.721472368548900206e-02 5.274330940535283674e-02 -4.660602251052760325e-02 -4.408087617594790009e-02 -3.279809957338384457e-02 3.276377484862500605e-02 -1.631410322368405733e-02 5.413620337964022283e-03 -8.148549932225901404e-02 1.023766346520005310e-01 -2.828267657306503258e-03 -2.754718071639397636e-02 1.787673296156297720e-01 2.470610300491437802e-02 1.362941423107152938e-02 -1.725165578590567503e-02 2.227934626608232827e-01 -1.925346285654598935e-02 -1.095108868169470118e-01 -5.490091833035058017e-02 -5.267959649163343749e-02 5.020375758211698125e-02 2.319290211025013815e-01 -5.806333821813888796e-02 7.177114801379622100e-02 5.339882923590716368e-02 1.132206956680021845e-04 7.047321222354635539e-02 -1.472542854102282250e-01 2.076097485315705760e-01 7.388137793338307724e-03 -7.595349620185037898e-02 -9.808661358757579662e-02 6.245931931749791610e-04 -2.446944764677543849e-01 6.783166917313954158e-02 6.785290424531030540e-02 -1.354050323942013190e-02 1.195307289815740470e-03 -2.105255263123041731e-02 1.061623637996950975e-01 -4.269838930652440634e-02 5.612345575017928245e-02 -4.007269267316906913e-02 7.857260633291181240e-02 -6.767819483352799370e-02 -3.928515000559383574e-02 4.912018501678502846e-02 -1.221229821324472803e-01 -4.569809783310389839e-02 1.345731638285581518e-02 -1.394025566593267706e-01 -8.864957183524263540e-02 1.040392994792911918e-01
1.391508152579974400e-01 7.117439354624484349e-02 3.973619285990255545e-02 -4.631611157003427681e-02 3.516526558944158692e-02 3.974631910414490321e-02 -4.200237838919734790e-02 -2.060571824347617181e-02 6.194384523731450570e-02 -2.457435214930725476e-02 -1.130037461979084557e-01 -1.394661760822084040e-01 4.027648386521653912e-02 3.516201693065524464e-02 2.526899164536892256e-02 -8.450427848205266379e-02 -7.522855903866959570e-02 -9.940517885231049677e-02 -4.576432217726938284e-02 2.053603374410946023e-02 1.425759257396497504e-01 -1.801595176609075560e-02 -4.775286785917660926e-02 -4.118082794130620283e-02 -3.096558664920566473e-02 2.757391223303089223e-03 -7.126532874628815906e-02 -2.195548137048530107e-02 -1.361771329623491233e-01 1.361322045996275765e-01 -7.939907026618270303e-02 1.554112477937893977e-02 -1.262635672377224530e-02 -4.631182145247217385e-02 3.919159566727967170e-02 2.371779278989850914e-02 8.314595345001807303e-02 -9.075669439517607129e-02 5.164833349884005026e-02 -1.498833188400068850e-01 1.352081839678652975e-01 -9.067684325475190710e-02 3.324737116856733843e-03 9.035316433155674010e-02 -7.716316093706057644e-02 -4.818127663208559425e-02 1.029659566918307984e-01 -1.203593355193123549e-01 -1.462672802307575515e-02 2.030012939572478636e-02 8.905275661958496347e-02 -4.680308649222367223e-02 -2.952263543298437598e-03 4.846808827530113550e-02 1.226775525270622641e-01 7.639697871849054911e-02 1.966635707408087852e-01 8.480192618360749002e-02 9.488944379426261788e-02 6.404196997128926150e-02 -9.295504864677865686e-02 -1.576280626884259961e-01 9.868438762914857887e-02 4.942990920743052519e-02 1.949096610866492968e-02 -4.337884599355141396e-02 1.908228887958249298e-02 -7.090403666330821753e-02 -5.503752273519370124e-03 4.732001933495331991e-02 9.770296755480519652e-03 3.932884429673577653e-02 5.950501639722089939e-03 -6.457734079415411443e-02 -7.191467568068871108e-02 -5.801900872037423634e-02 8.803911565085566215e-02 8.128855231049222918e-02 -2.942300497732819320e-02
1.039284608391251585e-01 6.331417647564072104e-02 1.537259615105609489e-01 5.071599562257651794e-02 -8.545829790534635595e-03 9.270851081274111838e-02 -2.384296644440353843e-02 3.133432076625564805e-02 -1.557005497556756546e-01 -4.628967112027070063e-02 1.126598192797212544e-01 2.336903046663064976e-02 3.351636017550593816e-02 -8.680777108106478568e-02 4.441119966990546286e-02 2.102476910708014346e-01 -1.311411456276035184e-02 8.553889226213914204e-03 -1.005726243989384650e-01 3.876749149808049466e-02 -1.272898306875477892e-03 9.725420822902750007e-02 5.532539506113400701e-02 -2.741804489546700169e-02 -2.387751121998751835e-03 -1.422853227978177620e-02 -6.121851213431028782e-02 -3.466522526079006405e-03 5.411258674010931830e-02 -2.978948899122316196e-02 -9.593534574767294265e-02 -2.792607287202296742e-02 -2.768166399852463322e-02 -1.866323340945993947e-02 3.417607344373739531e-02 6.098326612896747684e-02 1.325992995314267085e-02 2.468817298989643694e-03 -1.025728968479481251e-01 7.952031269817768852e-03 -8.955736696106901540e-02 -2.362250742229947062e-02 6.731736254535794495e-02 5.789075623895703626e-02 6.714327934092145789e-02 1.572622602037733741e-01 -8.242544414461130953e-02 -1.118653430795633480e-01 1.453197379068872086e-01 1.769698857912208045e-02 -5.379067783448911177e-02 2.760304451828267391e-02 -9.325246133957810699e-03 2.861308695348527276e-02 -4.949335714076094628e-02 8.630137065420429021e-04 1.797483773407869412e-02 4.959900040679256217e-02 1.962327940459643663e-02 1.361488920879734832e-01 4.427778338335694452e-02 6.729198015007660516e-02 -3.513713441325232167e-02 -2.375458659202855233e-02 9.316577183757043801e-02 4.925534419826047700e-02 -6.771385089930909151e-02 1.523500650614645902e-01 9.578444036151100016e-02 -8.177611747401711262e-02 7.140638021490972043e-02 -4.384843242774108529e-02 1.136427481902370917e-01 3.885231789265806285e-02 -7.155970448681830964e-02 -2.084190501878601179e-02 -1.224937702505222992e-03 1.941526507237521793e-03 -1.341642282787992579e-01
9.540137571619831947e-03 1.002902589318630522e-01 -6.544496349363487786e-02 -1.823380411844798335e-02 -2.214561585256099099e-02 1.137742842063837467e-01 -5.852101416720878468e-03 -1.955101233685901940e-02 1.813144895012090418e-01 1.255051874037019510e-01 3.671879576939206941e-02 3.566130436187141262e-02 -2.002234713552878548e-02 -4.431798503770367076e-02 -5.762140001473649992e-03 -5.695117186553465272e-02 7.136086014448905779e-02 3.139963584409895259e-02 3.603528231505924440e-02 1.257417047590367321e-01 -4.690389580265588720e-02 -6.893304680220332936e-02 1.952424782150810828e-03 4.473079850138581004e-02 8.242882824429542676e-02 8.645765500725777208e-02 6.003150759347952725e-02 1.140091597370102849e-01 3.141875514515465179e-02 8.929944997958283448e-02 8.995114428569334075e-02 -8.322753710363622881e-02 4.422047984231376044e-02 4.241959368759707499e-02 1.268823148878868712e-01 2.547206033726611557e-02 -8.791444370646875339e-02 1.006506477698075608e-02 9.567741921437142305e-02 9.172954788901666046e-02 4.988822303459208851e-02 -4.610696350522403009e-02 7.393224515021154519e-02 -6.547806941278468129e-03 -6.976652439777482340e-02 -3.066944030198705956e-02 3.646587867752153211e-02 2.156875701241525722e-02 5.890029103853827719e-02 -1.323145443888795736e-01 1.716871274570410874e-02 -3.819002691156606066e-03 1.236115508292248560e-01 -1.172781972621021393e-03 6.642310294440570417e-02 -2.411179305278757928e-02 1.355152538578512783e-02 1.068579496929592809e-01 -1.892728513947240440e-02 1.303333667404636687e-01 -1.010458976223779920e-01 -2.363056760248024094e-02 6.428429076645944540e-02 7.182441373895008530e-02 1.137310288534076341e-01 -4.507776557487107316e-02 1.765484365596723948e-01 4.631323095431530423e-02 9.864837715614119262e-02 -1.394401330622512675e-02 7.388853641046078113e-02 1.059271630450144136e-01 7.538670450831211345e-02 3.264362983584838396e-02 -1.281296733139745958e-01 6.255870959740081338e-02 -5.783621732867031545e-02 1.015789924643088760e-02 -5.381143087812475384e-02
6.863758012135781628e-02 -6.187108327057408430e-02 -2.208172357707253730e-01 5.322236656533247540e-02 -1.181851147113487446e-03 -1.371835884961252194e-01 -3.286347231359779131e-02 5.941113109245862306e-02 2.971649734097614459e-02 -7.646787555654210866e-02 -3.261763391489519437e-02 -3.860539514911751069e-02 -1.183511236019961152e-02 2.744401701984154618e-02 1.501604355467654750e-01 1.699193382901972305e-01 -4.541511098435188631e-02 -2.278101802933510736e-02 -9.268499410221207879e-02 7.155984613835339458e-02 5.540349053993803841e-02 -8.374839510276441135e-02 -1.356124981381504752e-02 6.107398935503485088e-02 -1.308981584436919726e-02 1.197601082269001554e-02 3.362298300730859335e-02 1.584294507933407536e-01 1.149579342808211418e-01 -2.965583791950132664e-02 8.365921219518165919e-02 -2.419440407735996834e-02 1.679165429146694394e-02 4.512845481808018533e-03 2.842321974483492941e-02 -1.048531361715615007e-01 1.682242030636843522e-01 -2.044642348008154226e-02 1.078278144038841146e-02 -1.281065097880101228e-03 2.985107196093627138e-02 6.845779273799076914e-03 -7.011961125597296340e-02 -4.766996094883634710e-03 -5.892597416690697337e-02 -8.664464424507022089e-02 -1.457907115833872447e-01 5.604971360333551450e-02 3.972232078010426437e-02 -1.055371025330186091e-01 1.630234497277054453e-02 7.717019986128617615e-02 -6.291739418802619332e-02 -6.142380616776286356e-02 -4.335888425035683280e-02 6.330151932803378123e-02 -8.210207689484649851e-02 -1.116002068189442947e-02 1.578557280568756993e-02 -1.368027266273061371e-01 -1.364080561957666665e-02 -8.654855663912763841e-02 -1.570674172906960653e-02 1.630388936071907116e-02 -8.295326251712556442e-02 -2.238760996115439841e-02 6.523573271736815560e-02 3.613187785858157364e-02 1.216496978458107558e-01 -4.533321397134069952e-02 -1.083395378641687640e-01 -5.928601472460123811e-02 7.607024534380039948e-02 -6.763497990230793455e-03 -2.902980504999265465e-02 -3.046272910552569324e-02 -2.099618434976477030e-02 7.253483265932011981e-02 -9.646845142911689153e-02
1.418559486969369343e-01 -9.341223984772370481e-02 1.698504543854915672e-01 -9.279825049427420369e-02 -1.902962995238975941e-01 -8.466001270847164917e-02 -6.751641554743706419e-02 -2.334885402789727005e-03 -9.268340135312030936e-02 6.762882795799302071e-02 -6.099069541754362223e-02 -3.055914811563064867e-02 7.929923654532829158e-02 9.622889273944096322e-02 9.254236284334393936e-02 4.187179153800929532e-03 3.606631062168246665e-02 1.032800611973228311e-01 -7.565782798902126460e-02 -1.532891475791154506e-02 4.342608367934824853e-02 -7.960952285522537863e-02 -1.663362945636897086e-02 -1.031959809917019910e-01 7.815546514360990904e-03 5.679919173131606908e-02 -6.621457385194266798e-02 -5.517516236483847869e-02 9.522095143163736286e-02 -1.729788919729421948e-01 1.216682338580805933e-01 -8.527554253384098115e-02 5.568246523054896924e-02 -5.211217896606383515e-03 1.241655261514976877e-01 -1.229630578428479032e-01 -3.680105149840233458e-02 -1.696927043512876793e-02 3.630042624881909402e-02 -3.398446280267636288e-02 9.474426113938641536e-02 -9.509425959316512855e-02 1.935666292483446266e-02 -5.425453072023276452e-03 -7.706751114219891757e-03 3.410254957510565343e-02 5.312901649511374280e-02 -8.122469876991797455e-02 -1.509406428005109213e-01 3.316509558074882263e-02 4.152372657232500375e-02 -3.667891222018720282e-02 -1.545864502623434805e-02 9.872736497962816826e-02 -1.011751514186583628e-01 1.812645365173864986e-03 -1.619522240162364277e-02 8.574030380541858287e-03 6.651058212126681468e-02 -5.986201420928667638e-02 -2.920362961363698329e-02 -4.853921157913191481e-02 -5.534415441147829545e-02 1.097169349427962182e-02 4.294317352956859846e-02 -8.825573535118177992e-02 -5.154719143736606612e-02 1.222443857430741132e-01 1.160947391664092776e-01 1.853999671274995931e-03 1.696107279764792405e-02 -7.656153897320676360e-02 -2.799326600446775531e-02 -8.350432559495277879e-03 1.505747679539141265e-02 -1.355465317207904530e-01 -7.004389781910226598e-02 3.967842844862557589e-02 8.709925447846343649e-02
1.203900472058438420e-01 9.846169845968838485e-02 4.739797344011299068e-02 -1.414282634716384213e-01 5.399003732538026901e-02 3.897337082107302925e-02 -9.325911368465408802e-02 4.615978481065580868e-02 -4.034428316746611898e-02 1.290958979475233942e-02 8.094397837584096922e-02 -1.033993596718015828e-01 -1.491891920577441411e-01 -9.723619897553878455e-02 -2.020809344397646312e-02 7.584858626726258268e-02 5.467094266200474284e-02 2.800277703982070876e-02 5.530037431885363036e-02 -7.142200809239310222e-02 2.043269405735171906e-01 -4.140691330063847597e-02 -1.057958393598305430e-01 -4.807231529239795048e-02 -4.618709579147210753e-02 3.141193158146137615e-02 -9.202356005359459135e-02 1.258768062148747646e-02 -8.332561900689840206e-02 -2.119468748433935706e-02 1.222621672549027427e-01 -1.027552795631479776e-01 -2.638924432105362039e-02 1.312587607717649041e-01 4.298402024021574785e-02 4.037687453668648702e-02 -6.078153232707729503e-02 -6.861744127481991806e-02 2.234274298831506744e-02 -4.661463137853862071e-02 -1.415298575021344679e-02 7.276679074623215726e-02 2.306158547703147932e-02 -6.678695070260648459e-02 -6.305097330002032430e-02 -5.440758117303067659e-02 4.702901061679350819e-02 -2.618949604989915039e-02 1.009016848159169782e-01 -2.298529224817776745e-02 -8.902099708996003002e-02 -8.431198409866887122e-02 1.805548920042684968e-02 2.987424687269390339e-02 2.609774691736953256e-02 2.896090982759436105e-02 -2.502347017669908150e-02 3.597054172874672440e-02 3.060180725109992034e-02 -3.569457267969847539e-03 -1.195803872240331772e-01 7.767350504581974069e-02 -3.856092326101748236e-02 9.365752614022035405e-02 -2.778180552957573018e-02 7.311889069416491194e-02 1.052558956082797342e-01 -1.312957044915344373e-01 2.508452309717709022e-02 -6.442070868320048938e-02 3.607306152833219398e-02 1.881405230181380228e-01 1.414544417308739588e-01 -4.714822715966934807e-02 -1.110095176570881914e-01 3.267371201986658813e-02 6.555028005056590112e-02 7.000793740421612510e-02 -1.857376568830922808e-02
2.448917568653313781e-04 -8.093444816193468699e-03 -5.679987994969541709e-02 -7.535626597426227369e-02 -8.028662815446258039e-03 -4.423473344523313339e-02 -1.084290250285643506e-02 7.452609741019373957e-02 6.928585047710189571e-02 -5.910555533731275124e-02 5.970209395340472791e-03 -1.235856281935831386e-01 -8.511738401756288597e-02 -1.107673204426227846e-02 -5.033910161404209216e-02 -3.464913400130760490e-02 2.136571891234425452e-02 1.354146740446802999e-02 6.927060267623998124e-02 -7.062979094667555524e-02 1.007544629652071533e-01 1.325275575798907091e-01 -2.997044293422197053e-02 -1.818387549378872037e-01 -6.206557697889970859e-02 8.868459559788566260e-02 3.315375030999852604e-03 -4.134493167832985205e-02 1.581315353881850017e-02 -4.046727092186861580e-02 -1.027806995065866924e-01 7.233169404998182617e-02 2.302170390091653335e-02 -6.919137589985087378e-02 4.161111163515784223e-02 1.074665336293514212e-01 1.518036158555976511e-01 6.983349322396899261e-02 5.651940001469132890e-02 8.080396647913150321e-02 -4.378239616398178075e-02 1.325078094225554809e-02 4.069136540237392255e-03 3.011713806088396617e-03 9.619513026020437563e-02 1.188969621053356518e-01 8.867045385956726089e-02 1.035691453537301576e-01 -1.954226445310319402e-02 -3.474061183518285800e-02 -4.324554516025223144e-02 5.667895307173755753e-02 8.335103626701285962e-02 -6.025734753797609700e-02 -1.824981091575422487e-01 2.264184163479727313e-02 -5.349285575613842159e-02 -6.256664606698365827e-02 1.350376171492122246e-01 -2.939740600143441601e-02 1.928633029370926955e-02 5.909510770840979699e-02 1.987794569783619958e-02 8.790774642409841799e-03 2.083165539780585523e-02 -8.347663972108822217e-03 -7.915535261512403331e-03 5.747964592640975034e-02 8.814931103426931758e-02 3.652461965991272291e-02 2.280819765262935561e-02 5.817813872168271783e-02 -4.705991919737024382e-02 1.143852472599493214e-01 -1.609720446871149013e-02 1.108616534548892280e-01 -6.824562430105735045e-03 -5.505073376957606013e-02 8.343741599406979959e-02
-2.298053204098764735e-01 -6.519293228161536502e-02 1.093237109795978101e-01 3.902563869650271799e-02 -5.148748518750712044e-02 1.915340951970691957e-02 -3.097593426797519769e-02 1.127083744171575863e-01 5.447390783113814638e-02 -8.113547200901807810e-02 4.220461457315743264e-02 1.382764273250169235e-02 8.364048988392945583e-02 1.315644079636377473e-01 4.563919901935813844e-03 -1.294560144493012432e-01 -1.992725099522820453e-01 1.218518582991875293e-03 -5.288690023340721080e-02 9.457279429859991038e-02 1.249846000877493507e-01 1.925569011363257796e-02 -2.192420304728602831e-01 -1.053773035856339080e-01 -1.024085002515664894e-01 -1.446395242116565311e-02 1.017206114019509472e-01 2.420786396114376834e-02 -2.062045445475380739e-03 7.473082153650480175e-02 -5.975004299520314532e-02 -8.596797337761813429e-02 1.189644280291219519e-02 1.325126595350989075e-02 -8.997764179549522928e-03 1.253959582344298107e-01 -2.320825857102475423e-02 6.327624032845935442e-02 -1.311128999826630948e-01 -3.323971424235420274e-02 8.349259879428934383e-02 9.653263649340070029e-02 -8.917077026997970168e-02 -7.661301211694873659e-02 -1.802196728637419643e-01 5.996771778575679668e-02 1.240567477593109147e-01 6.894578211666640977e-02 -8.747557767238550025e-03 -5.706276748730127954e-03 1.027106663455360815e-02 1.266128584368740873e-01 -3.712508767120224068e-02 7.626378680218159900e-02 3.614283453765906179e-02 -2.289904416170958357e-02 -7.146953622450631649e-02 -2.360191313298179439e-02 -7.825316172819149485e-02 -9.984120225080014843e-02 2.001697870073236574e-02 -9.139370477151979866e-02 1.236940337921337701e-01 2.531939118072939476e-01 1.313325624328723906e-01 -1.360601610393857852e-01 -6.113045688011319034e-02 -9.388894318752091794e-02 -1.128928778238413033e-01 -3.952351917548608401e-02 2.042568493651442385e-01 9.326795962690422742e-03 -2.124017216469187980e-02 7.313498714011210100e-02 -7.369522593212436690e-02 3.140936486687724571e-02 9.142169791353116359e-02 -1.147945152840937899e-01 -4.201558426659784268e-02
1.106667174750593646e-01 -2.633889510356370034e-02 -1.267105277073792349e-02 3.672587789854265920e-04 3.489227980411253871e-02 -4.245550376380944485e-02 -7.627974195021527959e-02 -8.095218547573879153e-02 -1.331752787049091113e-03 -1.022188724237576979e-01 1.050430119665281409e-01 -5.579749869651247363e-02 4.973508240252700469e-02 2.912394147849503567e-02 -6.192068697106169889e-03 1.140157784002789332e-01 -9.433446780498049022e-02 -1.342772842365503871e-01 1.574417962607343457e-01 -5.257608214647338518e-02 1.080249871984582249e-01 4.582366961712949771e-04 -5.531054034369167066e-02 8.720789519105094645e-02 -7.599752439399340420e-02 -4.558540741562130960e-02 -3.775991828989341131e-02 3.120752713147802171e-03 5.643359067402810292e-02 7.650632523747305513e-02 -1.531932263954162710e-01 -5.366164239051686435e-02 -8.616426291484170774e-02 -2.260180145579153421e-02 -9.646463430006672890e-02 -1.277768597674157625e-01 -3.471184139972629396e-02 3.877725750392829740e-03 -1.784953440578589817e-02 -3.087184028576217543e-04 -6.852708408403046514e-02 -7.234151644196123998e-02 4.527191591530686787e-02 -1.690642570482883689e-02 -1.346054321272003793e-02 2.274379912526434261e-02 -4.762410917337404209e-02 -9.030434897684969098e-02 4.075063763293441943e-02 -1.243639604370408089e-02 -1.263940482354416195e-01 8.873847448001681570e-02 -2.836743103087902007e-05 6.189667213515715610e-02 -4.198092111953865072e-03 -1.035361875107781993e-01 -1.050007429445726226e-01 2.084489625681266306e-02 -1.048370839773964669e-01 1.579904542140814216e-02 -9.001431639514180516e-02 -1.874725982578807071e-01 -1.319191588570171325e-01 1.587993362117533225e-02 1.648484611737414673e-01 -1.053043716653947331e-01 -5.474673327181539539e-02 8.406008384014264367e-03 -3.500567061555132087e-02 -6.434609569957890074e-02 -2.211583741375489631e-01 -8.938890250271591675e-02 -2.888993941248801933e-02 -1.081876309898104245e-02 2.049897627068814759e-02 2.313695865127027903e-03 -8.798063612820927748e-03 1.051932447497810202e-02 -8.668065942422993608e-02
2.886292943483996509e-02 -5.822391656740037030e-02 1.094820080715827176e-01 4.455388163987204081e-02 1.099475576605675742e-01 5.121418897322849162e-02 -4.802732452811094704e-03 9.322953138758102720e-02 -1.309967585076160790e-01 -1.499587873318328768e-01 -3.975669948282235799e-02 7.020382144661831136e-02 9.257549285445995646e-02 -6.070887666691108381e-02 4.539889494993260000e-02 -1.907344895826350653e-02 -2.383103320931966029e-03 1.473420849915841116e-02 7.026536512391719225e-02 5.927402669027147242e-02 9.499476896006474325e-02 5.581071935646569893e-02 -1.000751342875107891e-02 -7.145018148691807680e-02 -9.208291969402107591e-02 -2.690620037519686480e-02 -6.771279718292635280e-03 3.047734398063136479e-02 8.753950463854837105e-02 -7.676508334863801908e-03 -6.926441545433470459e-02 -6.712588930377118290e-02 1.730244092861106531e-03 -1.560404765935873711e-02 -6.180758524797812931e-02 7.638641186982608744e-02 -1.121955547930468949e-01 5.702367593644389748e-02 -3.745341221697860018e-02 -2.445556863947034865e-02 1.071269385055367007e-01 3.548380771328152328e-02 7.545201336331631981e-02 -7.790850018347711403e-02 9.321839647901316098e-03 -2.128408519328322049e-02 2.072983492642999082e-02 5.616592258279133609e-02 -4.187425952444798899e-02 7.090452062343455264e-02 2.239335825451199344e-02 3.657507665949044640e-02 9.171759090738670905e-02 -8.832790252589950430e-02 -3.661743426528055179e-02 6.981794390399361644e-03 -3.538168972983503358e-02 -5.688957020342971793e-03 9.427774272665162547e-02 -5.056582992834621898e-02 4.147614083455154754e-02 -8.354451933542098030e-02 2.991377553985118121e-03 6.626420577391359257e-02 4.361590590649982307e-02 -3.207246768072307547e-02 1.424672039827046266e-01 8.052712636533086721e-02 1.236640605468965620e-01 2.183575174038566991e-02 -6.248845402926098136e-03 -1.452236039388525857e-01 2.457628850663537076e-02 2.461141075057571986e-02 4.592113522601610348e-02 5.444857202230123094e-02 8.589079169899362098e-02 6.469455683040410687e-02 -2.388724048303660086e-02
4.678727861189231618e-02 7.453971414399529483e-02 -2.128135011757665424e-02 2.233696511279540178e-02 -1.558035755192995440e-02 5.546358662608531082e-02 3.368808073380426260e-02 -2.628461822024287520e-03 -7.674814111965307106e-02 5.454124421914045839e-02 3.591633083829903761e-02 1.584127445680782315e-02 5.229044454663865638e-02 -1.168985303800538222e-01 -6.581552273208937653e-02 1.474521606780253846e-01 -1.719971612715262034e-03 -5.581766302634209864e-02 1.169816674147927948e-01 -2.389948800246528490e-02 -1.329022492051349091e-01 -6.615981798799491775e-02 6.361076298699303022e-02 -9.596338055962144037e-04 -1.832966286087679697e-03 -1.436676038507100073e-01 -1.155915733781871652e-01 -8.004465392596812889e-02 -6.483725898180471570e-02 -2.026790901842351680e-02 -1.232630440788371612e-01 1.210744067457349658e-02 3.138963497466307206e-02 5.981068944434446422e-02 6.384749343410076050e-02 1.605905783806748852e-02 1.217577546346116923e-01 1.447735121438041284e-01 -1.190630407392394841e-01 -4.041320980005012192e-02 5.255779029277470038e-02 -2.107644287055129156e-02 1.741489138082568180e-02 4.604043522217503293e-02 -2.934541795409985332e-02 -3.074934046313470420e-02 1.600349339611280980e-03 1.736811729428414802e-02 -9.606743346471741107e-03 -5.540813802163029045e-02 -2.963344590428738934e-02 5.371889912055433092e-02 3.855867074478733225e-02 -1.034484056544110464e-01 -8.037828491421586397e-02 -3.681544524859502177e-02 6.570189661392017433e-02 1.718510483260249633e-01 -4.812270958081531214e-02 -7.349265819532206645e-03 5.419742651832719360e-02 1.156431928250942764e-01 -3.994304023509837043e-02 -1.168614197720835857e-01 9.719157114387061425e-02 3.817670834703523752e-02 6.523933792490467509e-02 3.887503247286511199e-03 -7.284904776022793627e-02 1.485705949915481702e-02 9.178889445071797965e-03 -1.171546477972184863e-01 2.408185168193917314e-03 -9.450811461014838044e-02 -2.694126857421375032e-03 3.670797397825201897e-02 3.693612549312202259e-02 1.356937044748832977e-01 -1.689822257590874177e-02
-5.965376420182956496e-02 2.303055637744176598e-02 -2.308034534519929487e-02 -4.470600635776293685e-02 4.598406317616209049e-02 9.543600100652110951e-02 1.387589559960127755e-02 -1.788573601728472018e-01 5.456737918327991127e-02 -4.908580402783954688e-02 -1.228381627238222390e-01 2.609878983399729208e-02 2.801617922066904770e-02 -2.195077811726854899e-01 -2.615725827838978612e-02 3.810928458321720391e-02 8.565724012755716876e-02 6.865283031080018916e-02 -5.284227418598742843e-02 8.402649790468111335e-02 -8.472885361798947190e-02 -1.293301690317623098e-01 5.364889296182245859e-02 -1.017841209688714887e-02 6.805578362747463639e-02 9.625985411436686900e-03 6.486117282180792198e-02 -1.385648217503137325e-01 -5.303938515779495211e-02 6.833371575982906398e-02 1.896276346864263218e-02 -6.314132170283932866e-03 7.709666193615627439e-03 -6.490199497769530423e-02 5.090237733752618621e-03 -1.033025404383359214e-01 8.866142713968591660e-02 -5.407639103640135558e-02 9.982769616568928917e-02 1.557169712278385354e-01 -7.033670796160483574e-02 -2.568568469353144437e-02 8.035713376199377089e-03 -4.344735779306620888e-02 1.073631423105699673e-02 3.703910530397209327e-02 -2.958012409222521635e-02 -2.958625458717247317e-02 -4.911044718468437348e-04 2.043634390036623560e-02 -1.013598776612727043e-01 3.734402531969083228e-02 2.271906972988960161e-01 1.093236358686017762e-01 -1.712028225043527307e-01 -8.710502427092266242e-02 6.681758765246778586e-03 -1.292111895940019628e-01 1.197986350086554727e-02 -2.088415683581129612e-02 9.650237088453111900e-02 3.458188809044403927e-02 -2.186003216253015052e-02 4.268904238907772486e-02 -4.587719352878275036e-02 9.109152891282244757e-02 8.454667065024343287e-02 1.164939595743455167e-02 -1.102584520808097546e-01 -2.773237128514842442e-03 2.526027982337603756e-02 -1.946830281410271563e-02 -1.645463496975616696e-02 5.483789757927651221e-02 -6.609363402797235887e-02 -7.583195360274873342e-02 2.067450972168514423e-01 8.957593442074233969e-02 9.473636901485515266e-03
1.144733304743927732e-01 -4.958728558099513573e-02 -5.428344437516361559e-02 -1.559731090486291688e-02 5.234744970016091264e-02 -8.131088322939611368e-02 -5.627411748137878950e-02 -7.834558316372518261e-02 -1.347312790476211664e-01 5.013946797033710934e-02 -1.338028331310079366e-01 3.433001452122077385e-02 1.246267348246310747e-01 1.531846015769938174e-01 2.594597841701823393e-03 1.052089409565559741e-01 8.217766250078573087e-02 3.333068987545680095e-02 -1.089893487146028073e-01 1.291526396538849458e-02 -6.521124961524842056e-03 -4.502248191817164596e-02 7.935211590762182576e-02 4.781327988609930524e-02 -1.000677295346639323e-02 -1.984236604568918871e-01 -8.435411268142123387e-02 -6.972723587969906212e-02 -5.282109441788224169e-03 6.823678694341188400e-03 -7.847369294232010850e-02 -3.909594519507571947e-02 9.745384737432313815e-02 8.791178950796907365e-02 -1.140834041110622421e-01 8.609587823611941637e-02 -2.880659067475016197e-02 -3.608911954748827977e-02 2.307719574173690280e-02 1.190994026150402896e-01 8.609612845759903599e-02 8.497020418183474921e-02 -1.459492527552202767e-01 -1.752591729750206662e-02 -3.903017100256030852e-02 -2.014633963872061381e-02 -5.114205623539080231e-02 -4.172293716722684509e-02 -9.298515802171934685e-02 -4.106930821595684844e-02 2.891901450078765423e-02 -1.062381095019342830e-02 -5.525754129233166612e-04 4.122795971251490971e-03 4.345294234192628724e-02 8.950736496797491448e-02 -1.109329391327473352e-01 -7.991318810357543601e-02 -2.497795278380018913e-02 -7.125934031539321589e-02 1.596019566445308277e-02 2.048586203370124370e-01 1.188675238632591891e-01 8.220504025808958448e-02 -6.442292897873584667e-02 4.211404296103859329e-02 -6.785018111370280658e-02 3.575659259227935427e-02 -6.083960709635307523e-02 1.060407699422953320e-01 1.105585316573545751e-02 -2.436467409706953927e-02 -5.007673870969305691e-02 -7.059962567961058921e-02 1.621899901214592446e-02 -1.365570230356418641e-02 1.202512989543733368e-01 4.914309535891782377e-02 -9.214242975899987476e-02
-1.021081324898315823e-01 4.745663647662740070e-03 -4.747948514477141890e-02 1.152114136933831551e-02 8.464357423354260113e-03 9.886309323357711509e-02 -4.871783955407745642e-02 3.586423655966453072e-03 2.855991723487878720e-02 -2.883273591824606075e-02 -5.878498171782529924e-02 -1.336275095370692556e-02 1.357355895889622022e-01 8.019724066151015518e-02 -1.673605901613091362e-03 -1.503188098757721747e-01 -1.592880735656347288e-02 1.500611923263728276e-02 -1.176236868052172591e-01 -1.001010656706014801e-01 6.917415377882270289e-02 1.994700336792270406e-02 5.754276999193383424e-03 1.311534483900596015e-01 -6.435198361742201778e-03 8.926441019379330322e-02 1.311246210345685115e-01 -2.838680722836716894e-02 -8.099801998249364643e-02 -1.279184847530729363e-01 -1.314418437257477631e-02 -9.833216386474921689e-02 7.404578213106913220e-02 -7.324701576703891714e-02 3.931233544703366389e-02 -5.868476256162487997e-02 2.441088715046164925e-02 2.887675987350159235e-02 -1.782254707662073168e-02 -8.535645020289464591e-02 6.608173282008142357e-02 -5.086581754213014006e-02 -2.733395332807114081e-02 3.758132951640641428e-02 -2.203830277196754117e-02 -4.992061268408121838e-02 7.351807471191375287e-02 4.467988637280170816e-02 -2.090771894184878521e-02 -9.815924097403536802e-03 3.484748782685292978e-02 1.251086132923436844e-01 1.058366055528202621e-01 6.530841374706447544e-02 -1.188266512520505178e-02 2.684395603863738017e-02 -1.403378686981645966e-02 -1.135253652405055491e-01 -8.654979518218766654e-03 1.415448478980245728e-01 -5.057299942842653773e-02 -2.151435970949867535e-03 5.018569325961860783e-02 2.073136482930957453e-02 3.280649351941437863e-04 5.555659028245299447e-02 -4.640031713859261997e-02 2.391177565154368675e-02 -2.315908785443680784e-02 4.839395606846706721e-02 7.282860345761500709e-02 -1.422928021408462473e-01 2.308870123862414095e-02 1.805939837217138133e-02 -3.722990160445045771e-02 -9.944644042066731748e-02 -1.348420391808225448e-02 -1.483917645877646796e-01 -9.896193668367370133e-02
1.555974945995405034e-01 2.417575388449665075e-02 1.123790599864398221e-01 1.481462287048769255e-01 6.235845074296189616e-02 6.218288006571311144e-02 -3.346431503222465492e-02 -6.196752036053941592e-02 -1.728083493407071847e-02 1.062029125462155277e-01 -5.183229616683722452e-02 6.563471895575798132e-02 2.159974272133982284e-02 -1.269587737227098612e-01 -9.521096755260327615e-02 -6.836641653050809508e-02 8.629296146693235525e-02 3.004908616615208777e-02 1.084900520762183823e-02 1.154063307743022071e-01 1.541632752703282760e-02 -1.093620580231711645e-02 2.361300299293201191e-02 -9.297264146308992228e-02 -1.494957784174625638e-02 9.780931013537011443e-03 1.125434741759790830e-01 -1.882638222354068858e-02 8.888293352781945211e-02 -1.033767561539339769e-01 2.766532120661246638e-02 1.738502227779614023e-02 -4.429571602372103095e-02 -3.618456208962742698e-02 5.072923994012369653e-02 3.429432880255109395e-02 -7.865772426556225105e-02 2.903518923832480031e-02 9.454369260343247622e-03 -1.363402939164297667e-01 5.570642243572834773e-02 1.063100930928633989e-02 5.203135685872474492e-03 7.416574967908723393e-02 -1.813739683499342170e-03 1.495262055544359370e-02 -3.508928537958369565e-02 -5.337456121589957692e-02 5.644291011544266823e-02 2.359403107799481342e-02 9.836096079034566120e-02 1.541600559736185372e-01 -3.118294065766421055e-02 -4.726362204002002021e-02 1.375677719617475828e-02 -1.282585215497794584e-01 9.995386345801761385e-02 -5.989690585740186507e-02 4.918605600525979143e-02 -1.368511324228383411e-02 -2.076469542629107434e-01 4.015281353490561533e-02 -1.589318960232484826e-03 2.465158448430046501e-02 2.908179772322244672e-02 -1.316808393002202870e-03 -5.667068651683809799e-02 -8.918490004212485667e-02 3.323765181056559381e-02 7.807431441091326751e-02 -6.773388953720148320e-02 4.076607600088315991e-02 -1.604178281263011208e-01 -4.647915974944377693e-02 4.817172207902089415e-02 9.691666254267775060e-03 -1.950484802912834034e-02 -6.236404164328971517e-02 3.835820824509700300e-04
2.833353532678585529e-02 4.373161764179815669e-02 2.941223742694299981e-01 8.147110241221017235e-02 9.519939592529554767e-03 5.321853549209984435e-02 -5.088723198778212498e-03 -5.717069121859674752e-02 2.788521802669152033e-02 -9.213777326427452508e-02 9.060098460964088884e-02 -5.030916126032182814e-03 2.747452751964644252e-02 -8.517942045028731313e-03 5.101928912405994873e-03 2.517273857629326317e-02 -3.425301863162578259e-03 -5.655855190794051995e-02 5.956341393576171372e-02 -3.580685715521698953e-02 -1.285053780352065633e-01 5.848556107183682656e-02 -3.610277706384489027e-02 3.067402911548670202e-02 2.197522280360914848e-01 -7.315365328537612455e-02 -1.227465184608785703e-02 -4.412767895316554306e-02 -7.121766709512786231e-02 -2.721415775948382576e-02 -3.034116622258151846e-02 -9.738895689024379410e-02 7.659511522606335387e-02 -7.294612886652160344e-03 -1.063233824871565383e-02 9.858814996288037258e-02 2.579962712018773682e-02 6.234635964277605337e-03 6.597862230092035873e-02 -1.349403934202884209e-02 5.658294357184640716e-02 -5.582195333806026089e-02 -1.195360525769659753e-02 -1.978148636331559379e-02 -1.092370626065381906e-01 -3.808332741823915180e-02 -2.237055443033741584e-02 4.449645614219160938e-02 -7.840528904834487278e-02 1.722887222449050182e-02 9.625892943831307336e-02 -3.465060297831450142e-02 -1.378708911813758820e-01 -3.292134298766315886e-02 -2.691390292525676700e-02 -5.410648601307421757e-02 -1.465731241730003354e-01 -2.860937592749501768e-02 -5.985807319215624006e-02 2.128837975144006189e-01 -8.472968043080242317e-02 -8.195878291931957271e-02 2.546880211776816547e-02 -2.975634652620258447e-02 2.232507239160768514e-02 9.955882966874658735e-02 5.775625628716251486e-02 -1.516661385366686043e-01 3.099862082517496759e-02 6.777865631592647211e-02 -2.406431129258772977e-02 5.207850097218500590e-02 -6.444820766496799080e-02 6.616131116400919554e-02 1.365432258010294275e-01 -2.773535517913456108e-02 -9.197559091158441502e-02 -1.156917577728574370e-02 3.255585724537642112e-02
5.338480298271203878e-02 -4.962549804495700045e-02 1.107346185609678069e-01 -5.956644178436389797e-02 2.437266566753596916e-02 1.002419504409795964e-01 4.692397027467280768e-02 -5.460961865383012759e-02 -2.767071689775327942e-02 -2.424956639165584682e-02 -4.076903025929005941e-02 -3.829149146414065341e-02 -5.763260680421530835e-02 8.227737257320053010e-02 5.518115385010850110e-02 -8.336653924518266923e-02 -1.401247176238799574e-01 -5.303064060943284835e-02 -3.410563979247237948e-02 -3.350457899634301517e-02 9.374989638322085705e-02 -8.404676110542777523e-02 -1.158309718054341270e-01 8.257586179364925782e-02 -1.418943941988143331e-01 -7.521219053083585959e-02 9.254746641010103136e-02 2.274965851510277193e-02 -2.539572897694138132e-02 5.923773173844829737e-02 -5.982114271534895444e-02 1.523849329174366551e-01 -6.658114881260877860e-02 3.217950949741636701e-02 -1.169029936374836043e-01 1.163079898358272551e-01 1.366470725355116156e-01 6.521977479369714392e-02 -6.395266966904290806e-02 -9.752228509751140195e-02 1.624003510353045493e-02 2.522799782966016202e-02 -9.801826065991678383e-02 -1.555407328157292976e-02 4.220753949713256653e-04 -2.209269603322884523e-02 -6.072080520524451852e-02 4.221499578636047495e-02 -1.816204435592296690e-02 -4.312497856900887605e-02 -1.387146972690589952e-01 -9.162299987947092241e-04 -2.795000858006040090e-02 -1.549188811732920765e-02 -1.455866205862902524e-02 5.415125191260819482e-03 -1.817996918982564200e-02 1.878509858301999624e-01 -5.064658963753410070e-02 -7.821478278422663855e-02 1.227908182021697492e-01 -4.559572775948835671e-02 3.730158918869486834e-02 -7.116660284762950373e-02 2.974149620413855943e-02 -7.881818970236927069e-02 -5.923777591585572058e-03 -8.095210867884163053e-02 1.336578838952787174e-04 5.027674419407803658e-02 -2.588434688422958097e-03 1.870117820837307043e-01 4.347483078081502972e-02 1.525473877257918498e-02 -2.086527964146020486e-01 -1.102495969200384118e-01 -6.018884720785418196e-02 -1.015785097654424013e-01 9.531726608140936308e-02
-2.378848924021951736e-02 6.903895416346106373e-02 4.615007760563368672e-02 -1.313016772494589313e-03 9.355381251773233625e-03 4.320284596762487273e-02 -3.145777556293374161e-02 -4.051996514229268959e-02 3.856656363200620247e-02 -1.346328567108851237e-01 -4.412682285342486854e-02 -1.412984110761232592e-01 1.138356496029820919e-01 5.893961695633186809e-02 -8.662565523857168603e-02 1.945456774745987494e-01 7.844560523068122571e-02 6.039052530718445194e-02 -1.107245321804626592e-01 -1.334974963817858046e-02 5.356763053861107737e-02 1.924554008481725240e-02 -8.478343859477766031e-02 7.096090805362637033e-02 5.786385060546039155e-02 -3.507911492936260922e-02 -1.881669032910079226e-02 4.020571924954487869e-02 -1.092754882219804796e-02 -8.834599582390896544e-02 1.382754726566367554e-01 5.855488028646693710e-02 4.378180751869333032e-03 -1.021848017330430625e-01 1.560331246194457955e-01 -4.229209530170819492e-02 3.424187479684789870e-02 -6.254579035404311815e-02 -4.114487763622817762e-04 9.274205004393057394e-02 -8.817598299037615606e-02 3.278268615348847032e-02 -2.124255883225203978e-02 1.097420354394011421e-01 2.070746057696916387e-02 -1.197459851699452654e-02 -1.163956808129095258e-02 4.018977593252660158e-02 -7.863686865106334078e-02 -5.750137852388986781e-02 -4.241200225427502885e-02 -4.185100199348211480e-02 -1.090138638200948973e-01 1.421560647707454661e-01 -1.064207644380257833e-01 9.900485187339590210e-02 -1.177020378814427753e-01 -2.631993197272538762e-02 -3.395929317511846290e-02 4.531913845357513071e-02 -5.166701027530459789e-02 5.587805503762525300e-02 -6.016703573953365025e-02 -2.145315307486573772e-02 8.116394774615276475e-02 -5.483682688586803688e-02 -2.354737569672283801e-02 -6.803711794320727035e-02 -1.796319088804303535e-02 1.500896286155406489e-01 -4.632989054009652857e-02 1.474009329738376617e-02 -8.561157836833727108e-02 -3.208638407579646190e-02 -2.976647028898587316e-02 2.126849477478938433e-03 5.464571403886321621e-02 1.177632408812844672e-02 1.014389845123085943e-01
-6.415671751685986246e-02 4.935786383800203070e-02 1.385887169470318980e-01 4.936124418075161363e-02 -1.194169559919540241e-01 -1.438547558699709017e-01 9.765718370842843554e-02 7.957917812447753980e-02 -1.450009608383585544e-02 -5.933845275667182229e-02 -1.249383947046889820e-01 -1.061677159044204788e-01 -3.813498392811048854e-02 5.743520371820277914e-02 1.001248912202799685e-01 -9.190490241295781737e-02 1.071412566250811160e-01 2.581592983222523105e-02 1.039205308680341555e-01 6.639165500424777655e-02 1.624561029507501086e-01 -4.510685202891100143e-02 2.965859096150193219e-02 -1.131005823585648218e-01 -3.004646112644095146e-03 -2.309868946093623920e-02 -7.676794996919608649e-02 9.719811783180937192e-02 -6.546264911221677529e-03 -7.771001448209374773e-02 2.090159409675763219e-02 4.054106146779307140e-02 -3.070795207541382466e-02 -1.570893072772993337e-01 -7.000790432977369894e-03 4.373586853523070417e-03 3.741723213205149640e-02 2.149487024176600924e-02 1.347370171896270230e-01 -1.287417270092481442e-02 6.145977250297496308e-02 -1.318940113393171076e-01 -9.457485963897753478e-02 1.357831071319012817e-02 -1.509291298970985851e-01 -6.639583266518273019e-02 -9.923501616891197696e-02 7.995210791030499253e-02 -5.128738372777735810e-02 8.423253770155825215e-02 -6.808189073721222784e-02 1.330037130244093868e-01 -1.086888433126376730e-01 -3.250841633972920142e-03 -9.962038613061180437e-02 -1.823952364153434008e-02 9.743992477953417053e-02 4.299385319907626790e-02 7.146223883795783938e-02 1.042224729408745276e-01 8.217236729342202242e-03 -6.291620510003127775e-02 -1.004348799509107576e-01 1.772061628582087822e-01 -9.312441481542392541e-02 -2.048200402229071251e-02 -8.830886473282642535e-02 -3.076034412327220344e-02 2.364924796080680042e-02 1.016895615140446102e-01 9.463240684254554946e-02 -1.337640708417761615e-01 3.552451051137804627e-02 1.676222325231306598e-02 -4.831771303114096305e-02 5.025127893728936757e-02 3.409388319244517629e-02 -2.334467891719491095e-02 -2.077219035842718317e-02
