-2.554892456224745478e-01 -7.483656173882662355e-01 -1.841706544399745460e-01 1.012252993043190608e-01 3.789570462544323282e-01 -8.354629778477136171e-01 -4.346271500054560422e-02 -4.532903691751848929e-01 1.521215214581592146e-01
6.330143093095010887e-01 1.345251712932498678e-01 -3.847966526590011482e-01 -7.900011678000560256e-01 -2.151051117956954140e-01 -3.676310335912249538e-01 -6.342682619520809695e-01 -4.502088786214926697e-01 -9.062927349407110533e-01
-3.234855983393014611e-03 1.225932300531556440e-01 4.760985731047487346e-01 1.355560437007663488e-01 2.065557666107400991e-01 -5.430178248601009727e-01 -3.744127831061703771e-01 -2.003966975022445918e-01 -7.843414293161260487e-02
9.364839130041109350e-01 4.886555271638442499e-01 -1.875112004149422917e-01 1.397211489341664559e-01 -2.331625718767981192e-01 1.094357738557906468e-01 8.292315586039206154e-02 -1.098799491553586138e+00 -4.741439203384259504e-02
-8.989483996863771864e-01 -3.582790550885197600e-01 -2.611497278194221949e-02 6.775463012948661490e-01 -1.603800729513451540e-01 4.955904259272658208e-01 2.016897467193459748e-01 -1.286317021782104608e-01 -6.289205190150476410e-02
-3.594787687100267082e-01 -4.500283957333227058e-01 -4.660820852650393586e-02 -4.183785406219797665e-02 5.989578769414956039e-01 3.360150980540843602e-02 1.868750792015271278e-01 9.678159188899543297e-02 2.969308077663120882e-01
-2.936979250696771793e-01 -4.469322391889705703e-01 -6.903843225919592541e-01 -6.125919571818572162e-01 1.960534417627404769e-02 -1.048907053449802951e-01 2.339110974669004195e-01 -2.034714797687688925e-01 -8.163373209562911903e-01
3.744827304400499268e-01 3.651151066893934538e-01 1.968480933384571530e-01 -1.629812769542590412e-01 -6.301284081377028778e-02 -8.049757645045692023e-01 -3.615643156431460614e-01 -1.693942443902685668e-01 6.567134612312983677e-01
4.853232156944670139e-02 -3.108722554333194221e-01 -3.492421448788963767e-01 -3.516942238247684482e-01 4.132071945282773107e-01 1.086856349044064141e-01 -1.749696994166329289e-01 5.691202108459028075e-01 2.672942090231517076e-02
-4.742219631385069523e-02 2.859984550668369652e-01 -8.864999736914974671e-02 2.023956045931420422e-01 -2.340106996989891885e-01 -6.244371576228924248e-04 -6.443708931602112333e-01 -2.097490366734662826e-01 -2.612104104465488019e-01
-7.728534856716501311e-02 2.137881085159175631e-01 -2.078551636092169086e-01 1.479600326213650896e-01 2.225901530573061726e-01 -3.994479963256930555e-02 -5.845253114700714736e-01 2.407154797365071430e-02 -1.560358849980393869e-01
7.154578775051505524e-01 -1.495000522802441556e-01 -4.448923750913014730e-01 1.670481450072583418e-01 -3.688172822860643074e-01 2.374168909589407794e-01 1.064170370870670679e-01 -2.897147294495103220e-01 -4.519067332112715607e-01
4.648031418965709594e-01 4.919825953058387658e-02 3.928417269633644460e-01 -2.230282343732634676e-01 2.435717189991595810e-01 6.004477029011114908e-01 3.809036613753197797e-01 2.285233938504290241e-01 -1.144072229865916723e-02
3.949754887826997796e-01 -4.062868798661156133e-01 -5.477026765672389219e-01 2.203125032128071537e-01 -8.868751654918529681e-01 -4.872542740662660354e-01 -2.706696669270659550e-01 3.568318971902519898e-01 -1.936673140516685931e-01
-3.750611766321978457e-01 -1.916819545438598338e-01 -9.515577281316065505e-01 4.209233925961730627e-02 -4.292265410790387925e-01 -2.356160326798805715e-01 4.473493713099832014e-01 -2.100686807315834126e-01 7.037911314017706310e-01
1.257946679279964286e-02 2.779530796619630872e-01 7.131942738011226579e-02 6.807117176916881451e-01 2.469214470977935116e-01 1.097769981531971917e-01 3.444670522375283817e-01 2.738585868473358831e-02 3.173916284117681008e-01
1.086889835624572226e-01 1.805857963745574890e-01 -5.390003789946451462e-02 5.996931246824745987e-01 4.956667546637272270e-01 4.366935234768018481e-01 -4.872482780662177881e-01 -1.206066459614300035e-01 2.255897644671633340e-01
-2.781263946821007638e-01 2.438267582425890923e-01 -4.345759263931063265e-01 -3.066264752668117488e-01 -9.254296334602967189e-01 -3.612241733614521277e-01 -2.384811157442581209e-01 3.593093340263245894e-01 -1.100751536568018163e-01
-7.508793517420930819e-01 5.068982466372231599e-01 -1.425802368299085021e-01 -3.766240447915213951e-01 4.440990190162124596e-01 -4.302644958172497369e-01 -1.613919066651209877e-01 -3.229260006197661736e-01 -2.690705626096459580e-01
-4.948295105282800588e-01 7.727737959477032348e-02 -3.502207328585741353e-01 1.559695751545390197e-01 2.843320656814139480e-01 2.756518490508852448e-01 1.658112459856415644e-01 -1.979448464215954884e-02 -2.347616648795208816e-01
1.529273810253534704e-01 -1.652678350650292893e-01 -5.447734322196690071e-02 2.116957266411523264e-02 -4.706948526192011872e-02 6.642775953293662550e-01 6.284822130411682473e-02 1.726649375960137012e-01 -4.874474885132080715e-01
-2.783709170788422060e-01 4.124549622288783413e-01 6.237990530973656078e-01 7.088920309081656601e-01 1.996073542229213627e-01 3.895256619025835865e-01 -5.280171259046945176e-01 -9.002054309547585786e-02 2.881092671199018129e-01
1.461198642616434173e-01 5.765624359094401186e-01 -6.821818739058260750e-02 -9.271930247738933151e-01 4.169684221303859850e-02 -5.351155823335214112e-01 2.728254331038392211e-01 4.154976620535296150e-01 -8.841978073722461806e-02
2.823184870947108016e-01 -9.399428135141196794e-02 -3.023174124982766497e-01 -5.171716383450497556e-02 -1.997344712645889309e-01 1.129407596726320628e-01 -3.727404811914653004e-02 -7.014285448851589888e-02 1.503998952044320325e-01
3.455233652230935149e-01 2.528024267860207175e-01 1.277214012810722055e-02 3.734547875522062355e-01 -5.402397648029757526e-01 2.229048584896688445e-01 7.096472004992362415e-01 1.701952759514117619e-01 -1.956763470185337028e-01
9.138177029556571185e-02 -5.902119427221574899e-02 1.389026914628138654e-01 -6.764952100763719223e-01 -2.964471158590831212e-02 -7.058730297174988788e-01 2.584350129811704977e-01 -4.853588108910191767e-01 -1.274689394639825890e+00
-5.096028351057380057e-01 3.151679932520801142e-03 -4.075071192306840007e-01 1.260916988174883013e-01 5.492429858011875776e-01 -1.942106471886888008e-01 -4.597972898683378440e-01 3.688275300931018186e-01 7.873763880199526888e-01
2.607162207631840700e-01 -5.026714325198575750e-01 1.052269777923189875e-01 1.927055452896801468e-01 5.996464820555980069e-01 -2.975476939771928842e-01 -5.887873322446957047e-01 8.775222588442702087e-02 1.987678049505375855e-01
9.678189317454399809e-02 -1.113938387317430362e-01 5.661622867610456300e-01 -1.809299517901775123e-01 -2.213492245962430105e-01 6.268092481592073550e-01 -4.247749380838405919e-01 -2.363741093294441376e-02 -1.209835678168349193e-01
3.920446931316757255e-01 1.812943094262295385e-01 6.681677576618230141e-01 4.501902874515148478e-02 -3.761414780449209849e-01 1.152369995278909598e-02 6.689321107565806557e-01 -8.312751077217017670e-02 7.130961241427316022e-01
4.068535659739374588e-01 -6.887790278698719959e-01 -1.707660689327831771e-01 3.591464797355068406e-01 2.704801663879530804e-01 -5.175118543464343190e-01 5.214382572636409030e-01 5.566620351731587091e-01 3.082955707841366078e-01
-3.803904053068435376e-01 1.080794871304217031e-01 3.747276812675910951e-01 1.628024899241141132e-01 -2.227194696486681225e-01 1.397654614479806601e-01 -1.314967189130063774e-01 -1.277062471847068836e-01 -5.612174364018149841e-01
-1.052937162091444057e-02 1.060545635342557969e-02 -1.387560796947742703e-02 -1.373965573383241212e-01 1.934021534361224370e-02 8.398196262417167990e-03 -1.143997262699225637e-02 4.044224973114424193e-02 -2.103495477156436255e-02
-1.085698642780315026e-01 -4.801308246778605016e-01 2.437571006573072130e-01 -1.372149585860211463e-01 -8.031574356406878668e-02 2.144074373625503571e-01 1.092606180720314124e-01 1.088720405836934857e-03 -1.676953005215070514e-01
-2.908292938196205268e-01 2.773332898157504500e-01 5.640769053910403841e-01 -2.763924391399230074e-01 -2.558057788389919707e-02 -2.450971221461186178e-01 -4.842484382138775301e-01 -3.388849737122107686e-01 -6.130419010767380605e-01
2.733553707524134513e-01 2.647257972263330483e-01 2.994843864145828594e-01 -9.574264160121077616e-01 2.505640729069177342e-01 -5.294965667564497380e-01 5.039043312060367263e-01 3.109385971866666099e-01 3.517862437396305220e-01
3.594342196311745008e-03 -4.229220429068099585e-01 -2.289622389388592527e-01 -2.824575144589035469e-01 -5.184693234771964310e-02 1.780089570757076300e-02 -5.436803465706474547e-01 2.564137802765383278e-01 -2.298960783329384860e-01
6.771891091746085056e-02 1.173242887000719437e-01 2.321615011227320391e-01 -3.084356645419611409e-01 4.632560477944958066e-02 -4.743979759113631789e-01 2.869659986631676318e-01 -1.818481319667156204e-01 -9.635629099304857115e-02
1.115629482440129994e-01 4.365108014969857342e-01 3.742205356606351785e-01 2.917178794173670431e-01 2.451380591091883443e-01 -5.872834192936433606e-01 1.050884847496762475e-01 2.580497118363274112e-01 -6.756415171261631603e-01
3.100098362894650461e-01 -2.275346298887507279e-01 -1.021191766964717473e-01 3.642315151020747432e-01 -1.212662098281312162e-01 5.963422518528363470e-02 1.089355761119149557e-01 6.174942102030100965e-02 -1.663765170646537284e-01
1.849927805062069885e-01 5.797357535345559754e-01 -3.092327536388789766e-01 2.286616101037086679e-01 4.538291320502450543e-01 -1.748468417539554010e-01 -3.106459432817584299e-01 -1.645688005248523988e-01 2.258942812305617664e-01
6.125267118896698948e-02 -9.053491340871253623e-01 -3.157826871916868949e-02 -3.655978188033254250e-01 -2.450335786944932426e-01 2.281308368459054048e-01 -3.390533754943566014e-01 -5.296138559322394190e-01 -1.070894146925618351e-01
-8.372956526401909016e-01 7.463738541214752775e-01 -5.634719385844368933e-01 4.896516005403386829e-01 9.545166287269457595e-01 4.573995697826607754e-01 1.026850967303955531e-01 -1.064741652233675562e-01 -5.705570584808350443e-02
2.569252595465411071e-01 2.496365938752129754e-01 3.880122880121125717e-02 -5.546614567472309965e-01 4.035516612037289286e-01 -1.846652926090349700e-01 -2.101431340299703410e-01 -2.175339324348313230e-01 7.506658048806574834e-02
9.931555126945379453e-03 2.429968436129524290e-01 -5.168310269187950667e-02 2.946192811725635852e-01 -2.808822828871615496e-02 -1.270469576488586494e-02 -1.289470342358048915e-01 3.563323618421728733e-01 -1.399498885410520588e-01
-7.814299399184188033e-02 -1.572991335836539939e-01 -2.445490151667019663e-01 2.822792632118265033e-02 -1.391467038454520244e-01 -2.505372432303093477e-01 6.463988451612516783e-01 1.292969313203121140e-02 -1.680264100562945950e-01
3.396643802099953424e-01 -2.840648380703081344e-03 -1.002148144099058169e-01 -2.219466409447196642e-01 -3.182947257044871359e-02 1.797762493100992787e-01 1.559211444611782738e-01 4.835740150391727998e-01 5.770820973732513348e-01
4.887552327639669292e-01 1.445880082610770390e-02 2.185856171596008979e-01 8.389539939350704190e-02 3.465521073887340986e-01 2.246179942894159232e-01 8.886187207462405979e-01 -6.445499268543736227e-02 3.904070347378441608e-01
-8.865325907422243190e-02 9.079667534806926121e-02 -2.596629687960573252e-01 -2.351167110003423988e-01 -3.269756122347170502e-01 1.784820741268383637e-02 -3.078978886161195527e-01 -3.637189603686117878e-01 -3.579559844121708023e-01
-3.834579828098416132e-01 -1.214415783720071418e-01 1.315097612750046052e-01 -2.073695273587669030e-01 3.966725690419151129e-01 1.271130054398217080e-01 6.042133340347477510e-01 -2.167957074860328293e-01 -5.208523094750139304e-02
-2.954504660462561882e-01 4.166875959707461163e-01 -3.764669206539689172e-01 2.037055654047248421e-02 -9.197919657849695785e-02 -2.200401714638447470e-01 -4.984944037574157161e-02 3.679959232999102658e-02 -1.403659848472904037e-01
-4.791623953631651833e-02 -2.244336252330977888e-01 -2.197608990237290838e-01 1.213637374100640931e-01 -2.356669980340704851e-01 -1.261761178584044352e-01 -4.189900974188867644e-01 -2.397917207769381109e-01 1.397644196575421605e-01
-3.944246026940189664e-01 -1.179048959171041799e-02 2.306524244706316396e-01 5.744285085762639298e-01 -2.081088487896021744e-01 -8.118434046609392940e-01 2.790806661918933118e-01 2.557837886825624629e-01 3.906292812986161267e-01
3.131926323113620736e-02 -2.888733136772140830e-01 -1.559438996433064051e-01 -2.382861645732318179e-01 -8.273522408757513769e-02 -6.395342175884839442e-01 7.954196641795374667e-02 -2.740942306378786331e-01 -1.153107055495697086e-01
-6.529279105135676886e-02 -3.186667113760261461e-01 -2.793881051358276801e-01 -1.237582564140535940e-01 2.955087342124315120e-01 -1.692815497448320328e-01 -4.430577265590132652e-01 5.696686201104873559e-01 -2.404097182457475279e-01
-4.824056007429087800e-01 -2.013721981422754159e-01 -4.477007909709612155e-01 -1.798087445339100476e-01 -2.477486496428613627e-01 4.564728535558465472e-02 6.120900409748203375e-02 -5.698184537700398677e-02 2.639463380851902463e-01
-6.721194572139246315e-01 4.697465028795205777e-02 2.550593593901252509e-01 -4.098736310902508784e-01 3.320955352163824648e-01 -4.773936046999373017e-01 2.027455277170404635e-01 1.729242319798963146e-01 -2.784152898008329657e-01
-1.465491028170590182e-03 1.767558289446430897e-01 -4.825032287400404241e-01 1.832109282480111068e-01 7.488009643814463878e-03 -1.357411092485605320e-01 5.015934735834435276e-01 -3.549957671132994985e-01 -2.607976048943910219e-01
2.794634657256208077e-01 1.085738217513974035e-01 8.326905683048768658e-01 6.159717666902647659e-02 2.980688329611087539e-01 1.658838680320856018e-01 3.990925398378477595e-01 -3.364987074244504828e-01 1.912316253829678958e-01
-3.072367442850383323e-01 -1.243425054896306614e-01 -1.918430570950692138e-01 -2.596262559247996538e-01 -8.706267774628972944e-02 -1.103283566078827604e-01 1.736056285629430096e-01 4.642899733292741304e-01 2.659492567083877046e-01
-6.920188167342289365e-02 2.892465176612188937e-01 -7.075589677382854159e-01 -6.498921781836042300e-02 -3.761450015116720169e-01 4.642452081639603101e-02 -1.344909863298080488e-01 3.745171474153907720e-02 -6.088981991385866710e-02
1.121978148225324379e-01 4.918269317573283339e-01 1.765484878448238537e-01 -7.346737296979579668e-01 -2.037822578057734701e-01 3.953421759672735569e-01 5.717324904757847825e-02 9.499433285916894509e-02 2.320192857988704338e-01
5.081059363362715464e-01 -1.350542651549765105e-01 4.667084611711335707e-01 6.656771472730012018e-01 -4.499570722733564621e-01 -1.299838331819775927e-01 1.874526212792610447e-01 -2.787979793096661552e-01 3.598575792679821750e-01
5.385518556534985013e-02 1.985003149942818901e-01 2.330484654512096077e-01 -3.508461030561968452e-01 8.347414743085503908e-01 -9.422906256416341275e-03 -3.247079589068760930e-01 -1.805335800697858151e-01 3.371236343287962733e-01
-7.054399811123246433e-01 -7.378250765566302105e-02 -6.841073415182413742e-02 2.635545157713656828e-01 1.150930515758041839e-02 -7.991519884602504842e-01 1.733058763352163245e-01 -1.784478276956993903e-02 1.907685998522773985e-01
-4.055437559424124316e-02 -2.305641569647916556e-01 -1.668132410215977801e-01 -2.102326603975641639e-01 -3.734289945686127266e-01 -8.828051130229186416e-02 1.573683566012868407e-01 -3.667906173579406626e-01 -1.925335430476501353e-01
1.610699032627965765e-02 1.972770537983126182e-01 -4.090218946552257040e-01 -2.208193551813665279e-01 1.337210422171642987e-01 4.372299029073489218e-01 -2.266140460774023757e-01 -3.573921406038350623e-01 8.138748748135726796e-01
-5.338104337620301898e-01 -5.743669886661234569e-02 -8.699787924766866354e-02 -1.284091367860275557e-01 -1.000915931493467914e+00 -5.026886884845533920e-01 1.625738442484601365e-01 7.676464986652931088e-02 -4.020194976334520720e-02
2.875200845323064858e-01 -2.914492144802567908e-01 4.431889726627014081e-02 2.125774652808509746e-01 6.803988499626163478e-01 4.850213230380346907e-01 -3.740124311266471713e-01 2.170988329611448497e-01 6.349762823521971633e-01
-4.044926302422847120e-01 4.606506130765370410e-01 -6.254322636655906820e-01 4.872053237726796660e-01 -4.170811270186355890e-01 -2.241014837688177219e-01 9.095445327859330575e-02 1.079593897995592411e-01 6.063541727115737690e-01
-3.122145072731362658e-01 -5.114523009348928007e-01 -6.369489304839346389e-01 2.934743208442474605e-01 -3.309706171695248611e-01 -2.186863252384860234e-01 -1.645654860102089834e-01 1.388697289939581636e-01 -7.154083207105472741e-01
-1.303029734083240854e-01 -5.659354201796309436e-01 3.678397468966483896e-01 -2.361856347314153504e-01 2.915563324352155039e-02 6.294567477338641748e-01 1.414649742887629791e-01 1.752562906592498582e-01 -5.375670373351085773e-01
-3.450140213695784830e-02 3.173472269383944555e-01 -5.627506377712573893e-03 -5.007314296759954875e-01 -2.115327060812935422e-02 7.045415246811779220e-01 -2.994667231507270877e-01 -1.606829900960665136e-01 3.872262609033844116e-02
-3.737951205601474647e-01 -4.090819484900974357e-01 1.873787541612667584e-01 1.906963394556680513e-01 -4.954529698084532696e-01 -1.410708535762540405e-01 6.328650352478508712e-01 6.858754061452878581e-01 -1.487505728520432946e-02
5.713031816671172436e-01 -3.368105858047760748e-01 -4.819066655275164313e-01 1.691925607158003553e-01 -3.278175447670918508e-01 -6.143623718057056315e-02 -3.773308286116393573e-01 -9.030409882381367215e-01 -1.055457926971519189e-01
-1.008019633598947973e+00 -3.192788757057445914e-01 -1.303995547046419845e-01 1.285892191261082396e-01 -2.821087001071925227e-01 6.245559112905483268e-01 -3.895215053514472503e-01 3.301732057961684896e-01 -1.457976585566697070e-01
