-2.224877712906176558e-02
9.627616035474118733e-03
-3.236255570127083512e-03
-3.346564517861885975e-03
-1.267626439622648177e-02
1.945530086954354310e-02
1.656800399086014522e-02
1.940839432182559290e-02
1.986629927475588517e-02
1.148021150617607039e-02
-9.163370615530548949e-03
-7.170670930590083807e-03
2.234136605989825441e-03
2.579662619789264977e-02
-5.594531026579605514e-03
-1.475361985246126557e-02
-1.472631512661730369e-02
8.671758907830937491e-04
1.281903348488392909e-03
-1.372132596772632045e-02
-1.692175116115301331e-02
-6.465065206200255876e-02
-5.604337939688966430e-03
3.205781677344269470e-02
-2.363828546550532025e-02
-6.757003152143394378e-03
-4.215505359681017208e-03
-1.173214466468204542e-02
2.906268766757665219e-03
-2.254984282397416717e-02
1.005056400973077316e-02
1.044390617623467549e-02
-1.619434975409766997e-02
-4.937058940555023000e-03
7.572747720085201001e-05
-4.697293139480449020e-02
2.607970880539499207e-03
2.597170928325571570e-03
1.214472010247233565e-02
-3.859367877689467291e-02
-7.966938309619212011e-03
-6.683160710609743413e-03
1.762010921404726441e-02
-1.520459928037613600e-04
2.243216997261049048e-02
-1.309523566883135422e-03
7.031016372045863260e-04
1.867125064890388280e-03
-8.634971751925824088e-04
-1.908411891650423076e-02
-1.097445598323580455e-02
8.444458494123383008e-04
7.014966764409750859e-03
2.317601740879686109e-02
-9.812184778332223162e-03
1.736134540962277345e-02
1.843354812148504523e-02
1.867338401404798273e-02
1.486430385335421253e-02
-1.715800008600363094e-02
-3.592339653384573478e-02
1.529829122444452058e-02
3.348537778387383756e-02
9.437061765068264010e-03
-3.066055719647119496e-03
2.695036546229174698e-02
9.191796396258389290e-03
4.127199939196665029e-02
1.419089617065289258e-02
-1.323211952344462844e-02
1.879639430913204040e-02
1.428645475120000376e-02
6.154330770704687092e-03
8.961387770287914528e-03
6.423567578797411727e-03
2.261550595909526777e-03
7.336553193141442941e-03
-2.428513216692724727e-02
5.537825121291018587e-03
1.041276000568749308e-03
-7.879812869874415482e-03
2.500786358061791656e-03
-1.974694600850851814e-02
3.401773578690921000e-03
-1.757766984777956940e-02
4.508134820434406276e-02
2.291674867669459686e-02
-4.055384486451166226e-03
-2.150613875607387121e-02
-1.779464451635558858e-02
-1.440203100543007743e-02
2.554018561378894672e-02
1.610946382991957845e-02
-3.452250692205490433e-03
1.245043517662272354e-03
5.972742128219852772e-03
-1.221345799936263306e-02
-1.935422494605973029e-02
-1.110021969670775717e-02
2.548106971789601202e-02
-1.706726115263779500e-02
2.709435973962883923e-02
-1.720426083610041013e-02
-1.947442813289268146e-03
-1.803664863354885114e-02
1.565866681273163927e-03
-4.775501305224808674e-03
-2.915152030778748321e-02
-2.245674474250804881e-02
-2.662897812854619212e-02
1.100106791652367272e-02
6.924846689700754100e-03
-2.912179747288010101e-03
-2.290896687669889686e-02
5.237697108581833121e-03
4.014232469926528202e-04
1.033865978104799108e-03
3.080072062211262202e-02
7.045052009191227205e-04
-9.875365815556425009e-03
-1.385050724218839929e-03
-2.683573021456261976e-02
2.046126380096051356e-02
-5.667475721186974666e-03
-1.971777950211531585e-02
3.125958361830213916e-02
2.302245793956406768e-03
2.507409185937978235e-02
-1.527358126395000903e-02
1.416331863075017544e-02
-7.450384423870115222e-03
6.510815225381638358e-03
1.460997911190584954e-02
-4.212207593933788019e-02
2.256173994550961237e-02
2.189787583006405289e-02
1.992853866645171237e-02
1.360913382607940175e-03
1.031632590670194909e-02
-2.442211285296764720e-02
-2.388660691764369487e-02
-1.350003683933840085e-02
2.115851022149895302e-02
-1.456061946143389144e-02
1.905655888018705293e-02
7.089423550961914192e-03
-2.048790156362102419e-02
1.294578643562939099e-02
8.347098459890964564e-03
2.350585846158425912e-04
-5.819659285625323336e-03
-4.429174242298941633e-02
1.909226508929295907e-02
-2.545974858520167611e-03
2.218249985617507317e-02
-3.555280136787965575e-03
2.651114475722152891e-02
2.608128823529564863e-02
-2.904283319123319041e-03
-1.148585197393856179e-02
-1.703271303870380546e-02
-2.080044624914361914e-02
8.594405382126716827e-03
2.456601611591158196e-02
-1.882761313430382152e-02
9.567600149615180377e-03
-2.501498720457806697e-03
-9.545571953957585759e-03
1.629716759351381578e-02
1.434272708965012542e-02
1.163499883009253347e-02
2.641072706874720774e-02
-1.061414394978093742e-03
-2.044905644052494656e-02
-2.539695833756149684e-02
-1.862081290343996220e-02
7.176511599246860468e-03
7.204642167935558505e-03
1.147191397275250033e-02
-2.278980333188596746e-02
2.421250277695472658e-02
1.131058178383797207e-02
3.002811423132393034e-03
-4.666286954126679098e-03
-2.305517264162676092e-02
1.268600287068351491e-02
1.843733376446170941e-02
-1.111707838953033579e-02
-1.904182284690932037e-02
5.642565132547290412e-03
7.822142997562873262e-04
1.042470231174688969e-02
2.346968210685394449e-02
1.192854176789294625e-02
-5.649263827520917096e-03
-3.904028190944114352e-02
1.234241239870212956e-03
-2.006944816959302380e-02
-1.287003693780749448e-02
-2.783693699403886820e-02
1.651914707885345987e-02
1.309671532231873690e-03
1.100137794120403800e-02
6.679697345800207544e-04
-1.518629051773316870e-02
-9.502460937454606030e-03
2.752731234529604692e-02
4.259656296417788438e-03
1.334959211381383029e-03
-3.893516664588930754e-02
2.409031295222680349e-02
1.565018263633489656e-02
8.020095607370754636e-05
4.181818806085303014e-03
-7.815913474025087699e-04
2.724803220467973339e-02
3.741563944205918146e-03
-1.309637177447203066e-02
-8.672712767813495899e-03
2.783973976044666447e-03
1.532355794719646863e-03
1.426104762124073486e-02
-1.796243631121948597e-02
2.110089060951396769e-02
2.363060651465950096e-02
5.876936454807255364e-03
1.665243598344676862e-02
2.021823633950509125e-02
1.669342139912059894e-03
-1.884680713417913669e-02
-2.544970593155663173e-03
-3.026843427195932690e-03
7.224968138490614825e-03
1.182584144257734990e-02
-1.778192389366800921e-02
-1.013829633211739932e-02
-1.158284532410978201e-02
-1.373681881353387008e-02
2.347677431613269213e-04
-1.152746043256780775e-02
1.132908595136586719e-02
5.065441327204189825e-02
-1.109102579178058989e-02
2.627985174408587615e-03
-1.447964806728048101e-02
-3.952103206128280977e-02
-1.998623621196365246e-02
3.353854376415250915e-02
2.973019827096826107e-02
-8.533552617956336947e-03
1.093968421082566235e-02
-4.473690004778950458e-03
-1.523896680989187367e-02
1.014339632027286796e-03
1.649227836833958016e-02
1.605644785458410981e-02
-1.238244185376367575e-03
-1.150929707205768093e-02
3.029073245699677452e-02
-5.432567817319974846e-03
2.390356226436241710e-02
-6.123352624756470824e-03
1.257293149098688209e-02
2.271883024526188954e-03
-1.080997255590263224e-02
2.826093691157501465e-03
9.727546986280602437e-03
-1.211364758078130842e-02
-5.775823793830903163e-03
1.196822719242606609e-02
2.379389811619569972e-02
-1.412152495664604698e-02
1.143927145903180908e-03
-1.421289480305757032e-02
2.377638747427212457e-02
1.774205849926897491e-02
1.616587187219054034e-02
4.219393293960255198e-02
-1.384475904763329823e-03
2.083731756099469271e-02
-1.219799536859545591e-02
2.330591870363971085e-02
-3.318249398025216457e-02
1.493165337788027701e-02
-4.264147009581072123e-02
2.439963031955135267e-02
-6.820485604221515966e-04
-2.223717384079063747e-02
-2.441042461185255127e-02
-5.765237552227916486e-04
1.703040425362106758e-02
3.569415257935108863e-04
5.273071180231086183e-04
6.471457727082852813e-04
9.354776704382651575e-03
4.072720861911447972e-04
2.282397027479598356e-02
6.017592063936421515e-02
1.834353246050410627e-02
4.331112689339162991e-02
2.707565397634469073e-02
-4.016132681939427185e-02
1.585324191460258519e-02
-3.676155025977828616e-02
3.040106615860500849e-02
2.251701907883558659e-02
1.858804870349737301e-03
-1.258378465789616700e-02
1.649073824757980172e-02
3.903013146624826095e-04
1.226427172443815550e-02
7.064107178791653383e-03
6.056237358479182181e-02
-2.363832423634524074e-02
1.815951493813045686e-02
5.782583156288545467e-05
1.316492164355352601e-02
-2.938545371282309110e-02
-7.288824668308171127e-03
-2.109367795486166708e-02
-2.339337110374260439e-02
