8.311293812878293302e-04
2.348260823171305356e-02
-1.631492954572092216e-02
2.510457841852576852e-02
-8.907611794730730184e-03
2.439895627832916469e-02
-1.174358753597207899e-02
8.702784393905644081e-03
-1.353749114681546822e-02
2.154849604719699316e-02
-7.304811693700010225e-03
1.982730521016587769e-02
9.644658335969754151e-03
2.490041661085920944e-03
1.001830042602427223e-02
-1.683704283898967979e-02
8.061092793225164976e-03
2.406303514619310968e-02
-2.086546261524433246e-02
-1.872509359377400734e-03
1.486010852598380026e-02
1.809121821729190588e-02
1.274749119648860285e-02
-1.952938168401255337e-02
-1.687335880707923827e-02
4.933998135912240866e-03
6.076731442185749968e-04
5.804109058381531384e-04
-5.758712367364480882e-03
2.490477798703532079e-04
2.185126731313931370e-02
1.379916416497446729e-02
1.797726532302016539e-02
2.322465302459906025e-02
-3.229610131168479670e-03
-2.202149853511951166e-02
1.852207161554947357e-02
3.905647940496259803e-03
1.411997777968816876e-02
2.128882484886597884e-02
1.749910113248104998e-02
1.847736110412503269e-02
-1.771111140587846092e-02
-2.602406257434768458e-02
2.337724340299857442e-02
2.395830932853043257e-02
6.258401803893322811e-03
1.709905010619955021e-02
-2.392454547207976002e-03
-1.598949506474843518e-02
-2.097665497426054806e-02
-2.004916120104357352e-02
1.057684532579266506e-02
-5.425489807420403460e-03
9.389077149923293411e-03
-2.659233970202560388e-02
1.713059105915199290e-02
-1.543490779394496998e-02
-5.400256040270627958e-03
1.614445993385106234e-02
-8.845283327735282281e-04
1.626548055341243623e-02
3.974438122987266481e-03
-2.487020880898828650e-03
-9.256394400574841780e-03
1.611866159469447363e-02
-6.803376762306290876e-03
-2.105824022218453009e-02
1.312742863298260385e-02
1.123358083859164486e-03
-2.368005513871034723e-02
9.791616003586573261e-03
1.851433579309279265e-02
-2.108697403641344309e-02
1.391569175675912498e-02
2.750916249313904976e-03
-8.037734259415363694e-03
-1.790250766010502426e-02
-1.572006707264415534e-02
-4.984736611498432647e-03
1.863685173670509565e-02
9.920230906590884329e-03
-2.292076871312546081e-03
-2.313442353075838981e-02
-1.801569717004013887e-02
2.277135890553288328e-02
1.294352210909097307e-02
-1.725551419065685880e-03
1.841940595136276268e-02
1.992633378156440788e-02
2.229827369089462316e-02
1.876708104722442372e-02
2.039585248480187130e-02
-4.322228622301529759e-03
2.425972105185731850e-02
-3.353034755548638807e-03
-7.544847718614336798e-03
-2.364569949978581002e-03
2.171543180790371647e-02
4.400238613241622197e-04
-1.050752178634595940e-02
-9.311528318232370482e-03
-1.675067408203540983e-02
-2.251805724993785618e-02
-2.548547798166863471e-02
-1.769365672283825311e-02
-3.966628929721494924e-03
2.126418064869953564e-02
1.686913429824874258e-02
1.248536237463574936e-02
2.360845908748256811e-02
-2.294766967152551962e-02
1.476888662773753746e-02
2.699075042957763647e-03
1.104366026283453393e-02
-1.856313923006208677e-02
6.787852291171831906e-03
-1.223830519527912197e-03
2.809051347008031246e-02
1.461942517607150646e-02
-6.861034767479822979e-03
-2.257267286427261117e-03
-2.330917065154939141e-02
1.279716969841809479e-02
9.398126213298121923e-03
1.928778680638902621e-02
-1.351332864210717799e-02
5.549268552682515634e-03
-9.520739450857920727e-03
1.225175095165159656e-02
-1.519771623191283096e-02
2.247234383465607915e-02
-1.716700537523144221e-02
9.827677057716489514e-03
2.318537881808906565e-03
-1.378630655276455452e-02
-2.858012615472582335e-05
9.128148837987833629e-04
7.889225395888243772e-03
-1.224082993471075145e-02
-1.646743271135260589e-02
-2.048751899730857223e-02
7.228015797479859887e-03
-1.394812244663542339e-02
-9.037192080051123164e-03
-2.261737272426932351e-03
2.344393827384418788e-02
-1.045367132008304112e-02
-1.368604722855550938e-02
-1.983657883411670680e-02
5.520757540320392863e-03
-8.345357841248804420e-03
-2.108020718238896168e-02
1.542759991845737370e-03
1.850660192627263598e-03
2.243427391545686073e-02
2.729367489325079600e-04
-2.308729113924721729e-02
9.015022074346453612e-03
2.604884880497011692e-03
-1.471630417598749838e-02
-1.211148717612157283e-02
2.340555040603827311e-02
1.632077758681552138e-02
-8.173001693820387478e-03
-1.602046423170891062e-02
2.180735773571813862e-02
-4.853275890864188619e-03
7.582545072105367247e-03
-2.108328744189981452e-02
1.467313418035911567e-02
-2.217186534585733476e-02
-1.637739419833845328e-02
1.925863590803408507e-02
-3.314596475946559890e-03
-9.967071634003468739e-03
-1.234062820111584552e-02
1.423211588813427624e-02
4.153398166011196962e-03
-3.787282018128595735e-03
2.066600333403556880e-02
2.714718443887156277e-03
-9.105725360585542605e-03
-2.079569282162456109e-02
-1.047901571184580490e-03
2.146313617979951974e-02
1.100916880925097499e-02
5.599881795261731597e-03
-2.233470638608027470e-02
-9.295614206962075519e-04
-2.614036872472628309e-02
-4.069505302749564304e-03
9.252767575593911359e-03
-3.001198578508677112e-04
2.618159205549743657e-02
1.976666396599157868e-02
-3.993131317673035037e-03
1.157294582893639984e-02
-8.438010661083817157e-03
-6.537015419900117467e-03
-7.425231696046874236e-04
9.395403139266634771e-03
-1.117918774242221240e-02
1.878825933428047512e-03
7.787507566753270986e-03
-1.441359966123721865e-02
1.773377636721546607e-02
-5.672169246319276950e-03
1.585774590373927734e-02
1.715644476763536139e-02
1.892295951947816149e-02
-5.288308024187916671e-03
1.707617835892306229e-02
1.922460639584529923e-02
1.411341206396001142e-02
-2.027853834944492051e-03
-8.413263568776963713e-03
6.235670262375953010e-03
3.288117823303488008e-03
2.398899551091034088e-02
1.833951572092676688e-02
-4.747030724784360306e-03
-2.786002093683383890e-02
2.007345063768780150e-02
2.210772451000425284e-02
9.429355401226982569e-03
-2.349424360577806806e-02
4.606095993177183011e-03
-1.732041828763937127e-02
2.370782048000644529e-02
-1.923288938348095833e-02
9.051350480714625765e-03
-5.897865404051506628e-04
-1.178111486777075161e-03
7.251995844338956186e-03
-1.827781810234540769e-02
2.294863041603107875e-02
-1.359337188469208514e-02
-1.234774963856902393e-04
-5.404902727834936908e-03
1.554708404673764421e-02
3.526066738261751654e-03
-1.741091924035298791e-02
4.633409125227285798e-03
-1.399155954638886708e-02
-1.074418436827364112e-02
-2.390138497907697696e-02
-1.688296543431655819e-02
-4.553734278604048939e-03
-1.907381633831968802e-05
-1.557512237801972864e-02
2.157527774629661860e-02
-6.040204202525629486e-03
1.850343240552384041e-02
-1.331607546805981673e-02
-2.455848564931267797e-02
-2.269642440895766611e-02
2.432778203515886806e-02
-1.069325707466379193e-03
-1.408141018497578549e-02
2.897347893000026126e-03
-1.335059339128862564e-02
-9.049385115235404620e-03
2.346412447918083677e-02
2.353168051340540773e-02
-4.503041217783973309e-03
6.371621699775491948e-03
-2.174115298953588349e-02
-2.374590558831936662e-04
-1.042394655515235108e-02
6.681622001464268719e-03
5.384340977469759260e-03
-1.267658364674782408e-03
-1.114844215757217726e-02
1.500525381773387505e-02
-2.155620765729412622e-03
-2.373849533246261134e-02
8.704434619724291458e-03
-8.030628566455248751e-03
1.962620957681969480e-02
-8.294031885706399168e-03
8.101441658025501300e-03
-1.639375332533525229e-02
-2.577965824835952349e-03
8.809080636931908639e-03
-1.272080265515925998e-02
-1.420966935282608028e-02
-2.253060158133378746e-02
-1.478983081023590995e-02
-1.710872192255774929e-02
3.884620354629090503e-03
3.254164720258239697e-03
1.834648355917279858e-02
-4.163204834427292229e-03
1.351254870407096222e-02
-1.159106830003639628e-02
6.526872864524137577e-03
-1.664663109893188553e-03
1.414753333430310983e-02
-1.475654181456089245e-02
1.770703474643401342e-05
-2.063096653473736261e-02
5.806497575153940841e-03
-2.589560785950668562e-02
-1.216991634248498072e-02
-2.028555743131512518e-02
3.953725215327036531e-03
1.837094870728212676e-02
1.420549350753427635e-02
-2.006562997336506018e-02
-2.209957714784488436e-02
-1.105663739275299616e-02
2.648095451664247285e-03
-1.560183570411357093e-02
-7.713738498627012441e-03
2.916686128864274044e-02
-5.649544771741486088e-03
-1.270279264077677633e-02
1.044149112366793766e-02
2.134313306876651009e-02
1.111165409531196697e-02
-9.736526613346933423e-05
1.502263448411981540e-02
5.822017758818242260e-03
3.227639736454716683e-03
-6.715562014831270334e-03
2.240818941344295892e-02
4.224483718225263348e-03
2.388966201197970096e-02
2.666086677492203634e-03
6.046526395700899874e-05
2.290447420523537142e-02
1.531841597398355022e-02
-1.209516663724791337e-02
-3.416395132890283001e-03
2.217682418148240325e-04
-1.487027943588704708e-02
-1.092220964584202526e-03
2.022141950467516366e-02
2.303442326136416474e-02
1.509138611421396124e-02
2.136069751732949662e-02
1.907739037249761571e-02
6.277356538986290924e-03
-5.314297230094478137e-03
-6.842064759722330317e-03
1.176048823413495051e-02
-2.465449812502976124e-03
-1.566130205185384955e-02
-1.167386097383049659e-02
-5.871126814693866137e-03
-2.860507998206252012e-03
-1.184078810716183983e-02
2.413049629412249153e-02
1.121476665715540055e-02
2.085385724606657679e-02
1.544676369949168383e-02
-9.021453601746137752e-03
-1.318608292653769033e-02
1.635331979786792955e-02
-5.636081486484701732e-03
8.820345747168272616e-04
-1.949282399886864345e-02
1.300055253623321611e-02
-1.374849119558890949e-02
2.529081679774124874e-02
1.538057882965321137e-02
9.040520364695533995e-03
1.079939267132627202e-02
5.339608121273354234e-03
1.352881950234031093e-02
2.417594993495288114e-02
-3.960498575769136049e-04
1.639198560267463413e-03
2.325913886024460683e-02
1.581242940171128167e-02
7.622308898064551058e-03
7.323218291623821707e-03
2.179062821170132946e-02
-8.127728553071332518e-03
2.461867913594597505e-03
-1.490071719581141999e-02
-1.736110760376906315e-03
2.225438562814021151e-02
6.922168624738804336e-03
2.817547646362105005e-03
-8.425807283424088454e-03
1.351432961024397195e-02
-1.579237165196899911e-02
1.930296008396657033e-03
-2.400555169272512723e-02
-6.784125129312880073e-03
1.185742300369756370e-02
-8.821036140027731579e-03
-1.308701318017485224e-02
-4.857122255834426736e-03
-2.376212539586201877e-02
1.279420010898313712e-02
7.338419159314178708e-03
-1.816292490889880734e-02
-2.244921076786858885e-02
-1.026470452288924182e-02
-9.909822123979080896e-03
5.718640884260595830e-03
1.856054235778728566e-03
6.854875861182327564e-04
7.295518795685330092e-03
1.142017124578298360e-03
4.889065206309182142e-03
5.303070377874702888e-03
-2.425006796181923552e-02
1.419545995990786728e-02
