-2.198998744285070861e-01
1.248088518040985639e-01
-6.742762571143373629e-02
-2.337383411965004432e-01
7.810795619254481403e-01
5.545274492227201257e-01
1.424691824871456847e-01
4.708368247181185517e-01
-1.060009339521332361e+00
5.767416411117445296e-01
-2.129421861000097005e-01
-4.618336254602983248e-01
-1.301363597434520292e-01
1.181753512842048659e-01
7.551598216956929566e-01
5.277002375278556645e-01
4.960645840855524603e-03
1.291220396922512892e+00
3.573664071780521256e-01
-6.334413891411679876e-01
1.855827050778629528e-01
3.546316076216061153e-01
6.028949500359450653e-01
-4.204686169566846377e-01
4.214039556401386610e-01
-2.265604420143254027e-01
6.756668961336818047e-01
-7.415739698194571128e-01
1.705831308762142839e+00
-1.705209334261936216e-01
-7.445339195931693910e-01
-1.417406941040799673e-02
7.580580746906413481e-01
7.352310760503524278e-01
-3.562281117763128613e-01
-1.926542844725629977e-01
-1.610293481953843919e-01
1.688951107555416165e-01
6.498358615308081898e-01
-3.987817428864121050e-01
-4.091021023678186874e-01
-2.262646274240785738e-01
-1.327716658695486940e-01
2.330594010764366342e-01
1.185381962958873325e+00
2.584120291257588700e-02
1.352884799693814477e+00
-2.869577024272809140e-01
4.129573146627643077e-01
-2.621739560918613932e-01
2.419701873704226402e-01
-3.695480308763899879e-01
8.904079926301261549e-01
2.300570567773233821e-01
-1.717595979276299867e-01
4.267949589216357698e-02
-1.808044644075083307e-01
-1.215148808129545288e-01
1.667198876382966488e-02
8.730295469264232056e-02
1.941838633493152277e-02
8.817163659684620902e-02
-3.478704658191241195e-01
-3.339085195727189426e-01
-2.454396183702560463e-01
1.196670006087193761e+00
-7.734068291490607816e-01
3.954396585306817480e-01
-8.867591267175348735e-01
