3.436474961083481154e-03
4.582813406302286771e-03
-5.247780877295038504e-01
4.666432651358688212e-03
2.164584762349777980e-01
-6.297829353487174875e-03
-6.613497539488690131e-03
1.815895961609182915e-02
-4.594925091944127571e-01
-1.362222397076709168e-01
1.633112905308133633e-01
1.486666776339385654e-01
1.338597354630781215e-02
-1.109439593998561881e-02
4.407150775427542792e-03
9.218333693795825040e-03
8.983762558552972274e-03
-9.178854909911654883e-03
-5.024913411559649851e-03
8.097266942142659560e-03
-1.629427785229599010e-02
1.464002295139516657e-02
3.566187273090290488e-01
9.282374262462507811e-03
1.307134317744402391e-02
1.406664163462908144e-02
-3.660780974623818462e-01
-1.116763599329861495e-01
-1.749388135792663210e-02
-1.280649290525746930e-03
-4.493371839892478826e-03
-1.138814472212674143e-02
-8.853984051497587951e-03
-4.511586089583299874e-01
-5.213419211850592143e-03
7.843350922094925390e-03
-3.454983825571384948e-01
-3.741771109216858286e-03
3.968203025168851039e-01
-1.378393423701936536e-02
-1.691996868657414960e-03
1.072085234299519595e-02
2.547465197105909778e-03
7.360423836967197424e-03
1.681622514904650145e-02
2.093591160676264995e-01
-1.452705798771691467e-02
-2.502470436413078113e-03
3.127652307450930896e-03
-1.469523720907004068e-02
7.653361322735858022e-03
-5.305212511202475438e-03
1.602282032539319168e-02
5.481635857611635680e-03
8.568353579613486454e-03
2.803972421084913180e-01
-6.926098162851427112e-03
1.706849399276228960e-02
1.353557010065329150e-02
-2.917901141651320970e-03
-2.491579161807082055e-01
-1.050409962079791419e-02
1.759883882693072943e-01
-9.569685000511175821e-03
1.321190376238686121e-03
-1.763088683874560933e-04
-7.613725142499145303e-03
-4.377055208652702034e-01
1.541852649294137706e-02
1.525803688616811891e-02
6.675531049124420850e-03
1.767592059823450829e-02
5.576796163441037797e-03
1.603741181946671465e-02
1.495891478017906395e-02
7.875934753688397516e-03
-1.599883067372618456e-02
1.664221809146008424e-01
1.416547305744836512e-02
2.832545082947098836e-01
-7.980872330862427422e-01
-5.896723287610257207e-03
-5.747236365958835469e-03
1.667849136521560444e-02
-3.863447133586554033e-03
5.466152534217897513e-03
7.781353216526860211e-03
4.984868162096321442e-01
9.310669152824795070e-03
1.824636915416227509e-02
1.691351253093071249e-03
-3.352847891838358074e-01
1.551440621795115507e-02
1.114998109299932460e-03
7.555686229252475336e-03
3.507741549866730257e-03
1.530971521859103351e-03
-4.167544748805817288e-03
-1.330000313395961024e-02
-4.869082511556961368e-01
5.335143910718905327e-03
-9.790145422013077359e-03
-1.233286337733133751e-02
-6.579154158449789999e-03
1.134070475278261755e-02
2.200775863071405825e-01
1.161796765597230587e-02
3.455290804244596993e-04
-3.831233194387355465e-03
1.577536630677503840e-02
9.315298828917487018e-04
1.749029266855130216e-02
2.779532400371892420e-01
1.396286618737958840e-02
1.349753331311111249e-02
-2.934780088872902207e-03
8.431769107958796833e-03
-3.627986796072862896e-02
-8.627327940002640569e-03
-2.281486234846404060e-01
-5.354261919488000412e-04
1.395166904300548620e-02
-2.461429977932607926e-01
-4.111621927594243942e-01
-1.716227975100570805e-02
8.570385888736502603e-03
-5.714352709720242444e-03
4.986396365535299656e-03
1.761022065489062025e-02
1.160937074207850188e-02
1.866476194516084389e-02
-4.466318044537746501e-01
1.391211404003286044e-02
-1.743828022424167776e-02
-1.821445483026981269e-02
-8.830728769948193238e-03
-1.430095993573914960e-02
3.979228092797864047e-01
-1.476163742544930706e-02
-1.026303277238168644e-02
-1.027418270170213643e-01
8.661967174433789912e-03
1.844025255270873714e-02
-1.415849118144744782e-02
-1.140130695711586220e-02
1.693986820911490623e-02
5.319498408306568872e-03
1.182777563111207103e-02
-1.901375299287519360e-02
-3.098364788631524386e-03
1.595214486025728698e-02
8.600487714656889632e-03
2.931358480434154701e-01
1.905556800082565394e-02
-8.455978234277336525e-03
1.602325361158138048e-02
1.513148749874205883e-02
-1.527557276593338211e-02
1.327846457004062258e-02
-1.958893116548590108e-01
2.731652434038173149e-01
-3.535801252740226608e-01
-1.713210007484968975e-02
-1.501145761242821119e-02
-8.651611758531844998e-03
-6.886387542334401236e-03
-2.462284919112372739e-01
8.634718241157350593e-03
-1.291670781936433456e-02
-2.894605645847211917e-01
-1.877173884857498767e-02
-5.309696508421618555e-01
7.130455415595620371e-03
-2.997198216800955623e-03
7.691320282545430383e-03
-3.670305035191537280e-01
-1.076979124634384194e-02
-2.438217134547098486e-01
-7.302412701201041988e-03
1.666954676241008888e-04
1.078043156209008806e-02
-1.420341674998255518e-02
-6.156161222124547500e-02
-4.922278631494145587e-03
1.472620084287867143e-02
-1.415481940979276300e-02
-1.226507206831532470e-01
-8.158140801338465559e-03
3.588074717060359409e-01
9.315203626816187521e-02
-3.562552080204143753e-03
5.603704655878985821e-03
2.584643608279662066e-03
-3.782320367357062674e-01
-1.467025290847722048e-02
9.500543406493078963e-03
9.283003365602955637e-03
1.894777740364646593e-02
-8.521912190588155911e-03
-1.362437853254165653e-03
-1.402858865136760074e-03
2.409885803021219464e-03
6.301011314178425055e-03
-4.845091010731725559e-03
-3.185171205431077627e-03
2.343907865541759901e-03
5.706251184929608811e-02
-1.243185398818955588e-02
1.579969989052397161e-01
-3.086048319011335320e-02
1.540597344149228880e-02
4.098634967416273263e-03
-1.710122342262565087e-04
-2.045111327838217974e-01
-2.906810564681914632e-03
1.596569334167017018e-01
-3.779183627197592044e-01
-1.705880233035021384e-02
1.106852872936558638e-02
-8.515010396212729232e-03
9.858989095585976928e-03
-2.731761021480377805e-01
1.149839614908883083e-02
5.721259536543401095e-04
9.042374472838333316e-03
-7.605697689114665483e-02
-1.115550137138735789e-03
-1.575686938668787937e-02
1.511402010069842240e-02
-4.892579199142581964e-03
4.103051579541452942e-03
-1.202855633032437477e-02
-1.711953555728156287e-02
1.161390194200388228e-02
-7.534627857899149628e-02
-5.662409871086159126e-03
-4.829883828290371661e-01
1.074346727720070296e-02
-1.328774233810696252e-02
9.679834284212984752e-03
1.558855751166324591e-02
1.698245811240725253e-02
1.615999605630896729e-01
1.549379003578073462e-02
8.090783279666122554e-03
-1.225693637129903792e-02
-1.530039427804433597e-02
1.181550925847697775e-02
-3.939058156173199862e-03
4.683337669198432696e-02
1.703275516621945151e-02
-1.745436847977061279e-01
1.852785855549936994e-02
1.137605958577013118e-02
-9.486227949690697464e-03
-5.243679116115934624e-02
7.683662002560749313e-03
1.031466746559419820e-02
1.909029242363313847e-04
1.576788648792138217e-02
4.192555873345171942e-03
1.571914316364849025e-03
-5.714302353872468751e-03
1.382335172118085570e-02
-1.510005819772901282e-03
1.222946700539376437e-02
-4.495157383482919523e-03
7.701602723897723116e-03
-1.291831293736032428e-02
-6.061666286073916568e-03
6.547307040221805527e-03
6.027857664500040763e-02
-1.323966121158685547e-02
-1.138942920826701427e-02
-1.609049661068049850e-02
1.123308497255968118e-02
1.196234255262138002e-02
2.841944198692136769e-01
1.845135123488619855e-02
-1.215560920473979234e-02
-1.344566252034459265e-02
-1.117813265107423827e-02
-3.993998919628198585e-03
4.892920866287320779e-04
1.880874202963822572e-01
1.146755685205522353e-02
-1.887942240240372133e-02
-1.158228947147268983e-02
5.013121667600524932e-03
-2.824034747282954116e-01
-1.554601891158975333e-02
9.507962561556948522e-03
-2.786879800354875609e-03
2.044085809432032996e-01
-1.559407947883980315e-02
1.593656966621848428e-02
-4.025799650581077770e-03
9.432371204168030210e-02
2.188291567318435913e-03
-1.397566069442242320e-02
-1.003452529660459232e-02
1.809197775682572229e-02
-5.141567178364805923e-02
-1.534083233694588828e-02
4.463105073943554602e-03
8.923346109137871018e-03
-9.367632140023408535e-03
-3.686147941236735115e-03
-1.192413456764181423e-01
-4.700803033935557207e-01
6.857118991496796712e-03
-8.819377297199369053e-03
-1.427403494292133097e-03
-8.312480317968292884e-03
-5.345904189388008820e-01
-1.400082248385799491e-02
-1.064115326986245745e-02
2.910801838718276580e-01
-1.985391298573376540e-01
-1.230743630490616601e-03
-8.228926055359687877e-04
1.810199059395640325e-02
1.354866438447241764e-03
-1.202499769678086125e-02
8.507797384931726353e-03
1.212903679255285076e-02
-1.629371592790160306e-01
1.939479019358858192e-01
-5.551496216323543731e-01
7.884041423905233451e-03
1.113534735225912009e-01
1.293456601953109873e-02
7.797614397943254672e-02
-6.951891997525974989e-03
-3.899662208568057675e-01
-1.750753210218790584e-03
-2.455921729826281022e-04
5.109663340077816862e-01
1.465178839317531415e-02
-5.256358958324781616e-01
-1.058323333617209976e-02
1.550307179181364785e-02
-1.618927565904481084e-03
3.821403496005350564e-01
-4.481482620955126728e-01
1.685635637863669000e-03
4.627708750220931866e-01
-1.432976839114199694e-02
1.674709066615740621e-02
4.730638632883934830e-04
2.710869418937512099e-01
-1.810025830859620863e-02
-3.572992818431354901e-03
-1.288735833507130904e-02
-1.420124163706762161e-03
7.821736190135999411e-01
-1.216664525959851480e-02
1.760201764794150706e-02
9.770829378804595303e-03
-8.907607089784181503e-03
-1.415161674340242003e-02
1.321216267029191524e-02
9.458030763078400030e-03
5.606309594302177901e-01
-1.492643585382137650e-02
9.124349147073135269e-03
-1.637009184320591809e-02
-7.607745090807222811e-03
2.020275631950356823e-03
8.630545597073808681e-03
-1.285520436473967798e-02
2.517516191644938450e-01
2.439569606632050192e-01
3.369337131339132374e-01
7.657389651861917432e-03
1.908876297821982893e-03
3.610168499202171533e-01
-1.068385881227438758e-02
5.624950068315630151e-03
-1.176687932199022880e-02
-1.258244277677327959e-04
-2.844672015713888870e-03
3.319231378167657089e-03
3.622059132675415532e-04
1.577100592742665744e-02
6.567897184052477744e-02
7.754724739655685824e-03
1.558015988328816104e-02
7.435445865731984960e-03
-8.729420903476141011e-03
2.755704721618240302e-03
-1.462149225267009127e-02
2.462739517131112919e-03
6.590086445462124860e-03
2.216193575952022168e-03
1.716985277271994292e-03
-2.309522904828357256e-03
-1.440068392913098662e-02
1.746036808852318920e-02
7.354217372608055220e-03
-8.583933484952666754e-03
6.989811042962349244e-03
-1.379977821763758369e-02
-1.504276434378432059e-02
-1.599177648951606925e-02
-2.954540571110967351e-01
-6.737779659442359390e-03
3.855812472530395583e-03
1.297754403885444975e-02
-3.901671158790234184e-01
4.547262875350612799e-01
4.319101445795089367e-01
1.355008291572304055e-02
-1.596644042469324773e-02
1.802544792834408216e-02
-2.926807718502499270e-03
-7.682385802209198283e-03
1.362996179115457188e-02
-8.104211383694092177e-03
6.640310628160030031e-03
-6.431210223671878249e-04
8.074739350829765461e-02
-3.850860371116023983e-03
1.311767058007931933e-02
2.918268096468452089e-01
1.878798576416384342e-02
-4.927095488463009015e-03
8.062451487876643591e-03
1.398255009245995099e-02
3.622263231578007892e-01
6.758230546984876283e-03
-1.772207108779368448e-02
-1.618054839884085910e-02
-9.881381123231917571e-03
-1.327821202703701083e-02
1.256545259513973910e-02
-1.305098930932528829e-02
-1.820073168910837577e-02
-1.671865551358586721e-02
-6.021918957179303936e-03
5.277725378311015798e-03
-1.810658925424180749e-02
-2.626289603039950737e-01
1.047875493340619767e-02
1.313931331480349025e-02
1.893649163036736222e-02
5.764118569932673471e-03
-1.785829634829928098e-02
-6.583844805308627923e-02
-4.292802299311992420e-01
-5.488474390537720904e-01
1.385059034927917099e-02
-1.724595414388624404e-02
1.605144522718625344e-02
1.200947328236169620e-02
-5.818252452485772608e-02
-2.934338632957210757e-01
-1.482722060102396183e-02
1.564974456693419072e-02
7.519377878084077503e-03
1.021556407374308618e-02
-4.646344585334045707e-01
8.265362478223977835e-03
-1.677090365637283823e-02
-1.206098708781539602e-03
-1.832454656620450401e-02
1.470735060703860612e-02
4.935330329527001236e-01
9.740061488070448151e-03
-1.760834564112355796e-02
1.659952086245386829e-02
-1.879898973930896333e-01
-1.428728572227512365e-02
-4.373062511594512022e-03
1.219857257629141517e-02
9.337546161914749357e-03
-4.715943962608441960e-03
4.829374215529861902e-01
5.671566174083027788e-03
-1.337252228020283790e-02
-3.818581909657465384e-03
-1.157043775876402496e-02
-1.658508921628979241e-02
1.284958499926125604e-02
7.443922780633074887e-02
1.864957127983677548e-02
8.420218271715639718e-03
1.296354797120411947e-02
-3.929756670429768520e-03
1.218092091386483757e-02
1.741887002569285706e-02
1.594105710931727898e-02
1.596813920160115516e-02
1.168003936394858625e-02
3.428942368272476227e-01
1.503603905191380763e-02
1.575540340199543810e-02
6.948670037819890989e-04
-1.045301225962460938e-02
1.728602103172084030e-03
2.807567319026354341e-03
1.894460561519103678e-02
1.096900670384088998e-02
1.399983955117222942e-02
3.112066844846476110e-01
-5.559111357890622780e-03
-7.258160565131629473e-03
-8.956960487511319430e-03
-2.745315620945312438e-04
-1.482026109637952019e-02
-1.650031364322814345e-02
1.765371034939598391e-02
-2.874399220483206951e-01
-3.461000356602139116e-01
1.850245939113543542e-02
-1.828339021621090688e-02
1.317862854051862209e-01
7.691231234404950941e-03
-6.900662940786677843e-03
1.698088637218150496e-02
5.510892205169411716e-03
-1.693040071856136836e-02
-1.263785708858536361e-02
4.692878703257831463e-02
-6.126930851113561623e-03
1.838482712424221316e-02
-8.648070949622398834e-03
2.527627355674470951e-03
-3.583949657991419933e-03
-5.383049812419600337e-03
3.429178922300678556e-01
-8.190496321921260717e-03
6.099493947087435489e-03
-2.573199920359858228e-01
3.093361899863345064e-03
7.688838258700959882e-05
1.433682217955119798e-01
-4.012403824970908195e-01
-3.029721916729596724e-03
-4.499850992511442715e-01
1.877885194935572169e-02
2.149366111553633329e-01
-8.789987930917652834e-03
-2.182983485189587611e-03
-6.132561983080641113e-03
1.432174751843688296e-02
-3.108012247839790354e-01
5.456801810878459703e-03
4.222303164617580151e-03
1.724303575550061376e-02
5.093059987330358362e-01
2.962925808217826695e-01
3.730107393373612856e-01
5.197775395967546043e-03
-4.892878862671550255e-01
1.835816002246766152e-02
2.998983489504458873e-03
-7.764201231547172150e-03
-1.741013819736979273e-02
-5.264593349093827923e-01
9.763691645926740603e-03
-3.832308494875907301e-01
2.764134092069204796e-01
5.053100363610436505e-03
-1.666323061572431985e-02
-4.910214962622579393e-01
4.489806632473633541e-01
8.627445223894124673e-03
-3.370777901257344666e-01
-1.557305003753589948e-02
-1.334278711529463153e-02
5.163739670548247659e-03
1.357822780329968372e-02
-1.781616836592987349e-02
-3.656067308515398816e-03
3.100580171016195478e-03
-6.155999912606527347e-03
-9.254841403654809210e-04
-1.480070180986143777e-02
-1.870003368515049669e-02
3.476236339205346706e-03
-1.478329994817241880e-02
1.609313277367063408e-02
-8.803877978696160456e-03
-1.811942779989543159e-02
1.630620828744532361e-02
-1.544707391485742806e-02
4.300300612292354795e-03
-2.945217249365054621e-03
5.301671144364371313e-02
-8.447392049295410600e-04
1.599888006783107761e-02
-2.938684444694041140e-03
8.501179528211565833e-03
-9.332604663869710493e-03
9.867219517101686113e-03
1.070913935727333018e-02
-1.042559632550843496e-02
-1.060007492344025755e-03
-8.091012156455797827e-03
2.205046788449015471e-01
-3.559124098098517264e-01
1.010089172757908452e-02
1.325248339401768546e-02
4.453395445149239129e-01
-8.437948873513376885e-03
-9.470115389287093316e-03
2.394709600702346012e-03
-1.138017472518340796e-02
-8.341729511870354247e-03
7.856686141092965314e-03
1.391606207052541525e-02
4.200885431632394584e-01
-1.734983162837818935e-02
2.026225863513059777e-01
-7.800846713845544476e-03
-1.123749273323023171e-02
-4.543283993420993427e-03
2.186994014509423007e-03
7.936274282183247361e-03
1.440375783415828378e-02
1.258896827975093560e-04
1.313876456290211797e-02
1.302888192652950326e-02
-4.566650107321001961e-01
-2.889234228915653867e-03
-2.398217743339971404e-03
1.158141840898382728e-02
2.453232349552479478e-03
5.975019604439473983e-03
-2.625210795024878196e-01
8.352629123762533511e-04
-1.371076543521960144e-02
5.666268131521879671e-03
1.533004710074103299e-02
-1.883515505409304180e-02
-1.031554276357800424e-03
1.691684549080189198e-02
-6.914995047784582775e-05
-1.590487093345710479e-02
-1.685231688416510831e-02
-1.689772911344456507e-01
-1.384370327103048026e-01
-1.675014146820759040e-02
-4.514014251658190167e-03
-5.536737104699321899e-01
1.609316487192753720e-02
6.560199524540902098e-03
4.624680762608312373e-03
-1.695999040762912261e-02
-1.250580476891105346e-02
2.700821431281648366e-03
8.082217529868441705e-03
1.241733300688217453e-02
1.700966093375597468e-02
8.587551323846176130e-03
1.413844685487724261e-02
-1.296585303351157660e-02
-4.836795226534898982e-03
-2.486503835198588253e-01
-2.653997906844240418e-01
1.231498704738239261e-02
-9.066748879032917111e-03
1.688476582952554844e-02
-3.050400453174934023e-01
9.953136541387817837e-03
-3.847051491531393030e-01
-8.285387697494624518e-03
9.268970741560552187e-03
-1.243214658453387494e-01
-4.930206346387735680e-03
1.288800525699117412e-02
1.265111072941791925e-01
-1.754277768120692969e-03
3.917722751714383667e-03
-1.448414642981837863e-02
1.319000597763004580e-02
-8.973163556164466190e-03
-2.260751590864379934e-01
-8.922958818832797071e-04
1.495161918461185638e-02
4.395329863684159510e-02
-6.162294308340339824e-03
9.984474011558885920e-03
4.771326317049960283e-03
-1.483509968349555098e-03
-1.518297102846548514e-02
