-3.297697549515024584e-02
2.639774769279127839e-02
-2.485236678476275898e-02
2.432465981166649638e-03
3.254674420029465137e-03
-1.169022822035664134e-02
3.161114635027992975e-02
4.621631967503323640e-02
-5.825214505321271025e-02
2.879212886863893872e-03
1.806681079075737190e-02
-1.256792818988436422e-02
-2.442901210225636305e-03
-1.706811235075559414e-03
-7.539672876806176316e-02
-1.161158898316798534e-02
7.223960893217386042e-05
-3.327365011067782985e-02
4.829453140933667450e-04
-2.553831492062154027e-02
-2.721341818999203563e-02
-2.744338669501893146e-02
3.626579752097138648e-02
4.066185742528221486e-02
-4.480404003723834072e-02
9.900844351793482156e-03
1.442193583844162937e-03
1.391276248230338512e-03
-1.998276492618715136e-03
2.438730498374722805e-02
5.052242481923995693e-02
2.931827510569076515e-04
3.552880945861415507e-02
-3.139127855189632887e-02
7.351666222730826594e-02
-4.703000699596169426e-02
-2.557266283809203622e-02
1.568165055580547380e-03
9.325722131098265755e-03
1.017451099259425928e-03
1.530260304737710627e-03
-7.401541413233535260e-03
-2.190346897075348340e-02
2.132443773845499671e-02
-3.694681545260223438e-02
-4.655084761196257026e-02
3.338824323781865860e-02
5.951756117509174326e-02
2.779216703760704552e-02
-1.640308866628385764e-02
-3.104214042953210018e-02
-3.082149573453783417e-02
3.367355345969507210e-03
5.597162687950875404e-02
-2.805226787831043012e-02
2.107457693955971934e-02
-3.317061972943241566e-02
9.343339813807874372e-03
-3.065057735786400409e-02
-5.327115716322965155e-02
2.999909226683747723e-02
1.644870420330655581e-04
-2.917011219869901015e-02
-6.305484785978372753e-03
5.143683045603233452e-03
3.568399837234972893e-02
3.219380939819754817e-02
-3.154517099064317598e-02
-3.508459687327578069e-02
5.482017112215503869e-03
-1.720837160068550836e-02
-2.194402870901679403e-02
-3.363823589165485656e-03
-2.115208872387761702e-02
3.990045208121136694e-02
-2.471122702493579876e-02
3.056241215700639113e-04
3.469746184890386276e-02
1.117772972082276689e-02
6.550580479714693824e-04
1.474552380074994548e-02
5.058829282647743508e-02
4.570295466039031411e-03
5.427892739012940386e-03
-6.899796037080976885e-02
3.873505413629469568e-02
4.375103364085235202e-02
4.373376688044413110e-03
-3.028504619090719580e-02
3.926551887838015953e-02
5.994165731207715120e-04
-1.637998075009186247e-02
-4.866095063238226603e-02
-1.361511526374597006e-02
-1.212351785994005959e-04
5.176969212050057390e-02
-2.370029645319115391e-02
1.910058287367509891e-02
4.530998182310664452e-03
-1.349537265454264431e-02
-2.270213502134318592e-02
-2.480299841396448393e-02
3.824352799402564590e-02
-6.523936718630777426e-03
3.085193534630871655e-03
1.522508143028834652e-04
-1.233890014411962756e-02
6.919836530173446333e-03
-6.604486982978156027e-03
1.076004010971081878e-02
1.105490246147153126e-02
5.412292808261182780e-04
8.391310408716016675e-03
-4.632054223375309254e-02
-2.770146475190339228e-02
5.027113720949040465e-02
1.252277464293581263e-02
-1.370161423888880022e-02
3.208257193684042885e-02
4.677972452875878151e-02
1.664372237599747242e-02
3.639756555891406758e-02
-2.953462033934005013e-02
3.709582853756503151e-02
-2.745703428065408847e-02
9.380523784461700446e-03
-4.465895366516833831e-02
3.544367657715920272e-02
1.450656798545899798e-03
2.360733804588170670e-04
-5.374752863868337976e-03
-3.281220910362998150e-02
7.992371094465491052e-04
5.199670539992073265e-02
1.358060263723515591e-03
4.427404836456907966e-02
-3.685506551385337587e-02
-2.150303299863085688e-02
4.741510320615976472e-04
-2.804490244507177286e-03
-2.494947029958863652e-02
2.212774804317452562e-02
-2.095065918086921539e-02
1.746246470962367625e-02
-3.752968852021774243e-02
9.282381019071958561e-03
9.002945116773422574e-04
-3.033778604310049393e-02
-2.399307123288786994e-03
-4.508086015251236596e-03
-1.552012598302780766e-03
9.133319457608604641e-03
-5.469003909741350367e-02
4.679360668246412835e-02
1.645239450325939809e-02
2.072129216579569888e-02
5.507295916320553014e-02
5.488393295688519247e-02
4.054932216621643520e-02
7.904657147826479185e-03
9.399412338265326558e-03
-6.153006471558643276e-02
1.238174079866804231e-03
7.369697317823747929e-02
-4.989013102066962996e-02
3.999030802944229801e-02
2.696768970534962201e-02
3.307260019929247202e-02
1.154147603005450246e-02
-7.080425790363834015e-02
7.377777836570478115e-03
6.516344449202002287e-02
-6.386997346954258886e-03
-1.431024988747431163e-02
9.943331991482053274e-04
-4.148506746301646592e-02
-4.597346530092778251e-03
-2.878917678404039823e-02
2.981742941146716883e-02
-7.509713394283670795e-02
9.211974357778051270e-04
9.869588900871934228e-04
1.155000950060202161e-02
7.801939510418460025e-03
1.808868038464636271e-02
-2.493583329471835142e-02
1.343448873859068651e-02
3.114853145586589378e-02
-6.820855423867094869e-02
-2.869091487844709423e-02
-3.656288986614682907e-02
3.975067830541342828e-02
-2.050622961901275854e-02
2.431019280780997299e-02
-3.698195411918409059e-02
2.565397022167482596e-02
-5.687129864669664830e-03
3.270907432170032381e-02
4.534949021680076062e-03
-2.665687466886813156e-02
9.379426423519835257e-03
4.914947089692772025e-02
-2.136011920052998184e-02
-1.350801495749748109e-02
2.750470857251105170e-02
4.426038736246812322e-02
5.268554615802016616e-02
4.452986849431339600e-02
3.152014839846620231e-02
-1.925191560314813005e-02
-3.614825632368243169e-03
-2.548036124498468530e-02
3.169853066874272346e-02
2.116316831603920132e-02
-5.660412465262847082e-02
-2.259026039356027554e-02
3.388489937124294221e-02
1.841701857874223497e-02
6.138044151581143956e-03
-1.397764054170533114e-02
-9.507123615258180477e-03
3.803024732127421870e-02
-2.139823111564691585e-02
-3.596972279494278779e-03
-5.570052120245642946e-02
2.295978323386592412e-02
-1.163986164845503754e-02
6.021237791642260022e-03
1.009531307310437224e-03
1.317110298788016056e-03
1.016801447101558370e-03
3.805969861982621411e-02
4.402779291331062684e-04
-8.517506551775744228e-03
4.053039192832667836e-04
3.280085324802945596e-02
1.198029992841173402e-03
5.079942307603062257e-02
-3.336565201851401929e-02
2.865559129521138421e-02
-1.524727860189561968e-03
6.020855722061117798e-02
2.599064729523514750e-02
-3.096996561978431969e-02
-5.730026759069724307e-02
-2.866196207274810184e-02
-1.087792907105887552e-02
6.683328447232197555e-04
-2.455990639898312372e-02
2.223446990930819794e-02
2.226662512664082973e-03
3.035262933989121142e-02
1.570254888793136752e-02
-3.044712329321198549e-03
1.149340077528792844e-03
1.603367157596093107e-02
-6.201107394619616298e-02
2.547713128682370723e-02
-2.512880573395099432e-02
-2.228844367598764586e-02
-3.714376869379965029e-02
2.446805857417866381e-02
-4.248616276063825470e-02
4.907977234137737843e-02
-3.799367480511038619e-02
-1.898979721459324865e-02
2.674200031209065381e-02
-3.440392547805398021e-02
-5.246165780491242325e-02
1.414876436569618978e-02
4.365417987474003517e-03
-3.089275474808823169e-03
5.669013762421553498e-02
-7.119029422411554675e-02
5.175390662602971821e-04
3.690128262938197762e-02
1.017283396198518861e-02
-5.960624320652526537e-03
3.807502317734420133e-02
1.276323976727979786e-02
-2.797219139125751639e-02
5.244323715522150597e-02
-3.702384944332480499e-02
-5.032151140679825413e-02
1.383639188874155775e-02
-2.877583459540140540e-02
2.912495362935922302e-02
1.128834033483133367e-03
1.455047788874511833e-03
-2.105145497107486011e-02
-1.136986300595199152e-02
-3.395725219166867426e-02
1.563067924753679463e-02
-2.759985023445912442e-02
-3.789004518487633800e-03
-5.969991689752608341e-03
8.963975953107102901e-04
8.510874473185192288e-03
3.529062189583026532e-02
-1.578046095982234970e-02
-2.357483598560827093e-02
5.445743689426883749e-02
-2.133888552085788648e-02
1.795856893155065720e-02
3.607440262146877769e-02
2.996361258645915959e-02
5.768455042116438225e-02
2.939666708663885714e-02
1.677901647286988984e-02
-1.215917144037488573e-02
9.135818357664913722e-03
7.888649001303213448e-02
-4.283870150643476898e-02
-1.257390592595262514e-02
-2.832571972063654270e-02
5.994096830920888274e-04
-4.352380336617124243e-03
-3.770421999488381831e-02
-4.880154514402722937e-02
9.356224778058998964e-03
3.734231002845785768e-02
-3.310703699350917018e-02
-7.110530296857234256e-02
8.203961308494524263e-03
-1.994290099952647499e-02
2.802975649178238854e-02
-3.885590210413253365e-02
-1.980650138942615518e-02
4.253669803112870157e-02
-1.072495209492595365e-02
4.984224249199586954e-03
-2.627699112660798753e-02
2.533561643361242899e-02
-8.694389663897194448e-03
3.052698519638723934e-02
1.341899993227460737e-02
2.894101124403943709e-02
1.457906810872644770e-03
5.504610046470941043e-02
-1.437781933856793933e-03
2.214483766907467122e-02
5.470337111751476938e-02
1.368941648702826780e-02
-5.648582476893896503e-02
-3.979394302120722871e-02
-8.297472456755104406e-03
-2.443244224752602611e-03
1.131699975733292673e-03
9.557142866563655059e-04
-2.834330839963835474e-02
-5.067409479409321418e-03
-3.524424059549619709e-02
-1.500606431730697882e-02
3.194263235519239014e-04
4.996937022224402780e-02
-2.367709779728539854e-02
1.829901084731829451e-04
7.313093020736999295e-02
-3.311298891333985805e-02
6.603893573057720290e-02
6.684055667429380371e-03
-4.526343870280802317e-02
-5.414302222978142204e-02
-4.679935302981760858e-03
5.713808574395462525e-04
1.920870704012622027e-02
-6.522233300360519292e-02
-6.206508016589923349e-03
3.523858310239131458e-02
-4.071822843921790031e-02
2.346427812647610550e-02
2.700882945099265103e-02
-3.574490002879852218e-02
-1.284619242543414731e-02
-9.728571760645519755e-04
-3.741979550359147977e-02
1.282342133331625805e-03
-1.933935539917015778e-02
-2.241723046487290733e-02
3.772098605184318054e-02
-2.226323871164846355e-02
-1.829521035805968879e-02
-5.543495125109195593e-02
1.046937245552175119e-03
2.891853679306299538e-02
-7.148273232354915296e-02
4.876435919170464539e-02
5.024165884960400674e-03
-1.340512560645702560e-02
5.500695201197378092e-02
-1.239193814636908170e-02
-6.469461751371195779e-02
-6.249595532037086065e-02
9.875994608882208460e-04
2.950814033943295264e-02
5.826734180849956618e-03
-7.824089733371947589e-03
5.841274744232276966e-03
6.592628240091225056e-02
2.622253714781103834e-02
2.440966240209839141e-03
3.256004487887486330e-03
1.862322242750229229e-03
2.124664130182858310e-02
4.715343299312477199e-02
-1.433932056551406702e-02
1.039757738549640202e-02
-3.864815551055154896e-02
1.315526218645649177e-02
1.436361241837866634e-02
-1.259324319846250040e-02
-2.621495033441521849e-02
1.580015824503903585e-02
1.699138907221083624e-03
-2.280756403527621837e-02
1.847367534113059789e-02
-2.749721442339644190e-02
6.241724550465956728e-02
1.770804115652132443e-02
-1.643753807270163445e-02
2.776611829088965200e-02
-9.643012428475225203e-03
-2.601609390978547320e-02
2.616268808533847232e-02
-4.057138198933711581e-02
3.715801065231311845e-02
9.321718398058377597e-03
2.911364595153860188e-02
-8.403974317536415384e-03
1.125191660303333707e-03
-2.365093912007242699e-02
-3.259286597479969794e-02
4.670943771074067413e-02
-5.550131080474554612e-02
-1.725196228731402590e-02
1.397679734324587877e-02
1.143079187099262616e-02
-6.467019544174248957e-02
7.471774393122271318e-04
-2.105711708172358643e-02
2.943043362885157041e-02
1.283128460335939205e-02
-1.599862707814045729e-02
3.297988963853790145e-02
2.814699627064758125e-02
4.954705380789931057e-02
4.296781865645755982e-04
2.711258429794456346e-02
-4.225393663050630057e-03
2.266227156649001581e-02
-3.981160029378025267e-02
-4.103234144186423960e-04
-1.257824769649714715e-02
1.683200295357594953e-02
3.142139980450053827e-02
-2.562602569119224599e-02
-7.573817024081693286e-03
7.062527845083249600e-02
7.543809659672128833e-03
2.268653725266009738e-02
4.553074454778818086e-02
-3.102904721556397696e-02
3.877846611479805056e-02
-1.536972077462232453e-02
-2.422215989539295428e-02
1.410782971014530032e-03
-5.532739699173600673e-02
2.231525332522047572e-02
-7.059741138811463645e-02
2.759282547853109807e-02
1.383753409314586718e-03
-1.729718513495986584e-02
8.970772384399451193e-04
-5.548550017206495960e-03
1.248074009664839733e-03
8.135340554776587796e-02
-4.745975677930083098e-03
3.737896940498797865e-02
-2.666674503628833556e-02
-1.540583082028755893e-02
-2.265824929812970331e-02
-6.790079719727230151e-03
4.043999329109971425e-02
2.017251382462865311e-02
-1.530032552155111657e-02
-1.729804405420325153e-02
-3.390923766719697308e-02
-1.242096148583356555e-02
1.003958075852535992e-02
3.068821855274855848e-02
-2.811971000714701130e-02
4.867765914897542734e-02
-2.146875692505755689e-02
2.045017357138954647e-05
-2.016857163040074521e-02
3.438575697353152272e-02
-1.722611126930601727e-02
-1.289872856007969436e-02
1.460157925508612361e-03
-1.744991136422038153e-02
6.386488844362620682e-03
-9.660930374491068229e-03
-2.988053369850312072e-02
-7.062841492621303729e-02
7.010707159163775612e-03
-3.110322306235218867e-02
4.221728976461731203e-02
1.381956220771223996e-04
-2.252869203366187831e-02
5.758880378343101715e-03
2.276714656010647925e-04
-3.032535776065172980e-02
-1.706618472097938544e-02
1.462359536466124703e-02
-3.033916521683989106e-02
3.847186364231524464e-02
3.250050638570024797e-02
1.178186579886543635e-02
3.834603021450901789e-02
-1.259234200852888189e-02
3.752342498688910483e-02
-2.805183279118604600e-02
2.090371320046377837e-02
1.480215382758632734e-03
8.035139592087871263e-02
6.351751437527986162e-03
-3.047153192661199855e-02
2.990274612071704141e-02
1.776894511821459216e-02
3.149638835665020259e-02
4.719454210358573626e-02
2.022504922387401149e-02
1.627080631746393585e-02
5.929305094665287407e-02
-9.169261266706521182e-03
-9.816278741907449867e-03
1.713807365970887464e-04
9.089944700882588921e-03
9.830404946912290817e-04
2.447026184033808394e-02
-1.278927580687895353e-02
3.269267972324593069e-02
-8.104876744147879175e-03
-3.819041350878742136e-02
2.687306804623797174e-02
-2.672335390376677153e-02
8.402764231245104729e-03
-4.130609520405825741e-02
-3.076721887196081848e-02
4.031810651507863647e-04
3.907898813808549643e-02
-3.526572264762926900e-02
1.382122384081716903e-03
-3.905028058370652033e-02
-2.405794589567402178e-02
-3.572398302646348500e-02
5.579575294277021834e-03
-1.325844540813696584e-02
-4.000227682841629023e-03
2.435763754655152769e-02
-1.548698049650128715e-02
-2.907091219295743906e-02
9.209386631543330396e-04
-8.570190401203318931e-03
1.342892208261266783e-03
2.379539456276983170e-02
-1.469900561441344830e-02
1.142242923588156060e-04
3.463428633095524956e-02
-5.488118284824389237e-02
6.261301723762922877e-02
2.734889092238079050e-02
-2.312346241554414858e-02
4.312086026032131009e-02
-1.212655043107972556e-02
4.267614546299522416e-03
8.802952178615156692e-03
3.155102028427147587e-04
-1.089006501046914724e-02
-2.384983639446391565e-02
-1.835340303092410086e-02
1.026782675507946843e-03
-4.493486111912091407e-02
6.062082896944921695e-02
-3.026158944538083137e-02
3.938042060876526668e-02
4.647809987448243280e-02
8.224185090751928717e-03
4.663161588866805013e-03
2.814176843265757400e-02
1.500480412981192169e-02
2.472764556081401277e-02
3.554304523022343287e-02
5.387199323251116480e-04
-1.716810169467846217e-02
9.316458682025272747e-03
-1.786238476675578238e-02
3.281721709616294575e-04
-3.052521540427993382e-02
4.053113092368913067e-02
2.256750780450830773e-02
3.220992875651582793e-02
6.480849272521289721e-03
-3.019972098098205535e-02
-3.015824291411010535e-02
-2.790674528199601698e-02
3.123515258309043918e-02
1.272807971590697237e-02
-1.906720428489287744e-02
-1.710707114727962053e-04
-2.418320087933458276e-02
6.530178505021758117e-03
-9.080220554085340068e-03
-2.836201567515930083e-03
2.040292105797828631e-02
-1.585884426507894185e-03
-1.860028784724562789e-02
-2.082523110624111620e-03
-4.642575869534429356e-02
1.943368556556348409e-02
1.763798811754373891e-02
4.839779764540254325e-02
-1.046917086798754455e-02
-1.244529517840943511e-02
6.039236929003072296e-02
-2.536212022036805208e-02
-1.136128433013469663e-02
