9.697852408152715046e-04
-4.025193577705372949e-02
1.112484260490201500e-02
-1.699245576668580865e-02
1.071239150633495341e-01
6.771007577400470212e-02
1.686178766867868842e-02
6.209405462918390906e-02
9.395251156604644480e-03
-8.863660021478926565e-02
1.219447800157552088e-02
2.650197392398756686e-03
5.732422487035513520e-03
1.424694595956812679e-02
-1.045861380262987639e-01
8.849784908120493510e-02
3.765297752512461547e-03
1.176743639941570940e-01
8.184746978207159494e-04
-5.010136388957354275e-02
8.982648803476930149e-03
8.492744364564625004e-03
5.035129734858640252e-03
-6.693360119553078136e-02
7.109888550581783262e-02
1.674858707959390736e-01
1.286703319527863869e-02
1.489837284337081590e-02
7.369628358553849401e-02
2.935734304497665537e-03
6.363567737786376965e-02
-4.696672394962853742e-02
-3.675841215651262650e-02
3.948076199040342210e-02
-5.157278231866144896e-02
1.607388842038932883e-05
8.707265216756725906e-03
1.799025215035998659e-02
1.018978888302872823e-02
-1.542253405447631745e-02
4.836301049276497954e-02
3.855243640306021697e-03
1.376187236758342862e-02
3.940524897361351829e-03
-3.019284556908734610e-02
-2.055084844401142835e-02
1.505920672447650342e-02
2.218193009786684298e-03
7.647547874272927690e-03
6.250955891686844033e-03
7.257526766922487577e-03
-9.098434794763977929e-02
-2.164645052808611761e-02
-5.750122477323699188e-02
5.978063306507577388e-04
5.574393454875936800e-03
4.054398082088286545e-03
1.103075972342144884e-02
-8.344265896248551084e-03
1.073529841457919465e-02
4.669983410303287820e-03
-8.246104069255843008e-04
9.249375392464020051e-04
