1.701944124892746692e-03
7.276725552768760832e-03
-1.481441139003147542e-03
1.781284307940768320e-03
1.392129834843061804e-02
-8.825528314161749585e-03
-2.648795987480766657e-03
8.107167229817517640e-03
4.935556261664171898e-03
4.003836060635001561e-03
1.268403891147249982e-02
4.950583249703945608e-03
-3.427460263179068611e-03
2.625315132540439675e-02
2.394394601439816389e-02
3.448599882643337000e-03
-5.351886326988132027e-03
6.925207740818745822e-03
-9.434373947107686786e-03
3.316172804573811264e-03
9.706317214822058476e-03
-1.547299483564494593e-02
-5.261467629558432002e-03
6.128679448761230157e-03
2.614965913956786986e-02
3.006120568454883138e-03
1.502754977467078701e-02
1.150215795821483804e-02
1.199116822002123904e-02
1.012995683498330024e-02
-3.211344255329699748e-03
1.673709681419236275e-02
-9.297858132549716853e-03
1.603640970196982402e-02
4.491859699389805574e-03
6.301622764934837473e-03
4.043623806834590120e-03
4.255722898808494623e-03
2.111990811019785752e-02
-9.370334619262149500e-03
2.775143412113954822e-05
1.014746917727545397e-02
6.736656334107746398e-03
1.134009830307318445e-02
-5.828312777966530162e-03
1.472689338870713897e-02
-2.033107991716787827e-02
1.710449323694687718e-02
-8.417936688362529299e-03
-4.082279899902024715e-03
-1.280459235217541909e-02
9.926580547966015397e-03
6.663837576405960000e-03
1.391163756889167175e-03
-1.024470361962097169e-02
1.231022609602992410e-02
-3.825721058133671731e-03
-1.247828001642611526e-02
1.549231101514078092e-02
-9.552835076473831580e-03
2.760308931447637282e-03
-5.941264132302457972e-03
9.297952574096431805e-03
-9.336643687540783360e-04
-1.175035913516898206e-02
7.781918451694890340e-03
1.214755730336383038e-03
1.519002990040847767e-02
1.811313585700441778e-02
1.752631970937115063e-02
4.744140407096740855e-03
-1.363418583779024869e-02
5.765626837195126850e-03
-8.993492508107919087e-03
-2.063729454969672871e-03
7.754206271186403281e-05
-1.349367986800947654e-02
2.387256856064286226e-02
-9.921383697126475235e-03
-1.858083646918203338e-02
-3.301617716807965161e-03
1.859872540957870773e-02
-1.089525835859439691e-02
-2.397854339481751782e-03
6.474486464011953643e-03
4.064439914079924152e-03
-1.367089850870858644e-02
-7.767433686798209252e-04
-2.493879731410058448e-02
-5.130284384776310352e-03
-3.232532146950271162e-03
1.599691896614891798e-03
1.213769846720816684e-03
6.897885605527364662e-03
1.566798059652647207e-02
1.775850139906938290e-03
1.597150649583528592e-02
2.768132607721095640e-03
2.037550047474423476e-02
-3.602147399216841864e-03
-4.602216399505231967e-03
1.436737289595278050e-02
6.025616846271923330e-03
9.011340310462086223e-03
7.441965397833492750e-03
6.009603601052423841e-04
3.288095474193585433e-03
1.452369765574284752e-02
1.382789553435117419e-02
4.517651274508515877e-03
3.205629273939206159e-03
1.554994944333509040e-03
5.626828235847892816e-03
-1.095448172294066769e-02
-1.133758172764549356e-02
7.803790263131530139e-03
3.680254151570541699e-03
1.384855331187209194e-02
-1.882473165686282361e-03
-5.514302509190478416e-03
4.980570902957376540e-03
1.999972665273166972e-02
-7.804511686430581734e-03
1.154386236146326926e-02
-1.325082943040915492e-02
1.344727815522784101e-02
