-1.853019264269212263e-02 1.862823321537007346e-02 6.201128274015792197e-02 1.606506229247389034e-02 1.669752580009342680e-03 -2.879778350167238460e-02 -1.346668720452088089e-02 -2.216033633859851998e-02 1.073196839305757058e-03 -1.266909125948447942e-03 -6.604595305326414756e-02 8.335369436124159814e-03 5.762483785312532553e-03 9.328410810124813241e-03 1.276229437315996168e-03 -7.161764609315272000e-03 8.809323949126954961e-04 9.426374114915536673e-02 -1.116198509498437033e-02 -1.996857736884603135e-02 -3.546385008484350364e-03 3.858024299508006072e-02 -8.100018996866739651e-02 -4.671893006081269395e-02 -8.114957951144811249e-03 -3.665359013308595870e-02 8.668382520033424826e-03 -2.990019948208584577e-03 4.719619832430944906e-05 -1.053342952757066880e-01 -7.588915707570098590e-02 4.139677942055228557e-03 -2.981275270940543162e-02 2.990758299419009336e-02 2.088873009997319063e-02 5.392412960210096751e-02 -7.035438011937766509e-03 5.331546435495257419e-02 -1.814684035436831856e-03 -2.567105685315976792e-03 -8.296140339225151900e-03 -5.029094322098909969e-02 1.910205223711836792e-02 5.781714732613500718e-02 -1.049884659480236973e-03 -1.601114251128171045e-03 -8.507147148036794254e-03 -8.158646817902759710e-03 -4.066025946286923841e-03 -8.049943666238925516e-03 -7.314139601394036884e-03 7.271434535979351410e-02
-4.855858808009556188e-03 -2.068955694283294844e-03 -3.694109522627634853e-03 -5.074703726869318060e-03 1.364528044696145526e-01 1.406350469181078325e-03 3.628144392616416969e-02 -3.303245340179997679e-03 7.555185858136026500e-03 5.062347691478739919e-02 5.905435762099713048e-02 9.169350739058806932e-02 3.219716644039209014e-02 -4.216445923126509177e-02 -3.068044400690751218e-03 -8.724430382299171172e-02 6.717399110155633513e-03 7.786018910817908700e-02 1.167936918264333990e-04 -7.249603772562610536e-03 -1.471798406250654501e-03 3.095989148905310337e-02 -8.429039195050298805e-02 -8.099456366961790832e-02 -6.130430697540293836e-03 5.791651688546125415e-02 5.161074808806848623e-03 -8.901064682638544501e-02 -8.158038622293253828e-02 8.659069773314410912e-04 8.254532327009980047e-03 1.243933747239793497e-03 -8.128071012001393536e-03 2.272530236759270211e-02 7.639504002196317867e-02 2.335603013189150451e-02 -2.218650276346231798e-02 7.797410861220412104e-03 -4.261628101348233222e-02 -5.043616018896128483e-04 8.082629128242899835e-03 -8.454843131274132617e-02 3.729936870339043559e-03 -8.825861184837648088e-02 -1.424065650344692778e-03 8.376140363647284481e-02 -2.445761505775105246e-02 -2.783178693778679685e-02 4.774842056036168389e-03 -6.557779072565642423e-03 4.172737537669914815e-02 8.410847779463756502e-03
6.255433692374395144e-03 -2.056574956743936061e-04 6.293398433395432090e-02 2.785183328213390597e-03 -9.137497951601398008e-03 -2.648891266577405382e-02 4.429200417435510094e-03 9.805057928919541643e-02 3.116004367237242695e-02 5.309198324347178671e-03 -9.445378793655218735e-03 8.062393537049905579e-03 4.909553675323213850e-02 9.147697644941560347e-02 -5.299641489671259170e-04 8.697379363049829656e-04 -9.547453981967383291e-03 -8.950900087766433533e-02 -1.051313391714745055e-01 5.841029052442062164e-03 6.674467859606382503e-03 -5.884792383062917125e-03 -9.458379208678884334e-03 -4.004001899654086039e-02 -1.303202563408200620e-01 6.068955385271367076e-02 9.811098042555527199e-02 -5.773362733914492312e-02 1.752656237362067507e-03 2.054067107505132272e-02 -6.044382935611977703e-03 -3.740369141411407916e-02 2.805999426592520329e-02 8.836724240352247794e-02 -1.898926318823506154e-01 7.743890887268618795e-02 5.433205156397631630e-02 2.342541735494158700e-04 -3.621251003085778838e-03 -4.363647499285761011e-02 6.720919401415760552e-02 -7.938000940863353116e-02 -7.784038715275926230e-03 -1.690542507343470793e-03 -5.732936225977440514e-02 9.008171821594689044e-02 4.965235095111673880e-03 1.644408210657991032e-03 -3.321211384676579781e-02 2.459102005617563869e-02 -1.642461767005084020e-03 -1.219891163343136617e-02
-7.049396429986926060e-02 3.397234060264125999e-03 -8.548743403879453459e-03 8.481181556904922314e-03 -1.852659258981633958e-02 -4.363743219112445858e-03 2.568375335962654743e-03 8.790698455356609625e-03 1.048149885212246689e-02 -4.405478448612967085e-04 -2.503038199803219940e-03 2.507790380635799982e-03 -2.034214400403015766e-02 -6.041930087510607311e-03 6.800272599591465628e-02 -8.223678040346826465e-03 -1.011964139390125403e-02 9.475206438131671127e-02 4.437344180324336376e-03 3.462035751749769664e-03 -3.360786587584442542e-02 -8.932090910631962366e-03 -1.492772020237464331e-03 7.813039173534843534e-03 6.355032160252609835e-03 8.653578666583183060e-03 -3.353820005813449440e-02 9.491848455060857698e-03 -7.862562772423661514e-03 -4.799150177612972190e-02 -5.451227620547884761e-02 -2.434442425262519846e-02 2.118731298879121538e-03 -9.668188802477283017e-02 5.132400394526624027e-02 -5.929356656619807348e-03 -2.061160809748467659e-02 -7.978763573213004667e-03 1.777738554782793551e-03 5.773825842587941570e-02 4.787663279016923443e-03 3.631812773758610891e-03 -7.942734984528367070e-02 -7.175124701321625512e-03 6.554273002020161165e-04 1.280984029305140548e-02 -3.987037499611021524e-04 -7.534013972455780826e-03 6.199003515567208522e-04 -6.685549284473921161e-02 -9.458539797241534430e-02 -6.137481498174784597e-03
1.869285562127901562e-03 6.423876999128041998e-02 -9.850940117618754710e-02 7.517049751124818546e-02 -7.557768948300157275e-02 -7.456242097652830692e-02 5.033534989282108588e-03 4.856883664929884797e-03 -3.649402656801708014e-03 1.409457685869837731e-03 -7.761338510030138527e-02 -8.229085705418984209e-03 -8.717712814367950536e-03 -8.353442264708138207e-03 -8.246447025094348973e-03 -4.380810562628588423e-02 -5.903483548763951982e-03 6.828793768792972008e-02 8.090207168777956148e-02 6.429339433707510071e-03 8.349422779884926871e-02 -8.382129341896299435e-02 3.190732337004051344e-03 4.935863992849238296e-02 -8.938782011157919358e-03 -4.599212953912835966e-03 3.125053325231276838e-03 -9.170386396170071563e-04 7.665400881729903665e-03 -2.254042554600016804e-02 -9.402244659175686831e-03 6.717693664119450681e-03 6.241168409858526694e-02 -4.625007706549775707e-03 7.904539760857100250e-02 -3.411766237504240684e-02 8.709422996026720820e-05 7.428506493884653311e-03 6.807185360528104912e-02 -4.584088953906278671e-03 -2.045646247251315698e-03 8.302429467991197937e-03 9.602064198955713448e-03 -1.042563554621685484e-01 7.925749580833749142e-02 -2.792945790282476415e-03 3.830637858632796391e-03 1.280866618887063421e-02 -9.293154370405624226e-03 9.262004035557960813e-02 8.141802693842029037e-03 5.749232027258525252e-03
-7.365877501363715142e-03 9.563920289736335678e-03 3.639374369424087582e-03 -1.321145014290193292e-03 -2.377018267954107006e-02 4.139403078711543366e-02 9.359670266479555578e-02 3.046226885770880223e-03 -2.430816790230271029e-02 -5.330663805577752490e-02 7.870266812712616716e-03 -1.209444505427782930e-02 1.464308437446897732e-02 6.602834204557112702e-03 -4.528200913252915585e-03 4.700694013837136351e-03 -8.406263836078524745e-03 -8.156377920772617252e-03 1.710927426762817033e-03 4.078747477752728279e-02 8.557657876980795386e-02 1.691947079290427591e-04 3.830458643893824844e-02 9.263654275302662944e-02 -4.025259651297993096e-02 -2.674909374818022073e-02 -4.515255263653343218e-03 2.467550499341368553e-02 5.901052526793683708e-03 -4.801522006898425315e-03 -2.353639905302864176e-03 6.017230712024486394e-05 1.445330194720390732e-04 -4.533579820296287921e-02 -3.445381616339676656e-02 7.112497346150613992e-03 4.774399350470423867e-03 7.890716223340919766e-02 -6.352154415742029825e-02 4.801332869899863076e-02 4.403376371105713338e-02 4.980494404394514296e-02 -8.552951789712635866e-02 -8.027417120522578262e-03 -2.811003680246336109e-03 6.629257301479951625e-03 8.661236630615823384e-02 -5.509961213199729424e-03 9.418886181027152915e-02 6.474707582872926692e-03 -1.444393402854396435e-02 -4.167625941966120878e-03
2.096080300047348244e-03 1.245624724542841906e-02 -3.000225716098594425e-02 1.388694183279637340e-03 -6.504963776273013643e-04 4.217040585483361470e-03 6.403153539631827040e-03 -6.455355048091474673e-03 7.438587206351494896e-03 -4.832510941222849590e-03 -9.149383741377703494e-02 -4.497415751039756694e-03 -1.309623199906630869e-02 -7.919729778654019392e-02 6.941581918959530140e-02 -6.128273200700595086e-02 2.552874132553487399e-03 7.370269130747528208e-02 9.256709605405654545e-03 2.254895024329667437e-03 -1.039309964327794072e-02 1.645102153014429414e-01 8.208779681528677319e-02 2.684899131458435423e-03 -7.681610546628697689e-02 8.832510464699902530e-02 -9.461607381104552780e-03 -4.018888298101723835e-03 8.914826729808776606e-02 2.517651005515795376e-03 -1.808516133065692609e-03 5.076283448758689074e-03 1.452399100302158644e-02 7.009815003950572998e-02 9.002820304149335845e-03 3.156954405751705162e-02 -3.344896996614387524e-02 4.298818425465145837e-02 1.290305145470382019e-02 -8.632422562008714578e-04 -5.973937864695647026e-04 1.748530355826410573e-02 -2.369090983124404887e-02 -5.303800826810124713e-02 2.887601142295777648e-03 -1.216949659749131107e-01 4.770008155034929920e-02 -6.409974561145790131e-03 6.530630584504398817e-03 -4.361517825468732949e-03 4.157874837725877848e-02 -2.706576527703081700e-02
7.728238185246944641e-03 -3.073276330727111282e-03 -6.683628839938882821e-03 6.522789261624809681e-04 -1.910873458203409675e-02 -1.892515390735925382e-03 5.463129528576691693e-03 -4.115590129657110963e-02 5.855781696658079322e-03 -6.543328747611891830e-03 -7.788830485162373009e-03 -4.570402353279941210e-02 -8.873292932778698017e-02 -1.872987775701095980e-02 -8.131108043094291762e-03 -6.374981584624355921e-03 -2.120840124043092342e-03 -9.320745575358250698e-03 9.212515828110742766e-02 -3.206365085234048201e-03 -1.507741572083283466e-03 2.230710517700455753e-02 3.204187530364438832e-03 8.904629369848904297e-02 -2.627926087621627015e-03 5.605834806737732684e-03 -3.041468341768941569e-04 9.522422283803112786e-02 6.561092065741545160e-03 4.014419142348516628e-04 -4.263972238530873426e-03 -4.648448114126613878e-03 1.569809415826692658e-03 -6.369721229043145624e-03 7.588439312074088394e-02 -5.512530679453259141e-02 5.848962002907565072e-02 1.146165225479429603e-03 3.688434099980656550e-03 4.339938662783000140e-02 9.588745533202033822e-03 -1.436991631905745054e-03 8.118568743407782867e-03 8.443880102350486555e-04 1.292813982809453907e-03 -8.048816376924074201e-02 2.177170818920116588e-03 1.512168473146577319e-01 -1.160816176961602247e-02 3.673541664032053955e-03 -4.080344271322844038e-03 7.959134676949729259e-02
-6.684837616996752198e-03 3.773500110311628700e-03 1.163300147541049614e-03 -5.612762647783901479e-03 -4.625049024238234684e-03 -7.111765425815655406e-02 -3.515201659724860594e-02 -2.267631279978993969e-03 1.961235283550018943e-03 -9.264203221662137278e-02 -9.296519430343841775e-03 7.675005971486122819e-03 -8.791339005502339654e-02 3.912672062618511790e-03 -5.290749409379700251e-03 -5.090071557659095816e-03 3.236792078417170121e-02 -5.316128718842282400e-03 -4.503183524810730476e-02 -5.408492099249352647e-03 -2.285721488696572379e-02 -8.208892789741258078e-02 -6.376700867167195592e-03 6.399762313238060302e-03 2.229548267510147314e-02 -5.514516615465422933e-02 -5.153918605365605254e-03 -2.648169114668545016e-02 -1.508742622370889616e-03 1.069077581423343720e-02 9.410585522776801840e-03 -6.319394387906576704e-02 -5.792227801609194093e-02 1.002892992382708737e-01 2.676929932028691145e-02 -4.895235160747072288e-03 -1.701623225574393564e-03 -8.074855499104286252e-03 -5.702469720781790791e-02 5.389582100985695207e-02 3.235976558196053399e-04 9.700517710201379123e-04 7.537618201647732635e-04 3.605448608452301376e-03 -4.216379926137455575e-02 6.955165622431691563e-02 -6.404506302982426735e-02 -3.567104126659809138e-04 9.806745443571070198e-02 1.044098406667951298e-03 4.940790412996805964e-02 -3.434381081743007047e-02
-2.499451011450581558e-03 1.075047860027884272e-01 3.514998256679881250e-02 6.941801708891069678e-02 -6.269366897918529635e-03 1.163807691348864998e-02 1.541853069513560159e-02 5.935343258856945470e-03 -4.387125814477810248e-02 2.632457011080259479e-02 4.327570226784174107e-03 8.599791315624612242e-03 -6.795093318045737629e-02 3.151361103811497685e-03 -9.377374839193856892e-02 -6.134117744693666496e-02 9.997642522925502540e-02 5.932821352470601245e-02 -3.347111796013563928e-02 -9.125428910101787694e-02 -2.250976004313124529e-02 3.718406000271731043e-03 5.843373853977153545e-03 5.816353773595229343e-03 4.927784693747459810e-02 6.391991892909465456e-02 6.254337785890308476e-02 2.300619017368618971e-03 -8.101437424434541901e-02 3.253748429632259340e-03 -7.585204769861401096e-03 -7.368891540946227725e-03 -8.191488132845423098e-02 1.416285228471677628e-02 -4.792349738490044725e-03 5.175811004320607020e-03 -5.027762440779261904e-04 9.653384859996880230e-04 9.062725152044989740e-02 4.732551120523748739e-02 -9.693285369910054072e-02 -2.210306708954610719e-03 -8.642646091023131749e-02 -8.520331115700162036e-03 -2.780397336931409412e-03 -4.805628696638065966e-05 3.243353832777292473e-02 -9.550976099234187791e-03 7.270613293073138750e-02 1.374919547320278476e-02 3.210581172569618863e-03 -5.544837588877267465e-02
1.117314666977855045e-02 5.737918686337106777e-04 6.078988293533856002e-02 2.298968875710214604e-03 -8.254263381925613929e-03 9.347318352815860154e-03 -6.987059756993101167e-02 8.187944279712824902e-02 2.826014612878915977e-02 9.056479302813238985e-03 -2.323811902075589506e-02 -1.225165248825951445e-03 6.320865055759360834e-03 1.866295733429394060e-02 3.940531214901119017e-02 -9.632125797937277079e-02 -6.352285873879247313e-02 2.158912136361014478e-02 -9.053123702810073059e-02 2.051676553043503895e-03 8.420745747026947559e-02 -1.994896386903593014e-02 4.679439618574787046e-02 9.262555017141564651e-03 -7.675345677970321460e-03 5.321607528819222166e-02 4.507404258893363963e-02 4.666141036613044579e-03 5.964511683335133735e-04 1.605336862386837031e-03 -1.907528156291576384e-03 -1.910305666812345607e-02 -1.099778941382734965e-01 4.567326178865302802e-03 -8.767612870524967017e-02 -3.994649096866172838e-02 2.325604947466808348e-02 -3.971910805436880409e-02 3.880042581394564649e-03 -8.573663694842484362e-03 8.190455036383367804e-03 7.606073259158241395e-03 6.535500060392152727e-03 1.755618677799816035e-02 -3.705263727487276976e-02 -1.889851836626119629e-03 -7.770413925119179499e-04 -1.606969575489984592e-02 4.809872558753128594e-03 5.843767955782066051e-03 7.264374296539388709e-02 4.508647959635124491e-02
7.494774260856398168e-03 -1.005011062206362799e-01 -2.026730625847950745e-03 -8.866618324778578752e-04 -2.264979602397852385e-03 7.576177972173801789e-02 -5.761668595339850506e-03 -8.071526129352207812e-02 -6.945686164404260565e-03 -2.445723926881273463e-03 8.528186717660879435e-02 1.011551132102290196e-01 -1.705545960213623868e-02 4.865340338899995856e-03 -9.810402240590487821e-02 4.680362189248416654e-02 1.390927209595518854e-01 -2.233603471068557229e-03 8.155051360325595716e-03 -7.285885058536355208e-03 -1.637222013267573828e-02 -9.528931636912351885e-03 -3.093384687803097700e-03 -3.963213805906415366e-02 -6.274852466069350682e-04 2.269951553509939185e-02 -1.739175757221388813e-03 5.590539955503693800e-03 -9.534187451122699830e-02 -3.599105952114481886e-03 -8.380395771603846300e-02 9.211710150327841878e-03 4.753304514947749235e-03 5.812495057050032221e-02 8.809522404656529304e-02 -8.456591680554431667e-02 2.069119941598883405e-03 -8.387847376784364484e-03 5.318322506063220129e-02 1.178434727645316302e-03 6.026257815424894415e-04 8.237198948613078109e-03 -1.628640699986102711e-03 3.306733750538352890e-04 -1.001157862652412092e-03 5.610998694337981929e-04 7.716114172243739716e-03 9.425205357662232164e-03 -2.314305478155884686e-03 -3.238234351879948347e-03 7.262864231360004197e-02 6.130112403402866728e-02
-6.470941644127151809e-04 -1.053408287444660037e-02 4.989444584591266885e-02 6.112024236448878461e-03 -4.334712156365153751e-02 5.483839040144795896e-02 9.737130843792284052e-02 -2.160434894289841104e-03 -5.925671072712079129e-02 -3.876435290002371720e-02 -3.331624439209285304e-02 -2.677951277274791264e-04 4.760113709690930173e-02 2.904247689358275750e-03 9.297479953863842933e-03 -5.293008166501557421e-02 3.673224129438105306e-03 7.573564608975513757e-03 4.788504250443692545e-02 -2.881363563208229339e-02 2.661248822803186434e-03 7.860986555440734047e-02 -8.905657685969863013e-02 -8.220319651463775523e-03 5.377520996027425337e-02 -1.624800126077057677e-03 -3.679022747257250370e-02 -1.038216546168894625e-03 7.485771924464393323e-02 -5.962000365667306789e-02 -4.212787397867272243e-02 8.101864851953719665e-03 4.128518466792607464e-03 -1.842381206574091740e-03 -2.489869386759675091e-02 -1.094445333301397039e-02 -1.067599691843168219e-01 -1.747945566177906002e-02 -3.814498140329951326e-02 -7.380059812265371728e-03 -8.403608916569341170e-02 -8.812464184189421415e-03 -1.178395317792586133e-03 5.039755460227446360e-06 1.215036298862698719e-02 -7.922050282239150379e-03 5.170434229659344461e-02 1.538073057321094530e-03 2.115146366642155565e-02 1.889808677377050050e-03 -4.666976843913407669e-03 -6.435201272327874256e-02
5.210881020336706818e-03 -5.048007317394646344e-03 4.387655614251284239e-03 7.846325651084802566e-02 1.013535958666940406e-01 1.211245856896254504e-02 8.405967644035010344e-02 -2.824112234377043618e-02 2.557971448097209888e-02 -4.219449870064021640e-02 5.004892661582210911e-02 5.759134047533844697e-02 -6.590217701858280472e-03 -5.204190933774959296e-03 -1.563642500054269330e-03 9.170187538673730404e-03 6.137874287486704689e-02 1.762764045198368656e-02 7.885435428483664189e-02 3.240682544800069578e-03 -4.113490022222708944e-03 -1.571100495909930062e-03 1.649919754950939996e-03 -3.772955210194241932e-02 -9.902167482803456156e-02 -6.536363733161125456e-03 8.342727981839326290e-03 -1.322741133473392602e-03 8.211657528030468986e-03 -3.128644284921410987e-03 -6.920062125230015682e-02 1.752644084866618671e-02 5.104080000665386571e-03 -7.202090426286536506e-02 -5.291672599044412034e-02 4.031807753028578828e-03 -6.119434583751458614e-03 -1.649882792696429068e-02 -1.186801519172924792e-02 -2.892297356778955608e-03 -4.591343489624165330e-02 -8.583277216502397874e-03 3.478036452052180039e-02 7.442294132510783589e-02 -4.869222169114784116e-03 4.478256016288013897e-02 -6.696946512554301581e-03 7.710822513406902223e-02 -7.770266956656850244e-02 -3.640278150195707524e-02 -5.073251958850126878e-03 -7.608812252041816625e-03
-8.057976984124819511e-03 -2.398834547244136500e-02 -5.655651763024213512e-03 4.855232778998158638e-04 -4.545970929470009511e-03 -1.352087035066018295e-01 5.775438303963871360e-03 -7.552290288700812260e-02 5.588961570443976706e-03 -8.146930226973127243e-02 8.371168644982392160e-03 -4.214586264551143345e-03 -1.909597524524745543e-04 5.733698258011768814e-03 5.976401032293144830e-03 -1.900688875178366613e-02 -7.912520534904893266e-02 8.952931514427109327e-03 6.133068160145051934e-04 -3.576223471160867168e-03 2.411753303686051814e-02 -2.146432065912523557e-02 4.468432107077024984e-02 5.024283539261932552e-02 -3.647363067932990650e-03 -6.915686200699346781e-04 3.418969938481619675e-03 3.047772294235862045e-03 -4.308660242745527419e-03 -9.041331325657503415e-02 -5.652379391115209574e-03 -5.295971831057015577e-02 -1.760866635090934523e-03 -5.042637433683602038e-03 -9.172507408289069103e-03 -4.985837507132705182e-02 -7.177727444028024484e-02 -7.892334053739909205e-03 6.593850134207473318e-03 8.828730785300283046e-03 5.156142829508615286e-03 -5.638584509994250260e-02 3.546961848051523921e-03 7.012346743477929079e-02 8.441214904572631045e-03 -4.461639359371334657e-03 -4.633333758564216198e-02 5.939946872328409622e-02 -2.396831242654758748e-02 4.557502807946324161e-03 1.238834001550231587e-03 -1.881554913624569267e-02
-8.998884125670326972e-03 -4.552644202958314006e-03 9.178278849468483186e-03 -4.082019444973563477e-02 -1.502964819327996804e-03 6.174571990829161999e-03 -9.230542185070880062e-03 4.555967072335260354e-04 4.742112668497578537e-02 -1.494056765347896720e-03 -4.543490616027187450e-03 1.253337390030900139e-03 -7.775921519770071476e-03 4.533168984847013583e-03 7.254161753415493130e-02 -1.921584015959798206e-03 -4.533168563799300395e-03 -6.591956777382882403e-03 6.216879464256572230e-02 -2.741185635293859335e-03 3.369487594095242622e-03 -1.153347514580277920e-02 7.008286552402250534e-03 -7.019213279926017623e-02 -3.931904661180533021e-03 1.126064147037100782e-03 -1.020229334419961442e-03 -7.620098693217830510e-02 5.392194979699022062e-02 -8.595604391655426585e-03 -4.699390446304430036e-02 -1.241440827917212122e-03 -7.060327563386748634e-03 -1.113215840538219620e-03 -4.666291194354771354e-02 -9.393139208893709624e-02 -8.064627596175782953e-02 9.241640988297390724e-03 -2.840620691191338143e-02 4.361513446983486531e-02 -1.404107890661111281e-02 -2.843454995924729611e-02 -4.846028106979786976e-02 1.259645474101955265e-01 2.144034594023505602e-02 1.377893287465664640e-02 6.853457910244595275e-02 5.727645729374013228e-02 -6.644939594904825109e-02 -2.173425731253789475e-02 -5.199013205849577560e-03 3.942019204659349962e-03
-8.924481498822254069e-03 2.997678294426863246e-02 -9.490115843689004432e-03 -3.781751293317620749e-02 5.911038327048414795e-03 -2.918052065384507676e-02 -7.708132069153214583e-02 5.410307734741571020e-03 -4.633632297085263883e-03 -3.969827296068105527e-02 -9.164580890051388790e-03 -3.935095080105189408e-03 -3.093602654103725161e-03 -4.876682324647678424e-02 7.518805948531787769e-03 9.263743980713199516e-03 -2.085897996722018907e-03 8.130560248697944747e-02 8.418959414527436846e-03 6.230587050736480226e-03 8.143578350939074950e-03 -3.292386754364697021e-03 -6.789251740023628801e-03 5.777663595628389215e-03 2.772345316811680033e-03 5.071498456913947628e-02 -5.269149208074550526e-03 -5.038563772413562347e-02 1.368038954050478616e-02 -3.081829828597442734e-03 9.327083698045638555e-03 -7.583085983221959404e-03 -9.637836192090581955e-02 7.563660835049944298e-02 3.564327766101698519e-03 -1.388417342583548042e-01 -8.645330195425775244e-02 9.243482361237006367e-03 7.038842182074166523e-03 3.438670412884882108e-03 -4.226593651167036975e-02 7.312916149848344705e-03 4.130059105928361729e-02 1.699413555881889443e-02 -1.340307410021383261e-01 -1.240137232413733234e-02 5.384660425010904389e-03 -3.120088214896562379e-03 2.371122846908206572e-03 -7.619459907413092883e-03 3.859225527539899420e-02 2.457442700750026368e-03
6.029866068338941842e-02 4.646005161208215800e-02 -8.035285884047199678e-03 -2.968834191186074667e-02 -7.977686280749435310e-04 2.015036054966094607e-03 9.148009535277872722e-03 -4.082547190635708867e-02 6.765006518621899390e-03 4.481520585389661693e-02 8.314804822699108783e-03 7.797130204964720923e-02 -2.098278575698784773e-02 -7.154670172531856984e-03 8.960348766428018197e-03 -8.920859472414060728e-03 -5.275753320248625575e-03 -6.670938494086062209e-02 6.021830077379587698e-03 -8.963647048212047136e-03 2.430347049095085005e-02 1.154301809160804271e-04 5.668729954315975678e-02 -6.582521022872524219e-03 -3.710303189453281747e-02 -1.528082543925798897e-02 -5.528089945625036528e-06 9.010734094518979553e-02 -5.763215019963134622e-02 -5.893073349734853465e-03 -1.049104816306041243e-01 3.858460761956526708e-03 -6.917679398845403248e-03 -1.834468878032288058e-04 -9.946295091305627084e-04 -1.762248969494450979e-03 -8.039054750103639957e-02 -3.632760209152062492e-04 -4.110634123439848783e-03 9.697269008629354203e-02 8.777597140187554103e-03 5.144058814531865531e-03 5.799471473143807954e-02 -3.596288523386951402e-04 -2.091395593930089891e-02 6.448787228883513800e-03 -7.708970172768482565e-03 8.463008298687686726e-03 8.560391606466859898e-03 4.897234784273989810e-03 -3.277373791343712872e-04 -5.590758122470559921e-02
-9.598490489198407971e-02 1.605226740621299580e-02 -8.140590353401692958e-02 4.798544616159803461e-02 9.370238997344702836e-03 -1.353350036409494903e-03 8.034131838149508043e-03 5.168032777474788897e-02 -1.636765993348754042e-02 1.715116660099553353e-02 8.564062614535086770e-03 -1.469543922034471581e-03 -8.418534228324680430e-03 -6.533083304068820762e-02 -1.685586778655927265e-04 4.182394219731887935e-02 7.024666256348295612e-02 -4.654322842127694981e-02 3.724119709504612741e-03 6.414248090528627128e-03 8.108205695514213163e-02 8.945885853933001342e-03 -7.387947719201069102e-04 6.533599204451431830e-02 -8.539197732351294645e-02 5.775238508344722466e-04 -9.318782243285930744e-03 7.674703910261634898e-03 -1.283774282602117602e-03 -3.216281342482214117e-03 3.613029991020556830e-02 -8.394436272879378727e-03 7.415901633500275592e-03 6.370798420871102985e-02 -6.197455801973462963e-02 -7.572445368277968582e-03 -6.356519217509240365e-03 1.365445774681292926e-03 -8.975927644007623135e-03 6.683113659504583831e-03 -4.485566336899932810e-02 3.167510439704088882e-02 -6.222500912755878424e-03 -9.272338174861657900e-02 1.146715289457031668e-02 9.036316597154378516e-02 4.584628178750525113e-03 -2.438693747357317115e-03 -7.917913962431032127e-02 6.630665268833262072e-02 -5.680026248615357813e-03 -8.960343895013302140e-03
6.377684273441222573e-03 1.526688584835290269e-02 -3.243037111875403389e-02 7.214309458786757195e-03 -2.479139538497571529e-02 -7.120723442948123649e-02 -2.727610084339569460e-02 -9.142147707897502543e-03 -8.115520773925372078e-02 8.961415878224632259e-03 9.362143642824591327e-02 -6.466116552934202122e-02 6.246741647018667215e-02 -2.137329844693999781e-02 -2.008835227714202143e-03 -2.529278282350863431e-03 -6.100123605516938503e-03 -3.657795330269562883e-02 -5.264610968763025825e-03 -2.568389146537664730e-03 2.101164259280802540e-02 -5.596698894752478483e-03 1.174645112773497341e-03 -7.684457023367666749e-03 -5.834756965061572986e-02 2.755664577471663920e-03 4.205891331669351502e-03 -3.802801610845107753e-03 -3.395911524640416769e-03 5.131138350694897099e-03 -5.917266611772786095e-02 2.887206002867858529e-03 -5.465313884551402032e-03 1.858614285782326375e-03 3.261375919540144067e-03 -4.020492855472679317e-02 -8.022489333044054149e-02 -7.832870768648225387e-03 -5.222599824665920265e-03 -5.024515702072547552e-02 -5.691215373348658402e-02 -2.103680152142178329e-03 2.163397346661378659e-02 6.354319129415694767e-02 -4.874669663806945920e-03 1.513622699669510928e-02 -4.430759372994043897e-03 -1.118431029757506814e-02 4.997895922944815827e-02 -3.556048238491302249e-02 -1.537071462866558547e-04 5.233432473013262254e-02
3.744864114448895331e-03 -8.914641614823512472e-03 8.296248727647528853e-02 -6.728641459249895540e-03 3.352068928177878021e-04 -3.533935469604241111e-03 -3.998779822342019181e-03 -2.123609828756083465e-02 -5.087469317002187713e-02 -8.009001595954832325e-03 -9.031125497897286858e-05 -6.176413882479900308e-02 -7.766959065364450326e-03 -9.185004234639974202e-04 4.798123476825613340e-03 -4.737224370646885008e-02 -5.795605481936309117e-02 -4.653807357844593623e-03 4.392732851944436759e-03 -7.309484048013346544e-03 1.484553967809892558e-03 1.361680493725156080e-02 -6.096202392664905323e-02 1.961138528700260078e-03 -6.845506414644784120e-03 3.942830707006933499e-03 -3.042118502525958945e-02 8.352892357632757392e-03 -4.887762913770149487e-02 -3.572454962175595355e-02 3.985415317912245972e-03 -5.271422897553285081e-02 9.087621681913690685e-02 -4.238757983929390336e-03 -6.615710217556757672e-03 -3.664723012642544242e-02 -8.070812376069328581e-03 -5.059298586182891556e-03 -9.082846156586754302e-03 5.313104756830232950e-03 -3.955524407972879630e-02 -6.147972326247097725e-03 -8.534419335104372756e-04 5.732799136958068378e-03 -3.215453593293201955e-03 5.148300576526126937e-04 7.336439185140873620e-02 -3.518967635885803663e-04 8.948256333357007541e-02 -8.397066051777823947e-02 8.035218100086321397e-03 -4.366351292488729503e-03
-9.093090455075608994e-03 4.459562395806512813e-04 -5.818338176694238389e-02 -9.212996490500222069e-02 -7.102144817284494760e-02 8.566511476747251663e-03 -5.092956581262028659e-02 -2.086216971049568991e-02 -9.117923772302131968e-02 -6.055269323910648233e-02 3.890056359340554604e-02 -2.096332275923783184e-02 -4.602365594486076267e-02 -6.790930215560197006e-03 5.843768356028997135e-03 -4.270310258963986791e-03 -1.508157118174565520e-02 8.947668948070715278e-02 5.183754828882797955e-03 -6.696374298461628405e-04 -6.649989138321375434e-03 3.557537253575330377e-03 4.499976840162947522e-02 -2.886539881333698848e-02 -2.811555871857513572e-03 7.312400360894387441e-03 1.735020468000858865e-02 -3.698481314578625292e-03 2.354065690740634112e-02 8.012187656947256098e-02 4.778746405231543148e-03 1.250079951546832942e-02 -3.883381911757514959e-02 6.342855822244131830e-03 -5.048700344402637374e-02 3.873876369590439905e-04 -9.598344878078446732e-03 8.185227319364402759e-03 2.646580686360625739e-02 -1.467367372150179400e-04 -2.806250307783343667e-05 -6.440869330530840653e-03 -4.756507719037858864e-03 -1.353050057072175370e-02 6.517082615492806458e-03 1.034599056009855370e-03 2.472225673917320329e-02 -9.545678466191221193e-03 -3.711368977917463285e-02 -7.930989846321970238e-03 6.285779260477547536e-03 4.321335251786121573e-02
-1.949090439707142769e-04 -3.823914008523875141e-02 7.345017149925410493e-02 7.809831520730156629e-02 3.657185239717737277e-03 5.311080227279665888e-02 -5.192050033396669595e-02 6.048083464724429703e-02 1.944876555998660203e-03 1.762867256819920792e-02 -3.509569006378124301e-02 7.768795729147088408e-03 7.151056557772063338e-02 4.159843148077521646e-02 4.428166221170714428e-03 1.792110069810903122e-03 -3.873959917457763663e-02 1.668403166211491345e-04 5.141596119321478059e-03 5.470510019528009721e-02 4.249041463401856226e-03 2.872089264371131129e-02 3.899843629254773347e-04 1.912567428003639908e-03 4.794634361161301261e-02 9.303671405114125048e-02 1.973858303916575102e-02 -2.145117248156202736e-02 1.667979218800741837e-03 -7.844249564441262146e-03 1.935039886520755620e-03 -2.795001530965049788e-03 -9.306542376768796310e-02 -1.830222488318178006e-02 1.857522567127791249e-03 8.641103890039966012e-03 6.278609065053851468e-02 -1.372672552068240903e-01 6.218534836249362679e-03 9.512371634959881916e-03 -6.984511134109409013e-03 -6.143350647361892070e-02 2.302879382286422000e-03 3.294045202923687188e-03 2.795453813636307114e-02 -1.091021380693130843e-02 -9.270527264756606156e-03 4.916223658185872591e-02 8.659550442900360023e-02 -2.046738435759094463e-02 -8.677515493006054612e-03 -8.745592091804191281e-02
4.878737808145179600e-02 -2.157090429893324460e-03 -1.024719968356935761e-02 -5.967899730139399062e-02 -5.489328076933708452e-03 -3.083915355941968875e-02 -1.927687364310231438e-02 1.502210826991813922e-03 -5.560497727275107507e-03 -6.351459434249900893e-02 -2.098454593806824836e-02 4.893872216904898709e-02 7.772002211166126329e-02 9.429410448132016787e-03 -8.539865751241232372e-02 -5.213577386190880111e-03 -1.899471607029699222e-02 1.021197332520394629e-03 -7.429722694972647201e-02 -4.565283518664191298e-04 -7.937821819592719499e-03 8.017112710433548645e-03 -8.554692997430040496e-04 6.216521051824352995e-03 -4.204587014431600961e-03 -4.836884068533803260e-04 8.398376063868320807e-02 7.293412951186084570e-02 -6.353593403140350704e-02 5.945329873642418717e-02 -3.929347945144238616e-03 7.656049237535489382e-03 9.441633137047645424e-03 6.149685409506784606e-02 -3.615752232054248068e-03 -4.122055908229230008e-03 -2.137340727218581954e-04 -1.668180237165495239e-02 -3.424525755529129328e-02 5.334850438252417004e-02 -7.064630822939306498e-02 -8.712287532979200166e-02 8.763030514487471501e-03 -1.577942016388906438e-03 -8.212081707293724872e-03 8.096333280911870156e-02 -6.112028930580790803e-02 1.786821930962464999e-02 -6.192114199026971418e-03 -9.763436354326172906e-04 -4.365220201964260804e-04 6.523406762888125932e-02
-3.353995113924294891e-02 8.863917938631477034e-03 -8.076298581034216384e-02 -2.070607395273656171e-03 -1.168647788845730146e-03 -2.319512494569204997e-02 -5.917609801768444061e-04 9.112465532297765042e-03 3.858986094977187586e-04 -5.252325724014565711e-03 -3.092495622525785054e-02 6.255595037481805065e-03 -3.346050029994507291e-02 -6.193413631766336164e-02 7.852406789313874647e-02 7.058344507249136174e-03 1.342004058315507745e-03 -2.746076261226802068e-02 -7.279187602441536398e-02 -4.280472260971711698e-03 4.726869685797501983e-03 -6.681107781286322461e-03 -8.998949512254489358e-02 8.190552581728932635e-03 -2.507118439856299494e-02 6.529699627350488145e-02 -2.776379337290913601e-02 -5.618077206169235643e-02 -2.070185430635193558e-02 2.056030768449033930e-03 5.663012368433620672e-03 6.568862443542926310e-03 3.932127632322585456e-03 3.848200842863474386e-02 -1.073691565524430985e-03 3.165598889716761399e-02 5.047273603666536587e-03 3.010522108613746320e-03 -7.994592023058665065e-02 9.282125236684291014e-02 -8.919433733942489298e-03 4.123941815279332651e-03 -3.192198906392136083e-03 5.702302505863534460e-04 7.729913212146272139e-02 -1.715216209791791888e-03 1.277701540369563689e-02 4.844550992208832008e-03 -6.756041327501438598e-02 3.694354390042446645e-03 -4.494023862873680608e-02 1.673677862716127854e-03
-2.568849058250470552e-02 -1.415599154260729214e-04 -5.870276247381988818e-03 -4.937420477272555508e-02 -6.934317240966917165e-03 -8.991691184386721436e-02 4.374480908450793792e-03 4.672018332508614397e-03 -8.205010109382912878e-03 -2.174243711531883422e-02 -2.521102129603317553e-03 -6.437320281709997538e-02 -3.405346006243240020e-02 -6.479858059295533559e-03 2.685425242598752510e-02 9.548037393830817454e-03 4.014032384894542296e-03 5.130097733963327744e-03 4.852369741787463525e-02 8.822422199183718033e-03 -1.356747541580845956e-02 -8.753281350550928472e-03 8.066479906796916732e-03 -6.621410214802500582e-02 -1.163790585391520291e-02 -6.991417638541153057e-02 7.316694006366860487e-04 5.792948332533441602e-02 4.561427961656197225e-03 -1.415318503795725234e-02 5.071606266681198683e-02 9.497603821433723420e-03 1.642649510123867992e-03 6.517194188250118037e-02 4.974846133063109271e-02 -5.728713100815411435e-04 1.201567113720247368e-03 -4.782004498094592770e-02 -5.770392832802842369e-03 2.606918102413997157e-03 8.451728517610359454e-03 4.470432932575434115e-02 6.619705466114442216e-03 -7.319475830357294321e-02 7.250617428289481137e-03 -1.249254675948196711e-03 -1.708289475946509622e-03 1.370362042013965713e-02 5.918353459782427738e-03 -3.392226247442470949e-03 2.576111257550613848e-02 8.226185649930464056e-03
7.225550728875360096e-03 2.807501182567971598e-03 -9.610715804013963623e-03 -1.969950405562868184e-02 -3.427218154637925833e-03 -3.145717591566816497e-03 6.925650084369565362e-03 2.171643299413043848e-03 4.263633974957397460e-02 -5.588715947694932254e-03 -3.597625526124516304e-02 1.247907057027292099e-03 -5.533066797573305690e-03 -9.599830667701434242e-03 -6.872392699437027130e-03 -4.323311546379989684e-03 6.073620083066097464e-03 8.444169944588221510e-03 -9.489109717308098768e-02 3.771726729703221009e-03 7.214721020262819529e-03 4.253011701152682039e-03 1.293119463050721937e-02 2.843296179857734973e-04 8.692639517257308435e-03 2.343411650635429666e-02 6.246998515856877487e-02 -2.822231688339497079e-03 -1.371586684186979974e-02 5.864643414609873456e-03 5.029720982245569280e-03 -4.013696048261145011e-02 6.134693372511058895e-02 -7.394042485191500147e-02 6.939384117825031506e-02 9.229158816901686380e-03 -8.787427875388831300e-03 7.966858295515223676e-03 1.358782362022128640e-03 5.828965228925009345e-02 -5.300873213944532446e-03 -2.295640490913456420e-03 8.647920943648579328e-03 3.542098535587254182e-02 -3.054376754214547726e-03 5.618421893530470279e-02 4.514726387989366485e-02 2.080122316409350330e-03 -8.573445794930913133e-02 7.827755310498908312e-03 -2.198092606733558808e-03 4.803680924034960803e-03
3.336325673894597471e-03 -7.501614963723710408e-03 -4.112429780630253925e-03 6.619782726578385401e-03 1.010785051181727068e-01 -5.214605012993171404e-03 1.229604180402726378e-02 8.008390501278354889e-02 -1.289173453512041170e-02 -3.339420130652141078e-02 4.750825384094663900e-02 -7.532792676015028638e-03 6.619331606121155870e-04 1.299564505900397543e-03 -5.621802463514417175e-02 9.114501576570184505e-02 9.348587295156511601e-02 -3.583585269047840673e-03 4.107462330808792778e-03 -8.362395861682420106e-02 -8.375596494963943872e-02 -8.265832927135416397e-02 -7.312208368966758784e-03 5.194915296370451047e-02 -6.660780084170076117e-03 6.536576870854857169e-02 1.305889331046542479e-01 -8.150003783153605963e-02 -9.547901575799143392e-02 -4.520384115505137260e-03 -5.571452486280466937e-02 -2.211481923282463888e-03 -7.691661025496046925e-03 4.491671381102736033e-02 9.212803950636878902e-02 -7.883289602662209294e-02 -2.800875933712279608e-02 -2.688082619595551920e-02 2.960905254301751319e-03 6.779714329996386346e-02 -6.191550944726520629e-03 7.441693998356230244e-03 3.264632779394255682e-03 3.871897389008201185e-02 -6.809729601289671308e-03 1.308560266163406038e-01 -3.779990535137390563e-03 4.329141971493662838e-02 8.542518568597490952e-03 7.172002590008896145e-04 -5.439737930481983175e-02 -6.465703775134935133e-03
8.405968058369812229e-04 -5.697971870186075566e-03 5.261645194217810795e-03 5.024544711391742968e-02 -2.911282952802935788e-03 8.260076121262965865e-02 -6.879516776098909547e-03 1.732387011792926174e-03 -5.530377188906904912e-02 7.216442111916548940e-04 -1.836635424819790113e-03 -4.979987023007361596e-04 9.012735926804425757e-02 1.920205116110818358e-03 -9.423371702163875485e-03 9.287055756807230389e-03 -3.393320689836984427e-05 4.634531499994696407e-02 4.802972942836099962e-02 7.317644791907437080e-04 -5.442487920732769907e-02 -8.537644362289875666e-03 -1.682750032050866693e-02 -3.839101062707728218e-02 4.917617362917969109e-03 -8.313439116664669837e-02 8.539791641690563234e-03 9.175312106161161163e-03 7.469966082715263217e-03 -4.954835155326388352e-03 6.538093619471205264e-03 8.820768083527812803e-03 8.050596268892210722e-03 1.263273947742232436e-02 -7.699298651981296981e-02 1.334954502712193403e-01 7.569733754566460027e-03 -4.728331142315807256e-03 8.676228213125077721e-04 9.512811504599278517e-03 -9.837310513842768833e-02 3.694501002811488577e-02 5.473978548036273484e-03 -8.267612192798447918e-04 5.995660740670375605e-03 3.747658731781065844e-02 -8.854175277175345762e-03 -5.107213889574841077e-03 -5.063091330913357946e-02 3.579692076057717359e-02 3.244033080949468295e-02 -1.945246343234340036e-02
2.783334571705610092e-03 -1.640973554110889548e-03 -9.694270244496315525e-02 -4.919118965705342184e-02 4.467837358901976391e-03 7.323175046132630178e-03 -6.145642000269369715e-02 1.527745068186193468e-02 7.278103761853274567e-02 5.309679775599301932e-02 9.997330806757616373e-02 -4.617228517903991525e-02 -9.475102699112616933e-02 6.657485729139680369e-03 -4.786540617252527108e-02 -8.913318588915586371e-03 -8.620277401668229034e-02 -1.933545890890164820e-02 -2.913662250015949806e-04 -1.311261189503153818e-02 -7.007654641547224339e-02 -1.839461677752516136e-03 9.044931467758546284e-06 -7.347491740601288894e-03 -7.233874882634128145e-02 6.612786783517761793e-03 -6.875071656676962767e-03 -5.595762816468325546e-02 3.119061417582023876e-03 5.969724555047715292e-03 -6.960466227442246856e-02 5.959043825498695074e-02 -4.680446965688794814e-02 -5.219114648461904704e-02 2.086686832710207135e-03 -2.368772038166153809e-02 1.464347767480194719e-02 -3.999921808246773014e-02 5.560721361156702874e-03 4.094193056577557360e-02 -1.056392389053223413e-03 -7.210009225173957814e-02 5.981170693085060761e-03 -5.542466521495149380e-03 -2.020609404320809765e-02 2.848631426763439597e-03 7.984467885986815117e-02 1.177701927248673425e-03 -1.934606899661272736e-03 1.204253400494997156e-03 -5.485986370606653340e-02 5.517381404172405635e-03
-1.179586448671666732e-01 1.870910144575866838e-03 2.197650786616916346e-02 -4.075263987095809580e-03 2.547962755147962360e-03 -5.543008380196040759e-03 -3.234444710171399499e-03 -5.968218882666796385e-03 7.267966823869442816e-02 6.293738818458557982e-02 5.420812059663803611e-02 -2.390293185159134484e-03 -2.350652181000872573e-02 4.247098442457446221e-02 -3.240356264269822484e-02 2.909347473600970568e-04 8.973649969926604519e-03 -9.622615122951265476e-02 9.976580285297013961e-04 -6.766819781180343808e-03 6.048941363008517730e-02 3.816965900009881146e-04 6.798974790209076635e-02 -8.641867261232666700e-03 3.563951306978692390e-02 2.168797221963373462e-02 -5.338908727964594009e-02 -8.597576406096810175e-02 -2.000107973677510247e-03 -7.368373585247012421e-03 -5.054114546314809192e-02 -5.081266136736137945e-02 -1.349226460476030953e-01 5.708410790290913139e-03 2.377617593461469475e-03 1.399722199890627780e-02 1.040145796035748561e-02 6.235934648616322379e-03 7.204789856065493825e-02 5.968283891187632639e-02 -5.395640351576397493e-03 2.324753821278634225e-02 -8.666489024192796514e-03 -2.661285422247752601e-03 9.643046455961569452e-02 -9.609518882323445088e-02 2.912981470960095826e-03 4.453565103124678976e-04 -2.238793994959901133e-03 2.084361457900094430e-03 6.638928790752174347e-02 6.779376879263902811e-02
-2.072485461269800433e-02 2.756896082033531009e-03 8.916417104809056665e-03 -9.416710036003386047e-04 7.520913366308414755e-03 7.393216579882359862e-02 9.620125333399229262e-02 1.266397952015761025e-02 -8.318599723387212416e-03 3.684573903141964701e-02 7.474404463884493782e-03 2.781461156712124877e-03 7.796155292114023000e-03 4.538685154463933599e-03 6.882199501281265064e-03 -2.333671106746707663e-04 2.546957678615653989e-02 -1.616915626020232200e-03 -8.765557764233501692e-02 -6.111518502843021373e-03 -1.384968563807284156e-03 6.988521280438367983e-03 -9.275904585289495435e-03 -8.544955628021599914e-03 9.015096997021534997e-02 -9.275089841583161049e-03 -3.472738080514057440e-02 6.816768260927127954e-03 5.048102191199756172e-02 9.876107030478635529e-02 -2.444986899382175366e-02 4.926821770379294363e-02 8.224018731632269652e-02 -5.824585570019523081e-03 5.155853826932241604e-03 1.201152893704528039e-02 -8.089804066567942917e-03 1.367025565343911453e-02 -1.114478892504617430e-03 -7.065675404823897054e-04 -1.156619290627000085e-01 -6.713862230458264579e-03 5.690877406530273422e-03 4.663242163749537969e-03 -8.017797512825877715e-02 -3.392783910442989659e-02 -5.674643094382703090e-03 4.331113664892624615e-03 -6.594269064232408106e-02 -8.393655499690221011e-02 -7.382829336398256947e-02 -4.550600280160793654e-02
-5.054177020349058524e-02 4.928079847187407520e-02 6.139245974456263022e-02 1.254875288608006852e-02 -1.124465563838229765e-02 -4.024665724017928436e-02 4.054288594761064346e-02 -7.201895335757017499e-03 -2.232025239415943128e-03 4.771426434840322223e-03 2.872842323455353231e-03 -1.106094044082968700e-02 -8.047154992915879490e-02 3.004689424902853845e-03 6.748506269642778888e-02 -8.106711644529702998e-02 -8.113071660543008656e-02 9.003458915336447210e-02 -1.366631312203579057e-03 7.137058058849640729e-02 -9.884097642165970421e-02 -4.630929853921454675e-02 -1.221419463730911634e-02 4.602455687227554465e-03 5.495303075112009661e-02 4.423590174581302353e-03 8.856018119645696351e-02 2.101925716980136000e-03 -8.314717650147540953e-03 4.863372046589127876e-03 -1.808373977589817529e-03 2.012084867266757809e-02 7.662098332893697850e-03 4.698196014286202399e-04 -3.787961213454019843e-02 3.834871793224545189e-05 -2.913329035968571096e-03 -6.377008064076061279e-03 3.496944256278435026e-02 5.284872224176340172e-04 -1.269240807300861182e-03 -1.389694204991789306e-01 4.389104383152112043e-02 -3.333552273473990024e-03 -3.755537506869379566e-03 7.797149262466465669e-02 -1.191925195120390260e-03 -8.390942020481512512e-03 4.600663461610185467e-03 -4.237852778522267772e-03 -9.363577369527606442e-02 4.650913454228427363e-02
6.810436183898027629e-02 -2.369378152161507461e-03 -6.514948141026207645e-03 -5.072434764238123971e-03 -3.648584717073573985e-03 -1.408007402486314424e-03 1.705278017223579509e-03 3.269163048823048312e-02 2.145494270601875850e-02 -2.329597160979315039e-03 6.628241531738278403e-02 1.843647500524389082e-01 -5.132683241689629111e-03 5.241839688074286657e-02 -2.377869306409820249e-02 8.333654520021948481e-03 8.876916810378873701e-02 -7.395923534281934053e-02 -1.109581157661597428e-03 -5.154046604508420726e-02 2.318336483041624763e-03 -2.385090993494559664e-02 -5.328888426861511790e-03 4.313322621653853384e-02 -6.039048820600912554e-02 2.036671953054495013e-03 -2.766252808005111030e-03 -6.064609252880241372e-03 7.463045278283782918e-03 9.659331629743589387e-02 -9.511281183887118629e-02 8.317074006985142320e-02 7.505454177968723037e-03 -9.216886643945701452e-02 -6.098074896268252526e-03 -6.635868667620206662e-02 4.396725514940667129e-03 -8.342785898142285328e-02 -3.129405462551880512e-05 -9.231603146868064269e-02 -1.782668308392608772e-02 -2.531575159977048420e-03 9.248958335373944073e-02 3.592123549876633654e-02 -3.927239547024709287e-04 8.593191947025225624e-03 -2.922045626678719185e-03 1.038644254242404585e-02 7.012817857053814385e-03 -9.249929404007811717e-02 5.585616486746188686e-02 -2.595791961239959228e-02
6.870889052371638439e-02 -1.502100333080962913e-01 -5.412788996722477097e-02 9.269533825116554882e-03 1.981363705469820630e-02 -7.044907259406594721e-03 2.872855822275270643e-02 -7.768174354579604479e-03 -7.239213350386887458e-03 -7.946786330922887137e-04 3.868868100862381254e-02 1.630874376668263182e-01 7.188108504319064285e-03 -1.826763332743897884e-03 -3.902546904218393529e-03 -1.118553140141725910e-03 -4.481605959190563399e-02 -8.960531253600233573e-03 -9.588044437073959050e-03 -3.484837637603746888e-03 5.967146476217953521e-03 -5.926563703354475500e-03 7.772886888926907462e-03 1.651415367542837312e-02 -6.919995765392930598e-02 9.269626367076670703e-03 -1.407241512869132349e-01 5.243348018034856700e-03 -8.397813192529104270e-03 -7.897838586218475579e-03 5.745578691591214301e-03 -7.566213033582992742e-02 -9.137689306859356209e-02 -8.446805596313407272e-02 -7.359069281153853004e-02 -5.229104088752679208e-02 -9.316943576479760902e-03 3.743639559215333756e-03 7.612410191010523380e-03 -9.797373279180025818e-02 5.378840697161468148e-02 3.569089604531849175e-03 2.052647804158681463e-02 -2.124946047809183822e-02 9.409847938854198207e-04 2.474104326557447289e-03 5.923918896131113998e-03 -8.281314950845344858e-03 -3.866459846473084550e-02 -5.242816310111143852e-02 -2.239052831702267009e-03 -8.539848021792466326e-03
1.005598363491427144e-01 -8.500323630638771666e-02 -1.464577311972529300e-02 -7.074634603457135608e-03 -6.799177588669255701e-03 3.279239868378695799e-02 -3.005933916794454284e-03 5.486709310106530069e-03 5.127942092337699903e-03 9.369206726823831738e-03 1.982959190975248920e-04 -4.850823447489495399e-02 7.125156086544007228e-02 -7.955223170100406138e-02 8.036694788729793759e-03 7.442030171658742255e-02 -8.225021623285531588e-03 -4.410398074194011447e-04 -4.283837310978431956e-02 4.675911602769039152e-03 6.114765579514857413e-02 -5.897108238642877198e-02 -4.191790584642399176e-02 -3.063359431604968652e-03 2.897152103043339547e-03 -3.931956274692140901e-03 2.968870618023471131e-02 -8.552556738373984571e-03 7.850262209331573121e-03 1.425064371997628900e-02 2.663669450008246398e-03 5.210777007172363168e-03 8.000758843286139010e-03 -7.183475862803188200e-04 -1.368479627113409341e-02 2.225564572605486652e-03 4.193250718356163545e-03 5.009800123236189673e-02 -6.472088573746185083e-03 -2.760692192601412603e-03 -7.759965908958495889e-03 -5.944823779272134096e-02 -5.978242407491719118e-03 1.265104947610205116e-03 -4.221989494726101008e-03 2.883169393165591760e-03 -7.854825707309349286e-03 -2.687270676727904900e-03 2.909720953326923668e-03 8.639950936923081193e-02 -6.908127274491872305e-02 5.207150252791312856e-02
-3.673529188344157141e-03 -5.908831461073238422e-03 3.499572658279728743e-02 -2.753990882872238422e-05 -5.888095030269911712e-02 -7.025945167924288470e-02 4.697300019950818861e-02 -5.694471686063887206e-02 8.617866303888610524e-03 -6.295534005353504298e-03 1.278212282107617573e-03 7.902985021407496480e-02 4.932416011199785427e-02 -8.665194939963555276e-02 4.474301214855891731e-03 -6.897854101580121189e-03 1.301867132957865159e-03 -6.746483869365499375e-02 7.525883722398424291e-02 -6.059244078821048735e-02 4.363194325233320237e-03 -7.376614828867283924e-03 -1.399713753419404849e-01 -9.077201578622753897e-03 -6.372777853437405771e-02 -1.916811454102508930e-02 -3.879429114301846844e-03 6.167137701583034343e-03 7.736793117536507058e-03 5.886212853585288951e-02 9.424530495694347088e-04 -5.138347961159812904e-03 -3.996712670672204065e-02 -1.621993871092340320e-02 -5.724041869240983904e-03 1.013864720274468417e-01 6.348556296805438204e-02 1.879823057297464600e-03 9.371271769396592038e-03 1.770757914044658599e-02 3.802277946736157960e-03 -8.450404405958808485e-02 4.228041724527663303e-02 -4.217836642908368884e-03 -7.450409004184137263e-02 2.019428991927167683e-02 6.424427747979657294e-03 -3.743204485925229717e-03 5.598376413670611701e-02 -8.713299978862221185e-04 -5.845105958947131516e-03 9.781136573707670256e-02
-8.699068534248417112e-03 -8.940240705049898318e-02 1.125304418846645449e-02 5.221026764145175053e-02 -8.242691754454639294e-03 8.307825406148022784e-03 -2.022429790766806269e-03 5.222440839529805118e-03 -7.406508720994434136e-02 3.357396620919951211e-03 -2.233467980079615126e-02 7.354847647205065009e-03 3.509161180740990107e-03 2.572110662832855638e-02 -4.678905611907472305e-03 -7.332364903190553840e-02 -8.398706533245712050e-03 -8.450823281447259264e-03 -8.799320810927262204e-03 8.841617223037556705e-02 6.782974858871612667e-02 2.261718405264857498e-03 -2.664859395261919874e-03 -3.868260111998042539e-02 -1.868066172685400525e-03 5.395956187784479996e-02 -9.020300468692768817e-03 1.002732052532364082e-01 -5.159922312369338675e-03 5.870166543581519653e-04 -8.512631869208059365e-03 7.189276293962162945e-02 -8.065214404312177898e-02 -4.526161961264395239e-02 6.152341240003401240e-02 9.547062487694071148e-03 -7.457380657397788548e-02 1.770730375538279167e-03 -9.071244326663008284e-04 2.617015354515855874e-02 5.960561297824046312e-04 3.935578975151505024e-03 5.587161561425380701e-02 -3.121560004207867348e-04 -6.605913740347061150e-03 4.533550520550536089e-02 8.633974052700367496e-03 -7.523875487086585656e-04 -5.688152701295814961e-02 6.512668453882857617e-03 3.528169494684538221e-02 -7.118669224239269726e-03
4.842196340933899168e-04 8.969702390751628507e-04 -7.930730223422791103e-05 -3.553443285907855430e-03 -1.444671217201130148e-03 4.503427016998677590e-03 -9.812305906335452854e-02 5.252892816826199712e-02 -9.251518692065453797e-02 -7.871350530504299392e-04 -6.512663969233827878e-03 -7.427452310656859624e-02 -5.462205039052383214e-03 -3.776969149216216452e-03 5.930325748073563344e-03 6.448220152418081275e-02 -2.466768857748762034e-02 -5.749576189426960221e-02 9.154066581736583150e-03 -4.994261190231841403e-03 -5.210804626285377161e-03 -4.974270388170683871e-02 -1.116009579055888233e-02 3.891422330686536424e-02 5.150417505446341915e-04 6.394295962623706975e-02 8.829459982839394511e-03 3.020399103152205528e-03 -7.760184471501660464e-02 5.179853218789774033e-02 -1.539350193808772770e-02 -1.238331471449335367e-03 2.020921978243933950e-03 5.150985384014188789e-03 5.137181593489056897e-02 -1.112084138999256192e-02 -3.325919319266058133e-03 3.821966718805304419e-02 5.819193663721757004e-02 -7.087571612438821334e-02 3.211002360252866727e-02 -3.357981241760707274e-03 1.509117156255023601e-03 4.524148584775608550e-03 -1.803506878214512082e-02 -9.461527175129327838e-02 -6.173884210344052215e-03 -5.050393685351561336e-03 -8.623723237645583573e-03 -9.138155896235381284e-03 8.954914186487378247e-02 3.350426688690765972e-03
5.539424906054590814e-02 1.668169439150768776e-02 9.125864801598453091e-02 -2.929233515161189239e-02 1.243916815094923273e-03 -1.665930880484785270e-02 3.660776021701356991e-03 8.368239071383259953e-02 -2.381798004830865123e-02 7.171260794230863850e-03 -9.363585262138882440e-03 -3.109638256231657752e-02 2.761722403926247446e-02 -3.009857360971798443e-02 7.671163524972796077e-04 9.558838942707387903e-03 1.861902850344190896e-02 -8.607665487521208580e-02 -8.842705569624459416e-02 7.086354096433129801e-02 4.346977358845061437e-03 7.001054113287766278e-02 -4.064934556146793110e-02 9.578044682377030716e-02 -2.509874293901038535e-03 5.674181574035117026e-02 9.244328167731609425e-03 -3.198188087474610267e-03 5.183377731159304405e-03 -6.435069841787027962e-03 1.389146740523146926e-02 -5.202119675299658047e-02 -1.330879749181258787e-03 2.386114584163532421e-02 8.768526203206540581e-03 -1.166762631141843656e-03 1.422450296761192893e-03 5.150932170857719025e-03 -3.587995463202466040e-03 7.061690764820351823e-03 -5.041322287712847461e-03 7.414113662292574902e-03 1.119309559074107077e-03 -1.617444939568651180e-03 -4.339751038464482319e-02 -5.924652206770217137e-03 -7.030603004349009200e-02 -1.088462622602766050e-01 8.703102957713305249e-03 7.958406877900794929e-03 6.766056732616810426e-03 -4.350115634823615435e-03
-5.306839448093200740e-02 5.171890757249104215e-02 3.704093022847542577e-02 -3.337532909158788877e-03 8.212773298708356262e-03 -3.213612210255758356e-03 8.752376544196027730e-02 -6.943975853882297655e-02 3.150215552524860546e-03 4.294662144727241782e-02 -7.063318796254514087e-02 7.924892757685916833e-02 -6.090306046886693331e-02 -5.806526421133848502e-03 -4.359457438418225944e-03 -3.199748022685306587e-02 -8.943242120920982113e-03 8.050080762142410029e-02 -5.794528196371282608e-02 -3.302219859627735649e-04 2.329006898716363266e-03 -4.411552461817181726e-03 -3.471330991509698899e-04 5.110507983410316965e-03 -7.192229686482712325e-04 -1.617654377366151836e-02 8.597497845001994543e-02 -8.274357890785287439e-02 7.052892137673458239e-02 6.530522909121509387e-03 -4.929061227647444504e-02 -5.544826270481416353e-02 7.009724303850604910e-02 6.993166118703444956e-03 2.877621406011684688e-02 -2.733522621607079560e-03 -9.124885970042127814e-02 2.448199169493797331e-03 8.654388594511153165e-02 -9.349003777190846576e-02 -9.438202872083512746e-03 3.724290060679185527e-03 3.118984051669344143e-03 -7.452618612098949047e-03 -9.549876556597183819e-03 -5.696385798379510930e-03 7.268554345028051256e-03 -6.530191623617868923e-02 6.496366112392641667e-02 -3.771228473398005598e-02 1.257258586805916518e-02 -6.773005331576147960e-03
-7.775497683653818937e-02 5.493352460053196884e-03 8.582604040337119683e-03 7.446853000760419311e-03 -4.862852018388065523e-02 1.550770768071139255e-02 -7.444692871267549750e-02 8.007425501552652147e-03 -3.726376350690421141e-02 -5.571110351753750384e-02 -6.683806800438343680e-03 -1.546976920828262853e-03 9.703361238962807112e-02 -5.577701983540319514e-02 3.159670329540306688e-02 -4.092477490417269909e-03 5.629918462400343090e-03 -5.061680942023099108e-03 -5.986099189724397585e-04 -3.666757071901009107e-02 4.912187393909785149e-02 6.971003937400893635e-02 8.181654067117280493e-03 3.617332236704698389e-03 6.729227876676836112e-03 2.842598248952095050e-03 -6.056152905384514298e-03 8.125919956563851243e-03 8.562736397826230250e-02 -2.707216702584537560e-03 3.914347792131169998e-03 -2.024985055177566315e-02 -8.321585171438031225e-02 3.475008093250910729e-02 5.253481666257447599e-03 -5.085259285626418310e-03 -7.620393215328339839e-03 3.867889322874749208e-02 5.887071459171182297e-02 -1.608777309966061969e-03 1.009408377345195895e-01 -1.018699663969443309e-04 6.386621012079787135e-03 5.516207133698196319e-02 9.483766235282440477e-03 6.229756436138600417e-03 -4.568553409749562255e-02 -1.011561528873477361e-03 -4.889643446963942014e-02 -2.787530719474669294e-02 -3.181248442740772925e-02 1.082011636788655570e-03
7.823319583638631280e-02 6.317517379625520180e-02 7.896912605967268406e-03 -4.992149750128500874e-02 -9.698779482418959375e-02 5.343738265448354924e-03 1.077478525272537041e-04 -1.165715119128248739e-01 9.086345825430986595e-03 1.328095083601021562e-03 -8.150509403708450229e-02 5.653777531388275157e-02 -2.035828935663306152e-02 -1.928241079783677737e-03 -1.985567067604200597e-03 3.544705349324436122e-03 5.362898847661124943e-03 -8.696356416760980465e-03 5.079057707569049201e-02 3.270861615588530058e-02 -7.238445447072226757e-02 4.951652625533115720e-03 -4.651989938027983884e-02 -7.247608570788843796e-02 -7.622971628388173181e-03 9.312705907519966408e-03 7.190745677228958799e-02 -1.430968248497250031e-03 2.130469395851868064e-03 5.638675876167878465e-02 -2.331163701474628022e-02 2.307652548486111704e-02 -8.528935538344517911e-03 -3.775784352068383906e-03 4.773629787655700799e-03 -9.112547509555603276e-02 1.065820583033561253e-01 3.203598734858417035e-02 1.507459464336290828e-03 3.299089611663573451e-02 3.840523645897899602e-04 4.866295197554021401e-03 1.301549021334482970e-01 -4.641143845620419178e-02 -1.294194133892498100e-01 -9.885871759504158418e-02 -7.532863013445524614e-02 3.249301130581464664e-02 -2.611962029875607855e-02 -4.846614543895215454e-02 -4.788539476829926748e-03 -1.988080571786555312e-03
-1.978318436768361499e-02 8.899862947672938090e-03 -1.464227149361606653e-03 -6.199341010206541047e-03 -7.335118949518704828e-04 -6.211809335805442908e-04 6.727475211680458700e-02 -4.510604869307121428e-02 5.963019078485210477e-03 4.545961174384987452e-02 7.582976399563932240e-03 2.111506924926135481e-02 -5.717030325122669787e-04 1.607060775345477144e-02 1.159013644670835695e-02 1.730060387202255606e-02 -1.336619826706813077e-03 -2.462244315071100004e-03 -6.801732591373513097e-03 5.319390375683475877e-03 4.490708159623788692e-02 4.608932389508785948e-04 -3.981135035193098665e-04 -7.596196382041571493e-03 6.128460338149892273e-04 6.592235104430202441e-03 -8.948187883101992382e-03 -6.190930204138809026e-03 -3.562767539821924678e-02 -6.129199505634837924e-03 -6.842271717262000258e-03 1.271936147874540290e-02 1.961322355391394157e-02 8.030373961739511318e-03 -8.846452897041978333e-03 3.997057561665631059e-02 -4.687310799411637668e-02 -1.205976157245328834e-01 -7.276351130994596073e-02 -5.124433639519440642e-02 9.192500351941603615e-03 3.896559643810811047e-04 -5.895483585395443205e-02 6.932289962086340962e-02 1.959651038634557113e-03 -4.471036960601072058e-03 -5.886223834574381281e-04 2.522243811813573711e-02 5.298571526638518568e-03 -6.246777191788220954e-03 -5.281994088546155403e-02 6.454586220488532644e-02
-9.555783360583668812e-03 2.535137104472446126e-03 -8.183268898596651741e-02 1.807337539342211974e-01 -6.211147627522460579e-02 -5.978110989713698170e-03 -7.551344386663598474e-02 -1.841955163940666579e-02 -6.118889977278516024e-02 3.041311679411748750e-03 -3.198152707687282152e-03 8.140800417512090992e-03 6.144139751462947274e-05 7.417020711107895348e-02 -6.475202365602701626e-02 -8.889518313965301399e-02 -6.369605489588321678e-02 4.509388421543971195e-03 -2.997304149200829756e-03 -1.545183029933388033e-02 -8.880655340269593204e-04 -7.275836838857829489e-03 8.269402050555305084e-03 5.261765550201977573e-03 -3.673649012685727827e-02 2.250608466963619630e-02 -4.185623794798257018e-03 1.059159831288644833e-02 -8.313410625601411197e-03 1.474571015361539339e-03 -1.496881462860425588e-04 -7.893656198700609028e-02 1.467512474233040147e-02 7.467184718310058977e-03 -1.124393647231408666e-03 -3.754105678835804871e-02 -3.923397068827055509e-03 -2.347447163074640672e-02 -5.380176137030472441e-03 1.882949074127768241e-03 8.853539196911122677e-02 -8.130266504891708879e-04 9.172390542103316113e-03 -8.035438536476854909e-03 -9.257148035649481396e-03 -1.700800436444430130e-02 2.844464188166086899e-02 -4.430475811075756595e-03 1.317066087372063127e-03 6.571171445769935504e-03 4.555265917412336385e-03 -3.786786707168541058e-03
6.571445801113925955e-02 -7.902855986903593866e-02 -6.609630191635211191e-03 -2.226367035179962345e-02 -9.156568839584050545e-02 5.449341326555839568e-03 1.019511127045231447e-01 2.570731227568224392e-02 -8.417258756930270577e-03 -7.509638689999859236e-03 -9.179409481260186743e-02 -7.095367356599432268e-03 -4.564193689986220659e-02 6.523878979478165557e-03 -2.267937346614316146e-02 4.125881273160852958e-02 -2.744178228515564873e-03 2.604568056862691799e-02 6.747006709112858547e-03 5.096509611184821265e-02 -2.346432744868402753e-02 7.978809245230696068e-02 -4.588701131910486591e-04 -1.786821579864414020e-02 -5.875102929586777101e-02 -6.635812498830767105e-03 -9.002508944205964495e-03 2.544145782620623950e-03 5.652060095639080406e-03 1.377438460315672658e-03 7.903641695759444641e-02 2.854754514727221928e-03 9.449614666391289997e-02 -4.598243399747053983e-02 4.503360325105472406e-02 1.305928468507199652e-03 -1.006106121776520340e-01 6.186885418031966982e-02 -5.163950451865241022e-03 7.676171405447551610e-02 5.725070642042688618e-02 1.384095485412878412e-03 1.094632075505690355e-03 -1.862675140849915506e-02 9.052074578376799463e-02 2.856885000752016485e-02 1.250344061909164917e-01 1.716950118620294563e-02 -4.534669410824926014e-03 -2.836643785797931736e-03 4.545688394435179816e-03 -5.290740180472830630e-03
4.004110476908470662e-02 6.044042055176158251e-03 7.802938978937037917e-03 7.083799546515472112e-02 5.832684327313316514e-03 4.548429410322857996e-02 9.212551076914687886e-02 4.979132191367499627e-02 -3.983228479140780119e-03 -7.049052903211447396e-02 -1.731459581992715602e-03 -5.810706788026559488e-03 -1.007372569921909100e-01 3.037316439240121679e-02 -5.095141826301817847e-03 -2.568254475643263340e-02 5.751046222273469705e-03 -6.717621512367875566e-03 6.750249588237555720e-02 -2.211363997635003298e-03 5.023503227432897511e-02 6.501052886509355033e-02 -6.350045667365591950e-03 8.777381142051968177e-03 -4.732330490878215723e-02 -1.219934583887986694e-02 8.406291980335945865e-04 -1.913292306542687532e-04 -2.118011818493526800e-03 6.964933468284674467e-03 1.492062510412466708e-02 -3.319613906493618788e-02 3.642989264281189937e-04 -6.545005731002914717e-02 -8.706142237498748146e-03 6.956554997415567015e-03 4.547194813051688711e-02 -8.002401481311784831e-03 6.202683582732648748e-02 -7.184961859468550274e-03 2.235655107250805046e-03 1.782293460573485715e-03 4.961325429699792178e-03 5.077435631167143137e-02 -3.541957181549941838e-03 2.502462038362754382e-03 2.697607007505710766e-03 7.602334005215916068e-02 8.882473158474454150e-03 1.103764879385010778e-02 -6.900776621008644640e-04 2.388140881601434617e-02
-6.056658999916206612e-03 4.189915645796267810e-03 1.109401358312608020e-02 4.496186630684172181e-02 -4.822382311664609456e-02 -3.719692106190089845e-03 5.226225210394776222e-02 -1.364056592026603731e-04 5.645055531386125591e-02 -5.121832186429031708e-02 3.045044605322547518e-03 -1.068500957325182674e-03 5.462343816062358026e-04 -6.170470925911034077e-02 9.153577281947985339e-03 8.711690262587917788e-02 5.378896660003565020e-03 1.346900401760931509e-01 5.493742765484244811e-03 -1.229352076427932088e-03 5.226184228059800249e-03 6.006497904282337430e-02 7.981008802004242036e-03 -8.896438078676990879e-02 -5.177353987660050089e-03 -3.552948655411914541e-02 -8.877896982422951722e-02 -4.321575601729080000e-03 -1.957737174809718109e-03 4.300858238849352561e-02 3.030159374546517737e-02 -1.788047252292628703e-03 -4.965587543132302627e-03 -1.742236492812293883e-03 6.168780601705881744e-03 -5.048023910100434691e-03 3.431478831808061625e-02 -7.977591624967084183e-03 3.768619068850790482e-03 -1.411185739887530280e-03 6.960738181598975782e-02 -7.774416546562015751e-02 3.329499261396608872e-03 4.972753077562354004e-03 4.276786194269016975e-03 3.416574055720651704e-02 6.486619046927499105e-03 -9.248632737450784153e-04 -6.358154373340538582e-03 -3.144591661691635912e-03 -7.469019743508650833e-03 -9.142175357454896192e-03
-7.002576774598118226e-03 -5.920537822674554369e-03 -3.129094721414184266e-03 7.802439860268375188e-03 -2.936271535671436742e-02 -9.185385780722475635e-02 -4.979791767090646637e-02 5.697792738679426788e-02 -7.067467941440069151e-04 6.337611953617081073e-03 -3.400033448241656514e-02 2.075963763617306654e-03 -6.359301108366380295e-02 -6.154987509731794926e-02 8.944861923335885312e-03 -8.389855024804942704e-03 6.188458040395246329e-02 -5.873056879813642883e-02 1.403564353408005491e-03 2.795001807625101253e-02 4.748747714541411841e-02 -4.318004109172301694e-03 -8.797108439101601965e-03 1.407737996225454785e-02 2.456620761761943439e-02 -8.384994635699841506e-03 -2.109865112809665086e-03 8.513402304822337285e-03 -6.183831231909757420e-02 5.194344975604520132e-02 -6.018720895722423289e-03 4.186888328561306355e-03 -5.938317194646108507e-03 3.218952195031062058e-02 8.795457264787258367e-02 -1.443619477122901618e-01 7.303227596119350740e-03 -8.693976302622981323e-03 6.487895957320626017e-02 -4.250202986149096557e-02 -3.350088227955830625e-03 -7.624269950343501301e-04 2.528768546578302398e-03 -1.963464015800418100e-02 -7.342884144048412998e-03 -2.467124726095479108e-03 -9.288136991614161231e-03 -9.060877729279574397e-03 4.314499277687542517e-03 3.325900508957223278e-04 -7.047858951264993586e-03 -7.858234874462013617e-03
9.372251740697758182e-03 -3.966432621246258200e-02 -8.850109454949716889e-03 -7.166357728983106454e-03 -5.470501155941995958e-02 -1.023302793902915869e-03 3.766970733073914807e-02 -3.093403182698524836e-02 4.492928927591457317e-02 1.738928179270512672e-02 -8.855231919042372279e-02 3.073986512845960917e-03 4.570758434645216806e-02 -4.316604758098624602e-03 -6.875679603041832955e-02 -8.876793759435768622e-03 -9.430623416785936450e-03 3.644503627032608106e-02 -1.953011175450667519e-02 4.072620431994512097e-03 6.796536795187875513e-02 -6.975180350216461655e-02 4.111883196018868702e-02 2.910142327826957531e-03 -7.002941327908512349e-03 7.362546124103966361e-02 -7.364986303381650112e-03 1.407101077983374110e-02 -3.179990956840871713e-02 5.599042793489958023e-03 8.467206167680568774e-03 -5.052007017865369626e-03 -4.887303538740964126e-05 3.161963754596718718e-03 1.100037707326608979e-02 -9.240102449080662972e-02 -5.091907806181415058e-02 1.056629755668926120e-02 -1.500411331343099591e-02 2.234704473754942078e-03 -6.295845267329991390e-02 5.481109136924271902e-03 7.983036928348379718e-03 -8.623810255431008792e-03 -5.819941182196582824e-02 5.703708160877492966e-02 3.936942849159258406e-02 -8.835447091348968066e-03 -2.887851964838501068e-03 5.857199294728639496e-03 -8.278102410368155112e-03 3.498687426069024137e-03
-6.546075784970029239e-03 9.275103444040422307e-03 9.364300065094467024e-03 2.494162370664406922e-02 2.570444849874000889e-03 7.543466238699640322e-03 -9.147170863797764173e-02 8.271761490884224632e-03 3.904864594133161670e-02 4.009135486846943444e-03 -8.053115406251712405e-03 -2.731999130882756949e-02 2.678061359712790093e-02 -5.048324543407665954e-02 -7.416876415246130214e-03 9.295452079805702900e-03 2.999927115483129458e-03 -2.486259359283892953e-02 3.343412283404904178e-03 1.839186763518358553e-02 9.389534746066033333e-03 -5.180870921107343791e-04 -3.449713027177704616e-04 3.549893233812639534e-03 9.266514970492158859e-03 -3.740883871386740944e-02 -2.251191969050902499e-03 9.263423111974651569e-03 4.237907977405342558e-02 -6.992795718211992917e-02 6.820078273142484576e-04 -1.254048423914615185e-02 -9.255526833010490478e-03 7.772379288921231477e-02 -1.523516748251924763e-03 -2.558985454728580911e-03 -3.512825452417573692e-03 -6.094417878232433888e-02 3.203354303377592416e-03 5.148419258703490486e-03 8.126684344496790113e-02 9.519673039823744326e-03 -6.655861953036346784e-03 -1.616461982750123927e-03 -2.939887707820181342e-03 2.985181567162872168e-02 6.177885534882156943e-03 5.046801412825981797e-02 3.443974638463779062e-03 4.012215901758209302e-03 -1.928329209143224421e-02 -8.847835742695136368e-03
-6.176020870311801740e-03 -5.798501547663424682e-02 3.244517071775471911e-02 -4.225706986913771272e-03 -8.722435601815159423e-02 -8.976130751058683521e-02 2.618841838991553539e-03 7.772670961776608628e-03 4.497638960146738141e-03 -3.272248934436056828e-02 -2.430173694865660899e-02 -8.282923367509341731e-03 3.329398011425755213e-03 1.435953576611845306e-03 -3.778153081676819541e-02 -8.046457731038045985e-03 -4.799769670413429196e-02 -6.564770701326101687e-02 5.110079483972261583e-02 -1.555710626611844088e-02 -2.644812969277175740e-02 7.547238326532598740e-02 -4.681218247554365906e-03 -7.401652626941773727e-02 -9.147571168381621320e-03 2.513834630602933967e-03 7.036437194381267579e-02 6.054217310443428535e-02 -4.998860947150536582e-02 1.798307368672119599e-01 -2.629359212378198918e-02 6.744778767359002614e-03 1.859118967100425665e-03 -2.273525111536914972e-02 -4.897350701786931486e-03 -4.542168122920351575e-02 7.373092104957142123e-02 1.648843787869289784e-02 3.120452586579579302e-03 8.848998135142752131e-02 7.188453827191156748e-03 -9.065114803750448647e-02 8.119408224313454103e-02 -2.014790571894131688e-02 -1.592785908828778935e-04 2.033638704386708101e-02 1.269977670758232202e-03 -3.395141907577056001e-03 -7.387409633889948507e-03 -8.733395191741726363e-03 8.576771215375283974e-02 -9.253611476814603554e-04
9.869785653726119087e-04 7.378178869844750909e-03 5.077243033471776079e-03 8.317772681121317346e-02 3.508433846437520806e-03 8.541750613341635157e-03 8.716871725094353651e-03 -1.266487552225152406e-02 -6.873869453473949696e-03 -1.845214867907561673e-02 -5.144930637148162345e-02 2.541357520212397803e-02 -4.977482905888100731e-03 6.083917221773718631e-03 5.673844026546275010e-02 4.181461626409661153e-03 9.119968915979378282e-04 8.381099020999295546e-03 1.404426184359919109e-02 -5.146327316371295674e-02 -3.296198262241150506e-02 1.670117547044777107e-01 2.900361920525092521e-03 -6.877721979063869742e-03 3.326885550629180704e-02 2.744116227339372244e-02 4.364484974311452770e-03 4.898866130398309149e-02 -6.962884247812724248e-02 -9.744488917847633769e-04 7.902722159630840709e-04 2.423894803693794203e-02 6.047960919074314712e-03 -7.753580066362112354e-03 -1.658614430527755382e-02 4.277654940651693521e-02 5.821829762383128049e-02 -7.813112610437688774e-03 6.606130605535059930e-02 8.397571122240737873e-03 -3.040169968566824865e-02 9.577507728069933196e-03 6.518343834969277106e-02 8.490443728802136991e-02 6.174082781679461618e-03 -4.890379859503331261e-02 -9.128107200593608972e-02 -6.564455806510120783e-02 2.001846680153163225e-03 -5.621026827400261473e-03 9.415028840283248129e-03 -5.667200004832396477e-03
9.650625750739826036e-02 3.369744002479030387e-02 5.032692130250548262e-03 4.165016817578654634e-03 -8.351902255228681529e-03 -8.437376963061084256e-02 -3.243348774134122842e-02 5.762640150397572297e-03 -1.208400681305235036e-01 -2.257469668882950559e-03 4.723011367404710004e-03 -3.688123307082257808e-03 7.244813370654722140e-02 -6.475186883440435526e-02 -1.428396645079894542e-02 -1.339408481949827534e-03 3.840284994017645337e-03 6.546727699870065476e-02 -5.231720054091188593e-03 6.329402814348079886e-02 1.105673496075471052e-02 -4.441128525396736450e-03 -2.451917720531252010e-02 -1.861639636847271101e-05 -8.095756655388336442e-03 9.130973844458581401e-02 -4.649453979013894178e-02 -4.034786680381233920e-02 -8.033301325796400605e-02 -7.660712238984915268e-03 -5.471565670523409648e-03 6.707216112669417418e-03 8.577763148650083269e-02 -2.048932812975793293e-03 2.816053284543706958e-03 -3.064514045223706157e-02 -4.692822044409269804e-03 -1.475986002227487603e-02 -4.133505372423990944e-03 -4.803568059681927183e-04 -1.014620785929957747e-01 4.820379401343685352e-03 -3.304684592683757721e-02 -2.580020950721838638e-03 6.231930660938949512e-03 -6.181483395031610317e-02 -3.425776123364304704e-02 -5.001442393673539294e-02 7.625284396605770676e-02 4.559718050748602300e-03 4.400497045082961411e-03 7.679927679217487396e-03
-1.783201193086276712e-02 7.714852242968572860e-02 1.476023242134217109e-03 -1.676061846626041713e-02 1.825090023453214763e-03 3.243780634714346980e-03 -5.171751013454919076e-03 1.397494468538764203e-03 -5.695019365403117262e-02 1.927413327391056322e-03 2.739339956583682067e-02 2.377931864767288475e-02 -1.635996773945366800e-01 1.166270353168574227e-02 3.293094796190405155e-04 -6.394000457196146771e-03 -3.116380946858982905e-03 -2.738539437749218722e-03 4.175955722006718593e-03 -3.215702635693692968e-02 -8.602107864959532280e-03 7.211032207097897717e-02 -7.679603403345612589e-02 1.958465290890033100e-02 5.846727332877705435e-02 3.609445960625404931e-03 6.551282280135896363e-02 -5.127494584232378944e-02 -3.383729533089015890e-03 2.219650338216001134e-02 1.827698346571657653e-03 -5.294709034665230629e-03 -5.944750004074673966e-02 -1.469453379152430711e-02 9.135212695009622963e-03 7.022267413681660547e-03 -4.707982990778062336e-03 -8.181128588241376801e-03 9.001534077158086788e-02 8.092563633969242221e-03 -4.873485954949835670e-03 1.714425179976636349e-03 2.106947356816844807e-03 2.148717335044489363e-02 3.732488536351792618e-02 6.242867140757977357e-02 5.148403581360596476e-02 4.238823207076731353e-02 8.934149573467057431e-03 -5.300255483467044421e-02 7.160387514442253382e-03 -8.263979119025526704e-03
7.207099300338346004e-04 8.658463209226249097e-03 1.729503252792401885e-03 9.025135484436884459e-02 -5.472442500892380629e-04 4.215380126930919763e-02 -1.141566001375868972e-01 9.145839541253381055e-02 8.615023775590326116e-02 6.677457080941330558e-02 1.691937432540290831e-01 5.389492091732382695e-02 4.572401696183416714e-03 -8.617752234873557460e-04 -2.455041795969405138e-02 -3.196368495964110185e-02 4.857613565112646123e-03 2.709358783647336857e-02 -8.772354340595006628e-05 5.011562574468516815e-03 -7.641855073079001359e-02 -6.607289615277170403e-02 1.772839736851227962e-02 4.239865123951969128e-05 4.151960097315597620e-02 -4.791976477338241724e-02 -5.268033868651562229e-03 -1.728140545928105037e-02 1.053521629022634298e-03 9.242245084384413667e-02 6.451623384963068447e-03 -7.608890771302313782e-02 5.902219993277415394e-03 -8.456992326438475191e-03 3.077599518097709139e-03 5.765947449333262004e-02 6.923046340444019564e-02 7.577295594904595588e-04 -1.159884946324230837e-01 -9.468182219207305073e-02 -3.032981880214832837e-02 6.510042891772305218e-02 5.941212972583454280e-03 -2.640438195396995272e-02 -7.361070494171861357e-03 -6.722424270321353257e-04 -6.498840672163799098e-03 4.054060505107922457e-03 -9.448363256272102051e-03 -5.253174924316554931e-03 2.058568210368964813e-02 1.522768938057514343e-03
4.779146877919840733e-03 -8.494411368555172814e-03 8.149807193843514042e-02 5.871561797042156028e-02 5.673993720969709720e-04 8.739143577824304288e-02 5.068253134315444178e-03 -7.217391552266531896e-02 -5.760049543099757599e-03 7.187284102861415946e-03 -3.841622154142014522e-02 -4.980865270327337196e-02 -3.434618605066055985e-02 7.854432924402482419e-02 8.387589275732008909e-02 -2.053507050457682725e-03 -1.077270522800157990e-02 -9.414612180442348544e-02 -8.720192654761881046e-02 -1.323351460690357778e-03 2.472728566821599631e-03 7.630832485884117555e-02 2.396808443434053290e-02 -9.194190244823735592e-03 3.328832896828705368e-04 -4.447162119267288917e-03 8.166736559377097554e-03 -7.753631761041690149e-03 1.227545542337276918e-01 -6.098375298942143238e-03 -5.459213106796504886e-03 7.377816835813302832e-03 -4.631324704219660915e-02 9.029577727783545671e-03 -2.728401284274429607e-03 9.241423125135542899e-04 -2.302623614624318277e-02 -4.433878499965591968e-04 5.516119193227823382e-03 9.557207733059715216e-03 5.296277149286119507e-02 -1.061939840627407899e-01 9.579055460863530880e-03 -8.790887998100203882e-04 -8.660253587521347246e-03 -6.286943352763289805e-02 -5.307549576537497205e-02 -7.650425769474902826e-05 -3.213954631581032728e-02 -2.297111952935691412e-03 6.377846759374746627e-03 -4.869256050245921591e-02
4.993015763156561510e-02 7.900687931599495450e-03 3.986591586190302294e-02 -5.704102423941007777e-02 -8.494420235373281725e-02 7.788535481528332909e-03 2.149263040815074105e-02 -1.311970475141920056e-01 -1.415550043347320319e-04 8.519060485402303595e-04 -1.780108924305511334e-03 4.059474310141301945e-03 2.138879217207010491e-02 6.076370102916658911e-02 4.770008292121601275e-03 8.383085517479297449e-03 3.948039825791701402e-02 1.887189737798343481e-02 5.253792569729430484e-03 -1.919758770143695920e-04 -2.065215362686402545e-02 8.566073548551923073e-03 -1.058251374304335773e-02 3.462785951567869114e-04 5.836830877690301830e-03 8.466540358169002967e-05 -5.405669855414655875e-03 -8.984841820542317781e-02 2.190809766807340006e-03 -1.050240527495003434e-03 -6.625832495970321312e-02 4.773708411513355281e-03 -6.750510954473973313e-02 3.265598333722894570e-03 2.921364552460753439e-04 6.505716290248331202e-02 -4.336023230743427451e-03 4.984709050103171279e-02 7.427085705171757729e-03 -8.785678548352340855e-02 -1.828450760033730263e-02 -2.601473357995357991e-02 -1.198837557966156257e-02 -8.307816768588027756e-02 1.132114554877801382e-02 -7.707312856053175065e-02 -3.545239781050209260e-03 1.576220340942423304e-03 7.864238694427497234e-03 -6.856896390824191063e-03 -9.199819364978937403e-03 8.370239085550633396e-02
9.234162696493432992e-03 -7.101920172208317332e-03 5.383929537947149818e-02 -8.849041120604990429e-02 2.773469882326139863e-02 -3.334056124063315349e-03 -3.747094236212092366e-02 9.604302066695970252e-03 -3.411146245529962130e-03 2.788326792339021476e-03 4.586405093761005552e-02 -7.211467279883357340e-02 -4.020424688494316987e-03 -3.933012342353325863e-02 7.090774353198360525e-02 3.248601062307582277e-02 6.543080289751708467e-03 6.336209252078218307e-03 5.954214652809791675e-02 1.596818642586468259e-03 -8.288353410248899128e-03 2.017108367176461553e-02 -6.957464798766684749e-03 7.884808701103515616e-03 6.888882885890370428e-03 -9.303473583338418840e-03 -8.232958086311989096e-03 -2.458961492957593108e-03 -2.578697420736174653e-03 8.597705247756839975e-03 2.774811433627353066e-03 -2.522383188581554803e-02 5.156265376688182189e-02 -6.585071987042011299e-02 3.811911212997528414e-02 -4.647382524349078642e-02 2.507035232944523906e-02 4.688707409091148401e-03 8.948461727811141131e-02 9.858577668108864378e-02 5.914327092660267085e-03 1.747112058478810653e-03 -5.050301256993159488e-02 4.923915766811871875e-04 -4.735312789704625679e-03 5.678210053439932542e-03 -8.908312929444966999e-02 7.808278723054812298e-02 6.967032428043275910e-03 -1.487084154598392743e-04 -1.005252213148747908e-01 7.880809256740995555e-03
-6.167775016609243488e-02 6.318829985596984000e-02 -7.670425536550412593e-02 7.388360487323369918e-02 5.073703487515542412e-03 6.141491148452950244e-03 8.897657258082414256e-02 4.307583782168834807e-02 8.089957857045889170e-04 8.244352300154491470e-03 2.334107122051161040e-03 -2.580773792094440133e-04 3.769184886277078712e-03 2.904709825997908029e-02 3.313483416706447526e-02 -4.821002309318485335e-03 -7.156712127449671446e-03 1.151089511898177598e-03 -8.052130522295324055e-02 5.536390306205393047e-03 -2.518225031430165045e-02 -3.192005193945281205e-02 1.198354678677038612e-03 -4.782955024732533922e-03 8.443326773992811812e-03 -7.176010789579029270e-02 -4.772759602307200325e-03 -5.789986519945349366e-03 6.310416230209173194e-02 4.212870353840478255e-03 -8.853921737184160257e-02 1.030211256847977652e-01 -4.574225382312065852e-02 -6.176144017310250534e-02 -4.768864261274652350e-02 3.300685200581344320e-03 2.138102767478511357e-02 8.992316293338448174e-02 -4.392221972893866483e-02 -3.683420691954937543e-04 1.057841798337207442e-03 -9.376848222322002602e-02 -2.933099352940444007e-02 -9.308957156288642787e-02 7.045817099243279619e-03 4.131064381181331208e-02 -1.235474290664293276e-03 -6.256923850699818920e-03 -5.330317905734596046e-03 -5.874009323395525117e-02 -2.512491004318364446e-02 -7.729700864175029218e-02
-1.019999012679250472e-01 -4.071293149069202255e-02 1.917124700609445023e-02 -8.241255835286169507e-02 -1.675384178921435208e-02 1.520118637670929071e-02 6.795057850554866996e-02 -3.155015443062025859e-02 -7.671292075474844818e-02 -4.927164384841476591e-02 -5.611883106610984773e-02 1.477488200792941297e-01 5.273711095717441288e-03 -7.715965898230266184e-03 7.153004857972499603e-04 1.909348132781697044e-03 7.207025265606840925e-04 -1.700044474754535892e-02 4.147676627861615617e-02 -4.976169342794311418e-02 -1.659171113536301104e-03 -2.830965331633435167e-02 -3.922545321822455341e-03 -5.553216292857827974e-03 7.575477029520539390e-03 -9.087574790069824840e-03 6.426893878137647509e-02 -2.126632986057317223e-03 7.373431141256148874e-03 -3.958692279823095884e-03 4.023764120689177909e-02 -5.917431253054719620e-02 -9.395231953938060904e-03 3.953573945336165407e-04 3.661870453481298054e-02 -5.538067241827147533e-03 -3.872456760037459172e-02 -7.195436721853763762e-04 -6.224725660421588647e-02 8.701208867664848162e-03 3.507155303568897098e-03 6.434583104943966680e-02 -6.480524759724895500e-03 1.003557918571545415e-01 4.427234668451589250e-02 -3.610466718433862424e-03 -9.757885459222462310e-02 -4.542871565528754096e-02 -4.660513861134406646e-03 4.570134746147678367e-03 7.004072389968934997e-02 -1.650338752193623165e-02
-5.462754635305979573e-02 -6.496998851720055257e-02 3.818420374129565670e-02 -1.774759783161926688e-03 5.337491468208610534e-04 -1.547343462612956431e-02 7.276159493959689917e-03 8.429276890753262252e-02 -9.855344367354015520e-03 -2.071986451491776224e-02 -7.548240515230422026e-03 -1.947023338734165700e-03 -8.862270692389709326e-02 -9.009906200640120655e-02 -1.873851851493314458e-01 -1.537863950638929111e-03 6.996783704560996520e-02 -2.522308955877549871e-03 4.149919058342773498e-03 -4.581147416227047270e-02 6.249648462461558640e-02 -5.570482160831509433e-03 -5.135052099406360940e-03 5.826958621808530497e-02 -7.302978550240458999e-04 -2.569405406998432652e-03 -8.357474408250511674e-03 7.236540236028394385e-03 7.561677125062602790e-03 4.288335503840943336e-02 -5.160468790948204154e-03 2.801822460356742997e-03 -4.769320926895227047e-02 1.355482742879560165e-01 -9.843676732169018978e-03 -1.689264453887683731e-03 4.700083146755658706e-03 8.539351732210945234e-03 -3.485232074737371760e-02 3.834484332197133499e-04 4.839936197611321295e-02 5.895836390939681454e-04 2.856019945658355014e-03 -7.777911054384092915e-02 -2.559532300328113200e-02 8.820895919017768261e-02 3.322610860726318491e-03 -3.325484549747645922e-03 -1.857983813484533411e-02 -8.978560827283021614e-03 -3.808968261187610851e-03 1.702254638277306276e-03
7.206600983510523528e-02 6.624476088478745833e-03 -6.819867312691262062e-02 3.692630105430183551e-02 3.014720485467376615e-03 -4.276729569046526860e-03 4.107789873611222137e-03 7.652820231998072598e-02 -3.219194182114665931e-02 5.359568166510803727e-03 -5.962998774582885242e-02 -6.657878864924009210e-02 5.537505665637714944e-03 -5.905438884274297716e-03 8.324405324656961036e-02 3.702125989809622320e-02 5.819364585570958523e-03 -1.179620452006075737e-01 -3.092652664085053169e-02 -4.673820117027603291e-03 5.875626095046087433e-03 9.444523711122216475e-03 -1.109358485151838020e-02 -7.578129976064819362e-02 -8.042275868699984287e-02 9.526386839268435533e-04 9.316839210750677697e-03 7.508314038918825067e-03 -4.325993697249404246e-04 -6.589921113473834469e-02 4.406750634939674699e-03 5.892620279794126559e-02 -3.479933170705809889e-03 3.939167993697744591e-02 4.042011398577174258e-02 3.111563163960658768e-03 -3.245791368141957497e-03 -2.440737064879176799e-05 9.112849349422748324e-02 -3.655286403047992155e-02 2.996400335748254651e-02 -1.535031970069875712e-02 -6.522897767033342814e-03 3.285146100499923560e-02 5.987962338530349038e-03 9.445347804164901107e-03 1.513992051341186973e-03 1.248632581691329520e-02 -5.098982602344224145e-03 -7.681881144410936113e-03 3.689675781043809388e-03 -5.556599948285981597e-03
