1.071458408852489219e+00 -7.506443816494294818e-01 2.180328245262433962e-01 -2.843933109002338977e-02 -9.409301169548649479e-01 9.693530940723135148e-01 6.504921651933585069e-01 -9.542470115174364054e-01 6.381005235017912502e-01
-9.865325723431169758e-01 8.031752492286310385e-01 -5.485957971121880883e-01 1.438037166765153696e+00 -1.293058412437537719e-01 -1.904120360405702206e-01 -1.958538078036378138e-01 -2.534386340193867104e-01 4.727581490501602257e-01
8.147024905241104786e-01 1.438829626777747839e+00 8.138526900468066039e-01 4.272347877511686320e-01 -1.260048913781977475e+00 -7.436557151005884769e-02 1.047658032193116151e+00 1.948762236664075553e-01 4.783260702828824318e-01
-7.650065701996090484e-01 -6.475800085954088736e-01 -1.364818795739054735e+00 -3.577748625803257587e-01 1.413745829383332708e+00 -6.021540341636797411e-01 -9.524267061657065714e-01 6.642999102479113516e-01 -9.542878847711986356e-01
8.964557052945842930e-02 4.720314339570259587e-01 -4.791416929732843499e-01 4.376352916602106458e-01 -1.307474035741224894e+00 1.248187634760662856e+00 5.059029668919486911e-01 1.391540313380563720e-01 -3.787181706341895548e-01
6.023468842713095572e-01 1.708523438773457137e-01 5.428222135519623626e-01 -1.286565537787748514e+00 2.210982749061222163e-01 3.735349171873126872e-01 5.570032763112142682e-01 9.530291843005844754e-01 -7.796288227599358356e-01
1.179492837185515119e-01 1.174291586219468275e+00 3.825418450964200856e-01 -8.590442652262307854e-01 -1.163205963813049193e+00 9.587049468059815061e-01 5.159029474206286991e-01 2.497348077925134469e-01 1.281220786817337531e+00
-1.247059920117564280e+00 -3.502239450372207630e-01 7.244937565976103944e-01 -8.157958351459421165e-01 -7.665532061978250766e-01 1.161916587449328020e+00 9.057112776695763756e-02 6.668609343094207276e-01 -1.267508467632090463e+00
-8.008388061425560922e-01 -1.355754158153976707e-01 1.928600598919522069e-01 2.116197145358111875e-02 -1.338555880848625979e+00 3.506806529622374935e-01 -8.048438909929580554e-01 1.125723520720150361e+00 8.828313847477766707e-01
-1.466449790317920998e+00 -6.740330065566019213e-01 -2.932747871336506273e-01 1.332542307492297518e+00 6.870979012616238446e-01 -6.400094736507483395e-01 -6.624480553242299008e-01 3.201687133041419830e-01 5.337518947147675830e-01
6.514600239966629180e-01 2.285043528305051863e-01 -2.703020639850620688e-01 1.233945662316574321e+00 -1.075526952954060755e+00 3.106205253211291595e-01 8.186490745585512929e-01 -1.415223467655077005e+00 8.633598131308757306e-01
1.237032709185513557e+00 1.130964706418186694e+00 -1.026895803769390714e+00 7.201029021525102713e-01 5.864561709647435617e-01 1.468051949858097061e+00 1.989915187739915714e-01 1.200222282139806751e+00 -1.863155227160973038e-01
-7.063092516288798084e-01 -2.475113546675692389e-01 3.188628766910662771e-01 1.433263295455726283e+00 -9.294076155778312476e-01 -1.940640032699758599e-01 8.012814633655706009e-01 -9.651705259114637947e-01 3.703428771010008891e-01
1.915925782098590879e-01 -1.621975384214031646e-01 -1.065038755959982097e+00 -1.496638124285907256e+00 1.168366050957394098e+00 3.346465410210012204e-01 1.122657933984926082e+00 1.257430284583568980e+00 1.150313758195731673e+00
1.136982811377832636e+00 -1.143248366562280571e+00 6.057188187729708462e-01 3.041324141206230847e-01 1.466443939469217472e+00 -1.052215906772713705e+00 1.406220065162490540e+00 -4.888712979363596389e-02 -1.284586589554234770e+00
5.098511255553177524e-01 6.599322249534755880e-02 -1.038686496237833046e+00 -7.239347900182261375e-01 3.601293561221144968e-01 1.164738726172655614e+00 7.465313651717399024e-01 6.347560636750514407e-01 -1.010641133349365006e+00
2.104915281680215244e-01 -1.088031762967540894e+00 3.515111083532671543e-01 -9.577011746147975346e-01 5.963272787320245127e-01 -5.715351780893638267e-01 3.698025381107304943e-01 -8.650545723768015005e-01 1.191390544415322772e-01
-7.914296002342134928e-01 -1.185858389020307380e+00 5.793417276041727959e-01 -3.178768684487152107e-01 -3.781596132830022938e-03 -6.916154981056829021e-01 6.723634226567233307e-01 4.740107922907654814e-01 -1.033030543280011315e-01
-8.007064014374485339e-01 -4.014941139860085384e-01 8.661408914608239584e-01 -1.045790707784902462e+00 -6.777425765125835166e-01 -7.912202426661854027e-01 9.879211724043198695e-01 -9.038183047454177999e-01 -1.150248135740917999e+00
-7.432187950680653188e-01 -3.381989326428797016e-01 -2.258486283218337221e-01 1.335577649469545491e+00 6.915188524190872821e-01 8.625433480054141011e-01 -1.232321471133075885e+00 -1.431901937757926735e+00 -2.757125849475237089e-01
-1.106481232155596128e-01 8.653186690669986136e-01 -1.189731423416788836e+00 -1.098892666558410891e-01 8.655508818147261696e-01 -4.422555701471324596e-01 1.609871640963292938e-01 -1.561991539153777531e-01 -1.300176978373852155e+00
-1.182982635719020070e+00 -1.184635518473715621e+00 2.028574753967292699e-01 4.045851300001639395e-01 -3.004705826249136624e-01 -3.962726548325998799e-01 -4.129767892636395654e-01 3.604419711091920719e-01 -8.975554909278704585e-01
1.305715728541693821e+00 5.063026624268751608e-01 1.220750175142470972e+00 -8.936375404498668740e-01 -5.955577838305328164e-01 -1.331195809467199176e+00 -7.809933540631976978e-01 5.626693998814582542e-01 -5.283286477728197372e-01
9.863031669100931209e-01 2.038702383120064576e-01 -8.257208040621389911e-01 -1.214133220871037810e+00 2.096936869922669811e-01 7.362689535629413085e-01 1.154330750022638519e+00 8.361619057003724098e-01 -1.059406496824946142e+00
1.121798822593362832e+00 1.493005298845512030e+00 1.045471381837029590e+00 -5.643959089704336796e-01 9.518547315058708547e-01 5.921245108915731414e-01 2.254237770863083412e-01 1.347735319046095004e+00 -1.314461374094173074e+00
-8.746137483173648253e-01 1.190180917169157304e+00 -3.768741694381949614e-01 -6.567933184954439785e-01 -1.804701569667321870e-01 -1.385277838385218896e+00 -2.624783198389293304e-01 1.269610359630347629e-01 1.310234745658810374e+00
-5.900687513429799802e-01 6.300030191211060115e-01 -1.220894339267275086e+00 3.311306100574742395e-01 -2.208063323275596401e-01 1.320666135325960111e+00 -2.485207233086004219e-01 -3.046512217004182510e-01 -8.041611585484542690e-02
1.373767098780092732e+00 1.199865253183458602e+00 -1.711176544038602865e-01 6.511198554773005576e-01 -8.516769956676244480e-01 7.486644716379777797e-01 -1.659675569577629961e-01 -1.078965970627392856e+00 2.282789921832969471e-01
-4.894789807114200419e-01 1.030198877632400478e+00 -1.258469652574383701e+00 6.395380978162722441e-01 8.349518069209758142e-01 -1.193274538660930029e+00 -1.247937115159555965e+00 7.650250610663198447e-01 -1.761466008853022069e-01
-4.179183674207276322e-01 -9.525377308379363583e-01 9.932286835282304605e-01 -1.192370541489619296e+00 -4.191756581072286769e-01 -8.286953611850291779e-01 -5.232832939208009737e-01 9.166665649315101083e-01 -8.866718921265724918e-01
-1.034996225434537731e+00 -1.002183010028773413e+00 9.871086576016044889e-01 -1.420700938265659907e-01 8.814795000126854907e-01 5.436796065093052466e-01 -7.686685614239494591e-01 6.300492438915183957e-01 1.956521509353439381e-01
1.032471814580775860e+00 -9.132457335248458374e-01 -2.517311332238288957e-01 8.505175897949591723e-01 3.285134905560747054e-01 3.289901967303636710e-01 2.109248131518576264e-01 1.342077473772025131e+00 7.993552034416924190e-01
9.402546251732227800e-01 4.852227563341948713e-01 -4.740776823033799880e-01 1.294121744769350713e+00 8.603440347862991722e-01 -7.018214390390487001e-01 -1.552407039144538814e-01 -4.282816110160225787e-01 2.875745134113460999e-02
-4.700809164874613089e-01 1.605377797941044404e-01 4.278444566189539833e-01 1.488484119406505712e-01 -3.823727221493875561e-01 6.227569812132338622e-02 4.462882500589789858e-01 -9.914653418235169768e-01 -1.282288523571436301e+00
9.470365243006672040e-01 -1.445122864874369251e+00 -1.006476862301568520e-01 1.191469582546896611e+00 2.390491138753423339e-01 -6.416932749692619842e-01 3.179903082961454963e-02 -2.141890945316916595e-01 8.145409304750301782e-01
-9.978007476957253541e-01 -1.462419368639078510e+00 3.438712183518266574e-01 -3.967631060205667470e-01 4.980452272572067907e-01 4.781056766994757901e-01 -4.797183102069058069e-01 -3.864049557713526983e-01 1.072560786666781674e+00
7.796201507311647516e-01 1.072931211316317857e+00 4.858881254533048422e-01 -9.378785216893199550e-01 -1.287398490354067615e+00 -7.762989323057294389e-01 2.168118630471537189e-01 1.008455589159295229e+00 4.985927579634515938e-01
8.755762404672196020e-02 7.749240995227033579e-01 -9.030465001075196341e-01 -2.760001882606533119e-01 -5.729305542485737535e-01 1.210426400595482122e+00 -1.232051597169069534e+00 9.184898491721847913e-01 -9.660487677542997087e-01
-7.658080234427924182e-01 -6.875975203269276692e-01 1.208061063587046347e+00 -1.307857638226118002e+00 -8.478289629519759618e-01 -1.132934441117417368e+00 1.127245498904772436e+00 -7.450481617117699074e-02 -6.142445676078678307e-02
-6.963986058796390877e-01 8.073974461666352243e-01 -7.557231658760065196e-01 -1.390635861553288777e+00 -1.177360948909704108e+00 5.344853927878892019e-01 -7.572236579173243776e-01 -1.441059758774426713e+00 -2.380831131216417651e-01
-4.449299790144718436e-01 -6.838481954304331811e-01 -1.331946181704818599e+00 1.082681961359497347e+00 9.398153096349391999e-01 7.135063497428292267e-01 -1.016037981476193064e+00 -5.696671190841551269e-01 8.619289853537438484e-01
9.474778922603829256e-01 -5.910605301409916912e-01 -2.166285082683421237e-01 1.830363283767283411e-01 1.280655865071409050e+00 -6.834424715046452103e-01 9.499362288617172467e-01 1.264199277511143027e+00 -2.126654444291984358e-01
4.849030657300593683e-01 1.047115865659845158e+00 -1.450369668892600661e+00 1.387637619746092676e+00 9.496243170117305565e-01 6.099744044016589539e-01 8.105545984823712136e-01 1.491004165746912857e+00 6.381263968564996336e-01
-1.228791597919564493e+00 8.882272579101361254e-01 -8.009542405137042298e-01 -1.105854948730156107e+00 1.128935664155561680e+00 9.274377556725534877e-01 -2.386435108884802370e-01 -6.378610376326105946e-01 5.914022562663515670e-01
-7.326237230823288149e-01 -1.512435351537826378e-01 -8.331304551264342440e-01 -5.084876915192593216e-02 9.894383913771236383e-01 1.076669097372376260e+00 -1.942640341251522518e-02 5.616504678683738039e-01 -2.662078059914975148e-01
1.737683023012930317e-01 8.614161721912335645e-01 1.144399277364417822e+00 -1.088752310690014102e+00 -1.220469155628814972e+00 -1.360070195297754525e-01 -2.609727630145871613e-01 -4.421346002493848903e-01 -2.734763563077537984e-01
-1.687363518623863357e-03 -1.116791211496845460e+00 1.285043621412086612e+00 -1.244732780393646987e-01 -1.842553654970346955e-02 -8.363813627564736786e-01 -1.700351078401692861e-01 -1.051665207450920736e+00 -1.153523846277666909e+00
1.098133273553205669e-01 -9.713504783042448132e-01 -5.286046478654925496e-01 -1.346238483900538796e+00 -1.251753431208495693e+00 -1.002843784830714124e+00 3.102501844869964831e-02 5.039170571121794895e-01 -8.045571550331985788e-01
-7.352175201546966576e-01 1.245527218073493980e+00 -1.269017713722522700e+00 -1.408194891167866558e+00 -1.987638405060533353e-01 1.497152242050978632e+00 6.657477394183271002e-01 3.066122352969751219e-01 -1.337350623275543438e+00
-1.078294307964508203e+00 -3.512196695914868716e-01 7.191576856907665460e-01 -1.371080035846101719e+00 1.502334229584443293e-01 9.397862217948432795e-01 1.082357958554481803e-01 7.606497824688983611e-01 1.006616019455798483e+00
1.459623973160656396e+00 -1.360021491670373894e+00 1.699574916729802432e-01 -7.126665692170195410e-01 -9.483350976190009218e-01 -1.146360750143102347e+00 -3.947071094957069759e-01 6.430318377883967873e-01 -9.985379564989671497e-02
1.034271028189206021e+00 3.049695741530434878e-01 -1.405345412530708327e+00 -9.132923888985718941e-01 -1.059945156858105086e+00 5.038770322534055213e-01 -1.211442034994871797e+00 1.020642055165460249e+00 -1.362434720421302536e+00
1.191314918755569163e+00 -1.374280781237760873e+00 1.215497158108449050e+00 9.728167544376340459e-01 -1.130180869037607838e+00 -4.194249393046092234e-01 1.086577736902972324e+00 -1.063553244157847022e+00 1.063166327236905406e+00
9.198824795650067943e-01 2.802094513399517872e-01 -2.013423147718026440e-01 3.067523156147821117e-01 -3.413181109776053379e-02 1.372074251092277208e+00 -9.268293631104183028e-01 -6.593695479143072413e-01 -1.147399084210718456e-01
-9.002919207843586014e-01 7.676918980998176378e-01 -7.191973519948658966e-01 4.178652051177504934e-01 -1.532509904250071164e-01 2.224283216583706757e-01 -1.488051288569462782e+00 4.783962878304971467e-01 5.570504597880645559e-01
-7.210802205452284674e-01 1.265531771436077424e+00 9.997711569647412810e-01 -4.486681197215997008e-01 -1.571778469178416460e-01 2.391731130105434477e-02 2.816767719018253846e-02 7.351445208976614687e-01 6.098533669641439392e-01
1.476204603105102375e-01 -1.476164992852162072e+00 3.714204945436192506e-01 -4.947410241427430133e-01 1.195516026031539392e+00 -1.331176043592404268e+00 1.354447766987747048e+00 5.155404979459615733e-01 -7.538970684249934884e-01
-1.365463181331833864e+00 1.046467941353411035e+00 -1.333195750804648805e-01 3.329094709252257145e-01 -3.716624468384199798e-01 2.419168482167967094e-01 -1.429203572581797310e+00 -1.058954414745884476e+00 1.396705673104071899e+00
8.257267708446004439e-01 -9.744323524622111599e-02 -1.494743482606334828e+00 1.476463473908397717e+00 1.106700961509605730e+00 1.715234011173533135e-01 -7.719069659206112544e-01 -6.655777398328797112e-01 -2.281595200855524030e-02
-1.495657174301130654e+00 2.999958136735081382e-01 -1.540902998809110525e-01 -5.900183196399116925e-01 5.492062094172791564e-01 6.706301869170284702e-01 1.109981962867441663e+00 2.887316041339090811e-01 1.284618577316730681e-01
4.722908594215015077e-01 1.334290581143914967e+00 1.342748346659470737e+00 2.843496764963884260e-01 9.156771206020575260e-02 -2.508765910191762538e-01 7.165798363712863051e-01 1.042876979424912420e+00 -9.785582513652871794e-01
5.931374101945641186e-01 3.911407935228812249e-01 1.116693399683668542e+00 4.648302406860087554e-01 -1.172468424370323614e+00 -4.095103670498887460e-01 1.156370596778994120e+00 3.627334629596099536e-01 -3.654318402918904640e-01
1.958640340817288106e-01 -7.025047644530330038e-01 1.404119326653902267e+00 6.722114839138644271e-01 1.033733191921554440e+00 1.336687563721983274e+00 -4.951542478848979245e-01 -7.630603514923461894e-01 -9.455308084767828358e-01
1.092901165780790329e+00 9.272086967755718279e-01 5.094800733686065675e-01 -7.995164888148214022e-01 -6.836015245807496310e-01 1.404072314693849854e+00 -7.268680657037062121e-01 -3.883001170566788840e-01 -5.459900425463921625e-01
1.091441721425773004e+00 -1.334325604960092893e+00 -5.520445422418074344e-01 8.783579777299165281e-01 4.034208015857887464e-01 -4.265877464288875265e-01 -1.857146981686360609e-01 -7.205602727150308695e-01 -1.194652602597683799e+00
-1.172580793979190794e+00 9.663333194667088621e-01 -9.945136011776585239e-01 -5.016635017806612140e-01 1.441379877075654958e+00 -1.480177157000142074e+00 8.924461920947115434e-01 1.055659701455833321e-01 1.348235238396906066e+00
4.531927700550579807e-01 -1.280713778702069483e-02 1.063499143215663967e+00 -6.602542520231777790e-01 -1.422940400785133175e-02 -4.633834198078173872e-01 -8.792040004471003423e-01 1.156686728556600929e+00 -5.130066986229641079e-01
-1.003173959285839079e-01 -4.589970195760061378e-01 -1.370838933125227754e+00 -6.671926865770312354e-01 5.658113266445119471e-01 -4.474482592198026909e-01 2.301492250676613338e-01 1.496197113698271242e+00 1.789752428224689051e-01
1.159867034773928607e+00 1.013992355505290544e+00 9.787076574929065576e-01 9.717758797259504755e-01 1.367002389666507334e-01 8.623379222520588527e-01 -6.020648329915816444e-01 1.272470728136133378e+00 -5.745826281288194393e-01
-6.521846453979069924e-01 -1.222055808546075983e+00 -9.916048553865525195e-01 -2.023788712617280439e-01 1.863049859993488599e-01 1.244037782990189411e-01 1.057884545242052665e+00 6.206381089384388483e-01 -1.415243933405708532e+00
1.343706205356696604e+00 5.121050773620353658e-01 7.568532041927017451e-01 -9.204632340087470777e-01 1.080330586514015589e+00 -9.164527338542959312e-01 -5.432314417158813358e-01 2.962889769396528372e-01 -1.282008856345498993e+00
-4.843692946000253130e-01 -1.386434124505985910e+00 -4.209724930942984056e-01 -1.172024295289279650e+00 1.236423869666388509e+00 4.012836782101387723e-01 -8.456022880100365624e-01 -5.431381476346739401e-01 9.274622690718985485e-01
4.238164668517637734e-01 4.059635040607412204e-02 -7.831738754236664546e-01 -1.238902351231636834e+00 8.563864470412843044e-01 1.091802940202470484e+00 -2.211133237136982954e-01 3.504297235189655080e-01 -9.332035791214799980e-01
1.060149676006764352e+00 1.305179303329422780e+00 1.279930395415287636e+00 1.402249844766536357e+00 6.783573440304763169e-01 -1.604655684781962632e-01 -8.733819246479879173e-02 -8.463365752107980811e-01 -5.105221381086673116e-01
6.581354465624347228e-01 -1.088469552473613877e+00 -9.494767156929295737e-02 4.698424019333067303e-01 -1.406633573222671352e+00 5.854157184178574447e-01 9.309298755423300875e-03 1.481001043180665278e-01 1.066993516283484711e+00
4.930525735698485512e-01 -1.220875758440325809e+00 5.850787383906930206e-02 -8.305188029957565332e-01 -1.341816338621962812e+00 9.501260969224120112e-01 -7.148400617682293401e-01 3.255797896971974748e-01 6.711741811942673053e-03
-1.490046735315778470e+00 -1.136853051221652589e+00 6.934943293770147177e-01 -1.317097113658773022e+00 9.399303462255178543e-01 -2.983640965544748225e-01 2.751629123392551612e-02 -1.236333744163673032e+00 7.132617274963357623e-01
1.158714169076578759e+00 -1.486655436354818338e+00 -1.057635926477229038e+00 -1.174076203000669949e+00 -9.384222548580706258e-01 8.758103373916881207e-01 1.071794217417274542e-01 -7.159009353058775060e-01 -6.430491202947195006e-01
1.014073327896971133e+00 1.222664401907848752e+00 1.395183589195895468e+00 7.536358400115591438e-01 7.273328529576328361e-02 -8.554219672688719855e-01 1.469623039081777272e+00 -7.996390234666572727e-02 3.069792065841246975e-01
-1.481403825028330123e-01 -1.172305964132591249e+00 -6.565539309186025907e-01 -1.486753283035470830e+00 9.530782526412731048e-01 -3.890996408995993638e-01 1.266020015192220516e+00 -1.120775967504354931e+00 3.661473271244843897e-01
1.326283445647290504e-01 2.176965269935912106e-01 8.638325002823471488e-01 1.286460387358553170e+00 -1.694238329483355177e-01 1.224767542548991894e+00 -6.943701678587155257e-02 -1.455252714542771830e+00 6.079954032216223769e-01
-1.083194300686709077e+00 -8.099243601274795923e-01 -8.206122881630569799e-01 -1.464855451924312879e-01 -2.824044096386211233e-01 -1.075780851830713480e+00 9.191564253269535190e-01 1.470384538692117271e+00 -9.638457142655594279e-01
-5.504831258925646509e-03 -1.087366841713900634e+00 -1.293418549603468470e+00 -1.055492949744949227e+00 -3.440371302522222674e-01 8.435327214538125284e-01 -6.160867996631734789e-01 3.435291305683879637e-01 1.076627440223935306e+00
1.389498354287732607e+00 1.058263924577409920e+00 -7.961048109929955707e-01 4.353671922694437590e-01 -4.002887491807579634e-01 1.340498864712966309e+00 -2.630141323195989145e-01 9.642149898256997531e-01 2.130009562857670957e-01
7.725126641829138663e-01 6.946251400812245569e-01 -4.674967682806699942e-01 -5.737686215434190107e-02 7.171704462681142145e-01 -1.047751012681260807e+00 -8.650169060131603915e-01 5.542938584810035429e-01 -7.801154989055216760e-01
-1.411763660715345203e+00 -5.206609640020112284e-01 5.497559136868949148e-01 -1.297486154334609454e-01 -2.990786422340998563e-01 -4.352553632687434781e-01 1.022710067402364364e+00 -5.834445352867331236e-01 9.462287306115175767e-01
-1.096336357137020157e+00 -1.210597788139845532e-01 -1.075006995787442854e+00 1.388922131012689576e+00 6.449721131729506673e-01 -8.334142885361354169e-01 1.903132022983865523e-01 3.269649380813178796e-01 9.088709087981576840e-01
5.555974874950296849e-01 -5.660907470612557280e-01 -1.343659538939184106e+00 5.536153395336729233e-01 5.117645575017516490e-01 -1.236959338953167453e-01 1.159110064276879459e+00 9.225905927556075081e-01 -7.427606616140147722e-01
1.049632621238838492e-01 4.033912885730853715e-01 -1.254628219816192214e+00 1.252502949705636359e+00 -5.849171067181069272e-02 1.074999679176048772e+00 -4.301407726691918176e-01 -1.080142212170969618e+00 8.007557906137998671e-01
-7.502942814833380991e-01 8.198055612302053152e-01 1.262650010091413755e+00 -6.176499089633193940e-01 -6.791688836276167374e-01 -2.048765392161101540e-01 1.191517588133359506e+00 3.868616922459464647e-01 -1.740007614388777712e-01
1.078251279084629699e+00 4.970888710846962377e-01 -1.566785394556824418e-01 6.930364243248219314e-01 5.381195138833102520e-01 -1.102700516714439694e+00 -7.863796708166232996e-01 4.024513497614056190e-01 2.254719340445511255e-01
-1.047774579572297027e+00 -8.906849600861574956e-01 -6.989988318390343291e-01 -4.122404430103372430e-01 -9.628995432970534063e-01 -1.207968837306715670e+00 -6.710561155069941774e-01 -1.329293842602563558e-01 -2.958087902229755706e-02
-1.651896581769372041e-01 4.923481297795895273e-01 -4.188985338140421844e-01 1.314608965734783474e+00 8.598555219208078304e-01 5.797303926126387008e-01 1.097084250413609352e+00 5.494966193550454570e-01 -2.719576166991687360e-01
3.417285400483692781e-01 -1.137414134420739131e+00 7.742466639128434691e-01 -5.679845758229324915e-01 -6.246323218766459684e-01 8.292909494789796332e-01 1.168585751949514417e+00 -1.043129783364062035e+00 -1.610892968428270233e-01
-6.529602802100259451e-01 3.837978480511362589e-01 3.820055249957031718e-01 -3.975026406735743256e-01 -5.943132881643943266e-01 1.483281643242957415e+00 -1.340588256099835451e+00 -3.396413162224964921e-02 -3.883128835478903973e-01
-5.987423696083205016e-01 1.248952280970066164e+00 2.438326413076595811e-01 5.099471494635832158e-02 1.494710611969283232e+00 -1.527044740413918689e-01 1.209353834150310725e+00 -3.653860284854034690e-01 -7.513133147858803706e-01
-1.129551361435061185e+00 -1.537830132732758148e-01 7.080109335625622835e-01 -2.704395549197911031e-01 1.363574264469290309e+00 9.999347138939065349e-01 -1.352311596600813237e+00 9.006633196641929962e-01 -9.537450639715215894e-01
9.560461445988176488e-01 1.914156383794526350e-01 -3.130181207172019198e-01 -8.672039951102660238e-01 4.171243005333752363e-01 -1.457981707811728533e-02 3.086769374549229727e-01 5.217315729976215177e-01 9.462137924860732907e-01
7.461947072120878044e-01 7.987497000634520283e-01 -4.210791468525590941e-01 1.091037731280473766e+00 7.279042949810412555e-01 -7.351975953585676571e-02 -1.306932042067756594e+00 4.114431486269304328e-01 -3.340536735253164524e-01
1.201579233601891339e+00 9.975051569403314833e-02 -7.332861315959929849e-01 -1.485196194324610808e+00 -3.412787450436327585e-02 1.491765058473550676e+00 1.583951610349605410e-01 5.978004890175125929e-01 -1.034516405222452473e+00
1.271209476549722828e-01 -1.389854168659273803e+00 -1.467078300474329744e+00 7.118699120055216323e-01 7.975229763382840620e-02 6.716228939906762063e-01 -5.876307370658564455e-01 1.042162196012363040e+00 3.471501850249041343e-01
1.297712511888873266e-01 7.792644274335309706e-01 1.489782879901381918e+00 -2.280492247606721312e-01 -3.334352187444133975e-02 1.119432407987130063e+00 5.157811584103659808e-01 -1.147068275498788870e+00 -5.448156217113914179e-01
-3.707458187008039197e-01 1.993306414256681425e-01 -5.448930257770141505e-01 6.869643802424401091e-01 9.311801340676402194e-01 6.774528902685518217e-01 9.113066858937232118e-01 -7.102369102160196457e-01 -1.560404964336749023e-01
-5.057260570227464225e-01 -4.927803769843576154e-01 -1.083323493189843445e+00 -1.287249762632747707e+00 1.264301437213384727e+00 -8.868428596519467577e-01 -1.084441267190671354e+00 3.039940580331802478e-01 -1.428697254555614693e+00
1.336218730930223586e+00 -1.265291232185811854e+00 -3.499424997277851279e-01 1.498105604092573540e+00 7.510356780525428988e-01 -1.085378488604154423e+00 1.999809177274491923e-03 4.237203991823569327e-01 1.821092029977557925e-01
9.734490961584247870e-01 -4.617350011729920434e-01 7.591377460083189588e-01 -5.260749040989290970e-01 4.611128192777018686e-01 -8.163681446095941707e-01 -1.499327390766419299e+00 1.284095258952793195e+00 7.410318249112746170e-01
1.375097866993823637e+00 -7.787435485864028228e-01 -2.888197192997069562e-01 1.491385408810191660e+00 -1.378127607300228430e+00 4.018997620151671946e-01 -2.554379554861582191e-01 2.944992290877601615e-02 -1.241352731652996644e+00
9.731473105725046979e-01 7.054270961040287613e-01 -3.030384953711283691e-01 2.065309870092694178e-01 -3.332403429167032360e-01 4.931634068048562636e-01 -8.020219592523677443e-01 6.368719830094982104e-01 -9.834738274163316030e-01
7.445439165432199413e-01 1.074731788598429771e-01 7.747042562772952223e-01 5.147608744339569053e-01 -2.707132363839853673e-01 -3.795975405211912124e-01 -8.311014143880187666e-01 8.527649494020026477e-01 -1.022640460723017064e+00
9.299074818148594934e-01 -1.468569534571099178e-01 -1.301541877971198247e+00 8.586890539447348258e-01 1.157606553006845562e+00 6.068227435590711760e-02 5.426269100259184519e-02 -3.380063209082019293e-01 -5.347268122947608227e-01
-3.712308869554580282e-01 -1.077320928506977804e+00 6.760497141065362481e-01 -1.062552742003956663e+00 -6.732212527590364370e-01 4.813717514167247247e-01 -2.129808864545498226e-01 6.550230962411683899e-01 -1.223957062220089931e+00
-7.924329422634300846e-01 1.268026189799973835e+00 1.842004600806099734e-01 -4.678425974657848263e-01 7.273714778483113541e-01 3.577072492758874844e-01 1.139760849651616503e-01 -8.089451383486789826e-01 3.431094489966133310e-01
6.678766975724907962e-01 -3.422494653096476158e-01 -9.722010180150870706e-01 1.258624800710707037e-01 3.578371985724785320e-01 1.485761156404891814e+00 -9.880287212290368437e-01 3.185623616968047411e-02 1.149846481728235670e+00
-1.398101741962912481e+00 -7.467894979113106624e-01 4.754364750848077970e-01 -1.214270170138268101e+00 1.452552626455690277e+00 7.750318763941524969e-01 -8.818548409659299203e-01 -9.249934553259753223e-02 -7.478317271362494578e-01
3.668401187000502883e-02 1.213161922884551380e+00 6.329098774971451125e-01 2.255315691847684656e-01 -1.174147470175039842e+00 -1.139747442375494524e+00 4.023410006409100514e-02 8.267412649264693769e-01 5.116990384688332449e-01
-1.029937283200492049e+00 2.146889181299693750e-02 -4.557413963793671696e-01 -1.036781571998896201e+00 -1.102028994004289331e-02 7.780455121848187661e-01 1.259418937752565970e+00 6.282090118245833299e-01 9.701662924949199240e-01
-2.894045778935423474e-01 -6.000205587196598689e-01 1.347444107906301980e+00 7.546641289749744796e-01 5.898989447943308040e-01 -1.297586014780133468e+00 -1.348174863484989938e+00 1.018515510326684304e+00 -9.274908621223868499e-01
-6.063145573157503465e-01 8.779893277527023310e-01 -1.123017030205979649e+00 -1.313195459824023414e+00 1.434427743663559518e+00 1.284552177621236968e+00 -3.156248087573579886e-01 4.445029265200363122e-01 4.362011792129671939e-01
-4.036854334450825643e-01 1.500937759250626780e-01 -1.487104822010514305e-01 -7.612942751002285124e-01 -1.465770109065144045e+00 -8.907651474122206814e-01 2.315465122651175767e-01 1.179807359788557219e-01 -6.769016973763685163e-01
7.066018889340413001e-01 5.168239516814472356e-01 -1.879627196736253225e-01 1.030121824217875126e+00 -1.848530499528708848e-01 -9.849104867159623744e-01 -8.012801661954179755e-01 -6.926346824622451326e-01 1.363030348155468641e+00
-5.066057630088716124e-02 9.146897183607481940e-01 5.419947458590043121e-01 -9.192508712281100003e-01 1.122533900252581374e-01 -8.088228428954190585e-01 1.471810062969597377e+00 -8.383702100910412902e-01 -2.207574134916012731e-01
1.292387190077817660e+00 1.177917975894032798e-01 1.730596806114590436e-01 -4.164702264926791742e-01 -5.193004254268408504e-01 -8.211446164479156984e-01 5.852312512707820158e-01 -8.424013538065133755e-02 6.748405662471134159e-01
3.432479659571660013e-01 6.036703735022950212e-01 -5.930434680490698218e-01 3.444249459452288775e-01 -6.444532906290938445e-01 -9.174969792534762858e-01 -1.172043392793793881e+00 -6.982884517479597264e-01 9.201753225843922745e-02
7.772978916790415083e-01 9.556082552271225605e-01 4.591567864638076424e-01 -1.177957633678795801e+00 -1.401909398599931578e+00 -1.252866664388567974e+00 -1.347123876666494358e+00 -1.076408542130054657e+00 -1.363532844742530115e+00
-7.682868214941187546e-01 -1.389001956011611583e+00 5.507262525906569950e-01 -7.348237881881036770e-02 -9.656719249362754054e-01 1.378472659318320748e+00 6.624209259395801297e-01 1.038989697002300483e+00 -1.211044721354430198e+00
-5.887177232420151007e-01 -9.181193291855662686e-01 -5.531511848101743345e-01 -1.195297430187883814e+00 3.451766399857326695e-01 7.841408977612172038e-01 -2.903770756581575130e-01 -1.456997597659742683e-01 7.063481733439284094e-01
1.001169801843383667e+00 -8.837199557522376070e-01 1.706656317828493252e-01 5.694292688646375167e-01 -1.158847720026744188e+00 -1.331473755486715982e+00 1.766546915111211202e-01 -4.944634092088517896e-02 6.960005354652843979e-01
1.113518862058171299e+00 1.450538727551611728e+00 1.006041884843894785e+00 7.199340994287013462e-01 -1.214913134706184561e+00 -5.106402121796105309e-02 -1.377558809727336797e+00 -1.035645197566152031e+00 9.453975588809269137e-01
-1.166050110901007297e+00 -1.205240554378067763e+00 -3.491084431063825599e-01 -1.299674658809271577e+00 5.583660480387679925e-01 -9.596708751565552475e-01 -9.424061442685690571e-01 -4.340138260517786284e-01 -3.906245653704234488e-01
9.860015404782159765e-01 -6.842929085093468755e-01 -9.058906058784561566e-01 1.942034919350020816e-01 -1.451700276100749143e+00 2.305624418890399596e-01 -7.991344115272569493e-01 -6.365713912347293890e-01 -4.198268215060575459e-01
-5.137885552793478583e-01 7.812383810570268095e-01 -2.125440803456088990e-01 -1.237745220224006903e-01 -9.111174642388979450e-01 -7.535088898328901053e-02 -4.593153483546712490e-01 1.212068715136015662e+00 9.189509299738110037e-01
-7.580072758803673150e-01 -1.020678834464501694e+00 1.171829409172481462e+00 7.522470885873744351e-01 -7.924071262889142986e-02 -1.129689371642487394e+00 9.969270615233413180e-01 8.283979884454873988e-01 9.977589043043348926e-01
-2.717356290797892093e-01 -1.498247569213914110e+00 9.636278106824880396e-02 -1.039585694512185743e+00 -8.745621583921020514e-01 -1.353960970713859790e+00 3.414208249598752465e-01 6.503261702594771432e-01 -8.035430585055048924e-01
1.428929519587506025e+00 -1.193991793881785224e+00 -1.190550951023623405e+00 1.224944323729727724e+00 1.481341491921364772e+00 -1.466494656597251423e-01 -2.884931510122022980e-01 1.345355677512622750e+00 -1.478679343427888204e+00
1.021815151078952599e+00 3.988130602183315165e-01 -1.207379481636616347e+00 -2.646386808765396337e-01 5.695448057585056345e-01 -7.731042177324903841e-01 1.151161258281653499e+00 -1.156119359573479555e+00 3.192492115581633261e-01
1.154862637909925605e+00 1.257895242742184561e+00 -1.426311086623284874e+00 5.476673276639346666e-01 -7.900066583258702479e-03 3.095013418088858881e-01 -2.706472726305891863e-01 1.858960959822351100e-01 -1.035654322672125538e+00
-7.514293286643969338e-01 -3.455659329923437273e-01 -1.217974143354498384e+00 -1.125181805474121388e-01 6.302508902304182481e-02 -8.126752708646922674e-02 1.491308387560301929e+00 -1.251371717385147297e+00 1.086236906307560313e+00
-1.264550996667152427e+00 1.451874030954005690e+00 -9.487884019753300979e-01 7.605973756893397164e-01 -7.241067095811268839e-01 1.383482174603657189e+00 1.371003754430792920e+00 1.309775529807458483e+00 1.144392498710368411e+00
8.743667327088817665e-01 1.037521580056565362e+00 -8.682111066975776170e-01 -6.519760671843195521e-01 7.341421547957212024e-01 -1.403905231847982993e+00 4.716415653573080569e-02 5.673058315260884887e-01 -7.953085324188011729e-01
4.154972947045572074e-01 1.316007365334813883e+00 1.918570033165255539e-01 6.622338668751985846e-01 -7.940194890551888207e-02 -3.014164521298412502e-01 9.043807826224500301e-01 9.635047800881414437e-01 -1.388753891642257043e-01
1.457431624677799853e+00 2.916725076200042954e-01 4.862427179243302700e-01 7.458853842633971221e-01 -1.085355225222624842e+00 6.422597184175775631e-01 -8.178248878690668189e-01 5.867944360824443040e-01 -1.054974013831417423e+00
-1.311046991228557834e+00 5.331633136617819346e-02 -1.256888127803934108e+00 9.308865311189282732e-01 -2.592796991023071929e-01 8.412826465758649341e-02 1.037340104445053868e+00 -1.326167677341229645e+00 -4.361089456188902425e-01
5.875554673793531579e-01 8.972957544368354021e-01 5.780023852369329251e-01 7.363960200048380589e-02 -3.081694953358860012e-01 -4.807705540673651301e-01 -1.355158062291351495e+00 9.246948191000083916e-01 -3.941522030691466671e-01
-5.059622710934918999e-02 7.802643366135736391e-01 -1.345201909020368625e+00 -3.684457910969016758e-01 -1.188757921644109317e+00 1.234410127178369176e+00 1.423142116829257287e+00 -1.387777432745475714e+00 -3.916851009248518700e-01
8.815076250755627951e-01 2.763905752287201256e-01 1.334694161853853256e+00 1.045360988030060945e+00 -8.365520141093837347e-01 -2.829373570219100298e-01 9.044609882222760522e-01 5.863848773183570895e-01 6.100130348515019341e-01
5.178933540136276825e-01 1.060500756131633082e+00 1.239574540340227404e+00 3.453388085497244298e-02 -1.272296302262585055e+00 1.426718532970935094e+00 -1.248947190586263689e+00 1.120986320174496065e+00 -5.147221212353780828e-04
4.798419887313856158e-01 8.176814308677070597e-01 8.447535319239295459e-01 -1.136275842101314604e+00 2.199381701549185664e-02 7.074864856518381373e-01 -6.340545978967944141e-01 -9.363539482318409268e-01 1.194789995903290603e+00
-1.328129056644746564e+00 1.169052581398806190e+00 8.269562849220979395e-03 3.517625646939505080e-01 -9.672959035826490526e-01 -5.853653160281029333e-01 2.858223083525610608e-01 3.493914857835006549e-01 -1.186475956315768077e+00
9.319070693532527372e-01 -5.665511863294279138e-01 4.440301552579094535e-01 -6.042114089369792218e-01 1.896358617797788693e-01 -1.309431122728849095e+00 1.317107495685776231e+00 8.299819952134215306e-01 -1.036660512462434625e+00
1.332403885894430484e+00 -1.171367708350470771e+00 1.265128708684807535e+00 5.193480434341634089e-01 -1.879978373725781360e-01 1.615199934928108760e-01 3.243506481728872792e-01 -8.574468866080855456e-01 -9.802899795166981622e-01
4.807035871452355336e-01 -6.588266400275050172e-01 -9.246099966906839995e-03 -8.499983323166545590e-01 1.000253439467172489e+00 3.856705919339205035e-01 6.165777113050520120e-01 2.279331357152738491e-01 -5.042227975827670017e-01
-2.215350066909029803e-01 1.110235664628917096e+00 -6.962021916413559941e-01 -5.518742822008558813e-01 1.442577438719171212e+00 8.547979851758819025e-01 -4.953645156205319644e-01 -5.839229855204089992e-01 -9.597732721136380540e-01
-1.267479527414359985e+00 -1.264461698789957067e-01 -1.433255449327009989e-01 -1.839426100454311097e-02 1.339220800215867424e+00 4.905298438666638727e-01 -3.234809247614606198e-01 1.207724687478833214e+00 -3.094230007033101915e-01
-8.601922401188731859e-01 -1.115927818757099566e+00 -1.101168724317923120e+00 -4.615617358806930470e-01 -1.452069937264501842e+00 8.048388487887169207e-01 -3.162370400392495728e-01 -7.993537386338080974e-01 1.525021689547246817e-01
-9.763683407914979240e-01 9.341858151091001483e-01 -2.836743397730890903e-01 -2.120547259339954360e-01 9.495293708914596120e-01 -3.873858088188444349e-01 -5.606854556325561179e-01 7.434105611904539002e-01 -6.149276133209623518e-01
1.409651558218101730e+00 -4.054485663145539487e-01 -1.011878366202684232e-01 -1.282264184484363412e+00 1.220231271719535826e+00 4.312776478062652075e-02 -7.962920724256975502e-01 9.147336803046690612e-01 -1.016470563194675769e+00
1.646398188653142025e-02 -7.983149061379173350e-01 -6.978190252923099912e-02 5.425370566999391242e-01 -1.301358584294765253e+00 5.107799494366650483e-01 -1.338763219773411173e+00 -5.999149900676896685e-01 -1.336234087862898878e+00
8.455544700704519245e-01 -1.163507875819671078e+00 -1.248142631499350452e+00 -1.264672186903589290e-01 -7.044211115802023748e-01 1.100715256061857161e-01 1.262180778413159343e+00 5.934227672662382158e-01 2.399084717120794075e-01
-1.370301651297767487e+00 4.763754008518197303e-01 1.477787723586200253e+00 -1.423645230067924761e+00 8.506485552106021197e-01 -8.763364249410557916e-01 1.226733096916439170e+00 -6.257454734281630016e-01 -1.295447121341624097e+00
-6.178838807866754435e-01 -7.780957234691188162e-02 -4.291095880585141797e-01 -9.783668096018046656e-01 -2.918643081360381419e-01 -1.229847343996615994e+00 -5.257387548754178797e-01 -1.008413370426059608e+00 3.690263271810215739e-01
1.401567332576116875e+00 -7.665230665531237442e-01 4.655235790120755279e-01 1.103472533890544893e-01 -1.429145214558636745e+00 -1.388677812522030708e+00 1.331489556415759612e+00 -3.506856982843942205e-02 7.835328063341119309e-01
2.963328559688599428e-01 -9.150953698926695967e-01 -7.987859300638904259e-01 9.321185633344152288e-01 -5.704432102421421735e-01 1.242494674241283903e+00 -3.660973644830090024e-03 -1.177290134153782253e-01 1.236965583245562161e+00
4.846827898611552055e-01 7.896485018285903656e-02 9.348112215992561147e-01 8.066834092803403244e-01 -5.427117901114086873e-01 3.927778214373895960e-01 1.511399620478305339e-01 1.266377032662423296e+00 -2.659698941951849083e-02
1.257827587549564141e+00 2.961743951975510658e-01 9.571373423810655146e-01 -3.576427450838903788e-02 -1.509598339014508461e-01 8.044685599661143272e-01 3.623353556565485079e-01 -2.706357647716260972e-01 -8.767597149431313186e-01
-1.849904040637659897e-01 -1.184763789791596800e+00 1.448988005832636539e+00 -1.187504537807189120e-01 -3.678133189194584540e-01 4.110177001921776485e-01 1.338356715313636425e+00 8.052000524171332163e-01 1.221100949034636507e+00
-7.000153700022041514e-01 1.004520279897927804e+00 1.239231629316246419e+00 -8.697174378012710871e-01 -9.562456626882791522e-01 -7.739910073284556047e-01 2.753360031586800094e-01 -2.159097355850803091e-01 -1.403728980060474640e-01
2.045163942564961479e-01 1.199696868678580275e-01 1.289537405211879095e+00 2.869073829930969266e-01 -1.054432041190956904e-01 -4.877204581190930366e-02 -4.432081767469453482e-01 -8.656039277929128417e-03 1.307260257548109372e+00
3.165132403393117189e-01 6.555921789019711898e-01 1.933232639973209155e-01 1.471978655840262551e+00 -1.202611851899729967e+00 2.642042469018494044e-01 -1.432962044695342829e-01 1.064280629398791644e-01 2.726573451891501909e-01
-4.327748069652469498e-01 4.423200661642181508e-01 -4.308570556958630782e-01 6.993420735550714973e-02 -8.411401082659730744e-02 -7.484897613218218781e-01 -2.371758294781578513e-02 -8.722386263172395848e-01 -8.397039554282050844e-01
-7.283244531337865757e-01 -2.303852535396710977e-02 1.348145913451036737e+00 3.460266397483731105e-01 -9.162747144439540303e-01 -1.490082722966291850e+00 -1.354112754143638409e+00 6.928250846839353327e-01 -1.471024577571604208e+00
1.053440216540207919e-01 -9.133328019059501202e-01 1.445365702467083402e+00 3.647301012798175313e-01 -1.097973859976872246e+00 -2.866928675076160227e-01 8.732646546291402689e-01 5.781227618485729192e-02 4.387503909478946973e-01
-3.461213860524917640e-01 -1.139896741594780938e+00 1.101880025615697534e+00 4.512762910331055144e-01 1.579992659962458079e-01 1.301419480208515500e-01 4.546515839446459983e-01 2.499830185446971775e-03 4.174623872501103117e-01
-6.831331298408030994e-01 1.449957785588355641e+00 -1.454791567638360483e+00 7.265403643385035526e-01 -1.338099182418300837e+00 -4.418546518204161666e-01 7.968252062661022039e-01 -7.946727226055518845e-01 -7.291329866963280892e-01
6.447234568548930733e-01 1.357536667495731431e+00 9.730029832082964791e-01 -9.664641049692370700e-01 -1.383749401891971376e+00 7.121476788376208678e-01 1.208621157523560585e-01 -5.072303137944856877e-01 1.410352492900829979e+00
1.178118246674979996e+00 8.489076868460957437e-01 6.044825639054578481e-01 -1.186738479781411781e-01 1.921040472171858804e-01 3.714943783743570593e-01 6.441716612035475187e-01 -7.505213497952796242e-01 1.091283397305978786e-01
-1.178052797623361680e+00 -1.152591875908113739e+00 3.147733530131269220e-02 1.398492954950188771e+00 -9.459829179961180001e-01 1.250291010571325856e+00 5.029718056656696801e-01 -9.178891561742441585e-02 1.449598143325225852e+00
5.307657982138762609e-01 5.856596329886918362e-01 -4.222472950436662043e-01 6.562901280664930059e-01 1.461743985796133849e+00 1.135894983722836482e+00 1.807844174100956547e-01 -2.458589160910606974e-01 -1.017198778747554933e+00
3.798408967535598091e-01 -1.073957418376794593e+00 -1.374179410315906180e+00 1.140583938908626749e+00 -2.784401116299561885e-02 -1.002308048282382735e+00 1.344450611442441268e+00 -2.611721553879141622e-01 -4.870038841681241237e-01
-1.275437906715867431e+00 -1.418757657919401005e+00 -2.031053224500389831e-01 8.745183159768051828e-01 4.998750069495783155e-02 -2.622358697258566629e-01 1.171023731705300275e+00 4.167414584528554844e-01 1.384520897665958650e+00
9.754737319070583279e-02 -7.195850551883458124e-01 -7.377122585926210174e-01 5.201636980318857795e-01 -1.298461775539153873e+00 -8.149400674425839597e-01 2.097056463606539189e-01 1.434488559509123462e+00 1.631752033654343403e-01
-3.791926415451067900e-01 1.440287675527272881e+00 -1.240506856535420255e+00 5.774570203314391970e-01 8.467963070938044901e-01 6.830293735308373693e-01 -1.288888867367611546e+00 2.083574587310821347e-01 -1.095746155351581486e+00
-6.883473138029173599e-01 1.163974641299183821e+00 -9.564410537285119585e-01 -5.239759582223605383e-01 4.724476371574672928e-01 8.377904341147973666e-01 6.016400318676824455e-01 5.217638802661352937e-01 1.003760484702846068e+00
-1.887001939631587355e-01 -5.883865369700389536e-01 1.218575248334067052e+00 1.191557527227459001e+00 6.617803289297347069e-01 3.212823874992244422e-01 1.185933327513341684e+00 7.427296672339815942e-01 -1.243819361271387702e+00
1.319289794214201006e+00 3.429872104876756644e-01 7.379216498924501266e-01 1.168162616800450859e+00 6.607601039332432480e-01 -7.504525421610945823e-01 5.846307429040107362e-01 1.014666699502839720e+00 4.865921723769233154e-01
-9.090292325104647464e-01 -1.419336831753232220e+00 7.753414001975190706e-01 -1.077628969703511297e+00 -3.241134454466889636e-01 -4.665157634021604993e-01 -4.757315025530217678e-02 -1.259251702997056244e+00 -1.124069869838568270e+00
-4.706705713455484608e-01 -3.090433817127070659e-01 -9.580803285444579043e-01 1.148570435253617461e+00 8.694319764120067573e-01 1.155713439433355028e+00 -1.052240325545017008e+00 1.478994088682561436e-02 9.474990739532216377e-01
-4.361212100415653437e-01 -9.389965230652990158e-01 1.350428255356058482e+00 -3.338211067987849612e-01 -9.971450446796177314e-01 1.030523180985891685e+00 -2.006118238205835125e-01 -1.343670617927400279e+00 -1.362140510902252633e+00
-7.828951786233740995e-01 -3.090492462157375941e-01 -5.110388839392451255e-01 1.347172632144566951e+00 1.113090404182904614e+00 8.680598137851368579e-01 -5.119205968981632715e-02 9.945345095753607145e-01 7.596352642103887387e-01
-7.969516217192553764e-01 1.007857435078983510e+00 -8.586894417617906283e-01 -1.265080930828597072e+00 -2.618761406233960365e-02 -6.850942645031160572e-01 -9.879091249307830891e-01 -5.985916818164633835e-01 -1.473144391914169571e-01
2.044700651043951378e-01 1.131909387518273746e+00 -9.847620679069688521e-01 -4.050592413090257082e-01 3.630518297239127001e-01 1.367365849663812583e+00 1.361669529953950297e+00 -7.869519227578735121e-01 9.568978781095834885e-01
9.019428173314996133e-01 5.156715264937433707e-01 -5.709437674901601811e-01 1.807033705204548202e-01 -1.408779320823974501e+00 1.193002969409378888e+00 5.129566544138437489e-01 -7.570327199553077424e-01 -1.371698698572345831e+00
-1.369110716394836391e+00 1.720274469321747546e-01 9.837097479485242824e-01 1.295519348651820390e+00 1.156688386050159778e+00 6.156090092066934805e-02 1.077691681413306402e-01 -7.079228654177588398e-01 -1.172602064705281499e-01
-5.518044297840540846e-02 4.098956404804194875e-01 -7.713817311287248790e-01 -1.371945533733446965e+00 -1.336276278980353283e+00 -2.643742592208346842e-01 3.693498522385042504e-01 1.351272783524044119e+00 -7.676333396402249543e-01
3.801790024130292656e-01 -2.364602003087352688e-01 -3.820513048100382392e-03 1.152284937494554073e+00 -1.155305455367751533e+00 9.272139341688119263e-01 1.007780534556373286e+00 -1.136448970035733863e+00 1.090138804454526822e-01
-8.823295953487497734e-01 1.115516476278881175e+00 1.049075246518623716e+00 5.728031137606608425e-01 -1.976368063363942440e-02 4.764759125818507357e-01 -1.315648124010072584e+00 2.633137033186824238e-01 8.422162592813071669e-01
-1.276760110956409733e-02 -1.488214914652588039e+00 -7.378647227089503158e-01 8.751610085248299198e-01 -3.351579445194500240e-01 1.260380015305923473e+00 4.280532612416998450e-01 -2.481896769394379421e-01 -1.438524796382715021e+00
-1.139596678880272052e+00 -7.721158558444719544e-01 -1.176219636726772988e+00 -5.911812204253857894e-01 2.177692533018138477e-02 1.194869066519058221e+00 9.276818268288744562e-03 1.155471771773376677e+00 -3.917632137591813279e-01
1.383110004736337606e+00 1.629141115363871295e-01 5.263408096073980413e-01 1.101040683937638764e+00 1.642626632484833760e-02 5.890086601905044628e-01 1.311550505046389814e+00 -4.994904033388971598e-01 1.106785388716692742e+00
-1.444169440635394874e+00 -1.069414076569275007e-02 -2.406089178813342055e-02 -5.917170777464424436e-01 -8.361150426483398013e-01 -6.394905612770762637e-01 -4.348613155345704140e-02 4.184729667382903751e-01 -7.445245520698338115e-01
-5.785744811372642848e-01 -5.772238906663106350e-01 -3.069946024420875386e-01 7.129085203842472351e-01 7.783008601075470656e-01 1.443736357345231314e+00 -1.441773696278533023e+00 2.806686095454363761e-01 4.480309807381155363e-02
1.306960722113292173e+00 2.270352669408226554e-03 3.414908594030739986e-01 1.441172387992401660e+00 4.611259961998686041e-01 8.647079823679409971e-01 -6.867019905067583974e-01 -1.423563850695456656e+00 1.017419679927390685e+00
-6.756020239358681012e-01 -1.451634003044854015e+00 -3.102452727186008063e-01 1.927512954913882526e-01 3.404150908026359890e-02 3.771112463462753528e-01 1.216938591286225169e+00 -6.449331300946828938e-01 -1.448838164867386702e+00
-3.411483392558575245e-01 4.445937420819785491e-01 -4.764668276199253150e-01 -6.815531547017603664e-01 1.068887676130944264e+00 -1.967073188780898985e-02 1.025219677929755990e+00 1.420969823872800131e+00 -3.088119158675443066e-01
4.939894772996151762e-01 -6.150860372965061273e-02 6.922622104892047767e-01 -1.157075951137427783e+00 -3.209111374087831869e-01 -1.467316305463135295e+00 -1.440633079309925346e+00 9.214456444244645272e-02 -1.059552319795365349e+00
7.739425186509767407e-01 -1.027008863944658845e+00 -1.817875251839288220e-01 1.121420760287987761e+00 1.138603473956182111e+00 6.825371510152629106e-01 1.073665143783175457e+00 5.760453849170397156e-01 6.225332844637229135e-01
-9.417168826706283635e-01 1.250551191314952959e+00 -4.901137101115806693e-01 -7.549434478643014534e-01 -6.184103659753755755e-01 5.480547983259325129e-01 -4.212541140126241368e-01 2.996827155182154589e-01 2.557391327951851201e-01
