7.734398320179450281e-02 -1.113087222308860452e-01 4.885287875963740395e-02 -1.413356444343113506e-02 -1.725096414374319848e-02 2.006319610705396550e-01 1.307261017997420338e-01 1.493879006825369338e-01 4.105470710045979188e-01 1.551671578066675106e-01 -1.366912608183953881e-01 1.282488436527805253e-04 7.307068567985741669e-02 1.773277721215688885e-01 -6.473792243771542276e-02 1.200867803256964600e-01 6.428979017558181241e-02 1.597114898289365148e-01 4.841517929999941683e-03 7.565780146464300138e-02 5.171860482835823059e-02 8.201998342747165993e-02 -9.773967072284479862e-02 -1.109075664070187026e-02 1.694732825976408563e-01 1.283680858093759133e-02 1.382201396677459337e-01 8.094239483807205704e-02 -2.595215323228910465e-01 1.948895059489836323e-01 -8.262274769094343774e-02 2.396931607819487720e-01 -1.236946838454176106e-01 -1.064280783125810953e-01 -2.963253357588703854e-02 -2.339089012592543981e-01 -1.562081795539329021e-01 2.904789028145479124e-01 1.942411274701896506e-01 -4.857435735390386311e-02 3.013781039556511776e-01 2.758039139746070179e-01 2.065443220953071535e-01 3.890062177976004454e-02 -6.998097851573760464e-02 -8.833720394989150182e-02 1.327969753130756880e-01 -1.650010541940507836e-01
-2.183890688310667905e-01 -1.271673045253395307e-01 -2.247190699678503489e-01 1.052859709581454445e-02 -9.188997764098007226e-02 4.242140203289042344e-02 1.111784890851188479e-01 -2.873934121348445392e-02 3.742544146178082565e-02 9.989608217213657992e-02 2.097606876896529471e-01 1.288123413166910279e-02 -1.104295075234396767e-03 -1.222837366756108490e-01 -1.942039762909292255e-01 8.134188433847423794e-02 3.138445477173068543e-02 -9.918780694495971106e-02 -1.229319221480258961e-01 -1.853561971627788463e-01 -1.420655087653180937e-01 -3.478647997524642391e-03 -2.435566493223921547e-01 6.794102999814170818e-02 1.614185873737291055e-01 3.202887236316756536e-02 1.218408961566164322e-01 -2.135768399277988838e-01 -6.342506737951242313e-02 4.719761874930533119e-01 2.461041422381940735e-01 4.778348513372124295e-02 -1.378159522429282524e-01 9.122414380845933479e-02 -9.632966326127288814e-02 9.419768646207822560e-02 -6.829170614098899195e-02 4.674618084938830798e-02 -2.113844159162321656e-01 -6.688933508043759524e-02 3.495255711225354889e-02 -5.487767091682677761e-02 -1.978053351129219761e-01 3.229931570179939704e-01 9.710405347474998505e-02 1.479998402806944613e-01 1.539258985273594116e-01 1.350508744811581285e-01
-1.115024079880397034e-01 -3.097746659640990274e-02 3.777739679335745393e-01 1.037144046365560957e-01 1.249384481179740408e-02 -2.527760458255341458e-01 -2.021640880788628802e-01 1.105202452168755206e-01 1.551233255532764865e-01 5.883239867677393653e-02 1.150090740750244062e-01 1.166849601819494042e-01 3.384738472006146859e-01 -9.798011776359161207e-02 2.631206841677490860e-01 1.625212149945294005e-01 1.131781486688839267e-01 7.221482281955637905e-02 -1.104386708766984110e-01 -6.627531346100239140e-02 -3.327839255931281937e-01 -4.017126760525412815e-02 -1.052563521391272072e-01 6.289086024420771637e-02 -5.562393142142607605e-02 2.619032878188853886e-01 7.887432725129697730e-02 1.796180835778326546e-01 1.971764321742948065e-02 -3.570786267527563673e-01 -7.660489736547634876e-03 7.574779783764418184e-03 6.283092856370614543e-02 -2.170139696417263675e-01 2.492331884807007514e-01 1.304774485605056100e-01 -3.987101206435849504e-02 -2.661557765655829175e-02 -2.641993053171242181e-02 -5.375041194299612531e-03 2.068706720377940511e-01 -1.100889331623163131e-01 1.821763826722793134e-01 -3.816451009637566311e-02 -3.778365499061744903e-01 3.364101413415092057e-01 5.699245038911971567e-02 9.335788280563299402e-03
7.175898488423651522e-02 7.512112997865980080e-02 4.713849393009223593e-02 -1.117824955477101229e-01 -8.728342119591167569e-02 -1.111065975193268052e-01 1.668691835886327579e-01 -2.450454353268901458e-02 -6.972186139569483410e-02 2.788546184252068127e-01 -7.114436860869319257e-02 -5.704131059750445348e-03 -1.032878509489920937e-01 6.714982750036929682e-02 -6.519446946060848680e-02 2.478417161274940397e-02 2.847798491924989350e-01 2.859047921290291255e-02 -1.614425935512770749e-01 2.176475337157106615e-01 1.231925110071772078e-01 -1.100562860490900130e-01 -2.914738625789429702e-02 1.347882859464824001e-01 8.899029416921948321e-02 7.777228983957128194e-02 -3.514129253645756901e-01 -1.160458516518423078e-01 -1.353756012531156516e-01 -7.344393050674832835e-02 -1.046400633868162788e-01 1.115786044947572192e-01 3.564888707643099064e-04 1.907341458528853673e-01 1.529831155548228572e-01 2.632859260281913416e-01 1.243732439923944666e-01 -1.759604456950034784e-02 -7.776064543425620368e-02 3.398879024569574914e-01 4.498078494668469179e-02 8.691251325198287581e-02 3.455650411681725209e-02 3.542661031665184646e-01 8.491736985190451170e-02 -5.312683303266581974e-02 4.343541507108335947e-02 1.231095051645871158e-01
-8.667250705440519842e-02 -7.088407414850014798e-02 2.770794634887243091e-01 -3.499521059097995129e-02 2.734585188229045616e-01 -5.922440314033432934e-02 -1.700650105379478139e-01 -2.753730004022044153e-01 -2.197331061817127049e-02 4.420011727217544595e-02 -2.827353326458856286e-01 -1.889400703580931817e-01 -8.446507657507906774e-02 6.180977061245672421e-02 -1.641440993865130038e-02 8.297372073952702376e-02 5.294238990600712291e-02 -1.142877721080530762e-01 1.036575233955752684e-02 2.522011140362369688e-02 1.436502563290724399e-01 -2.434687916296060239e-01 4.801293976132167685e-02 7.575909321926303785e-03 -9.242252024153536916e-02 5.756560637068158792e-02 -4.003701527928048287e-02 3.318961616627197353e-02 1.737609218544001188e-01 -1.054606085423014789e-02 -3.970056468699811880e-01 -6.477764936582624394e-03 1.915225066420804534e-02 -2.066570010934079826e-01 -3.565970630313976958e-02 9.106953197151043677e-02 -2.665718170741807058e-01 -1.983039633262912438e-01 -4.951980904573938941e-02 -2.016578499248619372e-01 -1.410259530355540379e-02 -2.710688254436946151e-02 2.293848898002489450e-02 3.903317336303341323e-02 -3.618811297905051572e-02 1.277387732148507760e-01 7.477213728643768154e-02 9.686158701669143889e-02
1.044426289107883675e-02 -1.815070965245540180e-01 7.688231842196926145e-03 9.583052930710017625e-02 -5.092529852024101772e-02 3.642874646373000513e-01 1.192508225181557469e-01 1.892277502678376133e-01 4.000987342694562604e-02 6.900948765864432788e-02 1.564804672413263043e-01 1.194904739163428486e-01 -2.016613244347917611e-01 -5.271035951716784851e-02 -3.263938591276744489e-02 -9.486548380701786964e-02 -4.526915987630479414e-03 1.821485584700398008e-01 6.799119774899675672e-02 2.478147547701963771e-01 -2.062282000429061513e-01 1.754288431800360426e-02 1.826271903959195697e-01 -2.855948332803916467e-01 -8.261959455004672104e-02 -3.812735948251076423e-01 -1.305923063667487061e-01 -2.968113502336181542e-01 -3.388825788903684355e-01 -2.323966835861702718e-01 -1.090696891761497658e-02 1.696102155698990185e-02 8.744202164941344835e-02 4.856180713149858136e-02 -9.555190389864395839e-02 4.004978533286570469e-02 2.410350128711321871e-01 -3.829759429888868194e-02 -2.812744096792412288e-02 -4.892739744588253670e-02 -7.477359677222371326e-02 1.605355196717909161e-01 1.433183472315170126e-01 6.904286220189544132e-02 -2.857880961963092381e-01 3.429355614063752111e-01 9.222504168794153426e-03 -1.026067140888412971e-01
-1.522144290985900372e-01 5.201640596785617188e-02 -1.635477747598452769e-01 -6.402719587270228052e-02 -3.613470556669488576e-01 -6.148237185506952307e-02 -2.620265788070198082e-02 2.135041981948643253e-01 -1.124030275476865515e-01 -1.462094837263739899e-01 6.742873734850972356e-02 -7.419452324676580057e-02 1.498000765343343033e-01 -1.109231854360725605e-01 -6.037590258383557229e-02 -4.715758224243061236e-01 -2.521511409386997804e-01 3.073085948393878414e-02 -8.570213145015737055e-02 -1.815830092903212289e-01 -2.416697183378815617e-01 -2.173777124922090468e-03 5.941579375428873017e-02 -1.443204181297610134e-01 -1.613932879078577298e-01 8.356079244456186828e-02 9.833207404105144545e-02 -1.543631512675217865e-01 -6.726721861280027248e-02 2.997168739548941585e-02 2.861757507315668692e-01 1.089536639081502695e-01 8.963440405787757859e-02 1.684883035719432209e-01 2.059212689799359564e-01 1.411665551008519648e-01 -9.280424559383643190e-02 1.828329141436934712e-03 -1.329683334392077754e-01 -1.469082399131404759e-01 1.136423312696731025e-01 5.694073287962923835e-02 1.634259963122752790e-02 -1.346837295628827147e-01 -1.293314598729074782e-01 2.765827600451485901e-01 1.085071889092166647e-01 3.327395505759451338e-02
1.128208791782904785e-01 4.400202771772895177e-02 -1.522045120865790080e-01 1.564134475507665892e-02 6.500714951250548268e-02 2.151367504262396424e-01 2.927052075464725012e-01 1.001413003384048206e-01 2.367120603884294988e-02 3.097097350733745702e-01 1.225200363184315300e-01 8.238999874395296075e-02 -3.573635183493985290e-02 1.354168123210597041e-01 -2.533530047168151556e-01 -1.533278859239639302e-01 -5.868369024426424441e-02 -2.583312879666471371e-02 7.721161062008811971e-02 -2.396203151511906992e-01 7.719795021537581570e-02 2.357753687917040278e-02 -1.278081506639535680e-01 -3.753891238739734404e-02 -1.146592676259832778e-02 -1.682148901180315764e-02 2.840650749558594756e-01 6.576130550377459749e-02 8.337795045497076174e-02 2.324902309109259588e-02 5.850862389819835863e-02 -3.664551499589701056e-01 -5.033963023447617091e-02 -4.705304352654440803e-03 -2.042523601450766182e-02 -2.524595409977710148e-01 8.644202061825108363e-02 -1.354694619342501072e-01 -1.730273929888733464e-01 5.363745056123610938e-02 -7.382403584661288709e-02 -2.104686569884994529e-01 -8.255866209463480487e-02 2.055159658442647641e-01 3.624695020350779950e-01 7.487661390913827320e-02 9.028750230278920208e-02 -1.189593706184341459e-01
7.987914972208888520e-02 -5.019846627497522723e-02 -6.856943500082290921e-02 -8.975689540492456930e-02 -2.107791065716561052e-01 -8.544701892439807156e-02 1.390229572951066084e-01 -9.441368543992639806e-02 -8.766521336664152841e-02 -1.836218979054785871e-01 2.991896370267077901e-02 -1.908983533290151136e-01 -9.702040579756630867e-02 4.958823652894613770e-02 1.259369433076977240e-01 -6.037592113965203899e-02 1.894787635193327935e-01 1.754414760162264775e-01 1.052088112833730535e-02 -2.152638042159359111e-01 -5.088850927708077343e-02 -6.270586435332139996e-02 1.597687705424859772e-01 9.704246354851503442e-02 4.691043885780004502e-02 -1.549350906724615562e-01 9.596762635074397585e-02 2.522525349383816784e-02 5.846577766564959450e-02 -8.763357887832791404e-02 -3.900407220210165282e-01 -4.619275128371229389e-02 2.587048301376604353e-01 1.694916695327262635e-01 -8.424401262595496154e-02 2.240970964632030618e-02 1.839048433445375219e-01 2.409617814921314050e-01 3.814320456100993295e-02 1.134869746253926448e-01 -6.705967933689083171e-02 -2.696367515793139935e-01 -8.272964215127628917e-02 -5.640742063312227661e-02 1.455365002895802652e-03 -1.091845733694901122e-01 -2.512424185206204030e-01 -1.146707412761917705e-01
-3.932341996300858789e-01 7.351235293099636636e-02 -5.533090356457562309e-02 2.024084870818951831e-01 1.167436404041214265e-01 -1.800340830887535992e-01 -4.970460963218562012e-02 3.009117798540939318e-02 1.568432667217880827e-01 5.268576943733330881e-02 -1.294908480878294854e-01 4.724315626203010043e-02 -1.056184306724815836e-01 6.185897215187596831e-02 2.104630920885677825e-01 -3.129400264905032175e-02 1.306448894187324239e-01 -2.575782162744448545e-02 2.450051482049712681e-01 8.429747862457362406e-02 1.165504725378553944e-02 -5.699840031266626555e-02 5.765831649224033989e-02 -2.637370637064301304e-02 -1.337336165431111112e-01 7.742913723254592206e-02 -2.098835434800363775e-01 1.922137072550356429e-01 2.090290903593342575e-01 2.559691806664008973e-01 1.347645056835047525e-02 2.562503753618106117e-03 -8.303084025055967876e-02 1.178918277081205251e-01 8.557960449093822419e-02 -6.358257561740944530e-03 -6.023799169316972069e-02 2.346005930083382152e-02 -6.870582948337948179e-03 1.976444025060341073e-02 1.358745581058640739e-01 -4.867378153385459177e-02 7.372165678573520953e-02 -1.668318352573558705e-01 -4.511456973992538505e-02 1.356417959178059796e-01 -1.912441619211477928e-01 1.248195594350714893e-01
-1.605616603428874356e-01 6.980163686186463545e-02 -6.387989746399207192e-02 2.577851373373995711e-02 6.004791915952650133e-02 -2.329939424280817739e-01 1.246497712149481907e-01 -1.188662651010631149e-01 -2.829809965715244235e-01 -9.246310620507697253e-02 -1.324368195579084806e-01 1.943016389235019403e-01 1.852526987057463437e-01 -1.075253609152770212e-02 3.839086693936930028e-02 -1.228972308628601962e-01 -7.450978407509215029e-02 -1.801981025444194529e-01 2.122887971717031252e-01 -8.739040120983979087e-02 -1.294795455368075998e-01 -1.528905260704343239e-01 -2.547379322321958739e-01 1.838148676082836941e-01 -5.378470505891683184e-02 1.205748808852739468e-01 -1.603999272025873057e-01 -4.908468638191050559e-02 -2.934396743221277457e-02 -1.551908141039015643e-01 2.840873297209729476e-01 -1.754265971768352861e-01 -9.769927419871261842e-02 1.878564519407314726e-01 4.911720124052467579e-02 -1.296496257697334897e-01 -1.454956867138627596e-01 1.587368937640675631e-02 2.173858775814736105e-02 -3.500236366821379147e-02 1.131659612152677991e-02 7.965977099151244634e-02 -1.156678165608657216e-01 1.458057224353520864e-01 7.391772378660626738e-03 3.103065434560177138e-01 -2.305440374799586634e-01 -2.806233785621662369e-01
4.225010575371836163e-02 -1.462515814198105668e-01 -7.211143651328949522e-02 -2.446505259180465491e-02 1.103965875508419389e-02 1.397348136922406669e-01 -1.431969841654541498e-01 -4.666713340496161239e-02 -2.295719242661570583e-02 -7.615482714723978419e-02 2.822322400754757599e-01 1.258203981633763957e-01 -3.576125720712022144e-02 1.205248901131146938e-01 -1.450313535966747114e-01 -6.480759120550831642e-02 -9.664213921841791066e-02 -4.028736760242269260e-02 5.209570411450162308e-02 -4.920692137922687975e-02 -1.240047196818164776e-01 -7.129816719723014451e-02 -6.051316282282283299e-02 1.554716475729160108e-01 1.781695361733194871e-01 -2.239976402710789488e-02 3.407230753086454844e-01 -6.263553369421714923e-02 -1.047887367353310950e-01 -1.288870281028183240e-01 2.485354254575179722e-01 3.471138575896450668e-03 1.272938074140668729e-01 2.043749246488103521e-01 2.949352482267557363e-02 -2.344911037428742961e-01 -6.222543433968909243e-02 -2.356935190936178537e-01 1.169478853139305635e-01 -3.400107526398736535e-02 2.442382601609506265e-01 1.586954393772221222e-02 -9.902823464279138233e-02 1.286403922083382001e-01 -1.446795593651942491e-01 2.558469434195651537e-01 -1.390762188722398929e-01 1.552087821414347701e-01
3.876053829580720228e-02 -2.500705396081932541e-01 -1.683892503968053289e-01 1.637540540218826446e-01 5.529880427992958647e-02 2.108546613454316265e-01 -2.406095274876621053e-03 -1.001153285339672350e-01 9.421702619758200170e-02 -3.912984366859603713e-02 1.363360167717974358e-01 -2.332167307742867846e-01 2.692727637295092569e-01 1.246404259555646404e-01 3.474783335219254476e-02 -2.058415286537295386e-01 -2.732828919943574436e-02 -2.159165225011970904e-02 -1.157908616163907251e-01 -5.935216220312763968e-02 8.975356880298063222e-02 5.021830538994798143e-03 2.728293008439435785e-01 2.591528672818065315e-01 -2.631697012445755914e-03 -5.261688537607819849e-03 2.249391403360825187e-02 -1.164108869355375137e-01 4.287024282784899359e-02 6.814827062526418455e-02 -5.539570551373308727e-03 -2.817720883110714780e-01 -2.187112443315757104e-01 4.946114937049719135e-02 8.300902999662290727e-02 2.309949220985133000e-01 -2.947496956783580702e-01 8.391779418163415605e-02 -1.741887033294773623e-01 4.026611690122878784e-01 -1.325936157980299179e-01 1.524118959073456070e-01 7.463087348715223557e-02 1.226574282499353630e-01 1.213649088020671563e-01 1.274712586112019819e-01 -2.472756522914862365e-01 -1.727847075662631779e-03
-1.105690378289921061e-01 1.041723058676521096e-01 1.763686068265247486e-01 -5.189438576665726666e-02 -2.705796247212875483e-01 -1.635932503294485474e-01 3.154878168207009281e-01 1.453038606806852095e-01 -2.374678024087250594e-01 4.293532162401304114e-02 2.431253078523357147e-01 4.749021175865032751e-02 -1.652373423659670923e-02 -2.612232256584047230e-01 -3.063065327657572834e-02 -1.032990992154117771e-01 1.354217194549187098e-01 -3.515285653418219747e-01 4.569004186702996934e-02 9.343129049003145656e-03 2.065747968885460820e-02 2.194981896050911263e-02 3.955002252617879910e-02 -1.498225088939218394e-02 5.353796393445613144e-02 1.783696902508172255e-01 1.963656076696654665e-02 9.774136878559827601e-02 -3.649210447455913386e-01 -2.721488776096188736e-02 -1.161296306933827099e-01 -1.573873231894434011e-01 -1.182152479998919287e-01 1.225439096810515827e-01 5.338093420507589865e-02 4.174984368276091207e-02 -1.058839685186540973e-02 2.541516961470298153e-01 -1.937144129579567442e-01 -1.313133467170504443e-01 5.450235452983957785e-02 -9.621959632171579735e-02 -1.939858565220825559e-02 -1.149178472290484782e-01 -1.728690832136999672e-02 4.884431853072646046e-02 -2.063381482151959156e-01 -1.585784327645690106e-01
2.925821176005135027e-01 -4.961532117488307025e-02 2.304435939214858481e-02 4.873863173345171357e-02 2.740048014824703060e-01 -1.829665945368945390e-02 -2.106535790318829759e-01 1.648824999661453738e-01 4.440867301834133807e-02 1.893586212343087716e-01 1.464291194723021938e-01 6.578405609611863436e-02 -1.346480470218283654e-01 3.646212493732851889e-02 -1.515090971091731797e-01 1.374433996070907778e-02 -2.030732467656880258e-02 -1.706067428996044244e-02 9.350752623212865711e-02 -2.074942728776390521e-01 -2.165738533832163581e-01 7.235403542105586783e-02 7.644969023739929537e-02 2.581596998631247725e-02 -2.619386899848250017e-02 2.128779176090038749e-01 1.686998280271904405e-01 -1.809219770251652704e-01 2.112386006165224706e-02 -4.782816076668478661e-02 6.514414891493822135e-02 -4.621123161536150326e-02 -6.064577174680294003e-02 -1.186438046543424885e-01 -4.043016966783558042e-02 1.496752891465186891e-02 -1.682933720235361696e-01 1.324545357827050518e-01 -8.439089267086583024e-02 9.871953589086288061e-02 1.958442623459856202e-01 -3.783258995604053820e-02 -3.107157829418116801e-02 1.415280272969009490e-01 1.922534212290872568e-01 1.005566666322473268e-01 -1.225492377771822128e-01 -1.362987159124233738e-01
-3.321448011308646142e-02 -3.043213838282759348e-02 -1.734977255860551126e-01 1.382875909237947509e-01 -1.066106182708556442e-02 1.314573706129787134e-01 -4.447812521312021622e-02 -3.067131547878261810e-01 5.705479682242580591e-02 1.436819711448751868e-01 1.524384686131986973e-02 3.926246005779267939e-02 1.338563075097372601e-01 -7.005745199658086619e-02 3.092812459223452659e-02 1.350452619495780444e-02 -2.012324280436107726e-02 2.330595517877283307e-01 -3.074224083703220312e-01 1.642181355211878857e-01 2.695608467187915816e-02 -3.679324542919913676e-02 -1.529397933016553475e-02 -3.012278475499201302e-02 -9.592780038961079558e-02 1.265712812856365499e-01 -8.542737966990110454e-02 -7.113107205667407174e-02 2.504467610830481139e-02 -2.214230555430929115e-01 1.396390032650207391e-01 -6.116558224008972200e-02 1.499969511348598072e-01 -6.495968121507826598e-02 1.375212555910959866e-01 -1.182024962358905508e-03 3.289426285913156500e-02 -4.151612047931627081e-02 7.527767268325696870e-02 -3.161236967840017759e-02 4.409981137806393697e-02 -7.166089706901658529e-02 2.771941276774736104e-02 -2.984803928537270723e-01 6.696266860089217232e-02 -7.168006324843317900e-02 2.375782742647233325e-01 4.045224730553094450e-02
7.516832617289119500e-02 -1.665850649683727480e-01 2.529410227185049931e-02 1.674263297895451919e-01 -9.846913028255030453e-02 8.121022100722004311e-02 1.273824587434233824e-01 -8.227461592621107545e-02 -1.742218379506977610e-01 5.951260892020195092e-02 -1.276780183697060790e-02 -3.734531588966714943e-02 4.785375401396900485e-02 1.590555395889213242e-01 9.247725664588067607e-02 7.992741008290746296e-02 1.150387377862337884e-01 8.871695418072930717e-02 -6.019170387167400993e-02 4.161217292203637369e-02 -1.105975844205566994e-01 2.210906471199085288e-01 1.343741966895150575e-01 5.438952321476554774e-02 2.988450945915764878e-01 1.133128200851208633e-01 8.829229564812411668e-02 2.549191978029422337e-02 1.104251637791808793e-01 -6.163277974650988728e-02 -1.165158321489275228e-01 -2.558409525017822927e-01 5.453466375002993805e-02 -1.624326301520561400e-01 7.041629072447827542e-02 1.055673919651668180e-01 -1.243786717235407235e-01 2.486050682585284333e-01 -1.642967146571793768e-01 8.344072207879324465e-02 1.775214262948554833e-01 5.294213685233831179e-02 9.574710268734917817e-02 3.509576048403407755e-01 -1.352523437517496041e-01 -3.397190294159089380e-02 -5.012303439315360376e-02 2.497997735676861786e-01
1.259433573470005174e-01 3.468111075062929038e-01 1.328515367122958812e-01 -1.304857592810054479e-01 8.930926161578099653e-02 3.054099092541942007e-01 1.857807968629416329e-01 2.032366863171684301e-01 -1.948060513264343596e-01 1.473930622651146161e-01 -7.263052052670973535e-02 1.888477635000536115e-01 -7.525257585507333369e-02 -1.153036114570731019e-01 -6.475523687753629611e-03 4.464548569753147046e-03 -6.179394998744110190e-02 -3.454707228846782413e-02 -7.009157698145446203e-02 2.750130947268761838e-01 1.407426867968366024e-01 2.219879616482814400e-01 -5.545307436885865346e-04 1.602381548671682199e-01 -4.139070213680381277e-02 1.918208518260880735e-01 1.318932507101565343e-01 -4.831666276443745411e-02 1.682148915879404516e-01 3.490373668648982797e-02 9.395878143957239748e-02 -1.517122422030500462e-01 -1.401072052833723935e-02 -2.727874930460393310e-01 6.892476160167065186e-03 2.550623745589009062e-01 1.865008321783697132e-01 1.599358221620028608e-01 -5.554337256875487017e-02 1.283196988954425632e-01 -1.272861725247632914e-01 5.577650318392132073e-02 1.439870050410936055e-02 -1.378751458970462751e-01 9.074407074262080819e-02 8.559169939541691474e-02 4.525766879262084486e-02 -1.827217725233265533e-01
-6.968950636307670587e-02 -1.940558681537286334e-01 -9.855725138337687041e-02 -1.263020296018429744e-01 8.384798127623584174e-02 -4.919972356830482757e-02 2.171749716834917542e-03 -3.222478811909936791e-01 1.790002744577560978e-01 -1.230704226982634458e-01 -3.021248851544954331e-02 1.596821548783564082e-02 -3.435274880991143892e-02 5.633523839033361541e-03 -2.789845480609315365e-02 2.798863037163581424e-01 4.963155383582504299e-02 2.428785750043343794e-01 6.531528811414293034e-02 -1.906112963007564887e-01 5.116672565799403050e-03 -1.824339346936373341e-01 -4.640125350123547876e-01 9.961957861223535993e-02 4.937386028112455971e-02 1.135676564303604863e-01 -7.610302701053396623e-02 -1.111986917952464682e-01 1.383750630168820717e-01 7.840792860848006668e-03 1.938267670285836464e-01 -1.118447194145025941e-01 -1.518020266471256929e-01 5.894816324180367217e-02 -9.934037192922437476e-02 1.985678674740820257e-02 2.060891974289815742e-01 2.555856756639440092e-02 9.465211949644170009e-02 -2.102242964879492693e-01 3.058758439508273974e-01 -2.449274751069655531e-01 7.163935943270212381e-02 7.774454669829265752e-02 2.419361772719004211e-01 8.330485393916327308e-02 -3.589407370922387819e-01 6.809585935700430970e-02
-5.849102390459948175e-02 -9.121255370466138657e-02 -2.242737243373080502e-01 2.406734719707687153e-01 1.817507398486457870e-01 1.191965516397786445e-01 5.984387084534602275e-02 1.167755811935358712e-01 5.276882123336092828e-02 1.984992422597187112e-01 1.469466547131766110e-01 -1.135849978844590963e-01 7.161638600804598465e-02 -4.359899486383306266e-02 3.610801509502217788e-02 -6.491522466219185050e-02 -5.338445193640993514e-02 2.272722145573398134e-01 1.305290559973373288e-01 -3.811469361562015989e-01 4.337649555564357384e-02 -5.893715475263930359e-02 -2.063314411294064621e-01 -3.082700653970950160e-03 6.195190562500600684e-02 -6.088713439991465942e-02 -1.156148969088533207e-01 -2.321412886333023423e-02 -2.388969873876908845e-01 -6.607060214950591370e-02 -6.588911495919977379e-02 6.730117445302814805e-02 -1.080894666822617145e-01 9.210559751391436678e-02 2.666282934424421547e-01 -1.240594537210248649e-01 -3.897492667487909707e-02 -1.300572803451362225e-01 1.338188270010473059e-02 3.534071802469024998e-02 -5.496155939235676177e-03 -1.300572017971070651e-02 1.804419127839224646e-01 2.482299056457553180e-02 -2.555090028277193399e-03 -1.464257751600614790e-02 -1.885698264780043265e-02 -5.613751442956222554e-02
1.828232246227653734e-01 1.766416310391790423e-01 -1.187080165812247901e-01 1.817508044720005933e-01 6.271156757828671990e-02 -3.147135660985427297e-01 -1.033622386824423894e-01 -6.396325529934158982e-02 4.682518560859173437e-03 6.621613369868664667e-02 -1.150018734798043465e-02 -1.163662846397704453e-01 -1.339308948863973669e-01 -5.132118319477484841e-02 6.369701159467318352e-02 2.696492853844463244e-01 5.539061794497739111e-02 -1.249920077019712333e-02 -8.172358230706332216e-02 1.189582161159535301e-01 6.699580569164259244e-03 1.823005140313326694e-02 -3.237204371730097452e-01 4.323767869424430255e-02 -3.475567245666469351e-02 -7.434642476526516497e-02 -3.693984907275296159e-01 -5.060859539227732101e-02 3.597822648493934072e-02 -1.044652697662191709e-01 6.529045475849748481e-02 2.787712539167301606e-02 1.069606701447164132e-01 4.745325873138365319e-02 1.159559492173788814e-01 2.735033335262613829e-01 1.203578553109919402e-01 1.001315583638837936e-01 -2.964588667688908274e-02 -1.538764644581918917e-01 8.420609574991537449e-02 2.602590301557296606e-02 -9.712380570111692202e-02 -6.077874044072265752e-02 -1.942697765008752353e-02 -1.239796171098809241e-01 1.368974999677878834e-01 -2.933090487260506807e-01
-7.984045446457205264e-02 1.171598278181208361e-02 4.409717162589810169e-01 1.240119563040080475e-02 -7.146003491326620438e-02 -1.345640017364795327e-01 2.413124356523508457e-02 -1.059723087837431132e-01 -7.974452414539180689e-02 -1.137770544746617013e-01 8.678447034083433542e-02 5.715135920306613909e-02 -1.507931732881952480e-01 -1.724032933893081612e-02 -8.173826199882364141e-02 -1.203717499784380113e-01 1.464940333072292100e-01 4.060725000109445537e-02 1.628428017695269375e-02 -9.795925746509271531e-04 -1.482410764708254336e-01 -2.080791228662689785e-01 1.288902179326463227e-01 -1.725619426189864691e-01 6.839526627353427479e-02 -1.287685856155433295e-01 -1.959780336813439217e-01 -1.585092534173403456e-01 -1.272142246664276777e-01 -1.367207356151856901e-01 -5.511854369103126594e-02 -1.591667042827582257e-01 3.005597078199834932e-02 1.365268872173223402e-01 2.647024692699198045e-01 1.031165287105959005e-01 1.726227827694507555e-01 4.052659889417269123e-02 -2.546690677180756812e-01 -3.720139441405633657e-02 -1.528283203613385322e-01 -3.485281293461204855e-01 -3.171281865438843606e-03 -1.713001023792287691e-01 1.942190321159781297e-01 -4.751928528085049702e-02 -2.891786533014988891e-01 -4.468592704037388508e-02
1.293736477444023744e-02 2.256095592787230042e-01 -4.006961924525363067e-02 2.129437763010311874e-02 7.735189886817371574e-02 -5.968291205813205241e-02 3.010945751074215471e-01 -4.362616551480468646e-02 -2.255326720835210963e-01 -8.529956046243385159e-02 -1.166332522900273005e-01 1.241391873084856656e-01 1.244497004946623353e-01 -1.064466461350878704e-02 -1.160609303273555243e-01 -7.255865995624445099e-03 -6.980195383605947157e-02 -1.132223402773299692e-01 1.361766654638480456e-01 -1.257156035132119265e-01 1.704803591102690974e-01 7.829876271409579036e-02 -1.868569267250456620e-04 -1.255745145780685912e-01 -1.616638964309395909e-01 3.387270877978831862e-02 -2.761853683980072804e-01 -2.324481704409117055e-01 -1.257952702513525090e-01 -2.156435603297030545e-01 -1.052351101230127733e-02 4.113762573138293188e-01 -1.036825034668149015e-01 8.680586558398797892e-02 -1.166371111110550279e-01 8.354183644424767463e-02 -1.480594512150506248e-01 2.521697207777203603e-02 -3.603202192113857255e-02 -1.501688491819953009e-01 6.592140356885946295e-02 -5.279771809631157442e-01 -3.070291608049097523e-02 1.054162018010066787e-01 -3.232905683901263639e-03 4.975667690798642878e-02 -5.943941657961514941e-02 -4.712863114784492796e-02
6.730692173995861394e-02 2.875513856862665363e-01 6.167984739937935890e-02 3.826969388779173295e-03 2.384758958228553882e-01 -1.111783738719610976e-01 -3.472442867976673064e-02 -1.190233041465788011e-01 -1.308018558850181368e-01 5.048769036744456956e-02 -1.842948522556120405e-01 -3.104390641120375882e-01 3.356402825670995460e-02 -6.710211485161529654e-02 2.528856933020408038e-01 -1.216359772454973232e-01 7.637992818884367131e-03 -1.780742785156184949e-02 -3.029965429968307089e-01 1.372059399392001611e-01 6.033533937935895396e-03 1.337185500679851646e-01 3.781706810644762384e-02 6.972029017017786212e-02 -1.201101919810828589e-01 -3.230738116422229161e-02 -6.740581577359014420e-02 -1.528186183758132588e-01 -5.697310035595633954e-02 -1.868251303859138623e-01 2.768231700274139881e-02 2.106574533988942247e-02 1.376373948089669175e-01 1.102311485775063146e-02 -8.396635903365340381e-02 -1.145295786871468741e-01 -2.771854762106245595e-01 3.531571466834448891e-01 2.312583627137990427e-01 9.593070998284300432e-02 -3.383094514400387248e-02 7.004865893406818367e-02 1.539227916904161754e-02 2.337155039060931621e-03 2.318629571843034698e-01 9.291105720028610543e-03 -9.545674123339084605e-02 3.709178509339775692e-02
9.148962703972134125e-02 1.665407060106367243e-01 -1.639758584945736342e-01 4.729056763935759466e-01 3.842321655811681974e-02 -3.963955252328332096e-02 -2.039982544645687623e-01 1.104772993868269049e-01 2.880900922868634764e-02 1.062382767650035531e-01 1.121019779376122572e-01 3.124673304260468590e-02 -1.308328827344106271e-01 2.801745887058228537e-03 6.969516942593814018e-03 2.180511858430543293e-01 5.759474789044095877e-02 -9.883553565654031037e-02 8.301316470686560811e-02 -1.393686619745226202e-02 -4.787059014545793495e-02 4.548446071340642161e-02 6.941996978559028530e-02 -2.719352929417249154e-01 -7.523484848267285308e-02 -2.801825843963213353e-02 2.449645377947004821e-01 -2.313122249317554613e-01 -1.601120734540000812e-01 -2.118720119376880928e-02 -5.753841490370861789e-02 1.320288677213786732e-01 1.602823971532993039e-02 1.832204310564737315e-01 8.071735950843345053e-02 -9.458605799740596454e-02 -5.687303352852777702e-04 -3.188674262339002419e-01 2.425515610736264371e-01 -1.844176356158594085e-02 -4.521551606549602600e-03 -1.922332969165514369e-02 1.130446233955220287e-01 -4.373936165179960131e-03 -2.180194101479650537e-01 -1.831484721324417100e-02 2.259546898643580992e-01 -1.826972509963239663e-02
2.062411776923574469e-01 -2.070060082814682845e-02 -1.508168583632324145e-01 -1.988707525813004917e-01 -2.864276667768094753e-01 1.445726703062502061e-01 -1.092736838119344328e-01 1.318744553506835115e-01 -1.743895312658777508e-01 -1.591209794898326979e-01 -4.106433858770271172e-02 -6.492193797438050584e-02 -1.355032416991301114e-01 2.167253942733057825e-01 1.618046756949662324e-01 4.234283209525904756e-02 4.113198426380275385e-02 4.897712328073108162e-02 1.668540688981398901e-01 -7.745712842712557111e-02 -1.966055048024846208e-01 -1.448360937754620756e-02 -4.335950340420176019e-01 -1.205556386518651935e-01 1.911277702058866365e-02 1.007964079966335025e-01 -1.191457249450096796e-03 -7.867668179314003807e-02 3.557260943099828376e-02 2.797032062268155900e-02 -2.019817977116540875e-01 6.769425384026954429e-02 -1.805467814383947267e-01 -1.321223581518541079e-01 -3.906448013422430393e-02 2.142943531149076597e-01 -1.629748630705703527e-01 1.588918325092550377e-01 -1.327044942299530038e-02 2.313285406639334352e-02 8.977124939407370163e-02 1.453243655168774962e-01 4.327091313846728043e-02 1.643373250214014841e-02 -6.832136481393683014e-02 1.199280953755038071e-01 2.933850017273587074e-02 6.825853069189065370e-02
4.759978968721711307e-02 4.165548264835010339e-02 1.601909328672558933e-02 -4.057685504927283776e-02 -5.806538928450525466e-02 3.253914724810187953e-01 -2.039357132756676461e-01 -1.584589204209166102e-01 2.593297605567780884e-01 -1.117507204609147903e-01 -8.938859494878108325e-02 -3.001158181255736065e-02 1.458221809302882865e-01 2.164312548717745120e-03 -1.596171572277809980e-01 4.232185098664102002e-02 -2.981676660049605368e-02 1.142148581952063535e-01 3.083197931342928633e-01 4.070163333713395365e-02 1.237209989096238888e-01 -1.943343403314261308e-01 9.784483076756152198e-02 -9.551427095069657536e-02 2.054702991767862752e-01 7.481639805775788798e-02 5.761089046822340243e-02 8.286960075019660088e-02 2.833606762465252782e-01 -4.538925994315312629e-02 -1.227004994821576517e-01 -2.184946658448432000e-02 -1.200640055291254255e-01 2.256216718533829435e-02 -2.182022297984972242e-02 -6.710788643489207228e-02 2.136443029534926263e-02 -2.886508369442826738e-01 -2.292249099598069328e-01 -1.162160964711062561e-01 3.874688384323675128e-01 -7.581044259253380546e-02 5.323046554379422257e-02 -1.482461340270649353e-01 -2.121136524062190373e-02 -4.324283278071614639e-02 -1.737021666049222077e-02 -6.528001529808191705e-02
-7.521985979761326019e-03 -1.098008437482275584e-01 -2.438755535647440520e-01 2.466476784879935991e-01 -2.057432574136315584e-01 2.699410009750209671e-02 -1.494546837444482232e-02 -5.077618039380173837e-02 -1.553297540769765506e-01 1.100603225880519564e-01 -1.977231539098512625e-01 -7.037150498948289978e-02 -1.013375442335154863e-01 -1.126994886485759989e-01 1.435489704470021555e-01 6.670575159207835225e-02 1.856037857051642537e-01 -2.018186122298888385e-01 5.461909660376314951e-02 1.595518320949291247e-01 9.542480350842783010e-02 -3.671572293639211587e-02 1.114879929052588481e-01 -4.739176202704328128e-02 8.346153305658489396e-02 7.696480047952464210e-02 6.240651734504207293e-02 -1.841242041567630119e-02 2.108611992989325654e-02 6.145582498606340371e-03 -6.232161607594635666e-02 -1.862952383118657573e-01 1.315984738541829679e-01 2.198987479764699382e-01 1.269088479876421816e-01 -1.230888967777926390e-01 -1.539991742011290188e-01 1.773294984235465055e-01 3.763498054027469286e-01 -1.396938544585493991e-01 -3.290638621874570902e-01 -2.923353502531494258e-02 1.218626789306397618e-01 1.148408855816919309e-02 -1.285888622856866115e-01 3.218185054824556496e-02 -6.112735656046427990e-02 7.124917095961755265e-02
-1.201770885826910773e-01 -2.019730317571344618e-03 7.495525239825913399e-02 -1.479343954575115805e-01 1.817789653022212903e-02 1.882797559734299131e-02 3.311315702490758711e-02 8.417282760447016010e-03 8.732500144194779712e-02 1.908158936227435098e-01 -3.129921867117352319e-01 -8.181109499418889874e-02 2.736505358075076999e-01 -3.774069087947332646e-01 2.256365394555832626e-01 2.795339528497901571e-01 4.579829576873567509e-02 1.651990674635087919e-01 -3.432899809991789286e-02 -1.408954672572283913e-02 -8.009473872336518585e-02 1.013271146230371456e-01 1.053514990483239294e-01 -1.572746017625188397e-01 8.252839584867383005e-02 1.342680444055755484e-01 6.373646705943669666e-02 5.020743175125304270e-02 -1.955300330044708601e-01 5.088497512333717276e-02 1.851903735663437689e-01 -1.196117486187988910e-01 1.323514079302573476e-02 1.991869413505857889e-01 1.403671714496971534e-01 2.212239322651068929e-01 -2.038295271152101157e-02 5.183540455919372070e-01 8.470743080319162455e-02 -4.944199637018396182e-02 4.843178629797826457e-02 -1.714346881347426216e-02 -4.645294873565300464e-02 4.582799180169208619e-02 -2.433706187927767717e-01 3.372278303823347118e-02 1.835006431949628633e-02 5.301167788381436208e-02
-6.421562962276564090e-02 -8.798454759780995060e-02 -4.263910080785237450e-02 -1.349495513734274288e-01 -4.522623737252103038e-02 -1.726395769352735976e-01 -3.747516964189320787e-02 -2.375865285951290207e-01 6.231072484517029275e-02 -8.279857742736911053e-02 -1.220455059320416924e-01 -6.490495278418671743e-02 2.546720328760745944e-01 -2.372501510880180298e-01 1.425513606600820327e-01 3.223325934170974405e-02 5.788370700307055028e-02 -3.609108464408608552e-02 -6.088849398766045529e-02 2.038822237047446528e-01 1.457884551235409942e-01 -1.645761399298173167e-01 -2.804072575632119424e-01 1.208379521478341878e-01 1.361923201242813408e-01 -5.176213777475782013e-02 2.245799476707545372e-02 -8.416693976576572478e-02 -1.606709869401301560e-01 -2.007101434692022679e-01 5.161276990937459924e-03 -1.519121455382083791e-02 -9.115820767292488747e-02 2.118942904320324921e-02 2.357031956931285657e-02 -1.432419800005374326e-04 7.368646715194615560e-02 -7.005494108538568021e-02 -2.857297432248651625e-01 -2.277472591576590322e-01 -7.388583458654350566e-02 3.595167874101214828e-02 3.322057675188674897e-02 7.204143641910445983e-02 -1.962392095889557708e-01 -1.682023478930904647e-01 7.755966489458725188e-02 -8.655243970339586423e-02
-1.816823383546874171e-01 -1.800471182215188370e-01 1.591202867129948573e-01 3.434682558241776706e-01 5.857963558145098254e-02 -2.187889106185094135e-01 -1.002336311342654218e-01 4.983790162473348412e-02 -2.543947257320554045e-01 1.033976980927307429e-02 1.497827727730773606e-01 7.718957388984704071e-02 -1.935165175648842217e-01 -1.561518842897293702e-01 -6.954706726414930373e-02 1.547632780140644482e-01 2.683101518974410557e-02 1.144353639447542349e-02 -3.400607449123487225e-01 1.566355967686434425e-01 -1.258955121610495775e-01 -1.565352647624250124e-03 3.181079442603144958e-02 -1.270739992898792248e-02 -2.541044899921733324e-01 1.505689745075509678e-01 5.360757999361160514e-02 2.371385627358655879e-01 -1.876334211001534635e-01 -6.399899604061354275e-02 -1.269925108053193696e-01 1.922926345740800722e-02 -3.241550326075706701e-01 3.869743781219567042e-03 1.399966757570019760e-01 1.486107457386118269e-01 -1.493363816354232598e-01 -2.898856189073483747e-01 -2.307010007343469615e-01 1.581282909076384136e-01 2.413870402451365887e-03 -1.755793513785769699e-01 1.128543700106676706e-01 -3.046866320245614906e-02 1.418417663834613263e-01 -1.140561325454954866e-01 -1.482998243015249962e-01 1.217406738668365129e-01
2.288043771525377912e-01 6.075972872340500847e-02 4.389149320645919367e-02 2.982160368512166149e-01 2.272692934786794267e-02 1.282818143377832953e-01 -2.850998547808265005e-01 -2.071726046397306259e-02 3.012717485129139811e-02 -3.187375388297671031e-02 8.179362796663663948e-02 1.324617740603798929e-02 1.503500816432460085e-01 -1.401297904848889941e-01 1.471741122765253262e-01 -1.392563770368697613e-02 -3.419047978941637256e-01 -2.116450373731386305e-03 -1.342232504294647855e-01 -7.154823381058193765e-02 -2.119150289224664974e-01 -1.784622427751482998e-01 -5.078199576616938132e-02 -1.991204006875990640e-01 -3.212532495986827330e-01 -1.081400752523406852e-02 1.960088828161460628e-01 1.524313399382902778e-01 -8.475419237955958418e-02 -2.764563860072786344e-02 -2.647915093328469527e-01 1.085296384329050984e-01 1.753756016467356293e-01 -6.577475411215351342e-02 -2.662175120716107624e-01 4.547894779822918288e-02 -3.942525427447204911e-02 -8.350308238881527789e-02 -1.653651332427937548e-01 2.249745046609599730e-02 7.351829799123179784e-03 -3.749901475245763505e-02 -3.173478028615926705e-02 -2.208361120425595403e-01 6.217151941810949989e-02 -1.228760642443255807e-01 2.128724651717930905e-01 6.948507079387070129e-02
1.701922920185319765e-01 8.640392018385269213e-02 -1.991358796732498604e-01 1.169500550706817354e-01 -1.476261531843667540e-01 -9.223117322258282680e-02 1.883552840424843888e-01 1.386900928363880500e-02 3.378597291736067272e-03 -1.096931234782334008e-01 -1.007964303600591277e-01 1.416120293823276421e-01 -5.646152178840879374e-03 1.558363815663281193e-01 -1.031769893269336297e-01 2.183298905815523050e-01 -3.091061773460239137e-01 -3.789802470429391723e-02 3.603059967386064710e-01 8.224599402149954108e-02 1.495162292667502335e-01 8.558437619305972466e-02 -1.813659531373323919e-01 4.893516540502616807e-02 1.339111719688703128e-01 1.754136626807900889e-01 -2.515454494112792649e-01 1.740147598405540064e-01 -9.302277892998733755e-02 1.667955130542528308e-01 -1.197551494705813291e-01 -3.510664655523235145e-01 -8.048138721504290161e-02 -6.272983671909709846e-02 -1.278078552075446461e-01 -4.103920628256382264e-01 -9.728750354734533312e-02 -5.686382698739127911e-02 1.964351917616870280e-01 3.062005493430886450e-03 5.908357797550500834e-02 -1.630462775993863495e-02 8.340207456293954880e-02 2.709382781821102759e-02 -1.790916831229938944e-01 -2.049958838210470466e-02 -1.119362991152162562e-02 -3.668474393676937617e-02
2.370080707995380481e-02 -2.110138413283107681e-02 8.543857714099829803e-02 -8.872935693486770636e-02 2.746353462845341764e-01 6.565897947388249500e-02 1.136783237347831904e-01 -2.312114361322185618e-01 1.009476931409571399e-01 -2.581375053026175315e-01 -1.193124780000150570e-01 -2.954805108606520792e-01 -1.738247672387692733e-01 1.930241187057231689e-01 -3.092910051000136162e-02 -7.843206322023660304e-02 -1.343174658132514077e-01 7.103921653464070896e-02 -6.412773844577669691e-02 -7.849157213684955503e-02 -1.472326936200490377e-01 6.143188878361950656e-02 -5.039079957923732478e-02 -2.470647053801155735e-01 1.668154348628879402e-01 6.014925112033930876e-02 1.226191156065972732e-01 5.338685032081440240e-02 -2.156609094147893813e-01 1.264427530824082345e-02 -5.933109678640416385e-02 -1.273854123241107417e-01 -3.457751390008691472e-01 -7.145485213157521179e-03 -1.108407009224623568e-01 1.644491362686508612e-02 3.202239484249309043e-01 5.591975060924496421e-02 -6.205523839945506492e-02 1.051299387785955414e-02 -6.101240632395461827e-02 -1.307757035761619724e-01 -4.107836302576488990e-02 1.295982922869919896e-01 3.660862232641937802e-02 4.203657729778711993e-02 8.987440741484156725e-02 1.231251812168965148e-01
