-5.969927310943603516e-01 -1.238511919975280762e+00 7.493202388286590576e-02 3.481626212596893311e-01 -8.277618885040283203e-02 -5.347870588302612305e-01 3.873565196990966797e-01 3.632848337292671204e-02 -8.932736515998840332e-02
3.806987702846527100e-01 9.629830718040466309e-01 -1.004537463188171387e+00 1.355947405099868774e-01 5.527297258377075195e-01 1.890421748161315918e+00 -1.102910757064819336e+00 -1.192434191703796387e+00 4.674322605133056641e-01
3.068569898605346680e-01 -1.038458049297332764e-01 -1.480973511934280396e-01 5.560353994369506836e-01 -3.612675070762634277e-01 -7.248117327690124512e-01 1.137432575225830078e+00 6.554302573204040527e-01 1.233339682221412659e-01
-1.334322690963745117e-01 -7.233167886734008789e-01 1.119652271270751953e+00 -2.031425014138221741e-02 1.230275869369506836e+00 -5.376284718513488770e-01 -1.706266701221466064e-01 -4.438790977001190186e-01 -5.109532475471496582e-01
-1.584901064634323120e-01 1.114092171192169189e-01 -2.281936645507812500e+00 -4.696272313594818115e-01 9.202475547790527344e-01 3.561378121376037598e-01 -1.935649514198303223e-01 -7.299177050590515137e-01 4.945934712886810303e-01
1.009443163871765137e+00 -1.485243320465087891e+00 6.050494313240051270e-01 -1.023854255676269531e+00 1.721852421760559082e+00 1.273062944412231445e+00 -5.959988236427307129e-01 -1.666970610618591309e+00 -1.900685392320156097e-02
-7.645766139030456543e-01 1.728978380560874939e-02 7.661347836256027222e-02 -9.296700358390808105e-01 -1.092595532536506653e-01 7.487162351608276367e-01 4.952755868434906006e-01 -6.589652895927429199e-01 2.211194038391113281e-01
-1.213827013969421387e+00 -6.339718699455261230e-01 -1.155769586563110352e+00 -1.941667795181274414e-01 -1.764361977577209473e+00 6.806938052177429199e-01 -1.903152763843536377e-01 -1.418872028589248657e-01 1.371568292379379272e-01
-1.691637933254241943e-01 -5.961433053016662598e-01 3.720996975898742676e-01 3.321267664432525635e-01 2.248857542872428894e-02 2.724559605121612549e-01 -1.064353585243225098e+00 -8.560371994972229004e-01 7.340073585510253906e-01
