-5.335853948828443022e-02 -1.652389791923344065e-01 1.405041298400287186e-01 -3.233610455505146059e-02 -1.919595729375334070e-02 1.788219615230605573e-03 7.287121030390497634e-02 4.785394406718416344e-02 2.653540089057708148e-02
-1.319683750213968831e-01 -8.355589290350089182e-02 3.713537113025736774e-02 4.706869165039284097e-01 3.591799445445779341e-03 -7.824252475941219018e-03 -4.593567237213841969e-01 9.202806954021509889e-02 1.177337999615318820e-01
-1.234702292161115739e-01 -9.722539869385456168e-02 1.178814480319131802e-01 -5.117737602109347916e-01 2.077580704598946948e-02 -3.577950163273250217e-01 -4.668738346002051370e-02 -6.582167782437586823e-03 1.402690842343124189e-01
-4.426475926124762150e-02 3.061438539871841336e-03 -2.772563249401725494e-01 -1.334408460875435576e-01 3.822191630004653090e-02 -5.874998254390259578e-02 -1.311459573561992997e-01 1.089646932862872869e-01 1.249645777608999475e-01
-3.844195651666482139e-02 5.358004883996988349e-02 -1.595208520702822430e-01 -1.079531559408444946e-01 -3.698945690567021494e-01 6.426532865473381755e-03 -1.660034891462337237e-01 1.133452132437879900e-01 3.183612649241093079e-02
8.203716340940019058e-02 3.414430128850117208e-01 -1.427611052658804558e-01 -1.370708982117926043e-02 -1.143775787308830560e-01 1.039901693572498481e-01 4.039032447637151968e-01 1.328274252210249751e-01 -2.252770606941867371e-02
6.606591674377160217e-03 3.261463582347460394e-02 1.196289974241414589e-01 -5.865106163028351721e-02 6.317324114973221771e-02 -9.186243616651075528e-02 -1.547673365811915724e-01 1.474670235409615004e-01 -4.718610358403102500e-01
2.797701808457986328e-02 -9.490768273419014633e-02 -7.136829982676555495e-02 4.653613716816411561e-01 1.105589904783210731e-02 -1.769362351292035063e-01 -8.413592565087295305e-02 1.184482797337983867e-01 -2.347953583338380779e-01
-5.129055225004094248e-02 -6.825715809838679704e-02 -1.630008262503792604e-01 -1.501512418616589850e-01 -8.708842529583316061e-02 -1.322236622658785610e-01 1.512347685624876314e-01 -3.255654877810321146e-02 -1.630105778025827679e-01
-3.681622055968761936e-02 1.921253773967912526e-02 1.364010144127842106e-01 8.488445394335535077e-02 1.212358468696587144e-01 1.326183076969274233e-01 8.013220215039806860e-03 1.313310849984785367e-01 -1.338029956795458719e-01
-3.323555641677774369e-02 1.083266541434813046e-01 -1.039765474298780107e-01 -1.526818090883690360e-01 4.927620391772136177e-02 -2.833205272342568248e-01 -1.401770165626375908e-01 -9.129906066328608016e-02 5.605893657581203365e-02
2.780004256590667411e-01 9.895661111941030097e-02 9.401461597593448183e-02 -2.877730772532775469e-02 8.538648754216464354e-02 -4.921168113827905088e-01 -2.607254533730829493e-02 4.078843009609715020e-01 -3.182717617021305848e-03
1.560082521721365689e-01 -9.272142436595945739e-03 7.017696151672592197e-02 1.049676906835738804e-01 6.797396204207206694e-02 8.146584038765292135e-02 1.544262878463595889e-01 -5.011659253922325918e-01 1.759971524442938140e-02
5.709022687933170553e-02 -1.169012483629617849e-01 4.769219043084271803e-02 1.013585786359892521e-01 -1.000779021267738794e-01 1.379857920620991274e-01 -1.642040453605987382e-01 1.509646439749436908e-01 2.063441530375657515e-02
4.085924216260662933e-01 1.341052138932068150e-01 -1.171090327062754843e-01 4.744364327292549532e-02 -2.313405218206090186e-01 4.732207379095536570e-01 -9.563360617081444193e-02 3.886055490034982102e-02 -6.212335748581458011e-02
2.396862477057363702e-02 -1.669950897601975640e-02 -7.885008305708070264e-02 -1.407451673247973323e-01 1.458524798940049293e-02 1.243132692315092845e-02 5.855079106282076035e-02 -1.292953020958222954e-01 -1.559449666132950163e-01
-3.522612045303330497e-02 -7.298631073048023055e-02 3.059637249208695398e-01 8.507626097304106516e-02 3.341584342468525200e-03 2.394908294160136841e-01 -1.321236484826926183e-01 -2.082525609168698558e-03 -8.227575122868042989e-02
1.666097228481112913e-01 8.723618057784936208e-02 -1.168951343224785555e-01 8.144222202435198732e-02 8.863798013604647086e-02 -3.891238333713135239e-02 4.669013477915690546e-01 -9.354142645896786068e-02 -4.624730639372472835e-02
2.412612403865406832e-02 1.533252034293493271e-01 6.295931825403781879e-02 1.327777890460102306e-02 4.680804315108201274e-01 5.999952997110498572e-03 3.523664425984473492e-01 4.933659806790095630e-03 9.983602453019431444e-02
1.498609806866658678e-01 -7.323399634146232628e-02 -2.465499511454438686e-02 -1.212123248484216348e-01 7.493022065309092039e-02 1.403876071087239996e-02 -4.277529266020866500e-02 5.603012242445082336e-03 1.238691410082906480e-01
4.413159366575399728e-02 1.188273732676262684e-01 2.471366983318653079e-02 3.235191289452884339e-02 -4.237644997070392355e-02 -1.295318647300598147e-01 1.730694451350561769e-01 -6.223056524046199911e-05 -1.573373647905292882e-01
1.473323603529404779e-01 1.008977987354862521e-01 -1.324807668156537666e-01 1.292586785229773161e-01 -1.282166812591956084e-01 -2.820748543146086099e-02 -2.164069623394219641e-02 8.712560029914073745e-02 -8.757694236151043754e-02
-1.081902183606775897e-01 -3.281441522888354778e-01 -1.570054769085805768e-01 6.484850247609348639e-02 1.480462362102246965e-01 -1.289829240749355323e-02 -7.342734766713587824e-02 4.953546166727471056e-01 -1.299700274211149920e-01
1.568381890412265667e-01 2.535416113880813518e-02 6.698405129998745433e-02 1.430568103463951690e-01 1.242166918142585397e-01 4.595241505829864709e-02 3.624445958650276411e-01 4.306380949697836691e-01 -9.715366284778541306e-02
1.171080947913963194e-01 -9.870473914289286388e-02 2.601491681324915369e-03 9.074126415427412329e-02 -1.295114779736440680e-01 -1.600819957791610459e-02 3.416193190442007310e-02 -1.532347078471145707e-01 -4.296620411016734836e-02
-4.591576013670255023e-03 1.658251965330167499e-01 -1.312915444589955183e-01 3.808548936325939493e-02 -1.082699063810538681e-01 -4.958288788598720909e-01 3.261836674776766309e-03 1.224934483188097056e-01 -1.481492519921974449e-01
-8.974894253253766496e-02 5.020945471470567023e-01 3.807322788887327562e-03 -1.423189507440572876e-01 1.443626396079526232e-02 1.156487819881757834e-01 -8.072504976125172149e-02 1.223358032689222386e-01 -6.451062625893499991e-02
6.986537226514388799e-01 -3.798298177702907896e-01 -3.802733758234659311e-01 -9.262414805190037626e-02 3.634567270624067259e-02 3.943655713160295478e-02 9.485437853357236992e-02 1.452762664352598154e-01 4.063964128160624245e-02
-5.589332463956631081e-02 2.689891274745957461e-01 -1.270409993418238070e-01 -1.351374521980468757e-01 1.499250931802686981e-01 1.192580641196388652e-01 -1.563373510533415389e-01 -6.436093467210346475e-02 -7.890963690976278422e-02
-1.142866492443623816e-01 1.135912363257147728e-01 -1.381411737157543784e-01 1.595950934568876045e-01 8.838497947095973195e-02 -3.759741632245994225e-02 1.595064687042101470e-01 -1.022411398128683091e-01 4.877861404859725608e-02
-1.346405037327355059e-01 1.523299626444771793e-01 -2.014794659720900716e-01 -7.882702221964754674e-02 -4.264450135000282145e-03 -1.483240425639138771e-01 5.126745281946596400e-01 2.626871545557177279e-01 1.686079425243734164e-01
-1.139083377538049023e-02 -8.551017846584148263e-02 -5.418604006985192623e-01 7.741159282903024852e-02 -1.606969946342703404e-01 6.129054188220018906e-01 -1.008452144893784014e-01 1.488838419694273607e-01 9.093447216515478104e-02
8.265539176094701887e-03 3.321826311722486658e-02 -1.649867598208942521e-01 1.109941895538455459e-01 5.103313220115018867e-02 -9.373351291616054126e-02 2.949705549399221291e-02 -4.679098338497821863e-01 7.370409696687241219e-02
-6.744211723545030790e-02 1.040459943837526990e-01 -3.499721491635832127e-02 4.530294014518057022e-01 -1.393513351558386681e-01 1.202882970182126837e-01 9.350448726473814531e-02 6.750603976821600849e-02 -1.580537805033518650e-01
-6.741412323729541189e-02 7.092356700528142099e-02 1.583983241902696404e-01 1.312172408364409293e-02 1.317321080029260072e-01 -8.237770550895287883e-03 1.484323740925715951e-01 1.156729973632563552e-01 7.777913636800397150e-03
1.285439470965651053e-02 1.795834823652638426e-02 6.272479372122268249e-01 -2.099406472775863508e-01 5.548126644383792432e-03 1.372493636225161628e-01 2.477336199688980403e-02 -5.525801801921666895e-02 7.200801385434622837e-02
8.192495136139843481e-03 4.979186079690293282e-02 -8.262459463397615889e-02 -1.560520372502863795e-01 -2.301969179456664349e-02 -9.550390438476634436e-02 -3.277537871235323697e-01 -1.013613148574102896e-01 -1.587251421279113062e-01
-1.742083239238671408e-02 3.902273107573269589e-02 3.604786649289444256e-01 -2.586557221282477850e-02 1.101992168886546247e-01 -7.486757912594362019e-02 9.584416305212666298e-01 1.552862983814701503e-01 -3.091186554869311820e-01
1.546788105403138491e-01 -1.562010790842374985e-01 2.090015691885149796e-02 1.508397599057816453e-03 -1.897201354743245361e-01 -1.515768743372347405e-01 1.528368846925872715e-01 1.234935731199848785e-02 1.178492539520502591e-01
-3.969349563165177480e-02 -2.666312046034328628e-02 -4.151990506470052550e-02 1.677690155280142648e-02 -5.525100548000757422e-02 -1.214664580522070852e-01 -3.726079491769544120e-03 -8.628194537637035033e-02 -1.822065449296880191e-01
1.576542025666827218e-02 7.720328834426377906e-02 -4.628491458778789813e-02 1.445467363159131657e-01 2.194194220046709054e-01 5.213785340326941402e-03 -1.615467617035479253e-01 7.945151287074551927e-02 1.625882749141574768e-01
-4.522900621922602143e-02 -1.182214998274461887e-01 1.311211211454154091e-01 1.371882895566765015e-01 -1.494949997674939191e-01 1.129470691492548556e-01 1.583964212035500196e-01 1.297679397497797649e-01 3.811205804834457561e-02
-6.362259474702920692e-02 9.779300360299385264e-02 3.691614045630111085e-01 1.021703405181573904e-01 1.412496648640495234e-01 5.943407205939684607e-02 5.130266365360362096e-02 -1.600353074057162817e-01 -6.877828899200370827e-02
4.812282505091425300e-02 -1.636703856435628435e-02 5.200552665836223332e-01 -6.014466300408379679e-02 1.563671714919091793e-01 -1.550320187544538264e-01 -5.338770972866350162e-01 -7.336111191469454895e-02 -9.283870880017586202e-02
1.649406023895701569e-03 6.269969942224577764e-02 4.099735616471130578e-02 -1.529953259273890030e-03 1.595789716252889734e-01 1.565710669807058586e-01 -3.172665313409942650e-02 3.332919655814021720e-01 -3.536757553158553780e-02
-2.575822329784930795e-02 1.291378461754648654e-01 2.588038258707792832e-02 2.223149328197115970e-03 -1.216730770642789894e-01 7.568218952444998038e-02 -3.041179645796558348e-02 -2.263210109984664098e-01 2.889102645297303429e-02
-7.252829877540027670e-02 4.927600125166046313e-02 -2.759940646645038867e-02 1.784999978129235164e-03 -2.879216170569039515e-02 2.921481182896179529e-02 -1.568901057433712831e-01 2.815979481691248676e-01 7.789250627635702084e-02
3.694576438391709156e-02 -2.909682309919270349e-02 8.175748248271781649e-02 -3.466759174583674413e-02 1.045985818642747728e-01 -2.615773054566936096e-02 4.097984773060955876e-01 6.111652891127739018e-02 -8.751158919714967233e-02
1.214444430138007097e-01 -3.499023050332727980e-03 -1.742023661210249583e-02 -4.990578892575246450e-01 5.602344861243713225e-02 -1.126333698643939285e-01 1.405334957059564127e-01 -4.559350277857188161e-02 2.864888601383693348e-02
2.543881390652632038e-02 -3.372450764453497341e-01 6.596830929828782775e-02 8.283309116304453379e-02 1.482688390482634067e-01 -6.310877974065339131e-03 3.448911806126050278e-02 -1.239171153610777870e-01 1.041303649254498032e-01
-1.227910081970789297e-01 6.618760872819225149e-02 -5.151888292044622952e-01 -1.769670205325072796e-03 -3.276636823887409816e-02 -1.418186054832422903e-02 1.207782042927479926e-01 -1.156892065871353292e-01 -8.591822674342897148e-02
-6.232259818207238483e-02 2.414793926938108015e-04 1.883126668100530143e-01 -1.173677973704869010e-01 -8.865613163723931600e-02 -6.520193847552165252e-03 9.114591279363337684e-02 1.481314683959122913e-01 -8.282136928647310103e-02
-1.068744865835447450e-01 -4.085952592939338102e-01 8.374454226655052291e-02 5.004670755102066243e-02 3.420759555923828105e-02 -1.295478758567890354e-01 1.345162693648885854e-01 -3.883319518043978208e-02 -1.503798427087802703e-01
1.416946623586064213e-01 -1.325228470468905184e-01 7.600799443785029308e-02 -3.715366309448894094e-02 -4.898203180008774971e-01 -6.461127196887787860e-02 1.534711783588847134e-01 2.934763931397865178e-01 3.026412044799560788e-02
-4.997618778905858067e-02 -1.002281920806381149e-01 -6.123444614016796544e-02 3.947282553653172488e-02 -4.349955780815676493e-02 -3.488094307475342326e-02 -5.907662968932891889e-02 -5.875324942974150533e-01 1.462913200173014960e-01
5.152613269149660530e-02 -1.418040472688138730e-02 -8.677305395229943652e-02 1.627697521988359652e-01 -1.604218550784783093e-01 -1.860045335942258141e-02 -1.316759611570472721e-01 5.181158395223809526e-02 -3.176542063948476630e-02
-4.483315582992256076e-01 -1.956756999406879596e-02 -8.128949732150574092e-02 -1.418304633141825588e-01 8.044489973005454486e-02 -1.256571275879324878e-01 5.827519046082659804e-01 -1.289787170385044665e-05 -1.010530508061543119e-02
-4.418493115642281865e-01 -1.477851271202994532e-01 3.864708652204473793e-02 -6.025890205741343125e-02 -1.659647597271239061e-01 -4.723340662294838732e-01 9.604750099693641630e-02 -1.647557200571274361e-01 -3.227176263597216627e-02
-1.585475040647521539e-01 3.079325840761883981e-01 -1.659332934299060369e-01 -5.971930198153970089e-03 -1.082563676876996395e-01 -1.654028618873996936e-01 -6.549861827946801274e-02 -3.604100528125061317e-03 -1.635466455132212615e-01
-1.648654167587870756e-02 -4.652707985130440788e-02 4.182638300017245125e-01 -2.396843733237833882e-02 1.057486715695798996e-02 6.722637092970046302e-01 1.049264703432745832e-01 -2.336481688540792412e-02 -3.668797943710385562e-02
-6.911554936544157812e-02 -1.330719868132230754e-01 5.045072205805968268e-01 1.524433759815814193e-01 9.512782339276708299e-02 -4.823264841672169068e-01 -6.424275957281973259e-02 1.490877448113425985e-01 1.368943024663223651e-01
-4.692952908197104561e-02 1.541177477509643456e-01 1.524043056209243296e-01 6.388001975788552833e-02 1.190113043097670992e-01 -2.793125750637038274e-01 7.936026539528665338e-03 1.630470480088767535e-02 -7.587058008284357224e-02
-1.000604986078478253e-01 -1.043292575856823862e-01 -1.400627759574392395e-01 1.519874048899858554e-01 -3.138011963085360900e-01 2.878227097154401615e-01 -3.305520180736491037e-02 1.124609744325600208e-01 -3.832422365726780022e-02
8.100576832355969870e-02 8.209700228474521577e-02 -9.106842126503218726e-02 1.418646759755809450e-01 -1.420384773390946931e-01 1.648789557789638316e-01 2.537734923114102689e-02 -1.992666693571809589e-01 -1.395727062061696555e-01
-6.885767564004755545e-04 1.359308457653738422e-01 -5.987120916308111968e-02 1.024526564408950735e-01 -4.639059402219102846e-01 1.018775419897579165e-01 -1.934033539690083181e-02 -7.112733799262414003e-01 5.826807369356442603e-04
3.574875651378620761e-02 -4.289215999682294278e-02 -5.855460945922327104e-02 1.573715515633646866e-01 1.230237391711141576e-01 1.339609381876259719e-01 -5.647053172432862228e-02 -4.418352117019089809e-01 -4.229155369043867130e-01
-1.006252815484070667e-01 -1.093908295884951087e-01 -3.877815439719101143e-03 -5.089836468504675970e-01 -3.926353121183315947e-02 -9.996632974520547332e-02 -1.286970213084849546e-01 -2.318238570833024148e-02 -1.610392398009350412e-01
1.418890134311347750e-01 1.098686507282675001e-01 -8.028844655346216441e-02 2.689602908318136087e-01 -1.402877175317794045e-01 1.176555130039748515e-01 -1.841683125775269228e-02 2.234466914668968296e-01 -7.162719260505319430e-02
-3.272321352169798581e-01 9.637002194827264112e-02 9.085385740131775301e-02 3.787427978876662937e-01 -1.459749707045774336e-01 1.415723731805685059e-01 7.786162189663289879e-02 -1.529415635751636693e-01 -4.585977896633434796e-03
3.212232210760331691e-02 2.032938377076994388e-02 -4.094365692568491255e-02 -1.265143197431582989e-01 -5.489676359019516477e-02 -1.495214765233425780e-01 6.449617452900106677e-03 7.233432438608528026e-02 -1.679314333607184739e-02
-4.133569856621152061e-01 -7.361868630512120870e-02 3.141005312053216786e-02 -2.761333485825808245e-02 -1.051570430381241206e-01 7.774779910469642452e-02 -1.153678801676807780e-01 -1.233926476156362861e-01 -8.195956216494822144e-02
-1.558206622099622685e-02 1.983885423232690237e-01 2.575844805110983349e-01 -5.855753136204474435e-02 -1.563469646909196598e-01 1.391753166818728571e-01 1.104731649342405309e-01 -6.450883005137986181e-02 -1.195867207992569181e-01
9.487866622002889827e-02 -4.308574891080089314e-02 1.023728814113095548e-01 -1.923768742385741429e-02 5.392597420939515551e-02 -9.388982065336330673e-02 -5.022590313979025112e-02 8.527167003828521608e-02 1.177119190362223566e-01
6.185779981920114245e-02 3.757684418009266114e-02 1.490771221483407592e-02 -1.333263076679500891e-01 -1.024145732751945842e-01 -4.926039292197296852e-03 1.452383438213355749e-01 7.583303861938006651e-02 1.409596652874317846e-01
7.918641555010021982e-01 5.906992033391922359e-02 -7.813208046621622493e-02 4.370457929434234945e-02 -2.087646605158140559e-02 -9.075396092094616118e-02 -1.328778417385123589e-01 -4.518139249804328100e-02 7.638686556866107480e-02
7.728132588340334841e-02 -1.955504680733117506e-01 -1.436542432532480172e-02 1.065547278876317616e-01 1.585652187319257223e-01 7.998928826482069876e-02 1.522339965537829187e-01 1.478385836953734767e-01 -4.004473260422287961e-02
-1.009633043364358551e-01 1.454367991373496372e-01 -1.118504881562502468e-01 2.038515254187515599e-02 -3.778845185681082436e-02 1.652925293532725992e-01 1.325254476556963212e-01 -5.960436300559120854e-02 1.332425209467444083e-01
-2.066923192326745526e-02 -9.065054710803781279e-02 -1.661789318851211172e-01 1.361716696157611040e-02 -4.374668589617025649e-02 -1.180188290059348138e-01 1.134852554233928973e-01 6.260000486249467366e-01 -1.145468012677887115e-01
3.955634653976666804e-01 -6.163097188095163492e-01 -5.232463986622418878e-02 -1.476924289189893713e-01 5.742323334695906834e-01 1.266129007810029850e-01 1.787124710139024672e-02 9.859415023192830141e-02 4.780801226205352167e-02
1.355613622244159801e-02 -2.211207594008316683e-03 8.364159967959883257e-02 -2.590074161200539571e-02 -5.319411199152849351e-02 5.610697352530666371e-02 -1.382154391504823165e-01 -5.244020037051108085e-01 -1.978633392118996429e-02
1.491210209758531136e-02 5.100794162446167790e-02 1.330443759500678502e-01 2.278316074458341944e-02 8.280185569488711372e-02 -1.103654220324253553e-02 6.658666786556318058e-03 1.101315097131692761e-01 7.605818922559855200e-02
1.251454516126410121e-01 -1.543613629013914322e-02 -7.523877648485739755e-02 -2.295397964009623093e-01 -8.023808819058886321e-02 -5.136241793025916186e-02 -4.211016645115525647e-01 -2.685074318793704770e-02 -1.028716811462477149e-01
9.070883354920007691e-02 -9.535484973549934740e-02 4.631033734136797975e-01 -9.051859214447521840e-02 6.609322866874849101e-02 -3.252028154906795587e-02 2.192193855320649296e-02 -1.388570134599504957e-01 1.080612853011386765e-01
-6.085927490031813741e-02 6.555178741493768169e-02 -8.706786891734878686e-02 1.538864134979653908e-01 -7.646818452044124026e-02 -1.550232932697520327e-01 1.172412946624191432e-01 1.035305957133946658e-01 -1.395439295982508210e-01
-1.005161189801014182e-01 6.245605497789560173e-02 1.554295054513507024e-01 -7.421433061850586654e-02 -7.310377764078768159e-02 8.387620067582968186e-02 -2.789232811711322424e-01 -7.467544349830979034e-02 -1.444320593314366574e-01
-4.386908130084932189e-02 1.750052927326032791e-03 2.965616637737929565e-02 -1.167035969064671858e-01 3.697525426049427105e-02 1.432491026700847582e-02 -9.915454547644182715e-02 -6.640708015478291593e-02 -3.502753157945500545e-02
1.578442273502899951e-01 -5.374594658936989594e-02 2.273700520914101464e-02 -2.510892618835426915e-01 3.157737744150956871e-03 -1.163868673743523319e-01 -1.418149191208391280e-01 3.509695165149386842e-01 -1.590669659779291589e-01
-1.473104694017601801e-01 1.778153405860792291e-01 6.694362898719297128e-02 -6.193826611571021795e-02 9.357726028827895171e-02 -3.073553199999688457e-01 -8.947057795150981097e-02 -4.321863257876124020e-02 -1.236164305236454597e-01
-1.296963245655573527e-01 4.982297283783924252e-02 -1.165430580711178249e-01 3.581294962132186566e-02 -5.891259985578622960e-02 7.059680040678780744e-01 3.087243379511147093e-02 8.176476937676785406e-02 2.534205028077381530e-02
8.242342993956559838e-02 -1.535262771239458146e-01 -7.422768423526582282e-02 -1.501339972167239079e-01 -5.272205552796188632e-01 -7.291255687836806221e-02 1.369652722261678335e-01 1.238155103204658519e-01 2.115361331611272447e-02
9.491892425490640328e-02 6.622699766496904783e-02 8.145299308705844510e-02 2.548166584591404771e-02 -7.450883693671091212e-02 7.147476186538326282e-03 3.929124403409366972e-01 4.699059131516649113e-01 -4.400851170205939966e-01
1.249205764624193443e-01 5.405524594714986725e-02 -7.564352467052770645e-02 1.391909945800131332e-01 -1.480389666421770001e-01 5.523677049127970751e-01 -8.581290396760980765e-02 6.294494023818721917e-01 3.253170341721397379e-02
-1.553941491495323957e-01 4.086020894387729641e-01 -1.923448631559872670e-03 -3.466254185772557617e-01 7.611961754686087656e-02 1.255163605301153618e-01 1.446079032965308375e-02 -1.478792197090689486e-01 -4.612373477807048955e-02
-6.216681081434975026e-02 1.073791610145664599e-01 1.575670168311727737e-01 -8.613811602959113578e-02 -1.118574306333540297e-01 4.178357235099464800e-02 -2.758618172556285761e-02 5.866197503369959682e-02 -5.446526020503839050e-02
1.004879626091484263e-01 -1.300457584609749084e-01 -8.712944283268912737e-02 9.259206854841384171e-02 9.716208262605441348e-02 6.164301935697950180e-02 -5.587002963703809229e-03 4.592158785161021273e-01 -1.916682426449674683e-03
-4.754967045797061503e-02 7.490848888665901928e-02 -1.472629145241322879e-01 -1.458181773127546375e-03 1.473606027278890618e-01 -4.175887925435909365e-01 -9.677503701098733035e-02 -9.632246496984353534e-03 4.724757059159826605e-02
2.113806324061884290e-02 1.622953054164414863e-02 -1.207837542880779297e-01 1.054232002502917265e-01 -3.146521187608190134e-02 -1.306401848738361071e-01 -1.163211166170844413e-01 -7.409495591212548853e-03 3.092404420107049481e-02
9.191507055509558211e-02 3.768512537703953141e-02 -5.302351732468649909e-02 5.016108384863215974e-04 -1.223675181824444014e-01 -1.524562870270882164e-01 -1.904905808780323062e-01 1.579252962997048926e-01 8.887091654297374355e-02
5.102582214980899700e-02 -1.639792360279790084e-01 -6.890069228231943121e-02 1.298885085087847779e-01 4.341110423986819233e-01 -1.425853801509423258e-01 2.851365349806448957e-01 -1.427506932966695341e-01 6.910403836752984641e-02
2.415197732715730627e-01 4.841774755166938782e-02 1.016610256222113123e-01 -1.280848188242108112e-03 8.390357728311788332e-02 -5.171646757881217388e-02 2.374824468986314052e-02 -9.195682456692137741e-02 -8.109360059922365860e-02
1.592407175283105658e-01 2.390924251691265920e-02 -1.265943521184108578e-01 4.605552155764322531e-01 7.982464640790620791e-02 1.870255348272334972e-01 3.989464929231430895e-02 3.594353464289627015e-02 -8.089640111117986365e-02
1.515324629160685888e-02 7.803509550414584883e-02 -7.607383812853814320e-02 -1.458952741949388343e-01 3.324579805763260287e-01 -1.641244825762461501e-01 -8.856705677664293563e-02 -1.663134722930560694e-01 -4.751009029281642697e-03
-1.800581004350136280e-02 -3.102912145210117156e-01 3.622508204895517198e-02 3.266785008994079753e-01 -5.510244817085289265e-02 -3.400832769502259989e-02 6.639551255081665992e-02 1.657644451456052048e-01 8.906017567695834192e-02
-4.237763415150804652e-02 -9.590913274321311022e-02 -3.182216173842117302e-01 -4.770032099356580346e-02 -1.029853249729885123e-01 1.453106044457785906e-01 -5.254020210345403813e-02 -1.234582111044015412e-01 -1.175793324071734425e-01
-6.571393742091476975e-01 4.729704132831891172e-02 4.107396057022172364e-02 6.926107888242587218e-02 -5.451948624653302211e-02 -5.513125751413705533e-02 4.352230629704286619e-02 -1.554303158510202676e-01 1.509890585389774831e-01
-2.279999042429885492e-01 -9.280254119330319518e-02 1.123605592069408105e-01 4.973216971158711530e-02 -7.694190875616817304e-02 -4.997842598043703011e-01 -4.276171909416656008e-02 3.827468725280588208e-02 -1.271308050245338050e-01
1.289229310213555468e-01 -3.403194140593563954e-01 9.851737079723161834e-04 3.918088658011058094e-03 2.249833478395838957e-02 -4.374179749189067157e-01 1.488336867744756153e-01 6.945931613424112527e-02 7.216966630934318339e-02
1.147277168414415627e-01 3.156204883757588592e-02 -1.794359213303721723e-01 1.356310904757074276e-03 7.869370162804849300e-02 1.833619262438168640e-02 -1.173254744826409679e-01 -1.065606602721753254e-01 -1.277308635419422134e-01
6.078623892153330738e-02 -1.354517144663587580e-01 1.262618885092496868e-01 1.397573814709918982e-01 -8.936479758219058322e-02 3.388580694844878227e-02 -1.039967812648134871e-01 -1.338804208314346988e-01 5.768924140992914840e-02
-1.087411899859454766e-02 7.654850569414602124e-02 -4.167727084355792311e-01 -1.628094999316498370e-01 -1.194186710526628364e-01 1.022478252232651430e-01 1.397843572070350815e-01 -4.779805182045216427e-01 1.512288082400298495e-01
3.567068697737013627e-02 1.481032341835539778e-01 3.664995744675521999e-02 8.276972305676948138e-02 1.078970979621293597e-01 -1.320065048575553013e-01 -2.354938592397404218e-02 5.666550510845595051e-02 1.461628650046596922e-01
-1.542432857392105061e-01 7.220651066862671108e-02 1.458551308648721977e-02 3.376268212716034278e-01 -7.355892898713108086e-02 2.036393833299913678e-02 -4.364841818350101432e-01 1.449296568013352660e-01 -1.312132799784223314e-01
-4.931056043144399492e-02 8.393978774735555426e-02 -9.919854425739926818e-02 -4.266779256365030998e-02 3.750349981658431253e-01 -5.974131496314070144e-01 -1.474918143467300047e-01 3.538095152910217950e-02 4.691677118029464744e-01
9.726008117273110543e-02 -5.513871234923306552e-02 -4.041942867394691247e-02 5.651463550449135724e-03 -2.890571493480698084e-02 -1.444665047253647361e-01 -1.711581342080470414e-02 2.168124210490316450e-01 1.556716655941758898e-01
1.241316993488753573e-01 5.746415019438813609e-02 1.153628010404115917e-01 -8.818856101691467664e-02 1.488154782568621437e-01 6.032082384529403873e-02 -8.476280256947377190e-02 -1.491387575394572951e-01 -9.430843595766362497e-02
1.306750103066294522e-01 6.491563115457528177e-01 -4.475066296854379733e-02 -3.494180277699086012e-01 -3.633801923317258598e-01 6.398157008819537195e-01 6.205278791916653963e-02 -9.158431083916522553e-02 -6.099574670327120168e-02
1.547326420873988972e-01 -7.974766709915996621e-02 3.812014599403368287e-01 -6.934990168043204950e-02 8.652626770684028468e-02 -8.708345190227950727e-02 -1.103481490950726229e-01 1.028734598335491607e-01 5.758737590547165913e-02
1.050734874390328172e-01 2.362053031549480597e-01 7.634358143034254696e-02 1.416202186207710378e-01 1.546085181998561354e-02 1.034747850677047581e-01 1.810881824903842752e-02 1.434001274426249806e-01 5.678462295119370840e-01
-8.478313274422473456e-02 1.420222757649931555e-01 -5.736306869342397974e-01 7.115941334221558001e-02 1.142313772367838098e-01 -9.640906701252931199e-02 1.368602397617940669e-01 5.078235384750351411e-02 8.309102805929984015e-02
1.593107765034034173e-01 -8.400564889281166014e-02 5.251253322053162087e-02 5.813099979459409455e-02 1.292744218640362597e-02 1.090486011893891660e-02 -1.085364648990198438e-01 1.409779057601806829e-01 1.384521662031450717e-01
1.194106270212412085e-01 -3.528364820176578265e-01 -3.434702369489178730e-01 9.144094980445283127e-02 -2.602122002031988582e-02 4.446331295611364448e-02 2.955696996552551695e-03 -8.844852574762640529e-03 -8.337351306893474312e-02
-8.074270224795236650e-02 1.522278940631293376e-01 1.456645750045152121e-01 1.011281499326931038e-01 -1.324181297446007655e-01 -5.457602205537085555e-02 6.656833882592157192e-02 1.340372271402057169e-02 9.257775673095654245e-02
-4.332525698160320099e-02 -4.652210277763487063e-03 -6.268511553847566642e-02 -6.625555346184479333e-02 6.701909317744525474e-02 1.370787480079082854e-01 1.441775001055028982e-01 1.342699965432105069e-01 -7.560246880944365699e-04
3.462019334421721078e-02 -1.135466163458734162e-01 -5.119094428051688267e-02 -4.399683676794330367e-02 4.336827315195591614e-01 1.348637874725223951e-01 4.657638395772870782e-02 1.478673088438080263e-01 -1.038011943585578044e-02
4.581485123280844007e-01 -3.452940003983392264e-02 1.706203726809574217e-02 1.145902550900744776e-01 4.039380515599558935e-02 -9.264947338069029481e-02 1.506200730314498915e-01 8.383330291102879250e-02 8.588851089386650983e-02
-2.141338699012266481e-03 5.019038185536613822e-02 -2.243196663822048451e-02 -1.283329628231964781e-01 -3.480085777701479866e-01 6.015710075422886494e-02 5.874331980590552504e-02 1.189677026997918857e-01 -1.383044346484184339e-01
-2.108786816861703620e-02 -1.720400394512326334e-02 8.692256469329129320e-02 2.579491398544093150e-01 1.296962316073050790e-03 -1.153159452381696121e-01 -1.120425611800424798e-01 -1.927050960979781458e-03 -9.861940004656584435e-02
-5.547063680427966048e-02 6.408212533104251651e-02 7.209915113173925860e-03 9.557792387454311367e-02 3.930167396958009207e-02 6.215004398479554576e-02 1.562205263822084855e-01 -2.573514411891714149e-04 1.456879889125428373e-01
1.045317227291373136e-01 -1.291426745062958237e-01 -1.176997614292070171e-01 3.586527851777727149e-01 7.049710232340507254e-02 -1.281783708078046979e-01 -1.473765525868347137e-01 -1.316976021336653258e-01 1.112307145767565258e-01
9.550055115928915775e-03 -1.147383132669455713e-01 1.508965428170665202e-01 -1.538003153735244544e-01 1.134241283345923251e-01 -1.572422086407643527e-01 -6.161504447328828432e-02 7.266029565828320547e-02 -4.182952154130045036e-02
-1.174718734965150418e-01 7.584306873441311325e-02 -1.659493894712212592e-01 -1.090889809137657734e-01 1.506882275477283983e-01 -5.273249874695620093e-02 1.196955483287228360e-02 -8.023302345719855733e-02 -1.475553874880126404e-01
1.628237181214443330e-01 5.887101234737645017e-01 1.207712388081652738e-01 1.299107401861569755e-01 -1.061784559544703549e-01 -8.305326243377186834e-02 1.283756911611471374e-01 2.157830317350424923e-02 -6.421011357870409775e-02
1.637827485462505506e-01 -1.338484057455060217e-01 -2.829338217345611639e-02 -1.536275715509791417e-01 2.840899071925068187e-02 4.147085340397353437e-01 4.359118659608289363e-03 -1.434689686001978937e-01 1.261541139249678645e-01
-4.720538135957818571e-01 1.017889205122529256e-01 -1.594947087071087732e-01 1.494565743016270931e-01 1.146018915798836940e-01 -1.225379675791007789e-01 1.120609559074198652e-01 1.475526460474935186e-01 -1.143861241974855059e-01
-8.271687242086711578e-03 -9.600736338098882217e-02 -2.444260684014786245e-01 -5.078023828246384236e-02 3.611617620015346915e-03 6.434023321303646015e-02 1.217167191200846377e-01 -1.454926876626891907e-01 1.017057361594202042e-01
1.293219484821367116e-01 -1.114479880937459672e-01 1.607675911068987828e-01 -7.131664585058165862e-02 9.601130123702032726e-02 -3.202082416755087091e-01 -1.376631489438243927e-01 -1.461139835812232668e-01 -1.499933387235778959e-01
-5.943544661307117311e-02 -1.502292843363811359e-01 6.215081480160736943e-02 -7.722839053601286696e-02 -1.409459329696609864e-01 9.767210805394627160e-01 -1.293121937267969479e-01 4.668907314337341491e-02 -8.660325723618196581e-02
1.204942784411650730e-01 -1.506278306172887937e-01 -1.185628854332809734e-01 -1.649381330454855465e-01 4.331155255490415912e-01 -2.676209197931256334e-02 1.300866388173587407e-01 5.574175888876001933e-02 3.629721471474345318e-02
-6.160354262101711692e-02 -1.143044478511432427e-01 -7.946970932670136545e-01 1.620535892234460096e-01 3.001949196132939687e-02 1.216282964682523088e-01 1.122944118931725327e-01 -1.098871323833386510e-01 1.768953619212624727e-03
-1.386898410169539464e-01 -9.640422297858768086e-02 -7.033622805740435968e-02 -2.751320362287427643e-02 4.380508519687335151e-02 -1.134655377220746136e-01 5.122740834048877812e-02 -8.202905859080396322e-02 -1.051160733924916268e-02
-3.957468581260186746e-01 8.834989514915314590e-02 -2.164951370464911484e-01 1.647724038640368260e-01 -3.355235599365660182e-01 2.621552609938364031e-01 1.669967191995210334e-02 -1.999631286102439894e-03 4.877591496525354037e-02
-4.818470934153230578e-01 -3.853634755196623796e-01 1.356190736020038978e-01 6.807271666912129149e-02 -1.166362076644086726e-01 -9.654649495946480975e-02 -1.034970424801192612e-01 -9.477937997556162841e-02 9.414734962370889526e-02
1.425857256340759827e-01 5.382916428686964488e-02 -1.504386833804852719e-01 1.165565003125505344e-01 5.260462881085514741e-02 -3.602234517376868839e-01 1.046456394111136418e-01 -1.075366078629930860e-01 1.452960025949716349e-01
-5.433031694820178448e-02 -1.050142984415961857e-02 3.462687108341599984e-02 1.127256136315192697e-01 1.074589919855918757e-01 -1.172344584353921526e-01 -7.360324020833249048e-02 1.583508301434847498e-01 9.009751183858820400e-02
3.222533426999393130e-02 -1.306229709270808337e-01 -5.931876847014786597e-02 -5.319963111630304775e-01 -3.130342604680869112e-02 -7.813372244679195333e-02 -2.327469697870009346e-01 -1.577704874356726794e-01 -4.397910206539897698e-02
1.647986456629353391e-01 5.105167548795253030e-02 1.510385581743932948e-01 1.651635967366862079e-01 4.291982370129961977e-01 -1.280842850236292019e-01 5.845293351630854728e-01 3.160993809155412393e-01 1.345302227543925255e-01
-7.908187692171060601e-02 -4.712940980860429001e-03 1.104438213257974422e-02 1.221060083580564372e-02 -1.527314942472262349e-01 -5.436984527144606005e-02 3.994598381251445729e-01 -6.466588600179874746e-02 -8.639030358356407369e-02
2.697597037523131180e-01 -1.192993116170298490e-01 1.331184960562494524e-01 -1.368176244173321086e-02 7.180801149484457475e-03 1.008352819963965058e-01 3.830041231512248956e-02 4.309121514996513413e-01 9.797978064871326609e-02
1.340664852914893145e-02 9.858277990543314051e-02 1.378546119042297312e-02 1.622042405711381086e-01 3.978031606184138647e-01 -1.058976956590065299e-01 1.511036425332105970e-01 -1.226874360605905850e-01 -6.640693849099937873e-01
-1.651210221478125739e-01 1.097356649486374847e-01 -8.299324894688013543e-02 -1.783135134531497190e-01 -1.406459089613217861e-01 1.140472660887931894e-01 6.531920028630877617e-02 7.008843688937118621e-01 1.345074361006525498e-01
-3.817992333774947872e-02 1.609138600574493150e-01 -1.167038936592100090e-01 9.375029180529366457e-02 -1.228867822378706814e-01 -1.390019864393708671e-01 3.589884777615674483e-01 1.061818111847081941e-01 1.464968392645801532e-01
-6.319228689986416958e-02 1.590213922644038158e-01 6.207052613068716335e-02 -5.457990025958043834e-01 1.173437834435084454e-01 1.010326473532662944e-01 -3.565044669529797150e-01 -6.681289306120539173e-01 -8.581542626412476393e-02
-3.025132316056045045e-02 5.598953987155515927e-02 5.700885268859321453e-01 -6.350002713379736263e-02 -3.877989506280285492e-01 -5.156402648883273709e-02 -9.584483006199444322e-02 -1.074966417589663797e-01 8.177620308741802291e-02
-8.699123225788207847e-02 4.227441989078207230e-01 -7.410758847016056527e-02 2.229124397286249074e-02 6.415110573751425793e-02 -5.474959959690236383e-02 -4.917670943558934832e-02 4.041333382918140676e-02 -1.057684994685417629e-01
-1.230304659071940615e-01 1.632759356917930227e-01 -9.218310432541731991e-03 -7.336745822705714737e-02 -7.020526681871104742e-03 -5.593913145653680447e-02 -1.377470699245122721e-01 6.771968599139574496e-02 -1.535788767425018131e-01
-1.265317092794641385e-01 5.185839934582677641e-02 2.913526279733046065e-02 -3.774193278505185573e-02 -3.895109821293422647e-01 1.402226039195018925e-01 -8.750148206856085686e-02 6.786851489515870195e-02 1.444290661984961310e-01
1.353040170908280382e-01 -2.004000290993416741e-02 2.715246003934147501e-01 -6.573076153277652711e-01 6.003565269388740772e-02 3.046356497007252084e-02 8.369830827611879354e-02 8.268998321193188339e-02 -3.030380214034367192e-02
-8.947278567999961130e-02 5.514097561450789081e-02 -3.639365517545117279e-01 -1.464286763793269663e-01 1.289587607961671101e-01 1.347207302221855307e-01 -4.632239430562969107e-02 1.364246322962272551e-01 -9.808016911072922617e-02
-2.803823402306226398e-01 -1.506254893177833287e-01 1.125098061324861787e-01 3.211031652131283304e-02 5.431998091643856080e-02 7.115071445523683813e-02 8.069005246516562646e-02 -1.100757385209500533e-01 -1.052767919785898253e-02
6.120708550397698650e-02 -1.676789507221692621e-01 4.795649959020775732e-02 -6.320783472900319555e-02 -4.501918446735625468e-02 -1.370923844921842216e-01 -1.220279693106958961e-02 -9.891650575573092408e-02 1.084878481847529469e-01
1.303403167972373433e-01 8.376111578028466731e-02 -7.107139244688050195e-02 1.171808212670925470e-01 1.233030161502300520e-01 -1.637480816125621297e-01 1.369846458353242147e-01 5.027158408265643974e-01 1.142115474324454788e-01
1.457879699830826326e-01 -3.944058101183237769e-02 5.673034953465080354e-01 -2.072595599787492929e-02 -9.788600004634777363e-02 -4.805876385618685909e-01 1.496817575767630804e-01 2.400157284191810000e-02 -4.722990882962374570e-02
9.655793478086305281e-02 2.643973545569049399e-01 1.076903528213197792e-01 3.013453942606124092e-01 1.502395849040129294e-01 9.217745437289896759e-02 3.542024194058657205e-02 -1.038819542953027808e-01 -1.106162894443559336e-01
6.706169986562948715e-02 -4.625891611869677872e-02 1.519037912831870153e-02 -4.706460294526249033e-02 7.210056324925813442e-02 -8.828880619503620686e-02 -9.472396337041429082e-02 -1.169695593121670846e-01 -1.105881570904867078e-01
9.853175240275365010e-02 -9.420695528967881760e-02 5.912690342876029265e-02 4.467207628314643492e-02 4.241587599060852032e-01 -2.429635618413834575e-01 8.410982371145869774e-02 4.226450887503577919e-02 -1.282660891373814394e-01
3.652101298832510778e-02 -1.290244717140907049e-01 7.752835676062504178e-02 -4.073936613784834293e-02 -1.311695909272427019e-01 7.635037541067153655e-02 6.835302576015685368e-03 -8.870842990263190508e-02 -1.264548312953119591e-01
-8.046069789943528783e-02 -1.650980257921035310e-01 1.054673952593378622e-01 -1.521545767634941704e-01 -5.953669036252644091e-03 2.006925256314659733e-01 4.230213104596291518e-01 9.690041329461147879e-02 -1.479144627299437166e-02
1.320541556834791130e-01 -5.371345135485953298e-02 8.796264472006987134e-03 1.020479977933774762e-01 1.504059737375378347e-01 1.202289746625159611e-01 2.759127047470482652e-01 2.953146473900766789e-01 7.400118053324215850e-02
-1.067508274793107503e-01 4.815766417761434964e-02 1.045890978908892571e-01 -8.520837910464995613e-02 -4.098968190147404128e-02 -5.194494394190218856e-02 -7.534934946203775130e-02 5.161284772714868074e-01 9.577272581845419630e-02
-1.269440478196459665e-01 -1.495726827965060124e-01 1.411336520847648046e-01 5.522918062408758294e-02 -9.142403164355517031e-02 -1.019856355066324910e-01 5.189288695018949849e-01 1.264781253632686620e-01 1.054481581526579836e-01
-1.664104695781443710e-01 -1.152125946127636330e-01 1.333182349118683663e-01 1.434944704128971738e-01 7.717997219916920837e-02 1.232529692621382456e-01 1.226446103614498018e-02 1.521006250267532001e-01 -5.763459501232363197e-02
-6.819410689177018980e-03 1.043374522565308632e-01 -1.595128672524789570e-01 8.368113489068518263e-02 -4.427194598199383352e-02 1.571053953485650745e-01 1.069955617795489006e-01 8.435528893618764179e-02 -3.253506956850848453e-01
2.067722859973634628e-02 9.706306587285178089e-02 8.067404267138149343e-02 1.470904967231677907e-01 -1.295759413102366697e-01 2.861796250296070807e-02 1.621137369634343406e-01 -3.295259661410571694e-01 -1.360604425584348021e-01
-6.996809121499243667e-02 6.779039269080455732e-02 -1.637263199466348074e-01 -6.910898769452298307e-01 4.918575377940474086e-02 7.880134644463876459e-02 -1.812495016778358226e-01 3.244727604853755304e-02 6.040864729763432278e-02
1.057032487194745074e-02 9.608230570122340553e-02 -8.888466916503952320e-02 5.626350372168583552e-02 -1.435044024110693206e-01 -1.116956654331426463e-01 -2.357847479374690011e-02 1.456788154853396744e-01 -5.240497921842734996e-02
8.290429831069008604e-02 1.300975967041390347e-01 1.044559988954434360e-01 -3.715041943823608334e-02 -5.358920670102722099e-03 -4.231960178276494844e-02 1.137420145972208863e-01 -2.815196738285126801e-02 -3.219292362723876616e-02
-1.298226320557427371e-03 1.411751994714265657e-01 6.344475817583079547e-01 4.537643097026200500e-03 1.280956279486093231e-02 1.529826538911038536e-01 -1.612871696600959304e-03 7.097837017717845143e-02 4.784913827373703521e-01
-4.922537870137349003e-01 -4.329028100311216321e-02 -1.494800860167837808e-01 9.726566200567943188e-02 -1.001665012367985580e-01 1.146513194780199862e-01 -1.466605661451956533e-01 -3.138368381252476524e-04 7.157519611363800938e-02
-5.942900667202090093e-01 1.253552054092846590e-01 -4.584729082933033384e-01 1.441250801229069546e-02 3.407969086418405347e-02 1.237584704562405130e-01 7.155298277753930902e-01 -4.994383752148915528e-02 -3.843178144184885431e-02
-3.050878370348046251e-02 -7.838154581576328717e-03 -2.002340756445901079e-02 -1.458601604130833618e-01 -7.095352583479046238e-02 -1.515003690494136634e-01 -3.435736019671628561e-01 1.617725592506728816e-01 1.263020178323755703e-02
-1.064624952785903494e-01 -1.231721801983209907e-02 -5.859255143274144650e-02 -1.039533614257723143e-01 -1.414808069133276225e-01 -1.268453187453761621e-01 2.867286430531375621e-02 8.865554900618540998e-03 -1.228783681152914448e-01
-1.274281421035484974e-01 1.730722589329843422e-02 -1.850326337655402997e-01 -1.365934700804512236e-01 -4.998782543603441653e-02 1.177609248464844133e-01 -1.361908301337015903e-01 -1.578667859202369239e-01 4.307135935551475447e-01
5.377002053181734187e-02 -5.298795149291068984e-02 1.135463438574620537e-01 1.168044299149131326e-01 1.202060414159707678e-02 4.879324125047936334e-01 -1.377455495479165126e-01 -1.253006239790107612e-01 -1.043208382241236354e+00
-8.812109564300459053e-02 9.279205837067983076e-02 -3.358016406511680207e-01 1.008283778346542175e-01 1.452884055663535567e-01 -1.472124592494300221e-01 -1.467462723636917543e-01 9.209529733793556452e-03 -4.015548199995143119e-01
1.181686385605858593e-03 -5.161407672141201004e-03 4.551122660008447562e-01 -1.360422918018164562e-01 5.798010626938202711e-02 1.276491588295976644e-03 2.185175012374081585e-02 -1.565513818291380532e-01 -5.098294578921900300e-01
-4.005179425651269609e-01 1.025707469025869817e-01 -1.161803861369839624e-01 -1.392285133678403397e-01 7.807487113269821755e-02 -1.524327511927899836e-01 1.263438130956887895e-01 -1.470261200475949381e-01 1.479008372276936489e-01
-5.673549832897102803e-03 -1.074801140047921821e-01 -6.886199936441310399e-02 -2.226860058634557230e-02 1.329867585922137885e-01 -7.762075744836675895e-02 6.780406599712278382e-02 1.309258523491986237e-01 6.405474879977042513e-02
1.112020076415924132e-02 -3.521592415583864044e-01 -3.721265339633074709e-01 1.516760431573987988e-01 2.921022938401588998e-01 -5.375781129520448148e-02 1.516089326264389581e-01 -1.392804161678981856e-01 6.869753703665122668e-02
1.202588958532223584e-01 1.578004606800275933e-01 7.927795893175404451e-02 -8.243791299147014418e-02 1.433403785005779030e-01 1.257749698747838429e-01 1.367830040250523072e-01 -1.775145307992409549e-02 1.601558823603359272e-01
-8.128964468766637641e-02 4.731501524433828765e-01 -7.785403988071866455e-02 3.824494249339090851e-02 -1.613066383289590011e-01 -1.026556841016808691e-01 1.301783372296969332e-01 2.157397327987337077e-01 -1.352033860006721967e-02
1.651336197130401640e-01 1.814345694045949031e-02 1.605293089534623185e-01 1.312598550586997481e-01 2.619493129945971166e-01 -3.812677863242460580e-02 -1.345432064062091759e-01 6.719289249504938055e-02 -1.015449701508748664e-01
-3.342526309817828722e-01 -1.450863891117367688e-01 -1.101457858816133478e-01 1.043947958286488148e-01 -4.880574465630875373e-03 6.607029461862183595e-02 -3.627396851130641059e-02 1.703623858805797253e-02 4.983244718622478059e-02
-3.170302906274798799e-02 1.195310313549258624e-01 4.660074100144395715e-02 -1.775020341865143625e-01 6.318615757228311647e-02 -4.838485057592933902e-02 8.236267035524480473e-02 1.915936513392995089e-01 6.507361554494189848e-01
7.319189207506631156e-01 -3.136961156556407615e-01 2.469392549082146671e-01 -2.842528341266198910e-01 -1.387388285677591815e-01 -3.238760405165326817e-01 -3.911531428359500857e-03 3.830742204454799099e-02 9.123508070038981177e-02
1.044463321522272475e-01 -8.832489180640346049e-02 1.041720027542146765e-01 9.765409218629739208e-02 1.663057857972834175e-01 1.580676839630647812e-01 -1.170521292851031542e-01 -8.174233440171770060e-02 -7.046768858190806395e-02
1.213906573467504330e-01 2.513268429046168762e-01 4.950670113175822257e-02 1.613248845524526409e-01 5.095923040036328538e-02 -3.860667979330448946e-02 -8.179446555931313423e-02 -1.656833478972126808e-02 -2.447069631089190261e-02
-1.414202808246922682e-02 3.818182912428164655e-01 5.143016203110187951e-02 9.916468221493431046e-02 -3.369848406615346542e-02 7.388818433470094142e-03 -5.297891470793403279e-02 -3.852585619019754937e-02 6.229717375029197868e-04
1.006327904658986389e-01 1.025652213519992473e-01 8.187096884217741344e-02 -7.123731332207532130e-02 -3.694999575351735205e-02 1.582152904614716749e-01 -9.287627548469405692e-02 -1.564624038593256106e-01 -8.737664139983476741e-02
1.316185102650080374e-01 2.125296455344088120e-01 1.150520553285161729e-01 -4.466885031902744219e-01 6.552629518684065235e-02 1.531043874148966567e-02 7.811748568621386390e-02 1.180679064112103854e-01 1.444284523950844779e-01
-3.787537677832006344e-01 1.227286478656589991e-01 -2.739347080716691973e-02 -1.243378064318625825e-01 -1.217854367643889102e-02 -6.158414331466163238e-01 2.219235496491689663e-01 -4.188609648594711077e-01 -8.853981150111629728e-02
2.596041862850540505e-01 1.165198052021644975e-01 -5.481036939969933380e-02 -8.589488739478183532e-02 6.998378539084744443e-02 9.704995526730225697e-02 1.123659035892402153e-01 -2.429401325845463866e-01 -2.008718702456557814e-03
-8.442658613219237995e-02 1.204369478014775813e-01 -5.889150257622007174e-03 -4.137508957298123846e-01 2.429337507244634931e-01 -9.983494370331362500e-02 -7.530988743899236226e-02 -1.967914831371257375e-02 7.286431743097805842e-03
1.061615031584130925e-01 6.213106827623356837e-02 6.376859010932189875e-02 1.245654438613484905e-01 -2.997236829283889126e-01 4.425242380387106600e-02 -1.464039218738711901e-01 -6.741854674757852273e-02 5.817405647098121690e-01
-4.426542252549841017e-01 -6.148123945410399749e-02 -5.018853580856742491e-01 -4.865564163522891894e-01 6.942821290916249832e-02 -6.336750455472717203e-02 -9.336140782428929696e-02 -1.500910560858390863e-01 -7.222496495203500899e-02
-5.062942061092892132e-01 -1.601942328955567596e-01 -1.570966574030659424e-01 -9.274715767236667296e-02 1.110333911971284476e-01 -1.071151135597296113e-02 -5.294283755469642028e-02 -1.462470607864717331e-01 -3.111822790587122703e-02
-1.447892318944666856e-01 -7.958078672490791206e-02 -1.499816102950593810e-01 5.150663713823062650e-01 4.778180870853251244e-02 1.190848076834922359e-01 -4.054979401667217070e-02 -7.093852021694187215e-02 1.697544593107950806e-01
-1.239233217589745806e-01 4.732903620022806818e-02 -2.811408004856197351e-02 1.225975790934351606e-01 1.584148632796128220e-01 1.713416783221204942e-01 2.597447886963618127e-02 8.269735989853455038e-02 6.132362286338240986e-01
1.970589972206615581e-02 -1.208796891793509215e-01 -1.416043051423591416e-02 -3.525804648683720458e-03 -1.522409997400894499e-01 -3.425073262439035093e-01 -7.924824735058937086e-02 8.619323016108708380e-02 -4.272501611876685507e-02
-1.011841100424254042e-01 9.384145407011738882e-02 -4.297672071714168235e-02 7.139033912566213058e-02 -6.879599284391794967e-02 4.384790504429016411e-01 -5.340764569748635004e-02 1.531567681639354472e-01 -8.886723863463261153e-02
-1.715636487372450281e-02 5.549362528329356697e-02 -8.992230420387122003e-02 3.897382671740875354e-02 4.619256805466968700e-03 9.372439748100291901e-02 1.489514696801561566e-01 -3.921381554269831593e-02 -1.572034820228166430e-01
1.301089593701625635e-01 -3.218348480368474901e-02 1.282266413624512102e-01 -3.736997003234943104e-02 -1.952573833249616753e-01 -1.123989153797545770e-02 -3.724180716558422310e-01 -8.507006508627883157e-02 -2.136992905301051127e-01
2.826431780427881083e-02 8.457528956951139432e-02 -1.423515005404910605e-01 3.500832907830860735e-02 -1.005512291149916332e-01 -1.048113727073825691e-01 -3.727530845865675152e-02 -1.047638821502334255e-01 7.552369420347948559e-02
7.847896951624204476e-02 -1.449469594781506443e-01 1.109331397862660662e-01 4.454515319850262944e-01 8.066238729636539262e-02 -7.932963016672829604e-02 -5.394928229788731322e-01 -1.670504335701135726e-02 -7.900949198573448129e-02
-1.441607972696434814e-05 -1.637171178639501568e-01 -3.420537593117392583e-01 -9.712112858757086797e-02 -3.720410341222168960e-03 8.124021293918788633e-02 -8.029490641807197904e-02 -1.495873398046719260e-01 -3.402084665811410114e-01
8.194643615297665662e-02 -1.162785289198411814e-01 1.047009481030834604e-01 8.441013850730706702e-02 -5.575402450581530278e-01 7.586830155507080786e-02 4.729537824773364929e-01 -1.515313598087066616e-01 -1.502018101711463383e-01
-1.576410162004799609e-01 1.412053637868498079e-01 1.086282295613800325e-01 1.551195163348428885e-01 2.580298583726259309e-01 -1.153899179725049046e-01 2.815806779797259685e-01 -5.782331758786988379e-02 -9.209684212848881849e-03
4.419986462225896501e-02 -1.047413319401840903e-01 1.527613012772695809e-02 -2.445714062881224841e-03 1.272207446232312134e-01 1.410167946047126419e-01 -9.749679249560154470e-02 9.546658344576649732e-03 3.671411671432588397e-01
1.000260651291578345e-01 -1.144985842173735779e-01 3.183723432899709938e-02 4.020547069019878572e-01 -7.788586176257090710e-01 1.499962141489024903e-01 -3.113392787047449331e-02 -7.287817118952315265e-02 -3.821937578381132822e-02
-5.352307440820958107e-02 7.946035922158222187e-01 1.376912016725329035e-01 -1.802007688096910962e-02 -2.683730802622001036e-03 -1.660816758143388305e-01 -2.094442445647000731e-02 -1.027417395290065594e-01 1.444301074775491134e-01
-3.739377177100412508e-01 7.545139215766105689e-02 -3.199274865668092632e-02 1.491974356035907778e-02 1.161118561593165871e-01 -1.505687033494007565e-02 9.145770396110981804e-02 -3.181233830689655928e-02 9.525725602667078906e-02
3.653653964682505167e-02 2.819112924220812388e-02 -8.125132037351065137e-03 1.091115856843845842e-02 -5.766200739792493035e-02 6.277810549348868119e-02 1.392735709591839954e-01 -7.788021884759514790e-02 -6.934851866028483858e-02
1.345097030809017102e-01 3.747169338080762468e-01 3.896045559018675858e-02 5.729242184006019117e-02 3.715153947615582736e-02 -1.291947112619085125e-02 1.584348524790620549e-01 -1.202557688890772969e-01 -1.725153973608367364e-01
-1.238972762885749840e-01 1.451014828370046084e-01 -3.619054791220753520e-02 1.537901865921542655e-01 -6.789522071452041008e-01 -9.705086423877133661e-02 -4.689314546494405267e-02 2.597576564557794662e-02 -1.049611561960068357e-01
-2.070955661723083985e-02 8.827933163443935083e-02 -4.882960933258254782e-02 -3.047721124295647496e-02 -1.386050705148172968e-01 3.966438632743041204e-01 3.976897346907403707e-01 -9.656031549089916233e-02 -4.444894908178380170e-03
-5.601350156227324906e-01 1.250084674305389915e-02 -1.343403095016122428e-01 -1.003813402316724862e-01 -5.359761703190375932e-03 4.181873998879351989e-02 1.828671384785417464e-01 -3.083790447422622358e-02 -1.299594741452734237e-01
4.412395633663238753e-02 -8.195125076046767820e-02 3.623644397448363280e-02 -7.653343533811111932e-02 -7.559078590366763439e-02 -9.184759130136796457e-02 -6.158844820358546635e-01 -5.986794045816279386e-02 7.302464365619687481e-02
1.515461341117143312e-01 -2.516474340189274184e-01 -5.641826940448591010e-02 -1.482663407815704437e-01 3.678000494565517725e-02 1.156512611409906376e-02 4.699799202310420837e-02 -3.806050899249791009e-03 3.576777992100388381e-02
-7.451810144469568804e-03 -1.494451481592255493e-01 4.610244409958197398e-02 5.533224535141182537e-02 -1.694639640556874216e-01 -7.845953417240843220e-02 4.901757613643145106e-01 3.182648263149608775e-02 1.673052364078349841e-01
9.622999396423885521e-02 4.471582008775706191e-02 -8.063365251931445613e-03 3.722462527773665736e-02 1.295976194896977240e-01 -1.074179729931523247e-01 1.742684340309057223e-01 -2.313188278345083490e-02 -1.767818077108649633e-01
-1.245856042390710156e-01 1.047942679487611217e-01 4.483559541744937954e-02 -9.897460486535410162e-02 -2.880662499188724190e-01 1.146161914795064546e-01 1.363398583923032259e-01 5.146445604782087097e-02 -1.279677821322757481e-01
4.531200892966996130e-01 3.521330167736556882e-02 -1.254229125666689315e-01 1.053876838363207308e-01 1.642202789147584330e-01 -6.055229334002817237e-02 7.217904988813306222e-02 3.040503494965643982e-01 -1.628675243728684163e-01
-1.450866336590827255e-01 -1.491195881627506992e-01 1.010481184098324103e-01 5.548803940595636863e-02 1.567780057935779514e-01 7.288997522528999351e-01 -9.323793488758632883e-03 1.941886816571184891e-03 -4.944571456929965775e-02
8.279940274388834787e-02 -3.871174314588973764e-01 5.842553152024557855e-02 -5.095780866791003311e-02 1.066051937140433115e-02 -4.896758715952875263e-01 -4.180142719219822472e-02 -2.623757748326608578e-03 -1.335865098603410406e-01
1.497975946290587557e-01 1.573337259615125439e-01 6.711749407674760803e-02 8.306113694434665018e-02 3.653151107589051177e-02 1.648270578928290597e-01 -3.422804254156905923e-01 1.659196745541504925e-01 -1.183517690747257767e-01
3.235190960048058700e-02 -1.510720571348209695e-01 5.440126501408004689e-02 1.014853714658938283e-01 -1.232136697241450474e-01 -8.283751719428948668e-02 -8.905383978405630174e-02 7.062928501293814776e-01 1.535236901213759830e-01
-1.115922252880868770e-01 1.489932603215326223e-01 1.235720739272813534e-01 2.663257410737445707e-01 3.617240564302603989e-02 5.198009235567088021e-02 -7.351610244671839822e-02 -1.372321517665357239e-02 7.248900181076563254e-02
4.759553223044346582e-01 2.673969976959289507e-02 -1.451749275293848784e-01 -1.175835001701667215e-01 -1.080888581787649433e-01 1.146442925577800809e-01 3.612756105734763468e-01 -7.123686234009385387e-02 -7.812640362453766862e-02
-1.362202115259203428e-01 3.979929267110556695e-02 1.639662037131235997e-02 4.396840862689438967e-01 1.359214968315299865e-01 1.372854547416033910e-01 -5.439800351090529063e-02 -1.151099203751839023e-01 3.211640831969430065e-01
1.176552712095041003e-01 1.193825021317226759e-01 -6.759219593937459969e-02 4.739111454602984441e-02 -1.164069758287589601e-01 8.704310666805230301e-02 -6.745984789500684975e-02 8.131695908008518270e-02 -5.730765279012709629e-02
3.287082367242814135e-02 -3.944798040966128183e-01 8.952791352329814156e-02 2.995871376158523725e-02 1.198668362609425914e-01 -6.140122153313831710e-02 2.381926499352448323e-01 -1.648799144425190377e-01 8.274136639592884201e-02
-4.221396181487516858e-02 -1.477767868142948471e-01 1.045948794810156075e-02 -1.495065362589700075e-01 3.595565105996554878e-01 1.649777121816764780e-01 4.861067963726691671e-02 -9.045247763115918729e-03 5.464970835039223429e-01
-4.588821541603452930e-02 1.584222113009012556e-01 1.546619485996532893e-02 -3.963084722901558804e-02 1.617300244912249149e-02 1.006308751744155322e-01 -6.305724172499198310e-02 -4.469508448730782207e-02 -2.822408266901039187e-01
-3.972835058439980749e-01 5.442322602731730630e-02 -7.528099919369764248e-02 4.213036981217443966e-01 -5.069174581845355826e-02 9.271403856149755540e-02 6.672831374681553740e-02 7.018300540739093318e-02 8.575731425578432265e-01
-1.306632539467425802e-01 5.410382802286346771e-02 -1.384730627013057713e-01 7.452819927074701145e-02 -1.501924760213584620e-01 3.681527441562719716e-01 4.622826706458638135e-02 4.096283078850693204e-02 6.934007206527374734e-02
9.434836302766251570e-02 -1.324331015175224946e-01 8.739973560721385482e-02 9.733748056982953478e-02 -1.087259166718318043e-01 -4.316179043635474666e-01 2.175030000803879204e-04 5.484224658516168027e-01 8.141664469495102363e-02
-6.754826319342521757e-02 -1.247721354906990293e-01 6.284496643657692949e-02 -1.732516157851704541e-02 8.769744133587493995e-02 -2.910368371703618562e-02 6.279030385040662576e-02 1.013695315053597251e-01 -1.126779932701036102e-01
6.478645158325646580e-01 8.534586364204932440e-02 2.247586297669169897e-01 4.328775215728243309e-01 6.111948178422495388e-03 1.529627355095282415e-01 1.358826557781540323e-01 3.367725174434806675e-03 6.667892274277660569e-02
1.294769123699529845e-01 1.590111998593737030e-01 1.075231703394819993e-01 -1.423093565726159769e-02 1.128306616169219428e-01 8.124805796277363712e-02 -5.276010719361726858e-02 5.425824165913010338e-02 -9.827406327779526773e-02
1.641218605615835935e-01 4.142861015222473048e-02 7.776644973882829159e-02 2.416206594122856984e-03 -4.880281558749797743e-01 -5.113871248551642434e-01 8.022130654982517761e-02 9.268047613733405854e-02 -7.294751898760092057e-02
-3.160442164874143200e-01 3.504664477089406982e-01 3.627516764083734552e-02 1.824980412207144465e-02 -2.339664990171389739e-03 -1.856943341619210486e-02 1.465831598066530683e-01 1.379011706417905270e-01 -1.086912379783585153e-01
-4.683771663251553030e-01 1.104358859250925279e-01 1.551853803803086296e-01 4.250035889433778635e-02 -1.316327235538657658e-01 -2.989655167159717686e-01 2.778454613490832781e-02 -4.472876248665724752e-02 -7.312311094191208105e-05
1.593264457270509860e-01 4.683757842046933906e-01 1.586994396205810010e-01 -1.988604301848745370e-01 -6.595263376158992663e-02 1.400153519866834950e-01 4.500493938338769317e-01 -6.167950603952857686e-02 1.114241475741398063e-01
-1.300476938972570384e-01 -8.504718001138722450e-03 1.310270069501015266e-01 4.972817822093726636e-02 1.121546029263188887e-01 1.955451206469457914e-02 -7.500207086182160421e-02 -1.122520760419414704e-01 -9.883443512065492875e-03
1.655142586472847233e-01 4.815288792186208505e-02 6.185672276931893782e-02 4.333780898410662941e-01 4.175769113417532319e-01 -1.516024405984039980e-01 1.079961775098315507e-01 -4.702813263605144511e-01 -3.401923984766218600e-01
1.556334153801196829e-01 -5.147192212463088529e-02 -3.399171732704012738e-01 2.732279000996211057e-02 2.913742885325869558e-01 -1.188155333386037987e-01 4.503496031470869410e-01 -8.123224157965347469e-02 1.231709625412141240e-01
5.360332938777795375e-01 3.489147483618996320e-02 -2.017311045933301017e-02 3.385672401004987536e-02 8.656279502844116402e-03 -1.499335513984199064e-01 4.239554303688674031e-01 4.563590051295687844e-02 -3.245085057849816934e-02
3.770808256765031258e-02 5.860329626280543630e-02 -1.587635713488983191e-01 3.814540554210700818e-01 1.327057215767546428e-01 -1.125384465686019020e-02 -7.854640280478630832e-02 1.095354281582253120e-02 -7.727151152586293759e-02
-1.419263798731595638e-01 -3.288813976620518775e-01 3.660903452010381282e-02 -8.304431346686551307e-02 3.762969262860500763e-02 3.899482359925787733e-02 -1.737226580743689297e-02 -1.122925366357233924e-02 1.390877897833131260e-01
-1.122304296795499923e-01 6.702670339246170894e-02 -1.181620360261694813e-01 7.075746729811396851e-02 1.420888589931216250e-01 -1.037174018273295806e-01 -6.276965927275357515e-02 -2.871563445127950365e-01 2.538743906045561050e-02
-1.055602892016741928e-01 1.174751117927734373e-01 4.123358715727761664e-02 -3.715061166175008811e-01 -1.659646789795426181e-01 -1.598802060677364523e-01 1.333547273357847118e-01 -2.955536187629067557e-01 -1.033516858839667457e-01
5.123587004676287693e-01 1.025872705403307883e-01 1.196063448748493352e-01 -1.588523647184019449e-01 -3.546169530556753102e-02 -4.035058023371380087e-01 -1.440038140743351847e-01 -5.346459138534631617e-02 2.407295853887732925e-03
3.178651736018335838e-01 4.627753063262396993e-01 -5.226020975506783239e-01 8.370212035339401335e-02 -1.542275521237090885e-01 1.486268530088904471e-01 2.038991179550719846e-02 1.062771558572290082e-01 -9.956977425815705107e-02
3.088967948117959939e-01 -6.439227518016140024e-03 -3.537004446137267250e-02 1.584339762881107339e-01 4.049474910035041203e-02 -1.623745010564233704e-01 -7.226081022785854624e-02 -1.378296186925832834e-01 1.551245205989412179e-01
-1.402179570981791912e-01 -6.352920097824366064e-02 -1.156618344813535176e-01 1.300540736677825715e-01 1.108792434710797609e-01 5.536754152071773905e-02 6.448286110313300457e-02 -4.454279430565092485e-02 -9.473569398051515100e-02
-1.266834863090028629e-01 -7.123805932797289131e-02 6.730190067092560284e-03 4.381854764919790313e-02 1.555706618893709925e-01 -2.731348107524327884e-01 -4.645013061716807279e-02 1.196053618064416568e-01 1.581966363576645662e-01
-2.542309170567947502e-02 -7.783781905701880888e-02 -7.347864212396575112e-02 -2.299869400644656905e-02 5.417051718613693362e-02 -8.081233948791628763e-02 -1.021271070330924263e-01 1.248301839756327247e-01 -1.406886597411648732e-01
1.388049955516863221e-01 -1.025310511972725297e-01 1.754877084577927404e-01 -8.989048707574782970e-02 5.841960435975734889e-02 -5.764848222080650592e-02 -1.180502055880575975e-02 9.122376172612689516e-03 -1.350158786721443738e-01
1.483840182733483226e-01 -4.468025199881530130e-01 -4.024633040468610923e-01 8.300669108382456585e-02 -1.238200378867437557e-01 8.018045102762665077e-02 1.295374639039091613e-01 -5.879699833091013295e-01 4.954474606759107225e-02
-5.249293230460955195e-01 -1.333918672125607718e-01 -1.589362135989882130e-01 -1.127844206557321316e-01 -5.478968111897033477e-01 3.055920459025711078e-01 -2.608949651005702461e-02 3.419684954866523269e-02 1.287766813847109892e-01
-7.193199486999413139e-02 -7.143847013920308527e-03 -6.058092909043896052e-02 -1.037460359758478196e-01 4.107299866397061683e-01 2.642958011493690140e-02 1.485935385515299301e-01 1.363782910426580841e-02 -1.522553342181593161e-01
5.723564430217426002e-01 2.532953573770435618e-01 1.503311754209854245e-01 8.760885439362368909e-02 4.500494904142689906e-02 7.790291164610807506e-01 -6.917027351281983261e-02 -3.759088857069816658e-01 2.054108501511552332e-01
1.222659694845070061e-01 5.671209704634775500e-02 -1.554227716741009013e-01 -2.079318965622337367e-01 -1.431702337890789767e-01 3.989151818890691176e-03 -8.804411980497270016e-03 -1.412213310622787432e-01 -4.170509686326479004e-01
3.647211094643754148e-02 2.548058931821916007e-01 -1.996323048500869834e-01 -1.097569707430916530e-01 -1.188093796337588604e+00 1.013409497606813786e-01 3.409558109006357446e-02 1.927602625737730516e-02 -1.310278125725716780e-02
-1.303316721104592901e-01 -5.031459626971424015e-02 4.541763680972987771e-02 1.237848406324591616e-01 1.153074692769969767e-01 -5.559806018529196876e-03 -3.052955579024859215e-02 4.829899207024016677e-02 4.950960500503553963e-02
7.876865456834820922e-02 -6.386608167515775425e-02 -3.198471113068035443e-02 -1.804480790782732672e-02 1.122000427616678814e-01 3.573313764918901181e-01 -1.607092741811471936e-01 -1.547708097361541191e-01 6.218257900269523741e-01
-1.380898945909318221e-01 6.440837403084502533e-02 8.947250088647788757e-02 -1.632315077345093401e-01 9.322253637600008691e-02 4.336300735965700065e-02 5.645705986653540981e-02 2.482696543408864989e-02 1.695809587191321466e-02
-1.959918325787476934e-01 1.099621887017631500e-01 1.303889616027935627e-01 -1.338840150822866448e-01 -1.347922764126484596e-01 1.360591867490635043e-01 1.344872523606429338e-01 -9.449413690292063350e-03 7.463909924204259472e-02
8.501941290541659146e-02 2.862805607020141307e-02 -1.190043414556030132e-01 -1.282500413976158347e-02 1.754846660512763001e-01 -5.734124679267060820e-02 -5.315009134970261062e-02 5.330766163933278179e-01 -6.322216982098549654e-02
1.000592527861316194e-01 -1.810987603933942314e-01 9.419605079101481607e-03 1.740777167427071115e-01 9.261951390015576990e-02 -2.535323785452501810e-01 3.060189917075010757e-01 -5.394685370442109384e-01 1.586124132602824421e-01
8.244251988659150043e-02 -7.518758646482903707e-02 1.251052071215001150e-02 1.518250320077096094e-01 -1.008008245404663911e-01 1.326907742582742189e-01 -1.379007998546040170e-01 -1.234417590845811839e-02 1.365374689717890888e-01
-5.374606023640836616e-01 6.115538934079097627e-02 -1.592862776116430457e-01 1.375704049067004997e-01 8.829146451859386235e-02 -2.307887471005502442e-02 -1.209135731059877150e-01 1.204944177256265930e-01 -2.479307336250484092e-02
-6.083788754351260319e-02 -3.077017389921817350e-02 9.272428099704506377e-02 -2.762955400502823886e-02 -1.354112064197414977e-01 -1.074523360117505266e-01 -1.221181278235446560e-01 1.590556565444617154e-01 7.045810589076795249e-02
-2.946059565698892421e-02 1.559536048660720986e-01 -1.016352789904666903e-01 -4.234775704307887634e-01 1.888984055362590564e-01 -1.501613936996549215e-01 -1.615623441644646607e-01 1.247084589061407262e-01 1.102602845255759023e-01
-1.043170926752314820e-01 -5.083746695539529542e-02 -1.091268375252753414e-01 -1.617888276153838234e-01 -2.535624392617290279e-02 1.006479111377706209e-01 -1.002022091418217214e-01 6.745484159131702462e-02 -1.354365177914510499e-01
3.041445781142656027e-02 3.272269552334019505e-01 -1.582771556672805391e-01 -1.083378511200207422e-01 -1.558725385395284269e-01 -3.693199991097295687e-03 3.362806830692414289e-02 6.756081457905264986e-02 1.518701133665222303e-01
-1.491759466877440043e-01 -7.729081298520754095e-02 -1.454994599841978598e-01 -1.152667004704185059e-02 1.785149022289539977e-01 -5.427117504699644629e-02 -1.597790168997904325e-01 -1.597289704374366959e-01 3.085257119279176050e-02
-4.717849903996381572e-02 1.435249290547495338e-01 -7.257923124437289097e-02 1.304172979578744895e-01 1.933443003850721098e-02 1.383136922006337512e-02 1.497059404922972126e-01 -1.729146262982998380e-02 2.699386305489540616e-01
-1.396729457998380219e-01 -4.696582029297787647e-02 -6.299960581778378532e-02 6.599760754291390807e-02 -7.287087754745127932e-02 9.871488706532671742e-02 4.764183693956713928e-02 9.977141459767484288e-02 6.335431502352979749e-02
-1.118022252364605507e-01 3.357523337836199051e-02 -2.419278909493607632e-01 1.081713861609857191e-01 1.601823351311887078e-01 -9.533005701769836637e-02 -8.697183297215360653e-02 7.898280417426555011e-02 -1.448035683282795916e-01
3.232130170340433845e-02 1.190050088249208632e-01 1.543116385390501943e-01 -8.379294788767817359e-02 -4.766244769704386375e-01 8.339047785010008859e-03 4.436741520107490011e-02 9.826284944956779899e-02 1.471086925721031557e-01
-3.135339514262180938e-02 1.556374695153589505e-01 8.521128954878220974e-02 -1.836906578652206523e-01 1.654232672657822423e-01 5.995291765858242611e-02 1.454418949103500058e-01 2.782938232238555895e-02 4.135670792185789368e-01
-3.088989595816541908e-02 8.639156973761093206e-02 -1.306849025121366824e-02 -3.749613477379808435e-01 1.434387428077918969e-01 -4.274171053916068219e-01 -1.579705133606500445e-01 -4.741494412941948955e-02 3.417692926289842698e-02
-8.468509183090529302e-02 2.384420609136923830e-01 1.376452015935773765e-01 1.208410087809456829e-01 9.543435351244462794e-02 -3.516386889637127533e-01 9.085038541598766670e-02 1.560740310959573274e-01 -1.321005890321422793e-01
-5.576252393595537704e-02 1.065506207254643262e-01 6.397381736740848091e-02 8.082209834894941991e-02 -8.367469594108238595e-02 -2.914852535758368293e-02 -1.202235982034962625e-01 -6.939290118189889167e-02 -6.413291147678190640e-02
-9.005003768087016525e-02 -2.952920734635785041e-02 -1.816715922306904041e-01 -3.453166528039849220e-02 -1.628248907774203225e-01 9.291287251007802894e-02 4.470476178897301450e-02 -1.652823527376151846e-01 1.452411829152586431e-01
1.443231389105190388e-01 1.033774634854993241e-01 1.304866593565138675e-03 1.566760389033022005e-01 -9.358066663633621274e-02 6.809847054824685886e-02 2.450873720329727057e-02 -2.933289651580088184e-02 3.716115739377766625e-01
-4.540925737197041290e-01 -1.164034777424758776e-01 1.009107215132086371e-01 -8.978119566989080369e-02 -8.741308962246226166e-02 9.361313297287128521e-02 -1.029696858260269049e-01 -1.584637840506069040e-01 -3.398779863359435716e-01
-9.862511385532346520e-02 8.605504572759910265e-02 -1.573021947666778109e-01 -1.599400934425706036e-02 -5.216432756788924596e-02 6.020177716852388450e-01 -2.505861775812924797e-01 -1.356406527594946898e-01 1.659871102371500984e-01
-5.509974919577568381e-02 1.061909708147783932e-01 2.619824788598281717e-01 -3.284203153314543128e-02 8.191662852967485087e-02 -5.519349222739074363e-03 5.936054035119608940e-01 5.693206292900539894e-02 1.507460791839677627e-01
1.214029755288944211e-02 3.788942322037350818e-01 -9.980663629110615720e-02 3.125780679212112473e-02 -1.586788760702522172e-01 -3.610266090144006318e-02 3.341543192934474243e-02 2.045640255839838439e-01 -4.936646040143048003e-02
-5.342046862565471427e-02 9.633992419777781535e-02 1.264468590491692190e-01 -3.254856853799993899e-01 9.640091244622284172e-03 1.010772003163133287e-01 -1.054839635030631745e-01 -1.665806038767145836e-01 -2.577773588736795851e-01
-5.878364198776564464e-02 -3.469202980316887230e-01 -1.108395715262893572e-01 3.571710561399617928e-02 3.946292694145817764e-02 -2.533582384900336382e-01 -5.794146697255105755e-02 1.045810215413251615e-01 1.026534747757246180e-01
-6.141952869426673539e-02 1.057097049331349875e-01 1.091930312014772753e-01 -5.696550588399810350e-02 -1.252419896982421565e-01 -1.259506073322053943e-01 -3.096846635433861961e-01 1.127102273091547674e-01 7.152704115571173471e-03
-9.012997961181694329e-02 -1.443974970169945859e-01 1.400716192945947736e-01 -3.607248511801201124e-02 4.067961649814330061e-01 7.382741598621885004e-02 -3.334118695642934171e-01 6.063893850522968781e-02 8.971275629294291065e-02
1.636201872691996420e-02 8.403835955769619823e-03 -1.259283773492271274e-01 -3.361079217612860104e-01 -1.596450188320747976e-01 -2.383730669158368731e-01 -5.059189046363506831e-02 1.183391684535873845e-01 1.424487176813072076e-01
-2.598173262667780592e-01 9.816596390197744604e-02 4.577538774062065580e-02 7.741232301070873068e-02 -7.615436352724121172e-02 -4.742919563152013795e-01 1.514393707959527102e-02 -1.493443728833713513e-01 -8.042714477774630388e-02
1.376057848315665744e-01 2.612169427915278508e-02 -7.144293469840545807e-02 -7.177643327218785618e-02 -9.107940804835401583e-02 1.457839831146763299e-01 -4.645759360306737223e-02 1.407189198843120971e-02 -1.119476188586719517e-01
4.527331681176568340e-02 8.544810224643535623e-02 -5.728042346333421797e-01 2.754956428932210932e-01 -1.384587064181756234e-02 -1.462827325460779315e-01 -6.686284731765575196e-02 -1.663355527637820075e-01 1.318629670103575735e-01
-1.656181995412437102e-01 1.838921456564721335e-01 -7.112115568797201803e-02 2.572553870012317390e-03 1.465534008291872470e-01 -1.771578726020491337e-02 -5.645102563554268288e-02 2.426971503353155327e-02 -3.028788225549916557e-02
-4.482981334961592262e-02 3.488619265327261854e-01 -9.557809515339910078e-02 5.825380784255751454e-01 -1.006343153149056729e-01 3.265422616509280201e-02 2.059310745263343012e-02 7.547112736863244298e-02 -1.540706166746957928e-01
1.421702627715941024e-03 9.193498894380318365e-02 -2.808264629511476596e-01 -2.379674937115092426e-01 -1.205849026855170952e-01 5.415274568676836653e-01 1.625274887918225497e-01 1.062342946726870380e-01 1.044540575112298669e-01
3.309227015228700663e-01 1.383601740834065896e-01 -5.515511623307556288e-02 -1.623209934754481498e-01 1.063943761416219908e-01 1.462067248177607581e-01 3.283557762711927092e-02 -8.482041210980324764e-02 5.872189776985200366e-02
3.907713871785206683e-01 -1.602519359391545717e-01 -1.518183954658459678e-01 1.036483850744962937e-01 1.428121659492691542e-01 -3.406036593423737019e-02 -1.253315756892320054e-01 -2.402690036539209262e-01 1.008752260755607644e-01
1.326543384058159747e-01 -2.859541485066152688e-02 -1.104547200274165197e-01 -1.077925717493422031e-02 -1.314021971273786338e-01 -4.141000529990217505e-01 1.050089772317714248e-01 -9.736626239932970328e-02 -1.159879967359854075e-01
6.815479105123034564e-03 6.880080728688313385e-02 6.805393469608796153e-02 1.045273621999683461e-01 5.685197948878913804e-02 -1.536965695043140678e-01 -1.322723165336005258e-01 -2.867291026324151823e-02 7.516826715758455346e-02
6.267610119089266074e-02 -2.051784158542727388e-01 6.196081944865006186e-02 -1.648490076285011041e-01 -1.502796962321939662e-02 1.283318263157000871e-01 6.226653350783158958e-01 1.471889022423985560e-01 -4.049130898358348496e-01
-2.708885974245115458e-01 5.358127270696903116e-02 -5.968808233962785703e-02 -3.938250362787638070e-01 2.423055173690399355e-01 4.015561292350591227e-01 -2.761447999411544615e-03 -2.592049588582482841e-02 4.639003781410181576e-02
2.720892461177887300e-01 -1.565999584402716638e-01 2.685529663692753921e-02 7.197334042353986661e-02 -1.450350400646317484e-01 -8.378475661974893463e-02 1.972403132430777806e-02 -7.895379314611121468e-02 8.139613188191711923e-02
-8.961383201191523706e-02 1.406261036114019591e-01 2.788557323383277220e-01 -1.904953247010783834e-01 -7.799404301207009393e-02 -2.394542770179175495e-02 1.537810790835931751e-01 4.426687514503609977e-01 -1.598230095915864624e-02
-5.151570568709554904e-02 -1.497350210262428927e-01 1.019037707818975375e-01 -1.276656480188764486e-01 -4.642242261119755020e-01 8.018721954687150003e-03 -4.071061230192496438e-02 -1.615136726379813314e-01 -2.848987302749356187e-01
1.327967140452524786e-01 -4.202137428046037737e-02 1.460896827860252711e-01 1.327386856768660549e-02 7.254131595977868219e-02 -3.252857348653860337e-01 -1.713794177539381194e-02 -3.024906889291023582e-02 1.115288093312559459e-01
5.315883022078971010e-04 4.248081963188906490e-02 -1.266590917190764110e-01 -4.203989217041485121e-02 1.400338473751242853e-02 1.545352191782706497e-01 -9.504875199675089092e-02 8.429193054364265969e-02 8.502722608913571012e-02
5.655370604616764135e-02 -2.520767112484875727e-01 7.751579184396591160e-02 -2.882102540053040896e-01 -3.137784050980785278e-02 8.679876746681791655e-02 4.036166076154583116e-01 -9.972572945407147671e-01 -1.661710317760707600e-01
8.624816845453515957e-02 -1.677664106890349241e-02 -5.666708274926638561e-02 1.148514561046474203e-01 -1.400747955269653344e-01 -1.929299608942726674e-01 2.233756853168777923e-02 7.794756401443696248e-02 1.616224949282998036e-01
4.625526112949064905e-01 1.150775032863625286e-01 -6.738092544244256299e-02 -5.806349258623148130e-02 6.887142701651723098e-02 -2.794105775428317173e-01 1.064304765696426208e-01 -3.048006299324099722e-01 4.038314941389274937e-01
-5.305334325681795304e-01 -4.523694418947103030e-02 -1.569523573072354461e-01 -1.219093815274115283e-01 1.422934713375281213e-01 -1.268844063935650468e-01 -6.110275859532608989e-01 9.959549507266567125e-02 1.573560794177684963e-01
-3.079010715496026049e-02 -9.670178283655231355e-02 -1.879171754697235922e-02 9.125336093205438370e-02 -1.249072974915202555e-01 1.400522582927155313e-01 1.213123797882223603e-01 1.492211211266458448e-01 -3.131256574856844388e-02
-1.507768069712924486e-01 1.022585537109585579e-01 1.450024827846569109e-01 3.175047856238640692e-02 -1.314286588166455882e-01 -8.757471802904732983e-02 -7.393332489612629288e-02 -1.152288273724496603e-01 -7.643808889116006366e-02
-8.419254663780695314e-02 -1.390840075407777654e-01 1.160342625031172137e-01 2.422978152408010177e-01 3.991549929679916175e-02 1.926834846135042634e-01 5.503302846656491498e-01 1.902154238215745807e-01 -1.654869065044746179e-01
2.609364029823990627e-02 -5.896034058124085542e-01 -3.358594074725529399e-02 -1.457063716042371893e-01 -6.218183450536592799e-02 -1.469114684666749382e-01 1.321390887411938164e-01 -7.368430515019086524e-02 1.490119736780657067e-01
-4.684542718804607375e-02 1.352353046962728733e-01 -4.688616820411428687e-02 -1.693504515089464257e-01 -3.640575168486744340e-01 1.404461972114969814e-01 -7.016025769595109207e-02 -4.898423185020239767e-02 -1.409785083955960305e-01
-1.272564407865353353e-01 -6.729366698598511498e-02 1.374369432884271214e-01 5.189413510355637277e-02 -3.445431836570034267e-02 -1.292811545717013379e-02 7.325643860238069405e-02 -3.365762141786421413e-02 3.713651702500885832e-01
-3.293158155803225379e-02 1.752859583628270657e-01 9.632927417285504224e-02 6.379155430070138078e-02 1.693902702300383867e-01 -1.473858776390831599e-02 -5.102226999262030604e-01 -5.495168485807463421e-01 -1.640192180776906677e-02
5.824029014748407368e-02 5.985727053516346624e-02 -3.660602678740687566e-02 1.564962389748435212e-01 -1.640698328860502320e-01 -6.406506301478691150e-03 -2.648454879095934467e-01 9.230489107088661604e-02 1.374732566124723387e-01
-1.184850001372836498e-01 -5.364348792411387512e-01 -2.726030208455453296e-01 4.035625133558087274e-01 -1.352325616275481222e-02 4.441945117307609103e-01 -8.486692918320544454e-02 -1.620618479412464508e-01 -1.303480316621934698e-01
-2.553678998980131176e-01 -8.257773456247341493e-03 -1.270208032278812571e-01 1.286521224755474702e-01 -1.146991533622473830e-01 2.173068487048637754e-01 -1.240985147250655007e-01 -1.432917501992420350e-01 6.840655027945837796e-01
-4.663329680206625416e-01 6.262286024899443859e-02 -2.421581863844968763e-01 -9.012908973098272825e-02 -7.805180174793198422e-02 -2.853698449599439413e-01 -3.276373983757981719e-03 -7.487982123904261822e-02 -5.200627021512360670e-03
9.894041773274420137e-02 1.314789645889816727e-01 -1.160905629745565548e-01 -3.253599913787304926e-02 -3.868780126770826611e-01 1.282230838492385283e-01 7.062106447388342978e-02 -1.171616273997354990e-01 1.477322914008669386e-01
2.537869504872832319e-02 3.829707945686419007e-02 -7.626230331228563142e-02 1.008669645282801869e-01 -5.571414763563094924e-02 1.064628045053652716e-01 -2.285663152216609317e-01 -3.454560337929241665e-01 1.030509196096095481e-01
5.756207388318279605e-03 -1.063267620059052260e-01 -7.977088831581631567e-02 2.737498640115725856e-01 1.292275313189909271e-02 -1.473203679105299369e-01 -1.133451164916654125e-01 1.435984350098170326e-01 7.189658628969068654e-02
4.187164246549222590e-01 -3.963743850434919280e-01 -2.866383927872958107e-02 6.628956744704770365e-01 2.220965984597004714e-02 -1.787468513296456840e-01 7.122436292646942835e-02 -1.118563502146733279e-01 -5.202670616174529528e-01
1.241525546303386546e-01 -1.179204913480417539e-02 1.359257362180457951e-01 -1.458529286902377764e-01 1.157576949965652274e-01 -1.417836499846922838e-01 -2.178928945105773618e-02 7.022935093235416204e-02 -1.590179501589596145e-01
3.935530516244645227e-02 3.722931108466067118e-01 -5.687180917645824792e-03 -3.926316311431140432e-02 -1.607741026526388339e-01 -5.485366266528367563e-01 8.238268877884946662e-02 -1.497911934555178348e-01 -1.312084120250613106e-01
5.509974757484059626e-02 1.256794313245553074e-01 -1.471740107701349221e-01 -7.451112342287742607e-02 -8.809437339831042990e-02 -3.161258392858309202e-02 1.297101391803050785e-01 1.299961191875002343e-02 1.078329886103617519e-01
5.340304060160827593e-02 -1.092471912188071742e-01 9.444891142275735341e-02 -5.818154078635298654e-02 -7.539761216953093370e-02 1.118296596927319531e-01 -3.859257157076848715e-02 6.007090547923684548e-02 -1.481066737507489607e-02
-7.270135165829734458e-02 2.139576042740631290e-01 1.251451349144609149e-01 1.021480990915559356e-01 -9.298590912052821789e-02 1.465840530743056647e-03 1.580773223685992546e-01 8.500150114330004558e-02 -5.482241916894964318e-02
6.117367379244154080e-02 -6.068298364024889840e-02 2.361553308622059075e-02 6.374599310139428265e-02 2.255307241223521511e-02 6.356730223646722688e-02 1.092780906066731922e-01 -6.059610142982011505e-01 -3.141684207617870261e-01
1.170391022386239460e-01 -8.435620367157510568e-02 1.199028764559332688e-01 -9.511041268489894840e-03 5.524456524473956437e-02 1.531303148566791339e-01 1.003576087419244117e-01 -6.881700057557049721e-02 6.025628333778151186e-02
-5.112071151477574210e-02 2.597035156773600754e-03 5.907563518841396633e-02 -2.646039822448154055e-02 8.318381018305139041e-02 -8.239660559601716741e-03 -2.879274156618188418e-01 -1.356018663469128749e-01 -3.822876798101867285e-02
1.654182175499581131e-01 6.084478727324094116e-03 8.066740273296442443e-02 -7.464989959658792362e-02 1.033723718235246558e-02 1.069177841517431338e-01 -7.119531245877090686e-02 -5.649817202388875970e-01 1.160166751773210186e-01
1.494177532003653219e-01 -4.982574908551603426e-02 1.085718389889613333e-01 -5.904610041742882481e-02 4.879555124024122920e-02 -6.582867422432241156e-02 1.300205887809472716e-01 2.813435729259294860e-03 1.126402966360148944e-01
1.589239628045755470e-01 4.363426994926980496e-01 1.386854597617767360e-01 7.269063102592158976e-05 -4.000926986746933256e-02 -1.168926347743052705e-03 -6.114565184686551191e-01 -1.295269210816925864e-01 9.766932240707200397e-02
-1.396594464328883012e-01 -6.105092849216701284e-02 -5.486772861591552447e-02 -1.652508227266637764e-01 4.519396641056013138e-03 7.769377188299982084e-02 -4.393500260635808119e-01 3.662470084055058361e-02 6.038114369197988829e-03
-6.833115642337961315e-02 -1.405922707775139335e-01 -1.193864459546607887e-01 -8.301765878704754631e-02 -1.425300314114157640e-01 1.222096962726404445e-01 9.102130261824976920e-02 2.061230800650670769e-02 -1.141712005131721580e-01
1.829136797467444120e-01 -3.373442904965406886e-02 3.938726563865534436e-01 6.157535540702637616e-02 2.632166396692265375e-01 1.343582671588279265e-01 1.882876384215170784e-02 -1.582329376232145812e-01 2.698275239272313608e-01
3.102270874765970521e-01 -1.642586246362462976e-01 2.904676591642961214e-01 2.536901667044233477e-02 -5.125236599225553753e-03 -9.629359162258303850e-02 1.829639144484888902e-01 -1.045165277577800172e-01 1.419465497032315060e-01
-1.586709521013407731e-01 4.972632326808223979e-03 -1.584288501963380391e-01 -1.994209963314889644e-01 1.196676349693515523e-01 -1.299461287978197488e-01 3.912643529713955015e-02 9.110903991946288361e-02 -4.969606607536466297e-02
-4.078529780678086247e-02 9.755057807366589173e-02 -5.319309000224688860e-02 7.645486664009119859e-02 8.325972029299151533e-02 -9.832460612164446723e-02 -4.099111835330726539e-02 -6.070046158552452192e-02 8.903210275441897359e-02
-1.428672543815774076e-01 1.161273414306009250e-01 4.672642827924322617e-01 -1.268508251447529045e-01 -6.011980220127320917e-01 -1.577949671386879860e-01 1.589186226131250879e-01 5.565297333855283128e-03 -8.943530463129094332e-02
4.101632754215441268e-01 1.744324659525405344e-02 1.457327055950687622e-01 3.436072061189232585e-03 1.228757851269527412e-01 -3.656678119774194879e-01 3.223520526912168616e-01 -8.329090871185421477e-03 1.989115253643832307e-02
-1.445223048072300231e-01 6.219278525964005988e-02 -7.606719189276515969e-02 9.836768032846113230e-02 1.001660179472800144e-01 -1.196052313383230148e-01 -1.178983872398296356e-01 1.337835931576042692e-01 4.784237469268885073e-02
1.393440692510998502e-01 -2.253762863185389265e-02 6.167797444487619352e-01 6.009186672823103592e-01 1.201706009277961479e-01 1.027085614063399516e-01 4.141979701848273465e-01 -1.456051490194906206e-01 -1.283029332032403769e-02
-1.181006752630442413e-02 1.455945374889929499e-02 -8.581331415797070761e-02 -7.764789123525155101e-02 1.296868080522414202e-01 -9.244417000245919169e-03 1.902210972837192759e-02 1.116287239489337779e-01 1.207460432819896096e-01
7.009415280200029796e-01 1.050651871436889956e-01 8.529648551581581195e-02 -1.502294613286470071e-01 1.162019687409528990e-01 -1.603694990708664780e-01 -1.537234410281836626e-02 2.096431131238577494e-01 7.430700290778376182e-02
1.243977479880072901e-01 -2.591737539120548273e-01 1.416307492686002811e-01 -2.273301916243878340e-01 -1.073959498226768616e-01 1.450242481127473060e-01 7.004510944178932164e-02 -6.425112224084404966e-01 1.241784295752415002e-01
-9.182295053160260956e-02 1.936395863265190365e-01 1.278753424625621860e-01 -2.418604039482762924e-01 -1.276724937627620460e-01 1.081046418426884620e-01 2.311057133636651439e-02 1.417684385087062404e-01 -3.320064447736936764e-02
1.444581178082647022e-01 -1.593846332220225370e-01 -2.388674919231431881e-01 -3.010680596486895941e-02 3.637049978191186361e-01 4.345123119018061246e-03 8.947332014656457500e-02 -2.011695910193360068e-02 -1.442237112974829871e-01
1.238933146854867828e-01 -1.203668945101680210e-01 2.085724972816757894e-01 1.529231244476200458e-01 -1.042592268627266644e-01 1.076600940242965904e-01 -4.600998982257239328e-02 -2.664404033251932535e-02 -1.266889951695270300e-01
-1.062018268406391686e-01 6.328937610515383838e-02 -1.464425713697648790e-01 5.082109615659916729e-02 2.406161718122290516e-02 -3.902732775262884868e-02 3.083202062008457214e-02 2.313169647261940562e-02 -3.127100603803985995e-02
1.275568692111348768e-01 2.306512368989173736e-02 -1.184298757843082611e-01 7.432449705216104263e-02 1.394771193123564568e-01 2.462230641750085269e-01 1.398115072599106501e-01 -1.496122106434650545e-01 2.768753610303920087e-02
2.208719263781078190e-03 2.823588522000374246e-01 -9.011002291811091858e-02 9.987062511583240376e-02 4.947766007770942331e-01 4.381377480751924569e-02 6.930282542804423462e-01 -1.228458777751924823e-02 6.074311228352254760e-02
-1.165924384631604332e-01 1.549631120227590586e-01 3.348752476097871522e-02 -8.156207362953638018e-03 1.716684415000284125e-01 9.303484350049022467e-02 -6.492621188442704305e-02 3.240372483065630943e-02 3.304763437969630152e-02
-1.599919208424228634e-01 -9.257569978875257455e-02 1.454781347281889625e-01 -3.156443902433481163e-02 1.430807368119081102e-01 9.442287961233379601e-02 -2.755749479944019642e-02 2.654755604495291979e-02 -6.706461365694738053e-02
2.366838764962834671e-02 2.649552464560669396e-01 -4.580846749670053342e-02 -8.560216264389790275e-02 -3.269477276102881191e-01 -7.028959393176421877e-02 8.768492046636100490e-03 -1.790321797666928894e-01 -9.077988290918807823e-02
-1.196680340386278713e-01 -1.616603054759272462e-01 -1.063437997915310379e-01 4.951866986654535063e-03 1.256417924955042509e-01 -9.221263766511504645e-02 -1.953775334035608505e-02 2.368921658917823581e-01 -1.575293593706585116e-01
3.876978075172161919e-02 -1.076101766616370109e-01 -8.124540386523115831e-02 -7.674804454652595087e-02 5.818447999785240216e-02 -9.001968256676411151e-02 5.765375782195480969e-01 6.142927118044494428e-02 6.203494633962487459e-01
-1.148661815312419926e-01 -2.482934350505409601e-02 1.066624663473536155e-01 5.823993756519533216e-01 -2.261179175048570140e-06 -6.327314853537790995e-02 -1.326056827903525359e-01 1.084537959048016004e-01 -7.521561444931383622e-02
9.593105875357643697e-02 -5.432226927238148484e-01 -7.901242440738431849e-02 1.237787160157864247e-01 -7.669564485266799903e-02 1.329542007310236806e-01 -1.592937325893550582e-01 -1.210814063762812171e-01 -1.137656353661502528e-01
3.846996267750620729e-02 -1.241946140153284278e-01 -1.566346689667196257e-01 1.327209133460764967e-01 4.289825228478716390e-02 -4.347248884174594319e-01 1.045778664597652313e-01 1.092643037655985500e-01 2.715221902003783216e-01
-6.032153691127206674e-01 -7.858099348459712807e-02 1.528183634792454060e-01 -8.472906061794256705e-02 -1.585120443606186369e-01 1.041606002625460464e-01 1.202199978871937996e-01 -6.915142095320263305e-02 1.772209924033374406e-03
-2.939764443565624774e-02 -2.681741960036458303e-02 6.305323135697475656e-02 1.363385300943948109e-01 -1.435888857601660407e-01 6.737946563015435875e-02 -1.040014653127626643e-01 1.357605941618972301e-01 3.389697857343787479e-02
1.944085232300274413e-03 -1.358338087366565139e-01 1.021976006812201111e-02 1.064517482140688552e-02 3.248249257869817441e-03 1.226458255867683977e-01 -1.351382880636446682e-01 1.649995731464321547e-01 2.260593619014574229e-01
-3.959664896751371455e-01 -1.621895232265848086e-01 -1.043058753728208776e-01 -1.453389498467460017e-01 -4.684751296851560193e-02 -3.143591944316233983e-02 -4.189755693467003272e-01 -1.414692670601339630e-01 -3.773408324890570320e-02
1.619061819957070825e-01 9.967172427111654909e-02 -1.383167767307609264e-01 -6.871257223939031267e-02 1.355825326117335583e-01 -3.924652305268745422e-01 -5.300564516415251504e-02 4.698106160409513260e-02 -3.613615011816764810e-01
-5.353568806273763421e-03 -4.676923154419972972e-01 -1.503148119832812581e-02 -4.169628863025133803e-01 1.613813568819213451e-01 1.546305958882411569e-01 -9.783020315090569519e-02 1.500239644357899936e-02 1.024477324652361548e-01
1.296906519116421651e-02 1.102015763472011800e-01 -5.284153535613553276e-02 1.334361191198510654e-01 -3.406512134684259729e-01 2.418518410250350414e-01 1.985855373475205535e-02 -4.342040987150797005e-02 1.037610662838542863e-01
1.420253252093496010e-01 -1.118813288084454793e-01 -3.591212766299488046e-01 6.153339734821834384e-01 -4.715153268671181674e-01 4.830662399440442401e-01 1.455736619161671630e-01 8.716457349282323575e-02 3.470554451353621839e-01
1.368404118924803070e-01 -3.580756969170373338e-02 -9.707358853998027115e-02 -1.284930662543873614e-01 1.269646345885780681e-01 -1.109974649085778697e-01 3.457035053072743391e-02 1.448255783060982127e-01 -5.828622065421980997e-02
-1.515644720355668884e-02 -1.055505681120619405e-01 -4.753600932954049618e-02 -1.944117960567670611e-02 4.076699429239927785e-01 -4.150024935826657768e-01 1.053949150096836762e-01 -4.047458611072880970e-03 -1.253099963255447681e-02
5.558481784619998672e-02 -4.029375793011825135e-01 1.440095599470271603e-02 -5.099243343015147367e-02 2.413153902602660494e-02 -1.155325757847415619e-01 -1.538767635037416037e-01 -1.338130014360723041e-01 -8.865762758092381179e-02
-6.881652278053618232e-02 -1.308186117784413127e-01 5.198725743184077347e-02 7.382087255027902639e-02 1.110997576300210982e-01 3.991119498078447153e-02 2.141170345545358785e-03 1.547218548002563254e-01 6.546193284880159891e-02
7.193142271514559039e-02 7.038700817439107020e-03 2.641208648043276708e-01 -6.612216820967183051e-02 7.584526020613498176e-02 -1.025208111656102233e-01 1.541705319174946631e-01 1.196392040932997142e-01 -3.201699593641379321e-02
-5.539994097890318242e-02 8.603177022819803732e-02 -1.565707507545240629e-01 4.948404399634479534e-01 -1.012007078015982192e-01 1.195021965145563608e-01 1.594068732164161395e-01 -4.041745277923359247e-01 1.598945074911310715e-01
-5.747373214720464807e-01 1.251743584264736198e-02 -1.492952763884027867e-01 5.588252578597685538e-02 -4.901113135197269349e-02 -1.499006050205568819e-01 -7.337250727136701567e-02 -2.727638794170328396e-02 -5.089266954892603945e-01
-1.058600202033387755e-01 1.373563999375626288e-01 -1.980126943519296481e-02 -1.665509777800424362e-01 -1.441785812705107805e-01 -6.606235700948141776e-02 -2.212104246623902704e-02 -6.527048782173883179e-02 -5.226905750111224824e-01
-4.908117229438751505e-01 -8.653167060822497536e-02 1.677776037733262225e-03 1.650837285123959719e-01 1.556613585163874325e-01 1.573352006412576387e-01 1.096574727115217779e-01 -2.864142336284032989e-02 -4.420328365116161229e-01
1.199135810572348887e-01 1.363752169203107378e-01 -3.942285654087457902e-01 4.711190326430902964e-02 6.272269970476597456e-02 -1.061912485864882072e-01 -3.869026936995234589e-02 5.694437080858379824e-02 8.804100865809467991e-02
-2.997473388680471640e-01 1.521077468734587379e-01 -8.267311184972037097e-03 1.041988439923521442e-01 7.535773558716196696e-02 -2.804623741760721781e-02 -6.401308932388469763e-01 7.076417436093085378e-02 3.119508747728178544e-01
8.400724671155257450e-02 6.811423143983441619e-02 -1.607930798336745515e-01 1.066007967054565242e-01 -1.324434865841170664e-02 -1.091210726751993577e-02 -1.111897971440352489e-01 -1.367094168055237313e-01 2.201135593306002836e-02
-1.226720330845302714e-01 4.953661813804055569e-02 -4.606101936043041079e-01 -4.166506194732281371e-02 1.300923611432036886e-01 -1.042746033185341092e-01 -1.221825525612115354e-01 -1.130236471418116090e-01 1.435760734256631421e-01
8.029446988930488693e-02 2.261492864355984789e-01 -1.064957022624566929e-01 -1.351722960883381119e-01 -1.375029010896456072e-01 -4.890564415470840531e-01 4.094089290627803829e-02 -3.088743473772198600e-01 -1.103256745312843484e-01
1.246710799825882648e-01 3.661851270880137760e-02 7.588987191379865938e-02 -7.740800356924397441e-02 -1.013689537062205659e-01 -4.336334133203523233e-02 -5.099878926513223831e-01 -1.205179614761399814e-01 8.449911093520801053e-02
-5.006122037631033361e-01 7.016078288868600465e-02 -7.053745801457389497e-02 -7.722379394248952977e-02 -3.078752546132899892e-02 1.235258919218383128e-01 -1.061286580698607152e-01 5.522234330266736491e-01 1.411877853889988155e-02
9.385554724699630980e-02 -3.182722670107440699e-02 1.155403886187406498e-01 -1.277800779293740419e-01 2.472535987058904761e-01 -4.468358695720623525e-02 -1.591626811593560287e-01 2.936636317941035412e-02 -3.427934420520425268e-02
6.722747375662159464e-02 6.370717310225330887e-02 -3.997395556807521906e-03 -8.540562208875823735e-02 1.541272847724680650e-01 -1.171556079382621851e-01 -3.778290180923182806e-02 -5.472216362818275309e-02 -1.147168774317197659e-02
1.644658070604790023e-01 -1.362834653746429758e-01 5.650327930379783758e-02 1.332031265880680160e-01 -5.449772177823649505e-02 -1.572507817797100527e-01 1.534468516971544405e-01 4.044530807878562312e-02 -2.388193225949508669e-02
-1.321085811314440805e-01 -9.500061113539218574e-03 -1.306330329842397830e-01 -7.831562518908663506e-02 -2.013387905139711262e-02 -9.856261448026304439e-02 -2.007136501984618793e-02 -1.178436539243951781e-01 -3.104511790621422573e-02
-1.164803763527972880e-01 -4.481085931854955628e-02 1.606360976149217024e-01 -8.417577641223095153e-02 6.104697131900357204e-02 -1.328566738549715430e-02 1.104411781386632763e-01 -1.398332538343418363e-01 1.185727842910417884e-01
-4.127728626824056501e-01 5.691618390335095867e-02 5.334837006323014386e-01 -3.469704418143948477e-02 -1.341705189753290839e-01 1.376167459254938052e-01 1.376964219395046818e-01 -3.774044765508281774e-02 9.545577283771715382e-02
-3.298517952058040853e-02 -5.775267177472146601e-02 -1.039398112195311086e-02 -3.370338342540050297e-02 1.566517631745528993e-01 -7.707426741798721892e-01 -4.273540817325632291e-01 -5.790088960065339213e-02 -1.904275233285894139e-02
-2.428864279471254495e-02 -9.362457332729219595e-02 7.593676381948803733e-02 1.651113603012488440e-02 2.979949152247918787e-01 -9.325043699233341588e-02 6.832189136375506344e-02 5.201924299883516900e-01 1.555034879760512113e-02
-4.870077095418189062e-02 -1.171093567926783097e-01 1.476477214904028668e-01 9.874195934371410299e-02 -6.278816534296405294e-03 1.211994138517811237e-01 8.989319588889721491e-02 -1.996703307526474513e-01 -3.935892643332971619e-01
-1.256595736070332536e-01 -1.507321569982296439e-01 1.530959952697263926e-01 1.868276258300904935e-02 1.056960018031311704e-01 1.213579873405464804e-01 2.617123530536661843e-02 7.613124264045600942e-02 4.620800626449792503e-01
5.054435527877357981e-05 1.575759649687026032e-01 6.803981782187562555e-02 3.932214181362170269e-02 -1.552806978437337726e-01 4.795784943786166737e-02 2.816494748132222087e-02 1.776214130689784398e-01 -1.594073991693910619e-01
1.418641390631744104e-01 -6.031224075047382505e-02 1.818292653844281667e-02 4.383758005767746102e-02 -1.906757539483387373e-02 9.862535004806954886e-02 1.365619282638323162e-01 1.153816218117428710e-01 4.241124127339605115e-02
9.415823165835024433e-02 -4.931532287842191895e-04 -7.707554656730460085e-02 -5.571385918438583745e-02 7.384419566134874102e-02 4.761261809452897453e-01 -1.398336989880074599e-01 -5.971087268087438282e-02 1.384850673923859465e-01
-9.485174143493935173e-02 -1.518679234238406728e-01 1.189811376795082837e-01 3.474800743172521411e-01 -9.625074976838088325e-02 3.374311693690842245e-02 7.799236038404715188e-02 5.129362404925941199e-02 6.369777281851633777e-02
5.925508540046128120e-02 -9.587828898093679608e-02 -1.732342896120566134e-01 -7.848341460036585560e-02 -7.314493947712367994e-02 3.268275382891409203e-02 1.496744814823533221e-01 -1.402233053011214814e-01 -9.801841955288015384e-02
1.029122340332333518e-02 3.448961070241085558e-02 4.844031278798358736e-02 -1.603319004866884112e-01 -2.969205913649810014e-01 1.116165253067790547e-01 3.724367707104259129e-02 -5.658445074268621949e-02 1.269070535008010037e-02
1.475804732022171217e-01 -3.412923684873239716e-01 -1.171020806158689781e-01 -4.129761737865689231e-02 -5.690512144282100504e-02 -1.140636381717694547e-01 7.732922399739960984e-02 -6.209189241625212574e-02 5.905487999796562443e-02
-6.534661739567919347e-02 -1.419838132078466708e-01 6.646543966005761910e-03 1.309813009709921428e-01 6.439324146024594242e-02 5.210277117302219985e-02 9.768029900076984073e-02 -7.928616253476794551e-02 -1.994453498134340919e-02
-5.535797679431878754e-02 -7.926302365857480769e-02 -4.261357222630046682e-02 3.877965784769895619e-01 -3.305502337778321031e-02 3.543251417027407785e-02 -1.329316992571424050e-01 4.923546107142606765e-02 9.032775120661074020e-02
6.160518490184235807e-01 -4.456598984479812758e-02 1.138351408901762535e-01 1.399920911695532733e-01 -8.476085133683834358e-03 3.579017914820920021e-01 -7.999726080716657028e-02 -4.970949907816946123e-02 -1.569680456540451241e-01
-9.996653013347615857e-02 1.589366020772797483e-01 -2.739767315550387106e-01 7.189638800804478702e-01 -1.160821343809175926e-01 1.666057727658720733e-01 -1.625017228873509301e-01 -1.495770899402102394e-01 1.341778709422035976e-01
-1.048058825244284203e-01 -1.520388862663920281e-02 4.535965750922351519e-02 -5.484800279113466459e-02 -3.697350854911999555e-03 -2.557598804449133234e-01 -2.054196719550423558e-02 1.218543858517008721e-01 -1.431279718817483060e-01
1.262398020179336111e-01 -1.558244221726294010e-01 9.701587104094593073e-02 -1.299616087787790475e-01 3.365098329128198701e-02 -3.535248358598973017e-01 6.778254560563723441e-02 -4.247542742274686839e-02 1.135210660432314639e-01
2.342812115403581086e-01 -5.425133044393215531e-02 -5.315583545403364425e-03 -2.832539143759782441e-02 3.719074422582272724e-03 2.255492079316423482e-02 -1.299940189981468874e-01 -1.475431634233996814e-01 2.570489493272700710e-01
-6.322349238208088695e-02 -9.719883657707277524e-02 1.353760375674647153e-02 -9.058115427772624184e-02 -1.020615084256675242e-01 4.224433493535380973e-02 1.096770626727631565e-01 1.077623311753633795e-01 1.654618733323723889e-01
1.186081042154851078e-01 7.448122055485439930e-02 -9.690473239276571615e-02 -1.543182233254429547e-01 -1.493897437317490695e-01 2.286240391916716241e-03 -6.827018662148993944e-02 -1.774587822361741174e-01 -1.086609382114294836e-01
3.685862072668620315e-01 -3.318878612701999659e-02 -1.578500399683002986e-01 -3.322319379006274248e-02 -3.857748976294260168e-01 2.599150266228469341e-01 -1.448091429103449124e-01 -1.630333919766820475e-02 -1.506177280547088826e-01
-1.613870466597800701e-01 -5.392685068512721898e-03 -3.935417957596776262e-04 -1.493119091586620761e-01 -1.108540715065239324e-01 -1.229895207358441683e-01 -5.467836246146178247e-01 -8.291156671843580295e-02 7.826123559906199290e-02
1.212740776041067586e-01 1.135176999824604877e-01 -1.240024405251465289e-01 -2.429299280042858736e-02 -3.925768952023525604e-03 -4.918637773771071253e-01 -1.652597352130636688e-01 3.340501076730776481e-02 1.288861098065918753e-02
7.553406358492109618e-03 3.537515002639953551e-03 -5.597667844971757761e-02 -6.387229011195087736e-02 -1.615676216722564673e-01 5.889952841845957909e-02 1.810003763256397835e-01 9.267133431298313351e-03 8.674574161461631391e-03
2.933760092292653221e-01 -1.529556696046301123e-01 -1.039547298086372917e-01 -1.071523147725055580e-01 5.454784355064279389e-02 -8.549512462196329210e-02 1.606528828656660357e-01 9.319769115562559492e-02 -1.383114856114463220e-01
-3.513871763658676928e-01 -4.484345668000533358e-02 1.477815027029061312e-01 -1.000154639008648400e-01 3.285600711257293666e-02 -1.388380141686376967e-01 -1.301152066746271430e-01 5.136345430021804770e-02 2.805738545827914446e-02
