3.085108460113638955e-04 1.404883052647931153e-02 -2.552885314194933489e-03 1.461518149164108341e-02 -1.316723148570372003e-02 2.097151093651218948e-02 -1.140374468191007566e-02 1.639023586902604857e-02 -1.778273678572046476e-02 1.593462112187762209e-02 -6.307552744740900150e-03 5.700970779908768292e-03 2.070628741074732534e-03 -6.943538085379020661e-03 3.985030009691520672e-03 -2.678294890276144979e-02 6.588773403820441521e-04 -1.907800196529026854e-02 8.834875169144572327e-03 1.108102590227376741e-02 2.231143565695462710e-02 -3.274623289651254314e-03 1.894899265379316328e-02 2.460699916597547388e-02 -1.412057849409853461e-02 3.471816444254691159e-02 6.974710474593302442e-03 1.400772452435844126e-02 -1.908581976809304789e-02 1.628211894312200578e-02 -1.714998832159394040e-02 -1.540990529532372706e-02 2.506966713133985470e-04 1.676243797907324418e-02 1.387689969275020599e-02 4.304739147200849735e-03 4.976254120507929424e-03 1.728964620428987894e-02 1.493544784338505030e-02 -6.318333271242705142e-03 -2.189306529435802381e-02 5.606329242470417182e-03 -1.096641921343247984e-02 1.604315698959650482e-02 1.277239663528544761e-02 3.376813983929179228e-03 -2.241157530833937789e-02 2.861638340387854043e-02 1.878364745573535277e-02 -1.776203877511117746e-02 1.123738812403722847e-03 -1.583390047646676159e-03 1.375983391483635333e-03 6.597870960634021585e-03 -2.141721103630926312e-02 -2.114517152020243748e-02 1.300606933065154291e-02 1.991419402138469574e-02 1.221912784314966617e-03 -4.479077619930364566e-03 1.424692018038446056e-02 -1.673579467001351170e-02 -6.831987615385096482e-03 -1.411867016191840907e-02 1.919514192496904817e-02 -1.228779100965445709e-02 2.119133587798651547e-02 2.424257528194883465e-02 2.412372994611870075e-02 5.511768264999681276e-03 5.771603105926311275e-03 -1.325902226114215703e-02 9.808537845968502700e-03 -1.451212446876906995e-02 -1.238345398865527656e-02 -8.491236969480075308e-03 -2.347164326313810889e-02 -2.713985865292324693e-03 1.015972088945889251e-03 -2.850340679437588995e-02 -1.080955210049755477e-02 1.071653137604746710e-02 -1.547770003840975503e-02 2.322006136742735607e-02 1.928377612510150021e-03 -8.656280964726431257e-03 -1.596323378503498522e-02 -1.316564634324460595e-02 4.453214807931248423e-03 1.544362614719463865e-02 -1.383679793159984378e-02 -2.273000151364827637e-02 -1.678191056276234425e-02 1.508572477636560636e-03 -5.142652266983474552e-03 -6.160796216430160753e-03 1.504125296487438315e-04 2.104334804481359372e-02 2.045007607552156627e-05 1.950178092616450601e-02 -6.938312521986054505e-03 -1.263682533623031179e-02 1.162134119823208731e-02 -3.878136674679280669e-03 -1.455765444406715257e-02 1.997989740459255731e-02 -9.279093030927523106e-03 -3.100164870123683220e-02 7.480933322181739127e-03 -2.346567168495720945e-02 4.227620064571007905e-03 2.163758114504106198e-02 -3.371506178675050258e-02 -5.256945922479149338e-03 8.877512247044850452e-03 -2.002832325439146341e-02 -1.093726903812741388e-02 -2.396244249327268531e-03 1.610979414956590153e-02 6.544092289371129106e-03 1.528886149611193013e-02 -1.094059734702741704e-02 -1.072651803617920285e-02 1.115152637695212244e-02 8.113367266888688685e-04 -2.093439842913500867e-02 3.578369293865652379e-03 -5.099007651394316110e-03 1.872290489013556797e-02 5.031063717622795070e-03 1.399488936186849691e-02 1.761870627491685798e-02 -1.216892209656274433e-02 -1.112370195095793886e-02 9.226292701923046249e-03 -7.020409186033159388e-03 -2.276962301467327920e-02 1.281255915442842432e-02 7.341730979622792912e-03 -2.108337859601203124e-02 -7.896087766376073264e-03 -2.285953671659481101e-02 2.140163527764158812e-03 7.171485407553564694e-03 -1.080883462847375028e-02 -1.589486284470194343e-03 1.872425328340149298e-02 -1.131252680130354418e-02 1.504091127250465135e-02 -1.080037054667532838e-02 -1.485855910311632312e-02 1.330859520639977520e-02 5.169053774634167417e-03 5.921312012422086553e-03 1.099283759736869627e-02 8.281218062447670211e-03 -1.565763729895929338e-02 -1.708427464273188506e-02 -1.936627168573640603e-02 -6.893547724351389502e-03 9.800756643271344923e-03 1.504901341714822392e-02 -1.892244091580574245e-02 1.927619842337859393e-02 1.340864691258053173e-02 -1.988540891961611615e-02 -2.395479985345955881e-02 -9.524441800000605501e-03 1.071777964937623354e-02 1.509879357751457533e-02 9.992851887457611382e-03 1.998855403438985767e-02 2.063338054538400163e-02 -1.064689829714098208e-02 -1.067042919910108668e-02 -1.571954889618604537e-02 2.803830529598599994e-03 9.223381213462802236e-03 2.831297698988756179e-03 1.645787809414134967e-02 -5.195718518414333374e-03 5.958682686863967480e-03 -2.165805694972711484e-02 -1.454323889432222044e-02 -7.233901759133080228e-03 4.645108473262118086e-03 -6.799660938320115956e-03 -9.837487844845133750e-03 1.055650920844602644e-02 1.744274357840882661e-03 1.821858203768371778e-02 3.345211293969184776e-03 4.853757348570909326e-03 1.385928535263542330e-02 1.387228294371268579e-02 -1.598248440119419411e-02 -3.255632749136336268e-02 7.189599195653667389e-03 2.303938938060761527e-02 1.621648149848592749e-02 -5.604421067384228461e-03 -2.304193793804738127e-02 -1.775924212777044500e-02 1.066424813607790532e-02 -1.138077350989568498e-02 -1.914229351456626579e-02 -1.476366784916183228e-02 -3.094660923991047682e-03 -2.783878169190734820e-03 3.019133610554468328e-03 -7.774416544131602762e-03 3.302600614993769605e-03 -5.221476743713922980e-03 -2.333220489428818045e-02 -1.305800688509124383e-02 1.371565760444615548e-02 1.210294947568335902e-02 -1.625367600564512488e-02 -4.470686514553081324e-03 1.214953249317168339e-02 1.256254641364062778e-02 2.877768810575772902e-03 1.098345345701923562e-02 -1.958847592474234622e-02 -1.532388125555505555e-02 -6.860949091805015713e-03 1.572265574629708521e-02 -3.691689309069919565e-03 -2.303036670665946882e-03 -6.971140958759872511e-03 -1.874241340572735740e-02 1.494089736254243690e-02 -1.052413756494937312e-02 1.870926628767639183e-02 1.293613274325248162e-02 2.010392015736500379e-03 -1.622151583744669417e-02 -1.293848858020020271e-03 1.585448180403421434e-02 1.248725079413548662e-02 -5.832626880534066277e-03 8.519229265075090041e-03 1.810788813643540024e-02 -1.052454985071230205e-02 2.398635454514134752e-03 2.050089082915753508e-02 -7.895289553480342500e-04 1.110564676019692477e-02 -2.213522437379069480e-02 -1.673336633227686179e-02 2.585815817291221667e-03 -1.725299778516008534e-02 -2.781674096724411505e-03 -1.114391792574106338e-02 1.874657182371504416e-02 7.590418965873865949e-03 1.165412149129892248e-03 -1.659519936046605082e-02 2.013314639765266534e-02 1.280846267764609511e-02 2.597820484905397770e-03 -1.288614935038186020e-02 -8.678596528022690035e-03 -1.181177235425154640e-02 -1.035556269911395814e-02 -6.100277659907637519e-03 -2.091858769125540599e-02 -1.530750490480623470e-02 -2.345597182102930958e-02 1.328999571186203002e-02 -4.487834128984187487e-03 1.259678222688512955e-02 1.789315576479924910e-02 8.034967489537409371e-04 -6.255025831172498010e-03 -6.861132989731535264e-03 -1.055594986951832216e-02 -1.412305223632946520e-02 -1.963820453994687479e-02 -1.476340368209471364e-02 9.408165996409272383e-03 2.121337517135968992e-02 5.570404247748468596e-03 1.567234368998481758e-02 1.780119907561890716e-02 -1.293357709230318758e-02 2.384903812185410572e-04 2.064083482520474161e-02 -7.977718595585620714e-03 -6.873969449676701864e-03 5.264886295740759010e-03 1.895322597510427226e-02 5.236484113984303350e-03 1.396047003971252927e-02 1.442996619068622963e-04 1.035464602354357194e-02 1.117505744650611546e-02 -2.369764370474080825e-02 1.793327680961201431e-02 1.648380831424589577e-02 1.168228517060680011e-02 1.296544809511859103e-02 -1.560949510591614492e-02 -1.709757721170171788e-02 4.280981277486957566e-03 -2.732691394187443390e-02 -5.094727241955741316e-03 -2.271399732821588122e-02 -1.325907134579523694e-02 1.803185500293526256e-02 -1.526875618977891966e-02 5.863479620286357434e-03 -1.743749349907683030e-02 5.335209880564057046e-03 2.246093580149474689e-03 4.539690810602751460e-03 -4.164425981917684559e-03 -2.239590456083826939e-02 -2.291699663315430180e-02 1.181245716885376100e-02 1.403553602475141396e-02 -2.069228492846617376e-02 -9.355407738897354372e-03 -3.865805645114825211e-03 1.778110615385561713e-02 -1.058146151219927812e-02 -2.448846489235574544e-03 2.359839505472075688e-02 2.050366457416475177e-02 7.023135970673973503e-04 4.502226028155990184e-02 1.055064501042711489e-02 2.239999544547915944e-02 -2.441377055994033499e-02 -6.112582849751854903e-03 9.610790685234196773e-03 2.088955733864603093e-02 -1.908838911515051487e-02 2.054751394431769684e-02 7.163633195716260019e-03 1.634011313819024730e-02 -7.163633923065675091e-03 5.362093874199263394e-03 -2.902883189942052911e-02 -1.153947307282705143e-02 -1.913783773471123412e-02 -2.055470556372252650e-02 -2.210556160507804249e-02 1.798139192890843563e-02 1.178442159442740639e-02 1.722721100689018209e-02 1.065395462552948605e-02 -1.345580872390749090e-02 -1.620661395548297565e-02 -6.725722297664432983e-03 -1.723493712738859152e-02 2.053931752353144180e-02 1.500030261138918719e-04 2.063544417415372548e-02 -2.969640296817216592e-03 1.107952713494984170e-02 2.372630443409826095e-02 1.606374817857648615e-02 -1.240721452758976329e-02 5.594151510884397618e-03 1.870760836866896745e-02 -1.136468517098761406e-02 -2.399490759688434338e-02 -1.498490395523687478e-02 -2.172249816442367587e-02 -3.962920695087661024e-03 2.178149985482487339e-02 2.292701390146884705e-02 1.342673521022223239e-02 2.067383813764094025e-02 -1.076530714548395301e-04 9.011600146256524071e-03 -1.835234134430025615e-02 1.670056988434597336e-02 2.412613150513812435e-02 -2.123305427098118835e-03 -2.185149626934323672e-02 3.579513264527790610e-03 1.869519963556708769e-02 9.379014031060131868e-04 -1.143366287542730945e-02 2.132545858339864389e-02 9.475588118218190511e-03 1.520360635657303471e-02 -1.207231507213706902e-02 1.850806623316824176e-02 1.118151888990387074e-02 6.078676640723441188e-03 -5.366408629799888919e-03 1.699477451328832572e-02 -1.900136559235468124e-04 -6.579533446368603794e-03 -5.170881656562442870e-03 -9.210068599416341290e-03 1.959155543747161197e-03 -2.293908681885262896e-02 8.649560816975527741e-03 -1.580664202887504741e-02 -6.448625529739380330e-03 -2.622549761686338195e-03 1.188344160689583547e-02 -2.004083138752169035e-02 -3.583694692001437171e-03 1.409996193050775401e-03 2.076813545134853153e-02 -8.169500109341412339e-03 -2.280342324404395493e-02
4.605721671875879705e-03 1.649256899624213435e-03 1.461167400994334287e-02 -1.526887259506108652e-02 7.894284082800573366e-03 1.988586760705906079e-02 -2.387215526443810590e-02 1.169515211833328273e-02 -1.200205926392233433e-02 6.852528579961991717e-03 2.287920440700379199e-02 -3.627384220733959747e-03 7.576851605070982799e-03 2.156564258390174932e-02 -1.436139994495614844e-02 1.308078756762828983e-02 -5.603868871554913006e-03 5.612815047049375195e-04 -1.680664886381347256e-02 1.005343640579672848e-02 -2.753026966077728229e-03 9.826149701177939663e-03 -1.589741478368273189e-02 5.211373167605692393e-03 2.017309345607820950e-02 -5.832091877457408133e-03 -5.255573584713069991e-03 2.251040613905334539e-02 1.468464763384972130e-02 -2.080358199999931060e-02 4.727903946623443140e-03 1.578051011035690870e-02 -8.316647627610185972e-03 2.998830981662056749e-02 -9.273596377835507942e-03 1.448615883562485475e-02 -2.103232429660686215e-02 -2.460869242730503656e-02 -2.912196118103153875e-02 -1.235188569204160279e-02 4.363392082376136086e-03 1.065993532240025118e-02 -1.270672657026397992e-02 -1.781920692950533791e-02 1.731202084906145744e-02 1.694359634966983649e-02 1.613433266910110561e-02 4.835837216048797724e-03 -1.423968449523194124e-02 1.289516132672678152e-02 -1.767321424792094725e-02 -1.577446846750956908e-02 -2.544546894221542260e-02 -2.447284079770022450e-02 -1.459558616859694090e-02 6.480307599084195701e-03 1.967462557028273884e-02 1.379659559072440346e-02 -2.047168225231718944e-02 1.039377173835603560e-02 2.179718595480322277e-02 9.502565552711540742e-03 -1.269120189310143617e-03 2.391790137979354913e-02 -2.015718742901358856e-02 -1.496580642379507706e-02 1.129617660794597286e-02 -1.599126617990995897e-02 -1.546363573954493212e-02 -1.687564986071208445e-02 -1.323743120132782336e-02 2.200038281160510839e-02 1.815706283461449456e-03 -2.253673897366943388e-02 7.000725248802822272e-03 -2.381230535810476348e-02 -2.589245186458403319e-02 -1.771781490106183986e-03 1.630045153031717611e-02 -1.606655058470604289e-02 2.074007160999705515e-02 -2.254293347659915708e-03 -1.683495108555293357e-02 1.506709965462104100e-03 -2.424371473232494675e-02 -3.267637917310565934e-03 -1.234795639276216501e-02 7.720008295947764984e-03 -1.513350480764896408e-02 -1.476708950993718336e-02 1.497665367519048288e-02 -1.255969734508455109e-02 1.295114825704860376e-02 -1.471566907395066917e-02 -2.275096844596994142e-02 -1.997418027747940861e-02 1.071381024999312759e-02 -9.080085521947776558e-03 1.370605554159053715e-03 -4.685885979891815135e-03 -1.219459085556260682e-02 3.137137255323536877e-02 1.066034453062645639e-02 1.618149925298040942e-02 2.171680098459191979e-02 1.213925326542486180e-02 1.284126006578163379e-02 2.190372678296503492e-02 2.984011384953836818e-02 -1.624668475340147050e-02 1.780766702998348716e-02 -1.343854108663750536e-03 7.441765560503155533e-03 -7.425401042518084416e-03 -1.918348211440308593e-02 1.681877273618400965e-03 9.104598526686432519e-03 -9.117962162384680644e-03 -1.088867948171056386e-02 2.081056750277816836e-02 4.136362343468289599e-03 -9.035497783893077159e-03 1.498758584824453829e-02 -2.990932811925963580e-02 2.087441244764058276e-02 8.808336220035836717e-03 1.000846429176711558e-02 1.463933074261881094e-02 9.014422167393679880e-03 -6.207967323619452416e-03 -1.989310501805617928e-02 -5.283473144347419987e-04 -4.204480107767544911e-03 6.743559235340315476e-03 -9.788666272952486688e-03 -1.816300160061081262e-02 -2.134286018621413435e-03 1.051746327411745606e-03 -6.731751433881092523e-04 -2.112031857510086180e-02 2.709814151543661793e-03 2.412719296752005582e-02 -1.835359403489390459e-02 1.807995714085691361e-02 1.934531580759852806e-02 2.236190679539029960e-02 2.404208953479499908e-02 -2.555610228729356895e-03 -8.139267151560580435e-03 -2.153031805616615127e-02 8.290584293978791111e-03 2.768846355885181722e-03 -3.225037510766341807e-04 -3.092502509297541738e-02 -1.551650517383443457e-02 -3.429375902031457147e-04 -2.077811831597631623e-02 2.652582382311540615e-02 1.246372707963684786e-03 2.058482120131448559e-03 -1.475545768017704623e-02 1.492783549316926799e-02 -1.583740095279320692e-02 1.844261494537041343e-02 8.437676560660202149e-03 -1.914636075072597213e-02 2.428201963116431369e-02 6.598360641327450510e-03 -1.419669116622786914e-02 2.507675604969103033e-03 -1.342742679934911740e-02 2.319150022806013445e-03 1.205625740670406704e-02 -6.895440504872166719e-03 -7.781588253394981954e-03 6.753797332119592864e-03 3.098117654617974035e-03 7.988569712727686817e-03 -1.426447435708325800e-02 -1.095533480025023647e-02 -5.459892650023967856e-03 1.933538493412775144e-02 -3.557397064943054309e-03 2.195275118310276163e-02 -2.269143577165297354e-02 -8.171742631269324209e-03 1.794764681772278297e-02 -1.269497117401258146e-02 2.043634528910579992e-02 1.940986519672904809e-02 1.885823116403010161e-02 -1.457634083539688721e-02 -1.105382088748862665e-02 2.108093452071761742e-02 -1.553839438678292564e-02 1.849919454993468465e-02 1.815142671464371055e-02 2.311395870718187815e-04 -5.805111187902514680e-03 -3.089735485159635260e-03 8.020898136127049133e-03 2.443958659323570981e-03 -1.336095972864857068e-04 7.512725216793639943e-03 9.529045517591476500e-03 4.532096397489163327e-03 5.177084890169873777e-03 -1.421355592967568637e-02 -6.524472251928264618e-03 -2.340620482870357788e-02 -2.196683324450482769e-02 2.162520957478307818e-02 -1.867281243303159366e-02 6.763191352439312971e-03 -4.258461042700624130e-03 6.862458221854765561e-03 1.375576561515519727e-02 -2.340458115623146249e-02 -1.238974696583300221e-02 3.249078942429205891e-02 9.027293561896654458e-04 5.995635431748170228e-03 -1.341157388923535461e-03 1.701928350208281940e-02 9.313477521153804700e-03 1.359745579436437250e-02 1.400522221520913470e-02 -3.564927450580338084e-03 1.059158628513974000e-02 5.505652813705209751e-03 9.580899105440947999e-03 -2.007435189497643740e-02 2.294416574425232197e-02 -1.927698585341784676e-02 2.288843460331522681e-02 3.661528938373354979e-03 1.406518336047345163e-03 1.927993659207751995e-02 -6.480952539617817337e-03 -2.454523778308912579e-02 1.004221671331518087e-02 -1.745828658723744264e-02 -5.424513278918560721e-03 1.010591170550524144e-02 1.837234047779180701e-02 -1.052095483995670738e-02 -8.135302742888393668e-03 -1.867613281826838167e-02 1.622409923332201673e-02 -2.126758588897206467e-02 -1.090937279770316098e-02 -1.746337519069604549e-02 -2.263524022636004621e-02 -4.492244064159403756e-03 -1.913830113784616149e-02 1.905551163640203504e-03 1.580743436294181070e-02 1.613248564997120035e-02 1.094088211474849269e-02 -2.271988588270034207e-02 1.475706488918776711e-02 1.248447573628939586e-02 -1.674696905873503811e-02 1.673118967323372272e-02 -1.535400813545702292e-02 -1.286689304860372599e-02 1.566661631042031919e-02 2.182266802531750496e-02 1.036212865207289564e-02 1.177966696294870455e-02 1.033102323519631896e-02 1.913910128664806504e-02 2.929677672465308587e-03 -1.764184582390218581e-02 6.385027910886013902e-03 1.563558780611789059e-02 -5.819988081572231506e-03 -1.368424958050946591e-02 -1.113355661312205071e-02 -2.197259398980409145e-02 -2.453569731034422122e-02 1.913388214930543223e-03 1.789995393113599353e-03 1.533864139277417264e-02 2.426750121647801989e-02 -1.784590349385863084e-02 -1.969164940002129591e-02 1.652819578772002015e-02 1.950790931550086191e-02 9.815190657850886291e-03 -9.321788405773911990e-03 -1.290646850785178053e-02 -1.443161815064246747e-02 1.151494460787440971e-02 7.339600926436738899e-03 -1.145925544814986076e-02 -9.757151166959861233e-03 -1.184320158135626286e-02 -1.596093083785610905e-02 -2.994552412365391117e-03 -1.732577518150479889e-02 2.795733685297543611e-02 6.578798167321605640e-03 -1.576929568047991809e-02 1.259808817044353246e-03 3.613607389284039916e-03 1.929166184174314902e-02 1.506211503818718177e-02 -7.704966218870146558e-03 -1.625890761738771340e-02 -2.437092414547617492e-02 1.471658603327452401e-02 -8.297567473897642099e-03 2.625029052245381883e-02 -1.744502642750695581e-02 -1.849518907513674100e-03 1.215840350756483470e-03 -1.381424524746176219e-03 -2.275701162106215716e-02 8.410913469986222579e-03 5.603923269080173311e-03 7.229622534214378247e-03 9.660741875638645393e-03 1.156998600992855016e-02 8.725910685585279436e-03 -7.625567832809257950e-03 1.130279989515904984e-02 7.935139469762106726e-03 -1.391231031615590072e-03 1.498642695338269631e-02 -1.263076856434044992e-02 5.045552272061075080e-03 -7.703200767474200836e-03 2.175157820508418632e-02 -1.400603088335820173e-02 1.109851605290686563e-02 -2.257441032769054445e-02 3.243994294510317653e-03 4.526080977382805799e-03 -8.235315133283111974e-03 -1.627445042286176924e-02 9.761788107508302583e-04 2.250545759325934397e-02 -1.341699672697826452e-02 8.637083559419132806e-03 -3.186688578913340203e-02 -2.434374109789447238e-02 1.233228504218868669e-02 1.077592654737573319e-02 2.213762261328051234e-02 2.188872236136894800e-02 2.297870596114283750e-02 -1.880579819852017456e-02 -8.176522576198554451e-03 -2.061752034180949072e-02 3.591835847932595485e-03 -1.754005811305366092e-02 -2.883130502097044738e-03 1.776320522433657081e-02 5.058125391920728631e-03 -1.445132896546547953e-02 1.179345732326111257e-02 7.752383951490362038e-03 -1.210621212004429730e-02 2.400705530479806810e-02 -5.224032660623565381e-03 2.434964359873535017e-02 -1.761780486412732605e-02 1.317126063395627177e-02 -1.932573812076450459e-02 6.530569088177820905e-03 -3.888993574756685265e-03 1.090025890675152404e-02 -3.374057486997823069e-02 4.228584608404016044e-03 4.955951440977433495e-03 -1.808297434054744260e-02 -1.895786677271033005e-02 2.032796952302530838e-02 -1.198234199096559136e-02 -2.811624176737707870e-02 -1.617297674505609878e-02 9.768044322185209100e-04 -6.034477369274520581e-03 -1.200571570657784672e-02 -7.359864412936525935e-03 1.999723336224860579e-02 1.828700110700782686e-02 -8.208429585048382729e-03 -2.305092922256974861e-02 5.492308431589230933e-03 -2.399448089704249790e-02 5.693891357454177772e-03 2.253047456377014340e-02 -1.347020359854299298e-02 -2.291356342445834485e-02 2.422938514141873001e-02 -8.633080288301089172e-03 1.663613261403021001e-02 3.689631057799047306e-03 1.737333054898171358e-02 -4.592530884608271233e-03 -9.597010418661297906e-03 1.911657459254849714e-02 -1.521321841379274196e-02 9.302948938825984088e-03 -2.427774620311211849e-03 6.059357853577059319e-03 -7.369104670926519655e-03 1.650405898846244584e-02 1.957597121614107483e-02 1.138750909546972639e-02
1.464266910201791720e-02 -2.076026979365476477e-02 -1.069266508943237347e-02 5.138801489454084166e-03 1.670990240831319446e-02 -2.024221609927294788e-02 -1.865904808566419201e-02 2.126620531659465657e-02 -2.222519315918417004e-02 8.671187138805077146e-03 -4.315828877622623731e-03 -6.055700417465319924e-03 2.919618862969963844e-03 -2.433506289007175347e-02 1.000421531174747669e-03 3.054555281852173142e-03 1.206490690646471430e-02 1.829119398493606529e-03 2.533027224460066614e-03 2.310646985184172317e-02 2.466941982845022221e-03 -1.364404428281227113e-02 1.116025997517172165e-02 -7.454310940891455475e-03 1.284783151407234685e-03 -1.089656065089271084e-02 -2.326026284764663721e-02 -1.907460554278231357e-02 -1.374266887732141472e-02 -3.114396331297076409e-02 1.854809718472407234e-02 -9.568540455821897966e-03 1.177322365390980410e-02 1.054327695109752612e-02 9.466531438899700255e-04 5.315690236556381773e-03 1.966394316055836838e-02 3.659932798904350949e-03 -1.554803525571887661e-02 -2.422948962642765963e-02 9.477937972372016753e-03 -1.501251445082553426e-02 3.304158261242203833e-03 -6.005666885944723615e-03 1.765249104040031089e-02 -2.216307678397285916e-02 2.066909628669832966e-02 5.910407079710330684e-03 -2.272180520573399698e-02 -6.602544027682684391e-03 1.536401725723156135e-02 -1.028859530430638845e-02 -2.274196670108396753e-02 6.411646423265741045e-03 -1.831895145641715059e-02 -1.550154892130973031e-03 3.836567680397928032e-04 -1.676448652304471029e-02 1.218466080978661270e-02 2.445956827205488307e-02 -2.770177176582058406e-02 1.592437029874332194e-02 7.662682789397520094e-03 -1.226715235569551463e-02 2.409924313493948603e-02 6.721448370577740028e-03 -1.606653043496708219e-02 1.480847165978951266e-03 1.494463639773560386e-02 -7.298280333065021615e-03 2.463178495997471115e-02 -3.337172008785604417e-03 -6.954722784213232534e-04 -1.201778025894425887e-02 -1.038164019334858988e-02 2.081418640242664597e-02 2.361601585875988327e-02 -8.419980409014113029e-03 2.366719173318554414e-02 7.491658078099048927e-03 9.126804457820653430e-03 8.894097914059810595e-03 -1.988210525219297892e-02 2.992033067548636321e-02 -2.309645147976154347e-02 1.728006287984007114e-02 1.292185360104665566e-02 -4.818477144465648475e-03 -1.123828318949348683e-02 2.317996945745203277e-02 9.153490292057106167e-03 2.453200585642601253e-02 4.869178831952458361e-03 7.358665858049577915e-03 -7.920190264207861014e-03 -1.545652674081478099e-02 -4.458692620171526323e-03 -2.362590354369278195e-02 1.258080091002010924e-02 -6.269056015214136655e-03 -5.994152688613807456e-03 1.482751471974556911e-03 -6.270108743848644070e-03 4.918987308187851640e-03 -9.636655611194781465e-03 1.185169558465290832e-02 9.998547981244639352e-03 2.690332849192650366e-03 -2.137102026928232746e-03 -3.878597000151801544e-04 -1.754090492671506185e-02 -5.655355825464758110e-03 6.609512983447043966e-03 1.066454501469032111e-02 4.542465209614991034e-03 1.655410018511885642e-02 2.266862805286831706e-03 1.316215191432421050e-02 -1.225703268637571078e-02 -1.850889569039413513e-02 1.252611098952346666e-02 2.796471177224927034e-03 2.563383662844432171e-05 -3.211248484793134336e-03 -1.713282080597666387e-02 1.735446801605503714e-02 2.229328691102189577e-02 1.337044639919512078e-02 -6.599199108003760052e-04 1.529743033359034186e-02 -1.704893668425014677e-02 2.138107854868868604e-02 6.839373343485970723e-03 2.294979828870185798e-02 -3.684132592261121775e-03 -6.441015641955205595e-03 1.860939766645152912e-02 -5.144459068304037220e-04 -1.757235478105468457e-02 -1.342288153363608346e-03 -2.795110550853004659e-03 -8.124382742064499563e-03 -1.775063820375484894e-02 -3.722092854352117893e-03 -5.050548883409945213e-03 -1.137428150780729966e-02 3.393477218180215426e-03 1.168989398769760754e-03 -8.061857203138218450e-03 -2.449351780518530669e-03 -2.089690319358418827e-02 -1.766386716168342336e-02 2.373546571768205340e-02 1.793686215388421920e-02 2.397544577234094268e-02 -1.612077158599491133e-02 -2.343358016244539294e-02 5.740152131552266361e-04 -9.135233468108924434e-03 -8.218002718613700089e-03 -8.535309180294039719e-03 -1.558299319275823977e-02 3.132154314574640136e-02 -2.129204615128223177e-02 2.341666053962313671e-02 1.291155084598888218e-02 -5.884706125237786252e-03 2.798713877519920512e-02 1.910679705407554788e-02 -6.755752151968872667e-03 1.732050144413954662e-02 -1.258478686104264749e-02 -4.280021073090662168e-03 -2.064243621633852794e-03 -5.834801269517628404e-03 1.868600242267004150e-02 -1.815568235487707155e-02 1.821431908154536386e-02 -6.674822318748598222e-03 -2.009187210702299137e-02 -2.147851084558851167e-02 -1.543594558392365895e-02 -2.049235649358135264e-02 -2.245642405554141088e-02 3.664006755112846851e-03 -1.603592477498169688e-02 2.106780278106176393e-02 1.817422511999296220e-02 7.331562331990262339e-03 2.116868694592722797e-02 1.404904507267919385e-02 -4.038195843061975765e-03 -1.083876427089736430e-02 4.551883943974969864e-03 -2.411126381189965945e-02 -1.776472246420490730e-02 4.417193648117033813e-03 6.708137189403733450e-03 -1.976866489417620359e-02 -1.094530880795589918e-02 2.119167488321901938e-02 2.283515135583728123e-02 -2.447233247084745419e-02 -9.478109090823937100e-03 -4.653965999544604562e-03 -1.462264023765096760e-02 -1.660170343537393720e-02 1.667645554254576154e-02 1.748474796622069213e-02 2.428925096169100642e-02 1.216653008170396916e-03 -2.245236108402462634e-03 1.069202323632574905e-02 9.320092969206668354e-03 -4.943101238926415203e-03 -1.754196137954088658e-02 1.071106586610854304e-02 -6.098237075221821235e-03 1.930875438593133292e-02 7.070871959610419179e-03 -1.886795671640306357e-02 -1.392042756630867788e-03 -9.667317599899189276e-03 1.287442732167283846e-02 -3.171475578016782343e-02 8.644346266449857638e-03 -2.421129874798381640e-02 1.106893273621169238e-02 1.859847795948535790e-02 -2.013922027362367601e-03 6.410946610478353465e-03 1.898306256942671258e-02 -1.576613132884330595e-02 1.193899182497581632e-02 1.425300297781469105e-02 -7.735325841971599573e-03 -1.994417930507114134e-03 1.670862587966077950e-02 -4.253970590047507529e-03 -8.891823833576100594e-04 -2.123499930447348208e-02 -2.214611200406033792e-02 1.481235071787449092e-02 1.599778766633619918e-03 7.182268042756951090e-03 1.520764211350430183e-02 -2.397365841231265116e-02 1.607690686068640948e-02 1.197434363577773789e-02 -3.418837801977396475e-03 -1.316774956114455733e-02 1.559294722769238167e-02 2.432571722391360658e-02 2.138268900286407689e-02 -1.554371525625928598e-02 2.024602949521498232e-03 1.460416685790046423e-02 2.418275413347682149e-03 -8.469186870206080880e-03 -7.517917206321836181e-03 -7.648821121422145000e-03 -2.398396126977901666e-02 1.300084109525120055e-03 -4.671434235218865569e-03 -1.074450449642646264e-02 -6.268308094365877305e-03 -1.838729979418290278e-03 7.928937882176632576e-03 1.586790051771478152e-02 -1.068468696684378959e-02 -1.026129267479403834e-02 1.924678739515449377e-02 1.288268061393314616e-02 -1.999883807856156492e-02 1.668401705962650056e-02 1.341151638886103892e-02 1.584139236523404021e-02 1.314690007487042019e-02 -1.875153959922575692e-02 1.598708230501772951e-02 -7.789328652818942877e-03 1.203672061002448827e-02 -1.170118038045984965e-02 -1.034360897734168741e-02 1.625619047236308984e-02 -9.101261710038792765e-03 2.180211139146525506e-02 1.707383451967477150e-02 1.239702042844680573e-02 1.366219948714457108e-02 1.825956942702304173e-02 -2.028339326978518056e-02 -6.853842317199360275e-03 -3.083602458416805775e-02 1.662543487027516240e-02 2.439542457640307346e-02 9.563686425308848965e-03 3.890057854954594684e-04 -2.173488055149995143e-02 -1.392166707786621389e-02 -2.630537175871936265e-02 -1.691248031525598118e-03 -3.123514064529902667e-03 -5.238841603976528019e-04 -2.435711929539364703e-02 -2.390951241734950647e-02 5.310849955722525724e-03 -1.886225327484098227e-02 -2.205857481365823200e-02 7.652247091537235299e-03 -1.271812198133586563e-03 -1.715909301958253724e-02 1.325657422773734821e-02 -4.770154156107249063e-03 2.267181788174265841e-02 -7.102139909303836589e-03 1.524545328410749183e-02 8.889374646574937922e-03 5.298957351867120483e-03 -3.922160095068414135e-03 1.066490180549373862e-03 -2.288964763430705734e-02 -2.049903974603654172e-02 -1.792370775117421017e-02 -5.928948272697113012e-03 9.645644503923299883e-04 -1.897994749439018206e-02 -2.383335584812863728e-02 -1.770838011297968043e-03 1.167079855503099645e-02 -2.054446893553793507e-02 1.584681936140760333e-02 -9.889346158357289335e-03 1.851490078822090601e-02 2.225002929360466938e-02 4.371588848037630606e-03 1.229787967486565409e-02 -4.384170024226795976e-04 8.792950146922476687e-03 3.781266063148669161e-03 1.792522965049941821e-03 1.255482470955220607e-02 2.287791312011949220e-03 -2.007813992833237457e-02 -2.356570032771997461e-02 5.118231875495564930e-03 8.092050442736354460e-03 -1.230272878791508623e-02 8.328905306865450747e-03 4.031018802347988324e-03 1.985356458618266901e-02 2.344234347396315782e-02 -5.162602867803166642e-03 -1.474384084670134730e-02 1.638818732963500530e-02 5.120785833301064530e-03 1.538113447654918496e-02 1.823674888656192858e-02 -3.237449254078706568e-02 1.369571841755271371e-02 2.122550372231614760e-02 1.105483067298342802e-04 -1.563127485497885910e-02 1.048550745030727219e-02 1.783995699443401486e-02 -2.242127182294122167e-02 2.781780530532531725e-03 -1.167588646143523888e-03 1.929872606519353676e-02 -1.147443060324326858e-02 1.190286258133569502e-02 -1.240388670781493625e-02 1.447966938595451718e-02 -2.446765606454295514e-02 -6.825730725632563056e-03 -2.303178259068079312e-02 2.805317214705478276e-02 6.951315439271365387e-03 2.227216164677711663e-02 -1.312745440602664654e-02 8.529817159569125576e-03 -1.081658001081364784e-02 4.232491196853428207e-03 2.249495583454412181e-02 -1.606220837397294085e-02 4.123598760678750044e-03 2.671256246475761566e-03 -2.204678150517026120e-02 -1.511426609444230414e-02 2.425358186659931289e-02 -1.243148716487390421e-02 2.252623610789833072e-02 -2.206094332734741259e-02 -1.701816613182399393e-02 1.930418151496638562e-02 2.416708472313497738e-02 2.346097053344475825e-02 -1.662069794753556762e-02 4.829558395195283904e-03 1.034908589670162186e-02 1.813271479038898459e-02 2.011561326971509842e-02 1.206452227798123248e-03 -7.247164907386456287e-03 9.825479431994793914e-03 2.404077454445498196e-02 -1.345599986067860625e-02 -5.374383646439367251e-03 -2.463958505722109189e-03 1.040416970852085093e-02 1.381897654527861584e-02 2.062552843788627993e-02
-9.476139025481273084e-03 -1.420281308283125217e-02 2.102588864297576937e-02 -9.459800063990900232e-03 -1.828069448032781236e-02 -1.497043645070439931e-02 -2.223962875488904797e-02 -2.417870031527734678e-02 -5.526172597583297284e-03 -2.548949818786982666e-03 -2.137404736714356920e-02 -2.229102306727359997e-02 -1.913011001712249101e-03 1.443012760890564558e-02 -1.578820660094621547e-02 9.792615332451754667e-03 1.416890620572763826e-02 -9.887710010314906123e-03 -9.055382225608355623e-03 -3.899701069059160509e-03 -1.542466308897815983e-02 -8.362944079745353310e-03 -2.376208643999253717e-02 -2.182279811259764044e-02 -8.921977514798763720e-03 -2.391691713148416665e-02 1.890702285962620952e-03 -3.062234378186525635e-02 1.398845103062562947e-02 -8.686256958181717835e-03 -1.190788592444973724e-02 -9.774096153975697990e-03 4.488122511615766017e-03 8.303612885796200424e-03 -1.861536322180509101e-02 -1.565302347274710910e-03 6.262891672276818880e-03 -1.341773777134107684e-02 2.631451219671687020e-02 -1.691736770281998883e-02 1.260929078967838041e-02 9.621784531868120272e-03 2.259138664369859245e-02 -2.259975656629360091e-02 -2.807425099609897265e-03 -1.259791851155150216e-02 1.966091381996567730e-02 7.436508340404070910e-03 9.063845346414316564e-03 1.506799595084881010e-02 9.176441512380017346e-03 3.327228540007979522e-03 -1.146694630194474568e-02 -2.072886233575710335e-03 -1.938632019880313223e-02 -2.425666128872714170e-02 1.931015626442612876e-02 -1.704122258398134415e-02 8.413454400417961490e-04 1.271888323441979635e-02 -1.083285430023083265e-02 1.824503101638452057e-02 1.759785128996342943e-02 -1.918672406937809230e-02 -1.894244954696958083e-02 -2.288443208214938074e-02 4.977150564258152202e-04 1.532516374426029504e-02 -8.754273401656607195e-03 4.884087853015188496e-03 -1.729932615472615925e-02 1.890316759424421830e-02 -3.465491916375568540e-03 1.362535564968020939e-02 -4.282210163671728784e-03 7.248450507716255355e-03 1.276221347390022690e-03 -1.459029027728146397e-02 5.642381729466540256e-03 9.709162772523857732e-03 -1.519088113573010927e-02 2.162899243641074054e-02 -6.827438617900047878e-03 -1.802506424621462197e-02 2.499103985625526769e-02 1.218233870518932623e-02 -1.632123863521106263e-02 -4.146224186272864758e-03 -9.510489603271641418e-03 1.608273072498736869e-02 -5.639230438522091780e-05 1.476540923271469664e-02 -7.152008947306935649e-03 -1.275789449911884921e-03 3.201007573535946671e-02 1.947088506820916082e-02 1.455913014779085073e-02 2.407105032015069770e-02 2.114503154775472168e-02 2.278804067186141619e-02 1.013707878451989598e-02 7.735485965270802802e-03 -2.454658100076901814e-02 1.614242646334186626e-02 1.638118766491444486e-02 -9.044854681430876744e-03 1.334875566775495757e-02 1.074624101840363985e-02 -1.393126875199525265e-02 4.548075041171677560e-03 -1.004638544398975958e-02 1.816689567037345354e-02 -1.271112682305314918e-03 -1.858264424301296971e-02 9.491279513426728251e-03 1.964500466842340753e-02 -7.444252328377426974e-03 7.576460846995904108e-03 -7.691586733665995400e-03 1.629361256683737116e-02 -1.461097210553947458e-02 5.108543502059702951e-03 -1.374282053230174716e-04 2.293007194819670150e-02 3.951109590415786965e-03 -1.707836492190065864e-02 1.073404536923170186e-02 -1.202954104284535176e-02 5.082484088225989842e-03 1.688460948173481010e-02 1.224236559721400726e-02 2.168611298648290969e-02 2.990464244499887320e-03 2.620544389051460143e-04 -7.194973040494023406e-04 -2.866121751890051556e-02 -3.571322989046845503e-02 1.277476798528476981e-02 7.244457012903665919e-04 7.782915463570183601e-03 1.371954292800128296e-02 -9.925169320213387235e-04 2.257737066481707924e-02 1.182286484237574445e-02 9.070111937053529014e-03 -5.765820044763973404e-03 -2.552729220030076733e-03 -1.159832230416511616e-02 1.617431895251257579e-02 1.941052449856700904e-02 1.034904010553825728e-02 1.639500081025148728e-02 -3.977294916222462624e-03 -2.441416968234010054e-02 -4.574824626008772502e-03 1.436180712750295685e-02 -1.629033046754129951e-02 -4.062641829680816753e-03 -1.213938851006760022e-02 -8.985774098223047943e-03 4.813309468363513761e-03 -1.777601851126683549e-02 1.506462541407526008e-02 -9.208634164059658483e-03 -2.004315609002296772e-02 -1.581882520174237444e-02 -1.665333489419152865e-02 7.955300011622845266e-03 1.944283711823818067e-02 5.430747184404959710e-03 2.212709100679217597e-02 -1.447204650742037364e-02 1.856607898394177156e-02 -3.121348212944672230e-03 -4.737438463992428746e-03 -1.921546542631056773e-02 -2.203735969172834069e-02 -3.901464289160419454e-03 2.278762883343834686e-02 -1.134628110794233188e-02 1.459185479606540589e-02 2.634370559081797292e-02 3.850718951786968620e-03 -4.340145453758444127e-03 1.731200437916536120e-02 7.852729193797749682e-03 6.942542146234197825e-04 1.269399455290131859e-02 2.296550543061343791e-02 8.561271313001691044e-03 3.301384201790304174e-03 -3.818927727625773174e-03 -1.514509704834669443e-02 1.667759058016207371e-02 8.976167389411381786e-03 -4.126878407795324909e-04 2.183434585098575909e-02 1.622170563093307608e-02 1.307099474443042600e-02 1.736128559352349832e-02 -1.351159555562724728e-03 -1.307797301541143049e-02 -1.030024831405790958e-02 1.325052531908105409e-02 1.645772296747538554e-02 -2.078359111663522982e-02 1.540696781730821995e-02 7.175440992846650323e-03 4.012949512805055394e-03 -5.301293207800455987e-03 -8.805778229877278887e-03 -9.590228126059656757e-03 -4.664319747059948729e-03 2.076604188637816428e-02 8.839888437142463459e-03 7.391069405869562896e-03 -1.690881150388016257e-03 -1.886251993016228173e-02 -1.874228256173109813e-02 7.630501654761938715e-03 1.127720149924758136e-02 2.418294237328144636e-02 1.416132558967966339e-02 2.028344790770219425e-02 3.663261109867893550e-04 -4.855175883108429034e-03 -1.200411430970285166e-02 -1.353815373116867013e-03 -1.579950860447188604e-02 -9.353190054207137852e-03 -1.425623250378009119e-02 -3.760248268184714776e-03 1.562332167034268318e-02 -1.472338601776844100e-02 1.572111551434040438e-02 1.574463599170659173e-02 2.288087778233566932e-02 1.875782397212898134e-02 -1.785799712686041846e-02 -2.018928682860192739e-02 -4.944785478520398805e-03 1.903341868648920877e-04 1.878805200843700063e-02 2.626298246084833934e-02 1.067266096772856096e-02 7.070045254658314030e-03 -6.358267609472251225e-03 -2.277514078161117089e-02 -1.609599717300155830e-02 1.373285243592038338e-02 2.012570144655541349e-02 7.949280834603514312e-03 1.192335585417543878e-02 1.280025865583852250e-02 1.718135670147440466e-02 1.204473685910118809e-02 -1.247316713069692058e-02 1.714316965278255694e-02 -6.114130724024642279e-04 -2.371511378684097379e-02 7.575245145961566166e-03 -2.172344759557300747e-02 -6.256521171573302571e-03 -3.572291263397799673e-03 2.128115845142616869e-02 2.884690679940227209e-02 -5.547174268273665637e-04 2.224116348802536100e-02 9.066776123168191273e-03 -1.460616531623019736e-02 -2.223993098509914612e-02 -1.474138339034778734e-02 -1.407982333340618807e-02 2.279628840399698306e-02 -8.292303206116921274e-03 -2.396925001115582030e-02 -2.925546679877689526e-03 -3.761962356411640857e-03 1.430423733725165979e-02 -1.569198208012198212e-02 1.484496153321968222e-02 1.225331008820322587e-02 8.374861185599845326e-03 -2.041532404273014092e-02 -2.670142032111359059e-03 1.952933123719344938e-02 8.635227538213729320e-03 2.418695564217979849e-02 -2.826230924345197321e-02 1.104912126468023982e-02 -2.154673738487709184e-02 1.989836060726631051e-02 1.058845086382546354e-02 9.781373827543194885e-03 2.403014824110239964e-02 -1.598021742558989114e-02 1.682635981617829068e-02 1.215961506997463755e-02 -2.068999128394316545e-02 1.371703259520737350e-02 2.377568250437858688e-02 -2.282310546293216807e-02 -2.606407599662058112e-03 -1.628637433879461319e-02 1.393621031341417058e-02 8.244148936620935078e-03 8.606151163634355450e-03 2.098899220919133585e-02 3.303397902580600121e-03 -2.094369335943910976e-02 1.841626578055713045e-02 1.981540214044709425e-02 5.581321498402055069e-03 1.357265442476213342e-02 1.674901185063541742e-02 -1.257253923139686584e-02 1.263594149314765068e-02 -4.220493876549363116e-03 -1.320696403159426525e-02 5.563528893457115460e-03 1.751657024474391824e-02 -9.626385537691840161e-03 1.732078994863683365e-03 2.269486037552791852e-02 1.642659715313483579e-02 -2.548927411988025603e-03 -2.147234025486860487e-02 1.731454139724621089e-02 1.000774607571098401e-02 -3.113763573525000355e-03 2.704758826192213417e-02 -2.098356553797794607e-02 -1.829802139665631308e-02 -2.796784258711868410e-03 -1.466288980435062443e-02 -3.254904245800067236e-02 1.326135374214450387e-02 -1.871684354797599134e-02 1.336810754066905180e-02 -2.072843054746158903e-02 -1.459782137510401076e-02 -2.512304460244284277e-02 -5.292142762459779888e-03 1.272002555313077668e-02 2.120878781731058704e-02 3.201496293844025010e-02 3.562889440785112476e-03 -8.730971958326044086e-03 -1.449679385923570950e-02 -1.864855137699268292e-02 1.311926147699869240e-02 1.636883688174140677e-02 1.693002369091977516e-02 2.054600521783606429e-02 1.288995561439717011e-03 7.814606564703667491e-03 4.391293792965624693e-03 1.391933560436670221e-02 -1.408916340857441565e-02 -2.309865478988893175e-02 -1.601858908276528742e-02 4.912525867561146238e-03 -1.069325366091961743e-03 1.416082269695540484e-02 -1.498560141983165369e-03 -7.134896688835709773e-03 6.551959527481113904e-03 -2.072541944509271802e-03 -3.686170818864797048e-03 1.442307341069837268e-02 -7.521357504039006929e-03 1.489936931234815687e-02 -1.679087381460542955e-02 -8.707479324274783848e-04 -1.159621192960500792e-02 9.199587245971078964e-03 -1.453382627578680628e-02 -1.808932865236567017e-02 2.015917535542247063e-02 2.301416462498194135e-02 1.313609018723850899e-02 1.314380694826050404e-02 2.385745900575084177e-02 6.163230123464527458e-04 -1.200348829794817794e-02 2.379786976928434036e-02 4.168520486158397063e-04 1.091495583759372404e-02 -1.213961422119716298e-02 -1.338874447958401590e-02 -1.396523739686316530e-04 2.102593947807584671e-02 -1.871846102003010825e-02 2.212534356798174021e-02 2.112446572503783732e-02 -1.870039012479323207e-02 -1.272324483048927271e-02 -2.433973786656274535e-02 1.825811348529707626e-02 -2.358109281087545500e-02 -2.324512173669373433e-02 -2.418860109317448256e-02 8.577307800049180711e-03 2.215181997960188193e-02 2.008661986787719372e-02 1.745199506015812987e-02 -1.382470447318607902e-02 6.557984990036092379e-03 1.960339361719847309e-02 1.782422614150653423e-02 -2.433015494690734387e-02 -7.387603939235480588e-04
9.818347491455412662e-03 6.882992057869376928e-04 -1.951499406044599838e-03 1.697263767451811026e-02 4.759669226034418839e-03 8.566446799666798187e-03 7.355088371404278937e-03 2.812493634760654306e-03 1.824473178246145341e-02 2.014261418738799714e-02 -2.339529927369206688e-02 1.719389495652303215e-02 -2.822306512997710404e-03 -1.702768785979497795e-02 1.049191894562041469e-02 -1.388503775436944476e-02 2.251660405619743122e-02 -5.614418367174319954e-03 -7.322622540962391187e-03 -8.921504956748541743e-03 -1.841636067798824161e-02 4.734717080067347116e-03 -5.963018252139378438e-03 5.055393559962762830e-03 2.359186504383955010e-02 -1.482115197948571939e-02 -8.652843941634062730e-03 -2.433098830714891872e-02 8.518293035532226165e-04 -2.233535380458408735e-03 -1.537331648465511263e-02 1.585911864952208733e-02 1.396960908017614786e-02 2.299506644584777687e-03 -1.903986069812515017e-02 -3.190718799889740321e-03 8.449633194206045139e-03 1.496361596346262868e-02 1.245809736349637667e-02 9.182922296392965339e-04 -6.522727746017056155e-03 -1.422448914064372225e-02 -1.829835728034282958e-03 5.355718655984695147e-03 6.835578470086929592e-03 -1.207914262799740859e-02 -1.472130111732355626e-02 2.289190075701073163e-02 9.550438208289321190e-03 -7.554227957061878697e-03 1.670839817391308810e-02 -1.462081671115869098e-02 3.003575369737246717e-02 -1.323992174429894364e-02 -6.974336120545443669e-03 -1.814446108195529386e-02 4.919313326055987576e-03 1.330962574235919522e-02 9.789664843078157638e-03 9.907829762666431686e-03 1.193660351617620990e-02 -3.182662669035520031e-02 -1.548052472560557981e-02 1.798216420560171114e-02 1.472378890660963439e-02 -8.203072835148841196e-03 1.445670597098419261e-02 -1.135232851707199640e-02 1.387115502351317711e-02 -9.481195649453063798e-03 -9.119519742559952305e-03 2.522003674352507087e-03 9.872413334576633781e-03 -2.084888804406553539e-02 1.357635679676121726e-02 2.456686840639560332e-02 -2.290111989950942631e-02 1.189802924564456639e-02 -1.261589139692769965e-02 1.902017276789171735e-02 1.495979022504735113e-02 -2.362082832572990829e-02 -1.530765158442392790e-02 -9.943055837384150858e-03 1.645254818849639644e-02 -1.115569844206665620e-02 6.157029826154795243e-03 7.200374538689552004e-03 3.523474878384196679e-02 -7.562427358425540154e-03 -7.362208948312850415e-03 1.099318884029429171e-02 -1.744059980741703014e-02 3.377020494052104457e-03 -1.575621711532157465e-02 -1.685166185129698471e-02 5.670918327019870003e-03 1.759747927772068940e-02 2.267741707289051487e-02 5.212134611034995382e-03 -6.215462552255510142e-03 1.226852553173580357e-02 -9.191100751689948792e-03 2.027232584394323897e-02 1.122098460377029573e-02 -1.273768316644041708e-03 3.787036047102769736e-03 -6.575917204914659593e-03 4.637527993102807250e-03 1.286935440256484382e-02 1.409916012830080695e-02 -2.206921621672803743e-02 8.921422882832199738e-03 -5.018808973379771353e-03 -2.266306420921460757e-02 -1.730616777174356913e-02 -1.621683519424904629e-02 -6.749785806939865955e-03 1.219769111768458612e-02 2.450785944182859097e-02 1.351771692893346741e-02 2.378179245801809866e-02 1.183989635474503622e-02 2.096123452965775041e-02 1.522397224433127277e-02 -3.281333723839764595e-03 8.591882066982635055e-03 1.248925512170312620e-02 1.477124309788535594e-02 -4.365355028948206262e-03 -1.187931607237716590e-02 1.522747256504201636e-03 1.498672284331728890e-03 -6.927446354459387487e-03 -2.110553612845775945e-02 -1.248820729116810989e-02 2.143507125589214427e-02 3.609314270055193237e-03 3.544965186226124113e-03 -7.622697392859000649e-04 -8.605670047771060704e-03 2.012654458898577303e-02 8.290048193379747493e-03 -1.588625346310919978e-02 2.048574607124829111e-02 -2.227193541315050998e-02 1.017968740336068229e-03 -2.102913354289119921e-02 -1.688930616570105334e-02 9.221998996001594048e-03 4.787262941233239380e-03 1.945505702915681021e-02 2.393974798865840595e-02 2.547370316683939678e-03 -1.929647585115576089e-02 -1.665510569461669740e-02 1.413872524349093357e-02 3.103477869400549441e-02 -1.188570528871099423e-02 1.128379121532894699e-02 6.736134303968069857e-03 2.329368118174289515e-02 -1.217966263651182671e-02 -8.819381066045921605e-03 -2.734402677043136498e-02 1.069744555549679427e-02 1.640922219587509154e-02 -2.427546269055138109e-02 -2.403337368073011487e-02 -1.108024087512764905e-02 3.524524413124597699e-03 -1.189271847138744301e-02 6.745017478525715217e-04 1.784491219047587909e-02 6.955147435876362846e-03 -9.627610017116060293e-03 -1.092093433619701270e-03 -9.581126523814641541e-03 -2.528945317914764500e-04 7.664935846805398046e-04 -5.922283329548604959e-03 -8.903627307255877754e-03 -1.690104095231928505e-02 2.180775123684558503e-02 1.519472755809007924e-02 8.759664671125650184e-03 -1.582391961283250575e-02 -1.165313029387028340e-02 -1.504485749543682353e-02 -1.788437992797858118e-04 1.602730890622669838e-02 1.943784273858680661e-02 -2.140741310080410478e-02 3.873679436592933779e-03 1.916872215391633369e-02 -2.122047607597772959e-02 1.771618075884715329e-02 -7.359785847772180346e-03 -5.380403318566410846e-03 -7.854410558963570779e-03 -1.663399132622517609e-02 1.949121699374489758e-02 1.185134890514250028e-02 -4.794885018201412198e-03 1.315123645662804285e-02 -6.788584191466840063e-03 9.082266718345723480e-03 1.264432051529464952e-02 -5.140283740951197798e-03 1.716587211580352171e-02 1.477544982244748811e-02 -2.299408566374612148e-02 1.424549045253240866e-02 2.975423971325563861e-03 -4.129429926688869303e-03 1.465975209192121528e-02 1.137930467038514304e-02 -1.566904547036952755e-02 1.881148836058810919e-02 -1.093082626793364862e-02 -1.631952209655104444e-02 2.485597946261597704e-02 5.968203743364620777e-03 -1.585614238750765806e-02 -7.128582150857002732e-03 9.849538831396538116e-03 -8.462428825900974484e-04 3.678904460785812486e-04 7.017611321522731170e-03 -2.236268659726424121e-02 -6.869015464636099577e-03 -8.341186104308140684e-03 6.727974479277997975e-06 -1.698319914578474282e-02 -8.128501804390933852e-03 1.296349202194302403e-05 1.088387318150478046e-02 7.874892358180431151e-03 3.446072495022955463e-03 5.225653883523892311e-03 -1.625103293576974847e-02 -1.668300455803108095e-02 -1.297461939473567444e-02 1.605926627280515953e-02 -1.697846169437446096e-02 -2.085154651119679875e-02 1.786197530746308146e-02 -2.236266975951136868e-02 1.574928041973285356e-02 -1.156044032002525625e-02 -6.331477903778482026e-03 1.381104362358632522e-02 9.503551196911787929e-03 -2.096086162676098416e-02 2.336177374538577281e-02 2.176977246174812211e-02 2.297561922542834187e-02 -1.633755818170552071e-02 1.203360060134841397e-02 -1.029425754179410547e-02 3.699863921548157512e-03 5.097498453728614362e-03 -5.438406819647765254e-03 8.863347704239370531e-03 8.847297784741784202e-03 -1.860034975806950860e-02 1.852810032733058498e-02 -2.336301227739827346e-02 3.998272034444135675e-03 2.369181951001827699e-02 5.865508260399329016e-03 -1.340725249777964534e-02 1.472392624090569993e-02 -1.495210307635485604e-02 -1.824097338222131076e-02 -8.530255784033639269e-04 1.674679428580621784e-02 -6.328043288526956009e-03 6.870780793928155800e-03 -1.956848593937578901e-02 7.827177302784019478e-03 -5.001322094332160892e-03 -2.394589995915420710e-02 4.221180343199758267e-03 9.826112160729927325e-03 1.912184924968163627e-02 2.137549788223171848e-02 -9.351068781345698785e-03 2.204871888783371467e-02 -1.701661524550687407e-02 1.338148846462430992e-02 -6.921346918486063343e-03 5.144861210541423410e-03 -2.029408759139388410e-02 -6.441191077456054782e-04 -2.848407007953128456e-03 -6.316466483838137705e-03 1.438127803585000086e-02 -2.235957894131379293e-04 1.578458186081228148e-02 2.634102346682609674e-02 4.788235778817975558e-04 -1.560093894555518793e-02 -2.234446239755696548e-02 1.912738921756583499e-02 1.878751465850759736e-02 -1.566176810940004063e-02 2.397188748196538849e-02 -5.807822232739844569e-03 1.254379242312954855e-02 1.939835593900059857e-02 -2.070024150138802949e-02 1.636330170385008912e-03 -2.125883506076497662e-02 1.036110182333267911e-02 1.393542396784597757e-02 -6.013833089009460071e-03 -2.035936845515717158e-02 2.342133443394063368e-03 -1.335425143220399756e-02 -2.370835794031018323e-02 7.007891900687179820e-03 -1.589284995599579350e-02 1.895184862035751913e-02 -1.066702874979745877e-02 1.568249309470011107e-02 1.426519403860424147e-02 4.634799590109064797e-04 -6.452054082503545264e-03 -1.083530062057268782e-02 -7.252621638742019240e-03 -7.814609893249913411e-03 5.196340529950429707e-03 2.591622406374190918e-02 -1.668655946792726996e-02 -8.625667136671139740e-03 1.556194799757617056e-02 1.806055830866047651e-02 -1.216329624389911671e-03 -1.566671687372327149e-02 -8.483110669306530641e-03 -6.898898360429020493e-03 7.337818458861708470e-03 1.131937059455458659e-02 1.932313812327777006e-02 9.939589592506552912e-03 -2.196486555183839104e-02 -2.534234222237421313e-02 8.520121013775120225e-03 2.236160622190878910e-02 7.796211811538757142e-03 1.094356270020731443e-02 8.017892131632047698e-03 -2.149780611304947728e-02 2.061683002346804960e-04 3.586689600646713900e-03 -1.728600620397439253e-02 -2.339585077546002881e-02 1.533664532583724205e-02 -2.421127204744789527e-02 1.485080151007543009e-02 -1.687104123861220967e-02 4.399771052853860198e-04 1.406548079539736429e-02 -1.202456188278184894e-03 8.814336244331096026e-03 1.142787138086712000e-02 2.360586514562812779e-02 -6.531882573217038211e-03 4.922640512765304004e-04 -9.052098501259313312e-03 -6.263165055079710115e-03 1.170529934891016526e-02 1.853031375532503307e-03 -3.575827381200313241e-03 -2.345256963537201492e-02 7.074408464045378424e-03 -1.360243433626440006e-02 -1.716052775128116409e-02 -5.167617045024601452e-03 -1.187459095347003120e-02 -4.013042091904503623e-03 -1.713246090885298719e-03 -2.142912833710658438e-02 -2.395408612769541618e-02 -2.442919839737749468e-02 1.954780587694281146e-02 8.899417124737376422e-03 -1.818890409729212801e-02 1.874476424187636672e-02 8.096206588035901111e-03 2.366007766821907193e-02 2.053061007907914029e-02 -7.831836337764687753e-03 -2.332930592953202584e-02 2.369900661067822836e-02 -1.483893692929326956e-02 2.461845244457867496e-02 -2.461329056609045871e-02 -5.693438663264413328e-03 -2.136961520419018365e-04 1.566626908131666870e-02 -2.311888588815707787e-02 -1.865882372979404610e-02 2.055979958768738153e-02 -2.114768055303079767e-03 1.602682599359896501e-02 -1.906548286322995445e-02 2.291501180738152871e-02 1.171797784486440855e-02 2.320253990027448809e-02 2.401341317780032389e-02
1.798811969799910676e-02 -2.211390423731358565e-02 1.814734056480663688e-02 -2.272594557158978332e-02 -6.789287168834628322e-03 2.402349886553206346e-02 -1.105302754240907598e-02 2.403860087645597662e-03 -2.378856655684723903e-02 1.327690940950851384e-02 1.362754161554133661e-03 -1.073281727953312968e-02 -1.792435397550112483e-02 7.875902698917802702e-03 -2.008911710184042160e-02 -2.675109786543980288e-03 -2.857230526282852900e-04 5.338176006591422752e-03 2.257388067558437766e-02 -2.604044249017832199e-02 1.156354480257356168e-02 -1.186746712399102408e-03 -1.254441900325367967e-02 1.634267670686762389e-02 -8.570981480238406419e-03 -1.477774092738706746e-02 1.970505394593283915e-02 1.476435615630337060e-02 1.778337263335043675e-02 2.177466360635171849e-02 1.865763549697075502e-02 -3.556139878597323629e-03 -1.093100908085431651e-02 1.088139990131277261e-02 1.206277371596866863e-02 4.178191659763260020e-03 1.197522618860867409e-02 -2.690425195200380794e-03 -1.233921720639415652e-02 6.656520232161505270e-03 -4.360225142047082988e-03 -1.016836769283186760e-02 -9.096709140695281512e-03 2.149646009836462049e-02 1.850796836695127109e-02 9.913366725585771866e-03 -5.752889675225673731e-03 -1.754416709785604211e-02 9.825314990589226888e-04 -6.750819381569010680e-03 1.185163303793887977e-02 1.188050957831091742e-02 2.441643524086180642e-02 1.984442444607743480e-02 1.347938682875492698e-02 2.079993101443935663e-02 -5.941048046815993779e-03 -1.156617305195855282e-02 5.124110171059457694e-03 -1.814715924609665906e-03 -7.909869402339893968e-03 1.163850476651819271e-03 1.975993160798496240e-02 2.029151551914881030e-02 -1.311550132848200191e-02 1.585198584749611048e-02 1.550591847942820595e-02 -2.589400870004172385e-03 1.760611772495323038e-02 -1.985932020189289104e-02 -3.159204893417537092e-03 1.341559491816305891e-02 1.429188136076741875e-02 -1.267791605820151393e-02 -5.875515356564510114e-03 -2.407974210408966517e-02 1.029097564942428773e-02 -1.797577339792526610e-02 -2.062593581723697403e-02 1.845370278983727436e-03 -1.297023811955786213e-02 1.354027701666606076e-02 2.339054837607316972e-02 -2.329059214916058551e-02 -1.613910756796106682e-02 1.361499548584345701e-02 2.366331493067318908e-02 1.063849665921323684e-02 -1.419858100191007111e-02 4.447063429668818985e-03 4.206996772166947743e-03 7.383797378300973983e-03 1.330852044054888460e-02 -3.525321522280301136e-03 -8.299531528715858170e-03 -8.548952988560178448e-03 5.944608839927223790e-03 1.221005095415624237e-03 1.730914811977615070e-02 -2.489889133326263909e-02 8.077906214233841753e-03 1.087615433693503789e-02 2.290930805973459203e-02 1.738273501146267788e-02 5.432299570614654294e-03 -9.874066123564166630e-03 3.778162091729285899e-03 -1.239026304204418096e-02 3.040891192986908999e-03 1.169655278821396180e-02 -2.363669594603960353e-02 7.338395960146312444e-03 1.668522264683819714e-02 -1.376538523358054357e-02 1.606481787328255251e-02 2.234544235122736672e-02 2.158837461203826774e-02 1.481173466599501783e-02 1.720377127962542316e-02 -1.930409121334415029e-02 1.654421117081262410e-02 -1.562566256063372891e-02 1.167818451949011876e-02 1.577097307093474482e-02 -4.795016767201916615e-03 1.200662685015941450e-02 2.243203438620461690e-02 -4.486413605073028867e-03 -1.547703385454237551e-02 1.194078617040320728e-02 -1.506411132772415146e-02 -1.543355523159890830e-02 -4.096226764409792963e-03 2.128042226058262862e-02 1.917817732583575532e-02 1.729543459875359374e-02 9.076412971744121649e-03 5.955825644544669902e-04 2.459299197678463389e-02 -9.862486256495483009e-03 1.467310788778151097e-02 9.750173730876689898e-03 1.103686175228124448e-02 5.516615897964074512e-03 -1.173632073342463326e-02 2.320226169160530608e-02 1.111177182406344194e-02 3.483811672379111962e-02 -7.477832948498208156e-03 1.910066543144577772e-02 -2.981574648737060629e-02 -1.260566213628872695e-02 2.312513774011418850e-04 9.751370405083167187e-03 -4.854157601704604114e-03 -1.505850936513015645e-02 -5.728825812060233400e-04 -1.162887747192262004e-02 -2.276039686026802566e-02 6.091651869966352439e-03 -6.836659345389901714e-03 -5.764230995679939934e-03 5.854671366047687264e-04 6.941847252155491921e-03 -2.312320047078789131e-02 3.935277561602098205e-03 -1.248923578210537656e-02 -2.539091682860211696e-02 -2.062984770619606667e-03 1.969188128763443499e-02 1.003248431957146601e-02 5.262579454517276982e-03 -1.876061582607743694e-02 -1.559931314664446921e-03 8.166359145702720493e-03 -4.682461965589210760e-03 -1.515185315019052306e-02 1.563546183778711379e-02 -1.325338827356820764e-02 1.503325332504065054e-02 -5.467182846166954331e-03 -8.677087245695108350e-03 -1.010201302719360671e-02 1.879366470462349656e-02 -3.575455302229487917e-03 5.157748453410015456e-03 2.399549961024182929e-02 -2.252348104366955553e-02 6.949633564897162233e-03 -2.504059307292335126e-03 3.998656384589912498e-04 1.548789679527312266e-02 1.620431870380330611e-02 -2.320308950205066112e-02 2.402749294742899736e-02 1.128601950558447663e-02 -2.096635142651384967e-03 1.699166938046166656e-02 -1.510872253226547453e-02 -6.139722632566620847e-03 -2.758598233276945977e-02 -1.573877978185492243e-02 -2.187403123545006781e-03 9.609133189965231650e-03 2.373933991244112779e-02 -2.458900624333605275e-02 1.564843431638620035e-03 -9.991092108021870991e-03 -3.610169624033020015e-03 7.712163181945999244e-03 3.436268359913373545e-03 -1.379315165166879881e-02 -1.136836044028216586e-02 -1.020659598065486520e-02 -3.928354035582773060e-03 -4.672442766210597315e-03 6.205532580664631544e-03 8.491687037211139918e-03 -2.128727494358361588e-02 2.437918823866205842e-02 -1.111617336205729910e-02 -4.097263514394993041e-03 -1.681518033486045782e-02 6.904560510182200864e-03 -1.440079488225465970e-02 -2.052266069327328066e-02 -2.193942609074043745e-02 -1.188994640046871915e-02 -7.731912797019605335e-03 1.501219863631213583e-02 -1.630858922563621291e-02 1.106136822744045907e-02 -8.296647086379220493e-03 2.154562841797088082e-02 9.690430012920409411e-03 2.003450877000469144e-03 2.226290024384227142e-02 9.667605828101753090e-03 1.274999521835953019e-02 1.499357417982240953e-02 1.420008632406673764e-02 -2.226215682954990963e-02 -1.957204786088257136e-03 -9.528213170548568978e-03 -3.098327636189489222e-03 1.551666227480231336e-02 2.246449005340625212e-04 -8.655022456324686433e-03 2.333340320812513080e-02 5.999261479325185102e-03 -3.154463093676283456e-03 -1.080392518622131032e-03 -1.376519937361929923e-02 -2.403960946560199791e-02 1.748570059314401987e-02 -6.957185928009688471e-03 -1.448250290429220488e-03 -2.339265336931214360e-03 -4.245393909131141980e-04 -2.853508634293389773e-03 9.671160331969207592e-04 -1.948171137301208528e-02 -2.126471030024312120e-02 1.744099808129567081e-02 2.309145451289382894e-02 2.548181455488021489e-03 1.713435982614202116e-02 1.287200349079746856e-02 1.699131668623649755e-02 -1.638538945411709483e-02 9.518285387608585663e-04 1.598777307334384168e-02 -3.468609865804352793e-03 2.316298730303947839e-02 -1.512265702688954556e-02 1.912384570247693816e-02 4.932793194358724848e-03 4.706204225960083400e-03 1.745752485790760811e-02 -2.064028551523437900e-03 -1.899323184667001466e-02 -2.226074581561181959e-02 -1.991938193158397652e-02 -8.908094530098158159e-03 6.738940451019658807e-03 -1.736996526810977159e-02 -1.271320314731694094e-02 2.233417996664372254e-02 -1.048709502131503317e-02 5.471536923306718342e-03 1.128863309907596028e-03 1.859945533356714351e-02 4.638786168797468835e-03 -2.150320084626878431e-02 -1.097886201311701858e-02 -2.496107983474137385e-02 -6.463781921690236326e-03 -7.580233047688645157e-03 -5.990020021732166827e-03 -1.075993084294162537e-02 1.178930883919109690e-02 9.803008451104903639e-03 1.904369044395177665e-02 -1.730367631753623736e-02 -8.451766093457917933e-03 -1.480347757503882623e-02 8.402155452683867515e-03 -2.858565651452993957e-03 6.358632998379489670e-03 -2.239973922930040343e-02 1.201150648880559488e-02 -2.297128892870367936e-02 1.361208942130506111e-02 -1.986288685135387949e-02 2.166710119487240405e-02 -1.277545437471933575e-02 -4.122269171527413604e-04 -5.495428408751196203e-03 -1.165141397357407488e-02 1.616941472217217624e-02 1.871701568890461048e-02 -2.173137910173966042e-03 -5.472615190693758645e-03 1.527286444073979073e-02 7.783796273036536900e-03 2.148065473997162397e-02 -1.707056842663546084e-02 -1.586038745634558642e-02 -1.180096449482712084e-02 2.311975511017825245e-03 -2.220654416319909480e-02 -1.439255625608227424e-02 3.070939660081717110e-03 -2.174536143511667310e-02 1.843520326167155665e-02 -2.440535193282205792e-02 -5.595369757700868404e-03 3.432353345127013306e-03 -8.884944772746761199e-03 2.314897266248604549e-02 -6.511364536789349469e-03 2.412482484419986931e-02 1.687652429131098961e-02 5.878321352770776720e-03 1.648014334618445528e-02 -1.155482531235066911e-02 -8.423921077097253074e-03 -5.095774981556564290e-03 -9.565797239223326059e-03 4.623656348699344866e-03 -2.385242165527449304e-02 1.499369128107705743e-02 1.607177714114434164e-02 -1.814599176258148774e-03 -7.256570566186395892e-03 1.531035764031002042e-02 2.143091707278614588e-02 1.423640937562168848e-02 1.971834391577794929e-02 -3.143727379017917118e-03 -2.648635002338091404e-02 -6.084919540762680559e-03 1.450862668399172800e-02 2.101030213590970169e-02 -6.720017197774361996e-03 -1.186040767048762018e-02 -2.215591234925056580e-02 -1.500206369522778978e-02 -2.221761631788119612e-02 -7.347488451996963404e-03 -2.082502124430469018e-02 -1.186588491166151380e-02 1.822000597628913726e-02 -1.953565125159614085e-02 -1.553817662347569024e-03 -1.249452837825276025e-02 -7.017667168656839365e-03 5.496677888593887867e-03 1.746538463736833913e-02 5.732937127735938596e-03 -1.599023009034724815e-02 -2.213610535707382504e-02 -1.768551638642716986e-02 -2.234331661349622453e-02 -5.253837081524001876e-03 2.079672558611685845e-02 -3.433567590912370033e-03 -8.970551475111919373e-05 5.176460277855232661e-03 2.176753447262593302e-02 2.127229773519555972e-02 -2.132541827213919189e-02 1.942199855870390974e-03 -1.072701194511710941e-02 1.880430911650423850e-02 -2.159636236646456271e-03 -1.223583549789557939e-02 8.861054804636040241e-03 -3.092787868641577731e-02 2.359519369933293226e-02 3.370338000290793064e-03 -1.598822348951749878e-02 8.785992193631792305e-03 1.903164931255937539e-02 1.048434445464688398e-02 -6.652307439124915782e-03 -2.441570567708183787e-02 -3.731237258472104600e-04 -1.307213484702294572e-02 -1.495904516973434184e-02 -2.149820543491097469e-02 1.163933463484960115e-02
-2.429788386027509350e-02 7.546575743989815746e-03 1.530404770151403381e-02 -1.225977373480705360e-02 2.448788256569768909e-02 1.221949260394476940e-02 3.899750609609972316e-03 2.766741973168608537e-02 -7.348534780158833685e-03 -6.217020513617178487e-03 4.714135213728749482e-04 -2.234188678100738207e-02 1.661068608176470909e-02 1.847376635611045967e-03 2.218703093009585445e-02 1.873559421370161755e-03 2.327146924275422940e-02 1.599681699034411018e-03 1.651321916396422673e-02 1.555494045249744377e-02 9.032745688152130775e-03 2.820767193013088651e-03 1.991819754667700434e-02 -1.747896904252291272e-02 2.294028843991118298e-04 -2.725841693596210355e-02 1.519205914441564519e-02 7.333399517836534931e-03 7.316309453736329765e-03 -2.423182012883890596e-02 -2.120286040051496887e-02 3.094795824901204646e-04 -1.277070760679747778e-02 -2.259417415008713528e-02 -1.178197788980190307e-02 1.423221653063623873e-02 -2.445805178190903900e-02 4.994402877352204125e-03 -1.272822585439799432e-02 -2.147862959437351824e-02 1.975817396331424475e-02 -9.554121170913386363e-03 -4.183168004838793558e-03 -1.073192094989511292e-02 1.478903305150108122e-02 -9.778289036736008237e-04 -4.600043868428689044e-03 -7.888923652183533683e-03 -1.237484511925728697e-02 -6.724139677530941578e-03 -3.572338010452178608e-03 1.653868292427115036e-04 -2.319921597128211249e-02 3.942016498748457040e-03 -2.447755364570954398e-02 -1.435838066725324443e-02 -1.804595879790940605e-02 1.817605035553014267e-02 -3.333204992179214510e-02 2.349603043783649384e-02 -1.088790827333826344e-02 -1.112335537975396235e-02 8.304660690563188397e-03 1.029728435884128684e-02 -3.481004649256229377e-02 -1.121343325662719180e-02 -1.184289010473596991e-02 -1.812420535520550477e-02 -1.953379901617731396e-02 1.888634211636176785e-02 -1.070200409205613289e-02 4.018147362775369331e-03 -1.144446124134665399e-02 -4.765280970498127384e-03 -3.575785562935868654e-03 -7.086918424511048052e-03 4.426802045391066420e-03 1.341192354462615935e-02 -6.443359285768603291e-03 -1.401397822057085830e-02 1.984039366057521042e-02 1.933100754408433389e-02 3.911536155344945420e-03 -7.519475877807152778e-03 -6.972392021422332657e-03 1.562526903955846133e-02 1.093321024590568694e-02 1.633875795055588984e-02 1.098047411731124974e-02 4.429196029672218503e-03 5.463751013902191228e-03 -1.914036999611237744e-02 -1.746422868262875391e-02 1.625450887621003940e-02 -1.137491592565890997e-02 2.236075929571454401e-02 -1.603183630360435763e-02 1.626802287351151446e-03 1.061747943511611933e-02 2.179393949717667311e-02 -1.148003658382648401e-03 5.819063342083075595e-03 -2.090265940751860965e-02 1.110435621552534162e-02 1.829621517310591264e-02 -9.895094326367816565e-03 -2.812124339894601921e-02 -1.620812059030332652e-02 1.047392404720299576e-02 -2.321452239093313788e-02 1.586285080631598399e-02 1.521995230952789477e-02 -1.789250833463991788e-02 6.264576764460598121e-03 2.339974744415808383e-02 2.433430713576453450e-02 -1.167983335585416269e-02 -4.496683269787212119e-03 -1.048850888068188908e-02 -1.126290979035331728e-02 -9.274679830826021779e-03 -9.649559454652333404e-03 -2.164617732094392330e-02 4.327025916702973915e-03 -5.280242162696452760e-03 2.150797205580506216e-02 -2.032529640102733598e-02 -1.002652058243322988e-04 2.120603243107038738e-02 1.319785954479810869e-02 -1.986754753335270851e-02 -1.535043027025461207e-02 -4.176373193156282353e-03 -1.734851294370970062e-02 -1.013657297281234278e-02 3.282170351088817793e-03 2.071964110674275744e-02 -1.724015036841052700e-02 -1.160386792956389149e-02 -1.917856846429855447e-02 2.545713774123164672e-03 -9.783897253819625044e-05 -1.470385479300286360e-02 1.347645183265296087e-02 1.134746327220733167e-02 -1.444669101103187789e-02 -5.715588099454723715e-03 1.491720954496815292e-02 3.839288570672672908e-03 1.880232109936633839e-02 -1.212653059836134306e-02 2.413601667612033305e-02 -1.203279073910374329e-02 -2.055089902259753937e-02 -1.029914043661826588e-03 -7.031572529380345805e-03 -2.038904586355299448e-02 1.662747889619606723e-03 2.213931159745455984e-02 -4.528679253346111315e-03 -5.290687144544561731e-03 1.179852528047037330e-02 1.299470168630608748e-02 1.400730766310676056e-02 -1.053747082659660557e-02 -2.033842349123114387e-02 2.132887859971337521e-02 9.137789461473286995e-03 -3.152242973216054164e-03 -4.048167567905177396e-04 -2.139973333734546124e-02 -2.080983674944741815e-04 3.559947132572828955e-03 3.667440225845151718e-03 5.883472412453459241e-03 5.813150290973558183e-03 -1.823742629744410162e-02 2.094341467719722585e-02 1.107722006613862803e-02 1.029443865662986630e-02 2.138346272395156081e-02 -1.609784287893208793e-02 -1.015373597354324829e-02 -1.057712867658579942e-02 -1.154606927149709125e-02 -3.265314598659337011e-03 -1.373653890560319266e-02 1.466837936034638863e-02 2.057036362570821911e-02 1.026723476312722122e-02 -4.666899004381922303e-03 2.254170771002148368e-02 -1.544723533194251137e-03 -1.818713380535930124e-02 -2.855128797385541803e-02 1.459036494071508198e-02 4.646299412501917608e-03 1.001794340414257842e-03 -1.824606811487756303e-02 1.614219899401891922e-02 -2.079120878778302137e-02 -4.086285728515787023e-03 1.493874192119802775e-02 -2.201822094818135789e-02 -2.230045555722033959e-02 -5.878047826240587193e-03 -2.105254355367817617e-02 -3.842267503337890369e-03 1.724778057730414274e-02 1.069977125162907767e-03 -1.665133221336011216e-02 -1.020611390368052727e-02 -2.298979878536831778e-02 2.158004890265324133e-02 -5.576424845764144447e-03 -1.046336680150523370e-02 6.596872676583772667e-03 -1.950420741153262262e-03 1.758408128098700937e-02 -2.311658629434633610e-03 1.691654521541397155e-04 4.893333362140547295e-03 1.575381011073042140e-02 -8.457801881098903074e-03 2.245427167894354595e-03 -2.158491180786969652e-02 1.737142592964845481e-02 -2.812558246678120363e-02 -3.440965180705727981e-03 -1.242333137442369097e-02 -2.182024991141212969e-02 2.261248833272695713e-02 1.594331639649695237e-02 -9.593949473163849301e-03 -1.934992929756974844e-02 9.735819426709847735e-03 -2.658709492438322830e-02 4.817169543185951565e-04 -1.070802620208144602e-02 -4.009682479915653748e-03 1.006268663652432407e-02 -1.560239442491838553e-02 -1.992360651672544017e-02 -1.262693247884552963e-02 2.040417824095652061e-02 2.198630498693984053e-02 1.511447682966432504e-02 -1.727662850411573400e-02 -1.997543261709876575e-02 4.517885181297040011e-03 8.591933770200614606e-03 -1.790968633683880096e-02 -9.202060847979228256e-03 -7.816662947436270326e-03 -1.884655677302508187e-02 7.357944622816003791e-04 -1.349236365207723189e-03 1.748320648804264563e-02 1.919077157541028769e-03 2.345610084412213733e-02 -1.138343501518687250e-03 1.080301622257931644e-02 2.171311498064545584e-02 3.169389743774724856e-03 1.107154980843481386e-02 1.736113861776545850e-02 -2.407486142533010742e-02 -2.200647672507355379e-03 -2.349583429919053015e-02 2.577261623664691900e-03 1.058808357598106827e-02 1.962952982042560912e-02 8.280941140947850609e-03 3.029203968743935608e-03 -2.129018159647644293e-02 8.068833139416435943e-03 -1.281843003252994100e-02 1.974508587125188910e-02 1.629689704769236858e-02 -4.491668184806967348e-03 2.968286421425501802e-03 1.431705388656934370e-02 -2.235742956220507574e-02 1.047002187228806246e-02 4.312108943676736840e-03 -1.133113876589844117e-02 -2.139407581504603612e-02 8.062635685394165322e-03 2.295011409644459252e-02 1.356855991175941016e-02 1.889415064821558729e-02 2.304932446276346247e-02 7.202712203005603650e-03 -1.046803489933105513e-02 1.196440822394227027e-02 -2.193009861506948349e-02 -8.159538583414310819e-03 1.983025283532055191e-02 -1.654175063691012970e-02 2.411365493148871515e-03 -8.670678288732011629e-03 3.969961703978745673e-04 7.986070188398241079e-03 -2.370078359793990203e-02 4.144733122944690290e-03 9.532683105875831668e-04 -2.145336642839715605e-02 1.549620751606142375e-03 1.341279702718528588e-02 -1.254752643895793753e-02 -1.915264989639799825e-02 1.585546487031077104e-02 -2.065224121564351867e-02 3.048898029217995184e-03 -3.004579605845533741e-02 1.411272417240507643e-02 1.011906822926197762e-02 2.122047994841810489e-02 1.382950598506872946e-03 1.729593696738879888e-02 2.192585814641365843e-02 -7.931262649467625200e-03 1.038935196832898103e-02 1.335387053212908938e-02 -1.834147675650905571e-02 -1.398122437210545799e-02 2.283296116061746294e-04 1.798303792298640985e-02 1.791428501995151468e-02 -2.003943152469143604e-02 1.311270614035529511e-02 8.895261069436069534e-03 2.391683215483639963e-02 -1.241851969453518049e-02 -1.190703813839649218e-02 -1.910984400272985190e-02 1.149156962673159033e-02 -1.320359493479017834e-02 -1.660540231319128368e-02 2.175430414695618889e-02 1.028803552894740070e-02 -2.023756990127780278e-02 -1.412863779256588910e-02 1.096149060565602094e-02 6.816873473035616957e-03 2.725143751196922991e-03 -2.598801621158804490e-03 -1.492737066875651254e-02 1.723433935229796293e-02 4.800702337808568886e-03 4.656934557746783380e-03 -4.782845289213260090e-03 -9.885423223249048541e-03 1.552749091689534580e-02 7.079740126051163596e-03 2.000156466199339012e-03 3.130926705460599507e-02 1.318330565057583884e-04 2.180926187749876108e-02 -1.310049411847593118e-02 6.046368308226605578e-03 -9.696154027045708135e-04 1.899587708209969292e-02 1.489989169036597463e-02 1.068090033501446767e-02 -3.667458403874365117e-03 -9.770613949955304564e-03 -2.296421826482469841e-02 -3.517639167025501425e-03 -1.200451620581360727e-02 1.250347655613404108e-02 -4.831792194433551409e-03 2.043706125115731659e-02 -1.510011212340147714e-02 -5.446866409175171904e-03 2.335755258956101130e-02 -1.748704418378547749e-03 -1.035057133690996459e-02 -2.081151270867441505e-02 4.282954154795052919e-03 -1.241846355260645997e-02 1.446855800887410790e-03 1.944669347853563574e-02 -1.980338578678062650e-02 -3.497485335854064008e-03 -1.017919536331825074e-02 1.053982533513955593e-02 1.274304994460987578e-02 1.611437330364573831e-02 1.327522440783279571e-02 -1.036031773384638033e-02 2.037936798771010014e-02 -2.217438868029289120e-02 2.446854761540306900e-02 1.904319438320212568e-02 -1.588540545703255591e-02 -6.494721566799290836e-03 5.039393151797978351e-03 -7.264774478763938968e-03 -1.868413614418965984e-03 1.807977918027579498e-02 2.228964553158451975e-02 6.229346158889757443e-03 -1.104495492144589620e-02 7.983170361445877938e-03 1.996720676671904365e-02 1.190655921536924386e-02 2.370668585281369631e-02 -5.428879300394916577e-03 1.305530582725631002e-02 2.044593463182776266e-02 -2.551826494334788475e-02
1.860461291358795829e-02 -5.853390181643871801e-03 -1.496343176458008600e-02 2.386252374863122999e-02 -2.094723456833903763e-03 1.366081556663835753e-02 6.594101519600206393e-03 -1.416605715991910326e-02 -1.485715348406508457e-02 1.029679689633570931e-04 1.635237001271039325e-02 -1.486668915932818323e-02 1.306191216076051792e-02 -1.940480759371913944e-02 7.178215311955289668e-03 -1.638735784583483573e-03 -1.142341050333893493e-02 -1.928563250723940373e-02 -1.139301432269776513e-03 1.742167636256288302e-02 -2.409538936850067620e-02 -2.311274479067712204e-02 7.681315431000428247e-03 -3.050195339615915913e-04 9.358535752161424581e-03 4.846522214181402458e-03 2.383181552331575456e-02 -8.279111436762541520e-03 7.073365106694612858e-04 2.241403561230230143e-02 1.004249521643231849e-02 -9.585306230184177309e-03 -9.209583486199733604e-03 1.718626605776960720e-02 -1.301535618968926826e-02 1.375052390308438566e-02 2.151410711357476177e-02 1.925451091752207293e-03 1.269442723971890737e-02 -6.303487170307925727e-03 2.690850357841100340e-02 -6.612797001015495099e-03 -6.220267806766447728e-03 2.701261982531993899e-02 2.397401406221656012e-02 4.362524821269139069e-03 2.412982981392753842e-02 2.638162037980871719e-02 1.926564955951267505e-02 -1.938330966956621285e-02 -4.813242513949675047e-03 1.796557945992315053e-02 5.795314455759190348e-04 -5.467974290260417709e-03 -2.035523354571762422e-02 -5.983892607021635852e-04 1.145004189698507410e-02 7.098203485788767697e-03 1.490735384494231222e-02 1.443875558480040011e-02 -6.230000856691201780e-03 1.851828186228347481e-02 1.640405280030247243e-02 -1.460422823200609350e-02 -8.189464681859777440e-03 9.779046245125603415e-03 -8.241125243453517948e-03 1.667843645932506197e-02 -1.656994330304652555e-02 -1.598462073741352060e-02 1.254920355852689139e-05 -1.720343449760442650e-02 -2.425456572161086358e-02 4.742181749233358341e-03 2.359073181651578921e-02 -1.333728149269632762e-02 -2.796401543111108612e-03 1.331731942903251892e-02 -1.944304242748303227e-02 1.569754743446967818e-02 -2.285636913261542696e-02 1.692338308779618369e-02 7.732804722836890410e-03 1.671163735171420431e-02 -5.510999074641319967e-03 -1.946717721396961157e-02 -1.564577057172747421e-02 4.012510871326293617e-03 -1.349419373634086657e-02 -1.233485882765640584e-02 4.335547821498371424e-03 1.195496832555226034e-02 -1.102152461879930649e-02 -1.105993670316632316e-02 6.028042191480394857e-03 1.925997992230871203e-02 -2.023273182174678900e-03 -6.184652886149990744e-03 1.655077452225681839e-02 6.468064552935044904e-04 9.225484585297170914e-03 1.047393402574859668e-02 -1.990576659509896151e-02 -7.034530295908106821e-03 -1.226952957931222096e-02 -2.598265794581774979e-02 -9.843066844919664757e-04 3.658870072364983628e-04 -2.123494218276237092e-02 2.504752775971334777e-02 -1.313076002991421694e-02 1.880455000979798508e-02 -2.013434853937074234e-02 -1.389564916686206186e-02 -9.267828840666928955e-03 1.987603736381981546e-03 8.117001983375038074e-04 -6.758712793724818346e-04 2.847693012284101960e-02 1.303168286598539553e-02 -8.583849084635006635e-03 9.931338696199531677e-03 -5.804956124170660738e-03 1.443892505488651376e-02 9.973167427111233330e-03 -1.545980265845737188e-02 1.948313084781945481e-02 -5.675661181136175751e-03 -3.252264191095060285e-03 -6.704116785589656242e-03 -1.111267909851158982e-02 1.186420916998241759e-02 6.990344963572822125e-03 2.451253394650877715e-02 -1.380819688203999661e-02 -1.174325230953921287e-03 -1.571772215996471503e-02 -2.682056940611984505e-02 1.143481624603734023e-02 -5.092435810115797552e-03 -1.643202626951207473e-02 -1.718833873007576465e-02 1.740813328658052245e-02 1.219157496026416522e-02 -3.449274930085319962e-03 1.117598798736513591e-03 -8.745527876881622337e-03 2.036227740222907798e-02 1.091745427954788489e-02 3.228991695827226199e-02 -2.205944720858899963e-02 -9.292641167572229452e-03 -1.937895023825698601e-02 -1.633312642744578699e-02 -7.355345393613951441e-03 5.127435906769659858e-03 1.621258755315936606e-02 5.296908220836803183e-03 2.181061914918268341e-02 3.383068790977156095e-03 -2.661899855928128843e-03 -1.678631246954706904e-02 -7.069549531061337759e-03 4.372256918978748713e-03 3.874635240778712478e-03 -1.956597584828389039e-02 1.435546552048746344e-02 -8.527963009309287232e-03 -1.170671248554190462e-02 1.619098137552420907e-02 -1.659582170129733983e-02 1.094709714786693683e-02 -4.531707926956862233e-03 2.473969306943168273e-03 1.822575494724354254e-03 1.730425001627236212e-02 -2.199320599779073376e-02 4.425442829677224410e-03 1.184211136264891502e-02 1.450671510318978299e-02 2.144955932129465059e-02 -1.971749086386549721e-02 3.855484470970706586e-05 -1.226907506079966126e-02 -1.471425575771524025e-02 1.636175674275392247e-02 -1.177411538245405273e-02 -1.726982931090083329e-02 -4.346611296523048527e-03 -9.114590281473048533e-03 -1.347626347794127558e-02 2.454986703740332649e-02 -6.286010461390830785e-03 1.246470754493413796e-02 -2.395087255464107071e-02 2.278745304088258816e-02 2.243939212334407005e-02 -1.731920826755049478e-03 -1.279108226507443338e-02 -1.823423501253810500e-05 1.261379693193507429e-02 1.096135032485398564e-02 1.949927302103679483e-02 -1.942346712203349424e-02 -6.562644430934404770e-03 -2.270589059804894658e-02 -6.403486367652803067e-03 3.229838046184980820e-03 1.161355101123893313e-03 -2.325001460568457481e-02 -1.688197795957958533e-02 1.746628661249455608e-02 -3.098045888049532140e-03 -1.006184553827019906e-02 1.540446049486607349e-02 7.764584204583355187e-03 7.606420781236615351e-03 9.784546544969557197e-03 4.263573505841732753e-04 -9.288421048968089830e-03 -3.420986252968156397e-03 -9.206833609515692463e-03 -2.322536529660333346e-02 -4.797509183301850409e-03 5.321147165015760634e-03 1.343906045084018556e-02 1.147911476464912386e-03 1.599383622915142439e-02 2.379489327798173237e-02 -2.175985685722076068e-02 -2.347362395846409877e-02 5.135524442267658946e-03 -5.055750811591464521e-03 -1.651859949169679279e-02 1.907819454339431580e-03 -1.036568631888904607e-02 1.371453682382102121e-02 1.093446128185178098e-02 2.316031501849871201e-03 -2.230524860899198852e-02 -1.613539448323290243e-02 1.830537776821503961e-03 2.005689853630978139e-02 4.773343410090747155e-03 -8.572538955013631751e-03 -1.907845399287367086e-02 -6.937036241941655669e-03 -6.805241018026876500e-04 1.211442532977230306e-02 1.356616644663862989e-02 1.264654525025400537e-02 1.814287645240161839e-02 1.094758224530988956e-02 4.255374698144649866e-03 2.204869606285402364e-02 -7.941340549533241686e-03 1.474731795815022693e-02 -2.374617327372270312e-02 -6.109399134851009432e-03 2.225099988804671997e-02 6.460603090449409773e-03 1.636065039580105601e-02 -1.509386160879436049e-02 -1.478062514939471744e-02 -2.270530535027938043e-02 -2.390698573060184504e-02 -3.255671714698941434e-03 8.116606441218997270e-03 -1.974371580460253586e-03 -2.365956406210260529e-03 1.633142824349367167e-02 -7.005274954451450736e-03 2.422150705844797886e-02 -2.393380337160126367e-02 -1.142846869272664797e-03 1.708879453404668972e-02 -1.648332324865904933e-02 1.866860791983752238e-02 -1.741539300001013896e-02 -1.265813883846921180e-02 1.092078774885961098e-02 1.085859226756583432e-02 -1.749332246474103597e-02 -5.771943918541726053e-03 1.885179326923567752e-02 6.160988935516776947e-03 -1.661174260392199453e-02 8.005377653637754589e-06 -9.734159388457553491e-03 -1.586598577006899727e-02 -1.101674999915450842e-02 -7.071667875514457170e-03 1.013083367919323172e-03 -4.940094056710839059e-03 1.685244349703895680e-02 1.397714520693935612e-02 -1.772379363317138495e-02 5.213486830017094800e-03 -2.794083636373298398e-03 -2.172636369881459500e-02 2.076272760590480715e-02 -8.941187723730299394e-03 -1.035577577926055648e-02 1.236591135283465585e-02 -5.745531792814950744e-03 -6.010347861209141412e-03 -1.468693152715522254e-02 -1.616494981053958821e-02 -4.793930499530719806e-03 -1.780928647097482914e-02 1.954425260781639945e-02 1.776491068249677271e-02 -1.583790301980103968e-02 -4.620816746925884670e-03 2.597973278976918772e-03 9.444918318202715976e-03 1.792038796766163775e-02 6.546785323579797783e-03 1.680177649357317282e-02 1.841993092250665542e-02 7.149011303171606130e-03 2.264390818812218181e-02 3.208716601839985746e-03 -4.921713008828813851e-03 -1.939919962745749113e-02 -5.189668844966539157e-04 8.168067337215166590e-03 3.394098339186637017e-03 -2.309572686244006773e-02 -5.753672365001216357e-03 -1.550000585035895932e-02 -2.724320402440116515e-03 -1.397882678077173001e-02 -4.063969661380993116e-03 2.144121571718412330e-03 -1.811764785679901776e-02 3.503565108145549091e-03 -5.501558271489689379e-03 -2.002607582942196682e-03 2.032280903240614445e-02 2.116218913004659641e-02 -3.329969969661543405e-02 9.456463000850030137e-03 -1.662619437282549309e-02 -1.345430447139431621e-02 -2.109232878500923516e-02 5.600277219216189982e-04 1.978601992837627360e-02 6.560773400673714471e-03 -5.029662745183779114e-03 -1.379468537908485302e-02 4.934572677632386752e-03 -9.206118789261115778e-03 1.254250287656617606e-02 -2.329402666127781268e-02 -2.319788153976729342e-02 -1.827123690423883631e-02 -1.614427675517334220e-03 -1.918468669461267928e-02 1.120928629454327622e-03 2.524112284159703637e-02 3.219925936219797001e-04 1.993338857026545619e-02 -7.564378224460379177e-03 -1.206200176679699497e-02 1.763264943307734853e-02 1.950284461576062833e-02 -4.655440477292998799e-03 1.033741419911433663e-03 3.605899084909838792e-03 -1.133413813487370997e-02 1.837883895445716759e-02 1.429444667493285845e-02 2.364837635107264538e-02 -4.011947623234161410e-03 -2.051316960308433718e-02 1.263283115179946250e-02 -1.354027450737574877e-02 -1.540752704100070876e-02 -1.966527809610627356e-02 1.122576600726486566e-02 -3.699383379187611964e-03 -2.549112226584739765e-02 2.232342530343377554e-02 -1.871475096318678602e-02 6.484522842217829708e-03 -1.556130698701929660e-02 -2.067250249249685812e-02 -2.385614813152813624e-02 1.799243286722719548e-02 -6.264050702434746827e-03 -2.317256404539268233e-02 -1.433892988315148623e-02 9.599035589260793491e-03 -1.010633479665851847e-02 -1.082664226463132123e-02 3.243463357917099332e-02 -4.577854454627747031e-03 1.979565822995067031e-02 7.116906748927322168e-03 -1.873207377192762785e-02 -3.562224499518634041e-03 -2.335733388083472209e-02 1.772991258364492451e-02 -2.232681792641728197e-02 -1.562378310764522306e-03 -1.774726532071737792e-02 -1.896010198682502104e-02 4.038261031678968063e-03 -1.096066790687046447e-02 1.761220861395998774e-02 -1.598063509965886447e-02
2.161869336710122921e-02 -2.033779085018378244e-02 -1.413028296844162299e-03 -1.247016821364138909e-03 -2.188554648499226735e-02 -1.042975164878659489e-02 -1.308651061552217748e-02 9.038942529474130669e-03 -5.287923055965258398e-03 1.613294561143197373e-02 2.429379436815271368e-02 -7.883501652264094522e-03 -1.080378069881627072e-03 -1.646561955694323190e-02 4.813092611635753915e-03 -1.734357770005204649e-02 -1.909483168797862507e-02 -1.640695271314235662e-02 -2.074683106877982589e-02 -6.828183072284494184e-03 -4.472684559195774963e-03 8.054544983259291765e-04 1.560480338239076531e-02 1.958171206503830572e-02 9.521517085267699326e-03 -1.300426295180615380e-02 1.138411190119660230e-02 2.431930233903050256e-02 1.139207822585626417e-02 3.928812863538594206e-03 -4.199256449619653310e-03 2.414591803847043749e-02 1.027969461358419802e-02 -1.341445680684829819e-03 -1.807073115899764798e-02 -1.240750683696546439e-02 1.801608954803434609e-02 2.263995612198021687e-02 -4.774911690662053329e-03 -2.179305754054790614e-02 -2.205276192624665288e-03 1.146104169451156105e-02 1.059241058561390288e-02 2.325128557203338941e-02 -1.136686984146552046e-02 1.391325773515422574e-02 -1.662452061523020212e-03 1.811533275307476709e-02 -2.063034949571480869e-02 -5.913832275739641132e-03 1.382337539964854228e-02 2.233047362845469452e-02 1.712744506251619517e-02 -1.877718380240749052e-02 -2.248907934137119036e-02 -5.314304920000690810e-03 4.864588434202385403e-04 1.153096778386994339e-03 -1.635924533945148224e-02 -1.662439580221954788e-02 7.594301205173533027e-03 1.387917858768857211e-02 -1.246290165942509458e-02 -7.821078030836812675e-03 5.614160016936108749e-03 9.635987390312175313e-03 -7.680628533025594257e-03 -1.592114305046309422e-02 4.672083149724042678e-03 -7.497431308108454262e-03 1.920070218133661374e-03 3.084578527010623655e-03 -1.542830188923147768e-03 -1.204971245857060572e-02 7.808824124757641517e-03 2.814167473510707871e-03 8.301404157126018868e-03 9.072882460507431662e-03 -6.818107965586239771e-03 -1.375801986316716949e-02 2.373479957501645546e-02 1.260836833247760275e-02 -1.290306905122090911e-02 -2.297696355510393112e-02 1.496627574788653506e-02 -2.186473783090231784e-02 6.828727590161729963e-03 -5.861439903837179985e-03 2.656809347988018516e-02 -1.357070520801702262e-02 -2.734141495794687599e-02 -1.359005722025723867e-02 1.751222711997453552e-02 -2.434678549815369464e-02 -7.261097817218764225e-03 -2.109316071036183848e-02 -6.169611053465738106e-03 6.905816644545971668e-03 -1.069278219734691102e-02 1.942663116976488594e-02 1.343430007163820029e-02 1.987186318155303652e-02 2.901095469995838925e-03 4.896181184789007330e-03 1.205296687348464922e-02 1.252173541246043515e-03 2.312969563048641874e-02 -1.049287356889579831e-03 -1.622598800134135780e-02 -1.246542628166792677e-02 -2.801157341706320830e-02 9.387012553585526511e-03 1.180680743298238508e-02 -1.985827817909031207e-02 -1.638738797718589102e-02 8.360886954584752923e-03 -8.828918484542690528e-03 3.178889116169689166e-03 2.017999898610548307e-02 -1.264621517882402214e-02 1.727063454802584691e-02 1.387541629576113933e-02 -1.986208509472088199e-02 2.092329948290771666e-02 1.970124042820959633e-03 1.263574214197455726e-02 7.778134324015635419e-03 1.611953524017880474e-02 -1.141429761299144439e-02 -2.878334813856990929e-02 -1.784452077470597212e-02 -3.238303838703547686e-04 -1.510341872128422545e-03 -2.034586461395231430e-02 -1.865319480917174838e-02 6.876809279477540289e-03 -3.236497767183893742e-03 -6.500283564209147213e-03 1.009508203685762634e-02 -1.360715137272552888e-02 -1.574528449848875897e-02 1.749302633672209992e-02 1.016597645210038162e-02 -2.395469404697629992e-02 1.585110935924366818e-02 -1.426934777946463687e-02 1.502893837585529691e-02 -2.306290073389982709e-02 1.856387992361799646e-02 -8.931000125234258430e-03 2.048826798513504049e-02 1.957300809623991472e-02 2.143264994852660255e-02 -1.609683828811329671e-03 1.279861643635978388e-02 6.588181169381640903e-03 2.197005346058766503e-02 -1.263314379897795964e-02 2.864177725913149772e-03 6.994564756966398407e-03 5.023474992935632148e-03 1.377132479920560940e-02 -1.995457807056771199e-02 -1.670419267793740985e-03 1.079720651872354692e-02 2.245134763355856669e-02 2.071694554799243318e-02 -1.730010565846132331e-02 -7.045476347565045490e-03 1.215453240685114220e-02 -1.438017214515251857e-02 -2.406567266526651178e-02 -2.044201463747716274e-02 -3.543485367738812789e-03 2.294124435557748712e-02 -1.152026442920253343e-02 1.495756786143561702e-02 -2.324551045366820418e-02 -2.220449352252150399e-02 5.495477729271083973e-03 -2.158675555838080948e-02 3.053082406104606471e-03 -1.281321281693311234e-03 -1.894554044040751284e-02 8.478685608976781890e-03 8.404725435736374109e-03 1.804563841241618727e-02 1.128572328684339290e-03 8.830495865948858464e-03 -1.870584437074544054e-02 2.047408627749331203e-02 2.929251984382974343e-03 4.092484411855913488e-03 7.090116010956477519e-03 -7.920441873680818951e-03 -8.210516440481307413e-04 -1.937199219029957925e-02 1.948472572931727372e-03 9.772148405005598101e-03 2.608877679785194612e-03 -9.318572895552048110e-03 8.634697002707476809e-03 5.589351688894928297e-03 9.281879564159656315e-03 -6.198099348369529721e-03 -1.933027510421089432e-02 2.025128913441608461e-02 2.404534751973108272e-02 -4.361850234457814723e-03 -1.785660890552064062e-02 8.152115585709142354e-03 6.804341767230174566e-04 5.103341767560038052e-03 1.073230418271849118e-02 -2.712472703566766452e-02 1.872405889140711308e-04 -1.733985205433361335e-02 -1.583194815992263263e-02 1.177656897974377337e-02 -9.533890151035331537e-03 1.335946818185551783e-02 4.588847753522284564e-03 -8.999186122739040450e-03 1.003564440694652143e-02 -2.483651264479793883e-02 -2.320235024702804738e-02 -1.781109614612602296e-02 -2.362335476050008223e-02 -1.881125516058206742e-02 -2.219706625807120817e-02 1.910335758078145554e-02 -1.530042077103854412e-02 -2.063819227008947821e-02 -1.040744092526336984e-02 2.093005921546881726e-02 -1.102709853310397323e-02 2.153739225190697687e-02 -1.050725466302199033e-02 2.302494227407478680e-03 1.569695374581188028e-04 1.692993802481615115e-02 2.184874201588568945e-02 2.580074092294068130e-03 3.818800855804958816e-03 1.085839480465113560e-03 -4.902524909435182661e-03 1.622650481944969830e-02 1.397892213756960888e-03 -1.042816180949718112e-02 -2.654007147972264544e-03 -1.593851630914395329e-02 -1.861796534130968905e-02 5.233214171044527421e-03 -4.081760206442074622e-03 -6.995751368286140873e-03 -1.285457774660422013e-02 -8.851732723550321397e-03 1.421769404730696684e-03 2.166919477917345419e-02 -1.367556326308765058e-02 -3.318748571008073994e-02 -1.542606513589526301e-02 9.401150891640812010e-03 -3.227993832770183896e-02 -1.584675233627324403e-02 -1.426319395317385101e-02 -1.366973559116579050e-02 1.180836530827405854e-02 1.233180827799639466e-02 4.269123571799949939e-03 6.752136172009868750e-03 7.481707824024271328e-03 3.797042039475035692e-03 -5.869369000689934369e-03 -1.971199533254497024e-02 6.336501344949569802e-04 2.069673325772432640e-02 2.403298783127676141e-02 -2.119234141126251705e-02 -1.340974606921323730e-03 1.178042707789753694e-02 1.150902876748270860e-02 -7.941881020435710009e-03 2.101407196226767402e-02 -2.135323595149674070e-02 -1.104570905370619305e-02 -9.401401999393680211e-04 -1.722207829673273044e-02 1.814026115851695431e-02 -2.328374620273834794e-02 1.869104356549888477e-02 -2.694689546691456973e-03 1.918920621207271041e-02 8.105086026094689838e-03 -1.097442934641445003e-02 -8.408217123435229867e-03 1.441589208638113795e-02 -1.192831814200455247e-02 -1.488897211211234924e-02 -8.484462084329555398e-03 -2.405967649092157629e-02 -1.219981285037436552e-02 2.255877290616081429e-02 -1.069801583575792463e-02 -1.203148427879308785e-02 -1.663166485624469060e-02 3.703743094160128271e-03 8.868674325315548806e-03 -8.183874177470648256e-03 -2.109087617108645896e-02 2.214104767990353329e-02 -1.008671714377799497e-02 1.531869177301799223e-02 -1.608576636706901888e-02 1.515779454879551645e-02 -2.366101970603854202e-02 1.743155902790588171e-02 -1.082841774158944080e-02 1.602611496756244439e-02 -1.692262746339029747e-02 2.458259832328832557e-03 -2.306227986608890348e-02 7.018856680413999849e-03 1.457614720452640213e-02 2.040110642113055275e-02 1.290302241583947754e-02 2.908434804027306645e-03 1.037063677602349451e-02 1.964701285912708387e-02 -1.429621153444150111e-02 -5.350886153975442650e-03 -1.014354584684572409e-02 1.107278498305157462e-02 1.495953970355592272e-02 5.168443017305650831e-03 2.163688784114444624e-02 8.712755135343077870e-03 1.256788872513209948e-02 -1.711103460530424142e-02 -1.165294723648443130e-02 1.052493375921466530e-02 -2.170572415716535974e-02 9.298504928076468945e-03 -5.161100537390413481e-03 1.957018984699616243e-02 -2.408904904881908893e-02 -1.017506922134411157e-02 1.810140049770851342e-02 -1.274845250802031718e-02 1.197147758848175932e-02 -1.955574131005848385e-02 2.396946967901071590e-02 1.125897654164315954e-02 -1.021058831071090973e-02 -2.379689054415065272e-02 1.882302204942962881e-02 6.187518978602908268e-03 3.165536100047088280e-03 1.538233916431133892e-02 1.224641443963198593e-02 -1.264679959104259357e-02 -8.689817027949279030e-03 1.243607771586368108e-02 2.745899076990761245e-02 7.635275355343634470e-04 -7.505398427143323246e-03 -1.599624297997212161e-02 7.731661734405819927e-03 5.427202244152681690e-04 -2.261491665555671882e-02 1.394312598622805127e-02 -1.953894361694797494e-02 4.640623640612451077e-03 1.034885770628279043e-02 1.031403386532486408e-02 1.008698300989073872e-03 -1.942635422576054205e-02 -1.096209318130378363e-02 -1.012566166067540782e-02 -8.760209772374120095e-05 1.769645533266114845e-02 -2.375296572559758984e-02 8.079263113441082639e-03 -4.558691151690878740e-03 -4.053728269186937646e-04 2.329644202364640829e-02 -1.235668123912785771e-02 1.544985623955269852e-02 -2.202891632307783613e-03 1.278374341966304929e-02 1.534285533119515710e-02 -2.284775167423851866e-03 -1.248067613830431376e-02 -2.558906313390885146e-02 -1.496404717034337598e-02 8.133807358490553058e-03 7.070380856990561222e-03 1.471562448224206406e-02 4.073289159310612348e-03 -1.526260504452651642e-02 -2.014384927430251659e-02 -7.754130255492982376e-03 1.571335209368974334e-02 -8.030560597851397683e-03 3.334668080460104125e-03 1.387749722253641023e-02 1.537941147103968030e-02 -3.222606913416187560e-03 -1.339562304669056694e-02 4.564112326344929756e-03 -7.724157053074436063e-03 7.553970303323023945e-03
