-6.094482541084289551e-01 -1.295037508010864258e+00 4.071213677525520325e-02 3.752214312553405762e-01 -1.351602077484130859e-01 -4.816589951515197754e-01 3.971279859542846680e-01 -1.103511918336153030e-02 -4.047913104295730591e-02
3.016853630542755127e-01 1.001517534255981445e+00 -1.002988219261169434e+00 8.456023782491683960e-02 6.194987297058105469e-01 1.989982962608337402e+00 -1.133136749267578125e+00 -1.148690700531005859e+00 4.686939716339111328e-01
2.682015895843505859e-01 -7.847733050584793091e-02 -1.571808010339736938e-01 4.519829750061035156e-01 -3.282165527343750000e-01 -7.201735973358154297e-01 1.119773149490356445e+00 6.192933917045593262e-01 1.060132384300231934e-01
-1.222271323204040527e-01 -7.126451134681701660e-01 1.095980525016784668e+00 -3.548120381310582161e-03 1.180698275566101074e+00 -4.843547642230987549e-01 -1.371896266937255859e-01 -4.270086288452148438e-01 -5.511563420295715332e-01
-1.133654341101646423e-01 2.313351482152938843e-01 -2.194886207580566406e+00 -3.687834143638610840e-01 9.591247439384460449e-01 3.278113901615142822e-01 -1.973996460437774658e-01 -7.535781860351562500e-01 4.472863376140594482e-01
1.018025040626525879e+00 -1.421305894851684570e+00 6.576633453369140625e-01 -1.038471341133117676e+00 1.719830751419067383e+00 1.308290123939514160e+00 -5.564879179000854492e-01 -1.708031535148620605e+00 -5.602990835905075073e-02
-8.127261996269226074e-01 1.614364087581634521e-01 7.470487151294946671e-03 -1.010348558425903320e+00 -1.507839411497116089e-01 7.130966782569885254e-01 5.219629406929016113e-01 -7.143508791923522949e-01 2.782480120658874512e-01
-1.133872628211975098e+00 -7.014485597610473633e-01 -1.221980690956115723e+00 -1.400628834962844849e-01 -1.715268492698669434e+00 6.497555375099182129e-01 -2.193616628646850586e-01 -1.864464581012725830e-01 2.123780399560928345e-01
-1.950135380029678345e-01 -5.192106366157531738e-01 3.447696268558502197e-01 4.046009480953216553e-01 -8.493977040052413940e-02 2.793899178504943848e-01 -1.017692208290100098e+00 -8.436366915702819824e-01 7.309427857398986816e-01
