3.834606969591760062e-01 -7.677698608630760813e-01 1.551138534476274589e-01 -7.652900921742231688e-01 -6.376316343063348491e-01 -6.750412342191762782e-01 9.419577202348512479e-01 -6.731248728522249980e-01 4.705768074707504800e-01
8.121740672893337232e-01 7.663458557164098961e-01 1.031747918246945506e-01 9.364570442116139370e-02 -3.309541452235267855e-01 5.575655239937802321e-01 -6.095943582520837456e-01 -9.758998970989583022e-01 -5.876663447076593272e-01
1.008691993830028277e+00 -7.715176026324723768e-01 1.092979952628987617e+00 8.970439386185494191e-02 2.536102256144069922e-01 -7.930133070121082595e-01 3.285485919947204181e-01 1.059776687385499128e-01 -8.081459600787317399e-01
-1.356666909728117820e-01 7.653148518440938686e-01 1.044851604906466891e+00 -1.649663266408429863e-02 -3.321566806491885737e-01 -5.146861316084097027e-01 2.530093728331136438e-01 -1.022946790108197057e-01 -1.989680993875683757e-02
-4.616106701359121711e-01 -4.776133805096834384e-01 4.351918103268958005e-01 2.688864867486989718e-01 1.483340476708892686e+00 -1.984119532149519749e-01 -5.816732135846122143e-01 -2.292667608617054431e-01 -8.875855065502291641e-01
