4.017302517351253183e-02 -4.280833152690435156e-02 -1.089033635839727543e-03 -1.530697502885365428e-02 1.471461506484490235e-02 5.240012807339506501e-03 -1.249297921128221783e-03 2.083464420799844077e-02 -1.883436925747695653e-02 -1.482272227381536966e-02 3.631196209179061996e-02 -1.494063910627457109e-02 -2.320455024530690327e-03 2.803409897642364368e-02 2.956442904642495560e-03 -1.782299960007155751e-02 1.738171467933554218e-02 1.775785776143216747e-04 -1.163209751339271472e-02 -3.271938244527577977e-02 2.507665850673867353e-02 3.842257387612869890e-02 9.705598570886705273e-03 -1.707412606712656322e-02 -1.861792022569229779e-02 2.463410013467306776e-03 1.441469426527924435e-03 -1.841969329092252652e-02 2.419417184232863782e-02 -1.888416324075277777e-02 -1.112123970425628328e-03 1.168858290636134133e-02 3.253108135113071120e-02 -1.812546854090699849e-02 -4.429826103541011258e-03 2.136028806638048602e-02 4.213969239796296062e-02 1.472212491278278128e-02 1.568394953608955120e-03 -1.189529849040431124e-02 -1.008878485845264919e-02 -9.119588490227628977e-03 6.508239760644123073e-03 3.501182272306570253e-02 9.635781620776755901e-04 -1.444932806086035929e-03 1.643539828509769929e-02 1.355854897150970354e-03 1.367879647097438450e-02 1.177004350976779048e-03 7.267392510434951373e-04 -1.707423752484111060e-03 2.699129870041197879e-02 -8.776703940465039461e-03 1.768924189598579735e-03 -3.039783109848090414e-02 8.845964500891262058e-03 1.356097764891670953e-03 -1.735363731089689665e-02 2.645075904225042962e-02 1.296646967289954988e-04 9.415522367237418380e-03 -2.163894414782791334e-02 -5.922391405383533539e-04 2.703428607038992418e-02 -1.825557968556439092e-02 5.685852164299549580e-03 9.492822901583297321e-03 2.516341127370307507e-03 1.547752187907817933e-02 1.542518104625677580e-03 -1.772344723501923999e-02 2.041413343900648578e-03 1.999277198399983940e-02 3.176158148946151699e-02 -1.919697508150771184e-02 2.920255445769162975e-03 1.181870719512537887e-03 3.734288232387125706e-03 -3.826585417597715144e-02 -1.329274427231004300e-02 -4.308418230550374595e-02 3.814456150438011450e-02 -2.288552752920058886e-02 8.623113660900148802e-03 -2.162657659151833497e-03 3.959311669717963111e-02 3.154678104666800570e-02 -3.828147876367521407e-02 -6.270695223435695034e-03 -1.317103637894286722e-02 -2.476911920686309526e-02 -9.477244792413260996e-03 -2.324919378203755063e-02 -2.087754557144207157e-02 -1.526787919710974328e-02 -1.492517204800483058e-03 -3.023795607255064938e-03 -2.611274075583882789e-02 -5.515627361663450433e-03 6.940335883033400474e-03 1.327703568244106673e-02 -1.981046125958673375e-03 -1.620962802260071320e-02 2.434074012973522216e-02 2.119517388254328963e-02 -6.730492861069714908e-03 2.157017588000180106e-02 -2.728542532133151205e-02 -2.600803873035079095e-02 -6.682072711007662740e-04 2.532237686338376006e-03 1.747632817167572156e-02 -8.017649690091362483e-03 1.849604059547241622e-02 4.933909594133433635e-03 -2.720958098890096516e-03 -1.355178917930887315e-02 2.284240758396646580e-03 1.727950965334548727e-02 1.844463959894661331e-02 8.679179579007025025e-05 5.680771812640451716e-04 -1.428066030763614977e-02 2.348457605848640328e-03 -1.215232500474663349e-03 -2.644728075108033344e-02 -4.340772254443858898e-03 2.262660775395041596e-02 -8.098166011636672920e-03 2.064352684521623960e-02 -1.126053711559559661e-02 -2.469925349676442561e-02 2.385097922375803772e-02 -2.403000867182934763e-02 -2.937162088213036981e-02 2.094462236897567595e-03 7.731924893792894993e-03 -1.676454417167281066e-02 4.033043651375078920e-03 3.368070803712143457e-02 1.256587136294217734e-02 2.039987113327794074e-02 -1.563881978157793257e-02 1.288327447869864160e-02 1.337269516116885212e-03 -1.625505972957799750e-02 1.079776039649581014e-02 -1.284737302026447460e-02 3.761588881111451593e-02 -4.506117310007431292e-02 -2.301446162254126501e-02 9.761468499997835377e-03 -6.421522347744111972e-03 -1.336984817957467125e-02 -3.631801251731857361e-02 -2.983270781700821800e-03 -1.566367650316936172e-02 -2.478430208787535654e-03 -9.992634062905240283e-04 -1.690686839579283104e-02 -1.413573879129712690e-02 8.685072489704017198e-03 -2.818451662804214580e-02 7.002189176539943063e-04 1.548482657244192734e-02 -5.127431063655268559e-03 -2.263550066818729306e-02 -1.563586330872081265e-02 1.975538080166943516e-02 -1.982245038820002435e-03 5.384093866727947611e-03 3.571155000800493862e-02 -8.929781428925532595e-04 4.528032429061505659e-02 5.091016708120323087e-04 1.993144984220758878e-02 4.405168435321812903e-02 -6.148956937977436733e-03 -3.961418349540482900e-03 1.615335114600675512e-02 5.457203311067583031e-03 -1.592434703768847923e-02 3.218570366497430085e-03 1.436609424345046057e-02 -1.546863024595041165e-02 1.007255557191295836e-02 1.380888814443830340e-03 1.203538719978558633e-03 1.357223744387285602e-02 8.113737202424220821e-03 2.494522792597400618e-02 -8.588178272629875404e-03 -1.689837960860184063e-02 3.579412974057991081e-03
6.161827705274651110e-03 2.298705417280275283e-04 1.207041116231914908e-02 1.714372542963239418e-02 1.200735341198515792e-02 1.844478998781613407e-02 9.111953622019075896e-03 -1.992227960365467593e-02 -2.644763203124782247e-02 -1.708527713286258840e-02 -1.889642718091487719e-03 -1.288172138938058382e-02 2.511954184940350804e-02 -1.318249664412487684e-02 3.128897501336120462e-03 -1.604686611028969308e-03 3.287917402335551603e-04 1.379414405086370858e-02 -8.448602148762026504e-03 3.392129042054901900e-04 -8.952635255981473451e-04 3.742574811657338463e-02 -3.961493342594456235e-02 1.013933541702423217e-02 -1.361760127968811990e-02 3.151676901359717203e-02 2.060671878954872804e-02 6.093789647890811810e-03 -7.934842275499131431e-03 -2.442834563654665281e-02 2.640864363694756661e-02 8.078325258806961021e-03 -1.514106819380252669e-02 -4.364619375936502552e-04 -2.335505395156472000e-02 -2.747509733284286826e-02 -1.269243650492773642e-02 1.123072322352113451e-03 9.531357779848604814e-03 -1.200379388134103966e-03 2.470494908062504259e-03 -9.874189040927150787e-03 1.016750480766067874e-03 2.204832933561054475e-02 -4.992992087916820615e-02 -9.470104612051629886e-03 -2.261730305778086522e-02 2.031864281725975427e-02 8.733280002025375910e-03 -4.148208019208593500e-04 -1.565193869295448265e-02 -5.070526829287511604e-03 5.335670721257756467e-03 5.144525450816391648e-02 -3.864728737392217339e-02 3.169937162507460715e-02 1.201531718332773772e-02 1.502233523432060583e-02 -1.475406185415007202e-03 4.252994086756033826e-02 -1.861723069510919613e-03 -1.794123347657550216e-02 -2.221964891664688843e-02 9.025463535411755792e-03 2.024262120546654452e-03 4.838872364039840078e-03 -1.350824497175748522e-03 1.899451026312417874e-03 6.888542610778885036e-03 1.032376805951209023e-02 9.074461265407028632e-03 -1.399209891504817754e-02 -3.727316847211820713e-03 1.871123139299191510e-02 3.353377522183375453e-02 -2.362325130204649334e-03 -1.088510313618676817e-03 -6.550607158360022102e-03 -2.860056950074321355e-02 8.187418445499895781e-03 1.417154517119986745e-02 -3.961613775349596273e-03 1.930126823665431410e-02 -1.284679816978114009e-03 1.879107273275798171e-02 2.723829681212466131e-02 -2.146110758298980584e-02 -3.742404605642513093e-04 1.881398338747112750e-02 4.066739211389922698e-03 1.330923048239345593e-03 2.344149287446590374e-02 1.857127562312478348e-03 1.933756882082426215e-02 2.171491662023554078e-02 2.172185046076654386e-02 -1.074240158088930232e-02 2.154053282662757307e-02 1.568049716203064395e-02 -2.111731032421286514e-02 2.061972458680755987e-02 2.953619945929313040e-02 -2.218350911326588681e-02 3.480452358209665470e-04 2.059214773488828292e-03 -9.893421469386510028e-03 -3.967383044781769286e-02 -2.561900290822105922e-02 1.587936789882743449e-02 1.150557917833585318e-02 -4.732649430423356909e-03 -3.934871011094191046e-03 -1.885340091849319402e-02 1.986312053632148869e-02 7.046989665763073174e-03 2.035646661474559832e-02 2.904580749646158006e-02 4.042970793869316015e-02 -2.049773531953852368e-02 2.693640076438977987e-02 9.106812043829662709e-04 1.521363244652437254e-02 1.720654016815034455e-03 1.465552875800558638e-02 5.087688094316478171e-03 1.645659689957933852e-02 3.418729191165370551e-02 -1.072861925503569049e-02 -2.388186553528534595e-02 4.479129536695387881e-03 -4.907366804941457050e-05 1.645660272062758611e-02 -5.228953727171243085e-04 -3.274930266375774418e-04 -1.943989037075344664e-02 -2.999897828458001486e-02 5.994748819086784773e-03 3.405731190841036760e-02 -2.871108550809092080e-02 -1.916178699868332017e-02 9.346012996073703449e-03 -1.431323008073709206e-03 1.505297508265118767e-02 2.625487691502190191e-02 -2.303861573556120756e-02 1.332035108674052039e-03 -3.773559241708177026e-02 -1.222885583952901950e-02 1.058120854368766600e-02 6.587665967282135826e-04 4.902353748449832412e-03 -2.011621347877596069e-02 2.471071345996680990e-04 -3.466323397483155044e-02 7.344289824618254262e-03 2.062807965592603626e-02 -9.360034941268921029e-04 -1.837796399659186869e-03 1.326999605188892463e-02 2.397931135718837231e-02 -1.659980678611401583e-02 1.271103946564758422e-03 -2.362560256333434000e-02 -6.436152980109251243e-05 1.040691660096332901e-03 1.953512115100557167e-02 -1.435349533017779219e-02 1.912454025408055064e-02 -1.936036003863915098e-02 1.604435597527680349e-02 -3.406384007673914083e-02 -3.849506712375777226e-03 2.689205350819871485e-03 -2.210456282371389691e-02 -1.849815350967051741e-02 1.335276221220368237e-03 2.512720657241729327e-04 8.470588112180770998e-03 1.185516232777242447e-02 -4.165414272765429263e-03 -3.349531275088188376e-02 2.508074077490047692e-03 3.156040713948535942e-02 -7.873987977389295193e-04 1.044079170054367303e-02 1.373253000054158041e-02 -2.214701058603075340e-02 3.022354557079171694e-02 2.678708397804192495e-02 -1.979953056151794594e-03 -8.852539074312992806e-03 1.602449650229206823e-02 -4.621107224924291164e-04 1.428963376984224674e-02 1.866996430533826579e-02
-3.077473467946047203e-02 -3.298991909023890612e-02 1.872107958267740443e-02 -1.258221666617930683e-03 -2.362533990187824090e-03 6.841522143434581107e-03 -1.779954850817281470e-02 -2.608635082769154845e-02 -1.035818841593903056e-03 4.446113689392393667e-03 -3.562116316181427982e-03 -5.140223055833288701e-03 2.633118702419082885e-02 -1.583585379635350440e-02 1.000374122229970644e-02 2.992956551820363797e-02 1.914830333717633393e-02 -2.568401364192068187e-02 2.284121585514410982e-02 2.481711692356704246e-02 -5.220589543557425938e-05 -3.911963016275731703e-02 2.041552733367141964e-02 1.813134675139883509e-02 -1.296680808177644957e-03 3.340893899447721499e-02 -1.612800325698926507e-02 -1.104127593837933748e-02 -4.001320462429444613e-02 -1.657280926675306146e-02 4.641109675934586981e-04 1.923874059457557698e-02 4.569787308959644134e-02 9.043212399365249329e-03 -2.377867068836870407e-02 2.219946411326120458e-02 -1.115426641420896869e-02 -1.068118738281208582e-02 3.620960045062009136e-02 3.114151560769258878e-02 -1.083847197797122540e-02 2.385824530283189165e-02 -1.958616949733228696e-02 -5.495192812529028914e-02 -3.427131067501543171e-02 1.092782613432032035e-02 2.864533708874058074e-02 -2.748501599242503257e-02 2.598516260457107985e-02 1.151548807196773466e-03 2.023895394254097632e-02 -2.106533062257507499e-02 2.096187123841369241e-03 -1.588869994407937636e-02 -4.159317784010992114e-02 2.281664018392934312e-02 -1.369215034492261493e-03 1.240799672853928545e-02 2.956046518478665230e-02 -2.473873007991890527e-02 4.553938634916906980e-02 -6.566025574880339152e-03 -1.015617449410317463e-03 -1.740096627273356872e-02 -6.249023121683728449e-04 -1.301292993686995955e-02 -3.454967702254906764e-02 3.674072345708942477e-02 -2.479681382164256737e-02 3.056712019500483751e-03 -2.564737101208715633e-02 1.576881969826503596e-02 1.512094231023020791e-02 -2.765020735119817774e-02 6.721783827225664976e-03 1.107606040487402362e-02 2.293269552082208979e-02 -1.310802079210751647e-02 -4.325751936023931182e-02 4.863858742678322904e-03 5.479173025513185691e-03 2.778436448413323587e-02 1.303513219568106299e-02 1.213135688759098968e-02 -2.290806655725246763e-02 1.767978049079956589e-03 -1.535113200618498652e-02 -1.261127126530449047e-02 -1.250216495112062114e-02 2.250341367992696878e-02 2.314962796645781556e-02 -2.157625358987290409e-02 1.706119274067183916e-02 -2.275642824309236090e-02 1.328801094789544210e-02 -1.493360606231005500e-02 -4.954561041255107524e-03 1.628168627027502813e-02 2.506137430449056208e-02 1.950791701354145664e-03 -1.233654116374008347e-02 -1.475184386138324484e-02 2.669012914066633702e-03 1.860263637841072515e-02 -2.426497608498757313e-02 1.528664833574346765e-02 2.446442879718991464e-02 -1.881360745032820830e-02 -8.727838764428369478e-03 -1.882350115044761907e-02 -2.326049585672341005e-02 -1.514693492194881669e-02 1.539060345641461887e-02 1.808733623356193615e-02 -1.457310511099081662e-02 3.557856126711268774e-02 -5.331880912907358862e-03 1.679943194539421439e-02 6.268338172991283659e-04 -2.512160151623281379e-02 6.848943620698103724e-03 3.941923986828628490e-02 5.889554287622769321e-03 1.534887154271417659e-03 -1.404186343437582342e-02 1.467114485103186185e-04 -3.591704846653769913e-03 -1.051295708782313491e-03 -2.667319078360198478e-02 -1.302828146270556880e-03 4.654955316499396686e-03 2.713342234975778516e-03 8.602813183889137377e-03 -8.768813651618505983e-03 6.515451066488891010e-03 1.275804441385357084e-02 -1.318333610006352033e-02 -1.423503443149746160e-02 2.284724803172852314e-02 1.813196445622873576e-02 -3.805585530080746876e-03 6.839722607134468904e-03 -1.092953555749246256e-02 1.120530694956618084e-03 -1.459598163746976714e-02 -1.048363332973131778e-02 1.073674659718788869e-03 3.890857086743344448e-04 3.573325695274641705e-03 -3.220485133247213971e-03 -3.417024248481493904e-03 -2.020210652151618880e-02 2.987634607371368774e-04 -8.910638452141350641e-03 1.159088560615673807e-02 2.032863860606140809e-03 2.383539846265372159e-02 5.697009912346215343e-03 -3.038635975729542943e-02 7.514372538362767626e-03 -1.731379436817026551e-02 3.364383810185761665e-04 1.089397964298930398e-02 1.032118636975498660e-02 1.245069103869250564e-02 -1.306630022528984785e-03 2.335782042608664649e-02 3.283700952222039574e-03 -1.410762093716815511e-02 1.860195420984447554e-02 -2.734241326872256794e-02 -1.254488745727195403e-02 1.691538525196656720e-02 -1.786914319685616384e-02 -1.419065995391024767e-03 -2.349836422496722615e-02 1.047154751616051135e-02 -3.496109972568959418e-02 1.736600595555586393e-02 -1.346127047543450167e-02 3.521053516144115325e-02 2.953061934778946490e-02 -3.926064097224757354e-02 9.980725101061769383e-03 -2.240458692170050736e-03 -3.788695634424251758e-03 2.453241780056542726e-02 -7.479105641124482277e-04 1.977249020954490941e-02 2.094030701267268410e-02 -1.437342907920205904e-03 3.505260040671718223e-04 -2.184318958289952275e-02 -2.375942352503780317e-02 2.865159009103271023e-03
-4.716834051316461107e-03 -1.555381034910391369e-02 1.141311135309877774e-02 -7.343360506210880670e-03 -3.001409683618644700e-02 2.294815016443683270e-02 1.962861929165705954e-02 -3.481442296767333754e-03 -2.023028634519890429e-02 5.456994896593866592e-03 2.375060424873932582e-02 1.724529570131201617e-03 9.595660013999026544e-03 2.841876590322377216e-02 -2.574511947372637444e-02 -2.577244089951656603e-02 4.285241829296410065e-02 -6.360916689713405625e-03 -2.744558688967613236e-02 1.889538456408227513e-02 9.638937317204712349e-03 -1.936500340722915534e-02 -2.527614581227704497e-03 -3.277052325768031044e-02 -1.059743853559105310e-02 9.410013549894772136e-03 -1.456356021986649277e-04 9.776381946290942093e-03 2.320438338050432106e-02 -7.508727086147233207e-03 -2.049498110892699829e-02 1.752937959459524835e-03 -1.640873078298371243e-02 -6.445292557801722381e-04 -2.169720858775953110e-02 7.322185070509180244e-03 1.162508109792249368e-02 -2.316154760570546603e-02 -2.364665378327629811e-04 -3.998333788822958090e-02 9.119275161333165181e-03 -1.675911623865513917e-03 1.857627102912428295e-04 -3.642850239228773938e-03 -2.643874087990012375e-02 5.085735700858280348e-03 1.887667561903609223e-02 -9.237627310653127345e-04 -5.428512605222028664e-03 -1.822725674408363222e-02 -4.127792568571328827e-03 -1.407510871556110280e-02 3.102437416359388189e-02 -2.335084101190575828e-02 -3.222451454872689303e-03 -1.310416640163881985e-02 -1.005617548356214398e-02 -1.746524124106955608e-02 1.470342989441881902e-02 -2.022831697208880494e-02 7.671320655292282811e-03 6.312705720891697084e-03 5.083776724773019298e-03 2.290958065934792839e-03 -4.087107508366673303e-02 -2.769868023052660805e-02 4.064443834949998946e-02 6.097762158919831782e-03 2.200289104049648475e-02 1.743490881518355157e-03 -3.061452628662457778e-02 1.515463033139176525e-02 6.454848325025252381e-05 -3.832649449989986024e-02 6.178234777397410664e-03 -7.180973876005204357e-03 4.695458972959783150e-02 -3.035685408539572604e-03 4.609600351119109637e-03 -1.783678157296540376e-02 -1.075474980151639587e-02 -1.207359466763306861e-02 -1.369652805919512051e-02 -3.044395605132600366e-05 1.908242104618436755e-02 9.892116267488436192e-04 -2.380241837039618821e-02 -1.564751901271779072e-03 7.914382920222451379e-03 -1.571153094161844774e-02 1.549848527277901400e-02 1.795708810707327338e-02 -2.269134351472375244e-02 9.141360147536248260e-03 -4.334875550804982540e-04 2.584695429833548663e-03 -2.014531274483717313e-02 1.479533781068412095e-02 2.456256140322412435e-02 -9.007520582638623742e-04 2.852778454166941466e-02 -1.837805571691945861e-02 -1.668407805826839507e-02 -3.290550294942954333e-03 5.668577478609888864e-04 1.937228645216597638e-03 -4.403637046902103037e-03 -8.179247514777707173e-03 -3.923724183409410884e-05 -1.649312482602806676e-02 2.403070662744539315e-02 2.018885748869147460e-03 -1.802590608300222788e-02 -1.853884920221861906e-03 -4.512017131383752079e-04 9.794429391717110467e-03 8.175144324000547386e-03 -1.531587683109798641e-02 2.300788655490306270e-02 -1.443558939396732618e-02 -2.810863027293614667e-03 -1.597364199467326759e-02 -1.072532465327544551e-02 1.174711271488080785e-02 -4.641782931428566072e-02 1.433125022234318577e-02 -1.850842078243459740e-02 2.129665229202319654e-03 2.340341363174227099e-02 -3.814076361672998766e-02 2.941908367848665440e-02 -5.590512963268734481e-03 1.015131309634849030e-02 2.351622294954344369e-02 -2.839345130801312206e-02 -2.205981618489723933e-02 -3.140185313119720455e-03 2.568560670156335227e-02 -2.204415396076909658e-02 7.439817458790788825e-04 2.505964509861970113e-02 -2.168365228660882119e-02 -3.468546233322109332e-03 4.012788188200914694e-03 -1.266586148478315247e-03 3.265397116198445054e-02 -2.453950354699495004e-02 7.714658183296040778e-03 -9.629061571759037208e-05 4.068927661101255297e-03 3.738832053264874722e-02 1.635123731441822086e-03 -3.861317884886534407e-02 -2.340825560390454030e-02 3.931063514535097086e-03 -2.160755135400011396e-03 -7.324942713511800943e-03 3.891849201559059723e-02 2.223040540850573440e-02 1.755324586694681846e-02 3.782184370816433182e-03 -2.476641340609786121e-02 -8.917240939921879800e-03 -1.992163579030593878e-02 2.636101890975898598e-03 -1.806555837170354794e-03 1.906961050033399024e-02 1.149265740163711580e-02 2.211554203073108626e-02 -4.133623607503076822e-03 4.441692604930994048e-02 2.684819010355739451e-04 2.089978914554828024e-02 -1.242748026389069345e-02 2.058498007364082186e-02 -1.313113692525532013e-03 2.029298418870543325e-02 -6.351862834227586102e-04 -7.034718104992503974e-04 3.091494383916464778e-02 2.589397811574745134e-03 -9.293839497085397069e-03 -1.496404904726403133e-02 2.175818514399999095e-03 1.821534648439554135e-02 3.118308942583229715e-02 5.094744126911323473e-05 -1.496388154392984393e-02 -6.849232526673276408e-03 -9.935555252213902969e-03 -2.832917810594168251e-02 9.283827427848606942e-03 -2.489554049426507317e-03 2.129739555930905415e-02 3.239346431801169192e-04
-2.303832568288236016e-02 1.852060807475952586e-02 -1.877251898132216087e-02 -5.094506231889743553e-02 -7.322142801222165237e-03 -5.044093415916313383e-02 2.153174378720337095e-03 2.726947521956425702e-02 -3.654967796423148202e-02 7.444458842169484475e-03 4.411508355958784766e-04 -2.511866355123723582e-03 6.245628352041953345e-03 7.427418810686575897e-04 -1.571581075388373558e-03 -1.131282905089883370e-02 1.050856158008596150e-02 4.859198899772386449e-02 -1.756492451902720575e-02 -4.031162496131277147e-04 1.316658458752465767e-02 -1.057921338130678700e-02 1.702351244692588278e-02 -9.523706125467528566e-03 5.446910538724443647e-03 1.582437382835283780e-03 -2.268199146077537129e-02 9.092562175340300652e-04 -9.175800585080660585e-03 1.344170328397489671e-02 -2.419243052982065351e-02 -2.207445474456747742e-02 1.412939884471050428e-03 1.249344298727619526e-02 2.270957190878509710e-02 2.839705926013752491e-02 3.200026024053054599e-03 -1.964237789001241005e-02 1.171857252129119946e-02 1.211805702739192706e-02 -2.171527393735394468e-03 6.838512135819735382e-03 3.216124693123617595e-02 -2.202761677862312417e-03 -7.808196358477105525e-03 7.045474056576534611e-03 2.157807141068013995e-02 -1.573017931268778577e-02 3.622961544305602216e-02 -1.022617955170104613e-02 -9.081410447214445861e-03 2.606604897246240365e-02 -8.532254651103573367e-05 -1.265001246456555007e-03 2.781003479470830347e-02 1.934102834617824895e-02 1.556284026703324240e-02 -3.269689813472390072e-02 1.338204263514072324e-02 -2.316930346286080050e-02 4.716954663911560042e-05 -2.722512752598924002e-03 -1.366903945948756520e-02 -9.300492067170366972e-03 2.906746812782826095e-02 -1.150116956089472856e-02 3.751587956084377617e-02 1.090602900395618935e-03 1.080676033883342692e-02 7.322562395812325965e-03 1.160956677924045513e-02 4.118345600412982865e-02 -3.245854686747714352e-02 1.182772330993278262e-03 -1.384439798787251083e-02 -9.737199239245146465e-04 3.394034779042488272e-03 -5.309626154802661591e-03 -4.156572360238886335e-03 -3.640982016119344647e-03 1.368173015820232583e-02 -2.746412273644680685e-02 -1.642265379739223530e-03 1.687356787833715899e-02 -1.893707606833018586e-02 1.649715163956618283e-02 1.765018691017169322e-02 -1.795726271906224409e-03 -6.539126957463274603e-03 -2.119851195622243084e-02 -9.217707126361543088e-03 1.732714437128920950e-03 9.979035780676907483e-03 -2.346063455280774247e-03 2.039198978131206985e-03 6.969601478246795212e-03 2.321689089380098506e-02 -6.723688435176000721e-04 2.721821768943876590e-03 1.192189205753499230e-02 -2.418985249100093909e-02 7.161941169629999077e-04 4.628767059883630297e-02 -8.671140533502234501e-03 1.368879293537572650e-03 7.106534041816316323e-03 4.370125393112524181e-04 -1.375264034680983086e-02 1.500938447412967017e-02 -3.676245173346581741e-03 -4.374422424049415059e-02 3.287233264002129701e-02 1.092786950250239884e-02 1.569270630706396177e-02 1.800362402736184041e-03 1.296388478233922135e-02 1.677357226098800252e-03 8.475760348950556536e-04 -3.434815619496274508e-02 2.531359565729494540e-02 7.226860200527332467e-03 1.062206562990606652e-02 -1.234988066702513362e-02 1.874364318481899425e-02 -1.274485921339671337e-03 -9.461446471276602904e-03 1.373192155864742629e-02 -8.097348925650182244e-03 -1.126714106854198247e-03 5.541093808623222608e-03 -2.459393917933839005e-02 1.790363096260940909e-02 2.436700580409745243e-02 -1.272097097711833401e-02 -3.112691020885983290e-02 1.492618829007774650e-02 -1.701609533199822250e-02 -1.386935988425441746e-02 1.441931068719489242e-02 -1.679732393384911421e-03 2.238301426374611231e-03 1.986352188587112502e-02 2.452296484140958910e-02 1.483764108557081296e-02 4.397644947184134456e-02 6.664625913127397890e-03 7.799393842114756351e-03 1.473390372348443948e-03 1.595040700608785656e-03 -5.263777009562823489e-03 -1.473096501859073176e-02 -6.972140001249196861e-03 4.897624387786809336e-03 1.727311286895603926e-02 -3.146471496338908158e-02 -1.015209130830967794e-03 2.304480249081115178e-02 -1.808801087337187988e-02 -3.599306146545587504e-02 -1.822892011100450682e-02 -1.486166173345009923e-02 3.186958840902903711e-02 1.308640271974881135e-02 1.463459262658998832e-02 -1.937767564527341068e-03 -1.791424510456481045e-02 -1.108206898175272993e-02 -5.004322708579308360e-03 2.035746796572107317e-02 1.756414819385649154e-02 -2.505780362206429940e-02 -1.353210079533404345e-02 2.727407462403640820e-03 -1.918503202622916497e-03 -2.386659386792222906e-02 -5.496099577621364751e-03 -4.047786855011028390e-03 1.207962128828457896e-02 1.203666177499101292e-02 -1.927865616211355687e-02 1.705673769254394123e-02 -3.486053435937636752e-02 -1.725136774313281839e-03 1.775108908033528124e-02 -2.103777744411983522e-02 7.165647068880733397e-03 8.516106257850894132e-03 -1.057213664272411632e-02 1.151702128561485697e-02 -1.978029862656707771e-02 1.951110158723036100e-02 -1.704074232752122997e-02 -1.615507966107088828e-02 5.319454511165336991e-04 -2.492711268591137758e-02
-1.234545418233807049e-02 4.254454794214315369e-03 2.957264891305566232e-02 1.423194525012088860e-02 9.411681386572803149e-03 7.365902562558454374e-03 -2.478498122954233152e-03 6.083815870839252501e-03 -9.573422075220178878e-03 7.184040327118588337e-03 1.355310477087582482e-02 2.302534002194015980e-02 -1.376430991324303042e-02 1.666110670250323111e-02 1.431395287438110009e-03 -4.307319297878652031e-02 1.695888717120721308e-03 -1.315804821513672819e-02 -7.631044084075520872e-03 -1.894338006982321937e-02 -3.422524643066004318e-02 2.208950730984600430e-03 7.247729315180514997e-03 1.202280630083049119e-02 3.674855857979758555e-02 -1.783945719849724942e-02 -2.535162658322412735e-04 -2.404069634075010897e-02 -4.044571671849685537e-03 2.240576531090300236e-02 -1.451076332734547482e-02 6.989535047744051613e-03 3.144951627120107923e-02 -1.230580566301986076e-02 -1.197296791174159297e-02 1.447526152479345143e-02 -1.759350173442671052e-03 -2.500084575894110858e-02 1.659411538509901474e-02 -1.642055375320536012e-02 3.618011506294700752e-02 7.714049664090702300e-04 -9.375127306609941022e-04 -7.847407459135600019e-04 1.616590606307348466e-02 -6.863915575846042672e-03 -1.675418212148926597e-02 9.568764696669373668e-03 -2.508748987925776830e-02 -1.344626874910079088e-02 -1.542940143280941562e-02 4.295300444696427411e-02 -2.667602782565531294e-03 -4.519578652143772801e-03 2.084793763197267946e-02 2.312971130863094443e-02 1.262515097068326111e-02 2.308887088024640100e-02 2.903431415965183893e-02 4.756460864367087135e-03 -1.141487591718686086e-02 1.960755210075972900e-04 -4.775985912689611340e-03 3.386944248706262595e-02 -2.924828270793377455e-02 -6.276253362680783709e-03 -1.810377591778972867e-02 -8.298252475599468547e-03 6.804850106436180490e-03 2.202310854537421758e-02 2.330772723345777425e-03 1.282771885743932624e-02 -4.672942821892133586e-03 -1.890759117448152782e-02 -1.374478886027374544e-02 6.710684624975383691e-03 -1.790901357720721399e-02 -1.068719938944748260e-02 -1.498889845684118214e-03 -5.689228145969015688e-03 -1.849493660636027451e-03 -1.711892385715425499e-02 -1.277799092951439376e-02 -9.867575228570332757e-04 -3.529376949340721353e-02 -2.403725715483516490e-02 5.367909830205171672e-03 1.651548969542495152e-02 1.267347702010344218e-03 2.235837835473890225e-03 -1.320189190371299712e-02 -6.546176046406466248e-03 3.514341155275139961e-02 9.389779529571649561e-03 -1.951450387969322006e-02 -4.993242591217361692e-03 1.230496501011091315e-02 1.845958338462260623e-02 -1.145271309077817599e-03 1.656190388959436800e-03 -1.359016262467789690e-03 5.985384742568823982e-03 -1.436662640117020162e-02 -2.860921944844600773e-03 8.621215782925338925e-03 2.196254486546353035e-03 8.320880662401787184e-03 7.583372880697097397e-03 3.819045801438490303e-03 -2.589256514462104711e-03 2.462570115727810705e-02 2.900636091654480025e-02 3.225068396534377588e-03 -2.717233237263596418e-02 1.565003797260862764e-02 -2.083016473911426109e-02 2.892468989290533990e-02 3.227390792470875847e-02 8.550471677156151057e-03 6.690312586852426371e-03 -7.850625097257056539e-03 -4.785853658316862463e-04 2.370733811853529410e-02 -2.188578342630594781e-02 7.350028189081264304e-04 -2.228482138543249821e-02 -1.584106547803020709e-02 -1.324265314907416974e-02 5.117915733143343221e-02 -1.067749699487134663e-02 -1.261307166858252962e-02 2.329217481767076325e-02 5.145907103364259771e-03 -2.149676925811743605e-02 1.793376518085025573e-02 -1.195200435129829993e-02 -2.223258777111812579e-02 -7.779761306549285577e-03 -3.261863195742549515e-02 3.902148437496190565e-04 7.546350119540393142e-02 2.458929718699049555e-02 1.615285493526558147e-02 1.437570076002563264e-02 5.677455617956336797e-03 2.811993359352772323e-02 3.762890283302315272e-03 1.525495104739696926e-02 5.561608986189063575e-03 2.827214757037017565e-02 -4.368258391286254996e-03 3.973227711247393629e-03 8.569283001202120456e-03 -3.727815882934373826e-02 1.456744264068566413e-02 -2.260266575582942083e-02 -1.346498103157603952e-02 3.466816185226430369e-02 -2.459036954698005928e-03 -6.083072835358784881e-03 1.814362345906345500e-02 -2.111005128598352886e-03 -2.666514605998386578e-02 1.717442558153356794e-02 -1.515404842404106250e-02 2.103003121799686126e-02 -1.305186534009469953e-03 -7.527375417203708424e-03 1.720192713322656400e-02 -4.243628402570693951e-04 -6.860220430042247679e-03 -1.531504978308961124e-02 -1.726446040775374280e-02 -2.963223512006032956e-02 -2.478952770083765050e-02 3.296760496183220174e-02 1.034005542632196115e-02 3.882005488489122247e-02 2.440989173560390718e-02 3.751476095246680798e-02 -1.783863266650609000e-02 4.056902853813509902e-02 2.194893350674052834e-02 1.397140511942800926e-03 4.030979855958205516e-02 7.973604393950202776e-03 4.251556670673422265e-03 -2.044717943011853042e-02 2.422132351719298582e-02 -8.943326794437114757e-03 1.115839133958275442e-03 -8.579591014429845900e-04 3.541571354231037860e-02 -2.763998109001788214e-03 -1.193186593666139411e-02
-1.535226233493898473e-03 2.606815780131154295e-02 3.801536065870213255e-02 3.760739528138684618e-03 2.128808219228468107e-02 2.219700493012571104e-03 1.558693062198564759e-02 5.696252238224765174e-03 5.986573480193822447e-04 2.438063563242384366e-02 -9.752225303555385472e-03 6.475999954834050013e-03 -9.719492875806416687e-03 -6.992854944318821660e-04 2.180195272711906579e-02 3.985882456554580566e-02 4.110550535528705723e-02 2.591409110816887684e-02 2.966823138688333764e-03 -1.415995166656976688e-02 8.037273220538546786e-03 -5.028380220304363990e-02 4.322435254038176772e-02 -8.782686965772106003e-04 8.481787830807031858e-03 -1.152969089366347524e-02 3.788929115514025336e-04 1.145903130519162344e-02 -9.412193677244995449e-03 2.916991941242095404e-02 5.382758475783118446e-02 -2.859684335343894504e-02 1.650407899671996192e-02 -2.634807916295084373e-04 1.218699452514944740e-03 -1.423072518786142916e-02 7.273625387100154591e-03 1.215574922576916593e-02 2.123397155804323828e-03 2.283479673557989656e-02 1.060165930962492578e-02 -1.497758030225971627e-02 -7.329879950936375298e-04 -6.499312632171782081e-03 -1.909551466078878226e-02 8.394339892655727775e-03 -3.249344013305405232e-02 -6.983647063218852841e-03 7.879761718536642395e-03 2.217481030425932920e-02 1.739293726318312874e-02 -2.502691885369757660e-02 -4.264729919048682039e-02 -9.001232891517829682e-03 -4.243837154572095705e-02 2.385505354929534638e-02 1.263131997337227537e-02 -1.037373137267259696e-03 2.242645480298885441e-02 -1.984900880237796227e-03 1.843103692414741965e-02 -4.816922430098466781e-03 1.737170885418154497e-03 2.003319942853353311e-02 1.878738315487125249e-02 1.928075634964896562e-02 3.108919560640740001e-02 -2.088259929899981618e-02 -1.776784180293852072e-02 -1.038099067305330199e-02 2.029042491820802485e-02 7.901436968334951683e-03 -5.644388300698318858e-03 -5.836516710664161126e-03 2.106254100058975454e-02 -1.553490498560185359e-03 -6.920560079123042399e-03 3.350127734738092902e-03 2.386862691983881665e-03 1.316328712089311417e-02 1.766123243139682344e-02 2.261152764983527259e-03 4.979877440897093749e-03 -1.279848843713455621e-02 -9.158281365342073755e-04 -1.580586086696891823e-02 -2.433072777061967215e-02 6.451779381615306563e-03 3.298642793434362983e-03 1.792318050514833672e-02 4.015035995495121190e-02 -2.014205471187406615e-02 9.557553013702693376e-03 -3.947832424286530639e-02 -1.782604409580787128e-02 1.402266766167723638e-02 1.256075426340315729e-02 9.990492578134458831e-03 -6.190782664518898817e-03 -2.280175587982886942e-02 1.831000497471623953e-02 3.018187845085816556e-02 -2.309695284384289879e-02 1.922702055128241300e-02 -3.416619641264051488e-02 1.101935621237178781e-02 4.044238463194972308e-03 1.365527281291312525e-02 1.292076044090712320e-02 1.065829646639239285e-02 -6.767622724727759623e-03 -2.038996614762764083e-03 1.272218721919016020e-02 4.211050853812693673e-02 -2.727841029912941861e-03 1.351985609044759062e-02 8.690598000333190840e-03 2.496679827022017101e-02 -1.253076256863138067e-02 1.859562455655931756e-02 -1.986905386623995587e-02 1.226679150368760636e-02 5.083999871473487281e-02 2.508294747029341486e-03 -3.563257744855104214e-02 -2.142030496566244696e-02 2.328471533393347906e-02 9.540587007508915043e-03 9.515386569441631678e-04 -5.514842823762022839e-03 -8.799016894973702568e-03 1.143225518344146742e-02 -9.542843363921128114e-03 1.373630729714857366e-03 -1.939594612209874155e-02 9.162560802266114801e-03 7.352791162717029969e-03 2.422472638961039454e-02 7.432497381741306683e-03 -9.124657385838608886e-03 4.935866199856097508e-03 7.825303651706997862e-03 -6.448517599393353492e-03 8.340769747857383273e-03 -2.347880620260087148e-02 8.254574416959117172e-03 -2.022302337981717393e-02 1.323665527026451905e-03 6.281645682732760715e-03 -4.010142818605762216e-02 -3.365836464675438233e-02 -1.757721507062287927e-02 7.748136759241346094e-03 -6.159689174676375584e-02 2.031333744337903563e-02 4.640176758406540369e-02 -6.569173136197106310e-04 4.177370444255187887e-02 -4.374470885516343333e-02 -1.355131627950309503e-02 1.003285466011022333e-03 3.288567467558645846e-02 -8.441689912618934033e-03 -6.553089289901717004e-03 -2.173517541601473115e-03 5.006541788723039774e-03 1.420534378217433100e-02 1.361070261363598634e-02 1.266753897493564079e-03 -7.885027549570083200e-03 1.921219699418568599e-02 1.464965044496385760e-02 2.101225077901209323e-03 1.771565757406541250e-02 -1.881739642037016588e-02 2.288812234820131533e-02 -2.019228309102253857e-02 -7.996097101766969171e-04 -2.203885438913762845e-02 1.978168386495946559e-03 1.790125178890030659e-03 -1.171811907389020031e-02 -4.385417043394286563e-02 -1.971152141370367122e-03 -1.392309476836071924e-02 -7.993743638469476276e-03 2.893507130552333204e-02 -3.187619018786055219e-03 1.628094761713587413e-02 -6.790922444321277271e-03 -1.468916395645927103e-02 -1.816821992429240714e-03 -1.736713198614538850e-02 -2.381622955232533950e-02 4.379160375949769923e-02
2.302327850880336868e-02 -6.936392256724091196e-03 -1.860070134335435957e-02 -1.928392502982018142e-03 -1.706798191931390568e-02 -1.145500982011191798e-03 -8.581073478536743477e-04 -7.700961360335317231e-04 1.468548151457601918e-02 9.663762832246137677e-03 -1.768040073919862482e-02 3.324315849358487618e-02 -1.473338962140698614e-02 -2.373459347274474787e-02 1.625429643271894542e-02 8.734789546744094191e-04 7.279914114099515603e-04 -4.057103923065409623e-02 1.996290327335797574e-02 1.876094051318702438e-02 -3.047847585631903444e-02 1.706104317623338001e-02 -6.411220758360299931e-04 -3.225649430601380818e-02 -2.374157943671959675e-02 -6.466906622959933335e-03 9.240981967943151520e-04 -5.148595395814905759e-03 -1.445280536686824845e-02 9.705954802168121134e-03 9.828077449213002900e-03 1.843827173133607070e-02 1.712091256803047884e-02 -8.316760229094525766e-03 -2.967068862511467592e-02 -2.740662778106300879e-02 -2.842537246114813440e-02 -2.712932824343555760e-02 -1.040621060117491795e-02 -5.660088856460477810e-03 -8.142654519675171856e-03 3.161620627348587370e-02 -1.384095065520006378e-02 8.370728277225531616e-04 1.625410630801128048e-02 1.831845996115354092e-02 4.598679592319469128e-03 -1.520217603235882869e-02 2.175393481215140770e-02 -8.107131580526326722e-03 -1.803030138189442091e-02 6.339874795659620338e-03 -1.630653342118480818e-03 -2.896924753516544326e-02 3.972028120374275495e-02 1.693125354481495384e-02 1.886108402412105863e-03 8.564988397524861061e-05 5.370328768908440992e-03 7.019485040206926985e-03 -3.563265486987272045e-04 1.203145732267616938e-02 1.525785757323656205e-02 -3.151572573094668650e-02 2.207704289328254327e-02 -1.757813108725974401e-03 2.837598460394949451e-02 1.943634045063164298e-02 -3.622428176516419990e-03 -1.294263752758719214e-03 -1.610421538195234287e-02 -2.154954827549154101e-02 1.760881213249868363e-02 3.137425831164619011e-03 2.423883973874090339e-02 1.426267516886222525e-02 -1.894592628221662342e-02 1.397685971379488898e-02 -1.928413183217754165e-02 -2.778624578504093091e-04 -1.503280576807990154e-02 -2.761005558588717785e-03 1.970799076563421043e-03 -1.034602471980488290e-02 -1.950176529017681043e-02 -9.251452362367868637e-03 1.493636721873110688e-02 -1.414705167687479656e-02 7.318036023211587152e-04 -9.609233638081192061e-03 -4.528743231646963768e-03 -2.889700173010351092e-02 -2.905234823498852037e-02 -1.045258610358578213e-03 1.559298845125065523e-02 -2.674479513792550264e-02 2.493234720860945317e-02 9.088407420382239171e-03 -2.236760979579175551e-02 -1.610740209263376854e-02 8.376444383223452354e-04 -2.619919009889458764e-02 -1.239840520072792857e-03 -2.776525215381762252e-02 1.496308000307893134e-02 1.838640910256785291e-02 -4.180062523711350342e-03 1.585734664587627740e-02 -3.416843201308611411e-05 1.474454405127723078e-02 -2.197375561194029464e-02 2.653780502222639892e-04 -3.892680744744466542e-03 -2.251000222663173886e-02 -4.758067270666342663e-02 1.612077296810457416e-02 -3.527917637411451257e-02 2.690526701569775567e-02 -1.412754315280263968e-02 -7.059825871718800050e-03 -6.728273029949405262e-04 3.358867774313937377e-03 -1.229494227815999471e-02 2.948149761765779531e-02 -1.610472819120605317e-02 -3.905682199493028250e-02 5.607648389396946778e-03 -2.509063543312664568e-02 1.783818845240534023e-02 1.685031914088213137e-02 6.224171227796437660e-04 1.261778762283352964e-02 -1.107184548875428387e-03 -5.160389018875119471e-02 1.235437685819887679e-02 1.373585967998710959e-02 -2.446162473750054800e-02 -3.553087020750961278e-02 -1.603759993554396829e-02 -1.255326379543793280e-02 -1.102277452350882390e-02 -1.691888763324532474e-02 4.721432540825694357e-03 -2.056521676264932638e-02 2.440446498640196082e-02 -6.015950463633013001e-03 -2.169832676492745166e-02 1.793429270944764051e-02 1.983137138592548643e-02 -1.984430207841958449e-02 -4.220889095337118646e-02 1.739731592547624425e-02 7.520571674416489868e-03 -2.449217669367048308e-02 -1.115184181736531173e-03 -2.973555940763681488e-02 3.547466877719270516e-04 2.856432927206146305e-02 2.949122398549956781e-02 1.551969563928575976e-02 3.778831353517443647e-02 2.199167946661790066e-02 -1.545253039435533389e-02 -9.044991884591150819e-03 1.290301511107226282e-02 -1.340733568361089992e-02 1.553778479665053613e-02 2.276396569465837308e-02 -3.361568004487552885e-02 -2.176259367983894577e-02 5.951862426182724999e-03 1.782693180453904982e-03 -1.995022452094436655e-02 1.558865943865549511e-02 -1.180753718435184618e-02 -1.937939883701700686e-02 -2.608676856062080995e-02 -2.725469106333048598e-03 -2.645790839635504821e-02 -2.332454164841592237e-02 -5.694430336633129683e-03 5.437599630214639407e-02 -2.163865639569513902e-02 -3.176698500515592015e-03 -5.623912918951819162e-03 2.148167268958569437e-02 -2.271441175392537384e-02 -3.510583730448173928e-02 1.813264807242915416e-02 -1.393205587416208868e-02 1.302851239952400840e-02 -5.973134208786327198e-02 -8.260026393328517499e-03 1.692519264680378277e-02 -4.259613134798129197e-02
2.392665736024456730e-02 -2.160044363793870749e-03 -7.573874460220324928e-03 4.547436104390636079e-03 -1.371722227279170659e-03 -5.583977353914139699e-03 8.655463145157579058e-03 -3.086204885677492227e-03 2.732329671279120145e-02 -2.477712242359067160e-02 -1.901704770816013690e-02 8.295494332673694626e-03 -3.328578569641622940e-03 1.064287581168144904e-02 1.313779133317266243e-02 1.124802507367527078e-02 1.322576802175282409e-02 4.372627004779888749e-03 -1.260596189322777186e-02 -9.866963521434360396e-03 2.043203395625349181e-02 1.408028307731856200e-02 2.508919856192579761e-02 -1.104489706019507952e-02 3.483927295253733819e-02 -2.332305958803719548e-02 -1.538522593549215486e-02 1.896005485272250074e-02 -2.868527337898719998e-02 -2.099669813459155258e-03 -2.658239213322775157e-02 -1.464982187624195784e-02 -4.166036193781873925e-03 -3.029188154871239463e-02 5.915245614002999364e-02 2.050125746296178539e-02 1.808764407734292715e-02 1.370782811824819598e-02 -1.213017358731072236e-03 2.737303403582506955e-02 -1.730062106696090424e-02 -3.195507472071850569e-02 4.434243938511119032e-02 -1.784795780091690681e-02 2.850774534312704167e-02 -1.263896740651688708e-02 2.294387583337728631e-02 6.136682696354194000e-04 -9.730032580376928378e-03 -2.272254529886716737e-02 2.134571897342318544e-02 4.920712622719397578e-03 -1.778514728383099198e-03 -3.124673151638796692e-03 2.092569615882617848e-02 -7.131767264151333413e-03 -3.045509289143365564e-03 -1.487150305894922517e-02 1.031767548499708080e-02 -2.303039477792901552e-02 1.582760578915209937e-02 -1.182436010429995660e-02 6.895813042841843123e-04 1.540000492378787184e-03 3.660024778466684087e-02 -1.570337934164987501e-02 -8.176722629611499205e-03 4.449672404898034894e-02 1.438818560494854737e-02 -1.376725430144141657e-02 -2.299879989946207459e-02 1.965494082718937524e-02 -1.719190444584327987e-02 3.753546121507390053e-04 1.545835718942270912e-02 6.489643824466503549e-03 -2.428701895448359682e-02 -4.980255135739530131e-03 -2.067581042619105053e-03 -2.818304021088986755e-02 5.686693414259171714e-03 -1.578415716254004050e-02 -8.984476719585115373e-04 1.110056488171131187e-02 -4.900166414813349539e-03 5.845293559783724252e-03 7.959474317383668195e-04 8.473842682706178575e-03 -1.481740758185972999e-02 -6.050018099073208727e-03 -1.563614945720071762e-03 2.083954989021022039e-02 -1.690138476695338121e-02 -9.248169315921485681e-03 1.100519675821297338e-02 -1.296110880508526651e-02 -1.597583090244355380e-02 1.071447341252133000e-02 2.471402788265728012e-03 1.043699905729970727e-02 1.759396240949545262e-02 2.000201864815007863e-02 1.716919302349811938e-02 3.679798823449505207e-02 -3.275308730218027403e-02 -6.575180342255433977e-03 2.281435453669405228e-02 1.240105857112878962e-02 1.487115026029491721e-03 -6.372546172151747484e-03 -2.018293530468407565e-02 1.891124728877134620e-02 -2.310688304303984766e-02 -1.576378620897224761e-02 1.770322956463788941e-02 -2.100800796546970634e-02 2.476379398153443628e-02 3.857588729859819099e-02 5.580073701376650833e-03 2.720143234843288432e-02 1.406846572927007710e-02 3.624867342338609216e-03 1.485542122792021108e-02 2.624439495574640985e-02 6.397122312849646674e-04 1.177196012122141457e-02 -1.670126749877933955e-02 1.110271053945751426e-03 3.632664904885926638e-02 -5.920436139365805456e-02 -2.021041574804931240e-02 -1.248105597256307653e-02 2.970864941247646288e-02 -2.648004261575895302e-02 1.047947263343331631e-02 3.397600505160228157e-02 -3.101226122236064309e-02 -2.651297319502637223e-02 -2.036883858132255629e-02 -3.549530694563511266e-05 4.989851981683707943e-02 -1.323861229068003242e-02 -3.851413136020170880e-02 -2.221414297764297274e-02 -2.105189939413984468e-02 2.436262361531580170e-02 2.258296764850143638e-03 1.708805573592247010e-02 2.449434269371987549e-02 -8.940437295540374155e-03 7.285329938808522351e-04 -1.740124984127536245e-02 -7.650155743339817280e-03 4.210717413158701627e-02 4.152250704869571429e-02 2.262943580229339127e-02 -3.458684954492394215e-02 -2.314747087910885414e-03 -2.301512683488046024e-04 2.300879372063361055e-03 -2.681294776102873673e-03 2.387279743687381172e-03 2.395077602726254987e-02 -1.239657991291547023e-02 2.000395350403045419e-02 -2.981055780328699042e-03 1.668546175197573728e-02 1.709179584496495208e-02 -5.245964271518837457e-03 2.401115723206898381e-02 -8.401505376755416879e-03 1.555027711633872461e-02 -1.844500381342278894e-02 -9.571131945899726684e-03 -2.419997599993341242e-02 -2.169705145268003860e-03 -3.303036936368377446e-03 1.211449286072495933e-02 -3.168299059713146348e-02 -8.264488640890408841e-03 -2.898050519765760051e-04 1.526131806288254580e-02 -2.045730303145767114e-03 -5.515500773090892955e-04 3.160207723866306079e-02 2.711101268751881996e-02 8.994960384727902075e-03 -5.864544554453406111e-03 9.915986632269391254e-03 2.494278115552891681e-02 -4.293546502048518898e-02 2.845278844280268310e-02 1.812713374190979502e-03 7.714599050243443890e-03 1.492501300849767391e-02
1.799152131717090056e-02 1.753594452382381368e-04 1.904878918591937365e-02 -2.790271448308196539e-03 2.067247987676917170e-03 3.926726475370709984e-04 1.607449011261841837e-02 -1.471588112487031905e-02 -1.441163044950407798e-02 -4.503353465508043441e-03 -2.225042187232502931e-03 -1.235566980587554479e-02 3.721685297650541985e-03 3.051463440446124803e-02 1.789828488499569520e-02 -1.251467143035458335e-02 -2.299809441484006525e-02 5.378430984091801988e-03 4.185717634943634385e-03 -1.946015263142768584e-02 -9.883688673311810668e-03 2.329407231986002809e-03 1.041001335380075353e-02 1.501349946528227064e-02 -1.417796982027681903e-02 -1.104171648516049167e-02 2.219498056895680485e-02 2.679370557571928574e-02 -3.690833760628415422e-02 1.516526539532755957e-04 9.330563292079640907e-04 1.043982994382633769e-02 -1.586719291744790455e-02 -2.009606395720743652e-04 9.584175583373197305e-03 -1.203331366715146289e-04 1.967943288452692410e-02 -1.929810072245395983e-02 3.608513039220068164e-02 1.347376954493300846e-02 1.903817819855138996e-02 1.798434529606325952e-02 5.344998806657265400e-02 6.329523852883853045e-03 -2.937547470648116041e-02 -2.377528470504889670e-03 7.515962062674139479e-03 -1.412414791660207385e-02 -1.319473072617527703e-03 8.716619337504588616e-03 -2.570422628828334180e-02 7.850266795550609605e-03 -1.707692036785412454e-02 -1.394561774346277788e-02 -1.875117214419876749e-02 -1.371051622001367293e-02 -1.056648520645954957e-02 6.976351075656814574e-03 -4.206168750980682214e-02 -2.095279775602724992e-02 -2.291823368615769976e-02 1.965986393185477007e-02 -1.859992183244614170e-02 -2.520837046750431729e-02 1.878613924665573781e-02 2.063925137236755775e-02 2.258106076901723880e-03 1.035969722967430666e-02 2.100479094854602186e-03 3.660127767859110148e-02 2.423891167257456736e-02 4.402304265250181481e-02 -1.559194820450323336e-02 2.089329409243273483e-02 -5.302620871727154947e-03 3.715969988118741213e-02 4.506921740034891544e-03 -2.479801329808615715e-02 -6.372321078910258771e-03 -2.082309487772771375e-02 -1.765047563020882143e-02 1.581881124964449464e-02 -3.536368779656966915e-02 2.930212893667245855e-02 7.097472806838305004e-04 1.012698001051412326e-02 -7.720095397358551180e-03 -1.843061703625522435e-02 -1.389287112886940581e-02 -1.608294422348683500e-02 4.690574515323939209e-03 1.112576487159346039e-02 4.623063778021069270e-02 -1.730640875257118128e-02 2.326704688551946981e-02 6.143909290396216971e-03 2.158652995282447917e-02 -2.167451566367299774e-03 -5.269916740110954650e-03 -1.855781369982673415e-02 -3.933826227305930665e-03 1.925733751135083605e-02 -1.087937035010283493e-03 -2.550691856734588897e-02 -2.301557616084211506e-03 -1.491564396541659315e-02 -4.632509014851492191e-02 -1.378076869738472645e-03 -2.373123259733771369e-03 6.850814570249674947e-04 1.845989485156841053e-02 1.614864388352605512e-02 -3.177486173492102828e-02 2.423015580714953793e-02 1.163888450063887969e-02 6.549932030075499879e-04 -3.055760216921404870e-02 -2.728398583255618737e-02 -7.722154002316968836e-04 -2.784279985823014808e-02 1.295709818489480109e-02 -2.219636317293686295e-02 1.629465620615761987e-02 2.835813765011502979e-02 1.298141803124529085e-02 9.194273435593090446e-04 -5.351738573524449094e-02 3.676363695329225995e-02 3.604066651016972489e-03 -2.319611773624508100e-02 2.273548012555340683e-02 2.795795111031134858e-02 -2.654606241546940762e-02 -2.575809544706233762e-03 2.416240866562380935e-02 -2.745512231422503856e-03 -3.988508915980921304e-02 3.928049332105160510e-03 -1.031997826665632771e-02 2.880886764879139056e-02 1.769554262407600428e-02 -2.655805512623854187e-03 3.076059934919281313e-02 1.732360564702863093e-03 8.872238873320895808e-03 1.487741204635367916e-02 -2.184351514631842957e-03 -3.942696664531174927e-02 -7.430753146745118672e-04 6.425007155361462351e-03 1.837291952983692925e-02 7.433950715844484317e-04 2.441371932794866861e-02 4.228711531723536310e-03 1.387103895951219412e-02 -1.384235998908290872e-03 3.066620759457236445e-02 3.428198485355044012e-02 1.860506372493362856e-02 -2.018463288452251522e-02 -1.086285596369288529e-02 1.284117039944367676e-02 1.192066080484000326e-02 -2.358259830696123743e-02 4.440748382821553542e-03 -5.901588434810265196e-03 -1.856682938452517643e-03 -1.236468428098297379e-02 2.564482210986107624e-02 2.064518143360845326e-03 -9.418643420766766028e-04 -3.974260447552238618e-03 -7.110707022075126414e-03 -1.044201868449218251e-02 3.581629284158971416e-02 2.666097194263025022e-02 -7.642270525479574403e-04 -1.814794921518729162e-02 4.159359366147567794e-02 -1.313540700607625580e-02 -6.427653344965497326e-03 -7.898319105810902574e-03 -6.591630397666622954e-02 -2.155664367436907827e-02 -2.037724821049984730e-02 -1.800844374789387775e-02 -5.266727957425406878e-03 -4.793367475537131661e-02 4.643862639804081580e-03 -2.751006366004460357e-02 6.271635546568483412e-03 1.819331752791323448e-02 3.033875530663766515e-02 -1.255487460243370247e-02 -1.579958349080493388e-02
1.985418462263230724e-02 1.489804786738540068e-02 1.817307084358829594e-03 1.142193831612384539e-04 1.336217257306479556e-02 7.773364290929408657e-03 4.271508285451681639e-03 -1.717968276668107447e-02 2.377490026578922555e-03 7.145136154553942409e-03 2.557868551375186081e-02 -1.688921385298257360e-02 1.622325094334644419e-02 5.176597255304095369e-03 8.856371974832655605e-03 -2.659506934817465907e-03 4.386342335377866469e-02 -1.836750076460003447e-02 1.747442765434438581e-03 -6.034313440864613395e-03 1.061342469401845533e-02 -1.632308787192168764e-02 -2.123596784262228674e-03 4.545153874754301673e-03 -2.588878780635790744e-02 -3.758676281624457466e-02 -1.211636149198515831e-02 1.189675977493675693e-02 -1.079204446005657854e-02 2.580371815873207242e-02 3.089624786762185799e-03 -1.529060542488258623e-02 -3.991661159487855728e-03 8.169151249125166173e-04 4.385349501959127927e-02 -2.366577380244552428e-02 5.113183191680897854e-02 1.309019462879802698e-02 -4.007304728318313372e-03 -1.229076116203919530e-02 -5.667387853939415132e-05 -5.491162803739866281e-03 3.928728119769884369e-02 -2.485232680655182370e-03 1.823392178713578032e-02 -1.590323923220716973e-02 -1.667899182952757228e-02 -6.047564258534088300e-03 -2.584384530521424000e-04 1.732830207586800314e-02 -2.682578420678368575e-02 1.739853680872509301e-02 -3.010088907364141114e-02 1.248779836072446553e-02 3.705705235488106208e-02 5.366552066065660015e-03 8.819881643721811867e-03 8.288913615593002972e-04 -2.446673798411667586e-02 1.993081378401160425e-02 1.266866144400591310e-02 -2.222890923610280553e-02 -1.054075113965200448e-02 -1.007392572030665727e-02 1.852086133771036272e-02 -7.519485385538222239e-03 2.377148994235269222e-02 -7.562950443846782819e-03 3.361446745752000656e-03 -1.410187113700454506e-02 5.419923125259126090e-03 1.328242707945698903e-03 -1.246068355030555000e-03 -1.154084040052290316e-02 9.183617528848249303e-05 -1.134547017099433921e-03 9.825193633722207817e-03 -6.447142305343800048e-03 -1.191977715416807707e-02 -2.543209743205731080e-02 -1.243596488234168830e-02 2.443101497902878255e-02 -1.221764209414956046e-02 1.779496626686372096e-02 -3.150949192929401732e-02 -1.822971772506598240e-02 7.190812805989056297e-03 3.841694859615524694e-03 -1.940573708759483346e-02 -2.949457322334933171e-02 -4.194769166411319722e-02 9.339473299473932677e-03 2.364496901711153273e-02 5.589295512563175264e-03 -2.153420964415237240e-02 1.856372655435403751e-02 -2.664706762448123406e-02 1.004480061391207872e-02 2.755417330073105936e-02 1.069097192509192024e-02 -1.861722920736559941e-02 -1.263518659079673236e-02 -5.280567904551922848e-03 -5.685128210148280084e-03 -1.592144197626273877e-02 1.771089170034760574e-02 1.663700846900583244e-02 -8.791715100433953115e-03 -3.139770832802386141e-02 -1.724112534208914384e-03 1.668606492298852287e-02 1.471064660964665517e-02 -6.480314520231204509e-03 -1.896466545460482461e-02 -4.019132796141591801e-02 7.137428364992969790e-04 1.206453649921041850e-02 -6.044797719377143115e-03 1.361429888335144792e-02 -4.400418060042997175e-04 9.635617484085496481e-03 2.296856584585941705e-02 -2.319963381217182360e-02 -1.129029687857355246e-02 -2.774807548154054060e-03 -9.421995699177510009e-03 4.912844338157697568e-03 3.389146548081277410e-03 4.399311655800714448e-03 -6.932671116139769302e-03 2.810955060311332021e-02 -2.338230491262339311e-02 -3.983815338375197579e-03 -1.980606434384487441e-02 1.716229631950995371e-02 -2.087138524381922100e-04 -3.498901620591001339e-04 -2.153858086311952885e-02 1.017207081611688421e-02 2.006270807634916945e-03 1.565608060614992122e-02 1.742945585944525450e-02 2.790168757445774320e-02 -4.503917549847943208e-02 -5.622358213938996770e-03 -2.482615446680074087e-03 -6.406074136283386802e-03 -1.437928018208285003e-02 -1.025264597766622349e-03 1.523160699639886095e-02 -2.377730774198075214e-03 2.250269966202394622e-03 4.163205957121872414e-02 -1.605802791354664014e-03 -7.532958861695754869e-03 3.475179479600815080e-02 -4.501088896279682727e-02 -5.876885844406307124e-05 1.477545430469647588e-03 -2.191370204874965033e-02 6.539859385134580427e-02 -1.474218304803242771e-04 1.748917248363729415e-02 1.363819893750760955e-03 -1.878838276914652008e-02 -2.458690820730874242e-03 1.151871342821355823e-02 -3.669911315942232972e-03 -1.492997723556309083e-03 -5.862648749162955447e-02 -2.349123806016520724e-02 -1.614234832011405933e-03 -4.497274496447407378e-03 5.630023985115435899e-03 -2.105465166800194604e-02 4.489581326106696635e-02 4.802041555314363885e-03 8.261520333095913327e-05 2.195707676843066183e-02 1.136193956034037972e-02 -3.057600988534421235e-02 -2.800212115859604389e-02 -2.451793745016161291e-02 9.581692701605762363e-03 1.036064806282813514e-02 2.699341400582085104e-02 1.836616653144526427e-03 7.211879876734914735e-03 -4.765501249182849813e-03 4.033884185415766155e-02 9.034999065370457466e-03 -5.894300972409465336e-03 -1.659367756357394558e-02 4.041405952298186832e-02 1.936761557841836651e-02
-1.885602738329059461e-03 -1.432460612402427363e-03 4.310845023888677276e-03 8.948272540307989492e-04 -5.308850008899221318e-02 -4.760506330278013731e-02 -1.316686883123778604e-03 -1.513837036740440026e-02 1.738567545829342031e-02 -2.319580134633308314e-03 4.180533595055185847e-02 -2.097751807557200060e-03 1.285471457761920046e-02 1.474612555080777494e-02 -1.514720828709177885e-03 1.991804075496045323e-02 1.369434705059693544e-02 -4.993652553713368025e-03 5.995340216080610046e-03 -2.319488621424625058e-02 2.902973557933567501e-03 1.218011796118988882e-02 -3.625101121639934254e-02 -2.131482455926949834e-02 1.306601940938783429e-02 -4.399923914078646137e-05 6.732666351301104524e-04 3.857698819096857731e-03 1.734884120415752101e-02 -2.249837227430195527e-03 -1.861560773875782157e-02 -9.766695246797867450e-03 -5.518665825768733629e-03 -1.174065881487177700e-02 1.079833613320475665e-02 1.815521353166577728e-02 -2.052974797176739669e-02 1.632390171813951577e-03 -1.108817101702504714e-03 1.937378423064995553e-02 -2.998701348060630115e-02 2.131407465259402972e-02 1.093518407754883945e-02 -1.924638563000206568e-02 2.954510419425401130e-04 -2.869791677797816493e-02 -3.210781448127510151e-02 -1.988237682745010171e-03 -2.383495335668319934e-02 -4.407997887020430328e-02 -1.213457418878289076e-02 -1.097240388697771907e-02 -2.376329565402629605e-03 -3.152322649820953060e-02 -2.403833103277753722e-03 1.443460588757658307e-02 4.240175083019117469e-02 -1.306116149648654324e-03 7.843743289584681130e-03 -2.194600970791762973e-02 -3.608965050661073429e-03 1.765415864094610748e-03 -3.263324869316190646e-02 -4.776899222239009563e-03 8.930304761054158949e-03 2.684080784264930575e-02 -1.004011014062309443e-02 -7.646622417317979273e-04 -2.364464745356590399e-03 -2.347991212578370498e-03 1.980694712838404481e-02 -2.162383971143693601e-03 9.801912393454709216e-03 1.087453372756619786e-03 -2.302463003879466879e-03 -2.000679180197142623e-02 3.130843221196707993e-02 -1.949742255251750694e-03 -2.301409185863886701e-03 -2.075374596402818766e-02 -1.229668187745729504e-03 -8.161664907743843532e-04 1.777717496065917696e-02 3.474902001910271099e-02 -1.303157768004915666e-02 -1.264174789860109983e-02 -9.554773405403765157e-03 4.657008351300293350e-03 -2.299373558546406737e-02 2.093337744980822059e-03 4.841387544146322783e-04 1.424260943617774479e-02 -2.314258336964061108e-02 -1.336469632222427213e-02 -1.531860220410657513e-03 -3.133168564088833347e-03 2.431775181789047526e-03 3.267025437800952226e-02 -3.578430153159035954e-02 1.409502739078610095e-02 1.972077511135178832e-02 2.044071954046401685e-02 9.843925829070692204e-03 -2.075225620794658374e-02 2.310809726836964700e-02 1.340158213443930213e-05 -4.568830272475525589e-02 -2.674840009844800526e-02 -4.518240810532831581e-03 -1.201519774582392001e-03 2.555549282681483445e-02 -1.312984234809929859e-02 5.942791783044503590e-03 -2.757208582826592425e-02 -2.380979089416165873e-02 -6.408079668181208832e-03 -1.574470763760098604e-02 2.099391480457089496e-02 -3.842186321730246216e-03 3.325053472751941797e-02 6.173021220648780387e-03 -1.848059442706846689e-02 8.337663996794152793e-03 8.494365725425286062e-03 -2.424429986818424365e-02 -2.113960280636607500e-03 2.463387509895455327e-03 -2.375081924938124596e-03 -1.563715319586633096e-02 1.427693358550687248e-03 -1.710471195863734473e-02 5.091426800597259519e-04 2.064870210973836911e-02 -1.983178712895194637e-02 2.859343490280033886e-04 1.467000790353284977e-02 -2.743546358218766634e-02 -8.926302904049342006e-04 2.369162881238805543e-02 2.635077879903869116e-02 -3.728117068005562529e-02 1.840378846737346363e-02 2.296269606245435191e-02 -1.251655857339863988e-02 3.704544291507966963e-02 -2.073557687469642502e-02 5.768660501500461057e-06 -8.825831675962070300e-03 1.737578654467335573e-02 -1.976743737773753104e-02 -9.101862351972463822e-03 -6.064703306483006789e-03 1.128287080547153882e-02 -1.412390781774539375e-02 1.505392532325621965e-02 -2.936301975392665436e-02 9.207650711069064256e-03 1.932514868281851386e-02 8.521642969952350488e-03 -2.093214945199141364e-02 2.078840546988030419e-02 -1.126579007007697669e-02 -1.172031114703844801e-02 -4.992597024224018631e-02 8.183070344753637718e-03 -5.765869397131528039e-04 -1.684030446995366664e-02 2.643311889405669524e-03 -1.770274728137706879e-03 -1.946575331801071729e-03 1.322638513453318516e-02 -4.247705841991385872e-02 1.407863383444744702e-02 -2.275494555375881175e-02 2.384845560401434306e-02 -4.603699063270814962e-04 4.113931564967087361e-04 -2.185264685180545244e-02 3.774712854864171324e-02 -2.195379154077808145e-03 1.524729245636948644e-02 4.806341198092652089e-03 -1.823910863382394859e-02 2.512437133530025322e-03 7.133602797337615375e-03 -7.552993276148878971e-03 3.512816155658749981e-03 9.118472720731180328e-03 1.035684643390475529e-02 1.352322433397925260e-02 -9.123348702120904694e-03 1.143131554436749471e-03 -1.971472303239895155e-03 2.496908178708541828e-02 -2.438689867857414539e-02
-7.406305323792253606e-03 4.032854554775705536e-02 -3.267658938849152261e-02 -1.626154276974477956e-03 2.387369795392469893e-02 2.578644184955374008e-02 -3.148705059838733528e-02 -1.012321186306837720e-02 -4.657596478835571846e-04 5.519371885940581660e-03 -5.989707140660554749e-03 -3.433620852219750356e-04 1.713012995976140405e-03 2.421742003308302148e-03 3.745465251128250045e-02 -5.023861891577417922e-03 -1.630066442226446978e-03 -6.399249250274372490e-03 8.529640888746531022e-03 -2.804586088424955090e-02 -1.378537039784850753e-02 -2.470879756811149991e-02 2.274379518876072648e-02 -2.406611202114810472e-03 -1.546506723626374542e-02 4.461025977746460591e-04 -1.711425203303483782e-03 -2.103798932758405710e-03 -7.557131006842836979e-05 -5.740385588357960200e-03 7.227148597682400179e-03 1.506849822236813220e-02 -1.767982408669348596e-02 1.043088098039817585e-02 -1.891965516294643115e-03 -1.411743190200165365e-02 -1.138341232683840083e-02 3.596502087623174720e-02 -1.813782679882606705e-02 -2.351441556165625394e-03 1.251895049728297439e-02 2.471425189513872661e-03 2.266586302987959323e-02 -1.201004659588887982e-02 2.218994861620557021e-02 -2.077781338267647646e-02 2.600079869155740367e-02 2.506019517676456865e-02 1.726294748425482445e-02 -3.553891598260037858e-04 -6.227378169019913076e-03 -8.028155604256244360e-06 2.074689813251839182e-02 1.376010876578686367e-03 4.015676639452224472e-02 2.052844343842751690e-02 -2.418425769225738056e-02 1.143787975065600239e-02 9.437044050195993530e-03 -1.843541042076245022e-03 -1.702652374230653048e-02 -1.608133162346223055e-02 -1.383745471509675862e-02 2.521986773402072612e-02 7.309423189907507043e-03 -2.269378185082057686e-02 4.023504948053491410e-04 -4.431028540001099442e-03 -7.562601530609851588e-03 2.756801811707501951e-02 -1.011656016735327547e-02 3.756675779249549554e-03 -2.161587237795155325e-02 3.611089987641429196e-03 -1.188862647634840453e-02 -2.000513667982678490e-02 -6.382796548592646613e-03 1.398337737114362100e-03 -1.749278509164866029e-03 5.441214842611900165e-04 6.804536232465708059e-03 1.525413553831692082e-03 -2.605893211797891476e-03 4.693877838881227449e-04 3.774519531127697863e-03 -1.858843049656868848e-02 3.681822159482119744e-02 5.582617272617877713e-03 7.945135336825594197e-03 3.134621859967268165e-02 -1.610187191206413626e-02 1.947978406065117504e-02 -9.138165981366512536e-03 9.877135936524557985e-03 -2.212846171216482916e-02 1.206211663340133692e-03 4.705266751620240488e-03 -1.719082406900256446e-02 -1.058579989929411477e-02 -2.348004515340880449e-02 -4.137947714373114982e-02 -9.464753545666289292e-03 -1.102575414919714988e-02 1.965481267639122929e-03 -2.048124477730035864e-02 -1.082802347591313614e-02 -6.112056183778804067e-03 5.600638479513309065e-03 -2.743933181912323882e-02 -2.097381812526420003e-03 -1.070820121229278891e-03 -2.470202516904595330e-02 8.710818409112786563e-04 -4.091051234384619067e-02 -3.164763012848720997e-02 -2.543796627349582083e-03 1.119872897392710023e-02 3.948608907769809995e-02 -2.246365515073953708e-03 -3.766426484947418829e-02 -8.516250900109139516e-03 -1.859379724984621535e-02 3.322195818263292202e-03 3.385326656958537184e-03 -8.430712399185848150e-04 1.359152246347827310e-02 -2.046746771353702074e-02 -1.906920675092678777e-02 -8.695301673967743492e-03 2.665748596720369373e-02 -2.581942653093440357e-02 1.237943192850631674e-02 6.417310388289604317e-05 1.467429858882121976e-02 -2.282061174879645646e-03 2.389248603308317953e-02 1.697472621566067583e-02 -3.282406071752326515e-02 -1.476179973890244350e-02 -5.264662667757935566e-03 -2.047416337872439915e-02 2.444219125186174874e-02 1.370211292658507843e-02 8.909674939059140583e-03 -3.650611937111904182e-02 9.853297577281849504e-04 8.622738998683036893e-03 1.486672632255478087e-03 2.331885173577058490e-02 1.982649411334080208e-02 1.338742210117229142e-03 3.439724180557487271e-03 1.837133289090886121e-02 2.094440007320715058e-02 -1.945769927907696137e-02 1.474601797966359172e-02 1.262330969564562019e-02 -3.925361755359236399e-02 -2.717399143431107819e-02 1.443484534493155030e-02 -2.610461109084212528e-02 2.396795091852461576e-03 1.116242529066548139e-02 -2.564927653980702063e-02 4.282545890221492457e-02 -1.303718302143022124e-02 -2.228298946706207262e-02 8.663591844759125499e-05 3.145453839969169184e-03 -2.540067912481370864e-04 -6.622698901193321136e-03 -2.414073632849756540e-02 -1.678118670979111479e-02 1.485610962125529910e-03 -2.125966327652139415e-02 1.213456874711538180e-02 -2.692097165555745047e-02 3.856504895281082090e-02 4.464564977845378313e-02 -7.256695527103052684e-03 2.512213054725685041e-02 -1.301363517816295310e-03 -4.631846051011231230e-02 2.104831833708491282e-03 1.315687996775834461e-03 6.616886852889185267e-03 -3.162757587231641160e-02 8.568525391996432289e-04 8.781924557982358215e-03 -1.746435548693296702e-04 2.930454874823513849e-04 1.333966310883072728e-02 -2.066946586567326716e-02 2.042142379761264798e-03 -6.599104331429537194e-03
1.778297040920635841e-02 -1.319607911115617226e-02 4.052776950340961082e-02 3.248698010383458540e-02 -3.696256933007539824e-02 1.029940631073407963e-03 -8.107560889103058305e-03 -3.791863719312305037e-02 3.329417047263141805e-02 -1.382803519111910906e-02 5.030527539321467956e-02 3.105785938819663472e-02 1.481177396890122301e-03 -2.074360655790702390e-02 3.394349658136290322e-03 -9.159025732264093871e-04 2.174991031161037976e-03 4.570866907120988386e-03 -9.757015656054496711e-04 1.887729362021966974e-03 -4.276353074087305833e-03 -2.271577810300471484e-02 -2.187645332673637116e-03 -2.126167377122845786e-02 1.814497535139659307e-02 1.743465644021467351e-02 -4.424399814654624008e-02 7.835603615121058269e-04 1.737889820129548402e-02 7.104994025204355856e-03 9.101644111769460754e-03 -1.096182104163361763e-03 3.039167780904923274e-02 3.764076963438527795e-02 2.441249869392685470e-02 3.286214717342301420e-03 5.414053497682596791e-03 1.341050791053797694e-02 -3.945465411314112714e-02 8.298600139630492659e-03 2.338117992698246148e-02 -4.526169628543293827e-03 -7.929692809029879885e-03 2.358449696198971351e-02 -7.102144667337992497e-03 -1.147154841214218651e-02 6.405566404868581927e-03 2.132540239575492214e-02 -1.121873658992981332e-02 -3.872693741238093443e-03 8.325864794838945190e-03 -7.995504209657571318e-03 -1.065613853978649578e-02 -2.568370128349310721e-02 -1.278373073612777515e-03 -2.846414974021140715e-02 1.004120012897988506e-03 2.039126733287076939e-03 -2.459728529858563884e-02 -1.394376680715024054e-02 -1.112955322638718714e-02 -2.230498801346109811e-02 2.227065133268367469e-02 -2.359549098941417407e-03 -2.216746159803049954e-02 -1.399315721664354424e-02 2.448846595510154739e-02 -1.301082728232253859e-03 -3.511821480553255215e-02 2.381207641659715754e-02 1.594574503643378036e-02 -1.600712042166261076e-02 1.191509748811272855e-03 -4.353865344610338695e-03 -4.659936200827050241e-03 -8.873314123410762713e-03 2.404780843412199914e-02 7.810732283433780704e-03 -1.010873061568966225e-02 1.283568414313257001e-03 4.694089897597664846e-04 2.147029791144934932e-02 4.401955478978554666e-03 1.487038352263003738e-02 -1.647739210308130781e-03 2.288946930329572096e-02 3.756883806791275204e-02 1.418761612869924235e-02 -1.661919330572785708e-02 -4.645490657403171519e-02 -1.836054166848612168e-02 9.671267122682890641e-03 -3.286771716389549642e-03 -2.079286325305822539e-02 -2.199301868207547209e-02 1.554723206792699500e-02 -1.414052758550870224e-02 -2.393170475419328057e-04 6.031575882288252397e-04 -4.564784734719727621e-02 -6.435392889893440035e-05 -1.137578514481213734e-02 2.398054036610726067e-02 1.951116722911823073e-02 1.002069743443213118e-02 3.285741366017677634e-02 -1.683372202270696366e-02 -2.555622938904605207e-02 1.490472479183733816e-02 9.132239814326672395e-03 -3.678394064859925872e-02 -1.414309306548718927e-02 -1.906218510679843006e-02 -4.279386933422501225e-03 1.564459028483364354e-03 4.771630318124395545e-03 1.078516661847921283e-02 -5.780867000059164776e-03 1.965835609681812826e-02 2.300648265997187573e-03 1.299316795076234377e-02 -1.325346175031189185e-02 1.481485680279633066e-02 2.712725589229339485e-02 9.928824435378964808e-03 -2.384430016369791169e-02 -2.949611612434403091e-03 1.148808418428952025e-02 -1.340989017367202711e-02 3.310924385248385782e-02 -1.918895656577647782e-02 1.535628309477254580e-02 -1.544602592205055608e-02 -1.734643389470555321e-03 1.039912353606143973e-03 6.414976710404300675e-03 -1.320380264501760242e-03 5.497094166982026409e-04 2.567667010007355227e-02 -1.872759311079592176e-02 2.884147531637829692e-02 -5.092918905018999076e-04 2.176674453893282304e-04 2.166705273529236694e-03 -4.739342108401902592e-03 1.702474179835717152e-02 1.481968805858456875e-02 -3.866993818147465567e-03 1.521806239280384596e-02 2.657418890534318442e-02 3.285434730955696242e-02 9.702883426556049851e-04 1.382551481669729021e-02 -1.204701657822287997e-02 2.809378664294704710e-03 2.354430072029418258e-02 -2.329807793924822470e-02 -1.959277105546699399e-02 2.439386400724849555e-03 -1.450791916729446754e-02 -2.309719773254092015e-02 -1.687133334859153982e-02 -6.043266598573090662e-04 -1.222898814360401896e-02 -3.227171165077965392e-02 -9.453668089401096042e-03 2.243660744175896699e-02 1.091466767350502722e-02 -2.229746656919127240e-02 -1.222345827587632480e-02 -9.842147427275014290e-04 -3.750084142329659920e-02 -2.324247251827544266e-03 4.558396705699937004e-03 1.489744779977314817e-02 -9.484818444842377239e-03 2.537184525208427063e-02 -2.115329332015610311e-03 8.368203987751959491e-03 8.701503300496959969e-03 -2.649931142005864174e-02 1.887348629474648945e-02 2.116832814743990418e-02 -1.915177867201700579e-02 -1.953243566982022089e-02 1.234870181508134629e-02 7.346100416523159218e-03 2.623229850319216613e-02 -3.214327081879813502e-02 -4.397508596628700063e-04 3.706964535752731854e-02 -1.896606663091943146e-02 -7.321720901265708209e-04 2.680928462354022559e-02 -5.408504230685663890e-03
-1.554437156498394632e-03 1.624573561978713207e-02 -2.237200279126136740e-02 5.542350590699992967e-03 1.750563443984101989e-03 -2.843854455243997187e-02 -9.084855876516924333e-03 -1.173635287451407078e-02 1.257596249272529762e-02 -1.081114534141464252e-02 8.241127361091336520e-03 -2.422016445617425698e-03 1.504331431553186313e-02 -2.715819817740139364e-02 9.459985695657799343e-03 -8.518712124544088049e-04 -1.416220826851182293e-02 -2.318234692411612341e-02 2.348042809545300424e-02 -2.616183511844156692e-03 -2.113658027426696534e-02 3.127294117004023738e-03 -1.030667742994566087e-02 -2.058296022654847006e-04 2.403701570931047332e-02 6.009062268269365834e-03 -6.425701692652777824e-03 -9.509264055311786312e-03 -2.066604871881376655e-03 4.173674782521461651e-02 2.313053357802547644e-02 -1.356665439272873239e-04 6.905144677984351165e-04 2.090834029154016449e-02 -1.211307449649915401e-02 -2.154373637931339056e-02 -8.815444521983415230e-03 1.938901119514742019e-02 -5.361143657451789696e-03 -1.437477614929797386e-02 1.268600980136622841e-03 -2.075631430571429729e-04 5.427297247431180777e-03 -2.980313640969501493e-03 2.158005503615112453e-02 1.542462011815989159e-02 -2.491124256776448484e-02 -4.332053497018177601e-02 -4.326740028248811203e-03 -1.616903301073200142e-02 -1.679260987498642447e-03 -1.380206802035754618e-02 1.641421140497948544e-02 4.911028055314681229e-04 -2.366612865858381664e-03 2.694256567668161517e-03 7.616542632103017081e-04 5.097076471593140271e-03 1.853816399512029853e-02 -4.149885759848260559e-03 -1.145861208097381963e-02 -1.409369826732371697e-02 6.190817983708307021e-03 -3.437039892921506939e-04 5.180031113236360264e-03 2.400338354866506790e-02 1.619974671388762361e-02 -1.180395566883232078e-02 1.296540230186821966e-03 2.422492986465337242e-02 3.691964577828422533e-04 1.983682867616152340e-02 -1.427154501667310220e-02 -1.828468699092346272e-02 -3.557639575999375393e-04 -2.539577217786658826e-03 1.382915309550235457e-02 3.750634727387401612e-02 -1.528443658614776768e-02 -9.725073526211628835e-03 -6.802875556665087184e-03 1.437731156934580340e-02 -2.846823356728390639e-02 -7.036281318596919812e-03 6.039332871071417808e-03 2.768382680244667240e-03 6.497915623017750178e-03 1.578953063299774751e-02 -1.490947568072280294e-02 1.707796271578762657e-03 1.602675852649611959e-02 2.291303720591328016e-02 -2.343399820079320947e-02 -8.085771036696177624e-03 -8.498117632608059163e-03 2.346950450423813603e-02 -2.656506724516340817e-02 -4.635845387279760588e-02 -1.123751906155658065e-02 2.028529911291099622e-02 -1.220448144624844238e-02 -1.702224888110387760e-04 1.336943557550909246e-02 -1.258331680984105597e-03 2.594678055461297969e-02 -3.764132635934401561e-02 3.365833176380323907e-03 2.944276091637010057e-03 -6.695411877213884935e-03 -6.743718841273772975e-03 -1.788506660377927812e-02 1.342824334322954361e-03 1.900866536071826526e-02 6.517522162030803257e-03 -5.094305397775597544e-03 1.926150399144748934e-02 -5.925547540388755204e-04 -3.785959463068157976e-02 -1.508796788868005390e-04 6.550418596818785924e-03 -1.639381101939541355e-02 -8.617268922024948555e-03 -8.837464249536340979e-03 8.984459359884401988e-03 -2.720220328257265743e-03 2.462915011959909348e-02 1.831473282485136106e-03 -1.649101373144488958e-02 -4.200576043674447008e-03 2.265580373030319158e-02 -6.277434126451620147e-03 1.606577592432617552e-02 6.813145800450980290e-03 -2.017078373668325375e-02 -9.401858473114883125e-03 -1.309632491389883238e-03 6.195593270466735053e-03 1.934846851470963663e-03 3.661943055569727434e-02 4.426733536396545640e-03 -1.216219573827071951e-02 -2.782289227187345615e-03 3.614520515782119678e-03 -2.100386982341163195e-02 -2.321570123732189656e-03 -3.958279190418366282e-04 -3.161332138363888260e-03 1.461698326918811630e-02 -2.273950748433631319e-03 2.609796357608976103e-02 -2.402655630609513461e-03 1.116210546838958956e-02 5.494224797951473803e-03 3.049707844110132252e-02 -1.630244047937749047e-02 1.038982819608482051e-02 -3.994958251291452767e-03 -1.565282432568155862e-03 -3.516631564802392279e-02 -1.875309231307444729e-02 6.148754296376647381e-03 1.881418224571288281e-02 3.421787642357196867e-03 1.285530043301086681e-02 -3.898295073039467068e-02 -2.171094751308193585e-02 -1.124004332532869098e-02 1.043283503790095809e-02 -1.451060776322079041e-02 -8.902209136757106844e-03 -7.500865771772731450e-03 2.550737208096425304e-02 -1.417521243868503662e-03 -7.074459280007404371e-03 4.458774333356867181e-02 1.354582881564001147e-02 -2.292425321339319061e-02 1.323097480037619192e-02 -1.444448093355155290e-02 -6.242024435754384495e-03 -1.023586622375655120e-02 2.932025711115339439e-02 -3.831142746793158617e-03 3.124438096562240710e-02 -2.004416894542472918e-02 -2.660624791438645498e-02 -2.078109940081649884e-02 -3.825284510182464653e-02 -1.849887482069117670e-02 -2.157843518016026862e-02 -1.814232899398057763e-02 -2.893348560872992942e-02 6.640226886683928478e-03 8.561203901789773800e-04 -1.961520228208727193e-02
-3.040389003964306947e-02 2.597173244398194754e-03 2.414022320525264012e-02 1.071791740988981348e-02 7.918916379370602443e-04 8.124981907057805472e-03 5.951203717757525685e-03 -7.081020198662614507e-03 3.065317515122310474e-02 -2.754087619355874428e-03 -2.200908464150195393e-02 1.945740535743293101e-02 1.734536900424684530e-02 -8.182220092914234064e-03 1.179564557958182047e-02 -1.896535492474124909e-02 1.516329528532570081e-02 2.705285015746093646e-02 -1.426686082419302559e-02 2.307194819402257763e-02 -2.552210745846798107e-02 -5.306670088008258977e-03 1.089315448704419528e-02 2.604969685177414840e-02 1.419429463510569513e-02 -2.188317386907548401e-02 -1.412573171013518578e-02 -2.363605973295242885e-02 1.896923414573723279e-02 -4.423476666602910862e-03 9.382222508718096252e-03 -1.120756047420563492e-02 -3.656067440882980121e-03 4.863717451566278334e-03 -9.600454741836961887e-04 -1.708574901629946602e-02 9.733778234169399371e-03 -3.340656097109134803e-02 -2.939411491585893800e-04 -2.000409408666514732e-02 1.322087359425530399e-02 3.424648536609883887e-03 -9.230946790791949574e-05 2.576228174276014998e-02 2.432123338405992388e-02 1.592167799057968638e-02 1.647080638068031122e-02 1.175627635825660794e-02 1.460838247789130948e-02 -1.342914319025135259e-03 -1.891855623965476088e-02 -2.180825379509842080e-02 2.159453170099388114e-03 2.180213416154969282e-03 1.375653764855297619e-02 2.231008932223359914e-02 3.663907250589401587e-02 7.287956034282014328e-02 -3.561954074143067195e-02 -4.391058436335490422e-02 4.037636467569393622e-04 4.939429302287856594e-03 4.883139818222371684e-03 4.385362095058466594e-03 -1.474216001665598109e-02 -1.095947101279498223e-02 -2.321796705975020733e-02 1.196445941695434279e-02 -1.147961608841764278e-02 -3.509853011249161603e-02 4.496743870606827176e-02 3.430665821863811138e-02 3.188484284984743206e-02 -5.655980223230136494e-02 5.073277583434969776e-03 -2.022965055891930847e-02 -2.336138610035129806e-02 1.833906931492266038e-02 -4.249090521519342106e-03 1.414924970221927494e-02 -2.385688755257055205e-05 5.215625074748094642e-03 -1.446592332791740796e-03 -8.911901994749470146e-04 -6.328029448675409965e-03 -4.888264026217956429e-03 -3.094484243629634646e-02 1.539663087969166989e-02 -2.781063255394200864e-02 2.008105486670199846e-03 1.210648515930618473e-04 -1.064156729701595631e-02 4.389419162047369753e-03 1.388964710149113643e-02 -5.336121147335068718e-03 5.690982369204870047e-04 -3.614727741709844455e-03 1.249124453833696559e-02 -1.484909281991781890e-02 1.343999474089298089e-02 6.913775152657695988e-03 1.539764262538207903e-02 -2.076360278036413001e-02 -1.681082563521243273e-02 -6.538845138142138080e-03 -2.115266255450350477e-02 2.922445210531589288e-02 2.649672789930914568e-02 4.011052147932257783e-02 1.666721004938032102e-03 3.423582272479709643e-02 -2.653947496548102886e-02 -4.698051493168264869e-05 4.247205855964844567e-03 2.031962441595018889e-02 3.583314223812843202e-02 1.956821207145667540e-02 1.154455710668120250e-03 4.582230637071638135e-03 9.139725676305918839e-03 8.973304923706208400e-03 4.397604798842462415e-02 5.221821044584407101e-03 1.401015786735671995e-02 2.585131721436675911e-02 -1.718093542323840747e-02 -2.335774674873070458e-02 2.791649434568058488e-02 1.089090265438520319e-02 -3.357696913906774855e-02 6.805707024960150515e-04 -1.510732614744046557e-03 -1.508705386108765908e-02 2.263468671638080298e-02 -1.248445413475018397e-02 -2.011750462109105145e-02 7.393153544067266464e-03 -2.221061984436512732e-02 1.200370992966197196e-02 8.846777154848523006e-03 2.160500467006279748e-02 -4.268067158105038998e-03 9.426752733918762617e-03 5.736131401206288026e-04 4.616837929217760400e-03 -8.634168112362722650e-04 -1.026530162862914798e-02 2.774648623310657647e-03 7.346525504585916036e-04 -3.601838484232974466e-03 -1.069153504183621489e-03 6.635229007861530304e-03 1.164250358958602953e-02 -9.009591040519338706e-03 1.739011867628858024e-02 -4.448941138731516386e-03 7.776729114160564268e-03 2.188104448086237996e-02 1.296518751811225056e-02 -1.306759412249388491e-02 1.237225211041799271e-04 2.880363088812409531e-02 -8.371134117096487581e-03 -6.623997287791760433e-03 -5.695355844740618637e-03 -7.939081023928386358e-04 -5.391135195152873053e-03 2.474341558225086682e-02 -1.288048234232057852e-02 3.037794584702569953e-02 2.612232536598752680e-02 -1.270356162965819921e-03 7.090750827208038010e-03 1.658037515474257775e-02 5.521268067921364028e-03 7.455480563173176936e-03 -2.449183148988097643e-03 1.284997568079289387e-02 9.631931512375443982e-06 1.104820953103913261e-02 -1.185219468184993928e-02 -5.873490868102699408e-03 -4.380249323831691272e-02 5.368215074631939483e-03 1.586352116310493429e-02 2.057706966614715471e-02 -2.988975469140423176e-03 -1.170286018195134184e-03 4.093999780517040832e-02 -1.808713892482218671e-02 -3.905989371103717189e-02 3.445695985042861870e-02 2.281081235884645925e-02 -4.216249951603402019e-04 -3.381737646057101157e-03
1.694837230435450315e-02 1.435465387467874804e-02 -1.534170537354830575e-02 -3.607455389107189908e-04 -1.235188229322371767e-02 6.539740227875096013e-04 9.271729992065519399e-03 3.662873334345140980e-02 4.079166324320472603e-02 1.005237012543939643e-02 3.922433822660461797e-03 1.223664030517517681e-02 2.568636994535379234e-02 -2.325478355681512288e-02 1.201317518134344814e-03 -6.753344496518592401e-04 1.035296012453812246e-02 2.052979762389645687e-03 -2.222991076059975882e-02 2.330776452579190819e-02 -6.645971154967437403e-04 9.568119286380263183e-03 -2.369017147197542000e-02 2.896211367694939004e-02 2.913814588108246117e-02 -1.290419801909522407e-03 1.577569578884554027e-04 7.543933852558621853e-03 -8.380678253302525568e-03 2.508817944032286362e-04 -1.738670103318389754e-03 1.302562825450562928e-02 5.062084541152100242e-03 2.441558865931729456e-03 1.634560796745552352e-02 2.919454736121952082e-02 6.463968927988570159e-04 -2.337348610510146286e-03 -1.859239093347559574e-02 -1.748769481271976543e-03 3.309486379513933239e-03 2.081120456620431936e-02 -5.310949036081143854e-03 1.380213429894628849e-02 2.469840242822401652e-02 -4.653993566744110341e-03 1.024145381441929868e-02 2.149969845716605960e-02 7.698075416151913680e-03 -1.246297672663760139e-02 -3.908688831478971185e-03 9.008148424187784400e-03 1.921910502216970032e-04 -3.570332504659618628e-05 -1.142503440254435346e-03 2.057829109366543160e-02 1.915385735818470048e-02 1.684003538197730411e-03 -1.758928336701101255e-02 1.492916778517150433e-02 7.534961484999987830e-03 2.062448973948074332e-02 -1.370645772184527628e-02 -2.505561313351047092e-02 3.712922286872448116e-03 2.123872813402957749e-02 -1.943715462920247300e-02 2.653137885017682260e-02 -3.031838496312628389e-03 -7.647578713376164058e-03 1.804296995572974086e-02 3.643966760814919270e-02 -3.548895091222225781e-03 3.624280256993697713e-02 -1.277502783170134017e-03 -1.006664173186306221e-03 1.404998364562136393e-02 -9.749832583064912267e-03 1.819233990143670140e-02 -8.374079500906626491e-03 -2.522642038681634138e-03 -2.185133326531727913e-02 1.845723178674308490e-03 1.824708019590044750e-02 3.013030968410178659e-02 7.113907807198567579e-03 -1.975566147017174951e-02 -3.909983810062905851e-02 1.491531062987487988e-03 -1.165739014125980605e-02 1.178437638049028777e-02 3.709299703650034002e-02 3.212395718901727912e-03 -2.694229026718704748e-02 1.504455489399661797e-02 -8.561208516177653410e-03 -1.902962393381747372e-02 1.664093117416943698e-02 -2.493002888889619961e-02 -5.607698982958039119e-03 -2.772512700744546310e-02 3.165702116063383136e-04 1.542321559272204559e-02 -1.971110772018342880e-02 -1.638271420175471671e-02 1.251342463781094597e-03 -3.149342612185285824e-03 1.770949631332504465e-02 -2.039705105936638965e-03 -1.393999013465338152e-02 7.998025859404581106e-05 4.223086845988768107e-04 -1.330959896956672960e-02 2.934835748765664710e-03 -1.238905143744021414e-02 1.764798946691766707e-02 -1.332944506168691826e-02 7.724287230058204945e-04 1.579079992645183311e-02 8.004722461858602284e-03 -1.271812041611364470e-02 1.887162466611126427e-03 -2.335640698750662478e-02 2.593154800695915679e-03 -1.586200117634332246e-02 -5.231784659708652030e-04 -2.172258253828072971e-03 8.860156962577263665e-03 4.406096966825170241e-04 -2.480214082996997499e-02 -7.191338267961457087e-04 -1.670122814622310159e-03 1.312764418896363375e-02 2.291426060739419623e-02 -1.005581412023572561e-02 2.409729280694284173e-02 1.319796021758818869e-02 -2.213970759964149770e-02 -1.323874242967931422e-02 1.262244577442606444e-02 -1.294026585531065851e-02 -1.813477251855173406e-03 -1.047919839411674825e-02 -2.106148512162493713e-02 -1.341565092068831800e-03 -3.098840868279168458e-03 -2.945912076978805675e-04 -1.777300111634963833e-02 3.006933327655557028e-02 2.557185090476557249e-03 -3.992511984142684683e-02 -1.550751054694112473e-02 3.429969813326563918e-04 1.259435750930685757e-02 7.328555770508555882e-04 -6.070390854177884835e-03 -1.465832116154882139e-02 -2.935016080895192815e-03 3.635497235072279731e-02 -3.417491819534289755e-03 -1.322753398952697043e-02 -2.958313050061630450e-02 2.880398024649904326e-02 2.045839060715354436e-04 1.102547365883526677e-02 -2.282033811281993646e-02 1.323586842555100722e-02 -2.776101519011381011e-02 -2.608427376519543636e-02 -3.194513102702334351e-02 -2.268429907017987732e-02 2.419694479347562523e-03 3.098042936041623882e-02 1.696976653511964028e-02 -2.244384515196183594e-02 1.264757383348964932e-02 -6.192624797215677893e-03 2.538974907044122542e-02 -2.566978618438943080e-02 1.878936078418021096e-03 3.895070432993000265e-02 2.530382310901705886e-02 2.301830937990370640e-02 -2.311108637760222757e-03 2.398564329377598017e-02 2.565185828272984261e-02 -2.524016132508104249e-02 -2.844135537044728892e-02 -2.675158856241324073e-02 2.616463653341501855e-03 -4.351628748321517692e-02 -1.519812591577209340e-02 8.138790477373058531e-04 -1.639081624542708393e-02 2.712128132582675589e-03
-8.670917461544479926e-03 5.499432401221972591e-03 1.596006845155912776e-03 5.730120901664800120e-03 -1.635088858855872004e-02 -1.151001983441228907e-02 2.378734818306712726e-02 2.561520987123323909e-03 -4.164444166968178651e-04 2.376602871994221503e-02 -4.752659466063559324e-02 1.681559863863269985e-02 -3.764216480335468018e-02 1.097166622664488486e-02 -1.424927527970769325e-02 3.765188480835189588e-02 -1.357753778464011914e-02 -1.770944668167528241e-04 2.436527644840655316e-02 -3.513598241665471210e-03 9.195642383712737331e-03 1.364251913706659124e-02 -6.577517283549036420e-03 -1.795649614845083036e-02 1.300635171626055020e-03 1.302899877648480698e-02 2.350221656950769733e-02 -1.842048455823516078e-03 4.830579835917580417e-02 -2.536776256667560778e-02 2.381687817355716483e-03 2.084264363595707964e-02 -1.957768808222493107e-02 -3.418947135025780792e-02 -7.670940769436410860e-05 3.308255924903535233e-03 -2.158191964891609249e-02 -1.314611496085898654e-02 -2.449410917525027698e-03 1.938868746414491168e-02 2.350686666165430552e-02 2.121158369608978998e-03 -2.544943762867329234e-03 5.745521765611986964e-03 -2.534001912101419007e-02 1.077313857913794054e-02 -6.493334126547177163e-03 -6.709585057619650919e-03 4.665460731737219868e-02 -3.424023989072992602e-02 1.279689615224015265e-03 -4.458050017332529369e-02 -2.680311174433325574e-02 -1.514204525572112117e-02 -1.089358247081444360e-02 -1.126025358232896588e-03 -3.373599706508710605e-03 -2.144955977179823989e-02 2.468654325277177403e-03 -1.872477524101909220e-03 -9.085387183345161859e-04 1.462485426568565020e-02 1.222657330475224353e-02 2.818142902479072592e-02 1.889889456798106784e-02 -5.952868483902012259e-03 -2.282704975330408868e-03 -2.629501938661112093e-02 1.057686527453764735e-02 2.470536276268967685e-02 3.715407527230636317e-03 -2.353173369517122700e-04 -1.469849167677199364e-02 -3.569848033846559354e-02 1.110911573266044894e-02 -1.065273831529275385e-02 3.909277424329376388e-03 2.000937537835105473e-02 3.748325672940709674e-02 -2.672931693810316062e-02 5.108635684139634092e-03 1.709910003372865171e-03 -1.199897981827036629e-02 -2.531434780228244627e-02 1.052844151158394310e-02 6.421448679178435454e-03 1.920798169834821850e-02 -7.311308037092470458e-03 -2.671538815514481243e-03 3.551847315461716115e-03 -8.863062788162106437e-03 7.975829611681808755e-04 -8.545472736196692287e-04 -2.084251973063726976e-02 -2.756071539335475801e-02 -9.346034629566725600e-04 -2.058040378427916997e-02 -2.450270038702481810e-03 2.220661098387572210e-02 -1.536492797762147901e-02 -1.017682422513858237e-02 -1.783374209881222888e-02 1.101106395365471398e-03 -3.377813658024497734e-02 -2.830901466519251258e-02 -1.188077222378046763e-02 3.813921002115484502e-03 2.337337679320054817e-02 -1.289042289906013050e-03 -8.367228060395968600e-05 -4.111600112734320987e-04 -2.116622770576224652e-02 2.493451054523431951e-02 4.688858406093553144e-02 -1.923552186151470528e-02 2.221299323777497711e-02 -2.006800126102206705e-02 2.001280261499609192e-02 -1.691524919196728954e-03 4.108655120198088928e-02 -2.487845780275108054e-02 2.716892101787383995e-02 -3.848115447034391318e-04 1.151599537961812796e-03 -1.427034815823185684e-03 9.366389452608488153e-04 -2.545956110338246613e-03 -1.758064917522063689e-02 1.235681458280035033e-02 9.676607481598454089e-03 4.973794301548135899e-02 -5.047376454510209970e-03 -7.227077360055351139e-04 1.104746310540778188e-02 1.233474849806162447e-02 1.812731860216769061e-02 2.450547613862764235e-02 2.328625012293956964e-02 -1.132579408179129089e-02 8.727330146798177937e-05 2.556866813273088457e-02 -2.631846672366109155e-02 -3.219763806916401544e-02 -1.895475152664874430e-02 -1.956160341081250587e-02 -3.862020215491110062e-04 -3.613837160011257668e-03 1.680554633906323602e-03 -8.529209460487673436e-03 4.478015961975625146e-04 2.643760803752247604e-02 -3.494871853787978599e-02 1.441581581874487421e-02 -2.480631146088294048e-02 5.543623976908205499e-03 3.816810380549470749e-03 -3.582669563497716501e-03 2.807232837405501322e-02 -1.365533807830928217e-02 3.379524277529053627e-02 4.811594658906369337e-04 5.047349828968168001e-03 -5.332703135951067513e-03 4.067314772893375861e-03 -7.835257478297337486e-03 -1.608732059064808123e-02 -2.785470237870908694e-02 -6.789064992528261872e-03 -3.602045766463758680e-04 2.902952056386880891e-02 -1.785000165796763252e-02 -3.496596232221022005e-02 2.793251544633593066e-03 8.703580820216168246e-03 1.870448280260782886e-02 -1.751855375197550191e-02 1.473175150549940315e-03 -1.600946252049553070e-02 -3.313206033249875559e-02 -1.635345337898933687e-02 3.473285717473010258e-04 -1.236171334352996129e-03 -1.375534570681890938e-03 -2.386997415862335617e-02 -4.289254782979416702e-03 1.572041716544417701e-03 2.884975795997124504e-02 3.485208783506633934e-02 1.259681870130193934e-04 -5.264742405128895048e-03 1.243750299510058745e-03 1.042073284364340366e-03 4.824949502754102490e-03 -7.234177918949803027e-03 2.070174685841326412e-02
2.396592345455993492e-02 -3.750582773092432220e-03 -1.854958608631283260e-03 -4.724539011934593760e-03 -3.813988920986921549e-02 -2.603528753861445236e-02 -6.804248132715375735e-03 -1.998171531106624800e-03 -6.212487472899862542e-03 -1.785040557256533777e-03 -2.502430237286765169e-02 -2.353598084560800871e-02 -1.050369023513610112e-03 1.937020891317210378e-02 -2.492634270382931838e-02 2.061012647726099753e-02 1.580282465656310600e-02 1.661514388911886769e-02 -1.434568629847580122e-03 1.052339422442788094e-02 -1.140422608745590705e-02 -1.275072677479682261e-02 1.267887971019513588e-03 -6.007585976533186094e-04 9.572933921456550435e-04 2.176758483709495540e-02 3.376242464066554760e-02 2.690947043042901665e-02 -4.119825585400248985e-02 9.373511032993254999e-03 -8.451329367143992771e-03 -2.035472594918910291e-02 -2.137087608653660126e-02 -3.331236131219042496e-02 -5.886859070760530610e-03 3.120721008522301526e-02 -5.832971095148488209e-03 -1.715935250934049611e-02 1.298954267145409867e-02 -1.956859687728882118e-03 2.442602716130364698e-02 -1.562842629260077082e-02 -5.479303026524227297e-04 3.003795668482138470e-02 4.396638121714594588e-03 -2.863284120190674915e-04 1.888535050353981615e-04 -1.335723287671507914e-02 -3.322307298071576140e-03 1.828506422647633786e-02 2.244181807215921837e-02 2.816563479573499715e-02 -3.201633286012341151e-02 -3.501942843623556678e-02 1.419857497474080570e-02 2.211636450629625092e-03 6.848207732916835114e-03 8.432529216168500874e-03 9.653214165298670824e-03 -7.038790670736452988e-03 1.710113152180928187e-02 2.650812122746847369e-02 1.897163371148184122e-03 -1.745927518110905116e-02 2.154627434787017778e-02 -1.804285343320994120e-02 2.019328007211683429e-02 -5.679679713627395002e-03 7.118533673523990725e-04 4.186661143283586239e-02 8.110950505341904190e-03 -1.043286009700017739e-03 1.639552501402461501e-03 -4.569427889019617856e-02 -3.863231311670160123e-02 9.601616103501710991e-03 -2.547279483877637474e-02 -2.814154514290818920e-02 1.956744835291394924e-03 -2.706881585121806433e-03 3.098600672489652472e-02 1.328313906336319079e-02 1.290575207174049326e-02 -1.430814347254225592e-02 -2.065562826443973626e-02 1.436367560135659235e-02 -5.770833544443293439e-02 2.734348332430222919e-02 2.460649234234992336e-02 2.409304422256531089e-02 -2.053427422436384861e-02 -1.577038879919724287e-02 4.124098752002297585e-02 1.986149306635850986e-02 2.106874560435580135e-02 -8.525232181857086457e-04 4.339771360187244520e-02 -2.555463393123698357e-02 8.499862412509955403e-03 -3.561935770037934212e-02 1.066421132128778614e-02 -1.793318423773826789e-02 -1.621958948982404544e-02 -5.847719939912328010e-03 6.582347208676508910e-06 -1.769668133084600047e-03 1.313461400678371006e-02 1.023643678555437482e-02 7.194619098229656801e-04 2.067397610312153577e-03 6.922163265782960151e-03 -2.546669765942546904e-03 1.281444781618870828e-02 -1.937009734962288898e-02 -4.534069134390968786e-03 6.935589688894396206e-03 -1.949504565793331104e-02 1.485442538393536190e-02 1.419409742836050953e-02 1.560555140996962818e-02 1.187573067037665277e-02 1.604955243002387233e-04 5.345460814159791463e-03 -1.757901863555938818e-02 -2.317567915387070202e-02 1.401899724075776101e-02 7.355950503599594306e-03 8.761734374258031005e-04 9.659600163485809049e-03 2.475603251973065074e-03 1.771602674893094781e-02 2.720749965445080909e-02 6.971513427606020399e-03 2.396970507704000025e-02 -2.788277252167261494e-03 9.153335593227049372e-03 -1.384823867761258119e-03 1.226165536491746755e-02 1.210829047610628532e-02 -8.020565894184140260e-04 3.302465489580060781e-02 -2.956243412173652219e-02 4.547706407369221659e-02 1.842061065529450314e-02 3.939853868778428470e-02 -1.867263535656938506e-02 9.208944889739262459e-04 2.916678589971122282e-02 1.312047499171652316e-02 -3.454541994939341887e-02 2.793299186076059898e-03 -2.187635181606622375e-02 -1.878922324102536012e-02 -1.071729096608563941e-02 -1.117364072689668551e-03 3.472255864783056756e-02 8.260356870476725372e-03 1.146272156202267096e-03 -1.810879529319719961e-02 -3.850743752988525920e-03 -4.238277679162065492e-02 6.695403364416452688e-03 1.945158612296825351e-02 -1.830756256033127041e-02 1.704326311203661209e-02 1.886727184856570091e-03 7.059687889327004653e-03 1.071355649003612881e-02 -2.433185348119339120e-02 7.239994905011453612e-04 -1.140347677309623033e-02 -5.104302965471303397e-03 -1.191899513976957736e-03 1.240786128100795568e-02 -1.836018591937483777e-02 1.943361037137071243e-02 -8.386046269249958565e-03 -2.410097546746409886e-02 -1.187410827114032848e-02 -8.073445390452032092e-04 6.551429588873267963e-04 -3.028236793956825407e-02 -8.370964852167819652e-04 3.694471767485706104e-02 -4.046977728951360598e-02 2.110330692594069441e-02 -9.913923717450371514e-03 -1.866421729335987489e-04 7.665492087514386675e-03 -1.620804265102843145e-02 -7.009042589568425380e-04 6.811961252941060516e-05 -7.619612767174448534e-03 -1.107139542767997427e-02 -2.320319668137682187e-02
1.384843023786288055e-02 6.816966525743997640e-04 1.222646612711895953e-02 -2.338166924346283398e-02 1.310755579179371036e-02 -1.011962726918851085e-02 -3.810201046563389034e-03 3.202928210332789405e-02 7.320082949908221850e-03 2.226577500953200520e-02 -1.381836387426457020e-03 5.416773654562010223e-03 1.523098564091096563e-02 1.039432899701950123e-02 3.148004585199940669e-02 -1.248852501879293281e-03 3.309630747273591134e-03 -2.526692266326513100e-02 -1.069970644438213332e-02 1.371751638228771095e-02 9.091959676260619704e-04 -1.383488377608614768e-02 -9.555671448217723310e-03 1.769667034005701495e-02 -1.527382774310510546e-02 -2.539637769352761504e-02 -1.560147392966487571e-02 1.666593253803567640e-02 1.939462073929946670e-02 -1.604174265187603698e-02 -4.734275609019419212e-02 -6.167129794711571217e-03 -2.382914684334553734e-03 1.963426574637704147e-02 1.189748748991158178e-03 -3.135034365410141032e-03 -1.654974241997717900e-04 4.440104312658867125e-02 -2.756980056728608464e-02 7.115194007742520199e-03 1.797215640128276698e-02 -1.868244562582220894e-02 1.123169047849849334e-03 1.733033641540283193e-02 -4.220834276721650499e-03 -1.058557833252767380e-02 6.514898537285590888e-04 -4.322697298244460723e-03 2.342586484187502566e-02 2.265744058830405916e-03 1.995073720402222930e-02 2.161986371249883382e-02 4.773453140555963814e-02 6.222925304634301102e-03 -9.435473133293723058e-04 1.313152712563461517e-03 2.929533800114238976e-03 -2.768590190267845863e-02 -1.383169563517888667e-04 4.360217242467181314e-04 6.163931652432622782e-03 2.819214446873621882e-02 -6.090960201566616994e-02 -2.363708712520249354e-03 -2.606574236915717904e-03 2.309645006580372112e-02 3.261493126017811495e-02 -3.307875624068204456e-02 -1.630504984724702455e-02 -5.554391039911208555e-03 -1.437452793366938292e-02 8.571771060301150089e-03 9.844234725726448004e-03 -1.616144602295928670e-02 7.246578407220488280e-03 1.528198216914850374e-04 -6.283814043847937847e-05 -2.076850800492144322e-02 -1.668936840177609113e-03 9.351036014903883753e-05 2.110065031460603164e-03 3.230348025278346330e-02 3.424748569205378346e-02 -1.086328908891706808e-02 -8.985338950428901211e-03 -3.433215956478298525e-02 -1.363946952277546830e-02 5.978622134193944428e-03 9.531282372820639240e-03 -1.100186364569228151e-02 -5.269814959011760030e-02 2.332265017078311714e-02 -9.064142503867561682e-04 2.129688004209128599e-02 1.011745055951407402e-02 -2.395607955046936272e-02 -2.196326597448389206e-02 -5.064235333064426997e-03 2.347356853400057314e-02 -2.704406398548838894e-02 5.305870566686062516e-03 4.315935983541761833e-05 3.517536392306269688e-02 1.682170809828976640e-02 7.161100736110311699e-05 -7.197390550734353645e-03 -1.255970753418552896e-02 -2.493140116045057877e-02 -7.996453751033976917e-03 -2.513263649332114075e-03 3.530027456980327355e-02 1.722744494065633469e-03 -2.414401076164295057e-02 -2.240650589084413474e-03 1.927497556224585292e-03 9.227757380342259050e-03 -8.729043649436683816e-03 -3.771380112247120844e-04 -1.156161773142100682e-02 -2.578973857647910359e-02 -1.300792286603153283e-02 -1.694134798896321410e-04 1.268008442423756207e-03 -3.492176296280341541e-02 8.171811827535518588e-03 -2.623667321999206825e-02 1.998235148975461770e-02 -3.097403266987611148e-03 -4.352441977619461375e-03 -4.323808149843117593e-02 -8.394924079398256855e-03 3.148106786964451759e-02 6.137728347565206063e-03 -8.642016897298164350e-04 -6.391185994565295320e-03 -2.891369840782578859e-02 -1.083919842181986851e-02 2.186287313770239691e-03 -4.381821560910097169e-03 -2.050938068073820258e-02 -1.436235857485467730e-03 3.432422564631854717e-02 -9.079776043569017657e-03 -1.001089282063407498e-02 4.264700063473189640e-02 1.496917884389998774e-02 -7.489486264623059636e-03 -5.550458739820678111e-02 1.705668334779824810e-02 7.414102659644013563e-03 -2.668111225891888275e-02 2.868129413250071480e-02 -1.476483555388607462e-02 -1.476061657893964867e-03 2.409085054314182017e-02 -2.298568275194371596e-02 -5.566405307276051789e-03 -1.350433351564919206e-02 1.592674029205647449e-02 9.923848297072164482e-03 1.664008301214662828e-03 1.237492795953791178e-02 -1.066238069445222527e-03 -1.356415184643391079e-02 -2.063262056387102361e-02 1.796460994948092388e-02 7.561738643900556278e-03 -2.335633172769021118e-02 -1.929748401042806136e-02 2.220021404859485667e-02 1.066809414293629424e-02 -7.250992029551496174e-03 -2.284136637256815004e-03 -5.555895784597607301e-03 3.332885308488867104e-03 3.549253324051925007e-02 1.371301057276306037e-02 -2.972217566025414301e-02 -2.843861527554388327e-02 -1.113472743058227174e-02 -7.465169725617225825e-04 -1.016825638391603837e-02 -1.070458949926031932e-02 1.777343614496115776e-02 3.878834090862649710e-03 1.100651325077797553e-02 1.123638051215519046e-02 -3.326578571342955759e-03 1.037402476074453586e-02 2.936103955830802331e-02 3.488466204919226515e-03 -2.647888103182576350e-02 1.292234519202180298e-02 -3.733991853503886363e-03 -3.052842651679144731e-03
