-9.703836838810941251e-03 4.328116574462095856e-03 -1.153764080754456078e-02 1.329469705567974148e-02 -2.721018733051811488e-03 1.022221049189830575e-02 -1.577507688553075882e-02 -3.357125255081893841e-03 2.587168259608263465e-02 3.693834528737484357e-03 1.840969918717539483e-02 8.598225343255520500e-03 1.667234919443301433e-02 -1.558332576132580652e-02 6.595455825429580657e-03 1.116999394707684362e-02 3.996841548451089340e-03 -1.879659193599888395e-03 -9.421367388824146644e-04 -1.948090616571954495e-03 1.235919576916805207e-02 -9.273953121011497408e-03 -5.931300979326962000e-03 -1.148197657322633930e-03 1.082087532326653570e-02 2.590477682304019157e-04 -1.412392767409006078e-03 -1.597785822879341927e-04 -9.807467694477949374e-03 4.552797807516146752e-03 1.407209942990261635e-02 -1.590042594844166129e-02 8.870884157139850065e-04 -1.645807053407493531e-02 -1.064428744936680125e-02 -3.565335902954155228e-03 3.791750230089209819e-03 -2.371914065533867189e-02 -5.017151754442649922e-03 7.036656970582672466e-04 9.911658207299126055e-03 -1.946729729731397351e-02 -2.475671323549854044e-03 8.953368085282728539e-03 2.622176662866668173e-04 -1.932216645849415410e-02 2.965152339817607625e-03 -1.178573528859300570e-02 1.533403101938068036e-03 -2.054912696897789881e-02 3.891934813086105061e-06 1.222799438230469382e-04 3.134633880679069118e-02 4.082766599377155373e-03 2.010266930618556311e-03 -1.528933549678761217e-02 5.841443729243387013e-03 -8.057443863277748836e-03 6.370446892648374583e-03 -1.062373714440113977e-03 -1.142667194219647298e-05 -2.266499603578889938e-02 1.399720560984882463e-02 1.620451771380539835e-02 1.802837687116363649e-03 3.656148957881759278e-03 -1.440680092505807613e-02 3.210668803359753576e-03 2.160496642315221441e-03 -2.144217521222677864e-02 -1.799415721587189695e-03 8.493130427922490622e-03 9.244043150834161532e-03 -9.036021334609406139e-03 1.426657771316269807e-02 7.707481328688597141e-04 8.898549097839544147e-03 1.538786718021495012e-02 4.070019187075443051e-03 2.784806149273343773e-02 9.935739082543120632e-03 -1.453951669322436219e-02 -1.539432033037990873e-02 -1.824834951001259864e-02 1.337841222364575091e-03 1.543310259885022698e-02 -2.565407249056513277e-04 -4.905282907254666751e-03 8.707332986351162124e-03 -8.742832824567005681e-03 7.131179955160276036e-03 -1.232631171822423308e-02 1.079314700585329648e-02 1.367074808437579924e-03 -6.596840859920210208e-03 8.758416965661803763e-03 -3.930655526011718470e-03 -1.400650577942067279e-02 1.093159702727653816e-02 -1.802436926639768358e-02 1.775783802667535785e-02 -1.146784742915024288e-03 2.898520807446090808e-06 3.356929371574326245e-03 4.177198569001829183e-03 4.546276952859886616e-03 3.693814332339862352e-04 -8.083034382980594295e-04 -1.477706486596305595e-02 1.434848725368484748e-03 -6.789181392208464526e-03 6.784995722646746091e-04 -4.915196503181390800e-03 -3.966457036873106187e-04 -1.316917466979513349e-03 -4.247135272373379032e-03 -1.636552072550298553e-02 -2.902289872094624985e-03 1.377787219778807068e-02 -1.487865354078996265e-03 2.352312317014307666e-03 -1.524811187556863144e-02 7.279305465382151022e-03 -7.425626011175386412e-03 -4.101839410372214861e-03 -9.342499224946291397e-03 -1.058096727095209771e-02 3.851542036173183272e-03 7.740476230484324809e-03 -6.801172886211621742e-04 4.734464912131063248e-03 -1.726970979331262854e-02 9.683023584323324773e-03 7.517329451072821134e-04 9.265550498940833962e-03 -6.784589431494132683e-03 4.013831468104299069e-03 -6.779430802437254149e-03 1.417783082906497530e-02 -1.074174613428590351e-02 -1.263508791354804595e-03 -8.414553573383980883e-03 -3.803438217580786852e-05 2.428134513055612946e-03 1.148946445050646505e-02 1.249886502195354104e-02 2.404588721481664901e-02 -1.904745402237000701e-02 1.863197727959271799e-02 9.335329036109110776e-04 -8.039285638255877584e-04 -1.291974840544848381e-02 -6.766354653894400030e-03 -4.656593417237695452e-03 -4.338878237187843157e-03 1.253219606072265152e-02 1.594653963089847845e-02 1.878805547569172008e-02 5.242247799988878319e-03 2.433994435149490140e-02 1.253435058267341959e-02 -7.360957988972895551e-04 1.606691777398473742e-02 1.295663773390066595e-02 -1.142164786328307138e-03 -2.274316204185098528e-02 -1.188830121078839758e-02 1.023848641672849176e-02 8.268583401728783408e-04 -6.536831565676385833e-05 9.689365864603678713e-03 2.229267175591180539e-04 1.104315110798346697e-02 1.076303496548788874e-04 1.280252690537602052e-02 3.310794308988709335e-03 1.063123145585544507e-03 2.644160779183657786e-02 -9.815745631313280151e-03 3.273940646920840171e-03 -1.091671784213991275e-03 -1.808307230726996853e-03 7.290809775971039686e-04 -2.180207855814797480e-02 1.221324151169858596e-02 -5.141779765673240923e-03 -1.591410487784748404e-02 8.835093535978576218e-03 1.714640834593602475e-02 -6.261835728605074161e-03 -3.704847556978798414e-03 -1.264366646086432892e-02 -8.356173264933524497e-03 -1.126859597568073343e-02 1.235854041885383822e-02 1.183993880485446383e-02 -1.206994240330424087e-02 -4.702830743184911039e-03 5.429702981373679162e-03 1.621469514922722552e-02 2.361308002522304744e-02 -2.216730432090751809e-02 -1.068666677773130042e-02 8.979432906081981011e-03 6.596690600560090913e-03 -6.867162950205572651e-03 -1.828331108164143754e-03 4.327405923522245970e-05 5.758452992853633785e-04 -2.177868776899442860e-02 -1.079780490595099937e-03 -1.684651472937250677e-02 -9.981525577947262737e-03 -4.482216660948733049e-03 -1.006763310029555256e-02 5.644630706163005981e-03 -4.328272961812631471e-03 3.239447558695724566e-03 9.616311702720405086e-03 -2.008975207096380319e-02 -1.543776365540939707e-02 -1.335824413156178232e-02 1.034506714461541285e-02 1.023685442941255595e-03 -3.915139578034735300e-03 8.935803151433076991e-03 -4.829787615048524579e-03 -1.827396611378866165e-02 -3.691931891146896585e-03 -6.866563075289512479e-03 -1.064412399409520732e-02 -7.907476676701106696e-03 9.405673514172917596e-03 2.152031482806961073e-03 -1.190672690812724990e-02 -1.617938182637744526e-02 -3.303159992924141475e-02 -8.022634153878006533e-03 -5.274426098489752406e-03 1.219526936959997900e-02 -9.415070240232541535e-03 -4.472327871919707775e-04 9.334742523909245887e-03 -8.727164467590533062e-04 4.748708440358035549e-04 -8.413380746660654996e-03 2.501020270302390346e-03 -9.345410714276185249e-03 1.212984596965120156e-02 2.132251247241874047e-03 4.700042144449577061e-03 1.236676721189262744e-03 1.999571097624887675e-02 2.011586279929410137e-02 1.302871432594844905e-02 5.446481580643013467e-04 3.150316497053211318e-03 2.982934816582207688e-03 -7.528760701754543157e-03 -5.787800853353952668e-03 -1.157024117969632747e-02 -8.650393838431530077e-03 -1.233372057777957012e-02 -8.023613101155102276e-03 1.385104372591367330e-02 -8.591001905473540784e-03 -3.948019424263268275e-04 3.955336080416238173e-03 -1.510910598840633709e-02 -2.157449186180453518e-03 1.279969996625060849e-02 -1.659916906371186607e-02 3.202137497906834551e-03 -1.142714302881756190e-02 -1.278252754963905488e-02 1.058520381694535648e-02 -9.997364816075828345e-03 -2.131819317116261797e-02 -2.548734696262966969e-04 6.194665871013665948e-04 -1.497804738188536922e-03 -1.278935031966129971e-03 -9.086737796173870868e-03 -6.670212695144350085e-03 -1.691257718280938377e-02 4.181336453706883602e-03 8.948741087633734978e-03 -7.525844176137534529e-03 3.672034410550219230e-02 -2.272035712444425010e-03 4.703708214340166296e-03 1.365585928010723061e-03 -2.832512619231927591e-04 1.354301122343482336e-02 9.969091124922427674e-03 -3.919394519496768176e-03 -1.277646816746688847e-02 -2.553123667672609065e-03 -1.205491671895465421e-03 1.021683631716116926e-03 -9.280982685507865870e-03 -2.541679876445161919e-03 1.769672184689029953e-02 2.165770970349730276e-03 -7.487099473846068817e-03 -5.637461513858482536e-03 2.094300597500705491e-02 -1.468955260194955512e-03 -1.475408884479092846e-02 1.336966913623129430e-02 2.373628479983938208e-02 -1.032341607233479112e-02 4.225856487692093363e-03 6.803671560043725655e-03 -5.529261764459905693e-03 -8.551281933020451684e-03 -8.315040096723718549e-03 -1.143204788553307642e-02 2.612834159824078961e-03 -6.586984040422268552e-03 -7.609733371883514036e-03
6.210663317362542443e-03 -2.345726411109774062e-04 1.109254211796936729e-02 6.792468391476368973e-03 -1.119064623171804954e-02 -6.849697055111960212e-03 1.250456941231197633e-02 -4.806184644111127953e-04 1.771514995845989079e-02 5.605217196274624603e-04 -1.715923857466634256e-02 -6.573762621403328454e-03 -4.689757084635524410e-03 -1.003727445489040367e-02 2.641434325348249179e-02 1.387393250966043046e-02 -1.145625449191428093e-02 9.750399841090372569e-03 2.645109163699170193e-03 -7.455757022934978925e-03 -1.502531711339879714e-02 -1.224264323423130719e-02 2.903275045420131498e-04 6.459414878220164254e-04 7.809548793294010700e-03 5.325723467908370992e-03 3.593665645944027660e-03 -1.431327070571289904e-02 3.328701246562798706e-03 -4.009867186514658177e-03 1.886169359739989920e-02 8.698453911643415359e-03 -1.139097664054572554e-04 -1.654509427451518813e-03 -1.036422829295966137e-02 5.609883513203550373e-03 7.492484481830142401e-03 -3.550887309350640557e-03 -4.347434247918184960e-03 1.427286895235291330e-03 7.219174003709518880e-03 1.173712439117259240e-02 -9.119316369547362036e-03 4.248874928250533436e-03 1.031468406073770411e-02 4.647407027604681662e-03 -7.575091755651519598e-03 -9.579592772582756072e-03 -1.308660577113613700e-02 -7.105659342034612719e-03 -6.913223118797284968e-03 -6.360323290072042099e-03 1.353713776515615141e-05 -1.741872736450478590e-02 -1.190194685275699701e-02 -8.085923754908018110e-03 4.275066479313752860e-03 1.330612694550355711e-02 -2.566641529758089194e-02 2.680896939737597087e-03 -9.048346106738450190e-05 4.491348290770825862e-03 -1.139234279945711831e-02 -1.349557990716578407e-02 -3.015267049380170386e-03 -1.369867124572213789e-02 -5.294015519876691181e-03 1.953224176764137288e-02 1.755685377394771568e-02 1.085741422786053872e-02 -1.567731092679539723e-02 7.629691905516046771e-03 1.281164566916662487e-03 2.388917248661427337e-03 -1.103760973807325647e-03 1.375240707466764828e-02 -1.217680270533785542e-03 -5.173366903413109501e-03 6.101850164393941844e-05 -7.986922198034878892e-03 1.428656703596014070e-03 6.976231284146231990e-03 -4.737334805640099067e-03 1.584470780675462098e-02 -9.988488663794026917e-03 1.723768423841931692e-03 -1.853057468721042850e-04 2.587557268426061638e-02 5.549572520340578796e-03 -1.092025741575643714e-03 1.854200308038773948e-02 -9.525238015619002727e-03 -2.545536987560860498e-03 5.384926370724863950e-03 -1.143637288230174402e-02 -1.516985381235619150e-02 5.860257336865850111e-04 -1.276973778683904159e-02 4.600147979743843089e-03 5.463498199361305901e-03 1.907470876438451847e-03 -1.094794053637737543e-03 -1.590357117062025233e-02 -8.096794073173946976e-03 -1.529799082148419753e-02 6.646956100246296378e-03 -6.873925380555806833e-03 -1.559262197636931968e-02 -1.297788267786477261e-02 1.527418032316080372e-02 2.060425308272204742e-02 3.407287111417777077e-03 -3.649283228264450871e-04 2.146007395207245091e-04 -2.070803735479044561e-02 6.669142945030763145e-03 -2.216099894659512293e-04 3.293129773172371287e-03 1.044517316050973775e-02 1.005109861307745996e-02 7.253767268792710686e-03 2.004931349595969955e-03 1.298932433727442368e-02 -1.292423338130470334e-02 -1.749401826058154252e-02 1.059705025483283214e-02 1.029051780269684031e-02 4.628759015795322167e-03 -5.794332660089411211e-03 -1.648229489884537116e-02 -7.630517112812830113e-03 -2.887002134094260319e-02 7.471264362569186943e-04 1.490288238452910398e-02 9.679569000566794288e-04 8.327397184278592874e-04 1.578234028667056116e-02 1.474419720404450060e-02 -1.612903428122725025e-02 1.555443639220966540e-02 1.595201325275622320e-02 -9.662064335473142043e-04 2.450270034145760056e-04 -6.327459376474399953e-03 -1.108826546539265143e-02 2.372406400386360432e-03 -6.033198932517935299e-03 -8.513890052334268516e-03 7.513078271237424305e-04 -1.210549104807244654e-02 1.504909164290187378e-03 -2.141923110928594873e-02 4.362401677753913014e-03 -2.137666297573243696e-02 -1.575390623645965896e-02 -1.009870691974248773e-02 3.141085564298892394e-03 1.046045398560585538e-02 -1.603113657001904377e-02 -7.216379466053255212e-03 7.290492144924958298e-03 4.579492380908859253e-03 5.738884500450373502e-03 1.432621962953235621e-02 4.115212357361575698e-04 2.965983168398426441e-03 1.166851716750863001e-02 -3.076503010137308057e-03 -1.251960807488894031e-02 -1.525231932808038000e-03 6.034956904039997551e-03 1.379733260871976973e-02 7.595163568329468817e-03 9.723565757806323321e-04 -3.421780496932047555e-02 6.730397726174596959e-03 1.101372955891355247e-02 1.058201810701797814e-02 6.730500725905586880e-03 1.531507834550282490e-03 -2.611556950798544705e-02 -3.077863084284537809e-03 -1.447080064224017491e-02 -3.202707652291239201e-03 -4.332610886211456843e-04 -1.154033846317621334e-02 4.663305264261862794e-03 1.547392420250379499e-02 8.862285495094582646e-03 -2.777920023297394958e-03 2.381837108585024149e-03 -3.952987209449379535e-07 -2.824228562936619003e-03 -7.786283924496861623e-03 5.902652780976417636e-03 -9.556670087235204919e-04 7.015714205022072388e-03 6.603283822916629527e-03 -9.247048081620192275e-04 6.964521026628981565e-03 -4.291368600323646962e-03 2.246100733064124166e-03 -5.288377826716489025e-03 -1.010723808869919658e-02 9.716769266732313420e-03 -3.037478383491661743e-03 1.829369499866263099e-02 -5.310951538772817546e-03 -9.871635970074300534e-03 -3.980117832735250577e-03 2.129098381808505053e-02 -1.927282031726794062e-02 -1.165593140230912093e-03 -9.986736698840564808e-03 1.282292865822777170e-02 4.270525716139574567e-03 1.047111228201961890e-02 5.742004935721783249e-05 -6.110495683035925205e-03 8.500943744220784345e-03 1.857234487418563812e-02 -3.210709033291299364e-04 -1.348719881726725620e-02 -8.205196926207230373e-03 3.604263836476916290e-03 -1.033975334410707457e-02 6.365342017620238130e-03 1.471538980713168326e-03 1.529576254573605104e-02 1.362241698925572078e-03 2.460075870376447413e-02 -4.251534857135210420e-03 1.868185753468660365e-03 -1.262933763890485180e-02 9.240275762557183248e-03 2.184705884424850524e-03 -1.355162192330475017e-02 -1.683381820383165767e-04 -8.277660174963735393e-03 2.691553822610664656e-03 8.922819067160707787e-03 1.424875112399998957e-02 -1.014623890378539214e-02 -3.232257230026394298e-04 9.167989666601598225e-03 1.556372041685033687e-02 -1.133247908636992110e-02 1.057623460308101601e-02 1.230164361709019244e-02 1.219989185522947495e-02 2.052758461866776088e-02 -1.480857236788302167e-02 1.801801781737713201e-03 -8.163897248098248363e-03 5.451261036822633264e-03 1.921329199647413277e-02 7.633459840528336593e-03 -9.519142246269803129e-04 1.254897620902193159e-02 1.484290426376222178e-03 1.042859435551433608e-02 2.625680224572183447e-02 -3.660073116916102293e-02 -1.448227522348585587e-02 -1.202948878950857101e-03 -4.733908521404598529e-03 -1.177420405300832681e-02 -1.224651651053329862e-02 3.188076937231192585e-04 -3.567200896976573284e-05 1.327307063890272205e-02 1.295061475197423206e-02 6.674568683604462614e-03 -7.784652075765417789e-03 1.242765906649550070e-02 9.717560469048428656e-03 2.731628009074141966e-02 3.463125133751967242e-04 -1.624110294201892152e-02 8.358539743403371747e-03 3.083038951729026936e-03 -2.975106295119990876e-03 2.343333407330394635e-02 -1.092963129295403818e-02 -7.298416470938543649e-04 8.300036224102641177e-06 2.321469198280858709e-02 -6.119374613451319597e-03 -8.151518207465501334e-03 3.303364929056180552e-03 1.038340117669885564e-04 4.757867173602705821e-03 -1.318644758220722038e-02 1.389329753035632243e-03 1.297678619928516359e-02 1.158678504295561915e-03 2.349605061394576325e-02 -1.954347242978591616e-03 -4.427797259926449097e-03 -6.959520210315747095e-04 2.066414254375297660e-02 -2.085597648565156673e-03 -1.007107278534728756e-02 1.211802516514510304e-03 1.037668338910428811e-02 3.683034181317870401e-03 -7.788327637257210813e-03 2.397096967465082301e-02 -1.678359180047281699e-03 -7.108286562789326544e-03 -3.225644861726122484e-03 -7.306121722582203763e-03 -6.792587333466939062e-03 1.252037183204080320e-02 7.644361459358245577e-03 -8.223704268503254436e-03 1.632624179926326843e-02 1.839918003576966263e-03 7.954825472815294299e-03 -1.215881753062880710e-02 1.267836115231981732e-02
1.153274763664921543e-02 -1.518840198607843963e-03 2.618831167436424384e-02 1.601377446695066709e-02 1.843089417313035052e-03 -1.991378923894808126e-03 -2.894204088340433106e-02 6.949067269342051878e-03 3.443767311558629945e-03 3.137728803901754238e-02 -2.959220580348798091e-02 5.539674400136179039e-03 -1.927058945925812661e-04 -6.595993855250920079e-03 -4.603322148587021129e-03 7.286809187839101039e-03 1.380671373008230188e-05 3.061580389023255827e-03 -5.543765048976013327e-03 -8.021429473296655399e-03 4.905093995630728163e-04 2.751352648674614335e-04 -4.055940342359410852e-03 4.680898140443740148e-03 1.400424849139236816e-02 2.063586898664620389e-02 -1.861279262719277641e-02 -1.089859395213035875e-02 -2.426617213779189500e-02 -1.472070458113921426e-02 1.059388268079145337e-02 1.628510872792582678e-03 -3.497143859041493188e-03 -5.705866587741419312e-03 1.765544330439174775e-02 2.420234682775796245e-03 1.575675947161562368e-02 -1.872211636779522702e-03 -2.803225149552268300e-02 2.071541914573123491e-03 -3.496448578245465923e-03 3.400622965232145360e-03 2.713034688793581131e-02 4.888871460330965549e-05 -1.594618327999544963e-02 -5.073795494740644153e-05 4.679374732489116270e-03 -4.860553137148060799e-04 -3.699500441850551036e-04 -1.497357136151573898e-02 -1.346745352180928057e-02 -5.558427454545424203e-03 7.840651518674097292e-05 7.826009232208760991e-03 1.116336291843908956e-03 8.603088833833195687e-04 -3.292869387107649239e-03 1.361634429507979811e-02 7.395440473035837584e-03 -8.300867851606503166e-05 -7.985498150962248506e-03 -2.362967450174124906e-02 -2.205064320962592250e-02 3.716644238673265030e-05 4.600788963160502495e-03 2.912229052333932880e-03 1.328576329696090283e-02 -5.366187000797309828e-03 9.017998957076108629e-03 1.351026889264007012e-03 6.841867903085237408e-03 2.807691375694540328e-04 9.619969055206584662e-04 -3.362370747338157880e-04 -8.282375820295659330e-03 1.389954165622516455e-03 2.651821905003373409e-03 -1.122579628326476030e-02 1.466300831295019001e-02 1.463248138164323711e-02 1.077254639288478463e-02 4.199345623783149427e-03 2.008065541519372249e-02 8.274605250145462484e-03 -3.734605925393742754e-04 2.525076578268059535e-02 -1.516211244715433976e-02 -3.044294690829177624e-03 3.438862828881226671e-03 -1.019445906628803529e-02 -2.242057480066332251e-02 1.089504150167029889e-03 2.296164959578512847e-03 8.637644762710238594e-03 2.157824194751252478e-02 9.303884503932751543e-03 5.990377695174436100e-03 1.263825815522352227e-03 -1.372017477046545350e-02 -7.525144645839369935e-03 -1.398031784753079459e-02 2.232494599233145888e-02 -1.178379681296444492e-02 -1.998978675782205148e-03 4.236814819716117238e-03 5.302723150922032322e-03 -1.654317400043372327e-03 7.442622437643959133e-04 -6.741132067881159401e-03 7.482710217627409205e-03 -3.905377167022818126e-03 -9.555617156728549166e-03 1.500140447343996028e-02 -1.196470993531963296e-02 4.379863861840384981e-03 -6.713206953054497508e-03 2.627439850268993744e-03 7.903104484210726408e-03 -1.285210207045225407e-02 5.924426889320702147e-03 -1.518560771425381435e-02 -2.145828667854437002e-02 8.549043166971160082e-03 -7.414120902033888294e-03 -1.587242864586519905e-02 -4.915980780856999202e-03 -7.299837501232001209e-04 -1.926167897735826112e-02 -1.050144052930471021e-03 -7.784750533330937359e-04 -1.028586729652000709e-02 1.371011400205286550e-02 4.705689373223095537e-03 -1.026663682685295328e-02 7.583606765814894686e-03 3.974030414993518640e-03 5.592492967371531960e-03 6.262921183925494045e-03 -4.623064018796600207e-03 1.162917868525283407e-02 1.469492096887719743e-02 -7.587683020084500483e-03 -1.094393461708669055e-03 -1.397550665889204548e-02 3.129073293364542305e-04 -1.028542556166046722e-03 -1.442314221392015754e-02 -5.035260545879148911e-03 1.759368455592401348e-02 1.377800557378709581e-03 6.780773619947301316e-03 -1.736892436150325571e-03 1.194405106197113722e-02 -9.016566047354486815e-03 1.481137781839770955e-02 -1.255808877334271823e-02 2.865188051780128559e-02 -1.681077393344027407e-02 -1.658115113455748552e-02 7.253518951257956551e-03 -1.130760448133211193e-02 -2.830235912860006725e-03 1.482695843932530649e-02 -1.040518701111563943e-02 -6.092605580914037429e-03 -5.179872215272550082e-04 4.751844776755212961e-03 -1.759927549964791088e-02 1.197613896417021664e-02 1.297079363589931367e-02 2.567608558864567340e-04 1.092022714841300521e-03 -1.587877566171044807e-02 -2.137846832944391429e-02 9.184921531808698178e-04 1.403046779860657803e-02 4.039564163837464257e-03 -4.337605687694923162e-03 1.616646642131622930e-02 -1.078079659593737631e-02 -3.158697034274957245e-03 7.738755881936254868e-03 -1.659561926213229746e-03 3.891078179131023454e-03 -1.857412932226463684e-02 6.671934639606398251e-05 2.779736064412147503e-02 7.627241660293078125e-04 -9.444921962643338526e-03 -7.014939943390176291e-03 -2.905033598632425149e-02 8.276579248178901962e-03 1.634483529507122987e-03 -1.565434740559782517e-02 -9.257639919538467738e-04 1.710796992495648705e-02 1.329861001789813327e-02 -1.301111437579440498e-02 2.197130986469496977e-02 -3.054246899906568578e-03 -1.261561176485392899e-02 -2.147751776577438466e-03 2.037585615306033299e-03 4.914296444020409271e-03 1.970679519731872997e-02 -6.827464743294096514e-04 6.691802020722316825e-04 9.550295287387114418e-03 8.944628079593485923e-03 3.515563596307206932e-03 -1.560383201151066719e-02 1.379414614768555841e-02 5.086382260958957971e-03 2.092645309662312728e-02 1.688114427997706611e-03 -1.854083012953320481e-02 -1.491482419481378373e-03 -8.257108562227813767e-03 1.444969098557245639e-02 1.110461138217518594e-02 -2.288122383738240909e-03 5.345534766862060274e-04 -1.604718079010722387e-02 1.099064463327517789e-02 1.500314301252218818e-02 6.417960904697313056e-03 -1.159477446862750179e-02 1.027817748006036331e-03 -1.203682039255195117e-02 1.900782869638381611e-02 -1.215006726750585651e-02 -8.717944886900224309e-04 1.594851080422523062e-02 1.316090137753276289e-02 -3.424876854562561215e-03 8.314328650348616276e-03 -9.195094451705783031e-03 1.605400204790921950e-02 -5.892907366180757771e-03 6.126275084294207501e-03 1.373434061436172408e-02 2.499103522983596448e-02 8.179955010873936339e-03 -1.038303710888438015e-02 4.027858239735427302e-03 1.027963056976800328e-02 -4.649376259243065586e-03 -4.812992013326247535e-03 1.291613572060427984e-02 8.492804406535532299e-03 4.085838528823713608e-03 6.714539707167135017e-03 3.638976176672801752e-03 -1.681014574083433341e-03 -3.551404423616800685e-03 1.580165652383215200e-02 -6.206188683887383858e-03 3.032650650821412663e-02 -1.025076929257994970e-03 -3.834569127350076143e-03 2.300586774377706353e-03 1.216037751474641909e-02 1.618565534601386791e-03 -2.936304103693001058e-02 1.313955654982456450e-02 -1.409258604738808113e-03 -9.331611745004587607e-03 -1.581562854337763627e-02 -1.146005641206477091e-03 3.484506912566263936e-03 4.447916110366201964e-03 -3.662024651660404292e-03 -4.789570596048901580e-04 1.208215380677558600e-03 4.171014694720158802e-03 -9.259028619553594935e-03 -8.583083481021301381e-04 -1.192162797503100750e-03 -1.596188040265253925e-03 9.354136860069293870e-04 -1.008545983140756580e-02 -1.034920284331461091e-03 2.224294677171088919e-02 -3.508224321464336812e-03 5.637910805118898083e-04 -6.345482455828235779e-04 6.203991438503229233e-04 2.469858395142810262e-02 -8.711198684782921198e-03 2.443431578338534863e-03 1.796350749914273071e-02 7.335372829236430983e-03 -3.004921505267488246e-03 1.769641422851687962e-02 8.648726140604138385e-03 8.756148345881889158e-03 -7.362767464433744163e-03 -1.474752503697650784e-02 7.810658567274254317e-03 -2.959426185860179054e-04 -1.461966885164648830e-02 2.182466061995110528e-03 -8.813788707521440224e-03 4.391410687396081133e-03 -3.877778499117672667e-03 -8.587703240500940693e-03 1.113474650677086404e-02 -6.753344972248564310e-04 -1.031597648432051526e-02 -4.011604058295321039e-03 1.552054872814038686e-04 1.113335231664274935e-02 -1.602671462775017222e-02 -8.385947500972322152e-03 -2.999744090062911490e-03 7.550151518317112925e-03 1.016734806674983969e-02 -3.862740041247886974e-03 1.555167052042201112e-02 9.175700993713535245e-06 9.572363383008453477e-03
-5.473688979738410183e-05 -1.043536574369514393e-02 5.136053007827578445e-04 1.376248477295725567e-02 -1.347307735827215323e-02 -1.770703349620832839e-02 -1.020835271400575076e-02 -1.332580275033063907e-02 6.273441915970269511e-03 5.025378375386406471e-03 -5.778336204140595289e-03 -2.074058479980301142e-02 4.063401030192212351e-04 -1.666208099909319978e-02 7.609484842496275995e-04 -2.790526739787075987e-03 1.567875644175507899e-02 1.131519786718402981e-03 -5.697641587136249158e-03 -1.071586452528272906e-02 1.006278633897552538e-02 5.557963789333972282e-03 -1.274415960486883700e-03 5.233623138834498333e-03 5.265556856074062562e-03 -1.490788773752563592e-02 9.710753103350625720e-03 -9.133937551698799451e-04 5.386736843734554921e-03 6.089595636284699139e-03 -5.298165664349717245e-03 -2.941904166300832874e-02 -1.041942058686017372e-02 -4.527940441568325571e-04 -3.704188758659808511e-02 2.204801985142978635e-03 7.407994202921153182e-03 7.887272065143735534e-04 -4.982916833304668752e-03 -1.343558949363954542e-02 7.133973802370779244e-03 -1.932775065082321247e-02 -1.024864226302979811e-02 4.669559152951689935e-04 2.037183075196716611e-03 -1.416894107397011389e-02 9.568495120249036201e-03 -1.543359897466481997e-03 7.844201309656293961e-03 -2.126561941207349808e-03 1.541900743861636391e-02 -1.079520038849666368e-03 3.700891481339067118e-03 -1.216648621837588921e-02 -4.922753126582789587e-03 -7.116999032150451727e-04 -3.294802830195201968e-03 9.730108412151064479e-03 7.190620387034072324e-03 5.940857510443262220e-03 -7.659569848840307692e-03 -7.242607776531955355e-04 -1.274998937767338192e-02 6.403027134678069415e-03 -8.643636611016910359e-03 1.155206455649500363e-02 -1.130647462296640454e-03 -2.100871487309574626e-02 2.544249792086854169e-03 -7.853316548743449060e-03 1.356267927954845319e-02 -9.465380700695219529e-03 -7.465338895230074281e-03 -5.324330352423366046e-03 1.827480325765248881e-02 1.070850998984062283e-03 1.594214348026220390e-02 9.198993920401890914e-03 -1.079432418371866972e-02 -4.736722392297165740e-03 -1.251288153531734341e-03 7.865847441001935086e-03 1.345776800638862417e-02 -7.513041099010541336e-04 2.264181014499088568e-02 4.257178562430761169e-03 8.248868861043809949e-04 -4.608748611650583232e-04 1.469911890163624543e-02 1.729411541964404053e-03 -4.900946190707917115e-03 -1.373004809323142943e-04 -4.767506631322103450e-04 -3.837097711079130724e-04 -4.581386421046081472e-03 -5.092867827561174156e-03 -2.494861030192404260e-04 -9.972069374259578262e-03 1.714857056335438584e-02 5.968357019891943650e-03 6.859496592586956584e-03 -1.054154643265484831e-02 -1.409239216874869083e-02 -2.688676229597124559e-02 9.138636156835520594e-03 -9.871990430434809949e-03 -1.764712521369087017e-02 -8.182066426064334846e-04 2.183445978122951561e-03 8.096783783640872437e-03 -3.274718695498898303e-03 -8.210483499696063581e-04 -1.842841661265458980e-02 -7.311108352831772669e-03 1.406631495318734840e-02 -4.038483748272213986e-05 -3.252164034235138258e-03 1.159983562017074740e-02 -4.063914781686011994e-03 -5.596292933928710515e-03 1.002749239243682332e-02 8.043274553282839245e-03 1.371616871110557584e-03 1.294818236470377838e-02 -1.153749032122903216e-03 -1.745503968961789089e-03 5.774136337531985026e-04 1.359831242420949521e-02 1.310770700723092562e-02 -1.313579062750641277e-02 -1.463817149416269791e-03 1.226592929214537220e-03 -8.042281837288454364e-04 -1.151951803236164057e-02 2.514488924983932644e-02 2.378121784059368526e-02 8.657884904949564309e-03 1.705861618193983556e-03 -2.973251979530572645e-02 -3.911492700173773915e-03 -3.016205122967096676e-04 -1.894976392047082250e-02 -6.479294644615852042e-03 -7.491604085720637851e-04 7.184492107362420825e-03 8.417905767056792915e-03 3.092782806860879842e-03 2.046368758941968791e-02 -2.386102932058097037e-02 1.545670798370131493e-02 -5.295457092009993316e-04 1.675319771323900697e-02 1.473205592601072597e-03 -7.586197977124826616e-03 -1.156323141744927674e-02 1.826615651805900062e-02 7.185372722191498210e-03 3.497609922204768761e-03 -7.129391453074567127e-03 1.235707182066289080e-02 -2.744434188501579386e-03 1.362993776875126356e-03 8.264915677027603966e-04 -1.486489918103568774e-03 9.515962958356579196e-03 1.300316011545528784e-03 -5.333758391036317117e-03 6.743663943018011336e-03 9.086618254480108292e-03 8.529228206358126577e-03 -7.864632851502944416e-03 7.008603355381514549e-03 2.260088522179117595e-03 1.356530235478828859e-02 -1.141727093726751727e-02 1.734274834221429841e-03 -1.254228747375161698e-02 8.735449931431582202e-03 3.942061675957646803e-03 1.109957273562603951e-02 -5.998644319710465592e-03 5.486253070300182305e-04 -3.710293909844326540e-03 3.907510077177043378e-02 2.612096512972363754e-02 1.167210560032917732e-02 -1.527506644650770962e-02 1.384622225365945113e-02 1.059893929446935334e-02 4.497045369931086060e-04 1.410362148664080773e-02 8.106371544572322802e-04 -1.080232820293412777e-02 9.238893498263974977e-03 9.547004602190242977e-04 -1.241939728423810049e-03 -9.871999720048270366e-03 -1.211095060913637035e-02 -5.341043458954638362e-04 -9.518100803957243485e-05 9.983667607448922648e-03 -4.373646752707099905e-04 7.458637536769123673e-03 -1.837733474894728478e-02 4.839813376278489371e-03 -2.853595034903797650e-02 5.009123115850616301e-03 1.103555255360891708e-04 -1.035833655015593307e-03 6.678962262696900784e-03 -1.284013927595870075e-02 -7.411801690396276586e-03 2.470329648834590497e-04 -2.667745134029304160e-02 7.083539917479558280e-03 -5.828010083582371714e-03 2.072138013217460391e-03 1.573173079863348853e-02 -2.050472698052456522e-02 -6.747618108748762097e-04 1.332559401120105534e-02 2.755295054866704896e-02 4.896737651035258220e-04 2.165003876869274479e-02 6.686223040681549094e-03 1.775423162494149361e-04 -1.207263782324971904e-02 1.368671774430571704e-02 -1.176555608554818305e-02 -7.322919705125024124e-03 1.379262204099260779e-02 -7.215926793071638853e-03 -1.350610308920036085e-02 2.878350529492474286e-04 2.751758100550132004e-03 -9.140383457214766236e-03 -2.397232787094796119e-02 5.608787825875251711e-04 -7.639391351118176784e-03 8.962146355404236250e-03 8.505777541660026683e-03 -4.562968548095550428e-03 2.362351204102902495e-03 -1.302579182571727591e-03 -9.890386362469121700e-03 9.900922052589911093e-03 -8.560380599471121427e-03 3.872371466633455286e-03 1.909996653393595048e-02 1.402310775912447719e-03 -1.066824787280459125e-02 1.559857170102725565e-02 -5.984927360215615277e-03 5.356739643971070164e-03 -1.626937953768856082e-02 -6.064099564701252651e-03 -1.151442241403061086e-03 1.905572380390082102e-02 -5.337023640687579146e-03 2.621469094496868199e-03 -6.609981432209999577e-03 2.373641303233932874e-03 4.823177661980608891e-03 -4.617446491245819941e-03 -2.430873310757072567e-02 -4.090179267495562369e-03 2.536837563307429901e-03 -9.982858128310349161e-03 -2.859024802635884346e-04 1.028792339139813182e-03 -2.922907019535252084e-04 1.903778114445654410e-02 3.256254810509913184e-03 6.061486031708425426e-03 -1.271105076110822484e-02 2.511192983843307108e-02 -3.888179108978220833e-04 1.393949475723687582e-02 -1.802965418504854159e-02 -1.110138349868338564e-02 2.886088790901178078e-03 9.621821118347816809e-03 -5.137620230250070606e-03 -1.377585881026747311e-02 1.295326893989513567e-03 -1.448198525821088253e-02 1.180587636067680253e-02 -1.921950461861244783e-02 3.307775961585573965e-05 -6.955651223174444397e-03 2.386576191954429410e-04 -4.758553540346759959e-03 1.487640099445151215e-02 -3.906041811030298329e-04 -2.552766071442620632e-02 1.380897942626907373e-03 6.158915701604476389e-04 -2.421879406502164874e-03 -5.093137107446407208e-04 -6.937749832345035776e-03 1.654020970503247701e-02 7.421688945554718794e-03 1.284150289481232436e-02 1.155703990534157413e-02 7.364015873129131726e-04 5.183133900452871479e-03 -6.543231147864217445e-06 6.887633334649275515e-04 -1.319600357083749315e-02 3.986382508861067119e-03 -1.148972488250466981e-02 2.335424981260740204e-05 -7.978347114610944216e-03 -1.817758536190327429e-02 1.401647220793022890e-02 6.162309158558669162e-03 -2.535625697910506415e-04 -1.190212230000088287e-02 -6.360131859052428789e-03 -1.368329875636228182e-04 2.355665118436922004e-04
5.973384237191755805e-03 -1.181353755069139942e-02 -4.830162903648677411e-03 1.561447706675849617e-02 -1.120295780902302992e-03 -5.176984838636572439e-03 1.217408463901915178e-02 -1.160052376890983311e-02 5.855120957196432475e-03 -3.418328281164328790e-03 8.277322749292496257e-03 -9.890946538546184497e-03 -1.079133196450575427e-02 -9.800786125133114507e-03 -1.527588237688537638e-02 4.352357559030260075e-04 2.613965082407028462e-03 -2.136557671535760372e-02 -1.666622201307203788e-02 2.139772926408686771e-02 2.990929331892718413e-03 -1.199205120878071677e-02 -1.007732739731578321e-02 3.421661696660395491e-03 -8.439834497790458384e-03 -6.445828509975954496e-03 -2.901996489689969566e-03 9.632520301329421802e-03 -4.151313512813296393e-03 -1.066678703525289658e-02 3.543227834821464049e-03 -1.056839225285517020e-02 -4.360112952429445396e-03 -3.466809184871597581e-03 4.066432165762280237e-04 -1.191113710811690304e-02 -5.119777084049815553e-03 -6.829300686331038830e-03 2.903871722223455229e-03 -8.234272532697185787e-03 9.258918825443898659e-03 6.397127744957344358e-04 -1.653093685489679526e-02 -1.095342262364390126e-02 -2.338494984147698047e-02 -6.821104966711920292e-03 1.011985410118620456e-02 -1.498200747876261493e-02 -1.295341571119317838e-02 5.923611946445251231e-04 -1.872674291808841193e-02 -1.368283936642768553e-02 1.034889169829766344e-02 -4.053582203049412372e-03 1.067183749273291349e-02 -9.938206246777568642e-03 -2.122097213216596334e-02 -1.038666775324081047e-02 -5.082594684551757468e-05 -1.136624273824957641e-03 -2.342763699425223084e-02 3.789297825523538915e-03 -5.270003989260790139e-03 -1.373220574668634029e-02 3.414801125998266802e-03 7.915542450621180365e-03 -2.251734966405530974e-02 -1.461416402326686827e-03 -6.933995011803206071e-03 -1.459540324801156426e-02 -2.345557061976769487e-04 -1.797184508791520308e-02 5.025290518506429598e-03 5.619235913421342238e-03 -4.327914575850651431e-03 6.898988211220433500e-03 5.240818474196560009e-03 5.827532671659307884e-03 1.188236381299660749e-02 -1.269211920646235239e-02 -8.020035346537914694e-03 2.729508302166469558e-02 3.932616663215916970e-03 -8.419731757348605447e-03 -2.144612586434209087e-03 8.738720549332789495e-03 -5.153281539190864707e-03 8.687809481631567424e-03 -1.551758789523675908e-02 1.144126187414990815e-02 -1.997444793137841124e-02 2.211731554431179553e-02 -4.453125206744673083e-04 -2.658106831421757320e-03 1.137873118975997813e-02 7.277361923981218346e-03 -3.179753345858142045e-03 5.888978930287488110e-03 2.165138228029949569e-02 9.073799747916059394e-03 7.291822238240246862e-03 -3.294900152685915906e-03 -1.047483703782198412e-02 5.955575522535690777e-04 -8.194932484959076627e-03 1.100490490680911459e-03 -4.657293152394186529e-03 -7.165995858277199836e-03 -3.597942296637521645e-03 3.870984271888841359e-03 -1.177805280892882736e-02 -2.613071573807976278e-02 7.827720319948921340e-05 3.508609326557565050e-03 1.573332755386618736e-02 -3.056319603711573837e-04 -8.995858009944624357e-04 2.698158133174286682e-02 -1.479054595306366487e-02 1.865962590955497907e-02 -1.967446718629727032e-02 9.996777283056686256e-04 -3.827778175505848566e-03 -5.779639169959178285e-03 6.473929638084878133e-03 -3.713274454238473573e-03 9.781213757869330200e-03 5.152467871848098041e-03 3.241207866925823952e-03 3.237334231255613315e-03 -7.874023396218078272e-03 -7.659400396065287574e-03 1.747214739585872811e-02 1.126092608571724676e-02 1.514050668880274160e-03 8.954023923493818066e-03 -6.346435026591913664e-03 -6.578957454562569737e-03 -6.533095018358837068e-03 8.343593881382069602e-03 -8.240598165752559268e-03 -2.607912643121309756e-02 -2.455793050419123602e-02 9.457686817554919467e-03 9.482144250476911423e-03 -8.467823667044977604e-03 -9.502997122013155662e-03 -9.656843347873294431e-05 6.365481615638277427e-03 5.486005782161529516e-03 -4.763984002226565040e-07 -1.162949973761233900e-03 2.149509522433713446e-02 -5.859229456266131300e-03 2.371646964251658204e-02 -9.607910553854383251e-03 -1.139810581256900726e-02 1.674520661782884223e-02 -1.817684731659109784e-03 -2.047746795123797994e-03 1.283787010012652462e-02 -6.277586482430826120e-03 -1.889513216720437039e-02 -1.406760022589808277e-02 1.484344404575211815e-02 7.904378917177254382e-04 1.584975562071842120e-02 9.625440589153166221e-03 5.800997348277908694e-03 1.600835165236077703e-02 3.614588707637826116e-03 1.552073924074915930e-03 -1.975943845493740442e-02 2.344957731937421727e-02 -1.421116494273496960e-03 2.214371807618190774e-03 -1.372154127357744918e-02 -6.552154493095538497e-03 -2.108251230305690539e-03 -1.548462831095843290e-02 3.947984554312387526e-03 1.600592495418528063e-02 2.461861834852213660e-02 5.287981551244456957e-03 1.028933409132608973e-04 2.775051930894274765e-02 -6.174988883690002428e-03 1.288951369574851610e-02 -3.304864833357760642e-03 -1.564112659322174862e-03 2.286494976752889707e-02 1.098309277868851283e-02 -6.871687976329026760e-03 -1.193391686358075826e-02 -2.186030566493784438e-02 2.284700743386776801e-03 -6.419687116811230269e-03 3.520168895151429278e-03 -1.297853010857852318e-02 8.988052832083065491e-03 7.031165605308001016e-04 1.456381472903330032e-02 1.295054789929023578e-03 -1.540416423580608617e-02 -1.147339468413235801e-02 -7.142755630137222547e-03 9.436718922330724138e-03 -4.052840886277475282e-03 -3.533907693926064374e-03 1.801033752751787830e-03 7.026024351526835056e-03 -1.161112210200358416e-02 1.971831438712166179e-02 -1.150444418667933254e-02 7.132649286429568886e-03 4.780872444874314717e-03 6.522956715025890820e-03 -2.346851697612387794e-02 -7.813904933344193587e-03 5.078835449323327970e-03 6.887218422482403301e-04 1.017182592333664695e-03 8.587897571362234153e-03 -1.416521663082297156e-02 -1.655571419521323709e-03 8.964006016730221432e-03 -2.695702879560639940e-03 5.430056675817344740e-03 3.675427650452335430e-03 1.431392681317359555e-02 -1.259824893571904504e-02 1.574395457898694617e-02 -7.553259013267880385e-03 2.208904797219459967e-03 -1.374265310793855444e-03 1.804640784748287770e-03 3.257635605242744856e-03 8.048317312420045708e-03 -4.269777382891403253e-03 -6.819725874483563259e-03 -6.610874923532373063e-03 -3.093752583455573746e-04 1.366346895524247866e-02 9.566310355818768291e-03 3.836530598034501582e-03 -1.390119130690693934e-03 8.000657149902832763e-03 -1.501565653820884430e-03 -2.309482046628485996e-02 -1.446918528235420671e-02 4.699426796305738833e-03 1.004897726938079258e-02 7.306312459407382498e-03 -1.316698505840376357e-02 5.577753410416685844e-04 -5.689196804555814863e-03 -1.406856674136203363e-02 -1.802889860398402709e-03 -1.519236650493102289e-03 -6.827681562809989960e-03 -1.671691307321059028e-02 6.261540934973259739e-03 8.522069532241638087e-03 -2.231827654287458010e-03 -9.698368243758866136e-03 -1.507671078706204586e-02 -1.542080791353335478e-02 -1.411824767771385856e-03 -2.195595406349573966e-02 1.219624005244569070e-02 -1.388611215550840036e-02 -1.495863246764795283e-03 1.479082292266328466e-02 -5.303422234683137851e-04 1.470447069170597795e-02 -2.411003319871678728e-03 -1.947375017561753588e-02 9.399835262740761921e-03 -6.688366752976558985e-03 -6.110057497415730468e-03 -1.627077736760351029e-02 2.850742467755581003e-02 1.187285104123662546e-02 -1.611024864925630559e-02 1.514399845325298732e-03 -2.303839829067914208e-02 -2.304100076954824355e-03 -9.880128562834716507e-03 2.497743997595848128e-03 -1.519497517105082227e-02 -9.883774749620155564e-03 -1.158730454416017491e-02 2.070738897409795526e-02 -6.315683362722352909e-03 3.542141791798139377e-04 5.141250817814049974e-03 -3.195215858481977294e-03 1.171306469046588805e-02 -1.801396274545537940e-02 -5.022812899668896436e-03 1.279560142600684111e-02 2.563304534847937050e-02 6.256322241666312104e-04 -1.459872114996155039e-03 -5.062254386398921079e-04 -9.637222884315961580e-03 -2.031401600208732061e-03 2.964311947077921151e-03 3.815652409238892880e-04 7.872439697805598199e-03 -1.764190300407215712e-04 -1.693196582873219419e-02 5.629787719127946240e-03 -3.750589693177099190e-04 1.717325059766156015e-04 7.579368187381268877e-03 -1.519103821930654040e-02 4.417343144199965994e-03 1.600729226813061429e-02 1.474052775817043422e-03 1.889160504551159331e-02
-9.041428440482413356e-03 -1.925184777537139458e-02 -4.793601264878156500e-03 -9.975326766873838374e-03 5.100207225343783395e-03 7.185001761486612369e-03 -3.890879412529640521e-03 1.410270565015585460e-02 -1.240552526238639791e-02 -1.797495321434617720e-03 2.796162276033531749e-02 4.499577177051081959e-04 6.405656498017648845e-03 2.135138418529903409e-03 -1.524604713784559473e-02 3.556066012680538131e-03 1.175490595916558502e-02 1.334296015346389010e-02 1.921899820238842996e-02 -6.673581450766233845e-03 -2.990336474320304944e-04 -1.130273974529114739e-02 -1.739584091409209637e-02 1.125847113220007113e-02 1.552521169078200508e-03 -4.602955587813919655e-03 3.718339413305210561e-02 -9.583489592392857581e-03 -1.315363284625323259e-03 1.514054351028025838e-02 -1.153392874887166014e-03 -1.198262475951704202e-02 4.319228209547743350e-03 -8.623672561322527283e-03 -1.588530177620921940e-02 -7.937539752511650615e-03 -3.959530602225310586e-04 -1.346761159434803172e-02 1.359954012838506107e-03 3.037053725337410942e-02 -6.757652959102130458e-03 -1.133300435010810292e-02 2.204097460316142149e-02 -8.874931197936294924e-03 4.637987359585997796e-03 -1.330922704685811100e-02 1.916677587192211485e-02 1.151884334247059091e-02 -1.301540091646091225e-02 4.432995041110291724e-03 7.119206578839191307e-03 -1.241628307095339265e-02 -1.086565856494651735e-03 1.063040657106245276e-02 8.223438186952109624e-03 -2.091146849997098855e-04 3.133136947137767081e-02 1.521469771553504019e-02 2.406660295742811886e-03 1.053720919108602555e-03 -1.315332923284033909e-02 -8.658191770591079639e-03 -5.775374658858216902e-03 5.048402432807633927e-03 9.985848835403040441e-03 1.080730756035157671e-03 1.320738018971596636e-02 -3.742513978140884524e-03 -9.631587084085032821e-03 -1.492279226504968428e-02 1.195377853097381654e-03 1.092796091928012773e-03 -9.612838574825324127e-04 8.017072741065826846e-03 -6.873659291534287008e-03 3.468406817203869077e-03 1.393518902431427342e-02 -2.104838648662010064e-02 1.665716005670580049e-02 7.010030363904177185e-03 1.146727140160493791e-02 -1.453191395416621049e-03 -5.164801910998262184e-04 1.619365578537080436e-03 1.070566930362055504e-02 1.200937592610670443e-02 2.962688028227879883e-02 -5.373843142355934008e-03 -5.315716786304599834e-04 5.467615150310141392e-04 -1.435584496693855135e-02 4.306421513303599876e-04 1.194381091543026373e-02 1.414155400425840849e-02 -9.162803595233565091e-04 -1.144580386326566300e-02 -5.282731016009154651e-03 -1.064033488641266852e-02 1.349100503204785561e-03 -1.616683953876752594e-02 -1.468599013767059010e-03 -1.230656206876551591e-02 -1.375016421309363870e-02 -3.684332576056717316e-03 -5.970879819735832282e-04 1.463465783060160824e-04 -1.974734699048989392e-02 -8.671989428268692818e-03 1.617917765630318833e-02 -1.059495802237779387e-02 -5.766854308262405263e-04 -6.022884597778483881e-03 -1.131262750131898157e-02 -4.403770081517259516e-03 1.263599724652201932e-02 -1.882675124889998663e-02 -4.811600626260232987e-03 9.026864149669983767e-03 9.376906493749019925e-03 6.299818755793070053e-03 7.198254646975012910e-04 -2.025494985627020184e-02 1.995237861658117479e-02 1.155002271504378120e-02 -8.689743513338401724e-04 -1.006931960153590634e-02 -7.191133390565714045e-03 1.103494270848077259e-03 -1.010880719783957375e-02 -7.907718830473267624e-03 -4.584574974600753514e-03 -6.708536294404683978e-04 -1.440037415200355565e-03 -2.369184158418220255e-03 2.923807737543822512e-03 1.064181507433414192e-02 1.814918703926653512e-03 -3.542379744476592367e-03 -1.131326433713746981e-03 -8.574779320151123749e-04 5.601465774867839514e-04 -2.180242013259785575e-02 -5.032861773840706376e-03 -1.237246751153729066e-03 -4.558894337161843984e-04 1.289607949156424023e-02 -1.630080790135983448e-03 1.243438994036717878e-02 -1.623417234453366012e-02 -1.121409969956366388e-03 2.780357454877408537e-03 -2.696544056456525937e-02 -7.720097803694408317e-03 6.126419815452898484e-04 8.787361344497080645e-03 1.351136174823984459e-02 -2.602958060081370442e-02 -6.569791446249881837e-03 -2.943910995158741106e-02 -1.128309006579070704e-02 -1.028456577430965704e-02 1.191560273206938338e-02 1.903502940727360565e-02 1.207546847843344456e-02 -1.846913907693266757e-02 -8.491374272900921796e-03 -5.983042990513873227e-03 -7.928658413921530618e-03 6.384930919099422036e-03 5.071032417446228249e-03 1.897202987675147140e-02 -2.108385479432374823e-03 -1.174067915229113843e-03 5.859788246680350081e-03 1.452832584611151064e-02 5.645737338060456863e-03 -2.109972184296579623e-03 -2.643088464031747437e-02 -4.560821801157747407e-04 1.294243890506887977e-02 4.770583656447813757e-03 2.389170911737950685e-03 -8.959629611912130545e-03 8.921483504750409022e-03 5.868428393979250451e-03 1.603187227990261754e-02 6.954781303815278648e-04 -5.522273161218749574e-03 -1.324328366461834279e-02 -9.902994378361727398e-03 -2.265359904203359531e-03 -7.238960708252057492e-04 -8.399615818638522455e-03 1.579103846397578864e-02 -1.411439231078021050e-02 9.046527512851859024e-04 -5.020216829574746659e-03 7.211871117174912041e-03 -6.493821327146266122e-03 -8.880445265767029743e-05 9.772398566908840900e-03 8.217236827645670039e-03 6.598139994895143527e-04 -1.320125573151425397e-02 1.284516890277076842e-02 5.003683366356421851e-03 -9.937886093753891745e-03 1.593373419388294937e-02 -1.473320972411824165e-02 -4.527308283354273058e-03 -4.995538774192854678e-03 1.962050829299290602e-04 -8.553905438232010244e-03 -8.521594736219093892e-04 -3.606024580513093533e-04 4.061130780835817480e-03 1.916690834407128868e-03 3.615552225489065095e-03 4.984975753420572888e-04 2.326222366042194484e-02 1.034752614495208084e-03 -7.771866967578391211e-03 -1.720756748229292435e-02 -4.456047764639002595e-03 -5.154937118181426511e-03 -1.470874048752604003e-02 1.001574762161595421e-03 -5.776359841635341288e-03 -7.435957043616171422e-03 -7.418814506504783132e-04 -9.622086207292953816e-03 3.284735546357065925e-03 -1.692494494961552937e-02 -1.988221300168703520e-02 -1.657262114694173227e-02 -9.016384120557436113e-03 1.450246245386359540e-03 1.040398100587941639e-02 -5.875356184482025991e-03 1.254054876542723277e-03 -4.771257966084026247e-05 -1.303110493300433693e-02 5.256532062230718800e-04 1.120876905092593918e-02 3.422389725151617212e-03 -8.625476890443704858e-03 6.726014883014724485e-03 -7.314752608180524708e-04 -1.676446835731947678e-03 4.174600123361904558e-03 -3.047585144298725970e-03 -1.624102950342710613e-02 1.998133419838940203e-02 1.040783775053976193e-02 -4.678714472646908207e-03 1.290949792108034766e-03 8.446710379984980616e-03 1.527100516969267510e-03 2.971391956967012020e-03 1.567052904732156235e-02 -7.595531893036090807e-05 4.506124902539052415e-03 2.918706484970540367e-03 -1.222701748082612432e-04 -8.826819632134698390e-03 2.395821660403628373e-02 -1.531944460228005372e-03 9.485571135871635057e-03 -2.441847492978795747e-02 -7.969541171096847969e-04 -1.587736998899444765e-02 8.494125605042023366e-03 1.430623389212547832e-04 1.088992008006916222e-02 -1.127535994905320103e-02 5.615924029091600225e-03 -2.469897140436422278e-02 6.146222834082958747e-03 -1.816967765958415679e-03 2.473542062611637851e-02 1.405588910044488875e-02 2.119676722454117215e-02 6.774264202731739709e-03 -4.962345898404608904e-04 2.207364146001737637e-02 -1.535459948222296991e-03 -2.581800166011308934e-02 3.752902238664336358e-03 -1.632413398466143334e-02 9.209054672923334614e-03 1.026177008526800612e-02 1.442570225869376638e-02 -7.401641935058812100e-04 3.245194424508691944e-03 4.639671137916348206e-03 -1.486727092556051552e-02 -1.400567212990995458e-02 -5.049438053616431450e-05 1.290610264356428435e-02 3.454928304746680487e-03 -1.600784775560486900e-02 -4.866494953538187500e-04 -1.915776343299048501e-02 -5.126102118840258817e-04 1.534170265851632700e-02 -2.611141351233840086e-02 2.854683601321108405e-02 -1.246871928929097796e-02 -1.494808631057151010e-03 1.663365249814582197e-02 2.328064931912454184e-04 -4.637649073683169573e-03 -1.363915659824342305e-02 -1.450094934525665395e-02 7.268308376649494813e-03 2.491510632153962155e-04 1.043330403492996952e-02 -7.991293395272143149e-03 -6.568955629371077409e-04 9.397618498543400950e-03 1.788698201430939010e-03
-1.147274694929800547e-02 4.348744456831516933e-03 -9.476819012746121040e-03 7.680330992458326862e-04 1.360522841796707808e-02 1.334621050737131408e-02 1.150350703748714495e-02 -2.587442766567047813e-03 -4.170119235309410755e-04 -5.959685531646360772e-03 -5.797366080852860842e-04 1.625177683242501336e-02 1.415636717527567028e-02 5.414008195399474047e-03 -4.334913557439657936e-05 1.075290853701619045e-02 2.803775450579388748e-02 1.826014642325040748e-03 6.530050843327805943e-03 -2.133579987386573923e-02 -6.517030358039705568e-03 -1.237651955276278422e-03 -3.882131677625504790e-03 -2.293063470732364245e-02 -3.599706545920561621e-03 1.019512481900033095e-02 4.848686911934753027e-03 -3.900307898645333053e-03 1.131519674089536548e-02 1.181008737423249258e-02 2.050212738344163454e-02 -3.696977664257851360e-04 -2.084905815265268234e-02 -1.336346878942811130e-02 -5.624376274390777836e-03 9.832614682531387682e-05 -1.405984771565853969e-02 3.983340168593140461e-03 -3.746649194288666218e-03 3.180748743867636927e-03 1.100926412718029532e-02 -1.219536828018503820e-02 6.607555621927164481e-03 -7.949930899685127630e-03 -4.373589039876773533e-03 -8.876342696707756330e-03 -1.140036954813588785e-02 2.492566570750255096e-03 1.356483255974709132e-02 -6.715067503312635404e-03 3.720433106720543413e-05 1.502110184952186109e-02 1.297340617245981015e-03 6.031508406027701573e-03 1.005239556187091481e-02 7.052436707985262031e-03 -1.053220035639607088e-02 1.438341785708237286e-02 -4.661617386426555529e-03 1.999125256880761314e-02 -5.113225569540804163e-03 4.971524263344783215e-03 1.798733010818131389e-02 -7.053791545234346398e-04 4.835069318833202894e-03 -1.500449359147795064e-02 4.974859048413830115e-03 1.004455748110277651e-02 6.131839625912245684e-03 -1.646289794485108690e-02 -1.331806450598619664e-03 1.280101325116608096e-02 -6.232357023395815668e-03 -1.741045855375980209e-03 -5.132841455609589952e-03 2.972541108391558301e-03 -3.090310378467304130e-03 -1.497294828069746682e-02 -3.424040756921479644e-03 6.940598064234870107e-03 1.686926349800533728e-02 1.778348155443220877e-02 -8.798213628560862254e-03 1.594274402059450962e-03 9.675223269197365944e-03 -1.751571187095855896e-03 -1.703097318273542188e-02 -2.052181199984118298e-02 -1.385100206247780533e-02 -3.388517879434072184e-03 -1.035266418073848725e-03 1.372169481368610069e-02 -9.205451276880693631e-04 -1.103207661192118563e-02 1.089561551157806028e-02 -2.485677506242161411e-03 -8.233624385618832156e-03 -1.389999213414240889e-02 -1.628289351678562785e-02 -7.617467207151332707e-03 5.054170258899062101e-03 6.897172694032754903e-03 -1.031576055841501582e-02 -4.444299957269576620e-03 5.249323301812296692e-03 1.079573680522732081e-02 1.688054809697416350e-03 1.039852515791014724e-02 5.159179222986639418e-04 -6.631118541754719726e-05 5.231400103863198189e-03 -9.883777304603971661e-04 -1.675441166928510464e-03 -2.215646651951521870e-02 -1.143516833960970223e-02 -1.913961311173981161e-06 1.656124251690194865e-02 -8.427193367644258276e-03 7.790495168773948521e-03 -2.556880594665349605e-03 1.034560229642427160e-03 -9.658360239023838431e-03 9.448507622713366635e-04 -1.158699225921533751e-02 -1.928990937411187781e-02 -1.242276172641854255e-02 -1.019746047478773884e-02 1.979975777903058079e-03 -8.683580535084991711e-03 -1.342375980827631606e-02 -7.056490790294702407e-03 -1.317874013950617526e-02 -5.541627823114757267e-03 -3.079345251030858252e-03 -6.421543708295097096e-04 -2.337198947735263932e-03 7.794158698302583108e-03 -2.946230768405489614e-03 1.440949242602474790e-02 -1.824251757444188141e-03 1.003166557897480597e-03 -4.626163936952780095e-03 -2.163959440693004332e-02 1.189843439390111772e-02 -1.706617220808868268e-02 9.934373419735921182e-03 -8.814799339078057197e-03 8.753744182461004573e-05 1.011687844571198050e-02 3.468025481338817342e-03 1.206303946904900906e-02 1.937072030587461136e-02 2.126958658505867863e-03 -9.012781142655445707e-03 4.535829799622700421e-03 6.301025989512580409e-03 -2.586965546612638583e-02 -9.505864963547572613e-03 1.618903112358892338e-02 5.760961779239257528e-03 1.629396805996857767e-02 3.770334210279890907e-04 -2.090096020562416841e-03 -1.517355882156957644e-02 1.528766832624510290e-02 3.339738539478312798e-03 -2.855804042472246188e-03 -1.635034744107199262e-02 -7.057336257945219862e-03 -3.377752502415645904e-03 9.847577039657219936e-03 1.416663929077975658e-03 2.068659810406948268e-02 -1.201361244300284958e-02 2.663989299225713939e-03 9.515626759880348867e-03 -1.954210171118395123e-03 -7.267850851727002473e-04 2.281443103385946691e-02 6.116404419148922800e-03 2.736719478629513064e-03 2.813652800116110664e-05 -2.418752359356194682e-03 -6.980655215739634814e-04 1.692856648614205969e-02 2.234492005024383068e-03 -6.629472259069057842e-03 -4.053301699195389560e-03 -1.369541446090479127e-02 7.120492298036849507e-03 7.698549230481983602e-04 8.532686653037514085e-03 -1.033001310713635781e-02 5.240474743454981345e-04 5.083820681959774421e-03 -6.554098021031179791e-03 1.026615186244183436e-02 -1.462545005177254623e-02 -1.334667118158295966e-02 1.014215488515699329e-02 1.987304672905139402e-02 -1.339292534732032264e-04 -9.926455302170227035e-03 5.483277089368765803e-03 -4.048839817396929046e-03 1.265583306784195082e-02 -6.936164358800898586e-03 1.084187711839134163e-02 -5.930671298838952705e-04 7.361687515919585270e-03 -1.122046125451166970e-02 1.349475311746460571e-02 2.303742246176189792e-03 -1.498505867363435912e-02 -9.917730584302749883e-04 -1.082237276957801093e-03 8.176148827635808247e-03 -9.568922082902752910e-03 -2.817618862186021395e-04 9.307615713507319186e-03 2.331875830353835957e-02 9.958891326944992878e-03 3.388741837440408487e-03 -8.109730355371214117e-03 -1.508371889810075986e-03 9.066650090862870062e-03 4.827887007173900687e-03 2.151386354308088868e-03 -7.126273535732250905e-03 -8.317399928199577588e-03 1.008171309345918740e-02 -1.488290946710899183e-02 -1.740632268483640471e-02 1.887805811501287604e-03 7.884569840371008151e-03 -5.225502010413151169e-03 1.522975941657204665e-02 1.287542380492326258e-03 1.150494509178919510e-02 -9.730774770196010462e-03 -2.193653827654558353e-02 -5.077175692033140605e-03 -9.410594507531117384e-03 4.722917291174232382e-03 -3.262158766244918455e-03 2.392390297659213044e-02 -1.365630086189926345e-02 -1.208185819794653851e-02 1.159751862405318697e-03 -1.486078440986470829e-02 -3.479666667812655184e-03 1.226678261021162814e-02 -9.399656642494055511e-03 2.550343187834754749e-02 5.826501277132396014e-04 9.123700213781699153e-03 -1.058392409641961684e-02 -1.169376755661956195e-02 -1.628015055853434742e-02 -1.168009219153213173e-02 -7.713374746487804134e-03 1.242692244497559670e-03 -1.927521472061793917e-03 5.269183559912921783e-03 2.432797638064163569e-03 -7.629697757177172912e-03 2.584811045112465205e-02 1.307859147283097455e-02 4.595390917039351986e-03 -1.496365030407015642e-02 1.078452729093874914e-02 -1.702313989265471367e-02 1.090063561875536172e-02 9.260710824484638670e-03 2.470927716190775975e-02 7.316484366684328569e-03 1.584609442287119967e-03 5.834868883224956712e-03 -3.860857367568438885e-04 7.285399413618869318e-04 -2.882646362009404217e-02 -1.753923741410755299e-02 5.855219373886925809e-03 -6.762824146322902324e-03 -1.267016699303635981e-03 -3.586246247451745257e-04 1.202439982389197880e-02 1.377139440295407219e-02 7.290474682939867765e-03 -1.293193053010093137e-02 1.038272177537352507e-02 -2.291891549914579912e-02 -1.170633059600325286e-02 6.438458775057520969e-03 1.236630590444417685e-02 4.290636570931733763e-03 -1.172921108400800522e-02 -6.508845106417137337e-03 -1.259562326419643233e-02 -2.591635539978843876e-03 -9.122987340433238177e-04 -2.089172117216148063e-03 -1.220503628535666261e-02 -8.175175165842974573e-03 -2.596872863099505130e-02 -1.419544419785417812e-04 4.646160876107023607e-03 6.351838403054286403e-03 -1.500578494768097394e-03 3.894080008716801870e-03 -3.974307526693963456e-03 1.069279196342518348e-02 7.636566573195722671e-03 -1.608765862831358943e-03 1.359194044452840741e-02 1.106696181392091693e-02 1.742689092197766479e-02 1.741935701455797972e-03 -7.971899791245844191e-03 -2.412524363077903772e-02 2.208274523469907699e-02
-1.952618769351794140e-02 3.007494553650813876e-03 2.260897215934247126e-02 1.043735024479691686e-02 -1.027359345767498745e-02 -3.819159159069893464e-03 -1.977303649653007131e-02 1.156373329794667393e-02 2.452717796643019005e-03 -1.075331372632663558e-03 2.660556516146080769e-02 2.348388981090703334e-02 1.355732153605445495e-02 -1.576024764345447526e-02 2.404849196371015504e-03 -8.078819124522435002e-03 -2.705512359370250766e-03 -3.395950436132632189e-03 -1.296422419828171559e-02 -1.460804503001652491e-03 -1.296510682459404594e-03 -2.046612343046031943e-02 1.496417584346097437e-02 -3.333469601880394845e-03 -1.095417819114661608e-02 -9.972712520351664431e-03 -1.381929652064668203e-02 -2.940278034782152494e-02 -1.094032020106852805e-02 1.474520781661473046e-02 -6.475751865806891102e-04 -1.799941692914611494e-02 1.388339426737740566e-03 4.778329301431267747e-04 -2.912765120767122316e-04 -9.313660680023243960e-03 5.549512441739222826e-03 -2.113131787314577459e-02 1.853449498034996645e-02 3.567549010735317737e-03 -4.978578015662135647e-04 1.150474884301949012e-04 1.185960529369275637e-02 2.245259113910912097e-02 6.546014077220472377e-03 -1.196270691820632177e-02 2.252034713307423525e-03 -1.363664689341419775e-03 6.623573554947781959e-03 -7.453466207112829228e-03 -7.188630739200717670e-03 1.141608247089972951e-03 -4.164811625293285934e-03 -1.134457497087692363e-02 -1.258587454838431055e-02 -5.678262424739985697e-04 -1.000217166235774398e-02 -9.173149062443753526e-04 9.629742040411750498e-03 -8.223760562325047735e-03 3.779745849007297778e-03 -1.428966507812322187e-03 -7.244168267559889657e-03 2.791909936644678021e-03 9.998473525853611432e-03 -6.520224289025788357e-03 2.874505246748036355e-03 1.882952251818080167e-02 -1.949215920765494901e-04 5.075722359655710555e-04 -3.560138809767653817e-02 1.025110664530881274e-02 1.289681633909048851e-02 -3.442981860885195068e-03 9.486511729359834669e-04 -5.072761136211320285e-03 -6.582755089068128770e-03 1.871447683135852788e-02 9.371809078245849078e-03 1.520449622434990634e-02 -9.279946103111766376e-03 -3.834991679145163118e-02 8.428993845422717152e-03 -8.286690628559818111e-03 9.241678036201222274e-03 4.279890163051545309e-05 -1.569771707965402982e-02 -1.680003417523744103e-02 -2.180774584531946191e-03 -1.291034534490734936e-02 6.493432236157298948e-03 9.647838406442350856e-04 2.622709677579658158e-03 8.981636432861693844e-03 -1.612324107317438665e-02 8.911994389270545824e-03 1.570946792664003333e-02 -8.901812641244066793e-03 -5.463834050728109092e-03 5.910378716464312343e-04 1.895551000530293134e-03 -1.729375141183418264e-03 -1.300449492433482061e-02 7.598822540241316828e-03 7.561875277958124419e-03 2.445341093254620353e-03 4.272517435729621203e-04 1.386026431920994034e-03 -1.229699810436205194e-02 -3.208775442597246695e-03 4.359347118485496983e-03 -6.447271473927975935e-03 1.652123912392890193e-02 3.746460732071085677e-03 4.801550197193464598e-03 -1.940593142301435398e-02 -1.347450015833744248e-02 2.304220845533130196e-02 -1.544533957205881589e-02 -2.776017500991356801e-02 -2.234099044787835053e-02 1.198994159706865889e-02 -6.001581482542582904e-03 7.130263345935245259e-03 -7.340341553386236367e-04 1.091173254753040030e-03 7.325268999556729718e-04 -3.714741498038525054e-03 7.685493640210470413e-03 1.357583428685157044e-02 -2.198582202938609200e-04 4.921389237741639715e-03 1.710755933560580838e-02 -1.443414168229412847e-02 -2.853727193756921444e-03 1.681885117344062786e-03 1.263514470032351018e-02 -5.248762214333654690e-03 1.199511979419327218e-02 -1.164129993097976629e-02 -2.650979494781181833e-02 1.580093834602906699e-02 1.092191586405095484e-02 -1.982369464353845451e-02 9.164353141603987082e-04 9.188319080408444139e-03 1.998607646775063182e-02 -5.993249789193192539e-03 2.382303835611605629e-03 4.161832534800465055e-04 -2.358843225479535788e-02 -1.855947179786405013e-02 1.152712633191063565e-03 -6.388080066635927652e-03 -1.738271074374992536e-02 2.601745388281675314e-02 9.827535396705151458e-04 -2.807750464656550999e-03 7.857852719025219812e-04 -1.268272276363037031e-03 1.019508871648058335e-03 -1.633096485306380005e-02 -1.841334125609385072e-02 2.220937178430706493e-03 5.580405851558919387e-04 -7.809370992418726565e-03 -1.331276869846717906e-02 -3.219563046061343914e-03 -1.387371475000875876e-02 1.019184410353388484e-02 3.762730757504352368e-03 1.958213531185488965e-02 -9.348465631482314603e-03 2.084339987351551890e-02 -1.638964077479328901e-02 -9.062327555464280704e-03 1.316641414975974408e-02 -6.665108503373956984e-04 8.253662926224621457e-03 1.169478912803646221e-02 -1.502147731589811332e-02 -2.389250991246588598e-04 6.983300144795207085e-04 1.879624191334116831e-03 -5.554204817457501081e-03 -1.011684863020015368e-03 4.804688709568188595e-03 -8.915257171843297621e-03 1.285786658962269347e-02 -1.329561715530414153e-03 2.252240768867452142e-02 -9.185422483243239206e-03 1.002502443064190799e-02 4.435264992321187420e-03 -2.087814507323224739e-02 -3.820805541270637720e-03 1.092873315422731965e-02 3.044771874897986026e-03 -7.872195805627384482e-03 1.147332094605611578e-02 4.755602641406090833e-03 -2.470713295352415517e-03 -3.554582828357693777e-03 1.373671976976000670e-03 -1.581549188223741950e-02 -4.263633548048906784e-03 -1.438352029448120017e-02 -1.464965723260031050e-02 -1.173108094324620820e-02 -1.190087013178155705e-02 4.083350079761745299e-04 9.324535865577116608e-04 -1.354821511591025162e-04 -8.704924713390070276e-03 -2.647448322444275436e-03 4.021320277152941759e-04 1.930345078339262832e-02 3.930950340611505910e-03 -2.286151606963324895e-02 9.095464197682590068e-04 -2.085876531125538044e-03 3.641234745225217177e-03 -7.417478966040637160e-03 -9.454983947975522003e-05 -9.224675128517300857e-03 1.152553554301470953e-02 -1.278164581511964659e-02 -7.580270102424036330e-03 -1.012335288021225591e-02 -1.268195309484655871e-02 -1.245811760417339133e-02 -1.502228768613697238e-02 -1.472547912113860401e-02 2.240981045493233015e-02 1.627607035073032468e-03 -2.715443374529763650e-03 8.093742868249076058e-03 1.321418000336041509e-02 1.207736457556487022e-02 -9.220439689946756390e-03 -1.143904484407526172e-02 -1.332114750663889076e-02 1.031255775889613428e-03 8.224192346640121082e-03 3.032991961782680913e-03 6.092531267742517381e-03 1.640565166019579066e-02 1.768249447883968317e-02 -1.055034677971083794e-02 1.106368763799351826e-02 -2.828556917171100651e-03 9.083921818382689750e-03 9.748114588241528836e-03 2.109704386621944101e-03 1.642759542498063111e-04 -1.439539710744645352e-02 2.388523914813502763e-02 -1.351633468657495625e-02 -7.759592229688701270e-03 9.140296601159005399e-04 1.269005939148859291e-03 1.717438888743349351e-02 -1.801364962505322799e-03 -2.065094738484032216e-02 7.708993536454501836e-04 -4.740087549622317743e-03 5.990067629404178910e-03 7.614185793300766968e-03 1.209587138840632209e-02 -1.346070398612965284e-02 7.801855301787643387e-03 5.210468784226586665e-04 1.343372787200202171e-03 6.602592227755620796e-03 -1.174232234073630497e-02 -6.083505541438415055e-04 4.682597794632776395e-03 8.938264425142816369e-03 -1.136500899877028719e-03 -2.152358227780401534e-02 -1.514617612186244626e-04 -3.543857750001867118e-03 -1.506161864286937593e-03 2.569851109699090863e-02 2.213353729574907280e-02 -1.250585774861576530e-02 -1.269868841584254060e-03 2.316231114474618866e-02 5.237490738400371257e-03 2.007447917146694405e-03 1.176457422738794167e-02 -3.281470072965041000e-03 1.160399865725697879e-02 -8.849632774051405942e-03 -1.231606560666867857e-03 7.154620822181560237e-03 -8.180164915084536109e-03 -4.077588911489404139e-02 -1.720372011499705922e-02 -5.996984708957816407e-03 -6.400192674368967646e-04 -5.177104451107744122e-04 -7.435227502619029712e-03 -9.298218576117657508e-03 2.095519799921941300e-03 4.840454564395375164e-03 -1.411564480330529565e-02 2.774470003265549741e-04 1.996746049498238779e-02 -1.999278097261636758e-02 -8.923655296046146754e-03 1.172281048344613096e-03 -1.704765122501863267e-02 8.945479901268428916e-03 -1.130893291864166345e-02 -3.948622949902557376e-03 1.851871010570475644e-04 -4.104994098273447370e-05 1.576725897444913177e-02 5.128866885082832699e-03 3.664142743943500126e-03
1.502181240002949981e-02 1.922378129318679657e-02 -1.040025591614363726e-02 -1.490701533211578368e-02 2.030004020309477374e-03 1.263178211676580995e-02 8.580796119492396356e-04 2.289670781895557575e-02 2.671509295192155131e-02 8.735767390943942334e-03 -2.896898519440123040e-03 -1.439081320434060403e-02 -3.447567448306173340e-03 -2.620960096476067022e-03 7.410942333613626531e-04 1.333547183493390999e-02 8.309841808853411435e-03 -1.039701143472778963e-02 -3.410986791185030217e-03 -5.907007265189206241e-03 -9.853594889425588976e-03 6.263721049620767437e-03 1.065928636986185210e-03 -7.578417317854894801e-03 -4.291052507553497555e-03 -2.892127345473863298e-02 -2.164516548802663046e-02 -2.843596866314052063e-03 2.151573915334214354e-02 8.438666949441444784e-03 1.131454908540608035e-03 7.377051216401814791e-03 2.135149719998480355e-02 -4.687509405424509362e-03 6.997239227118510346e-03 1.335599988723014733e-02 1.222477552398893580e-02 -1.292753929399947238e-02 1.606502106086449624e-02 1.094329667285208300e-02 -1.644238368911828813e-02 4.441934516396087163e-03 6.859504749509516726e-03 -5.228769465482617160e-03 -2.544829031062424002e-02 7.677912840551055903e-04 -6.293461483558118220e-03 2.055172103129203343e-02 -1.828754365951222247e-02 -1.012288682039357360e-02 4.600045558255533035e-04 -2.354204159952933209e-03 -6.174707306552623329e-03 -2.088081356089300025e-02 3.498160198293948260e-04 2.977031660445693569e-03 1.532639163393550476e-02 -8.002021377549961567e-03 1.297223723567558426e-02 -4.259446011881302431e-04 -1.203134606107391508e-03 1.973085178162013731e-02 -3.814285425899710189e-03 1.187671078010113729e-03 7.018317252012419225e-03 1.580099975721107122e-02 -1.752078480551730322e-02 -3.317492908152759601e-03 5.411007884151749006e-03 -1.054779510710145141e-02 7.599414131212085550e-04 2.249878513579939981e-02 -1.365042697079654407e-02 4.711760452419480952e-03 2.920782617031095728e-03 1.465677533296276579e-03 2.247697997605773920e-03 -2.829612003295080280e-02 -1.545860040396988822e-02 -1.538986567857181069e-02 1.943350472856147579e-02 2.683570454575884973e-02 -9.227444412586802841e-04 1.235003619948320773e-02 7.934936887966927491e-03 8.685833184647499122e-03 3.399205044932931269e-04 -1.497990681832213344e-02 7.915275714910022936e-03 -1.378463595964349482e-02 -7.803036391257428539e-03 -2.618151045753368961e-03 -1.136165734981612815e-02 -1.284225414259720574e-02 7.447416961730652686e-03 3.544953286830943538e-03 -3.922226347350525957e-03 1.685001167704160661e-04 -1.306659687390392122e-02 -2.653839174376382976e-03 2.813592765163672876e-02 2.558629520588520841e-03 -1.456116163305066179e-02 1.275314837825856917e-03 8.692561070072024262e-03 6.190923922350724529e-04 1.657249176204428007e-02 1.538942000802960520e-03 -1.186149151633197158e-03 -3.408277047802764706e-03 8.248499013621212947e-03 4.927318196357512690e-03 -8.070686872361556782e-03 -2.095459688141236565e-02 5.742390872316566197e-03 9.284906447326504286e-04 3.333640905640489205e-02 -1.063382392779089677e-02 -1.661376747256093286e-02 -9.631669614237768975e-03 1.078267425596321494e-02 1.159598821091303335e-02 5.694370113628488377e-03 7.354941282045196482e-04 -6.356171901327919939e-04 2.825469643784472157e-02 2.656147192965549464e-02 5.745348730829272915e-03 -1.950475705840653759e-02 2.709118065137505141e-04 7.586315639530475177e-04 2.084225097516872668e-02 -2.285087360026168829e-02 5.052251698433455392e-04 1.058060814826541386e-02 -1.324657486059482858e-02 -2.689695061334148804e-02 1.600800315202930563e-02 1.417740642451642032e-02 -2.267762623563097848e-04 -1.044674338169086433e-02 -2.266005745115632838e-02 -1.519240065925129939e-02 6.900231930338823066e-03 -2.423151361591099201e-03 -7.161375330480763621e-03 -7.366763848790852838e-03 -1.473414192013030449e-02 1.661225487193691321e-03 -7.897593612519092365e-03 2.165774674014524226e-02 -3.798735486198482648e-03 -8.279537407750768921e-04 -5.683138167326897902e-03 1.946314921650375146e-02 2.252749841211581366e-02 -1.540609139611077982e-03 -5.412493926434025840e-03 -5.086021754656500082e-03 -2.083619260425696035e-02 5.769764461106472158e-04 -1.038795225086729460e-02 -8.601326940548971456e-03 -7.965712227549034963e-03 -1.132275471172784764e-02 -1.349685716442257204e-02 -1.627340658403189080e-03 -1.051215110935761754e-03 1.324461015215857955e-02 6.315611065323860525e-03 7.576212317341129640e-03 -4.662160758775681004e-04 -1.161555230374839093e-03 1.305046693284557698e-02 1.034296331490690453e-02 -5.125071338080551542e-03 4.371363344203571533e-04 -8.137805280038028916e-03 9.453564136683205790e-04 5.874316040599208109e-05 8.170905700868924537e-03 1.577899869482123768e-02 5.202708784514597715e-04 1.096830029450474378e-02 8.481968126693645912e-04 -1.009008540648508381e-02 -1.404502375410586999e-02 3.258805961402876615e-03 -1.385851734811960161e-02 2.542943606000738939e-03 -2.565233653779122082e-04 -1.133833434150001603e-02 -1.044065264317827878e-03 -5.949534842913252030e-04 9.051609421611755881e-04 4.063909967340007673e-03 -7.722879538311982865e-03 -1.093235019372810514e-02 -9.159062357768345264e-03 2.514883316748227002e-02 -1.055353412640410229e-02 1.287269430078133003e-03 -1.893834545485903464e-02 -6.659193802266943733e-03 1.705088617069025481e-02 1.096069874853573302e-02 -3.573381196761306073e-03 1.107488933872756605e-02 5.505914217258527782e-03 -3.318659504416571725e-03 5.940749346779162186e-03 -8.045644522293851630e-03 -8.703832914169527075e-04 1.111871481296316556e-02 -1.556919353172335919e-03 -7.104934126828953839e-03 -2.905186977364803812e-03 1.145021451943950205e-02 -5.818472549965445460e-03 -1.400027521024652805e-02 -9.369001456615160678e-03 -1.411679446320499021e-02 5.782875731858549279e-03 -1.209133894222029493e-02 1.226954119071766922e-03 1.534597135140215382e-03 -3.609760114256721324e-03 -4.922514850569978395e-03 7.188321185915212165e-03 1.806006498756547538e-04 -5.167245599590473189e-04 -8.870720966737863063e-04 -8.740685573704651268e-03 8.439085119560920875e-03 1.098432172302505651e-02 -7.428045685045420871e-03 7.116237676016108626e-03 1.504072109369334947e-03 7.193326070131803029e-03 -2.054883503755161253e-03 -1.009506404557251880e-02 2.264872678279261121e-04 7.476976657633284395e-04 -4.226508736046839278e-04 7.368840544876693009e-03 1.177202998507750897e-02 1.117515346357403697e-02 -1.229963739387423052e-02 -1.192578482328499577e-02 1.282363389826357385e-02 -4.244290469366363006e-03 6.719109196311762872e-04 1.285977813535084391e-02 1.046147017435226922e-02 9.773808224056315316e-03 -6.052332685032974467e-03 -1.580212800094822276e-02 2.602232733808622703e-03 2.598512017314958365e-03 4.440972310849273033e-03 -9.934938403654280936e-03 -2.473267944360119444e-02 -2.297304769155690540e-02 -1.025950506517746795e-02 -3.509504302949582183e-02 -1.092930573553610842e-03 1.305483212929614383e-02 7.243941785562790434e-03 1.086604419620939080e-02 -4.559007664606802221e-03 7.200944090359230870e-04 2.089585106772563761e-02 1.391443514345538056e-02 4.070188406888071604e-03 -9.362372424630295217e-03 -1.565286265107930161e-02 -1.335600214003905203e-02 -5.623675874171229182e-03 -6.968602989392341449e-04 1.808649592966607520e-03 -5.241733691108058958e-04 1.454574674591354796e-02 -1.428100308399261713e-02 8.281925022909896947e-03 -6.954173041134575906e-03 7.157688565928132206e-03 9.331266199644021320e-04 1.037589905009202347e-04 1.700549029531614117e-03 2.656254569836044490e-03 -2.172749842253860614e-02 -4.790232678376859198e-03 -9.249500239575996971e-03 2.759345167714122825e-03 -1.676768927399030105e-03 -1.043939607475295045e-02 9.136770711639635029e-03 -1.083007128498070064e-02 -8.123945257565679326e-03 -3.319078459062629535e-03 4.759942584248434000e-03 3.212192772568922897e-03 5.800987637684116953e-03 -1.173140234347155343e-02 1.519406123771799635e-02 -1.106655133271536307e-02 4.470704591576795187e-03 1.179805923484175505e-02 1.415181654845106473e-03 -1.153098135547933265e-02 8.264092526525242902e-04 -3.454509525335560348e-03 9.899996067563034477e-03 1.081176359202713419e-02 1.239021748767602828e-02 -1.454820019312031906e-02 1.530792479399660858e-02 -1.642903848949908013e-02 -9.189484032530964401e-04 4.144876324301874880e-04 2.414944366675325117e-03
-9.466489481222445379e-03 -1.323771985561755272e-02 9.985442444229448988e-03 -3.576968029966797608e-02 4.656517716904018563e-03 1.183627379195076323e-02 1.850190302762678984e-02 -9.339847530661672670e-04 -1.146218982088794726e-02 2.432786217109147303e-02 6.750035360586745942e-03 -6.621188951353134799e-04 3.678316533344260300e-03 1.224413221708354690e-02 1.329120637215027052e-02 9.505213691404241355e-04 1.702533317896548493e-02 7.265968416530621012e-03 1.842686311723383194e-02 -7.414753061583014351e-03 -3.680065582756301273e-03 5.626134043605997802e-03 8.903169093514778226e-03 6.765750236012205935e-04 -2.053089075056140772e-02 1.202960115624764417e-03 -6.011877651334834698e-03 9.125886727124494016e-03 -6.262216070425904828e-03 4.001993242983633778e-03 -1.520139133329962908e-02 -1.156714107406659961e-02 -1.905920209465436846e-02 -5.533558601642406954e-03 5.901401371591698947e-03 -1.202817521492145596e-03 6.683799432071205020e-03 2.292004481839260074e-02 4.379770822785740425e-03 2.872547428866519328e-02 -1.217618988659792921e-02 -5.088974748684187144e-03 -1.613175252106120727e-02 -2.358368998518336167e-03 -1.460275901589340453e-02 2.586292118031720266e-03 -1.753440095119987788e-02 -1.210192617937085741e-03 1.793072249415285022e-03 1.911538529420630378e-02 7.616266605946105366e-04 1.685429779635289928e-04 9.265896191234183898e-03 1.531104426958745414e-02 -2.088585698135856511e-02 -2.862245676986330950e-02 7.204430947752108946e-03 1.473442212379521025e-03 1.738509822272027439e-03 6.143431021289852238e-03 -2.863819125202226711e-03 -2.278810195466518529e-02 1.683342888322521963e-02 -1.234685105308703200e-02 -2.602557756678888778e-02 1.151562752509819980e-02 -1.996130665833931173e-02 -1.155886315846513940e-02 -2.213693669500786665e-02 -1.048330471440230005e-02 -1.021905878230332590e-02 8.159472852709875879e-03 -8.705764950919424316e-03 -2.407528936301638577e-03 -7.870753547176614212e-04 4.796623897464497542e-03 -5.206471835110711328e-03 1.037363740569253491e-02 1.491675762381480894e-03 -3.614315135720688049e-03 5.841757356049210887e-04 -7.579932371638790217e-03 -1.537522062539254091e-03 7.180126892705951044e-04 -4.762750551520191986e-03 -1.369033949005960850e-02 -1.486481945904389321e-03 9.165878778788893316e-03 1.290288054659915811e-03 -3.715703297219345377e-04 6.318619609305390142e-03 -1.279444879376136386e-03 -2.034188240121793945e-02 1.045264048677562591e-02 -1.149220856117918847e-02 2.987181179527863273e-04 1.448497777045820549e-02 -4.255451171984501665e-03 1.796918756504249648e-02 -2.181768269458881845e-02 1.637984356284419643e-02 3.412360911568011745e-03 8.502816792648155292e-03 5.176191072977452332e-03 3.117310159871840465e-03 1.380901510909758774e-02 4.950092020952353254e-03 1.173227352256169323e-04 -4.684130395249657547e-04 -1.249842841926282477e-02 4.588772406433421283e-03 -5.350159672616363812e-03 2.250171986810837327e-02 4.956995203723180317e-03 2.260237802552527916e-03 -7.528532284357555837e-03 1.371915902965577423e-02 1.388370224532130270e-02 -6.633633842285830383e-03 -1.028640406576345010e-03 2.818906692496511452e-03 -7.648856853479891679e-04 -1.193159348989362642e-03 3.768613027449686272e-03 -1.117927222975943422e-02 2.484716718260317897e-02 -2.809729565507759763e-02 5.052017326913052844e-03 8.821510624600997080e-03 -2.536512712359231814e-05 -9.337464394522960055e-04 -1.066740485702547675e-02 4.275902185325419335e-04 1.099267380930027231e-02 -2.944460742165674882e-02 -6.594084985713280153e-03 -5.807162282416180113e-03 -8.207470201515049135e-03 8.003700032355228616e-04 1.482902932890849818e-02 8.484145416183209651e-03 -1.002518302086409692e-04 1.424939706657951839e-03 -1.488699708758550212e-02 4.897300578470731650e-03 -3.503775570855996793e-04 -1.063846758780707426e-02 3.507095434060720357e-02 -1.087552734782945216e-02 -4.050902933595760917e-03 7.696357001180120262e-03 -1.474846293825491858e-02 7.981220081184686385e-03 1.622186974529826048e-02 -4.055115615032559365e-03 -8.143974572429308820e-03 -3.286159281549717003e-04 -2.867261569673260069e-02 3.823067515005335558e-03 -8.941553932218054140e-03 1.885191616383908447e-02 -2.705988843733659211e-04 1.236294939021928552e-02 2.139559514178265842e-02 1.264163903243806404e-02 1.058036794739567431e-02 -1.326622031273103942e-02 8.441376913745584840e-03 -1.094380749216434601e-03 7.350710047381287145e-03 1.252956800596419056e-02 2.729581357631109123e-02 -8.747498631413472975e-03 5.047716790372143436e-03 -1.319188209701927135e-02 9.634860411477774028e-03 1.329694317405431467e-02 -2.201124411588327098e-02 -1.903220079889537432e-03 1.306058504825493780e-02 -9.325784238625617686e-03 -1.063883655020802892e-02 -9.708467186457533579e-03 7.577069651257565749e-05 -5.799759035144957942e-03 1.781628957626373543e-03 -1.482892644541545721e-02 1.758928341843526673e-03 -2.019222184422094293e-02 2.383868408723361070e-04 6.466840858054467497e-03 -2.763163961013068506e-03 3.386828910725557182e-03 -3.013718431701890854e-02 -1.421908770011125721e-02 6.934769613826686011e-03 -3.965924126905233729e-03 5.656249260490312826e-03 5.497644863601257662e-03 6.619811893444689510e-03 2.068828924728977753e-02 -5.650667061111098663e-03 2.733089778381617152e-02 -5.512851731472288592e-04 -4.059965151793425500e-03 6.340953412619546037e-03 8.686607196864554441e-04 4.054597213363415106e-04 -1.502231594176081739e-03 -8.172123780676348107e-03 1.632193063993753884e-02 -6.909274354111914242e-03 1.789725635963412137e-02 1.031478518425885983e-02 -4.954841855549863353e-03 -4.830983362585457817e-03 -3.971487198346355940e-03 -7.599637138010087098e-03 -3.194735049265162567e-04 1.134625637457371654e-02 -1.379670411853772469e-02 -8.545016311409678322e-03 6.627510516132022623e-04 -7.626407426410811152e-03 1.214709724089362919e-03 1.365551797655563740e-02 4.775642796947707994e-04 -1.583863111191635697e-02 9.832335612028404725e-03 2.136203911817061152e-02 -5.110347908712553448e-03 -2.767203552059890187e-03 6.583317773524260258e-03 -8.469335082806174822e-03 -8.541702328030732760e-05 -1.118198002233916806e-02 -3.549378050947422231e-02 2.722340172857758839e-02 -1.171664344375170259e-02 6.760683356186493465e-04 6.216512859438780986e-03 -5.594674144479034206e-04 2.996963971510738928e-02 -1.022678746590538305e-02 3.453473901268890121e-03 3.347764085938162871e-04 8.509952771003387317e-03 -2.736270037690248860e-02 -5.717189538048390689e-04 7.734961695951300328e-03 1.080877208786713449e-03 4.918171620114687725e-03 3.902863622653540178e-03 -2.969526254816106867e-02 2.650015399571581040e-03 -1.271092827608381057e-03 1.936125651643358370e-02 6.585437352416940657e-03 1.401000383902662599e-02 -1.066559070869039366e-02 -6.079236205042531579e-03 1.185901479852288602e-02 -1.066720783480848422e-02 -9.435528340403521660e-03 -5.262539885245907934e-03 1.596770006082048887e-02 -6.455788333063306600e-03 1.337007459142445023e-02 -8.471693274249340877e-03 9.664891442625452023e-03 8.989687272705304197e-03 -2.884725529649516396e-03 -1.722896293877840962e-02 -2.544448295886826694e-03 -1.979487834470494007e-02 -1.186552721320561013e-03 3.060607062475472189e-03 -4.493176727985525795e-03 8.647247855622375301e-03 -6.569818144073127399e-03 4.216456908093513950e-03 1.085918027633307054e-02 5.077674539724298577e-04 8.812601254574599016e-03 -7.015523865509959781e-03 1.581852067763537314e-03 -1.605934868818136713e-02 -1.083677942724116383e-02 -1.935299581553671239e-04 -3.443231376606307494e-03 4.587289448992986490e-03 1.374832311620326555e-02 5.416649158973660567e-05 1.172077766642153941e-02 6.689175006586780929e-03 -1.177718342367894792e-05 -7.514290199484533785e-03 3.397230642920386415e-03 1.515307507034067622e-02 1.692078772101907047e-02 6.084228236057692609e-04 9.296218665717844321e-04 3.620769708854579445e-03 7.545165543222785709e-03 -1.017614445170535219e-03 -4.569564530006407603e-03 -1.116852194663565251e-02 3.710756468486171682e-03 -2.533525002157306291e-02 -1.319313385923352039e-02 -3.585392754368025257e-03 -1.122935604209917247e-02 -5.404260243970851474e-03 1.015214776310819494e-02 -2.402136882578878585e-02 4.266605434655271548e-03 3.332168085911046441e-03 3.932261791941687838e-03 -2.056821640043208013e-02 -2.058469873170560432e-03 -2.651917716917078643e-02
-3.292814560756415938e-03 -1.060165985107574399e-02 -2.132998510262199346e-03 1.509939367288835183e-02 -1.508055756266793446e-02 -1.548391236309877225e-02 8.156698906859372739e-03 -1.057354037585991717e-02 1.108132704640603025e-02 -3.768791045484568003e-03 -6.442348963674217333e-04 -2.566356541434987662e-04 7.030501630101900976e-03 -3.160047680331511642e-03 -3.357884064485905547e-04 -1.420456171636851582e-02 4.708262329464269619e-03 1.510534045042295076e-02 -1.189220257740478863e-03 -1.113609659637225004e-02 7.654450754898215262e-03 1.045465118957605898e-03 -1.363567248227103186e-02 5.580449657872016758e-04 9.065404115133785315e-03 1.013275965966612194e-02 1.533654768145468637e-03 -1.050795145023754665e-02 -2.130284631301794778e-04 1.406125016867267735e-02 1.996646700798127352e-02 -2.747437484010804669e-03 -8.348759461199905391e-03 1.837869934867131629e-03 7.915198107258662047e-03 -2.178803928032907455e-02 9.333260294015131159e-03 -4.684681121039816626e-03 -1.575520458125972967e-02 -1.552919808927916839e-02 1.458715850321882536e-03 2.523784326915860972e-03 -3.256717168227798997e-03 -2.692184084469816108e-02 -1.810460477308589201e-03 8.910567556574052351e-04 -4.114198078977340627e-03 9.764585288072355138e-03 -1.028414628115809212e-03 2.012449549636772736e-02 -6.340305089771972047e-03 2.160649356873830390e-02 -4.263087306653704639e-04 -1.046557261339635218e-02 -1.620600598258908898e-02 1.283489846638501564e-04 -2.646221560519090160e-02 8.316577106820851120e-03 -1.510485066235105547e-02 1.867714737583844181e-02 5.845632656646365232e-04 1.085451237558027714e-02 -9.802002380553603150e-03 -1.118138754813534710e-02 6.623954021101388472e-03 -1.388730901452197089e-03 -2.235207449091269200e-02 7.045455582114494575e-03 -8.455499392736501307e-03 5.154712387482444230e-03 1.103866164420394883e-02 -1.027336652649043711e-02 7.131574907675982886e-03 -1.168127500147213629e-02 -2.557548847038371501e-02 1.035722173171401035e-02 7.513778876229973598e-03 1.480504616060180322e-02 9.488466254385057377e-03 3.235140619077330696e-03 1.071850928068160055e-02 -5.190534761997252743e-04 -2.684024264988818347e-03 -1.175568285544583216e-02 -1.493305262827644177e-02 -7.731973621569380659e-03 -8.953868815577753146e-03 1.447884725487585955e-02 1.470664466444815063e-02 2.467820296640472512e-03 2.532933746714199387e-03 6.557829694857903249e-03 9.045713855233204065e-03 5.881163382177898719e-03 7.082544812744622983e-05 -3.642453745901823737e-03 -9.981239715400380685e-03 -1.848764664164983390e-02 2.332962148482089701e-02 1.383537234209531418e-02 1.061278906369730358e-02 9.905058733532919740e-03 -2.586853397918696673e-02 3.697987359605045543e-02 -2.334586930764581680e-02 -1.032295054982935133e-02 -7.750880326147013616e-04 -1.429980984508236186e-02 1.425568581830353315e-04 2.156223045129318505e-02 -7.874362262915650390e-03 -1.947493300826291449e-02 1.776105480671457196e-02 2.425188233647492669e-02 1.167989429100207456e-02 1.401203773047395018e-02 -2.564460432864384964e-02 -4.263931423238460222e-04 1.846736710841807155e-03 9.751661205608509828e-04 -1.945881879696254729e-02 -5.597906356175167200e-03 1.525811103503799115e-02 1.085479819160729310e-02 1.176191526517710723e-02 -5.992133632184157635e-03 -4.007507483436301837e-04 7.917963071256174656e-03 -8.480982967200642250e-03 1.051914912802195609e-02 -7.552015490699004897e-04 1.190992749271490431e-02 -2.596275911709035322e-02 -8.415077452365249400e-03 8.847948187033771728e-03 7.997912974975785252e-03 4.138068343587791853e-05 1.412819579590977002e-02 8.341811210374514007e-03 -1.258266823957605775e-03 1.279191128137469394e-02 -1.284980583143067318e-02 -3.937410361926655875e-03 -1.617568493019353945e-02 -2.987790917125976095e-02 1.235115771694974066e-02 -1.175093463632187127e-02 -1.069449154971576464e-02 -2.851397497122607969e-02 1.075881356261885677e-02 1.303406968888039773e-02 -4.893534203085155194e-03 -2.164674769490770867e-02 1.112494032792665441e-02 -2.051043138574172586e-02 -2.451358900969004100e-03 -1.199154785775769557e-03 1.671365659356792432e-02 -9.418354116007970900e-03 3.388214813459234070e-03 9.596670934424872401e-03 -1.388718187395779520e-02 6.255204043976737502e-03 5.079258073576739876e-03 -1.623373682891276343e-02 2.875420006073368430e-03 -1.602012847250429417e-02 4.556962688798263991e-04 7.579285387529157911e-03 -3.080017185454616072e-03 8.324897187794069731e-03 -1.362420600352128508e-03 -1.354576817035181222e-02 -1.503451339839830588e-04 2.723534106651513687e-02 1.540060271251538111e-02 -9.582409484514020984e-03 -2.498560518829883066e-03 -5.102531006750204122e-03 1.356603565422635597e-02 2.880502522781948349e-02 -1.825790044644422586e-03 -5.297921924019071901e-03 -7.852911790675300152e-03 -1.328549360773475900e-02 8.707607692967930454e-03 -2.927538159717437555e-03 -2.713984912404271942e-03 1.323159315099616505e-02 9.986617458977787350e-04 -2.613601854142126937e-03 -2.253231118618664874e-02 6.757767084507705115e-03 5.187760429304378099e-03 1.380558114463261224e-02 8.776960644531126704e-03 -2.016258426225136721e-02 -1.413903877692557383e-02 -8.732681800290905544e-04 1.612050165739459251e-02 1.228584977753579069e-02 -3.915623133711617319e-03 4.613088953616959267e-03 -8.674482098135696470e-03 -8.825990181474582461e-03 8.613664321988267689e-03 -1.463233382968467597e-02 1.565560079996785453e-02 -4.418063335743258133e-04 1.174951460388481972e-02 1.060125865386066235e-02 7.532258400699178708e-04 -5.940456380066680593e-03 8.839529468378948956e-03 1.414697884827186523e-02 -7.811999505311788966e-03 1.856892228775073499e-03 -1.300688288706004954e-02 -1.240438237101883223e-02 -3.256618785343343495e-03 8.210441780889830843e-03 2.483307383185598405e-03 -1.179949166003956863e-02 -1.041815294023905498e-02 -1.055526881531784408e-03 1.035418720124473176e-02 1.315628036072938323e-02 1.189512084455070576e-02 -1.419106044649108556e-02 2.689793640607458791e-03 2.740878506891555183e-03 -1.898404132152869961e-02 -2.523630696112508925e-02 -2.437780598805659726e-02 8.606852638506151069e-04 1.481263918129793787e-03 -7.204661724388300437e-03 -1.637072168140139145e-02 6.545608978001712236e-03 -3.775010242280013410e-03 4.146721892273556170e-04 -1.393168276752232253e-02 2.350628299628093262e-02 1.056360766138091014e-03 -2.044735193755316260e-02 -1.765884688196233537e-02 -4.399583460270527734e-03 9.703863769720707383e-03 5.566002149676107028e-03 -1.949097983629290154e-02 -1.541551054503441029e-02 -1.353001033081175676e-02 1.417547705592180074e-02 -7.744363768606621692e-03 -6.692967435628053999e-04 -1.206487209941426927e-02 -1.361392698327830442e-02 7.730294179200737983e-03 1.405730038047590946e-02 6.637690744217144851e-04 1.927032919442335165e-02 -2.663585346268301790e-03 1.275100665889118169e-02 5.458902814547553824e-04 4.741025447986642848e-03 -6.324716599909572731e-03 -8.106414005780059745e-03 -1.740137524666227889e-03 1.600916395274250281e-02 -7.316899609817635597e-04 -8.560621922257663496e-03 -1.400853255039794659e-02 1.886443034713450448e-03 4.812924586252844555e-03 2.500474503195622249e-04 -5.780465538919942782e-03 8.258322661177642382e-03 -1.476332301259651418e-02 8.796491693232592890e-03 -1.550922501180996248e-02 1.139219534802422482e-02 -2.640996943887510481e-02 5.415914621385768332e-03 1.263944707567868017e-02 2.143825632425028823e-03 7.531422122923368823e-03 -2.134625564386576080e-02 -6.122043617743017953e-04 4.130974660262735909e-03 -7.909060379574077773e-03 -2.936498908953550507e-03 -2.449063354309009150e-02 -1.476166225581824814e-03 -1.188067428557619543e-02 1.418048362067293559e-03 -6.450584455956065097e-03 -1.254815662160448791e-02 7.025321063855572909e-03 1.237511152098711049e-02 3.414484006907213265e-04 -1.349217544062122605e-03 1.507476224494308775e-03 1.122564266934626860e-02 -1.144036411193352643e-02 -4.571703273651510618e-04 8.566972554611897595e-04 -3.294693525958921829e-03 -2.011815063680037763e-02 1.301282069056874111e-03 -1.129168400938855956e-03 -9.128186748064802533e-04 -2.184137045999293841e-04 4.888945427396772930e-03 -2.056260426175415129e-02 -1.875516679234767031e-02 1.322036218714798053e-02 8.038774242063366146e-03 6.382071059049412506e-03 -9.745664681506224086e-03 -7.519198231253436046e-03 -3.779317509855609908e-03
-1.470157775581497697e-02 2.417464335306322015e-03 -3.496689795278728335e-02 9.436276875172708127e-04 2.224004103622440054e-02 4.978523360500348646e-03 -1.481082615791314699e-02 1.663215096425062559e-02 1.430653575546370938e-02 8.581454464476345051e-03 2.655276848381559699e-03 1.109689812810828007e-02 -1.454191415447325924e-03 -6.783129044456853718e-05 2.408660415049290043e-04 -2.574527433860653199e-03 -7.796300689099039047e-03 -1.130545065860949668e-02 -6.963493353783070834e-03 5.956043247674165306e-03 -8.641510511844526649e-03 -1.349719309998561462e-02 -2.826809858127290152e-03 6.043424878148353878e-03 1.740252430726999932e-03 -1.512959873388172250e-03 -1.207872799265264502e-02 3.000645981580719185e-03 9.840019254426582429e-04 9.650667282112345563e-03 -1.021198126325230209e-02 -8.816500858743575933e-03 4.568326688918426370e-04 3.230729722289282096e-03 1.546423160940165950e-02 -1.177459930090108201e-02 3.345178930807891568e-03 1.667571276252100346e-02 -3.646755979888685606e-04 1.748112280587298204e-03 9.492002409241541080e-03 -9.437181044611922878e-03 -1.506438036330081179e-02 4.524056735200822788e-04 -1.491403756787465507e-02 -2.703865695874649311e-04 -1.411938708093356254e-02 -3.030009059757319927e-03 -3.021947723132635891e-03 6.476485673298377696e-03 -2.861567350896109668e-02 1.460974561314069093e-03 1.334718898895649944e-02 2.813582299302058720e-02 1.915115184372872398e-02 -7.604712123041768197e-03 1.046918081164936731e-02 -4.593039565516817552e-03 -1.175015226539607993e-03 4.364567353196568966e-03 -1.102127446873961934e-03 -9.247120099197017953e-03 -2.113001365857093087e-04 -3.223358868050494458e-02 -2.962144058671192792e-03 1.450826114999359366e-02 -5.232616671097528940e-03 1.254746069027726230e-02 -1.658052636390044271e-02 5.364893455462791099e-04 1.145286428935319255e-02 -9.442040222986069348e-03 -6.073888314411595227e-03 -2.393102177949802886e-02 1.605357198031956249e-04 -5.556808503729644688e-03 -3.605578590212626944e-03 1.149843627670551691e-02 1.278410998603491180e-02 1.363601578090309699e-02 -2.088311044624368250e-03 1.106215201344034477e-02 7.698714277917851657e-03 2.033304887206434288e-04 -3.879915820548466253e-03 1.689574051667535118e-02 1.045033497538050936e-02 -7.613103400995907023e-04 -3.490083209804631728e-05 3.636634659787631781e-03 -8.692572816595186408e-05 -6.622720171589525917e-03 7.790941999878636497e-03 2.751618864072697453e-04 -4.534819017097103944e-03 7.814445574307835388e-03 4.751224990841429810e-03 -6.744861195988952063e-03 -1.788766962821022530e-02 -1.677660586037637343e-03 -2.607233461703636727e-05 -1.779387419893378730e-02 -3.674169320408303754e-03 -7.665761126601194041e-03 1.510828013443281208e-02 -8.830245968240280074e-03 -7.774655317176904640e-03 -6.298886902425753333e-04 -7.028250211502194006e-05 -1.840087762501864399e-02 5.101293800418594052e-03 3.433980798805814569e-03 4.500355663363953332e-03 1.393144863047757372e-02 -1.430473297636328592e-03 1.587147750852263518e-03 3.397768708487016679e-03 8.583435419031702068e-03 -1.642033204584450456e-02 2.091832356739153215e-02 6.003773825679009982e-05 -1.400952922279918161e-02 2.882550745570651093e-02 -1.926294692400196129e-02 -1.408648394190459112e-03 -4.196534185671632611e-03 -1.085941580292731825e-03 -7.891679482261011042e-03 1.080050649830122805e-02 4.104175436072225042e-03 1.258174260401548859e-02 -1.400659307783403383e-02 1.307846826105054337e-02 1.468037500955068041e-02 1.117037547462302032e-03 9.448765235087394892e-04 -2.404583467559423537e-02 -5.711874912250212901e-04 1.285509334451628675e-02 1.432310873301283205e-02 1.125250842612583388e-02 -6.652616060944348611e-03 2.538484783238293546e-02 -5.268929819622604482e-03 -9.160112949385283698e-03 -6.046605559796889434e-03 6.320384693038010732e-03 -9.231424500190949650e-03 -1.579384130014331589e-02 1.508674730252109429e-02 -1.440008869202426441e-02 -1.839745268358320904e-02 -4.235650573630012072e-03 -6.706752496697405280e-03 9.352042645785765222e-04 -7.230967091594137260e-03 -1.443894833872102698e-02 8.615291828594820109e-03 -1.048601846759653847e-03 4.257497548319577087e-03 3.551623285390495544e-02 1.024928099336288971e-02 1.666259814531128453e-02 -1.202236997364447297e-03 8.705532005152238212e-03 -1.458127664772424642e-03 -1.108301357980457508e-02 3.011288581119788560e-03 6.855806963827797834e-03 1.411808223722652023e-02 -8.931883488558944872e-03 -1.225565181773090317e-02 -1.194853480803281104e-02 -1.030410830261878699e-02 1.470575400810497299e-02 -5.773687037829650440e-03 1.724662550888550472e-02 -9.250436224204384994e-04 4.097699857356943039e-03 -1.849013937480773959e-02 -3.553041392851674640e-04 -8.454350458474237107e-03 7.324311477516626950e-03 -1.204045713496503835e-02 2.031470795005423102e-02 -1.185590766241520662e-02 -5.735059025095233867e-03 1.160834410584459138e-02 3.216018660974144516e-03 6.784882812338665845e-03 1.661754126382374280e-03 -9.812748729732016176e-04 3.799313696033006314e-03 2.204184132807905649e-02 2.532173276625525413e-03 -1.104477720956699958e-02 8.565762186239994982e-05 -7.239001566589945216e-03 -1.491326483146397479e-02 4.309915085340067144e-04 2.037343952165390770e-02 -1.956889878124488599e-02 3.393468514573905366e-03 -1.524171411233943285e-02 -1.980985598038402865e-03 1.367777203939621626e-03 -5.553172008619764073e-03 7.572799326218473959e-04 4.611904112327130240e-03 1.563882050705511090e-02 9.305273419550098846e-03 -1.303859181775724775e-02 -1.955302117280633897e-03 9.222502659383579465e-03 3.792555094033872240e-03 1.619876032991362375e-02 1.312248171198304551e-02 -4.382485373347043585e-03 -4.772426092059577594e-03 2.902292184034960774e-03 -4.072255581782391679e-03 1.301172023885331999e-02 -3.227411038288772668e-03 -1.062392631715281845e-02 1.378418402953135967e-02 1.086461828451910580e-04 1.830169865813659029e-04 1.076466566109269760e-02 -5.366414544065460559e-04 -6.375021462938705412e-03 3.455061450857239286e-03 -9.469318728730304405e-03 1.646306406792668502e-03 -8.733547214425972996e-03 5.807069594889135121e-03 -4.895317971657581809e-04 -1.511767965387181018e-03 -7.664124467301327648e-04 -5.134861537903687850e-03 2.574770322757000910e-03 -1.457292959016851658e-02 1.322164017647540568e-03 1.236414174511988456e-02 2.372738010643510309e-02 5.849710473396759012e-04 -1.058083405999746263e-02 8.754552133806202743e-03 -2.340766464655969631e-02 -1.546999221078650642e-02 -7.934698425169112168e-03 2.157425994321212140e-02 -1.188703696599737424e-02 -7.714872332910068659e-03 -1.592858438926892176e-02 -8.703799368257698552e-03 -1.120409336832556974e-02 -9.973566699827098730e-03 -1.229187994732427666e-02 -9.761169490923060979e-03 -1.635245484830162577e-02 -9.952383848150973475e-03 -1.489385589844078976e-02 -7.661399157921599569e-03 1.627886020374401041e-02 7.036247718992417067e-04 5.628460182024940320e-03 1.478651709069975576e-02 1.197506279574104410e-02 4.300899646606833569e-03 1.083809570606581547e-03 1.918037896041818692e-03 -5.779711917876837780e-03 1.207697223791114743e-02 4.213427381666382150e-03 -3.536824568671955923e-03 2.505261422126424040e-02 1.113619559829810875e-02 1.909557626247705003e-02 2.030502045901910399e-02 -1.292650440170337554e-02 1.285421916112168203e-02 -1.173939653405551078e-02 -3.828432246194118146e-03 -3.365510223217314106e-02 9.952741773850708532e-03 -6.774518776389252574e-03 2.766864767749791214e-03 1.596667470812850043e-02 1.301204791864946260e-02 6.245943625836089010e-03 -2.440154956155199655e-03 1.916739112564505923e-02 1.775699970207265596e-03 1.314280946056444258e-02 4.481209913712728629e-03 1.014691982244668271e-02 -2.002040113223545192e-03 9.757002490611513951e-03 -5.310374714974068315e-03 -4.027530327161093875e-04 -1.251539148800745807e-02 1.519864783256480445e-02 1.543948948076922590e-03 1.010520303622393368e-02 7.821208596391234641e-03 -2.311892893804993673e-02 -3.114481627754748898e-03 -1.241288122762015944e-03 6.574743501157668396e-03 2.637434394383898068e-03 -1.477627208496395082e-02 1.455572489036967418e-03 -1.253836458916037476e-03 -4.493251961864428573e-03 -8.134153388104144178e-03 8.732446042037503298e-03 1.142214594950083893e-02 8.464120994844689591e-03 -9.297552401832675367e-03 1.017085265442884941e-03 1.211764671793822551e-02
