-1.361034082677330614e+00 2.743839401946230883e-01 -1.994312166694676980e-01 -4.822603961372727843e-01 -1.131729270873172100e+00 1.237235487918701415e-01 2.301288402648367093e-01 -4.897966784957418773e-01 3.778258170174506603e-01
-1.232483675596860173e-01 1.942861279539839225e-01 9.215108383614748488e-01 5.782652785763214842e-01 9.564452677476116549e-02 3.527209573193100800e-01 1.455838681324350681e-02 4.337287416035187637e-02 -1.234819498315648412e+00
3.327806937173325430e-01 9.299923907514374699e-01 -5.210376950158325249e-01 7.432776125351809871e-01 -7.107489819009483734e-01 -3.482988022880056378e-01 -8.134212168267226373e-01 -2.077172216596250287e-01 4.730624556410129022e-01
-3.714713687436676515e-01 -3.187911821904627629e-01 3.565272430380597157e-01 -7.327618390219053923e-01 -7.154094196966928054e-01 4.521480369241533404e-01 1.411007757014398845e+00 -9.135240587486350705e-01 -1.072818904913626525e+00
-7.569154104083375412e-01 1.373664921980046305e+00 -9.917156281075802937e-01 2.786625606825921531e-01 -1.325784022174359089e+00 -7.208609840183100026e-01 1.750766059714870426e+00 -1.061869941673434958e+00 -4.079665882985908376e-02
8.386618380020729457e-01 7.223912196051576196e-01 3.002347481182788269e-01 -5.305491259762968870e-01 5.176512580096017668e-01 -1.380112282530885359e-01 -4.136149097501720107e-01 -7.675977470675222625e-01 -4.457585356740324523e-01
4.623200325313788217e-01 6.283264887732660231e-01 9.523280113110335066e-01 -1.108081368337529238e+00 4.889639123481729910e-01 1.016762670824648662e+00 2.455390802197759126e-01 1.907113132365201302e-01 2.011220189601576891e-01
1.822038142420294993e-01 -4.630194283941889422e-02 -1.145646729950884124e+00 -8.635555152198499673e-01 4.014407134498972907e-01 1.074455747596093191e+00 3.056574934339348348e-01 1.258572256867647454e-01 2.216268333586141892e-01
5.325992777921711996e-02 -3.756478687784092774e-02 1.474583919862848091e+00 6.351215969722000532e-01 1.048817989055549571e+00 -3.942952823520995964e-01 -1.059326395342022442e+00 -6.353633539195888691e-01 8.587136873309519913e-01
