1.368159873503082880e+00 -1.503509133319888669e+00 -7.026692062456084464e+00 -2.943502734614876992e+00 4.353425233105146397e+00 5.758838101591752690e+00 3.868457765574861096e+00 -1.056281357627107509e+00 3.236914371887417374e+00 6.898480949785821270e-01 -3.908928304843421575e+00 3.622691627815316284e+00 5.460345047316991440e+00 -5.324576684535201387e+00 -4.644630800054930120e+00 6.544575399821983552e+00 -6.229152095076435636e+00 -4.793001956124010476e+00 -5.056975957165353641e+00 7.059228882278156370e+00 -5.230590705130020446e+00 -2.323988465727200747e+00 -4.248416265256062196e+00 -1.439835470435548936e+00 -2.216190062014704587e+00 -5.809617847769256826e+00 4.476883184545377148e-01 -7.278697555357864779e-01 3.579196083069394185e-02 6.126728238588534659e+00 -4.631329458640262686e+00 4.863066799518350969e+00 2.468737539137096704e+00 -5.252227049737120401e-01 6.793173424337268784e+00 -5.780969837890022056e+00 -5.853260755911185775e+00 -2.633890465860198482e+00 -4.012003753634678649e-01 3.053780110296444139e+00 5.861197202503387160e+00 -1.774589832164946035e+00 -3.840655903577792962e+00 -1.967833161242597440e+00 -2.041450663391541465e+00 3.084908133590838375e+00 3.376248381311551583e+00 -2.767367832836809538e-01 -3.222431733420418443e+00 -5.495374523980460779e+00 -4.821541237138113889e-01 -5.130598101191585769e+00 -1.001675531488834592e+00 6.449728629285614190e+00 -6.647645340254277002e+00 2.891879106687925916e+00 -5.103935812661751781e-01 -6.775349246085277111e-01 -5.544930208254249315e+00 -2.526759171387389369e+00 -6.046608644677644584e+00 6.347705110662253070e+00 -2.151904583367515666e+00 -3.023863804201310401e+00 -3.973766530319600587e+00 1.867982314688974910e+00 1.330709457629686288e+00 1.708186289357373489e-01 -5.726285536317223368e+00 -1.081897087585568684e+00 -6.619300558358736097e+00 2.234280548895543728e+00 -2.563019853435558382e+00 3.070486036923016471e+00 3.622200862985667680e+00 3.596722452668304815e+00 -4.875536696370378564e+00 -6.497785641684008517e+00 5.843599060877844309e+00 -6.553157402694409939e+00 3.474016299285271447e+00 -4.260746584565850092e+00 5.064716020491863091e+00 4.673586731220122026e+00 -6.230089602940219073e+00 1.073864650764877693e+00 6.375971293097185466e+00 -5.787892342507576782e-01 4.407969007021195651e+00 6.612909382943715997e+00 2.743979666128796069e+00 2.733075463011949591e+00 -1.928537396794015368e+00 -6.995611807518240965e+00 -8.677499048358852107e-01 -6.733178251985520113e+00 2.550768089081251411e+00 5.249433934847608896e+00 -1.202847866405640564e+00 4.844773828862479093e+00 -3.955314400742758973e+00 1.311640155748071024e+00 -9.241552793239947716e-01 2.127667952216494740e+00 7.158612177830844914e+00 -2.980340413831798152e+00 7.507094071358139109e-01 -5.167241265546491213e+00 5.358616994854690674e+00 3.852192951525061471e+00 2.045166969542282498e+00 4.369286243062236785e+00 6.172732928012088394e+00 6.804541000997612166e+00 -6.499079501945155712e+00 -3.121074586054212396e+00 -4.226019922027138165e+00 6.455621156456481380e+00 -1.157691676642562673e+00 -2.611613127386752442e+00 1.260972369454146813e+00 -2.079159717458613610e+00 -1.335805457980193012e+00 -5.015417521361063891e+00 -5.916386325705383697e+00 3.403212658547612346e+00 -3.138826516727905247e+00 1.438857578828884431e+00 3.329625833698797610e+00 7.643123359162524721e-01 6.101950936175462026e-01 4.062250796803031250e+00 -4.771567372149031705e+00 2.169050572312097191e+00 -3.481353767632632490e+00 1.808315109910992868e+00 -3.577532262137524732e+00 4.288683152768085982e+00 -4.988843504602516354e+00 6.768214837087934477e+00 5.343794805041921947e+00 -1.469608035193338713e+00 1.654338998545813011e+00 6.868521249487399061e+00 -1.163722010314433897e+00 -9.725847582718517570e-01 -8.724711211743962913e-01 -4.849350521396041391e-01 -1.814028704344332832e+00 -6.642993649878960127e+00 6.711053603984631799e+00 -2.596248722328840852e+00 4.710497256025427681e+00 2.822637659979100544e+00 2.589562125464560882e+00 -5.700256797792261493e-02 -3.428258120697690536e+00 4.287243124900958158e+00 -1.140694733673580874e+00 -1.025498919965939226e+00 -6.115481908599201155e+00 -7.113419389456210773e+00 -7.405333392912672938e-03 -4.984696477768421730e+00 5.766970801562724347e+00 -5.729709719417018121e+00 -3.133656914922315018e+00 3.290822651157171208e+00 4.540935065504974610e-01 -2.850475999479305855e+00 -5.395867537759460042e+00 2.985503787072828263e+00 -2.783924254850777213e+00 -3.407988803165404867e-01 -4.405091234028416736e+00 -3.863762977340718496e+00 -6.532049310541511167e-01 7.054328472450515086e+00 2.451463836965702470e+00 -2.326165323653294426e+00 9.519415653001305211e-01 5.644889115418486591e-01 -5.533024069303733583e+00 4.616722157482824884e-01 5.729882914941489602e+00 -2.536988040534707611e+00 4.044740545876410742e+00 -4.820378716699475596e+00 -6.132100951623109530e+00 -6.258736579085847573e+00 6.784549198929552105e+00 4.188315474500225122e+00 3.176866098327827181e+00 -1.073430082881566827e+00 -7.049490885396533457e+00 2.048709618067655835e+00 -2.782329330895325636e+00 5.725746979218882871e+00 -4.944022873896231296e+00 -9.443041960362481557e-01 6.575323451724547574e+00 4.457710545734271612e+00 -6.663243827128060293e-01 6.736125776435157420e+00 -2.799776080821090751e+00 -5.322547066872388655e+00
-3.002656665173052186e+00 9.131663408636780943e-01 4.278439066757981912e-01 2.669444556776907174e+00 3.511398588013523003e+00 -4.247538231093753502e+00 5.236782175695077868e+00 -4.548962808059115126e+00 -8.744045232130954748e-01 4.749318519481504630e+00 -5.318487089286167979e-01 2.678608285337883199e+00 5.510271422478433934e+00 3.143207279897316742e+00 4.795631118704870133e+00 -1.271741664707058295e+00 -3.164610112451826218e+00 -6.718200245532458759e+00 -2.130429006844927753e-01 7.041396013811152876e+00 1.676371246216485367e-01 3.707322903709682649e+00 -1.941413444754124029e+00 -5.018424847294632229e+00 8.814866411654632694e-01 4.176559242667679861e+00 2.670240251653421826e+00 -2.722753594682082223e+00 5.098363675295040309e+00 4.882339826997723620e+00 6.827027762961416002e+00 -3.411171802661345787e-01 -1.729756852608793860e+00 1.178984558585879805e+00 4.145203986540016317e+00 2.769734549794184542e+00 5.651516316583965471e-01 -6.590208374542060987e+00 -4.437692319647817740e+00 -1.797750202156090271e+00 7.080731614045174815e+00 5.020844376306915713e+00 -4.849292344922086606e+00 -2.317892899009725838e+00 -6.850958847870863844e-01 -2.763020483890662238e+00 4.205642914039453117e+00 -1.522821698194120721e+00 7.108759382013118078e+00 6.039220460781884903e+00 -8.891475069292054112e-01 -1.759212253784993851e-01 1.161332894024440732e+00 -6.661927524392199373e+00 2.657954607636769384e-01 5.021388193827234225e+00 5.804439032207897586e-01 -7.414982672269403441e-01 4.464197362875294672e+00 4.353400627715042326e+00 2.099989599031335530e+00 -6.346761816282730173e+00 -6.929924675036170711e+00 7.056379593193165434e+00 5.700917673203442781e+00 5.247612396907976873e+00 -2.158863992174186563e+00 -9.879546994965355822e-01 -5.897036850583844192e+00 -1.813375152023541492e+00 -3.481719288121435607e+00 -1.589194926580792977e+00 2.684280396189616447e+00 -1.779394580109575186e+00 -6.829566736650875214e+00 5.596142323564569310e+00 7.701004839801425250e-01 -6.295122436674323474e+00 -2.356448552012275321e+00 1.160419520551877470e+00 -6.087982013377264856e+00 4.181978290729323255e+00 2.191693154899435392e+00 2.976376218099138438e+00 -6.540355740847828336e+00 6.283552257623341575e-01 4.366172937744956961e+00 4.884851125055822862e+00 -6.586809336834923201e+00 -3.785330792973184089e+00 -4.337591763596746475e+00 -1.119648249088049052e+00 -5.170646812166705075e+00 -5.323668132889822324e+00 1.967101867755593148e+00 3.975954249658208983e+00 2.552932695224832127e+00 -2.497175518228198499e+00 -4.352134217487591883e+00 3.842629958952373581e+00 6.646096234958291937e+00 -9.481899272624753072e-01 -8.555576465381273810e-01 -6.559508551503715701e+00 7.097767902065054813e+00 -3.442849029634528879e+00 -1.703840961670196816e-02 -3.930193020578190755e+00 2.250089236824242556e-01 3.442317417545149638e+00 -3.471777872919081354e+00 4.903280984424770672e+00 -9.643284199184222194e-01 4.276253900704078958e+00 -5.868000229854840377e+00 4.873406697171374646e-01 5.194862330123035221e+00 -6.722338696906538402e+00 4.958822113303472889e+00 4.547585299299042205e+00 -1.661788616166298915e+00 -5.405965035598673474e+00 -5.258363741129429947e+00 1.517708705340569120e+00 1.469219534551517992e+00 7.069240271260257558e+00 -6.841476833896383170e+00 4.037504050993037552e+00 -8.288387283613400935e-01 1.316322319937337282e+00 -2.918102698541165552e+00 3.126409945375824950e+00 6.758678035219976010e+00 2.208064676950951544e+00 3.314848842500762505e+00 -3.401532823714403353e+00 6.113469897440231726e+00 -4.514908143761409143e+00 7.839610757871383617e-01 5.440660074126674850e+00 -4.850146459213092953e+00 -6.186520441948343496e+00 -8.958171361942401933e-01 5.424364495281356113e+00 2.784758391873478178e+00 4.503942831529365698e+00 -4.916868264104906849e+00 3.073513124275642827e+00 -5.217604615584781058e+00 -3.746636598388249695e+00 3.956104518878956089e+00 4.464199859235884915e+00 4.660430185056707586e+00 -5.185884618394106305e+00 3.896134594255447059e+00 -6.230349455272409465e+00 -7.017018016387199353e+00 -3.304238094823011007e+00 -4.407237426938224623e+00 5.959940620537723888e+00 -4.606217100757390881e+00 -4.370345491591511866e+00 -3.628110299160935526e+00 -1.541359462018077719e+00 -2.138356594747170547e-01 -1.432719047583813854e+00 -4.202236960335197224e+00 2.808322049102414120e+00 1.934614582931588389e+00 4.247389041409181054e+00 -5.986494988362556224e-01 -5.355025053937946256e-01 -2.028659372854802800e+00 -2.373013731034749885e+00 6.619314706497112510e+00 -7.017984773809340382e+00 -3.289842929830649965e+00 -2.639338028686959992e-01 3.441019129961056411e+00 5.626252640774120017e+00 -3.191886323891080401e+00 5.965945635618338017e+00 -3.022213909189007008e+00 2.624611939843719099e+00 7.066621669611635959e+00 8.275614542571858856e-02 -3.373640031180535903e-01 2.879882081241438296e+00 -3.478361103502767282e+00 1.219876510734624775e+00 3.852462937080829430e+00 1.858440009560791140e+00 3.314037248862758300e+00 -2.553775408671990821e+00 -7.071698704056270657e+00 5.254558005494338602e-01 -6.153151108686697235e+00 -3.870570219652143540e-01 3.946540451468610655e+00 -3.583084880991098675e+00 2.947134725050723159e+00 3.124751932275643629e+00 -4.706465410812780803e+00 -4.711331330241237403e+00 2.648610523348774226e+00 4.196021669996834014e+00
6.959360828910573504e-01 4.833522581375694571e+00 5.603282762500537473e+00 -1.632175540387378776e+00 2.575176945677181362e+00 -7.066804126333945391e+00 7.013518598354900213e+00 -3.722727936796030423e+00 -4.031824288137544343e+00 3.419520842538463334e+00 -4.754310060195616749e+00 4.142130385481210375e+00 -2.871480528694551726e+00 -1.774804073845773766e+00 2.789242806183336310e+00 -3.229109156057936580e+00 4.250950531805210986e+00 4.181675352709530280e+00 8.989073859061453842e-01 6.587124106210515251e+00 3.774823198375926836e+00 -2.592044500585544586e+00 -3.355702062299533495e+00 2.798384305147915363e+00 3.659386022136546401e+00 2.720614749526849341e+00 5.634164721068652959e+00 5.960027074308428041e+00 2.038811712665926645e+00 4.633221321909881674e+00 -7.032006326812304309e+00 -2.261391597336130488e+00 2.788320350313498341e+00 -4.702086631040101494e+00 3.009347122234507399e+00 2.282479336896790389e+00 4.333138715430012056e+00 5.462049330303297978e+00 4.310117553401031643e+00 5.418144983071141452e-01 -5.542184544046392602e+00 1.674452614647847559e+00 1.563606782684497709e+00 -2.372241320566805367e+00 3.387939076007318029e+00 -4.482847728636677687e+00 -4.226716087443528336e-01 -5.093182672633727037e+00 -1.564286523045682609e+00 -4.571241168401026123e+00 4.905536891079072953e-02 5.117031153570360757e+00 -2.984496221552694895e-01 2.980023158879368417e+00 3.544782510415281251e+00 4.836407809258586710e+00 -1.355549541136255698e+00 2.441511073127710318e+00 -5.140332745265980829e-01 -5.677123942276502078e+00 -1.116487027774357710e+00 -7.366345591461849196e-01 -1.330048478656747468e+00 9.657959778846486598e-02 -4.443649458383754691e+00 6.389019680427916015e+00 -6.916807416359071148e+00 -6.802599885742757202e+00 4.540472862501252038e+00 -4.502284222321709883e+00 -3.164325900507209521e+00 4.842769942287979745e+00 -2.207595471598311043e+00 -8.504990253942215084e-01 1.201344897566569259e+00 -6.788611458631240714e-01 1.109150335122009112e+00 -3.471459984643896490e+00 -3.679928594122961805e+00 7.084869024539319327e+00 1.564866118469582901e+00 4.031929605603719935e+00 -6.419671460372887495e+00 6.389956059977658143e+00 6.640288220383420814e+00 9.090953478508020380e-01 -1.485149612487304260e+00 3.353075679997158609e+00 -5.972076276421239172e+00 3.053834563274715475e+00 -8.118506826094946671e-01 2.961025912564668516e+00 -5.220040835291463566e+00 6.191424296497066493e+00 -4.902065641250610284e+00 -6.399323282716665950e+00 2.350663367069611986e+00 6.980294164635785226e-01 7.592086234191236516e-01 -8.851141086622730247e-01 -9.438657953290162661e-01 -4.556953197549450385e-01 -6.961921437579889016e+00 4.723528046986193552e+00 4.819398864109955660e+00 1.606171651844801707e+00 1.096239881005623001e-01 -3.475568207191565007e-01 -6.602462698114374362e+00 -1.389577948884430425e+00 -5.513141024629274689e+00 -4.849456115847643883e-02 -1.639877616405771843e-01 -1.115329459515289168e+00 6.130282288057308016e+00 -5.609208768289152047e+00 6.346941602180359299e-01 4.085670596731202586e+00 -6.079124499079367361e+00 4.348246623254865106e+00 -1.114753451700317033e+00 4.526517017051344460e+00 6.562220467916582756e+00 3.558068191776565525e-01 -3.949902886709343863e-01 -5.503982082448131585e+00 -4.090689474450862839e+00 -5.971801001227880157e+00 1.105953981058540037e-01 6.934028738843824868e-01 4.249687658581589922e+00 1.099451163996396641e+00 6.661957922913162911e+00 -7.168563941764362291e+00 -5.544119869657333943e+00 -6.915787577350128446e-02 -6.914871461776708195e+00 -1.307204153037456518e+00 1.125613959957441512e+00 3.892038774367722720e+00 -2.170391497445168572e+00 -3.936424550545685630e+00 5.192889860448312689e+00 -3.476342059904669490e+00 -5.171813328775352936e+00 7.051619028892677221e+00 6.769390406089097034e+00 4.216324123534779034e+00 4.200163319111087645e+00 8.695322434963510538e-01 -3.506421141057469271e+00 5.200247286536544777e+00 -5.386250243599138621e+00 2.203010918306581023e-01 7.931732004590755780e-01 -4.980333334800127076e+00 1.552472443086587273e+00 1.488856859065910976e-01 -1.855448829680482081e+00 -5.737218297498135833e+00 -2.354239925164773428e+00 2.779151303987985600e+00 7.172624395521678409e+00 2.443159648982204502e+00 1.520739839378819402e+00 -9.285092556591834079e-01 4.167332316272974069e+00 -2.176399394499800022e-01 4.674271230696283475e+00 -3.527767015348565849e+00 -4.497435392884834293e+00 3.095313929208776127e+00 3.008334739317544138e+00 -6.782119107632180288e+00 6.641002192088012457e+00 -1.244557542623051294e+00 8.441747541776714603e-02 6.899294887463541137e+00 -5.415636394681161647e+00 9.065015962596819632e-01 -3.828317146459517595e+00 6.727371795770716645e+00 -4.361476907420088978e+00 1.614968663025009576e-01 4.019804204255144064e+00 6.085711997518544969e+00 -3.870817563701575814e+00 3.389897040459537991e-01 -2.150467934716484120e+00 -2.678314756398294527e+00 -2.105802763955006984e+00 -4.529341807046459500e+00 5.873319813699939829e+00 5.745812053532943331e+00 -6.035014486961777891e+00 1.870123527886492276e+00 -1.429059386828261502e+00 -6.908953507815259520e+00 6.181391352011322837e+00 2.592999377076762091e+00 -4.809515893133118336e-01 -5.575685342453089888e+00 -5.582418254988494866e+00 2.935626502891462764e+00 -4.308606963606087525e+00 -1.396546651923178839e+00
5.578877080123921139e+00 4.751951436306155685e+00 3.367916462106701037e+00 -1.655198385889875334e+00 -2.151207748528613184e+00 -5.753312668150431186e+00 -3.232229923094648516e+00 4.508490723573764569e+00 -3.275312414853343235e+00 3.921227646102134479e-01 1.774951146978629879e+00 3.070838282255520912e+00 -6.677449849028858964e+00 6.500678550196776762e+00 -7.992454461741959060e-01 1.950277602547718203e+00 -4.215133089608208650e+00 2.626669186578247106e-01 4.997334205441298138e+00 -5.443551979905574711e+00 6.870869408535187794e+00 -4.748873576329555313e+00 6.795746209362266477e+00 -1.332462248387875858e+00 -4.574722266733314946e+00 3.200914907543418675e+00 -5.165903626493592249e+00 -1.621722487054867878e+00 5.624813022891817837e+00 -2.639103526438234759e+00 1.618724295419807779e+00 9.135574740123060256e-01 -6.949679895836482046e+00 -4.983920574490412925e+00 -5.108486389857970877e+00 -8.942591195739822973e-01 2.028077535208024251e+00 -4.327132782362305363e+00 -5.528794233459175089e+00 -3.108198136061428141e+00 -5.363160969904655850e+00 6.883120167186302929e+00 -7.145650138214167946e+00 6.586914125076959614e+00 5.872848940455019928e+00 -9.698737418256699050e-02 6.705390388201019292e+00 3.749884106740819512e+00 2.306233723838349015e+00 -6.634427686457763151e+00 -4.361868467231478697e+00 6.993037393846807781e+00 -2.073563902648970281e+00 -2.313306942715145365e+00 5.767332023046493283e+00 3.725394129570837709e+00 3.034335596121236822e+00 1.490828784883500902e+00 2.003142863383172045e+00 3.852020384122682994e+00 -3.404721730983807593e+00 5.892024694562032039e+00 -2.022165172966986724e+00 2.251608535259735255e+00 -5.611904050567379620e+00 -5.408605497746528989e+00 -5.334464494515267496e+00 4.309566245160069364e+00 3.341845718023827239e+00 1.468692323990552717e+00 -6.962570667938709157e+00 -2.355444962034262346e+00 -3.818681696461037056e+00 4.618233673455298671e+00 -3.245529321029960723e+00 5.044261371876951117e+00 -2.829629473903439774e+00 6.290962253483234790e+00 4.787750550936671345e+00 -5.283416124586227669e-01 -1.860141027915024114e+00 2.320174580268246523e+00 -2.184041799295827424e+00 -1.226870970527646820e+00 -5.979040769548397138e-01 2.415151330669434326e+00 -4.449053927688323640e+00 6.288321537883517998e+00 1.046781290865821168e+00 -6.211292503938595999e+00 -1.616740934552586051e+00 4.347822618945967221e+00 2.127107508192347840e+00 5.883634951465054108e+00 -6.351683535328541907e+00 -3.865972715906035528e+00 -3.684139623374709682e+00 -5.775883120226895429e+00 -5.026282065344374494e+00 -2.157592682347738489e+00 4.506285630108190610e+00 4.190276215031385476e+00 1.865191099354605475e+00 -5.273224932788139974e+00 -5.923651749419533097e+00 7.081895974175471231e+00 -3.805049580487795069e+00 1.884270708040749698e+00 3.924855331538957159e+00 -5.691204823581559324e+00 2.265097510422044991e+00 1.687821141549560089e+00 -1.914516648023452117e+00 1.524897539874640717e+00 1.826286576412244456e+00 4.354496848294306943e+00 2.226943544366700653e-02 -7.989168289000979639e-01 2.524485106397493794e+00 -1.480740783764915802e+00 4.756942653726972559e+00 3.065565428089885636e+00 2.776659898624388667e+00 -1.215494448667734151e+00 5.440561765274510186e+00 1.494998520663136432e+00 -5.709102908649637875e+00 -1.407140711338976002e+00 5.149017859605883984e+00 -3.481590927045427275e+00 1.685947723740695681e+00 -3.289047285215450367e-02 7.158934244084097509e-01 -6.320428532031871605e+00 -6.489778082923383096e-01 -3.779601407536190116e+00 6.853620328758657898e+00 5.625185823163986854e+00 -3.273594223425768668e-01 -2.544902200671484316e+00 -4.428530439477912140e+00 -2.167969135638306177e+00 7.073689311201509788e+00 -2.265018527093829892e+00 5.558816268103531577e+00 3.731524629713339980e+00 -1.732099220491589264e+00 5.865586678844054269e+00 6.193335612506864152e+00 1.784449305701715893e+00 1.516766020014319594e+00 -7.119316713467316760e+00 -4.224172290945205965e+00 -1.655393241364430945e-01 -5.601970575863530755e+00 -2.328255941441917720e+00 5.785359660841594476e+00 -3.644941509007256997e+00 -2.762044255490169853e+00 -2.700374772030097237e+00 6.699482756011500229e+00 -5.873248209642133233e+00 -7.103810021738864444e-01 -4.611203338195885237e+00 -7.087193452095562340e-02 -4.336422216426443654e+00 -6.313959560191255704e+00 -1.628270742766711798e+00 6.298458856444038467e+00 6.477790524472564648e+00 5.477858652214743218e-01 6.903287039409424786e+00 -6.173619005015528849e+00 2.488001150015547669e+00 5.353720900559025608e+00 -6.037378358712372162e+00 1.636017339296701678e+00 -5.324132583777631211e+00 9.176233006509856294e-01 3.679736322026306627e+00 -3.659550269477787499e+00 1.754100095788857283e+00 -4.745530732705333321e+00 -1.059279372579098544e+00 4.018737771736184961e+00 8.023943466188043772e-02 -7.172963818760131893e+00 -9.954533254412285537e-01 -5.119643125482350676e+00 1.115366463882054182e+00 -3.217894153370579158e+00 4.585196533477851610e-01 -2.423441771083363783e+00 -6.054092570381213179e+00 -1.204744917981832864e-01 -4.441785290494033589e+00 5.275978392256841509e-01 1.899046728987841437e+00 2.166362624251674696e+00 4.136437919654468054e+00 -6.326649412908021963e-01 4.414947060165389736e+00 -4.017860472721708653e+00 -6.217411999488694496e-01 5.421546718921299579e+00 -2.980908035619768803e+00
6.903592445206942152e+00 3.274911678963994710e+00 1.967858745585978841e+00 -2.200169572141422059e+00 -3.960817899816028831e+00 -6.900553915746807654e+00 5.573229821650445004e-01 3.853831676024343178e+00 -5.983570419952759956e+00 -6.145244327595581701e+00 2.282560971156779139e+00 -2.640110210157639692e+00 5.800176369656551145e+00 -4.294052537770178812e-01 3.871901738635834977e+00 5.813301812055630791e+00 -5.434734003969791338e+00 1.949934340939284416e+00 -8.311679886828984287e-01 5.219779223014290537e+00 -5.154898465702514088e+00 -2.705546398937859198e+00 4.423400496823591266e-01 -8.975668934202067628e-02 1.357699529630842228e-01 6.933526066380129471e+00 4.354258236212307231e+00 -5.328317847521993222e+00 4.985974626771046303e+00 -2.659292070502270011e+00 -2.143423876160759356e+00 -9.068234027598991442e-01 -1.652102884649661707e+00 3.178046278876692554e+00 1.607834094175946582e+00 4.160934625994738845e+00 -5.527074310885490505e+00 -5.295464985668352220e+00 -3.156031387823394208e-01 3.696995483370158819e+00 -2.111969563217918733e+00 4.297496536884286122e+00 1.543917352248773467e+00 5.723308262890542508e+00 -2.520951277750473896e+00 4.809832958822458870e+00 6.464545794185450944e+00 4.801012134625382011e+00 -9.317533114203775391e-01 5.983974561988436136e+00 2.464688205701287327e+00 6.157780320920934081e+00 5.815198901767727691e+00 -3.442964874585612289e+00 -2.675761601650683552e+00 -1.975186713113652237e+00 1.747043571890531943e+00 4.391440302055099387e+00 -7.513161506620644747e-01 -3.942841458843930003e+00 7.059749477568677101e+00 2.246007625711621714e+00 -3.652297704984416082e+00 -6.733713042192979614e+00 -2.684892527143599050e+00 -8.177422602174536648e-01 6.230511384999294577e+00 -6.962552049642094509e+00 -2.919586464119308111e+00 5.090437421730212852e-01 3.408441961293080524e+00 -4.505829290433067236e+00 -6.750446063188629608e+00 6.843246945381517676e+00 -3.388441247205355555e+00 -3.365298196654112228e+00 4.493187988919686404e+00 9.000410513739840468e-01 4.951115786346279357e+00 4.214868156057091753e+00 1.143717745009755316e+00 9.908455944329964682e-01 2.690053517494905844e+00 -4.108951028140721995e+00 -5.139533127221691089e+00 -6.149476733444138254e+00 2.504912909334374160e-01 2.792116193646529521e+00 -6.599416834870580395e+00 -2.626452329309582723e+00 4.493200617291351229e+00 -3.423228617487542369e+00 4.191274139910937890e+00 -2.985128727298568929e+00 -6.264673719893054660e+00 -2.409552919801659920e-01 1.533191730822324184e-01 -3.383927081212844357e+00 4.330941422339880553e+00 1.115144801879638381e-01 -6.757495124836333522e-01 -7.141742836959632079e+00 -7.532909113385077848e-01 3.508565494613309799e+00 -9.464067250426829725e-01 2.881772692422880588e+00 -2.665637253007414387e+00 -3.485148075356913733e+00 2.208520338926569071e+00 4.929215768357854133e-01 3.607623009451955909e+00 3.462112466701404045e+00 -4.656675205221022296e+00 -4.490203506692125757e+00 1.310518523988970063e+00 -5.677249895205075170e+00 -5.625821358436301267e+00 3.906027865663523890e+00 3.633117265434854914e+00 -6.107182898416328776e+00 1.021786583561636208e+00 -2.291317749485656474e+00 3.454484194873958192e+00 4.866078630502503444e+00 -1.481326688096815891e+00 -3.709086350010575739e+00 5.078459972901391062e+00 -4.393596099028466817e+00 -1.336113390046025584e+00 -5.136967257021473721e+00 1.431488724465217688e+00 -6.394976011937553828e+00 6.797680900346930732e-01 4.977357805793752199e+00 -2.314056210900193034e-01 4.648299924212095369e-01 -3.128579647440641764e+00 -4.723133584295658771e+00 8.631838070596329349e-01 3.192900469522325757e+00 -7.510491871647372031e-02 -1.312825729627582039e+00 2.560013683275099150e-01 -5.637768503977105716e+00 -2.018087139080078363e-01 1.719417493419310716e+00 -1.677187339528956045e+00 4.392868833461889722e+00 -7.122889103126483157e+00 -1.762241510343607320e+00 1.241114883464535579e+00 -6.192333342401039609e-01 9.340819841046502647e-01 2.246801311736291051e+00 6.434524908726215742e-01 4.330571430778678454e+00 3.974612559908118570e+00 -2.924349260702008291e+00 5.841814483977362471e+00 2.729072394403910806e-01 -3.010712058347952969e+00 3.152859087840133245e+00 -6.659709125750466363e+00 -3.652108972385653907e+00 -3.304666281810034079e+00 3.102884915785400821e+00 -5.860513584619427618e+00 -5.211067185276136549e+00 1.745725525062785666e-01 4.467546738955026520e+00 9.078803589573716248e-01 5.740920584453747644e+00 -4.847459570188267008e+00 -3.245827141961341034e-02 2.998355469451788213e+00 -8.001062914768041212e-01 -5.526364811094239826e-01 1.664354744678168352e+00 8.683800227939745264e-01 1.947979450287629088e+00 -6.505906456101868685e+00 -5.361628252906243119e+00 4.605087338570577948e+00 -5.783309136475457635e+00 6.660758260568909073e+00 3.284711266021041354e+00 -1.422882406658886323e+00 -2.723592091085608402e+00 -1.010113188429472952e+00 -3.841033333303354613e+00 6.194547035153004977e+00 -6.405612691480796705e+00 5.969582976180403122e+00 -3.871564158135717637e+00 6.691072940313974371e+00 3.745278692142720800e+00 -5.797147876336979699e+00 6.950983991653592042e+00 6.950081584619462127e+00 -2.738500909570573683e+00 6.282338380199245620e+00 3.474835558130225710e+00 -4.203824242265878475e+00 4.301704980765304498e+00 -5.045175357701600305e+00 -6.224940481611588972e+00
-2.680024531721774572e+00 3.212069358304295991e-02 2.857288739496526286e-01 2.079809558144444903e+00 1.718745061462701243e-02 1.076217933861208342e+00 -2.389820900365228873e+00 3.385677763770962301e+00 5.850500349775176190e-01 -6.050390438316873620e+00 1.400125642950472482e+00 5.079762319028826134e+00 5.707203118167399225e+00 -5.847235008675944812e+00 -1.942761226700175259e+00 -5.224852855893075798e+00 3.942005178010545841e+00 -3.980698753330008444e+00 2.645358498065352393e+00 -5.782405107045158310e+00 4.295513085710479295e+00 -2.099987257803376473e+00 -6.205271473466653198e+00 7.523592786282350398e-01 2.556517412180898230e+00 -3.098111915026531271e+00 -2.663432584186865015e-01 -5.239272031291514864e+00 -5.045292390081571599e-01 4.893532539367252632e+00 3.456378780928682559e+00 5.217495349963262363e+00 1.244538249714662870e-01 -5.904728654829233925e+00 -2.133192208092228592e-01 4.915260440252783525e+00 -6.600506483344330100e+00 1.403372540490358533e+00 6.274577779772297248e+00 -5.745570098269352499e+00 3.123189488884004827e+00 1.914471987979094458e-01 -4.065789546119268572e+00 2.041676704576127932e+00 -6.876419872420528989e+00 -2.987393066253465790e+00 -5.648523799697868775e+00 -4.110105639321235849e+00 -2.539128670030005086e+00 -2.415121838181407465e+00 2.749650683776197369e+00 -3.715368375041917748e+00 -5.006847564035014742e+00 2.376504201794536364e+00 -3.584859091206052728e+00 -6.015827021117646112e+00 5.353118636781396766e+00 3.023397413529440136e+00 -2.940506627004516815e+00 6.284887063915624239e+00 2.066053541106072089e+00 -1.961953745933405102e+00 4.684367403670623986e+00 1.180603103928369091e+00 -1.088252807095571734e-01 5.117006370292653372e+00 3.657041544391642418e+00 6.363181337930815751e+00 -4.850691245095942072e+00 -2.946881521980373009e+00 1.210621786415317702e+00 -4.265903080925159685e+00 4.606417342321410757e+00 2.788068246004703710e+00 5.671444928045316303e+00 3.967778461568392867e+00 1.321256349831390731e+00 -5.570665642202832224e+00 4.142026188294220646e+00 -5.193444183300826467e+00 -1.128862414705263245e-01 5.244008007809731531e+00 -3.074809996047034311e+00 6.641598832001300856e+00 7.522338926750730126e-01 5.089473814337908131e+00 9.112539685409426493e-01 -6.361255876247410512e+00 -9.282591491416224416e-01 -3.488358634960737170e+00 -7.085080620348902514e+00 3.174308805544080236e+00 6.489642222939142613e+00 -1.835186333029245942e+00 1.284255313234218931e+00 -2.358943134921159146e+00 -2.105483472837708092e+00 -2.368929030420761972e+00 2.206496165731604009e+00 6.636881932622634928e+00 -2.205431171271118984e+00 -6.297017605775822702e+00 -5.517505637185004197e+00 -3.136138587696632563e+00 -1.497825911150194589e+00 4.434024578276548390e+00 -3.481891866567301097e+00 5.139733728036354421e+00 1.074076347025564093e+00 -6.015132733545446975e+00 -4.391054647955712653e+00 -1.851163278307506932e+00 3.633199342464163539e+00 9.456713095463834540e-01 -2.684803390315096405e-01 -3.626717043651898731e+00 -6.305650436856348406e+00 -2.209894670139356254e+00 7.001790416104705983e+00 -4.316948439600486465e-01 -4.554097807480744109e+00 -3.983239775144878925e-01 -8.919629154166824891e-01 -2.211307284184525823e+00 -3.496266755516074909e+00 6.181438033278563893e+00 -4.641223328487183331e+00 1.582798688420476108e+00 -4.846355735139707299e+00 3.747253068230852691e+00 4.403565855159380149e+00 -1.349131594996162420e+00 -5.201144645066055894e+00 5.325943829336550195e+00 1.668569554892971540e+00 3.699651252938923385e+00 6.408660180460726608e+00 4.597628082791131554e+00 5.099837995198728713e+00 2.408203170857879716e+00 -1.185316765447618437e+00 -4.568270710602181595e+00 -3.072575197244153955e-01 -6.279080135590599632e+00 -1.977412550114998835e+00 -1.904053829188560920e+00 6.494233388296557941e+00 -6.088941541815812819e+00 6.330889639475055120e+00 6.342533952285463350e+00 5.639353199737994871e+00 2.625958228944817563e+00 -1.912565725890700730e+00 4.842688016643847959e+00 -1.996654248974613965e+00 2.265214517245657533e-01 -5.536288312620915697e+00 2.296995234326866253e+00 -2.638797514876559114e-01 6.331928598193597324e+00 -1.710258261931845603e+00 4.666029260857915695e+00 7.036042943128427950e-03 4.853263249583092964e+00 6.200835551840106596e+00 -5.972137424129450700e+00 3.785968567258236828e+00 6.936454633080854748e+00 2.968041755663528125e+00 1.015042870621187143e+00 1.622632614144560170e+00 8.810619609983276757e-01 -2.247189001565412347e+00 -2.104759835118445110e+00 -2.424678818495910715e+00 1.360206241439321007e+00 6.756454294502174385e+00 5.180947577357464695e+00 4.893638764498010829e+00 -5.546987532663038678e+00 -2.708598781655814580e+00 -4.021197094800312399e+00 4.951033236487348610e+00 -6.576345424432235909e+00 2.770189931151992191e+00 6.028309073879412061e+00 4.176014173063014034e+00 3.397841100659722890e+00 9.273241242750337454e-01 4.375547793451671552e+00 -4.357262279109078706e-01 2.283438154159495248e+00 3.284256278500781612e+00 7.081024806116116288e+00 2.065786114430768539e+00 -3.999166506334995042e+00 6.436428553321968060e+00 1.439293183982104818e+00 -6.242437895250895430e+00 3.475672504220328474e+00 5.077766828530636545e+00 -5.976716216468566101e-01 6.954661635553723187e+00 -6.889873684106095020e+00 4.659883264871002240e+00 2.421251091853262150e+00
-5.511856872166847054e+00 -6.438590315293106769e+00 5.016890520708456869e+00 -6.182141790975243190e+00 -2.544851180308532523e+00 4.729819729953915974e+00 5.854577279420850044e-02 4.623803790714928752e+00 2.519248932331824342e+00 4.694782825775156709e+00 -4.767274701954486105e+00 5.911967827660821406e+00 4.620065370464526922e+00 6.335957923101927847e+00 -1.131819464238948081e+00 1.792976676152342463e+00 -4.339754102258726043e+00 6.351858783101841377e-01 -3.929856226487437709e+00 8.163262605301141450e-01 1.326521326935476086e+00 4.188220350221540045e+00 3.735006901827603532e+00 -5.936707422207064155e+00 2.257423135431952943e+00 -7.002980636394807945e+00 5.344787153426381998e+00 1.914638685367079374e+00 2.061544275227099043e-01 -3.587134711466197334e+00 7.077917952334474849e-01 -2.090494707562294274e-01 -4.581104292089380081e+00 5.605397460822120870e+00 5.958715789703301624e+00 6.630704309255604834e+00 3.734889104846886299e-02 -3.070051929005555902e+00 4.248720979693366928e+00 -4.300134396775535883e+00 -7.121479689009813541e+00 -2.191747052217379643e+00 3.419908935166280806e+00 4.182515842799904848e-01 -1.253780253536142641e+00 -4.479973386906478616e+00 -4.191001844672611831e+00 -1.081444750196394189e+00 9.788824223449540396e-01 1.163013368493222011e+00 -7.154142276434481973e-01 -5.530585159158613706e+00 6.917642789826972560e+00 -1.847168181011468735e-01 -3.849038201339157528e+00 -2.708715629442950856e+00 -9.298710485009111792e-01 -4.424734535153934445e+00 -3.623148977655430869e+00 -3.369214992030372890e+00 6.424519562139039408e+00 -5.226619687749829879e+00 -3.955265763092632447e+00 2.577385753964965609e+00 -5.892638601539517573e+00 -7.602413532758435233e-01 -5.469469008657703579e-01 -4.160024441762312508e-02 6.982815333821130732e-01 2.279822138241135665e+00 3.290847367463578088e+00 -1.932100349026991459e+00 4.103594932097269776e+00 -5.664144055171967951e-01 3.693222607742943531e+00 4.516615680461423032e+00 -3.406419225902737491e+00 -2.371265398175944838e+00 6.964228535542589249e+00 3.739455890749312061e+00 -1.280361206802117735e+00 3.488699047598877723e-01 -6.493799320663604657e-01 -6.709457209758424412e+00 -3.594294640682027975e+00 5.964531889928624153e+00 3.597492140025579044e+00 1.649966962910907053e+00 -5.154842472280964039e+00 3.935389125830547119e+00 -5.102785422282966721e+00 -6.024846616720307857e+00 6.259103230113713501e+00 3.988595149121358929e+00 2.384990136046413856e+00 4.842606975066624742e+00 -5.295028419763023741e+00 -2.660083085247390233e+00 -2.166523495476033290e+00 -2.170346292429109702e+00 4.308908703659589001e+00 2.129241893288705167e+00 -5.393219195571115954e+00 4.356003416391559746e+00 4.505699928326652781e+00 6.127495857836231075e+00 -3.079916071384918852e-01 -6.069461616024480755e+00 2.083835181814820192e+00 -2.144743437371576800e+00 -3.139829970436403439e+00 -6.190313504306860004e+00 -3.238647423038628403e+00 -3.989928321200283623e+00 -5.794186635846855005e+00 -2.553478456308371669e+00 -6.512007317062757039e+00 4.810451069544357527e-01 -1.806761652114568240e-01 4.229639358064970489e-01 -3.206488751463745679e+00 9.437556219980147709e-01 -5.806051374646017393e+00 4.869806777339669601e+00 -6.683728423593597867e-01 -3.756703566057277399e+00 2.921428897410633940e+00 -6.437552608469195192e+00 1.484844535930369691e-01 -3.520473232164062605e+00 -4.354045187846154796e+00 -4.508085447845903815e+00 5.584348429356115417e+00 -3.402997495776446613e+00 -1.827100549819020481e+00 4.225696454346578257e+00 -1.320304332075624421e-01 5.675936484094466827e+00 5.714887048318672669e+00 5.586524966668715564e-01 8.684339501405993200e-01 6.611875222150170650e+00 -5.291857416408799475e-01 -2.040862120585187789e+00 6.399692691914873333e-01 5.256473381686638469e+00 -9.367823522284032256e-01 -3.357750193407931238e+00 1.589068091202665789e+00 -5.339092407593106770e+00 -4.623352410604671725e+00 -4.293619703266476684e+00 1.216937666248584460e+00 -3.765711683177417779e+00 4.663408547630419676e+00 -2.141096211726807752e+00 -4.028760205654702276e+00 1.260722416014375513e+00 5.049948505797317022e-01 5.795982311494106476e+00 5.384378918083216448e+00 -5.478495836669719843e+00 2.282052041827377753e+00 5.596375546723636241e+00 -6.913571062560845526e+00 -5.780551282258283408e+00 -5.761014771898813613e-01 -5.135309906902532084e+00 1.987954488869003944e+00 -7.116463891492318616e+00 1.578295901233262244e+00 6.184222378456693647e+00 -2.593978912284393701e+00 4.321013576361565356e+00 -5.130172176245425320e+00 2.171906564709878307e+00 -4.832844697083770846e+00 6.232931540297851569e+00 3.858601808059065608e+00 -3.183800103259826653e+00 -4.545861346341042442e+00 2.593930097548955427e+00 6.517863023913265330e+00 -5.565153786657472068e+00 7.727245154339967836e-01 -2.243683149957858003e+00 3.903405847377797500e+00 -5.089169200458292686e+00 3.330300442387269300e+00 4.306031922435161086e+00 -3.436533612979067787e+00 1.604542085516324157e+00 3.136804262622040262e+00 -5.654960528217829463e+00 -4.684226519667132216e+00 -5.650537099310223965e+00 2.163370395211554609e+00 -6.079124756935236462e+00 4.714360255659045151e+00 -3.122139686786716162e+00 -7.131674387483286637e-01 1.767568599805027785e-01 -5.462078479230677353e+00 -3.206620459274739154e+00 3.703562752506464051e+00 -1.669887558906045122e+00
-5.690575042699682617e-01 6.027877557028877398e+00 -6.658024627910803517e-01 -3.889274140164006965e+00 5.078373199885505285e-01 -1.007033839151273868e+00 7.102173991603029535e+00 2.320423093210454368e+00 -7.592580006267080073e-01 -4.696780622340391176e+00 7.039577340898549807e+00 3.630735006502374240e+00 1.000114159327862406e+00 -5.469095220612754993e+00 -6.815486983778831664e+00 -4.985022392708171601e+00 2.434065502127614522e+00 -8.953923433201562698e-01 1.016602171473173000e+00 -3.019997980826764739e+00 -1.672634936145972917e+00 6.065937708965249087e+00 -3.009869755118577572e+00 -4.313477205001255754e+00 -1.760548200167843635e+00 -4.255076013653189687e-02 -6.307247214122220669e+00 2.485787691288473766e+00 4.850854408559039932e+00 6.362817336212146735e+00 3.091117860280511720e-01 -7.553820580155878872e-01 -5.943122700162320804e+00 4.766871469665796113e+00 -4.377066958165173993e+00 2.460004117090616838e+00 -1.178696034893003119e-01 1.154253621204518465e-01 -3.935433063733790426e+00 -1.281464910220233122e+00 4.144056540910075803e+00 1.659558892246247863e+00 2.703507148255384074e+00 -1.313447095397675124e+00 -3.560969548677901830e+00 -4.360897085440141652e+00 1.265210382779331066e+00 6.005412951193394910e+00 6.458873371574967770e+00 -2.618218851643582479e+00 -6.408011491609146404e+00 -6.719286595212775381e+00 3.711198430407516735e+00 5.419379274560533588e+00 -1.837781134343337897e+00 -4.026055588890612214e+00 -2.574259484732316583e+00 -3.594137591050593716e+00 1.750044596741931802e+00 -6.239817990728485420e+00 -2.251710913230576538e-01 4.821602541572189260e+00 4.693812644812574320e+00 1.458435944861310007e+00 9.624552193036934877e-01 -5.763465369977002872e+00 1.152455966341717319e+00 -1.285682870891516671e+00 4.169096738017861736e-01 -8.075241084040222228e-01 -6.484016211374555860e-01 -6.344891726017229949e+00 -6.080514943162915742e+00 -3.472235223142625227e+00 -4.127076800039408688e+00 3.830338334159734792e+00 -3.647520171230834052e+00 -1.724789545850824002e+00 3.639930286383430857e+00 -6.627771918698767806e+00 -6.009619690589702579e+00 4.506646351669368888e-01 -4.456614268221293251e+00 1.341951727198654742e-01 -6.011307239196653995e+00 -6.902074464512636176e+00 2.285869053500914738e+00 -3.571091158227902795e+00 1.997367365971175257e+00 7.127508864546079792e+00 6.395283603535800054e+00 -5.642362803163991636e+00 -2.777625173567332961e+00 -6.894540800715954987e+00 -5.436322808603812895e-01 -4.538690300547503220e+00 5.970698107092606399e+00 -5.377709959965231157e+00 -6.799807849102260660e-01 7.172856767995330785e+00 2.592845841665539552e+00 -1.273757039831362459e+00 -3.358278112643819480e+00 -5.960884283280973861e+00 4.803215274997087114e+00 2.459510501758384926e+00 -2.474681711790682304e+00 -5.725240478922241749e+00 -4.795546201719276702e+00 5.698919284055734558e-01 -5.656064093785269975e+00 -2.531198920711946521e+00 -6.066952379466326484e+00 3.049111678127410130e+00 4.250546019157453337e+00 -2.988988718318162707e+00 6.545841395807543428e+00 7.120708070785968680e+00 -4.170997015679314579e+00 -4.047752953724234715e+00 -3.260609636580537263e+00 3.752497650231707116e+00 4.881797218508798331e+00 -4.368884736299983196e+00 5.525347109003884150e+00 -3.763099084026638064e+00 -7.163635630039733027e-01 -3.651557488043010835e+00 2.205334961135225758e+00 3.774793285981313584e+00 -4.579946369158939490e+00 -1.436866663677594858e+00 2.388128285230231906e+00 6.336158897291545244e+00 2.948500740933147402e+00 -4.777930359057323551e-01 3.562403433253180207e+00 3.563798280884797443e+00 -6.645494505725635825e+00 -4.447092185609242243e+00 -3.604879215348502086e+00 -1.644642342862532969e+00 -3.144944266983022985e+00 4.168606840045781858e+00 -1.853959413107140186e-01 -5.191080086412958039e+00 -9.288265243707263252e-01 5.257413298192407325e+00 3.592236003988031445e+00 -3.747460854445234801e+00 1.133967185211417927e+00 1.568596280279309418e+00 -3.084276219649368045e+00 -5.610785297702848062e+00 6.615036041454226634e+00 4.840537007963732208e+00 -5.722666028468860411e+00 2.065764152462743031e+00 -4.838943419159904558e+00 2.374564149879248021e+00 1.002194850502665879e+00 2.464785530930657664e+00 4.358989752150410624e+00 -1.854644224669335761e+00 -6.482828874843409750e+00 -7.447879724126535983e-01 -1.651129511188059285e+00 2.844355822800602063e+00 3.064877898514975829e+00 -5.933872843633106520e+00 2.891396579270463896e+00 4.686032941123282392e+00 1.661880759000158525e+00 1.775963432240824869e+00 1.165135436789721313e+00 -5.295138145955900377e+00 5.336831372730872936e+00 1.304490199115256877e+00 -3.517435771029976621e+00 6.428480817155511673e+00 6.539333443132461232e-01 6.119832704475816954e+00 3.130579612773908948e+00 5.726609818959653708e+00 3.596323706898542083e-01 -6.852123324293230011e-01 -3.948370033707008453e+00 3.642664486050539718e-01 -1.859262804298152938e+00 -4.556188120596830871e+00 3.105719906794629281e+00 -1.262836645936775248e+00 6.145824784871378038e-02 -2.932698763681068410e+00 1.396196178299408341e+00 -8.240686483829942066e-01 6.064570087417612498e+00 2.249008059766914425e+00 4.758841824774525442e+00 -4.676761878370898629e+00 2.221161421756498555e+00 -3.924241011953819580e-01 -4.684120849619252125e-01 -1.454070844550166886e+00 4.940736385966438604e+00 1.554318757686031338e+00
-2.410655801879531823e-01 7.117110153130390415e+00 5.980970573275642410e-01 -3.889870130890026978e+00 6.347553250788824819e+00 -4.143173912378133039e+00 1.326650526214464332e+00 3.685304517952436409e+00 3.355168312099795269e+00 -4.600775547970871848e+00 -3.598335381000462352e+00 6.273503598530957071e+00 -5.635854371264835905e+00 1.517890955807613407e-01 -2.656543662253616933e+00 4.032957674522401170e+00 -7.117465887797219004e+00 2.894008789421200767e+00 6.024199423533445952e+00 -4.279916137109811558e+00 3.126648891612261671e+00 -4.144721156728009781e+00 6.477672418436283941e+00 -3.934984797856542205e+00 8.023614448996791992e-01 -4.268066974304672634e+00 5.435361552228948234e+00 -1.096710330821701884e-01 -1.888926776409722841e+00 -1.242323875688074564e+00 1.172658219615339892e+00 -2.736641077773124486e+00 4.473551361759130707e+00 1.264125239031792081e+00 3.181517663563248277e+00 5.119449156802505785e-01 1.244121500344733677e+00 6.174171165156948637e-01 5.998478124459198924e+00 9.923702358625799969e-01 2.232763024229127424e+00 1.149969913307748781e+00 -1.611231281926008396e+00 -1.381578170930225280e+00 -2.927733834988771822e+00 -5.002056370111084505e+00 -8.679964651208214033e-01 -3.367856348327679772e+00 -1.731095185305079553e+00 1.085691975155249622e-01 -5.722784630187375043e+00 -6.222790355276934804e+00 7.242509039689233319e-01 -2.677761020397443126e+00 -6.701335540204855334e+00 -4.562230469566257440e+00 -2.435768492987486322e+00 -3.968452686289383191e+00 5.702942068071579662e+00 5.930432836516615680e+00 3.266464287896073126e-01 4.227079411148930710e+00 -2.093570422908769935e+00 -5.960864781635724086e-01 4.102516411417109765e-01 4.400058573513890181e+00 -6.238984174779649727e+00 4.983571388252777901e+00 -7.112821598804932144e+00 4.271628696412776094e+00 6.213255332378565754e+00 3.598742115157385069e-01 -4.635689975929869533e+00 -1.681442033268517156e+00 1.779662716327347294e+00 5.352463070922063082e+00 -6.251302890373328758e+00 2.891199495175687861e+00 -2.866679071229798037e+00 2.566336721812785271e+00 -4.012475100440537013e+00 -4.203249223578697347e+00 -5.910843330963446718e+00 6.203119646001570509e+00 4.794174375516119468e+00 -4.253179259974094184e-01 4.138527445420251638e+00 -6.221644029112217922e+00 -3.937395714276062275e+00 2.805510366018040269e+00 4.043742538788841046e+00 -3.588852688011323178e+00 -3.617640360721742887e+00 -4.936828173808785358e+00 -3.943544541403986692e+00 5.546908844416206463e+00 3.557989159006088808e+00 -5.633603079186637608e+00 -2.991182100564180768e+00 4.677404959584856137e+00 -4.681308731080239482e+00 7.020335415524151301e+00 5.774173210772585385e+00 -4.812346094514207806e+00 2.815369342856175905e+00 2.741809598379347346e+00 -1.394329571508477583e+00 4.977182783184615822e+00 6.024798119810715669e+00 -3.140639392474816827e+00 -3.017650649314257194e+00 -2.524092792216598991e+00 1.463578701810469118e+00 3.523989830280057411e+00 4.189042440852037252e+00 -4.897369849847490464e+00 1.301524835871748387e+00 2.901534514570484724e+00 -5.535870650600443810e+00 6.255713784428740709e+00 -4.079786347454335882e+00 -1.249056625236755425e+00 1.346517373956856556e+00 2.290785461801255529e+00 8.633714106059483528e-01 2.219034166967276178e+00 -8.292399335422877549e-01 5.544487916882332001e+00 -6.120408674947005245e+00 3.188078249716641999e+00 4.761812547898098380e+00 -5.131200195369155281e+00 4.839616501303535046e+00 5.882256222820847924e+00 -2.661687233866067093e+00 3.133659924517488982e+00 -3.875757361631507081e+00 3.802317244470455382e+00 -3.154385667090431777e+00 -6.934517648258827549e+00 6.708210972187709231e+00 2.482955817630048689e-01 -6.970923778917482494e+00 5.266363111408625564e+00 -1.385490347261336685e+00 2.482305132495629785e+00 -3.432201508090385822e+00 -5.140794521570316356e+00 3.480956312735662195e+00 6.533218583645505895e-01 -5.370906060566355222e+00 6.282973848160101626e-01 7.155584695429678455e+00 -7.932074649624055729e-01 -4.132596282620276673e-01 -2.662669485021376570e+00 -1.645201730594043399e+00 -4.410766091271084433e-01 -3.890721491379299124e+00 -4.238581191864504660e+00 -3.339922629017424871e+00 -4.600071686676541205e+00 3.817857577611972086e+00 2.716358352234082840e+00 4.976675743108891048e+00 5.130834510107714408e+00 -6.345478038438075785e+00 -3.413311128895077040e+00 6.718146028875978004e+00 -3.417709019918160784e+00 1.863179515370186889e-01 -3.203535968504477860e-01 8.851742117988330438e-01 -6.862393867598344244e+00 -1.217707776964084034e-02 -3.726746183741668883e+00 -7.151322235574204100e+00 5.452244158465332724e+00 6.438550014915866981e+00 -6.455791071878493881e+00 4.077078840615205202e+00 -4.722539335371462310e-01 -2.748740051026268283e+00 5.614654083282977659e+00 -4.402694296071390845e+00 -4.336045848077733744e+00 -2.623595635653811486e-01 8.877421646256692389e-01 5.764505204879760036e+00 -5.484079304348558281e+00 1.233057040720243469e+00 -4.067457072629010462e+00 2.603753923267743797e+00 6.787189074875691119e+00 -1.431834678780847803e+00 -1.571833932834673098e+00 -2.106264790728169078e+00 -2.453901088573682721e+00 2.830593732863361467e+00 -5.186151415708510015e+00 1.041508386368835692e+00 3.305094270567566106e+00 4.381066670138188179e+00 -1.973408186925162733e+00 -1.014672412035299010e+00 5.733849745612604742e+00
-1.145870791001888822e+00 6.460285392609725896e+00 1.811786295441212280e+00 -2.528787153306819580e+00 -4.151339023718423782e+00 -6.638748853240421077e+00 1.757175951033972394e+00 -4.496064881465722252e+00 2.394959152787406342e+00 -1.374819861034957791e+00 -4.133636455319047442e+00 -6.406715757164360703e-01 1.793765606283308056e+00 1.508105492374042234e+00 -2.491435105791832694e+00 1.057861979917248396e-01 -6.401455209602616492e+00 -5.804720082750346677e+00 -7.110451456459252917e+00 4.332575288077078035e+00 7.774267082203729640e-01 -1.432650850549546107e+00 -3.320607014631179688e+00 -3.515705300218124663e+00 7.077524782254405622e+00 -4.573875320137480216e+00 7.129888808914464526e+00 -6.442069601788894317e+00 1.863074178494739330e+00 3.089772220552853277e+00 -6.358272021878226710e+00 4.593300222422533885e+00 5.419242447467209622e+00 2.431112781942609047e+00 6.980275698828360298e+00 3.137461069123587798e+00 -4.254159847887021506e+00 2.717786916732889413e+00 2.359657749522781511e+00 4.806485057101216540e+00 4.625321413132857273e+00 5.920124381072583652e+00 -7.085343641533756731e+00 -6.555698962834091148e+00 2.524041707286552860e+00 5.964840900115595979e+00 -7.043851200922015110e+00 2.529204362543601370e+00 -4.008319512462593437e+00 8.404418219654153921e-01 -1.451380220546593325e+00 3.511349771343470039e+00 -3.162164487687918246e+00 5.662159631632747825e+00 -2.971608785082251014e+00 1.696283850394499915e+00 -1.486038279757203595e+00 6.633941945251585759e-01 -3.179153328837190262e+00 -2.088383944640708201e+00 -6.558193896409872714e+00 -6.832526590034288638e+00 2.385726877056800088e+00 3.811312795016919885e+00 -1.133243749552322654e+00 -1.420912470471572764e+00 -3.782114355298166863e+00 4.306486682452053572e+00 -2.539886819288461606e+00 5.437559270163156100e+00 -7.253034880974459364e-01 5.198788017779128801e+00 -2.573138628110156478e-01 6.327716667991398758e+00 4.335217617964541859e+00 5.780341576189804709e-01 1.391970312054020553e-01 6.107713219455618514e+00 4.213108799564340146e+00 4.898084356081663593e+00 -5.045992988838659876e+00 5.577922649408958655e+00 5.640355003975438208e+00 6.435486454086893460e+00 -6.641099184732742522e+00 6.839669607169203580e+00 -1.735892092099166728e+00 2.527948976445777984e-01 3.678723391271512710e+00 5.575021091589911215e+00 -2.586020929273202373e+00 -7.119794722045634572e+00 -5.524109909878496261e-01 5.175482903011035418e+00 2.526145948528474849e-01 -3.490270117238337466e+00 6.164671919138130507e-01 -6.059375727158774261e+00 -5.866289667795884455e+00 3.350780898406616526e+00 3.727966670768559698e+00 1.738004250177252796e+00 -4.844397962602887908e+00 3.464173295386195672e+00 2.030597125832687144e+00 6.531765563670328234e+00 -4.469193593809175913e-02 7.147886511907086238e+00 -3.578329271002394840e+00 -1.805852228862085074e+00 -6.321021665006862911e+00 -4.232722946468658876e+00 -3.529767179845907155e+00 2.509206574836237547e+00 6.381728723906146428e+00 -5.456441559214715575e-02 -4.285671475337736069e+00 6.282484751621086438e+00 -6.646754126256294803e+00 5.757929982541717173e+00 6.073141143790119045e+00 3.246420599095009685e+00 1.318710413341370069e+00 7.098780645040028148e+00 6.570621396316651541e+00 -4.907278395498266277e-01 7.054994296247857122e+00 -6.212950454738079387e+00 -4.572941323492507593e+00 -1.084493424397215522e+00 1.187664579032648327e+00 -5.157018973737223178e+00 3.337274155840763257e+00 1.756272610029090964e-01 -5.036323153609173486e-01 2.907198868744480524e+00 1.158426077050586089e+00 -5.977100244884314684e+00 4.668770501780807436e+00 -6.931532043543195520e+00 -1.198867065051387515e+00 -5.303287931826483614e-01 -5.717992933772901409e+00 4.259367932466900264e+00 -5.122161655127134949e+00 -4.575544089751993226e+00 -5.622816339381452089e+00 -2.393887507328989805e+00 -3.631845295038169219e+00 6.938454092014456620e+00 -1.075530438459695981e+00 3.413741463270433929e+00 -4.792979759492242420e-01 -1.675234808164580702e+00 -2.639845624038116512e+00 -7.162688506424685464e+00 3.935687965150540091e+00 2.979258860074092574e+00 3.090891754130124625e+00 1.146959212626268654e+00 4.431609112643842607e+00 4.617112752202030102e+00 -6.002653277285578071e+00 -1.658449162819821465e+00 -5.777304547510818011e+00 -2.864949948413525238e+00 3.157137577250656690e+00 -2.703945875458916959e+00 3.220197052493483980e+00 1.617147891036056606e+00 3.182552928405740555e+00 8.242043984734775952e-01 5.598744054770993017e+00 -2.861073051241210141e+00 -5.860154549744661878e+00 -5.048613095376057736e+00 2.962834681149184579e+00 4.316316088680333785e+00 -6.239121543575938844e+00 6.648146036046338914e+00 -2.586453410516782903e+00 -2.036164366610416554e+00 -9.502283076573332654e-02 8.144101489141695183e-01 -1.346910632175061684e+00 -5.587107290453891650e+00 -4.470318337848627976e+00 -6.813763257030692522e+00 5.558812626988259842e-01 5.590780824275445759e+00 -5.255066618412822521e+00 -3.944599855227218566e+00 5.824708323368237295e+00 -4.225790514407694154e+00 4.193090350719383963e+00 5.675897502925807636e+00 2.369033922364573108e+00 -5.747239708710749184e+00 -7.500910142074689313e-01 -4.893623246721802822e+00 -2.457801300082905538e+00 -7.441589722230312898e-01 1.818987553278336444e-01 2.020830629873056505e+00 1.271327111317453129e+00 2.827521841089079668e+00
2.782970944724337592e+00 -7.198792152767239383e-01 5.106120012369090411e+00 9.732863864871275916e-02 3.064467166337288440e+00 5.170623098391047279e+00 6.640142931671364046e+00 -2.516723842860473237e+00 -4.376980876940435472e+00 3.867812708079955364e+00 -1.264154579547144941e+00 -4.188070370275105425e+00 -2.501586728866350917e+00 -6.839545649737095445e+00 -9.761587933565486486e-01 1.378955038614769535e+00 -5.204252664182669186e+00 -3.002999110612770917e+00 -6.487500279436249961e+00 -2.737877504721306643e+00 -6.976205313400664743e+00 6.753880470382474854e+00 -2.055181221591550145e+00 -4.212859056938063063e+00 -6.152132833028313152e-01 -3.375196944364222240e+00 6.598392875215832731e+00 -1.031403427786757643e+00 2.027779043173493889e+00 -4.347279081469427986e+00 -3.430806570568021741e+00 2.338178316019604797e+00 2.283501931106283855e+00 4.609236454966251784e-01 6.093688947632649899e+00 4.329493587438937752e+00 1.309582821056107793e+00 -2.319250638773878936e+00 2.691820639383683655e+00 2.961327028072120893e+00 -1.770649493722728174e+00 -6.899354958267100990e+00 -5.414445690809380096e+00 6.516712477386076507e+00 5.252425627715650691e+00 1.687832707620514849e+00 5.435088453119015561e+00 -3.334617165973107866e+00 2.696515748400633239e+00 6.319288866047805264e+00 -6.463385305091963851e+00 -4.670845629163182799e+00 -4.177706421150974236e+00 -3.848947728024952331e-01 -4.632629229272708926e+00 6.689373203748252728e+00 8.344605359530203881e-01 -2.356000110223167354e+00 6.150724837754451002e-01 1.024972608770578830e+00 1.058041105083905725e-01 -1.927203130808727405e+00 4.602402629700891090e+00 -1.990003360513309172e+00 -5.923047302333140918e-01 9.415977418183478775e-01 2.356918745060273324e+00 3.118617939390614158e+00 -6.373153094172221422e+00 5.039036760498764700e+00 -6.990971212692775438e+00 -4.706839710395643195e+00 -1.991128931433454041e-01 5.471003353514529266e+00 -5.594075752259460188e+00 -4.861745030034269055e-01 2.816733815571096144e+00 -2.711172955949885388e+00 3.799489776719537470e+00 -1.085617685155439105e+00 -2.559561165760674051e+00 1.373353851903985401e+00 1.634233046649300913e+00 -2.065431362712723207e+00 -4.851364225878733727e-01 -7.024619613464879730e-01 3.220550505134331942e+00 3.382241484119682617e+00 -1.725445342331102916e+00 -1.649986072846729268e+00 1.677669973546637161e+00 3.340695008026597357e+00 -1.664817580434019950e+00 -5.248702433088470620e+00 -3.403819201189668409e+00 -5.781593815165630090e+00 -6.798084271208392870e+00 -7.239917960755515303e-01 6.052219023825675670e+00 -7.049247021699724058e+00 -4.342711923672948338e+00 2.535783299162561288e+00 3.235378465751715393e-01 -2.597980470552461174e+00 2.209577724260701759e-01 5.156502349020801290e+00 5.931198449349496471e+00 5.465040935201883610e-01 -5.413609396599224688e+00 -5.924573002390618903e+00 -4.858159748179554427e+00 5.214084822376740647e+00 1.850923741789700649e-01 -2.907917288767953856e+00 6.155579666636868730e+00 1.186515181088990900e+00 -8.418292599187628955e-01 2.806488645747115651e+00 -3.929651184511416595e+00 3.184232053284589803e+00 2.963225140889981013e+00 5.747741163367471096e+00 5.673429715970897291e+00 5.814237070305811272e+00 -7.145498871413925812e+00 1.557085243600770053e+00 -4.951594600665401913e+00 1.567063283473675517e+00 5.711502366565489375e+00 -4.283190074474421571e+00 6.060513702168201178e+00 7.828292509878702621e-01 3.357880719961717220e-01 3.837018817187475506e+00 1.048666176940649786e+00 5.261466920969539274e+00 6.045826841609178715e+00 -2.432288692544488207e+00 -7.059213783164821621e+00 2.546983462058155734e+00 4.148461864285172496e+00 -1.311102291784312923e-01 4.996593842825897802e+00 3.055739199270243400e+00 -3.137858869799330375e+00 3.828872612967661127e+00 2.852972740580262734e+00 4.302956632081399668e+00 -1.066066507028174737e+00 6.117254645038599392e+00 -2.505863890866594001e+00 -6.601221396872256619e+00 -5.014813366404000661e+00 -2.963403897908511997e+00 -2.066146919535358339e+00 -6.873028774929633933e+00 -5.357532020712687526e+00 3.250355827403532682e+00 4.913521732565358846e+00 -1.369528183385412490e+00 2.018268073473453939e+00 -2.019389793872099936e+00 4.812835353760027246e+00 3.913734127576967481e+00 -4.380188900204887159e-01 -1.707979439655837206e+00 -4.979781595069910693e+00 1.414885907009587163e+00 -1.489691885511001734e+00 -4.243441606205386130e+00 1.044429094536076574e+00 4.628953112918755330e+00 -1.352235381283724891e+00 -6.708147978138644163e+00 -1.001971942197850352e+00 6.543337235650909633e+00 -1.717299514265243410e+00 1.869388310385842189e+00 -1.468814658141663898e+00 -4.628632186530366788e+00 2.884411501301552549e-01 6.689568133558671192e+00 9.065052635942182080e-02 -6.892909022338726821e+00 3.895596079600562422e+00 -6.695242406010313729e+00 3.649386756508344876e-01 -5.290437260980900724e+00 2.521746716196825222e+00 -1.565175988529530215e+00 -3.937554464550747202e+00 -9.889060187475423591e-01 3.348077414213588732e+00 -4.935913293497100618e+00 1.402902053911026847e+00 2.130828713871234736e+00 5.218985348724952011e+00 2.144465124683198276e+00 -4.265207929731186454e+00 -3.881268375539443483e+00 1.610162729637605761e+00 2.175551078947888684e+00 2.945688132397993098e+00 -2.928727308805437524e+00 -2.618025529684703478e+00 -4.704690177981206922e+00
4.992270684948631576e+00 -4.934824469049423179e+00 5.464945298810590657e-01 -5.802320001688014095e+00 4.362053001346173353e+00 -2.779144564298587028e+00 -7.146346833357040573e+00 -6.094056557120770101e+00 -2.656792933764499320e+00 -6.754202966704932365e+00 6.767550782093150197e+00 6.274855252173936471e+00 -3.417985860047254576e+00 1.406060961626324213e+00 -2.437020475132223030e-01 -1.600743317306096758e+00 7.055492177182415281e-01 1.643275228108667330e+00 1.442092910750369050e+00 -1.785759482903542805e+00 3.410046129617820831e+00 -6.567551819545961678e+00 5.646616588499083988e+00 4.087196705126354246e+00 1.892961389517629822e+00 3.615618945711544630e+00 3.469365870715503952e+00 6.598717607422643461e+00 -5.317802453596810253e+00 2.713625535809946587e+00 1.296882737374047689e+00 -5.590286893486992703e+00 -3.684149258849677810e+00 2.126131015226984111e+00 1.691668651892963338e+00 1.922512376013301827e+00 -6.336344092669720318e+00 -6.964533991030370075e+00 1.418497356280565391e+00 -4.470747736367964187e+00 5.909894167374466489e-01 2.933014995169120898e+00 -6.322765780627585208e+00 -3.039900104446922047e+00 -6.685391674923248040e+00 7.074175160824353270e+00 7.053908161600711324e+00 2.303347799000845519e+00 6.154181713639069962e+00 -2.985747393630209245e+00 2.434080280114960665e-02 -1.712782142418591391e+00 2.069816731291080014e+00 -4.874615488498375449e+00 4.818060179069589388e+00 2.585334575273140256e+00 7.077778411666447944e+00 2.219607106258293605e+00 -5.445901976526378307e-01 4.455229827066071735e+00 1.913539151747515543e+00 4.627841543499154220e+00 3.983760211560751330e+00 5.644942829642397797e+00 -3.167325614121502486e+00 -4.576233436614868921e+00 7.146404676906682241e+00 -4.430261861883078467e+00 5.230305248313229960e+00 -5.198647458820944145e-01 1.125430721124181188e+00 -6.289622709766002018e+00 -2.493311916581472776e+00 -4.848471059301244224e-01 -6.778317356494981460e+00 -5.443714123846246089e+00 7.136538921907797928e+00 -1.364312725393101111e+00 -2.061224035538606003e+00 6.011494378232291602e+00 1.003555559247409690e+00 -4.937461038968918636e+00 -1.306282557646270437e+00 -4.338829060452882302e+00 -4.888043995143588560e+00 -1.063857471328818471e+00 4.730176875655027757e+00 8.921596437322381057e-01 3.178629712263678631e+00 1.037948519374925604e+00 1.440986839971392985e+00 -1.510788230134983756e+00 8.288564795576509880e-02 -7.010162262595659444e-01 -3.611050999469350042e+00 -1.250459416286412884e+00 6.625561206007715143e+00 5.384369277971968515e+00 2.210623249703337123e+00 5.161057018147261921e+00 -2.125367822297217657e+00 -1.818286506639838596e+00 5.141062339066762910e+00 -4.046658605379921170e+00 -8.211222693071721368e-01 9.625821023740215310e-01 4.024042786002183236e-01 2.650905885210051771e+00 4.438435047930488153e+00 -6.019585452634261813e-01 3.209358976023150234e+00 -4.712486267147529162e+00 5.748323010198818750e+00 2.029635692664391478e+00 -6.595241990105885077e-02 6.887360832583380166e+00 -6.883617797903763602e+00 -6.891094438999920690e+00 -4.731811149812040540e+00 -4.364211023204023654e+00 -1.232493756874251112e+00 3.820133073717448813e+00 2.368975303556426937e+00 -4.125260292988413013e+00 -1.465554112279749077e+00 -2.267298655952930009e+00 -7.108259409339136248e+00 6.776957180704632933e+00 -2.348846748992484468e+00 4.754637351577572169e+00 6.505681198429487999e+00 -3.615884491609599127e+00 -4.780979623535390743e+00 -2.764470476173991553e+00 6.441874904831367488e+00 -6.606649636413213678e+00 2.657853668585564488e+00 4.339796339245669543e+00 -5.160881187550107718e+00 -5.408141871508751031e+00 -2.041998347944233849e+00 -5.163928670419831057e+00 -5.928597647508238921e+00 -5.822297382415546174e+00 5.682440831286952765e+00 -5.230097913717290936e+00 7.141465349729971379e+00 2.506764918135642617e+00 -2.667713759265055717e+00 4.597994864037264762e+00 3.905095417270098235e+00 -6.958546295054409470e+00 6.452600040910785317e-01 7.118948258357463033e+00 6.779839764861353757e+00 -5.108380078938248303e+00 -5.038704824030557639e+00 4.373342306012197866e+00 -3.822311406073412687e+00 -5.333195003122364497e+00 3.008548331704264389e-01 1.948138924519730919e+00 3.285316837233148490e+00 -1.570999092239867112e+00 -4.744417034410574274e+00 4.489696409258977283e+00 -3.094199742947979725e+00 2.728364599609949703e+00 4.007646501392149396e+00 5.325344274216949003e+00 -4.808512290762513075e+00 3.178782773112529991e+00 -3.928161155318300679e+00 3.109729804502887163e+00 -2.948942413949688923e+00 -4.582604954976039480e+00 -4.093007213529392452e+00 -6.953157278870966351e+00 -4.306748284730091969e-01 -6.594609988064374484e+00 5.693793636909339817e+00 2.664334520651302274e+00 -7.142596417395361996e+00 -1.914313802008163146e+00 -1.777024953248685257e+00 4.930864373302709325e+00 -2.829242729061895112e+00 7.077923675750231958e+00 -4.755420594060039363e+00 -2.722573810330100597e-01 5.158728774439491183e+00 4.298986519182228072e+00 4.895448052578013964e+00 2.702847022441758007e+00 -6.031604172956162024e+00 3.302613679450856043e+00 -3.756749579286686735e+00 6.638523171860868377e-01 3.495758823733007947e+00 -2.679933247683901509e+00 6.190096054533444025e+00 3.926187102292080233e+00 1.127135063485127375e+00 6.236990740073581563e+00 6.737750546861493994e+00 8.916827932289015379e-01
4.552883868860367222e+00 5.514181843718145570e-01 -1.922252691819203774e+00 -5.132650535124116509e+00 -5.630202292731046221e+00 -6.279888830764482677e+00 6.041607622644376896e+00 3.478017193782344307e+00 5.471209701784745860e+00 -4.238993796563429228e+00 -2.653271488161025982e+00 5.595930653631024043e+00 2.400748908201768561e+00 3.247699531575959142e+00 2.762378313414208364e+00 -4.242217536194226923e+00 -4.193935064986216155e+00 1.671539834729837581e+00 9.713835967652145742e-01 2.652925408562653242e+00 -5.969830294360710887e+00 3.286903240505656854e+00 -1.759852445074155947e+00 -5.240725242354637103e+00 4.385661502973356440e-01 -1.920207219202277216e+00 -3.932385843423415128e+00 -2.875156414442506594e-03 1.616292093861559642e-01 5.574239862290178982e-01 4.671785503149290086e+00 -4.547320836258640142e+00 2.382894990422089521e+00 -5.881093403634260142e+00 3.985165232900932608e+00 2.212787809856117338e+00 2.830650474086169321e+00 -3.160820757156953764e+00 7.173324154956422838e+00 2.975014834783755724e+00 -5.549115841685408057e+00 -2.211556669693218069e+00 3.959291489187295010e+00 7.259713768594138195e-01 4.855879043988287069e-01 4.619055095468563188e+00 2.018871625477902221e+00 -1.909812479177789291e+00 -2.580887756843377900e+00 6.418903044189795182e+00 6.685003227188182073e+00 -5.636798075722274426e+00 -6.074645263573182241e+00 1.846105154829861927e+00 4.973936568698920091e+00 1.748896428155854776e+00 -6.188298918227292944e+00 6.440697783413261490e+00 -2.919172175642506861e+00 2.285810878962736048e+00 -5.946470075694846535e+00 1.666711943542617647e+00 6.292535011734578632e+00 4.761897939906799770e+00 -4.038349622264144401e+00 6.334887834141849083e+00 -2.600311617617594440e+00 -5.300111747318869249e+00 1.163507935765831558e+00 -1.384478531728017270e+00 1.460013521778260159e+00 5.549490809434779459e-01 2.482355668182339326e+00 2.613599876725403615e+00 4.696139282632278089e+00 -4.687148575377198867e+00 -6.901597044401531988e+00 3.824318532336966059e-01 -8.479860809315210857e-02 1.428088453747827780e-02 1.074072947569022718e+00 1.611292178605001846e+00 -4.771280980769712521e+00 -5.865272744937574778e+00 -1.928707991126220600e+00 -3.790757170246140006e+00 -4.696013825812818787e+00 -1.524236945862061487e+00 2.396080597607754825e+00 5.882995483715488305e+00 1.443500109900206718e+00 4.029959283881566989e+00 9.128229191123090613e-01 -2.585944274892818751e+00 -4.308321771425196012e+00 -2.191963260168026562e+00 -2.829826647165369913e+00 4.668718413973165782e-01 -2.110448979683354487e-01 4.486645304534218504e+00 -5.210723120771574735e+00 5.622569485701168351e-02 -6.433530505803074284e+00 -1.533599856200680067e+00 -4.082427068396362380e+00 -1.427593219233429744e+00 4.519392571958517735e+00 4.752293859744859184e+00 -7.830585636013474016e-01 -6.211976537540525811e+00 -5.821661310561669467e+00 -4.292199812604977245e-03 4.665162443031965367e+00 1.281347154467812333e+00 -5.823335278141303917e+00 -2.112247689063710965e+00 -6.592601177885447861e+00 4.139766329753261864e+00 -3.599083075963692036e+00 -2.709040138356896055e+00 -2.668910353981149619e+00 -1.084726278451125792e+00 6.743331089898288333e+00 3.976463069917017368e+00 -6.415024073256852866e+00 2.513493583790610941e+00 1.369635476853436451e+00 4.210570752163382835e+00 2.089082090814507353e+00 -2.950751387543677939e+00 6.154967164492891385e+00 3.436729782797333765e+00 -6.848927671032422060e-01 5.897229279432959714e+00 -6.993669650235919022e+00 4.618424670246073838e+00 -6.255318598667206631e-01 2.756997638990481558e+00 4.464980884413272122e+00 6.536064919110789795e+00 6.549907190312033833e+00 2.940778425987414790e-01 9.117812048437832217e-01 -1.875290741028933450e+00 -2.018679542268893901e+00 2.105024044768470048e+00 2.064652932203739688e+00 1.954018096903597845e+00 -6.565300868619869945e+00 6.251148113251327132e+00 -6.410232005544286515e+00 4.796433427559440688e+00 5.033556527286897619e+00 -2.199650204345395821e+00 5.930248692310104985e+00 4.798633076742655490e+00 -4.939984602298649996e+00 4.488075166620068224e+00 -1.268823243476709717e+00 1.564948352324842640e+00 -3.089642607892975512e+00 7.291847349165625838e-03 -8.265685704305000825e-02 -5.648441289686709332e+00 -4.948511397298474002e+00 -1.211288463000823379e+00 4.453219530742090093e+00 -2.575042512747511836e+00 -3.386123633775864228e+00 6.590747416811197468e+00 2.132929142437724135e+00 -6.368967407031131955e+00 -1.674064200799040059e+00 2.396829434296366898e-02 -1.385246605183557911e+00 -4.055805618844861904e+00 6.442350384559512477e+00 -5.260700445325779961e-01 6.945238574810406185e+00 -6.611693959662385822e+00 4.239977736400676100e+00 1.686852088699923868e+00 -5.855262885605579726e+00 -1.075522548388743033e-01 4.288513322142991413e+00 6.545006260057836478e+00 -5.582658504112508524e+00 -6.923714795448546511e+00 -3.065564601595068606e+00 -9.754910089756174685e-01 -4.851230307194678737e+00 -5.435973149524659043e+00 1.795406169191218204e+00 8.581152975581484155e-01 1.171572526603889663e+00 -2.295580200640379154e+00 -1.809257056660299234e+00 -4.075625084324735248e+00 -7.027233977464758752e+00 -6.865330049717567995e+00 -6.803169941653496089e+00 3.450418544632515516e+00 -4.072041988683641200e+00 1.005111099903400307e+00 -5.314913089573188643e+00 2.596531444889598195e+00
3.473550979755826607e+00 4.438970086378982494e+00 3.039737317284469054e+00 2.696497964140703196e+00 7.000382424654010727e+00 -5.721174940371256845e+00 -5.729285935473842351e-01 4.750867590271316665e+00 5.710981332537865995e+00 6.189431989645586718e+00 3.052793819710272860e+00 7.509689578924376718e-01 5.347100434126602408e+00 1.265466494623362470e+00 -6.245007767237352070e+00 -1.756536211674848191e+00 2.432734013373820670e-01 -6.409204591801529460e-01 -6.511380835454326110e+00 -2.688057814167770676e+00 -3.224434692107259082e+00 -5.058869754217020898e+00 -4.475178926587594752e+00 -4.633522409035015777e+00 7.874511114040502191e-01 -6.477807700821498038e+00 -1.704423803110643565e+00 -2.629823639439315408e-01 -6.005805966822863162e+00 -7.020499054621581969e+00 2.042868013038818376e+00 -5.604406336268114686e+00 5.014089116286676528e+00 -6.290218868055521995e+00 -5.322856919393629260e-01 -7.047891548456293620e+00 3.307183013657668980e+00 -3.444967534975411194e+00 -5.419060077469965542e+00 3.785109669633054175e+00 2.586006026535436320e+00 -3.666859538335403901e+00 -3.727305470653775377e+00 9.040970306336135742e-01 -6.195277464560179581e+00 -6.999787504714595876e+00 -5.813557195990257220e+00 4.392077196640694403e+00 4.666538865790065493e+00 -2.147685295603008804e+00 5.288910989271905727e+00 2.096913452209417716e+00 -6.698621485795237085e+00 -4.578331769225002290e+00 -1.548147311363542222e+00 -6.917260124989435432e+00 -4.558709055977484326e+00 -2.561608072561726512e+00 3.411735645519385240e+00 -5.089961041696950517e+00 -9.327151287236009614e-01 -6.056853380126066000e+00 -4.242331393413360630e+00 1.621185981423602707e+00 -6.984459974775729663e+00 -3.769014344757720902e+00 -1.356205420003967266e+00 -4.435885394188889386e+00 3.629508669539881716e+00 2.161751683634583365e+00 -2.657383195137190679e+00 -6.455825718449877293e+00 6.973178775695931364e+00 1.371387936135883390e+00 -4.155280347907090999e+00 -7.104323999140913948e+00 1.577907731071826580e+00 -1.756279925084317073e+00 6.724900970090516239e+00 1.135309570894562192e+00 4.810293213033872917e+00 8.815479173516134470e-02 -2.444341522250883081e+00 -2.907805564336265469e+00 4.432634717944975655e+00 2.923069152278940375e-01 -1.050834751162692760e+00 3.469269400877454501e+00 1.396677159107446720e+00 -1.156023132710595869e+00 6.146187805775686464e+00 -1.080803256163889614e+00 -6.788387076530497666e+00 3.744368934311875119e+00 -3.268651543830957795e+00 2.653528079541924711e+00 1.527662100785210031e+00 2.439274617062622053e+00 -3.461921661830306363e+00 6.991796114818459529e+00 -6.519402120013563895e+00 -5.644091667063548812e+00 1.584848582590456578e+00 7.060856851626151176e+00 -5.954680937966444709e+00 3.909044293752283572e+00 -2.728235392919532654e+00 4.815553738796936045e+00 -1.724579186197390701e+00 -3.639088849886199739e+00 5.731065789841554903e+00 5.967030130016705014e-01 -6.280012757154439740e+00 -4.614639850833308188e+00 5.891253106761182856e+00 -4.853758028857682483e+00 6.606375642641889812e+00 5.349250097953429872e+00 -1.240847081671222263e+00 -4.936071580858545360e+00 6.296539872491501377e+00 -3.381037286079851878e+00 -9.571229749379855933e-01 8.225821968327682310e-01 2.809440144426815777e+00 -1.474299699462775948e+00 -8.366872872153389151e-01 6.548185752967406792e+00 4.679624617646799933e+00 -5.461695971498497393e+00 -1.042935035784692932e+00 7.041022489949743779e+00 -4.860546294923188348e+00 5.627746492377704080e+00 -6.921451335768288082e+00 -5.078087822050226130e+00 -4.385737060468751558e+00 -3.068338831121387056e+00 -1.271079503142108713e+00 -6.245877037088845896e+00 1.818886630533974591e-01 -3.074985589421477261e+00 1.488876661497964493e+00 6.416838549043314188e+00 3.148804292682241268e-01 2.852684984204781671e+00 6.627664985089758432e+00 -5.693677646180684837e-01 -7.223337786875595468e-01 5.579637148752226494e+00 -4.642564317340281299e+00 1.736269119711549402e+00 -1.316446561627728551e+00 4.931516198264120909e+00 1.611428059831071291e+00 6.440875276846816710e+00 1.095293960535943301e+00 1.510772681376303828e+00 -2.145423663417865168e+00 -6.169629682598762876e+00 -5.291613749241046882e+00 4.016816919635683547e+00 3.617807160721705273e+00 -3.016789517053304892e-01 -1.831570414213979259e+00 -2.652340339198882457e+00 1.045430210311622643e+00 5.512477841388674804e+00 4.897311443502216477e+00 -6.541254825365061087e+00 5.653874546774558141e+00 -9.395222721850458036e-01 3.270603399495569441e+00 7.048876979740048121e+00 7.768590718904543335e-01 -5.403186664742139378e+00 4.114738194021662743e+00 -1.308636477856732538e+00 -5.488148376151607444e+00 -6.084766733087426438e+00 4.454403570901929399e+00 5.105519641502055173e+00 5.089756947620391436e+00 -2.339813903821378327e-01 -6.745392741620967136e+00 6.285415886839455624e+00 6.428602448584821438e+00 -4.819585480845771208e+00 -4.865554827532065363e-01 -5.625584372597327132e+00 4.468351965000014303e+00 1.075616919089425583e+00 3.277275383991772095e+00 -7.669585868438578702e-01 2.630946815749531265e+00 3.805342491325253373e+00 2.530692726726860187e+00 1.315075114910670973e+00 2.217764539992757467e+00 6.615753680156152283e-01 6.756475561755904025e+00 -1.726607727565753203e+00 4.742210745675544459e+00 -4.961429934600702474e+00 -2.426879316349672244e+00 -4.153215785897203638e+00
2.792701327834833602e+00 -2.825939810781672890e+00 5.517755149400936254e+00 2.749443982259626829e+00 -6.551753455626756484e+00 -2.585660801492882133e+00 5.691550197316847637e+00 -1.573846400392229894e+00 3.696865863747667458e+00 6.496816217172467489e+00 -3.829307446742661991e+00 -2.700033648749073478e+00 -8.197233328264412755e-01 -1.934445844272790094e+00 5.693901042456203321e+00 4.183128206293602602e-01 3.988979482890441464e+00 -4.165189323749990180e+00 -4.501960309952649730e+00 -2.937282370138878385e+00 -4.262039077549711230e+00 3.996210675618681929e+00 4.631047692200752408e+00 -3.428991163558591015e+00 -6.851914500773869321e+00 5.300737255784212287e+00 6.548060727777649248e+00 5.929125653083553438e+00 4.445434855610059799e+00 5.939812187761129847e-01 -4.066180398514582350e+00 2.667866683456371124e+00 -1.184395264982388118e+00 -5.081555412493487189e+00 1.680240863282593589e+00 -4.610120093989207746e+00 -6.172603272353216930e+00 -5.609201667267774027e+00 5.587368960287347752e-01 -2.606703375896672448e+00 -6.304742852655124352e+00 6.784030804106922830e+00 1.914979001248785950e+00 3.929294776908145992e-01 9.798246879125084297e-01 4.957436024257662055e+00 3.951497935883872881e+00 -2.200259625855073065e+00 4.263885117714341533e+00 9.261317532486770254e-01 4.771046946944291989e+00 -5.203254154257397346e-01 3.244014292601192118e+00 1.289840067483930541e+00 -6.635835563028114059e+00 4.619750606830702044e-01 -5.930582723469305151e+00 1.070594882548481008e+00 8.700299259395357643e-01 2.263611516550468217e+00 -5.667920800778851742e+00 -5.944896418657144466e+00 -7.645398632125846028e-01 5.615629254770875711e+00 1.470439534877056031e+00 -4.852940691084043578e+00 1.836418300537137061e+00 2.080512666435410551e+00 -1.614268244642107941e+00 1.111574471632302830e+00 1.147374500609519954e+00 6.712431398048596343e+00 -3.971700289261726469e-01 -2.321987234180704629e+00 1.833614686009456873e+00 2.854939390602060367e+00 -2.149095999212457642e+00 5.106266686761629536e+00 2.616351752170496425e+00 2.479397391972996689e-01 -3.698354885519528512e+00 -6.749166928619104944e+00 -5.538970273656706134e+00 4.517008623685687674e+00 -4.294711147851162814e+00 5.156195748836863046e+00 -3.263642935492646391e+00 -1.160854279113906484e-01 -5.542055193028283533e+00 -3.187746925405436471e+00 3.224484693065564844e+00 -2.715318370106461487e-01 -4.091929419078160102e+00 3.229433233395984537e+00 -1.117776576151149781e+00 4.414265474247200061e+00 -6.452976969248016559e+00 -1.360602067218535050e+00 9.437062617054694513e-01 5.352761371407464885e+00 1.881514446122549478e+00 2.496347687459490761e+00 2.807557808585109949e-01 -4.480034976343838515e+00 -5.570538664991101285e+00 5.542882226888641295e-01 -6.779076118633478032e+00 3.837418575461356784e+00 -2.020633816629577417e+00 1.756603461085271434e+00 -7.066753189060081652e+00 2.398955447508717143e+00 -6.341741004672697635e+00 1.833098681558137932e-01 -1.910975551913400627e+00 1.742971320882978681e+00 -6.015626189688481951e+00 -1.654843070474237399e+00 1.610968250156982196e+00 -3.233592590632082597e+00 -6.951889313361451217e-01 1.144243596883465219e+00 5.015573109553434605e+00 -6.650922784690386891e+00 3.908643423734763367e+00 -5.231473495460800649e+00 -1.154921941352639703e+00 5.089935964643826694e+00 -5.535985105931252370e+00 5.487788141955957322e+00 5.819173881465706799e+00 -6.814065680777397382e+00 2.548413510559532469e+00 -1.372568218298564569e+00 4.266532845274270791e+00 -3.916711835839195910e+00 -2.527323385099399022e+00 -6.504498777704735168e+00 1.348695598648437688e+00 5.407903910015216198e+00 6.682540705702945338e+00 3.853714675783569632e+00 -3.394912734415938438e+00 1.408140889919406780e+00 5.102905136031856692e+00 8.651570120118919904e-01 -8.519204184342613617e-01 -3.373374469183884283e+00 -4.761275395340080152e+00 3.787743262093738572e+00 2.920715231465361050e+00 2.819697985799364925e+00 -4.124254824975503553e+00 6.050954377523187766e-01 3.265330514832845310e+00 -6.150204368358508589e+00 2.046523426369127652e+00 -1.016318782800023302e+00 -4.011768795401373211e+00 -6.620350530360893160e+00 -5.030812919443419240e+00 -4.469542998291514913e+00 9.452748606246578200e-01 -2.340712523779713283e+00 -3.958890469599693485e-01 2.410894682341843342e+00 2.085852734279527443e+00 1.526882429533412688e+00 -1.878231413020548191e+00 2.707517085315852778e+00 2.423059742477281286e+00 2.740794657249879140e+00 6.362829665048227668e+00 -6.202787178205087848e+00 -4.538333088160866780e+00 -6.627493483209605074e+00 -3.720459867491889838e+00 -4.814056584466021249e+00 -1.318072278579220102e-01 -1.893195440732774681e+00 -3.926317990276011471e+00 5.600912404307432091e+00 -3.503722510806233092e+00 -1.338085487502490345e+00 3.480300001364800444e+00 2.156581225875366936e+00 6.052480907028838786e+00 -1.150731154989549365e+00 -2.877688408777721474e+00 -6.878848939843914323e+00 -5.802415266030511720e-01 -4.128507140040695411e+00 -2.746498248783809881e+00 4.395854049308636213e+00 -1.954475685438614718e+00 -9.750431118167475208e-01 4.159101242532274867e+00 -6.758998574283469729e+00 -2.770080459840987608e+00 9.069367215828701978e-01 -6.674752485077593889e+00 -3.302280451818853990e+00 1.935296401053573589e+00 3.797853399983012745e-01 2.605756339545228784e+00 6.974659908148482579e+00
-3.409234252176553959e+00 -5.767338269893788893e-02 5.454038087072086149e+00 3.480305162625585869e+00 2.179150295673871529e+00 1.595399731224122597e+00 -3.937878780363935349e-01 -5.933173364305926789e+00 -6.881448343270132995e+00 6.719201788057908686e+00 -2.845094587230884375e+00 -4.307397754926231670e+00 6.782921078057758457e+00 2.844621502562842519e+00 -3.565750094217409405e+00 7.038540423981276106e+00 7.359321299677601576e-03 6.795756835987262434e+00 -2.773750479853668516e+00 -9.261666339146283899e-01 -4.220253220063558075e+00 4.934630366693037118e+00 6.359090123002754780e+00 2.661070222330115254e+00 5.005016272773161745e+00 -2.523666463530431781e+00 -4.999260205056926587e+00 -4.763132386728537782e+00 -1.274306587981677730e+00 -5.451729360276913461e+00 -2.762406793896871715e+00 4.625134292399967428e+00 6.697555755640183683e+00 -5.489513253723726116e+00 3.328702114830288661e+00 2.181205754995942492e+00 -6.831093991951139088e+00 -4.460298036738334027e+00 -7.038310889430498207e+00 3.820337272025011277e+00 -6.676256520185471999e+00 -6.647215307552617247e+00 -6.527756616558918701e+00 1.426383487173676468e+00 5.224958825896313996e+00 -4.979906704353129321e+00 1.330965763831478910e+00 2.805415699483906344e+00 1.902747207022721820e+00 -4.860715609383191804e+00 3.531871021713512082e+00 2.255367389413083679e+00 -3.341603895501137789e+00 5.143565758194983850e+00 -2.200989678648321846e+00 -6.641586617329513054e+00 -4.665872184878800510e+00 -1.066653841635687217e+00 -3.032027059279604142e+00 5.325695366773325112e+00 2.882335436545715002e+00 2.917715765974538966e-01 1.470641044819124277e+00 5.913837702572763533e+00 -3.329071041265770248e+00 -4.652345216776108572e+00 -3.274719751286451874e+00 1.332299722133814868e+00 -4.313503161151488463e+00 -2.041733761134821301e-01 -4.185002348627804736e+00 5.860882277170587962e+00 2.916890685023807883e+00 2.118357647388373177e+00 -3.488311216659760183e-01 -5.056075923627841640e+00 4.625724043013769382e+00 5.380359880031766018e+00 -3.305902736633846484e+00 -6.028265885071945718e+00 -5.445181651905522280e+00 7.377565322944490411e-01 -6.322930371129610316e-01 6.788078701474492327e+00 1.936943382938923985e+00 2.436971715085832990e+00 5.524451987013113685e-01 3.655236887885825237e+00 3.999567748402644618e+00 -2.043855423076544664e+00 3.736152974047692865e+00 5.106379866043856630e+00 6.834878235595219786e-01 6.825883544844471906e+00 -4.946106302803844557e+00 -3.124975028024097323e+00 1.436106604484074900e+00 -5.168151945451089802e+00 -2.368450843029660913e+00 6.254869420116303758e+00 5.685334882218599617e+00 -5.354334714749422020e+00 6.834613837701800421e+00 3.559032580131873402e-01 2.031726586388337363e+00 -5.683255216744840688e+00 1.080450735112270966e+00 3.173720364236746860e+00 6.923456881616509406e+00 -3.304374512089459870e+00 -5.695771247470803322e-01 2.842483094980337910e+00 -1.579750155830037528e+00 5.025587816847452594e+00 6.309238936528092090e+00 -3.680654132766826514e+00 7.029197882641391004e+00 6.805375369849754108e+00 6.939852129091691246e+00 -1.925609636437062511e+00 -3.447871631320400532e+00 2.187247507211705244e+00 -6.244475388977505759e+00 -5.102588581325997019e+00 -4.688358110252764277e+00 4.065032567017757614e+00 1.922401463627077201e+00 -2.200596289637145819e+00 -9.102680491945736030e-01 3.325890688199371503e+00 5.648119259114444013e+00 2.207225947565568447e+00 1.071124504342198858e+00 -2.605693821608918270e+00 7.070817587630952694e+00 2.822914279185407826e-01 4.603826353854048925e+00 2.312335644239270849e+00 -6.681813442439811901e+00 -2.412023560420792079e-01 -4.397152912058854390e+00 3.580040739553063123e-01 5.395098203226035949e+00 -1.920312368692455030e-01 -1.595548583065556636e-01 6.480473163967813421e-02 -4.096221217962502159e+00 6.306802670039818537e+00 -2.135512185592465695e+00 -6.021244362255989913e+00 -6.668795492903850430e+00 -3.879869696641435883e+00 2.945571125321780226e+00 -1.872289139360274302e+00 -5.675148773177472350e+00 4.147878939206384175e+00 -4.430824576501381173e+00 -3.506583111050756707e-01 -1.886464155338129833e+00 1.749367120428149347e+00 4.811396699879292527e+00 6.177889965009224937e+00 -4.970674081328821714e+00 -4.660753134129548059e+00 -7.060905041361555945e+00 -3.783283259959118627e+00 -1.078644653358073358e+00 3.068148443723236252e+00 1.465424944074462887e+00 1.446788321482769257e+00 2.108381610940758044e+00 6.655098623052042583e+00 1.802096143754135182e+00 -5.354326000591497881e+00 -7.054196681335069385e+00 4.503075543532262692e+00 -1.969495869207870120e+00 6.036758180758243775e+00 -6.533870432821390573e+00 3.147706434049889701e+00 -6.659725933623136029e+00 4.179969370906410298e+00 -4.917665945626855439e+00 7.963806072824004545e-01 -3.018250054085817036e-01 -4.378489430873252708e+00 4.797245025706271093e+00 -5.499309499210251140e+00 1.314487206929013441e+00 -1.363635884553565436e+00 5.613271772712550955e+00 -1.808493318142730955e+00 4.454597181543326734e+00 6.292978454669317046e+00 -2.097773499739454817e+00 1.802498376106481226e+00 -1.670561430002136971e+00 6.866414617370963036e+00 -6.918654133058279143e+00 -9.529945023093772116e-01 -2.173581968723432567e+00 -2.505545751111010411e+00 -5.244373491166580692e+00 -5.267195664396228771e+00 1.821105915155984079e+00 6.678848485369012877e+00
1.339512137545843418e+00 -5.292443406722654231e+00 -1.511084430767801079e+00 5.869589188624692255e+00 3.887629128809029666e+00 2.407160137895748342e+00 3.910505966598244232e+00 6.262214060245450575e+00 5.380800411227793845e+00 4.696939612847765844e+00 -3.202324768013052214e+00 9.262973889036443254e-01 4.473880916096823590e+00 -5.223835248553583277e+00 -7.163330272902826978e-01 -3.094355323745532349e+00 1.162485080249490987e-01 -5.551233224219953577e+00 -4.871798216648111968e+00 4.043010890440669414e+00 -5.559392246685520789e+00 -6.641651505728740190e+00 6.431867936257479101e+00 -6.505203810643434004e+00 5.163257403718734651e+00 -5.569528060782553247e+00 4.806639744308405682e+00 -4.013745743221387663e+00 2.245556569462464402e+00 3.459127541167108078e+00 -7.229134710636827554e-01 -2.145937859787082402e+00 4.395933781908908600e+00 -4.383702282425116614e+00 -1.225196889986899684e+00 -3.394383715835902926e+00 6.657212277803195910e+00 5.462466437786298812e+00 -5.643040032652472782e+00 -9.335155608827665485e-01 -6.915697768174300819e+00 -3.828095859816910806e+00 -2.532767284751565651e+00 6.277639478992286470e+00 -3.531165113238150521e+00 2.389355173970680202e+00 3.569574957113542252e-02 -4.274383621229322472e+00 -3.802900419344608096e+00 5.828746532012907267e+00 2.547437503096210865e+00 3.502290228747518608e+00 2.724407652961728044e+00 2.530795896966016922e+00 9.843129105007992763e-01 -5.351767354155128942e+00 -4.172909150057855676e+00 -5.997184712499788795e+00 -2.453653720813347983e-01 5.805727066369064104e+00 7.041837687387254796e+00 3.153195295067444892e+00 4.418790529462173211e+00 -6.126913986368208498e+00 -4.910897512543983545e+00 3.183613342837938287e+00 2.520195534067122267e+00 4.831643831070140394e+00 -1.334083473099122730e-01 -4.268784869254508507e+00 1.199747660314871150e-01 6.015488784271109779e+00 2.425504073692264395e+00 9.417255844183676228e-01 5.088122233023642416e+00 7.199580312084371547e-01 -6.254461280827022129e+00 4.252006919444241362e+00 8.877015620194036449e-01 -4.245510830572770011e+00 6.152602139460088271e-01 4.441513524812089386e+00 4.018232340705726102e+00 8.094265422524373754e-01 -5.804798797731327120e+00 2.256872597423983162e+00 9.794334000078166458e-01 -5.598556464703885460e+00 -6.439497519338228948e-02 6.812321635138077092e+00 -6.777930073701824432e-01 -6.837842385527400424e+00 -2.430877752041628259e+00 1.792129772388311615e+00 1.309685533282598957e+00 4.190715159296312109e+00 5.176012069784157177e+00 -3.647062592178261231e-01 -2.248210871885770512e+00 6.018240283804955126e+00 -1.777716182699697667e+00 -3.922175509097331592e+00 3.202201080715001869e+00 -4.708229376277026645e+00 1.500419534136971267e+00 -5.855597596558482776e-01 2.804387106324517820e+00 -5.063871570856349535e+00 2.645801291264856747e+00 -6.167808023749090651e+00 8.722146589910753089e-01 -2.472137094205030916e+00 -2.196258302621266090e+00 6.182723839167910462e+00 -7.004270254393127337e-02 1.247386151027730095e-01 -6.749754304959572515e+00 4.309863199010981027e+00 -1.921234351458244172e+00 -6.779523097277327714e+00 5.964359484301284375e+00 -5.542546301771296591e+00 4.431066314270620587e+00 1.679346250393843665e+00 1.609765890696560175e+00 2.831948075217955996e+00 -2.517420868944231782e-01 3.345597471465995287e+00 1.024954211667730375e+00 -5.568856078033761925e+00 -5.744543479227250060e+00 1.716011930605281233e+00 6.269226831843936587e+00 5.223456836686114713e+00 4.748061499467523205e+00 5.222139176660445692e+00 4.001504111395082219e+00 -4.267161934963491277e+00 2.312401290487626770e+00 -6.947479502312572386e+00 -5.835264279750898453e+00 3.907401233109232486e+00 -5.218948920206467612e+00 -4.613364373690968634e+00 6.744212458886707395e+00 1.258558731293059063e+00 4.165792346673176993e+00 -6.321689453637369116e-02 -1.103925327859586747e-01 2.265178413692285897e+00 -4.285291660057845675e+00 5.475125681255924803e+00 4.182262392747272628e+00 -3.716268801630700391e+00 5.901614296599059450e+00 -6.772779908799471116e+00 -3.215829292679691864e+00 6.200069920515189459e+00 4.335597010179135680e+00 -9.690684186017853863e-01 -3.648771661234038177e+00 2.076443617636589967e-01 -4.280389257476202580e+00 6.737992205594069972e+00 -4.723530445657669219e+00 5.968417096814341072e+00 3.333359680110801193e+00 2.425929743975775210e+00 -1.468305960469219462e+00 1.430126420317438196e+00 2.996515585577471885e+00 -5.138251118990976529e+00 4.801762881148750051e-01 1.116407116350292661e+00 -4.484014189359713853e+00 -6.380329670802429298e+00 4.151485108417860559e+00 -5.419942325337373745e+00 -4.107668826254402106e+00 1.588074935589581349e+00 3.493630699765776004e+00 -4.439412013024598203e+00 -1.776027213768268664e+00 -3.311147792584030913e+00 -6.102922703128535353e+00 -6.771355131839514874e-01 -3.123807099623787220e+00 5.639354070714442280e+00 4.865186589648698323e+00 -3.176816062884492364e+00 -2.917710111590183786e+00 4.267195797275156188e+00 -3.173429251975064869e+00 -4.039784709503591031e+00 3.520076106031033270e+00 -1.332888892038318840e+00 -3.372520407265933162e+00 -6.105609561227192117e+00 2.168040258232026840e+00 -1.021496037939709112e+00 -1.125061743246866364e+00 2.978218453191681103e+00 9.474150191586931669e-02 -1.594675561773065242e+00 -3.750931487310705137e+00 -5.873184713346845776e+00
-4.001489274353256853e+00 5.505536805385801813e+00 3.765140454058887531e+00 -6.361352057348560685e+00 -2.814897102597978318e+00 3.946130001216856975e+00 5.157202915245267860e+00 -4.532152958151274724e+00 -2.528887621337396308e+00 -5.536740577251154427e+00 -2.915465141354914635e+00 6.747970928020721182e+00 1.072188635227984133e+00 1.684601788890564666e+00 -2.585512953260773905e+00 -6.577581870804137587e+00 3.571384486615793996e+00 -9.322340987473450857e-01 -2.470711427052612486e+00 2.722484315989471604e+00 4.168985635047900984e-01 -3.975658811555237371e+00 -8.259588502614544359e-01 8.161071232566881051e-01 5.404864146218352872e+00 6.901579912213272827e+00 -1.987759071949593448e+00 -4.305460817133137219e+00 -3.828992685997885115e+00 -5.663327716569853010e+00 -1.012039320289560784e+00 -6.346409593914594360e+00 -5.505956249073713060e+00 6.285092928657967981e+00 4.905346339906655473e+00 -5.893704320087334914e+00 6.644406823125065031e+00 -1.407974390006641263e+00 7.580917818202560499e-01 -7.056435464769895027e+00 -3.894951796240172515e-01 -5.217923468593284930e+00 -1.452144490704450064e+00 4.997000515599911985e+00 1.928846502410883845e+00 -2.394291596221203466e+00 5.651468201334632013e+00 -3.771790215568564975e+00 4.116889330638606737e+00 -5.387698359749649946e+00 1.377381795662823372e+00 -3.138067636178130115e+00 4.386068427518130974e+00 2.680076760330390773e+00 6.689133361810946532e+00 5.168104071159629775e+00 5.126951147488771454e+00 1.024228546982193233e+00 5.558093028500737276e+00 6.152774474218988487e+00 7.417845547535102391e-01 -4.807715672792665096e+00 2.445628817777377506e+00 3.867082362275803487e+00 3.503607748181328252e-01 1.054692215286576529e+00 4.103475328852499437e+00 -2.252452838157938064e+00 -4.121102237901907550e+00 -2.774983647811268384e+00 -6.803237214230300367e+00 4.893760609644640880e+00 -3.274378069135427616e+00 -5.449363217337880316e-01 -2.738778477503247100e+00 1.341339138900842887e+00 5.011917912850193169e+00 -6.700388264955706497e+00 -9.766978503926785349e-01 1.029466671149927848e-01 1.849254106714786516e+00 -4.407402682560735308e+00 -4.878649572945863433e+00 -3.972876737274797510e-01 -7.039247696810565280e+00 -2.606980358578128598e+00 -6.376282819905349619e+00 -2.750626326086889506e+00 -4.090303198982117472e+00 6.097931221455624495e+00 -2.887210356445283121e+00 -5.093916210062547023e+00 -3.346851660614565294e+00 -2.446299690185859355e+00 -1.441234499111168521e+00 -1.685583889419763615e-01 5.767249112310176784e+00 1.744311288876502886e+00 -1.571381954455956631e+00 3.196667336804976500e+00 -1.757011256388518960e+00 3.913187825145573395e+00 3.593574301011866368e+00 -2.407847639074372825e+00 -6.890050274229936988e+00 6.572883391580886858e+00 1.471407082799172317e+00 6.253374633923466597e+00 -4.703887771459167588e+00 -2.055058344123694702e+00 3.337951399614832226e+00 4.110676381933866530e+00 2.407086233399885478e-01 4.646527779533787594e+00 5.177368797431000758e+00 -2.503213190382463704e+00 6.671634947502020907e+00 1.625420472819578910e+00 1.284151345959763768e+00 5.050162045974087910e+00 1.292732483763513907e+00 -1.297779344948673863e+00 6.597888642199428944e+00 -1.393720203530089519e+00 -2.328637642406790942e+00 -3.626664721621482901e+00 -3.640155488719890808e+00 -2.160056315197532939e+00 -1.756186962061496271e+00 4.962745440354726090e-01 5.140827230342715382e+00 2.819352734224056967e+00 -2.368610405309523603e+00 5.359377828052312331e+00 -6.351361768589689483e+00 5.435540319899050399e-01 -4.983150868781867082e+00 5.975607136681063913e+00 4.073980856362672931e+00 -1.128917890837559668e+00 2.096793283005253361e+00 -1.239699853457720602e+00 -3.137715041080391565e+00 3.282700040173805345e+00 -1.355118319981881037e+00 -3.664669743682645198e+00 -2.131282814772879952e+00 3.654843964569181480e+00 2.899343839391773869e+00 6.630445800834010583e+00 -6.973679928833514730e+00 5.351151239526223513e+00 -4.428796690291368243e+00 -2.183638191070425005e+00 2.383140579685738114e+00 6.179254932406594847e+00 3.409913399260129818e+00 -1.248175439702160494e+00 5.762286297659680478e+00 -6.069682039999660716e+00 -6.892019876043771198e+00 5.970207287215998360e-01 -5.742042186450575514e+00 -2.171800612564493527e+00 -3.120058624509036260e+00 1.009598714440084422e+00 5.113763493535661731e+00 -2.446435218472995388e+00 4.055747064291266746e+00 -3.209471285732773627e+00 -3.703495753740638996e+00 -3.932526241633843789e+00 7.174739002650987629e+00 -5.655874730997699551e+00 7.953717516094824802e-01 -1.222721968422187055e+00 -6.046436069444180994e+00 6.514908207151457020e+00 6.373032448682669937e+00 -6.572886398192425261e+00 -3.064702226517800110e+00 4.421982119953687729e+00 1.950705611152627306e+00 -1.585742462340594239e+00 -4.533495525069329624e+00 5.908127756239752948e+00 4.659424254135913657e+00 -2.167016357408391602e+00 -5.323519509369827318e-01 -2.371374486223646549e+00 7.131076910274771308e+00 -1.419195455864060929e+00 -5.085543285639921862e+00 -6.144513017427065904e+00 -1.221910925561667360e+00 -1.528391720720821745e+00 5.338583093655896450e-01 -9.733382670824067273e-02 3.801153503890366991e+00 -1.566256548474734611e+00 5.959546933530647239e-01 -5.419961409710360556e+00 1.267909070536440419e+00 -6.663762401818110526e+00 2.699490284105655613e-01 2.413703603520151453e-01
5.488206477300521691e+00 -4.858536457665937114e+00 -6.905808908217431430e+00 -1.732656639657780717e+00 1.930676769306079343e+00 -6.562599005130723917e+00 -3.592904858975105586e+00 1.382219925600048915e+00 7.055251014428955969e+00 3.551112956401987208e+00 -6.324346792578630527e+00 -2.583792910793531572e+00 3.664472700315917653e+00 4.356211074079098466e+00 4.350371260272779539e-01 6.983521695943956331e+00 -2.796573964609307961e+00 -2.049050402945662874e+00 -5.336600963097284378e+00 -2.407348285025503465e+00 -4.878699952976912613e+00 -5.903620923871171655e+00 4.751638060049121037e+00 1.080656603077469358e+00 -7.275905618767850025e-02 -1.533316544567510764e+00 -2.625901656935330397e+00 -6.947128363902385750e+00 -2.764698192816748445e+00 -8.177016105614470787e-01 -6.086733336326807020e+00 7.016793361678026031e+00 -3.252546853568905494e+00 3.286579254091796187e+00 -1.711133636287657689e+00 -6.815507440512571513e+00 -6.868222325542711282e+00 2.183616615810951345e+00 -1.235278565256107353e+00 -3.970394355931167407e+00 2.983307951249408951e+00 -1.795694336045688955e+00 -2.357467812957558362e+00 6.781309556912221481e+00 4.460512238718787437e+00 4.523638285368957845e+00 4.852397351662786740e+00 -4.797930984518539610e+00 1.423583796952821334e+00 -2.324108232488403036e+00 5.340733695955585780e+00 -3.891938210835619305e+00 1.977677132289481221e-01 -6.803942399510252592e+00 5.289432659671371439e+00 3.933475096460351317e+00 4.451660738343186985e+00 -1.986406438632008165e+00 2.810753323038562179e+00 -4.923903460544150512e+00 -3.237660658321815710e+00 -3.715335017299596032e+00 -4.595207363053760652e+00 -3.294963960653128243e+00 -6.104919203244375758e+00 -5.377670294054299305e+00 -8.872135026428568105e-01 2.464169362411263275e+00 3.493210784389249035e+00 -6.395906636506473397e+00 -6.477161152937087607e+00 1.751992902163650667e+00 -5.031969217318568610e+00 -1.745809778384539879e+00 6.093962099701404789e+00 -6.175111263878097390e+00 -2.295597365692313652e+00 -1.007269651768783136e+00 5.854401081303881149e+00 -1.055119977269683318e+00 7.093507592550265528e+00 4.899443419570618907e+00 1.450645857829468977e+00 6.123039828220492531e+00 -4.395011804601945293e+00 6.284756232621788286e+00 2.694744724670433689e-01 -4.345614529774139534e+00 5.962393429375661746e+00 -1.792942974321218600e-03 6.223052741669103050e+00 6.310826225881770668e+00 -3.564127410965297393e+00 6.593520169752564719e-01 -2.831471016862124213e+00 1.734492419688838716e+00 4.495384639964060014e+00 3.138184392808118783e+00 -5.326641720584080808e+00 -2.933135206883720425e+00 -4.177540953488871889e-01 2.469215022416660243e+00 2.955870659261371269e+00 7.018827933490272564e+00 -3.235141761927349702e+00 -3.849303378564834066e+00 -2.037122968682960611e+00 -5.037795392564659913e+00 -5.677261223315085203e+00 5.936913501029646767e+00 1.860742314014021959e-01 1.487593102021231850e+00 -6.510204922602119026e+00 -2.285481581920977057e+00 -4.762194024095236955e+00 -4.038618277059510930e+00 1.677920960508882120e-01 5.260737120286488100e+00 4.945601517424964122e+00 2.471665592203597939e+00 -1.457290025798475330e+00 2.069322459069421749e-01 3.854004604516010790e+00 -3.093147738312969519e+00 -4.414193325341225993e+00 4.956654032176623481e+00 5.343774688761235403e+00 -7.076616819469139230e+00 -8.812324468478126560e-01 -4.312570526074737676e-01 -6.731839313872443498e+00 -3.066033178033672701e+00 2.013840264171864902e+00 -6.141164827915680746e+00 4.955600949447227066e+00 -4.346504446153622858e+00 -5.781769508160619075e+00 2.177638377161060124e+00 1.518158647776960191e+00 -3.255249229868694361e+00 -4.211663929175308851e+00 4.892771872373208097e+00 -3.138960973357782347e+00 2.424419512168828561e+00 2.085429216052245405e+00 6.109931297277831241e+00 -1.667840031420642521e+00 -1.321836240083635872e+00 1.698186093551138365e+00 -8.206412195638531637e-01 1.763907295312003631e+00 -4.984513341388323582e+00 -2.043047688565909237e+00 2.083856887300789218e+00 -5.989565346725481021e+00 4.463969437070487878e+00 6.968673590312271848e+00 -5.855903601722442176e+00 4.975346590088031817e+00 -6.592045773487812177e+00 -3.954108607941437814e+00 -7.129131761585597360e+00 -1.078332423721067301e-01 -1.833541435279018250e+00 -6.770589514650585450e+00 3.083425782106451685e+00 6.037893807018858361e+00 6.876848031689831942e+00 -1.639405992803875112e+00 -3.520446845517751999e+00 -4.331220444595010655e+00 3.093217621055316044e-02 -2.897926617950638661e+00 -1.511759906584682733e+00 3.600474362709145559e+00 -6.972287597718655583e+00 1.897842047631327800e+00 8.434745217040529042e-01 2.220211098153952456e+00 -3.870802533382571298e+00 2.245060922467672082e+00 4.227926133007118281e+00 -4.176275227532693535e+00 -6.010563187916027950e+00 2.125827252298220227e+00 -4.965645424766764293e+00 9.883026989194391154e-01 7.044080918495112087e+00 6.410866538441519324e+00 -6.655196971721327515e+00 -1.891186771366512920e+00 6.095106283275120163e+00 2.713841400026838713e+00 9.846261538761671428e-01 -3.679143588653105645e+00 2.937551110130408816e+00 3.906360537016593248e+00 -6.638564329628313665e+00 5.890420423908220293e+00 3.793073780317429700e-01 3.479737835670831725e+00 -5.841043117833859100e+00 2.469807206858604332e+00 3.865014809725714207e-01 4.812820975941330404e-01 -1.657306065603049383e+00
