-1.249435026049878078e-01 -1.499682684603500238e-01 -5.090704128818038243e-02 -9.847863791228251840e-01 -6.624643259130740258e-01 1.301781093101585796e-01 1.346830185796809576e-01 2.758830480055342593e-01 1.023081258349228140e+00
1.026634970968061555e+00 -5.140832135100029676e-01 6.066631577076834203e-01 9.322507005090161503e-01 -7.822351722022257148e-01 5.327344310019079821e-01 -2.748145604728594593e-01 -4.615272871434242252e-01 4.687172877910613100e-01
2.257497397915483317e-01 5.576943867260621968e-01 2.600203025486378938e-01 -9.073557332485793214e-01 1.023276070845464458e+00 5.276269002977368450e-01 -2.127505969504405459e-01 -6.641368385608625857e-01 2.429496558334565681e-01
-6.078815756898059419e-01 -2.740088268235544300e-01 1.580844626831138799e-01 -4.596397590974267144e-01 9.019504482182157112e-02 9.925912896554003884e-02 8.690509420163256005e-01 -2.887686895879118532e-02 1.930024433513587989e-01
1.601503179271064337e-01 3.017773691274058256e-01 6.397615012505000198e-01 1.030987589099996715e-01 -8.903735029798857115e-01 6.400808056002783575e-01 3.996641572195439029e-02 2.091245763434483595e-01 1.014669637264373980e+00
